nep4 2 Ga O 
cutoff 6 4 418 127
n_max 8 8
basis_size 12 12
l_max 4 2 0 
ANN 100 0
  2.9592386e-01
 -4.4494802e-03
 -2.8303945e-02
 -3.3331239e+00
  2.7036873e-01
  1.0943735e+00
 -2.3816207e-02
  1.0023807e+00
  1.4354380e+00
  5.2235596e-02
 -1.8743038e-02
  1.0800601e-03
  1.6721747e+00
  8.1983665e-03
 -1.3854844e-02
  1.4245212e-02
 -7.9951957e-02
 -3.7693377e-03
  2.5335986e-02
 -2.0231051e+00
  3.9877695e-01
  3.8989512e-03
  1.9967686e-01
  5.2440385e-03
  1.8138822e+00
 -1.9182647e+00
  5.4950915e-02
 -3.2993451e-01
 -3.7765296e+00
 -4.7076087e-02
  5.8504379e-01
  4.0800670e-01
  6.2374991e-01
 -5.5727398e-01
  9.9901247e-01
 -4.1176763e-01
 -7.8025287e-01
 -7.8913152e-01
  5.2578431e-02
 -6.5708691e-01
  4.9232256e-02
 -6.4107913e-01
  2.5455215e+00
 -4.5871678e-01
  3.9624161e-01
 -1.0143274e-01
 -7.2571300e-02
 -8.7380066e-04
  6.8350896e-02
 -2.8411970e-02
 -1.6529466e-01
 -1.8658025e-02
  3.0160123e-01
 -2.1961944e-02
  2.0734442e-02
  1.4748173e-02
  7.0759100e-03
  6.2083122e-03
  1.1863723e-01
 -1.7375072e-02
 -7.7385142e-02
  3.2770182e-03
  3.9959871e-03
 -2.7912766e-02
 -5.5376249e-03
 -8.5900957e-03
  9.7186103e-02
  3.8508070e-04
 -1.7904146e-03
  2.4230234e-02
 -1.6319236e-03
  2.2020442e-03
 -6.0260453e-04
 -8.4012235e-03
 -4.5458796e-03
 -5.5805340e-02
  1.3969251e-02
 -2.5596380e-02
 -1.0380941e-01
  7.8983363e-03
 -6.9842823e-03
 -7.0257105e-02
  1.5757192e-03
  6.5705478e-02
  2.1059740e-02
 -2.4288366e-02
 -8.3450861e-02
 -2.5468288e-02
 -8.5405316e-03
  1.0600923e-02
  7.3458347e-03
 -5.1163077e-02
  5.8855940e-02
 -1.3695906e-03
  6.1801109e-02
  1.9396538e-02
  3.5308249e-02
 -4.5534790e-02
 -1.3826115e-03
 -1.6181759e-03
 -7.6434440e-03
 -9.0733176e-04
  1.0218053e-02
 -4.1103261e-04
  5.8990350e-04
  6.9015624e-04
 -6.4454558e-05
 -2.3964904e-03
 -1.5469366e-02
 -1.4757105e-02
 -5.0231339e-03
 -2.1311371e-03
  4.2084632e-03
  9.5316824e-03
  2.2707831e-02
 -1.9770785e-04
 -2.9442845e-02
  5.1173057e-02
 -2.6729552e-02
  4.4077369e-03
  2.2315660e-03
  6.0637784e-04
  2.1137604e-03
  7.0453811e-05
 -4.5701325e-02
 -2.3758756e-02
 -8.8453246e-04
 -3.9361063e-03
  3.0464027e-02
 -1.0296141e-01
 -1.3339608e-02
 -8.3047291e-03
 -6.2019113e-03
 -2.5684739e-02
 -7.8793159e-03
 -3.5434452e-01
 -5.3780094e-02
  5.4935403e-03
  2.9444626e-02
  3.2046739e-02
  8.3733853e-03
 -7.4835047e-02
 -2.3105893e-02
 -4.5311661e-03
 -3.8114019e-02
 -3.1458471e-02
  4.3190345e-01
 -5.4042498e-03
  5.6050703e-02
 -7.0750300e-04
  3.6655411e-02
 -2.0224137e-02
 -3.3059925e-02
 -2.3636471e-03
 -7.6748559e-04
 -3.7405200e-04
  8.7821449e-04
 -6.2399916e-04
  1.5873316e-04
 -1.2165373e-03
 -4.9611356e-04
 -7.3929748e-04
 -3.9766133e-03
 -4.9874209e-02
  8.1603499e-03
  1.7583175e-02
 -2.7250257e-04
  4.8758790e-02
 -1.4204040e-02
 -8.9682443e-03
  7.8735046e-02
 -2.5740461e-02
 -3.4691454e-04
  1.2037702e-02
 -3.6081739e-02
 -1.2971186e-03
  8.4690182e-03
  3.0601742e-03
  1.6571464e-02
 -1.8790860e-03
 -1.5622806e-02
 -1.6331695e-01
  6.8117745e-02
 -1.5563385e-01
  1.5006567e-03
  2.3815160e-06
  1.6865760e-02
 -3.5735071e-02
 -4.8814818e-02
 -1.9630406e-02
 -5.8871009e-03
  5.8111079e-02
 -1.4494496e-02
 -9.3809053e-02
 -7.9617612e-03
  8.0798296e-03
 -2.0336766e-02
 -1.6586654e-03
  1.8211676e-02
 -7.5160540e-03
  6.5835845e-03
 -2.4618683e-02
  5.5799488e-02
 -3.0360866e-02
  6.6686042e-02
 -1.6343281e-02
  2.0759592e-03
 -4.4903867e-03
 -1.6453119e-02
  1.2739347e-03
 -6.0417794e-04
  7.2604096e-03
 -1.1834408e-03
  7.5825574e-03
 -5.2421592e-04
 -1.5709285e-03
 -2.0002568e-02
  3.7976624e-03
 -3.1334687e-02
  1.0512751e-02
 -1.4811108e-02
 -5.3676676e-02
  1.3555435e-02
 -9.5210265e-04
 -9.6245268e-03
  1.1360705e-02
  3.2501955e-02
  4.9629754e-05
 -2.3043610e-03
  9.6016454e-05
 -7.8970037e-04
  7.0638875e-03
 -5.8091301e-02
 -1.2886182e-03
 -1.7924830e-02
  1.7009439e-01
 -3.8195616e-03
  5.3865883e-02
  3.4913309e-02
  2.8013995e-02
 -3.7085505e-03
 -1.3517972e-02
 -4.0504325e-02
  1.4803397e-02
 -3.0803578e-03
 -2.3935081e-02
 -2.8622074e-02
 -4.7516637e-03
  5.3136837e-02
  1.2837249e-01
  5.4117803e-02
  6.0559204e-03
  4.5223635e-02
  1.0472839e-02
 -4.3549970e-02
  1.3744612e-02
 -6.6640392e-02
 -5.9607468e-04
 -9.6474215e-02
  8.5133789e-03
  1.8387197e-02
 -1.5223287e-03
  1.7946625e-04
  1.7993487e-03
 -9.8104179e-03
  4.0907174e-04
  2.4537528e-03
  1.1017603e-02
  3.4989016e-03
 -1.9058980e-02
 -1.4496805e-01
  2.5997257e-02
  1.8286631e-02
 -6.5908842e-03
  1.5825966e-01
  2.8949447e-02
 -2.3807308e-03
  7.0217266e-03
  1.0452932e-02
  2.1598076e-03
  2.8653264e-02
 -7.5244019e-04
 -1.4381076e-02
 -1.8685843e-03
  6.0288212e-03
  8.5027204e-06
  4.8760252e-04
  4.0926333e-04
  4.1107554e-02
  2.7772006e-02
 -6.5184953e-03
 -3.4484372e-03
 -1.1508408e-03
 -4.1941352e-02
 -4.7055795e-03
  1.8555498e-03
 -1.9295571e-02
  3.9126576e-04
  6.1313165e-03
 -4.8067432e-02
 -2.4269788e-02
  1.2467042e-02
 -2.1442664e-03
  1.4476223e-01
  2.5347207e-02
 -5.3943601e-03
 -3.3406543e-03
 -1.5921546e-02
  8.6160877e-04
 -9.4994600e-04
  2.9328821e-02
  9.7982315e-03
 -8.3185127e-03
  4.5760129e-02
  3.8717340e-03
 -3.7504555e-04
  9.1572385e-04
  9.1019843e-04
  3.8797089e-03
  9.6545857e-04
  2.7212170e-03
 -1.5397822e-04
  8.4144081e-04
 -2.4908429e-04
 -8.7871095e-03
  1.6467540e-02
 -2.2924760e-02
  1.4314017e-02
 -9.8370900e-03
 -1.6370345e-02
 -6.8720332e-03
  8.3971992e-03
 -1.0183431e-02
  2.4678426e-02
  9.3203738e-02
 -1.5970798e-03
 -4.4870619e-03
 -2.8026141e-03
 -1.3173620e-03
 -1.4695565e-02
  9.7721769e-03
 -6.6930051e-03
  2.8776020e-02
 -6.6565773e-03
 -1.0994268e-01
  1.4634166e-03
  3.1344857e-02
  6.8891339e-02
  7.6723672e-02
 -1.0388915e-02
  5.5162478e-02
  1.7567832e-02
  2.5428718e-02
 -4.1217621e-02
  1.2273014e-03
 -1.5372749e-03
  5.3328089e-03
  1.3761664e-02
  5.2404344e-02
  4.3534044e-02
  7.7205086e-03
  2.8918656e-02
 -6.0879961e-03
 -2.9194441e-03
 -1.8948475e-02
 -2.7637423e-03
  1.2871968e-02
 -2.5204753e-03
  3.0437103e-03
  1.3631310e-03
  8.8714552e-04
  2.1103416e-02
  1.5308990e-04
 -1.7332387e-03
  1.2945898e-02
  5.1573371e-03
 -6.9724815e-03
  3.1574967e-04
 -4.0832502e-03
  1.3721840e-02
  2.0452270e-03
  1.4627494e-02
  1.4838929e-02
  2.4818780e-03
 -6.3520926e-03
  3.4605167e-03
  4.8757911e-02
 -3.7986827e-03
  3.3187285e-02
  1.2251717e-02
 -1.0447327e-02
  3.2655303e-03
  4.0758215e-04
 -2.3883885e-02
  2.8097527e-02
 -1.8247018e-03
 -4.7976192e-02
 -3.7450500e-02
  5.0847828e-03
  1.3600647e-02
  4.1388758e-02
 -2.1877995e-02
 -1.4114435e-03
 -3.3621669e-03
  2.0451738e-02
 -8.8987527e-03
  2.8696563e-03
  1.0572489e-02
  1.6148370e-02
 -1.0791878e-02
  1.5504195e-02
 -3.0343118e-03
 -1.4590368e-02
  6.7311400e-03
  7.6527880e-03
 -7.6091006e-02
 -1.1622900e-02
 -2.4417218e-02
  2.2192342e-02
  4.2400891e-03
  1.0520688e-01
 -2.9343886e-02
 -7.1224538e-03
 -2.3431191e-03
  9.4022723e-03
  2.2822175e-02
 -2.3142367e-03
 -1.3126222e-03
  1.4830368e-03
  5.1207985e-03
  1.0124817e-02
  2.9031566e-04
  1.7664251e+00
  7.8045392e-01
  6.5786428e+00
 -1.8810971e-01
 -2.4645281e+00
  7.4072689e-01
 -8.8742989e-01
 -2.2346072e+00
  2.5234585e+00
 -1.0505081e+00
 -6.9994755e-02
  3.6115642e+00
  2.2574477e+00
 -2.3196061e-01
 -8.1661177e-01
  2.3673201e+00
 -1.7351691e-02
 -6.0941551e-02
 -9.1617681e-02
 -1.0454286e+00
  3.5241520e+00
  3.3636707e-01
 -7.7055359e-01
  5.1017720e-03
  2.2418342e+00
  1.8559490e-01
  1.4129029e-02
  2.0070019e+00
 -9.6435970e-01
  3.3010762e+00
 -2.6613003e-01
 -1.0274457e+00
  1.1299245e+00
  1.3604933e+00
 -1.6274719e+00
  1.0128638e+00
  7.2675061e-01
 -2.8460410e+00
  8.2527554e-01
  8.9686853e-01
 -9.2436808e-01
  1.0840018e+00
 -9.2895103e-01
  3.1544578e-01
 -8.5830045e-01
 -2.9218486e-02
 -2.9768173e-03
  1.2223164e-02
  8.1193196e-03
 -1.7924750e-02
 -5.4854572e-02
  8.8109618e-01
 -9.4813593e-02
 -2.6536595e-02
 -1.8228550e-02
  6.8783606e-03
 -1.9961283e-02
  1.7580942e-03
 -1.2310226e-01
  5.5861924e-02
  6.4080767e-02
  4.5466430e-02
  4.3242052e-03
  1.2279401e-03
 -5.0051516e-05
 -2.4539385e+00
 -1.6348822e-03
 -3.9917029e-02
 -1.0153234e-03
 -2.0402169e+00
 -3.6453668e-02
  5.0788503e-02
  3.5701916e-02
  1.5822913e-02
  1.4175856e+00
  1.0156181e-02
 -2.6020738e-03
 -3.5649683e-02
 -4.3668918e-02
  2.2301411e-03
  8.3732188e-02
 -4.3851379e-03
 -4.0746662e-03
  3.4258916e+00
  6.3134067e-02
  1.4572749e-02
 -1.4584213e+00
 -2.0831211e-01
  1.9517682e-01
  8.4343754e-02
 -8.0172795e-01
 -1.7853531e-03
  1.5621758e+00
 -2.0550779e-01
  9.9211475e-03
 -2.2280551e-01
 -1.0510191e-01
  1.0340820e-02
 -6.4771779e-02
  2.6821049e-03
  5.7928720e-03
 -1.7230263e+00
 -2.1482431e-03
 -5.9951977e-03
  3.1107789e-01
 -9.2123479e-01
 -1.2201681e-03
 -1.2358725e-02
  6.4059845e-03
  4.2239968e-02
  8.2746893e-03
 -5.3786505e-03
 -1.7519595e-02
 -1.8255875e-02
  6.1686272e-03
  2.6785642e-02
  2.0423880e-02
 -3.4666788e-03
 -1.2476749e-02
  2.2010030e-03
  5.7004839e-03
 -1.2544617e-03
 -2.6123563e-04
 -3.1853721e-02
  4.6472689e-03
 -7.8520672e-03
 -9.3756570e-04
  6.3484814e-03
  5.2769087e-02
 -5.3964023e-02
  3.1218361e-03
  1.6620521e-02
 -1.2474792e-02
  1.0830152e-02
  1.9180395e-03
  4.7319573e-03
 -1.3512180e-02
  7.4584849e-02
  2.9564904e-02
 -5.0934982e-03
 -1.0801917e-02
 -1.4388005e-02
 -1.2150529e-02
 -1.8529613e-02
  6.2249289e-03
 -6.8470783e-04
  1.1682004e-01
 -7.2988844e-03
  1.6227845e-02
  3.0790681e-02
  4.4034772e-02
  1.8156371e-03
 -1.1079123e-04
  5.2761082e-03
 -1.2165954e-02
  2.0559703e-03
 -8.2469766e-04
 -5.0737720e-04
 -1.2498478e-02
  1.6772863e-02
 -2.0628422e-02
 -2.0865467e-03
 -7.8123063e-03
  4.9874512e-03
 -9.3395486e-03
  2.7166868e-03
  2.1870920e-02
  5.2422481e-03
  2.3021167e-03
 -1.6139159e-02
 -2.6203625e-02
 -6.9920500e-03
 -1.7510088e-02
  2.6964864e-02
 -1.0490902e-02
  1.3760512e-04
 -1.0455070e-02
  1.8903648e-02
  3.9701066e-03
 -3.3162385e-02
 -3.4281828e-02
 -1.1986951e-02
  9.9820876e-03
 -4.1562237e-02
 -3.8508210e-02
  2.2957854e-02
 -5.8549796e-03
  2.6186833e-02
  1.1078611e-03
 -2.3248052e-02
  7.4209962e-03
  2.7484722e-02
 -6.5310253e-03
 -6.9634025e-03
 -9.5226131e-03
 -4.9937122e-02
 -2.3613736e-02
 -1.8128419e-02
  9.4349114e-03
 -2.5041705e-02
 -2.2346075e-03
 -1.7609240e-02
  1.4801614e-02
  1.2322176e-02
  6.2161222e-02
 -7.9715508e-04
 -8.5256286e-03
 -1.2009347e-05
 -3.5367899e-03
 -7.4271427e-04
  3.6877047e-02
  3.9101427e-04
  1.5125140e-03
  6.8868296e-03
 -1.8192818e-02
 -1.6565649e-02
 -3.7259564e-02
 -8.1616137e-03
 -1.8580494e-02
  1.2869468e-02
  4.4845282e-03
 -3.3860223e-03
 -2.5736541e-02
 -3.2209444e-03
  4.1326584e-04
 -8.6358085e-04
  2.3327105e-02
 -1.9988262e-03
  2.3972580e-02
  8.8716913e-03
  3.2335790e-04
  2.5754863e-02
  3.8716514e-02
  5.5969241e-03
 -1.3454765e-02
  1.6750114e-02
 -2.6622670e-02
  1.7154777e-02
 -3.0662809e-04
  1.0702522e-02
  5.6595337e-02
  1.3921745e-03
  9.9773826e-03
  6.5726931e-03
  8.7507591e-03
 -2.3733456e-02
  1.6589954e-02
  5.5631585e-03
  1.2267421e-02
  1.9921187e-02
  8.0661541e-03
 -3.5748687e-03
  6.3371385e-04
  1.2153042e-02
 -1.3920702e-02
 -3.5986386e-03
  2.5395252e-04
 -9.7704148e-03
  1.0257089e-02
 -1.6008393e-04
  1.8772495e-05
 -1.5463430e-03
  5.8594566e-02
 -1.6519442e-04
 -2.0423759e-02
  4.5951279e-03
  1.2153166e-02
 -9.2559204e-02
 -1.0465037e-03
 -6.8225735e-03
 -3.2978188e-03
  5.2648020e-04
 -4.2292415e-03
  2.0590695e-02
 -5.9472164e-05
 -9.2425933e-03
  9.0019302e-03
 -6.7184945e-03
  6.5906513e-03
 -1.6695311e-02
 -3.4980230e-02
  2.8586218e-03
 -1.1120184e-03
  2.4889980e-02
  5.5776867e-03
 -1.6427608e-02
 -1.4034125e-02
 -3.9927317e-03
 -4.8330864e-03
 -9.1161579e-03
  2.9818529e-02
 -2.8833475e-02
 -1.1150979e-02
 -1.3963049e-02
  8.1455782e-02
 -3.8328607e-02
  3.3150760e-03
 -3.3813249e-02
  4.7946204e-03
 -1.7015124e-02
 -4.9067875e-03
 -1.7152315e-02
  1.3597818e-02
  9.4783893e-03
  1.2073495e-03
 -3.2997970e-03
  1.6713038e-02
  3.8222633e-03
 -1.3417458e-02
 -4.4977320e-03
  4.8370590e-03
 -1.5479057e-03
  1.8967204e-04
 -1.1589183e-05
  3.4296147e-03
  5.5718271e-04
 -1.0304190e-01
 -4.6658530e-03
  6.6663348e-03
  1.8217883e-03
  2.2203685e-03
 -2.6786668e-02
  3.4631353e-03
  1.9200201e-04
 -1.1180685e-01
  2.3105128e-01
  2.1892676e+00
  1.4028220e-01
  2.0701795e+00
  2.9493243e-01
 -6.1812836e-01
  8.7110168e-01
  3.1751013e-01
  2.3101342e-01
 -3.2934014e-02
  5.9687424e-02
  1.8393670e+00
 -1.9399025e-02
  1.0468490e+00
 -5.5663455e-03
  2.1167807e-02
  3.6356679e-01
  7.2000247e-01
 -2.6997945e+00
  1.2120789e+00
  1.0942439e-01
  1.2723980e+00
 -5.5188065e+00
 -7.2901148e-01
  7.0578063e-01
  4.1897973e-01
  5.3976738e-01
 -2.0109854e+00
  1.5215050e-02
 -2.4400246e-01
  2.4456031e+00
 -2.1253781e-01
 -5.5886203e-01
  1.3932869e+00
 -2.7824473e-01
  1.3238852e-01
 -3.7259731e-01
  1.7267139e+00
 -8.2919711e-01
  2.0013256e+00
  2.8393134e-01
 -1.1456913e+00
  1.2668617e+00
  4.8347867e-01
  8.3464272e-03
 -3.4243988e-03
 -5.8779460e-03
  8.9587349e-01
 -4.9356055e-02
 -7.6789841e-02
  8.3769336e-02
 -1.3726509e-01
 -3.1983647e-02
  4.3530567e-04
 -1.5759822e-02
  5.0313417e-03
  1.5020304e-03
  2.6757142e-02
  5.0939983e-03
 -1.2906514e-02
  1.9214562e-03
  4.6880879e-03
  4.6713166e-03
 -9.4770724e-03
  1.9208743e-01
 -1.3269382e-02
  2.0717302e-02
  3.0694196e-03
 -5.7382393e-03
 -1.9846782e-02
  8.6961263e-05
 -1.4930064e-02
 -2.7622156e-02
  2.1195255e-02
 -4.4655702e-03
  1.1555766e-03
 -2.4391571e-04
 -7.8875422e-03
  1.1117213e-02
 -2.3846820e-03
 -7.3180082e-03
 -9.1524040e-03
 -6.4734183e-02
 -4.7366917e-03
 -6.8998048e-03
 -1.4505208e-02
 -1.7429730e-01
 -7.1525536e-03
 -1.9290603e-03
 -4.4079345e-02
 -1.5753995e-03
 -1.5553115e-03
 -8.4493915e-03
 -8.1741210e-04
  5.4759639e-03
  8.0173858e-02
 -1.7229004e-02
  9.2822989e-04
 -3.1786010e-02
 -1.5895300e-03
  5.7168346e-02
 -2.0042208e-03
 -2.5575345e-02
 -2.7578209e-02
  2.5215743e-03
 -2.2758010e-03
  3.3614782e-04
 -1.0087973e-02
 -8.4948428e-03
  5.9478302e-03
 -4.0770266e-02
  1.1110933e-02
  2.0173038e-03
 -1.8202299e-02
 -1.8853454e-02
  2.0436435e-03
 -3.6113180e-02
  1.1016778e-03
 -1.8994823e-03
  6.3176011e-03
  4.8426804e-03
 -1.3661985e-01
 -6.4369934e-03
 -3.1533491e-02
 -8.6732471e-04
 -6.7993454e-03
 -3.1719981e-03
  5.4981131e-02
  1.0645780e-02
 -6.4504365e-03
  1.7581543e-02
 -3.1237215e-02
 -1.9375561e-02
 -1.5044735e-03
  1.0060828e-02
  2.1231020e-02
  8.2633905e-02
 -8.1936019e-03
 -1.7453996e+00
 -4.2771203e-03
 -9.5265709e-02
  1.2331826e-02
  8.1155701e-03
  2.3091871e-03
 -2.9301706e-05
 -8.4277964e-04
 -3.4715906e-03
 -2.5382804e-02
 -1.7463684e-03
 -1.0478008e-02
  1.1287827e-02
  5.3202198e-03
  3.0222104e-04
 -5.4675550e-03
  9.5925853e-02
  3.4020510e-02
 -8.5553422e-04
 -1.5052328e-03
  1.4213107e-02
 -8.7552397e-03
 -3.3740520e-03
 -5.4760450e-03
  7.1622588e-04
 -2.2739217e-02
  5.4440461e-03
  1.1786090e-02
  1.0506609e-02
 -1.0193571e-02
  1.8121723e-02
 -1.0839330e-02
 -3.0209899e-03
 -3.2096780e-03
 -1.6482739e-03
  1.5104772e-03
  2.7930171e-03
  5.1826611e-03
 -1.0433991e-02
 -1.1351971e-02
 -2.9659098e-02
 -5.0370354e-04
  6.7467708e-03
  1.8865777e-03
 -1.2062337e-02
  5.4234578e-03
 -5.4159440e-02
 -4.0955991e-02
  2.1073746e-02
 -1.2513544e-02
 -3.8934783e-03
  1.2781199e-03
 -1.9526931e-03
 -9.3418863e-03
  2.5082459e-03
  1.1035006e-03
 -5.9296396e-03
  1.9103251e-03
 -1.7051013e-03
  7.8452779e-03
  1.2540834e-03
  3.4208193e-02
  2.7149590e-04
 -2.0483557e-02
  7.5548310e-03
 -8.7883426e-03
  3.2783465e-03
 -1.2441427e-02
 -3.9405093e-04
  1.6386839e-04
  7.8477059e-04
 -9.4713736e-04
 -3.7446094e-03
 -1.5517100e-04
  9.5514972e-03
 -2.1155863e-03
 -2.6030056e-03
 -4.6918131e-03
  4.2665042e-03
 -1.9881630e-02
 -2.4656849e-02
  1.4439585e-02
  1.0758491e-03
  3.1257914e-03
 -1.0387709e-02
  2.2155957e-02
 -2.4794983e-02
 -3.0716786e-03
  5.3839828e-04
  5.7729385e-03
 -1.2373722e-04
 -3.8013239e-03
  2.7015855e-04
  8.1094038e-03
  7.5669670e-03
  1.9967274e-03
 -1.1507669e-02
  6.0321472e-04
 -1.5849750e-01
  6.9631026e-03
  2.4300713e-02
 -2.2936063e-03
 -9.2737898e-02
  1.2690014e-03
 -5.9236459e-02
 -1.2204565e-02
  1.6185416e-02
 -7.1991928e-04
 -5.4170936e-03
 -2.0974504e-03
  2.6665764e-02
 -3.4842403e-03
  1.6948920e-02
  1.2719873e-02
 -7.5077028e-03
  3.7932463e-03
 -1.7290870e-03
  2.0293318e-02
 -1.0169256e-02
  4.1285772e-02
 -1.2515675e-02
 -4.2693703e-03
 -5.5845613e-03
  1.3926988e-04
  2.8440330e-04
  1.5964522e-03
  3.0344952e-05
 -1.0367367e-02
 -4.3198673e-04
  6.8389704e-03
  2.5464206e-03
  2.2621226e+00
 -9.3991542e-01
 -6.1257136e-01
  1.2515653e+00
  4.7752178e-01
 -3.1780977e+00
 -4.9534612e-03
 -2.6810966e+00
  1.3425493e+00
 -1.3146546e-02
  6.3431464e-05
  9.5483903e-03
 -1.6817586e-02
 -7.3996107e-03
 -1.0417692e-02
 -1.6319653e+00
  4.6127848e-03
  9.2274696e-02
  9.4189057e-03
 -2.1753989e-02
  7.8089637e-01
 -3.6268588e-02
 -5.7716880e-02
 -7.0751528e-03
 -1.5111529e+00
 -5.6962855e-04
 -1.2802098e+00
 -5.1086861e-01
  1.2459385e-02
 -2.0214523e-01
 -5.7004786e-01
  1.0958637e+00
  2.9917996e+00
  9.7543627e-02
 -8.5899425e-01
  3.7472999e-01
 -1.0531265e-02
  4.4055872e-02
 -6.8606132e-01
  1.5759079e-02
 -3.7624236e-02
 -1.1651834e+00
  1.4648248e-01
  1.7351707e+00
  4.4911212e-01
 -2.9892523e-02
 -4.9129914e-04
  1.0102877e-03
 -1.4185343e-03
  3.5716390e-04
  2.1642387e-02
  1.0708747e-02
  3.4904138e-03
  3.3790266e-04
 -4.2083740e+00
  3.5981923e-01
 -8.7282312e-01
  1.1511559e+00
 -1.1449420e+00
  3.5888565e+00
  1.0748465e+00
  1.2746571e+00
  3.2993555e-01
  4.3362927e-02
  1.8512803e+00
  1.2183440e-02
  4.7058371e-01
 -1.2099463e-01
  2.8157208e-02
  2.3858853e-01
  6.7825146e-02
  3.0655079e-02
 -5.9099246e-02
 -1.1108857e+00
 -1.9876024e-01
 -5.7912207e-01
  6.4249329e-02
  2.3634002e+00
  2.0387499e+00
 -4.5259386e-01
  2.2532890e+00
  1.1051625e+00
  5.8022177e-01
  3.1989851e+00
 -7.6256752e-01
  6.8827290e-03
 -8.2462972e-01
  1.8273034e+00
 -5.5142117e-01
  1.2454501e+00
  6.4125758e-01
 -2.5911877e-01
  9.6563995e-01
 -2.5740480e-01
 -1.5475290e-01
  1.1589540e+00
 -3.1148353e-01
  2.7705264e-01
  6.0682631e-01
 -1.1116506e-01
 -2.5580984e-02
 -8.2456326e-04
 -3.5939935e-01
 -3.5801146e-02
 -9.4364658e-02
  3.3778563e-02
  4.2118034e-01
  1.2935022e-01
  1.3940577e-02
  1.2854236e-02
  3.7681699e-02
  2.4687413e-02
  2.0521441e-02
 -7.0410999e-03
  3.1623587e-03
 -2.3599039e-04
  7.0109973e-03
 -5.3815704e-02
  2.7125979e-02
  1.7718494e-02
 -3.8319211e-02
 -2.9785553e-04
 -5.8296355e-05
  3.2488707e-02
 -1.6235165e-02
 -4.8214174e-04
  1.1559144e-02
 -4.2921305e-03
  7.3115438e-02
 -4.8551861e-02
  1.9178813e-02
  4.9883560e-03
  3.4134162e-03
 -1.0316376e-02
  1.0041660e-02
 -2.2814656e-02
  1.4491388e-02
  1.6477818e-02
 -3.0684199e-03
 -7.9683904e-03
  2.9700052e-03
 -7.6985434e-03
 -4.8360962e-02
  6.3732252e-03
 -2.1509333e-02
  3.1240559e-03
 -1.6423382e-02
 -1.1477259e-02
  1.1454459e-03
  2.3402387e-02
 -5.4303473e-03
  7.8949304e-03
 -1.5202267e-02
  3.5332810e-02
 -1.8611121e-03
 -1.5398656e-02
  4.3328740e-03
 -8.5650384e-04
  2.2633823e-04
 -1.4798681e-03
 -2.7674748e-04
 -3.0323104e-03
 -4.7660167e-03
 -3.4634852e-01
 -1.8688021e-03
  1.4226453e+00
  7.2500575e-01
 -1.2865774e-01
 -6.5574760e+00
 -4.7020805e-01
  1.3354636e-03
 -3.0397631e-03
  2.5437558e-03
 -1.0663942e-02
  3.7637651e-02
  7.0981570e-03
  2.9424582e-02
 -7.0419274e-02
 -2.4796534e-02
  3.0940762e-02
  1.4766166e-03
  9.4015789e-01
 -4.4087812e-01
  7.9926746e-03
 -5.8837350e-02
  4.1525667e-03
 -1.4756167e+00
 -2.7973442e-03
 -6.1310038e-02
  5.3042858e-03
 -1.4059166e-02
 -1.1237122e-01
 -2.8018674e-01
 -2.8897554e-01
  4.2749956e-01
  2.6812279e-01
  8.2053408e-02
  1.6696159e-02
 -4.2808032e-01
  2.5094537e-02
 -3.5376397e-01
  1.6396251e-02
 -9.3376748e-02
  3.9185166e-01
  5.6382217e-02
  1.8401196e-02
  6.6825926e-02
  3.0781797e-03
  1.3171700e-03
 -2.5307264e-03
  3.1756680e-04
  7.5894915e-03
  2.8846525e-02
  1.5989161e-03
 -8.8416813e-03
  5.8940705e-04
  8.4412713e-03
  1.8138397e-02
  8.4105693e-04
 -3.4211006e-03
 -6.9969683e-03
 -6.1768675e-03
 -7.8314357e-04
 -1.0155600e-02
 -9.5921278e-04
 -2.5483280e-02
  4.3030092e-03
  1.2070170e-02
 -9.4812615e-03
  5.4514682e-04
  5.8439304e-03
 -6.4379103e-03
 -1.2880006e-02
 -8.6743340e-02
 -1.1285122e-02
  1.1685090e-03
  1.4700853e-02
 -5.9488392e-03
  6.8078400e-04
  2.6002375e-02
 -1.5672436e-02
  4.3752152e-03
  1.7064633e-02
 -1.2043085e-02
 -1.9314951e-04
 -3.8426928e-02
  3.5217921e-03
 -7.7624479e-04
  2.5904928e-03
 -9.2961889e-04
  2.4074370e-03
 -3.8011752e-03
  5.0375727e-03
  3.3180735e-03
 -3.2355716e-03
  1.3441807e-03
  1.0705567e-03
 -1.8491808e-02
 -6.8168449e-03
  1.0355791e-02
  9.1898227e-03
 -2.7735769e-03
 -3.1666611e-03
  7.0057249e-05
 -1.1065080e-02
 -3.9568965e-04
  1.8189061e-03
 -9.5103504e-03
 -3.6689927e-04
 -5.0196303e-03
 -6.8204373e-02
 -6.8441784e-01
 -1.8667916e+00
  1.2656358e+00
 -3.9757535e+00
 -1.5571395e-01
 -4.3339634e+00
 -2.2450461e+00
 -2.0659194e+00
  4.4560153e-03
  3.7511852e-02
 -4.8779273e+00
 -1.2700715e+00
 -1.2664720e+00
 -9.3982615e-02
  7.7879047e-01
 -3.9578218e+00
 -8.5569763e-01
  6.2574297e-01
  1.8074350e+00
 -1.6855553e+00
  1.0765818e+00
 -3.5329909e+00
  1.2107455e+00
  1.1621504e+00
 -2.1036129e+00
 -1.2194524e+00
 -1.7489831e+00
 -1.7177196e-02
 -2.4219429e+00
 -5.9692365e-01
 -1.7115376e+00
 -1.5281822e-01
  5.2203417e-01
 -1.4962688e-01
  3.2146743e-01
 -1.7490914e+00
 -1.9087145e+00
 -1.1005483e+00
  2.1681895e+00
 -3.4526391e+00
 -1.4169943e+00
  9.0143156e-01
  5.9917814e-01
 -1.8021042e+00
  4.9946673e-02
  4.6466608e-03
 -9.2116320e-01
 -5.3998321e-02
 -5.8268853e-02
 -3.2647569e-02
  8.9759821e-01
  2.8798991e-01
 -1.0895342e-01
 -5.3968611e-03
  1.5533916e-03
  1.0106080e-03
 -2.2636650e-03
  9.6148187e-03
 -1.6291012e-03
 -2.7598438e-03
 -3.1282296e-03
 -8.4987609e-03
 -1.2447546e-02
  6.7362855e-03
  6.7175175e-03
  5.4284338e-02
 -2.0392521e-03
  1.7685691e-02
  3.5887942e-02
 -6.3475273e-03
 -1.5540760e-02
  7.9158274e-04
  1.5436734e-02
 -1.3352962e-02
  2.3777919e-02
  5.3703897e-03
 -1.2497099e-03
  1.4915357e-02
 -1.0499845e-02
 -2.1287339e-02
  3.2819258e-03
  2.0907207e-03
 -4.4834535e-04
 -2.3493432e-03
 -1.0366842e-02
  1.8498206e-03
 -1.5376421e-03
  1.7479333e-05
  4.1829273e-03
 -2.7638597e-03
  5.3787692e-03
 -3.0765792e-02
  7.3319982e-04
  1.4781918e-03
 -4.4122972e-03
 -8.9770872e-03
 -1.6351558e-03
  1.1599171e-02
  9.7693887e-04
 -7.9534659e-03
  2.7194936e-05
  1.7009791e-02
  4.9627889e-03
  2.7286224e-03
 -2.2230451e-03
  4.4927932e-04
 -1.2155471e-03
 -2.4713544e-02
 -1.9982832e-03
 -4.6567187e-02
 -1.5019175e-02
 -2.9349504e-03
 -3.7982652e-03
 -1.2369824e-02
 -2.5631639e-03
 -1.8883155e-03
 -1.6392505e-02
  5.2022520e-03
 -6.8732319e-05
  6.4363754e-03
  1.6450312e-04
  4.1336995e-03
  1.4158258e-03
 -2.0425705e-02
 -8.8102528e-04
  5.1576272e-02
 -8.0240080e-03
 -6.6427849e-02
 -1.6308470e-02
 -3.2786135e-02
 -4.2107984e-04
 -2.0657064e-02
  9.1638154e-01
 -6.2633445e-03
  3.0284064e-02
 -3.2872891e-03
  6.3711919e-02
  1.5764913e-02
  3.9352011e-03
 -4.1251263e-04
 -1.1364509e-02
 -7.5636413e-03
  1.7652811e-02
 -1.7090760e-02
 -4.6795937e-03
  5.8382498e-03
 -7.3295052e-04
  5.1827718e-02
  3.2574974e-02
 -3.1743988e-02
 -8.7049194e-03
 -1.6605673e-02
 -6.9845200e-04
  1.4556006e-03
  3.3042466e-03
  6.7049247e-04
 -7.8140488e-03
  1.0614711e-03
 -1.2815655e-02
 -6.5836328e-04
  1.1193581e-03
 -1.0057921e-02
  8.3800415e-03
 -1.8651346e-02
  1.8245350e-03
  4.9799774e-02
 -7.1607099e-04
 -1.0110420e-02
  1.6440593e-02
  6.4324057e-03
 -8.6367875e-02
 -4.5046952e-04
 -4.4977777e-03
  3.7160251e-02
 -3.3230995e-04
 -1.5850612e-03
 -1.8267239e-02
 -3.8663324e-02
 -2.1853225e-04
 -4.4522975e-02
 -3.4149259e-02
 -1.0193350e-02
 -2.9747415e-02
 -1.4801637e-03
  4.4701681e-03
  4.2023342e-03
  1.6645817e-02
  1.5798699e-04
 -2.9307958e-02
  2.4410857e-02
  1.5303426e-02
 -1.9182814e-02
 -3.8716560e-03
 -1.4269159e-03
  1.1155504e-01
 -6.4139831e-04
 -6.8132671e-05
  4.1016392e-02
 -4.9002878e-03
  3.6572527e-02
  9.6816145e-04
 -2.3044441e-02
  9.3083587e-03
 -4.3348505e-04
 -3.4384157e-03
  2.3860428e-04
 -2.4239218e-03
  4.6863236e-02
  3.9835428e-04
 -1.3709244e-03
 -4.2928680e-04
  8.4890472e-03
  2.1512341e-03
  3.3475760e-02
 -4.2307869e-04
  8.7229896e-04
 -7.9878876e-03
 -3.3535548e-03
  4.0237624e-03
 -1.4479591e-03
 -2.0510877e-02
  3.6851901e-03
 -8.6029647e-03
  3.6304097e-03
 -1.2786560e-04
 -3.1867187e-02
  2.6590922e-01
 -8.2339086e-03
  7.1223252e-02
 -1.7572882e-02
  1.0415921e-01
 -6.4545736e-02
 -1.8851159e-03
  1.6391117e-02
 -5.3283706e-02
  9.0980192e-04
 -6.9090545e-02
  2.8695420e-03
  3.6570221e-02
 -2.5268050e-02
  1.4749218e-03
  5.6648459e-03
 -4.8553370e-02
 -3.8333305e-03
 -1.2981875e-02
 -2.3862710e-02
 -4.8116464e-04
 -7.7229100e-03
  1.1834208e-01
 -2.1596248e-03
 -8.6085405e-03
 -7.4652571e-04
  5.5115093e-03
  1.9109454e-02
 -2.4890846e-03
  2.1509795e-02
  4.8313257e-03
  6.6917068e-03
 -6.8338574e-03
 -9.3124941e-02
  3.1780437e-04
 -2.9557316e-02
  5.4260419e-04
 -7.9634803e-04
 -2.6005656e-02
 -3.6380343e-02
  1.2488955e-02
 -7.9069789e-03
 -5.4332670e-02
 -7.3828196e-06
 -5.1248102e-03
 -2.3061989e-03
  1.0024666e-02
  2.8683309e-04
 -2.7232098e-03
  5.9315194e-03
  1.0761455e-02
  3.1925165e-03
  2.5119400e-02
  3.2558923e-03
 -2.1058144e-02
  1.0481995e-02
 -1.1166593e-02
  1.3261986e-02
  8.3096884e-04
  5.9054799e-02
 -2.9630933e-02
 -8.7481539e-04
 -2.4683250e-02
 -5.7641459e-03
  7.5740935e-03
 -2.1441290e-02
 -1.1774356e-02
  1.0169161e-02
 -5.8762687e-03
  4.4169333e-02
  1.8518871e-03
  3.2733392e-03
 -1.6241767e-04
  7.6118009e-03
  2.9249282e-03
 -6.0894703e-03
 -1.4624100e-03
 -8.4536051e-04
 -4.1017258e-03
  1.3487753e-03
  7.5437967e-03
 -9.6200680e-04
 -4.0104738e-03
 -4.9725133e-03
  4.7643902e-03
 -7.4951220e-03
  4.9096760e-03
  4.9026017e-03
 -2.2208257e-02
  1.5180335e-02
 -1.6809554e-03
  5.7712449e-03
  2.2671269e-03
 -3.3200835e-03
  3.9748731e-03
  4.4168043e-03
  1.3273640e-03
 -6.9693406e-03
  1.0350192e-02
  2.6663351e-03
  1.6395463e+00
 -1.7369349e-02
 -9.8294718e-03
 -2.7116992e+00
 -9.3546475e-04
 -9.0429790e-02
  1.4067437e-02
  5.8251526e-02
 -3.1590921e-01
  1.8332292e-01
  1.3467892e-02
  1.0223024e-01
 -1.3611726e-02
  2.5244821e-03
  6.7292936e-03
  3.3423661e-03
  9.5231974e-01
 -3.0800268e-01
  1.0615874e-01
  1.2216615e-02
 -1.5261628e-03
  2.6754409e-03
  6.6789702e-02
 -1.4645546e-02
  6.2650956e-02
  4.4947460e-02
  8.6727403e-03
 -5.1300731e-02
  7.4247685e-03
  2.6755241e-01
 -1.6364604e-02
  7.9232357e-02
  5.2472122e-02
 -1.4008236e-02
  2.8535660e-02
 -1.0656275e+00
  3.4217324e-02
 -3.0499129e-03
  4.9490249e-03
 -5.6442950e-02
 -1.0559356e-01
  1.1387261e-01
  3.7856840e-02
  3.9039479e-04
 -1.7930464e-03
 -1.5543856e-02
  2.3413464e-02
 -1.6013924e-02
 -8.9299260e-04
  7.4012116e-02
  1.5717329e-02
  2.0350041e-03
 -3.0527744e-03
  5.5304873e-03
  1.0326304e-02
  1.8612214e-04
 -3.3342259e-03
  7.6406263e-03
 -2.7280841e-03
  6.8823486e-03
 -1.9830698e-02
  1.1413997e-03
  2.4459036e-02
 -9.6130953e-04
 -1.9024289e-03
 -8.2388455e-03
  1.3877844e-02
  8.6925384e-03
 -1.4623702e-02
  1.2502622e-02
 -5.8240588e-03
  1.3487643e-02
  8.7406579e-03
  9.1930218e-03
 -1.5070968e-05
 -5.7430831e-03
  2.2300126e-03
 -1.2349368e-02
 -4.7035789e-04
 -8.8524949e-03
 -1.4295104e-02
 -4.4644997e-03
 -1.9642066e-03
  5.9605069e-03
 -8.1928950e-03
 -1.5214293e-03
  7.1350443e-03
  1.2422206e-03
  4.5840500e-04
  3.4814224e-02
  1.1778090e-02
  5.7430570e-03
  6.6274828e-03
 -4.0247501e-03
 -5.2179187e-03
 -4.5899060e-03
 -7.1414001e-04
 -2.5194879e-03
  2.2605832e-03
  4.1175457e-03
  3.6428758e-04
 -2.4254739e-03
 -7.6157418e-03
  3.1036315e-03
 -7.3973602e-03
 -7.6141763e-03
 -1.9051227e-03
 -1.4405378e-02
  7.9560233e-04
  1.3115826e-02
 -2.7757190e-02
  1.3153894e-02
 -2.3108230e-03
 -1.0884959e-02
 -2.1182888e-03
  9.5923417e-05
 -1.4028338e-02
  1.1955240e-04
 -1.5023330e-03
  3.2890629e-02
  1.7024951e-02
  1.2304316e-02
 -7.2279555e-04
 -2.3946023e-01
 -2.2910272e-03
  1.8316678e-03
 -8.1071054e-04
 -1.4232088e-02
  1.2117989e-02
 -3.5491977e-02
 -8.9887688e-03
  6.6379001e-03
  1.2462127e-02
 -9.8256124e-03
  1.0642628e-02
  2.1176497e-03
  6.1968900e-03
 -7.6428642e-03
  1.0350610e-02
  4.5507769e-03
  1.9324422e-03
 -3.1380621e-03
 -1.8422257e-03
  7.5023761e-03
 -3.3670508e-03
 -1.5050820e-04
  1.9884987e-02
  2.7642681e-03
 -5.8610784e-03
 -2.2338394e-03
 -6.1505090e-04
  1.6329957e-03
 -4.8466404e-03
 -6.4624809e-03
 -1.3705730e-04
 -6.1857241e-04
 -2.0467713e-04
 -2.8605800e-02
 -1.3893436e-03
  1.8707484e-02
  1.8622095e-03
 -4.9674776e-03
 -2.4174484e-03
  1.3712131e-03
 -6.3233627e-03
  9.5781609e-02
  8.0405688e-01
  1.6416874e-02
 -1.2254176e-03
 -1.2840366e-02
  8.6902633e-02
  5.7589587e-02
 -3.0082602e-02
 -1.0359586e-02
  2.2154064e-01
 -1.4098507e-02
 -7.2681312e-03
 -2.0891139e-02
 -5.0892943e-01
  3.2416707e-01
 -1.7028565e-02
 -2.6427582e-02
 -3.2876215e-03
  8.4556639e-03
 -5.8063846e-02
  3.4502055e-02
 -9.7595736e-02
 -4.7022161e-01
  9.9787526e-02
  4.9904771e-02
  3.2911373e-03
 -1.4475058e-02
 -5.8786351e-02
 -1.0608715e-01
 -2.8580057e-02
  2.0260323e-02
 -6.6941273e-01
  1.7691679e+00
 -2.8219274e-01
  1.3182096e-01
  5.4668751e-02
  5.7149059e-03
  2.2197308e-02
  2.3543132e-03
  4.3717371e-03
 -1.0651384e-02
  1.3884178e-03
 -1.6116811e-02
 -7.4851979e-03
  4.8223762e-03
  3.2031186e-02
  8.9341216e-03
 -6.3551545e-02
 -2.3188932e-02
  8.1601627e-03
  6.0295695e-03
  1.5466583e-03
  1.4327898e-03
 -9.2922822e-03
  3.2145486e-03
 -1.2469200e-03
  2.9183701e-02
 -6.1977353e-02
  3.1545940e-03
  2.7538958e-01
  2.5003764e-03
  1.8193377e-03
  3.7512884e-02
  6.4805406e-03
 -2.3489472e-05
 -6.0710503e-04
 -1.3701229e-02
 -1.4134224e-01
  9.5457241e-02
 -4.1929688e-02
 -7.3396703e-03
 -5.7725133e-03
 -2.2060899e-02
  5.8897086e-03
  2.0990807e-03
 -2.3004262e+00
  4.8578873e-02
 -1.7798070e-03
  1.5816949e-02
  8.1102801e-03
  2.7285416e-02
  1.1350795e-01
  2.4935727e-03
 -1.9899246e-03
 -2.7915122e-02
 -1.4230920e-02
  3.7228450e-02
 -7.3120847e-02
  1.0007395e-02
  9.7244298e-03
  5.0841134e-02
 -2.1429280e-02
 -8.4232055e-03
  8.4927236e-04
 -3.6873564e-02
  1.1258204e-02
  2.4374960e-02
  1.8473217e-03
 -6.5314034e-03
  2.2769269e-02
 -1.1862707e-02
  1.0887551e-02
  1.1322171e-02
  2.5905825e-03
  1.2851417e-02
  2.8090519e-03
 -3.6502008e-03
 -3.2038761e-03
  1.0342509e-03
  3.8791411e-03
  2.4763455e-03
  4.1730855e-02
  3.1353433e-02
 -8.9016194e-03
 -9.3262363e-03
  1.3418009e-03
  1.1275891e-03
  3.5058607e-03
  6.8766475e-03
  9.1955429e-03
  2.3507024e-03
  2.5545347e-02
 -3.3208323e-03
 -1.2149377e-02
  3.0108413e-02
 -1.1058377e-02
 -1.2157286e-02
  1.8120982e-03
  3.3982232e-02
  1.2429543e-02
 -3.8319067e-04
  7.3667769e-03
  5.4523553e-04
  4.6064300e-03
  4.1523366e-03
 -8.1440341e-03
  4.8111478e-04
  1.0237487e-02
  2.1578837e-02
 -7.3639536e-03
  1.3462865e-02
  8.9400299e-03
  3.3547988e-03
 -8.1078347e-04
 -3.4788162e-03
  1.9654755e-03
 -2.0601172e-03
 -5.2921457e-04
  8.4029809e-03
 -1.2475764e-02
 -4.1682649e-02
  1.8365298e-04
  1.8376874e+00
  3.7280181e-03
  5.4997704e-03
  8.4786286e-04
 -4.4692699e-03
  2.4864464e-03
 -7.1827620e-03
  7.4785324e-03
  1.1019295e-02
 -5.1326458e-03
 -2.0742834e-02
 -4.1784841e-04
 -2.3507150e-02
  4.3035140e-03
  1.0432883e-03
 -2.4437392e-02
 -4.0162620e-03
  4.1239937e-03
  6.4751646e-03
 -1.0145700e-04
 -9.5044617e-03
 -4.4683302e-03
 -1.2007770e-02
  3.9413851e-02
 -2.6431451e-02
  1.7528329e-04
  6.0059605e-03
  2.1758448e-02
  3.4723126e-03
 -2.7921155e-02
  1.0702315e-02
  7.1012131e-03
  4.3505994e-03
 -2.5476152e-02
  1.4972320e-02
 -2.4712377e-03
  4.8926682e-03
  2.5576816e-03
  4.2913649e-03
 -5.8554178e-03
  1.3335515e-02
  7.6890276e-05
 -2.8067147e-02
  7.6594437e-03
  9.4009994e-04
  5.1729567e-03
 -9.4683263e-03
  2.1689197e-03
  2.6076639e-03
 -3.1954739e-02
 -7.5009349e-04
 -2.0573901e-02
  4.1547138e-04
 -1.8640388e-02
  4.6796867e-04
 -3.3672510e-03
 -3.8683899e-03
 -5.1976927e-05
 -1.2911096e-02
  4.1652163e-03
 -2.2130311e-02
 -5.0194678e-04
 -2.8872201e-03
  4.9318885e-03
 -1.5267279e-02
  9.4400849e-03
 -4.2695384e-03
  1.5866475e-02
 -9.4235735e-03
 -5.7216175e-04
 -1.8770944e-02
 -9.1354035e-02
  1.6096093e-03
 -2.0423915e-02
  7.1284752e-03
 -7.6623942e-04
  1.4682739e-02
  4.0279557e-03
  2.2884207e-03
 -1.3030181e-02
  2.3595947e-03
 -2.0713232e-02
 -1.5318616e-03
  4.7931960e-03
  3.3866398e-02
  3.9570956e-03
  6.2632849e-03
 -1.3870135e-02
  4.1653812e-03
 -9.6510496e-04
 -1.3556482e-03
  2.1580034e-03
 -1.2790209e-03
  6.9890674e-03
  2.5685273e-02
 -4.6572372e-04
 -1.6693108e-02
  8.7178731e-04
 -3.8113135e-03
 -1.1329268e-03
  1.7493747e-02
 -2.6579723e-03
 -1.7738527e-03
  5.3078495e-04
 -8.0998114e-04
 -2.4945606e-03
  1.1933665e-04
  1.1942071e-03
  2.4091108e-03
 -3.3491615e-03
 -9.6342294e-03
  1.3981531e-04
 -6.9525712e-03
  1.3740577e-03
 -4.4603460e-03
  1.4682099e-03
 -7.9865707e-03
 -1.1507418e-02
  4.0262914e-03
  5.0655375e-03
  1.0753377e-02
  1.1877809e-03
 -6.7084014e-02
 -1.4997902e-02
  4.5738273e-04
 -2.9514425e-03
 -2.8509181e-04
  1.5294414e-02
  1.6323175e-02
 -1.3543636e-02
  9.4127785e-03
  1.0452531e-02
 -4.5440126e-02
 -1.1137082e-02
 -2.5025815e-02
 -1.1471492e-02
  6.4193131e-03
  5.1900982e-03
  2.3624737e-02
 -1.5831840e-03
 -2.9724082e-03
  1.9684527e-02
  2.4459239e-02
  1.3865374e-03
  1.4286328e-03
  3.7062392e-03
 -2.4934586e-03
 -8.6613867e-04
 -1.3092727e-03
 -5.3793914e-04
  1.1879206e-04
  3.7098685e-04
  7.2436957e-03
  5.5626635e-03
  2.9426659e-03
 -6.1188443e-03
 -2.7944876e-03
 -3.5550434e-04
  1.2814968e-03
  5.4008607e-04
  3.1130567e-02
 -1.9640182e-03
  1.9611767e-02
  3.5854153e-02
 -1.9590503e-02
 -3.1171611e-03
 -4.8023779e-03
  2.9040866e-03
  5.3218994e-03
  6.3363095e-03
 -3.4857881e-03
  6.3160462e-03
 -6.2571382e-03
 -1.9588468e-03
 -6.4865425e-03
 -1.6410393e-03
 -4.2372346e-02
 -1.2974315e-03
  2.9968056e-03
 -1.5817510e-02
 -1.2001533e-02
  4.0609529e-03
  6.0987491e-02
  5.8609480e-04
 -3.1971131e-03
  3.5120423e-03
  4.9913796e-03
 -7.4422741e-03
  1.9448226e-03
 -5.2398723e-03
 -7.6850825e-03
 -2.8516361e-04
  1.1776144e-03
  1.4195837e-03
 -1.1183342e-03
  2.2466665e-03
 -2.0236534e-03
  8.1788208e-03
  1.1938237e-02
  3.0097286e-03
 -1.4250965e-02
  2.5138226e-03
  1.5323627e-03
  2.1294404e-03
 -1.0270371e-02
 -6.0067867e-04
  5.4209600e-03
 -2.2674876e-03
 -6.5218209e-04
  3.7033376e-04
  5.3022237e-04
  1.7396967e-03
 -2.0839979e-03
 -1.1416271e-02
  1.9115534e-03
  6.2681257e-04
 -3.9506960e-04
  1.9151559e-02
  6.3112671e-03
  3.3585404e-04
 -1.1137065e-03
 -5.2952818e-03
 -4.0211284e-04
  1.6206899e-03
  5.4430105e-03
  9.4391024e-03
 -9.5234634e-03
  3.6211347e-03
  1.2144163e-02
 -3.1094598e-03
 -8.0947776e-04
  1.9025330e-02
 -2.5872178e-02
 -5.0908292e-04
  4.3058800e-04
 -2.0311717e-02
  1.0602700e-03
  1.5863028e-03
  6.5204431e-03
 -1.1168637e-02
 -1.0954714e-02
 -2.1388741e-02
 -9.1453153e-04
  9.7819064e-03
  8.0955699e-03
 -3.2637354e-03
  2.8007396e-02
 -1.2552217e-02
  2.1186329e-03
 -1.0391820e-03
  2.5601271e-03
 -3.5488021e-04
 -3.3592409e-03
  1.6050031e-03
  2.0611412e-03
  6.3244309e-03
  9.6928602e-04
  1.0901369e-02
 -1.0322858e-02
 -1.8776998e-02
  4.0413258e-03
 -4.7638683e-04
 -3.3858216e-03
 -3.9758976e-03
 -3.5143439e-03
 -9.9954158e-03
  4.4461582e-03
  6.9418416e-04
  6.0925506e-02
  8.8111286e-05
 -1.9699400e-02
  2.3244682e-03
 -1.9303495e-02
 -7.9578027e-04
 -2.9853310e-03
  2.5602770e-03
  6.9635925e-03
  9.2742580e-04
  1.4342433e-03
  3.3114031e-03
 -2.2858595e-03
  1.9099878e-03
 -3.5063413e-03
 -2.5499353e-02
 -4.2967990e-02
  1.6708678e-03
 -2.0091701e-02
 -1.1156802e-02
 -9.1476709e-02
 -1.4024386e-02
 -3.9507546e-03
 -9.6028149e-01
  6.9330856e-03
  2.0527145e-02
  8.9251734e-03
 -2.7932813e-03
 -2.5873904e-03
  9.0570534e-03
  8.3448654e-03
 -4.7874865e-03
 -6.6742080e-04
 -8.0167670e-03
  6.3610175e-03
  1.5846297e-02
 -3.9829914e-03
  3.1578471e-03
 -2.7977815e-03
 -8.5103381e-03
  2.5425989e-03
 -2.2445323e-02
  2.3524181e-03
 -1.6062969e-04
  8.1917355e-03
 -2.1447182e-04
 -7.7459938e-03
  5.9286566e-03
  2.0693147e-03
  7.1419040e-03
  7.3111476e-04
 -6.5132570e-03
 -5.2526139e-04
 -9.8262017e-04
  2.6958799e-03
  1.1372840e-04
  7.3593617e-03
  2.7519348e-03
  2.6745433e-03
  7.8038913e-03
  1.4523036e-03
  5.6072483e-03
  5.5557550e-03
  1.3183268e-03
  5.3502835e-04
 -3.7756350e-03
 -1.4497839e-04
  2.4268271e-03
 -1.0095591e-03
  6.5917201e-02
 -2.3667721e-02
  4.9990598e-02
 -4.3577841e-03
  3.8681945e-04
 -1.5971584e-02
 -5.7235681e-02
 -4.0510539e-03
  8.5359082e-02
 -5.0968090e-03
  1.7238367e-02
 -4.0347371e-03
  7.6033021e-03
  5.2626934e-03
  8.9917928e-03
 -8.4382156e-04
 -3.3488015e-03
  8.5522961e-03
 -5.0166189e-03
  2.8462920e-04
  1.1084074e-02
 -1.8678039e-02
 -5.8929850e-03
 -4.0736966e-04
  3.1804186e-03
 -3.9241584e-03
  8.6502603e-04
  8.0000830e-04
 -9.2088105e-04
 -1.3039085e-02
 -2.7374886e-03
  7.5555989e-03
  5.2120672e-03
  3.6141120e-03
 -5.1928498e-04
  3.5678092e-03
 -1.2012056e-02
  2.0048226e-04
 -2.4087414e-04
 -4.4073961e-03
  5.1163853e-04
 -5.7162764e-03
  1.2081657e-03
  1.4950260e-02
 -7.0478173e-04
 -2.7258180e-02
  7.6268220e-01
  3.3413515e+00
  8.0422431e-01
  4.9210177e-03
  1.4640464e+00
  2.9359443e-02
  1.0906769e+00
  2.1265540e+00
  1.7388277e-02
 -9.4935362e-04
  1.3830301e-01
 -3.7752858e-03
 -8.2869558e-03
  4.8251430e-04
 -1.2406054e+00
 -2.6948068e-01
 -9.5828027e-03
 -1.8900470e-01
 -1.5071036e+00
  1.8425574e+00
 -9.6810311e-01
  1.5686658e-04
  3.6189635e+00
 -1.4551663e+00
  8.2754930e-03
  1.4371392e-01
 -5.8846768e-02
 -3.7069705e-01
 -5.1878136e-01
 -9.8003840e-01
 -1.1011179e-02
  1.9935105e+00
 -9.2119165e-02
 -1.0949115e-01
  9.1875482e-01
  4.0990147e-03
 -8.8552141e-01
 -5.7000881e-01
  3.5740945e-02
 -5.3454515e-02
  5.7691169e-01
 -2.3536735e+00
  9.0123183e-01
 -1.6876727e-01
 -1.3065841e-02
 -4.1989186e-03
 -1.0344563e-02
  1.6944267e-02
  1.2553078e-01
 -9.7746793e-03
 -1.9368168e-02
  3.9449487e-02
 -1.7081277e-02
 -8.9987810e-04
  3.2755372e-04
 -3.6445149e-04
  2.9972822e-03
 -1.1760896e-03
 -8.3234487e-03
 -2.1615504e-05
 -1.0124909e-03
 -3.8268929e-03
  1.0200455e-02
 -2.1734552e-03
 -1.2215148e-02
 -1.7065940e-02
 -8.4431209e-03
 -2.8114703e-03
  1.0933408e-02
 -5.6341596e-02
 -2.6036933e-02
 -7.8162197e-03
  1.1827904e-02
 -1.6749423e-03
  2.7381878e-03
 -4.1108850e-02
 -7.9899086e-03
  3.4058965e-03
  1.5624512e-03
  4.2274860e-03
 -4.7990805e-03
 -5.7031480e-03
 -2.5053650e-02
  1.6823646e-02
  1.2089590e-03
  5.3451210e-03
  1.4619924e-02
  3.1582993e-03
 -4.2715564e-04
  1.9464403e-02
 -3.0508891e-02
  6.3034697e-03
  1.2676377e-02
  3.5840566e-03
  4.3568134e-04
  3.5373818e-03
  2.6105030e-03
  1.1390499e-02
  1.7401885e-03
  6.4000875e-02
  2.5127999e-02
  3.6287862e-03
  1.7788111e-03
 -9.4671856e-04
  2.1266894e-02
  7.9585379e-03
  5.6174323e-03
 -3.4810980e-03
  2.9362511e-04
  7.0766290e-03
 -1.8171744e-03
 -1.2376200e-02
  5.0492897e-03
  1.3134104e-03
 -1.8187793e-03
 -5.9196469e-03
  1.7673222e-02
  2.4280880e-02
 -1.5373463e-02
 -5.8183046e-03
 -2.9638046e-03
  2.8918497e-03
 -4.0831943e-03
  1.3547782e-03
  1.2092331e-02
 -1.3201660e-02
 -9.2568547e-03
  1.5811058e-02
  1.2758466e-02
  6.5840506e-03
  5.9342072e-03
  5.9598533e-04
  1.3340389e-03
  1.0606452e-03
  3.0411021e-03
 -1.2891332e-03
  1.2374590e-03
 -2.1460077e-03
  2.8496862e-03
 -4.6272185e-03
  4.1012308e-03
  2.3595698e-03
  4.1730846e-03
 -2.1322854e-03
 -7.5081852e-04
 -1.7856171e-02
  7.0070033e-03
  3.9680806e-04
  6.1356783e-04
  2.2964038e-04
 -1.6727468e-03
 -3.2538180e-03
 -7.1996672e-04
 -6.3719559e-03
 -1.9576391e-03
 -1.3947643e-02
 -9.8895347e-03
  3.4093861e-03
  5.9363996e-03
  6.9219060e-04
 -1.1055135e-03
 -6.0146539e-03
  9.7292266e-04
  4.7412729e-03
  1.6142061e-02
  8.4889522e-03
  6.0335705e-03
  1.3123218e-03
  1.1676230e-02
 -9.1981597e-02
 -1.2599138e-02
  5.6710757e-02
 -1.6509183e-02
 -9.3704546e-03
  7.1127154e-02
  2.5363367e-03
 -2.2438853e+00
 -1.4988285e+00
 -1.2485699e-03
  6.2185931e-03
  7.5911945e-01
 -8.3251400e-03
  2.5400299e-01
  3.5922412e-02
  2.3810551e-02
  8.6768441e-02
  4.1844031e-01
  4.2712191e-04
  1.6532429e-01
 -4.6892673e-02
 -1.6911104e-01
  2.4173526e-01
 -7.4794819e-04
 -4.9480040e-02
 -1.0203423e-01
  1.0656866e-01
  4.5204481e-01
  1.7960785e-02
  2.8372293e-02
 -1.9473718e+00
  5.7851128e-02
 -8.4350528e-03
  1.7550994e-03
  1.8901216e-03
 -4.4228271e-01
  1.6499773e-01
 -5.5370328e-05
  3.7585083e-02
  1.4370062e-02
 -1.1466256e-01
 -1.5154283e-04
  4.0313448e-03
  7.7896030e-03
  5.9826866e-02
  5.7752952e-03
  3.1258611e-03
  4.7914800e-03
  5.0192815e-03
  3.9070016e-03
  2.6013321e-04
  1.2064288e-05
 -4.5490614e-03
  5.2408418e-03
  9.0944637e-03
  3.5288058e-02
  2.6429794e-03
  2.0974950e-04
 -1.7701324e-02
  1.3854646e-03
  7.4560835e-04
 -1.6202753e-02
 -1.3288734e-02
 -7.8592071e-05
 -2.4557767e-02
  1.8799156e-02
  2.8336134e-02
 -1.3012775e-02
  6.5406697e-04
 -1.2079605e-02
 -4.4606770e-03
  2.1340311e-02
 -4.0748287e-02
 -2.6577027e-03
 -9.0289814e-03
  2.0097885e-03
  2.4274790e-03
  1.5042569e-02
  1.8719240e-03
 -7.0625325e-03
 -9.4822086e-03
  3.6183128e-03
  1.2020286e-02
 -1.2195590e-03
 -5.0215856e-03
 -1.9896310e-03
  1.5677997e-03
  1.6756624e-03
 -4.8952256e-03
 -1.1182696e-03
  3.7777706e-03
  4.6888005e-04
  2.2900617e-04
  2.0263655e-04
 -4.2673135e-03
 -6.8085309e-04
  5.1672277e-03
  4.4650459e-03
  8.8953081e-04
 -1.5685649e-03
  2.1274923e-03
  1.6369611e-03
 -9.0381852e-04
 -1.3241593e-02
  5.8997707e-03
  8.9519145e-04
  6.2431591e-03
  2.1118748e-03
 -1.5707477e-03
  1.5080658e-02
  2.8735157e-02
  4.6197206e-02
 -1.4113898e-02
  7.4616410e-03
  2.5197458e-02
  6.1797958e-02
 -4.9195353e-02
 -6.6179507e-03
  3.2682186e-03
 -2.2455437e-02
  1.8897198e-02
 -4.7712275e-04
  2.7750104e-03
  1.1592031e-02
 -3.3886416e-03
 -2.0161688e-02
 -1.3665863e-02
 -6.0741618e-02
  1.7981981e-03
  2.9492352e-02
 -1.1431727e-01
 -3.6695155e-03
  9.6023560e-04
  1.6399978e-02
 -7.5231066e-05
 -9.6155540e-04
  1.4904679e-02
  7.0248288e-04
  5.4383624e-02
 -5.9054545e-03
  8.9826444e-03
  6.2536933e-02
 -2.0743760e-04
  6.0382304e-03
 -2.0705830e-02
 -1.0049964e-01
  5.3553027e-03
  4.3414568e-04
  1.6630778e-02
 -1.6928534e-05
 -4.9820486e-03
  2.5431206e-03
  4.4244976e-04
 -1.7273553e-03
  5.8286688e-03
  1.0754448e-02
  1.1371350e-02
  1.1819226e-02
  9.3157180e-03
  2.6958243e-03
 -9.3319424e-04
  1.2146182e-02
  5.0646490e-03
  1.7492276e-02
  1.6406896e-03
  6.8902317e-03
  2.3635316e-03
 -2.5978396e-04
 -2.9037265e-02
 -3.5141546e-03
 -3.8052229e-03
 -6.7138736e-04
  2.9992426e-02
 -2.2066934e-02
  4.7324307e-02
 -3.7800606e-02
 -5.8303298e-03
  2.3991820e-04
 -7.8633549e-03
  1.4135668e-02
 -1.5116474e-03
 -1.2729041e-02
 -2.2596480e-02
  1.2680354e-02
 -4.6126515e-02
  9.3848696e-03
 -6.7261135e-04
 -4.0849845e-04
 -1.0299722e-02
 -6.2088366e-03
 -2.8885778e-02
 -5.4791109e-03
  3.3890244e-02
 -3.9572129e-03
  3.8030397e-03
 -9.8947044e-03
  1.7343953e-02
  6.6996580e-03
  7.6199500e-03
  3.5421684e-04
 -1.0266929e-03
 -2.3504982e-03
 -1.0661494e-02
 -1.3417182e-04
  1.5432143e-03
  1.2095234e-03
 -4.4868726e-04
 -2.4908404e-03
 -1.7691003e-02
  2.5300630e-03
 -2.6789787e-03
  2.5036091e-03
 -8.5751936e-03
 -2.3699929e-04
 -6.0238373e-03
 -3.9805357e+00
 -6.3322377e-01
 -7.2389445e-03
  3.7339147e-02
 -3.6296833e-01
 -1.8355083e-02
 -9.8673543e-03
 -2.4812441e-02
 -1.8514719e-04
  7.5910138e-03
 -1.1821881e-02
 -2.2541694e-02
  1.2989927e-02
 -2.4915472e-01
 -3.5379971e-03
 -4.2245127e-03
  2.2826705e-03
 -7.2623286e-03
 -2.1480219e-03
 -6.0134841e-04
  9.5824022e-03
  2.1347332e-01
 -2.3621725e-01
 -4.0015647e-01
 -1.2137479e-02
 -2.0585998e-03
 -6.5941829e-03
  8.3345973e-01
 -1.8418274e-03
 -2.0923944e-01
  4.6032602e-01
 -8.7849438e-02
  2.8374341e-01
 -4.2535193e-02
  8.1036513e-04
 -1.1883643e-01
  1.2840015e-02
 -2.8367594e-03
 -5.5814721e-03
  1.3947903e-02
  2.3674492e-02
  2.9854686e-03
  1.8372688e-02
  7.4680627e-04
  1.4407480e-05
 -1.4962737e-02
  1.1826826e-02
  4.6079168e-03
  1.1400421e-02
  4.6111397e-03
 -4.3423939e-03
 -7.9655033e-03
 -1.0112485e-02
  7.8069638e-03
  1.0388060e-04
  2.8757008e-03
 -8.0128592e-03
 -3.0390625e-03
 -4.9746526e-05
 -1.4912286e-02
  1.5507579e-02
 -4.7851313e-04
 -1.7907968e-02
 -3.7133426e-03
  4.1387527e-04
  2.2328212e-03
  1.4377119e-02
  1.7901542e-04
 -1.0948593e-02
 -6.4990381e-03
  2.0536877e-02
 -1.0656989e-03
 -1.6118733e-03
 -1.2231468e-02
 -1.5305753e-03
 -5.1471628e-03
 -6.7830755e-04
  1.8437060e-03
  6.5864646e-03
 -1.7552630e-03
  5.0507216e-03
  4.3368069e-03
  1.2770788e-02
 -1.5515940e-02
  3.5615117e-04
  4.6264130e-04
 -8.0244942e-03
 -2.3482970e-03
 -1.3394394e-03
  4.6955389e-03
  2.1428519e-03
 -1.3804750e-03
  2.3861444e-02
 -6.0503237e-04
  2.4545968e-02
 -4.8165027e-02
 -4.9809681e-04
 -3.8274430e-02
 -9.0726797e-04
 -1.2426970e-03
  2.6398727e-03
  1.6933551e-01
 -6.2301895e-03
 -2.4817448e-02
  2.1848180e-03
 -3.1029806e-03
  1.2797765e-02
 -9.5610460e-03
 -1.6229827e-02
  1.4139914e-04
  1.5106978e-02
 -3.8035697e-04
 -7.4369289e-02
  6.3304119e-03
  1.0760014e-02
 -2.4740893e-04
  2.4364077e-02
 -2.7169736e-02
 -5.9023043e-03
 -1.9567998e-02
 -1.1640301e-02
 -3.5672974e-02
  2.5681881e-02
  2.1182744e-02
 -2.4354842e-03
  5.8419938e-04
 -5.3000320e-03
  3.6336094e-02
  3.5741035e-02
  7.6726745e-03
 -3.9995633e-02
  3.3858668e-02
  6.2266341e-03
 -5.0179260e-03
 -2.3872025e-02
  5.1446543e-03
  1.3978765e-02
 -6.9652689e-03
  2.0048257e-03
 -6.1751638e-02
  1.3857532e-02
 -2.9554605e-03
 -2.1967510e-04
 -1.9197566e-04
  2.6023998e-03
  8.9903325e-03
 -2.9825459e-03
  3.4653220e-02
  6.1263941e-04
  2.1314968e-03
 -2.3655696e-03
 -2.8537435e-04
 -5.6092620e-02
  1.0803137e-02
  1.1363754e-03
 -1.7364514e-03
  7.9761283e-04
  3.6448885e-03
 -1.5491976e-03
  5.5087032e-03
  9.9453388e-04
 -9.5277000e-03
 -2.3310916e-03
  2.2911717e-04
  4.8443176e-02
  4.3677639e-02
 -1.9797310e-02
  5.0209119e-04
 -1.5807679e-03
 -3.0473683e-03
 -1.1824845e-02
 -9.5826136e-03
  2.5577750e-02
  3.2245193e-02
 -3.3960924e-02
  2.0036217e-02
 -1.9890310e-04
 -2.2795890e-02
  7.0264861e-03
 -5.8935198e-05
  8.7486105e-03
 -1.2456171e-03
 -2.1108568e-03
 -2.1570199e-03
  4.0322760e-04
  1.3825900e-02
  3.7524696e-03
  7.0697065e-03
  1.4065877e-03
 -3.6563042e-03
 -1.6400561e-03
  1.6643908e-02
  6.4417096e-03
  7.7903830e-03
  2.7977873e-02
 -1.9648172e-02
 -1.0893760e-02
 -1.1910162e-02
  1.4918281e-03
  8.4163500e-03
 -9.8079918e-03
  9.7355796e-03
 -2.4884180e-03
  6.4462726e-04
  6.5732569e-02
  2.3058336e-02
 -7.5835816e-04
  2.5047620e-03
  1.8220349e-03
 -1.2878314e-04
  2.0029105e-03
 -1.0602877e-03
  8.7231947e-03
 -1.6665627e-03
 -1.5979285e-03
 -1.0869838e-03
  1.9036919e-03
 -5.4181932e-04
 -3.6032338e-02
 -2.6513390e-02
  3.0260455e-04
  8.4602302e-03
  8.7939771e-03
  2.1544853e-03
  4.0884516e-03
 -9.1521716e-04
  5.7230350e-02
  9.5673022e-05
  4.6938290e-03
 -1.3595186e-03
 -2.3597726e-03
  2.6992026e-03
 -1.0714693e-02
  8.5364599e-03
  1.3471799e-03
 -1.3765167e-02
  2.0819709e-03
  3.6406631e-04
 -2.1994503e-02
 -1.2579213e-03
  1.4281784e-03
  5.6598405e-03
  2.1121888e-03
  2.0929934e-03
 -1.9323416e-03
 -3.2350509e-03
  7.8568899e-04
  1.4304735e-02
  7.5133413e-04
 -4.0912320e-04
 -1.1728471e-03
  2.4647207e-03
 -3.3101013e-03
 -7.3562982e-04
 -6.3533854e-04
  1.3100908e-02
  2.5741314e-04
  3.5980698e-02
  1.3635171e-02
 -2.0220730e-02
  1.0692115e-02
  1.1106883e-03
 -9.2662865e-04
 -2.0659920e-03
 -1.6974175e-03
  8.9823574e-05
  7.4826577e-03
 -5.4264273e-03
 -2.1057256e-02
  3.3496204e-03
 -1.9686986e-03
 -1.3676239e-02
  1.4715101e-02
 -2.9837774e-04
 -1.0278635e-01
 -2.7944264e-03
  5.7726977e-03
 -3.0464604e-03
  3.1407580e-03
  3.2259956e-02
  7.2007686e-02
 -6.4713419e-03
  2.2354336e-02
 -4.3550140e-04
 -1.3524446e-02
 -1.5254890e-02
 -1.1315521e-02
  5.1017385e-03
 -2.1259304e-02
  1.9887736e-02
  3.0500283e-02
  3.1592860e-03
  1.2802136e-02
  3.3003336e-03
 -2.3582738e-03
  7.5448612e-03
 -6.6870940e-03
 -4.4889036e-03
  1.2374150e-02
  5.1871665e-02
  7.7005732e-04
  3.3887322e-03
  1.2946959e-02
 -2.0478384e-03
 -1.1734664e-02
  1.2915735e-03
 -2.6595889e-04
  3.8623055e-03
 -2.1316623e-03
  1.7603908e-02
 -3.0563987e-04
  1.6931148e-02
  1.6023236e-03
  2.3586163e-04
 -1.7234350e-03
 -1.0100161e-02
  4.3986496e-03
  9.3080662e-04
  4.6963510e-03
  6.0854396e-03
 -1.0174926e-02
 -2.4896734e-03
  9.8153623e-03
 -2.0397769e-03
 -1.0696711e-02
 -8.8596274e-04
  3.9773107e-02
  1.0033716e-02
 -1.9343358e-02
 -7.5828269e-02
 -5.8789249e-04
 -2.9571301e-03
  1.5705910e-02
  1.4397725e-02
 -1.2079153e-03
  1.2723495e-03
 -2.1774857e-03
 -1.1109799e-03
 -1.0304683e-02
 -5.0148028e-03
  7.6858881e-03
 -9.2397602e-03
  2.3933458e-03
  1.4686352e-02
 -1.1627158e-02
 -1.0147117e-03
 -4.1855625e-03
  1.5239711e-03
  1.0105617e-03
 -3.4905411e-03
 -3.4204931e-03
 -2.4233225e-03
  5.9125610e-03
  2.7272897e-03
 -2.1323906e-03
 -4.5788782e-03
  1.5430260e-03
  1.4038605e-03
 -1.1579605e-03
  4.3436941e-03
  2.1835780e-03
 -4.2334147e-04
  4.6087923e-03
 -1.4851213e-02
 -2.4566108e-02
  1.4407320e-03
  1.5007855e-03
 -4.6619156e-05
  1.5017256e-02
  3.9426913e-03
  4.6415697e-04
  2.5658773e-03
  1.2849588e-02
 -5.7816012e-03
 -1.4230782e-03
  9.4091293e-04
  4.5290589e-03
 -1.1220429e-02
  1.3985986e-02
 -2.1995928e-03
 -2.5778968e-04
 -4.6022534e-02
  1.5166271e-02
  4.4616079e-03
 -3.6128506e-03
 -3.5703678e-03
 -6.9326796e-03
 -2.2453284e-02
 -3.6137111e-02
  4.3717260e-03
  4.7210597e-02
  7.1663633e-02
  1.4825436e-02
  1.0976802e-03
  9.0544652e-03
  2.5058391e-03
  5.4613403e-03
 -4.0799584e-02
  5.1473095e-03
  3.8745617e-03
 -3.6656955e-04
  1.4950000e-02
 -4.4960231e-03
  1.0082165e-02
  9.3292715e-03
  1.2008928e-03
 -1.2183719e-03
  9.5325131e-03
 -5.7274248e-03
  3.8422099e-03
  3.7002014e-03
  1.4710722e-02
  1.2767380e-03
  6.4154617e-03
 -1.5633095e-03
  7.0333909e-03
 -2.5689412e-02
 -6.4592242e-02
 -7.9302886e-04
  6.7842705e-04
 -7.9233614e-05
 -2.9700371e-02
  1.5904078e-02
 -1.5427426e-02
 -3.3272230e-03
  1.0310131e-03
  3.8510090e-04
  3.5787171e-03
  9.7919394e-05
  5.0630276e-03
 -5.4785842e-04
 -2.5807696e-03
  2.7810738e-03
  3.4223960e-03
 -3.6575384e-03
 -1.6118590e-02
  2.8267125e-02
  1.0888232e-04
  1.2676379e-03
 -3.3232290e-04
 -1.9802663e-03
 -3.3407749e-03
 -1.8575244e-02
  1.6760210e-03
  3.1709928e-02
 -9.0877974e-04
 -2.8770301e-03
 -9.9667320e-03
 -1.2191310e-02
  5.4632727e-04
 -1.7308731e-02
  6.4137834e-04
 -2.1056863e-03
  9.3735330e-04
  3.2025026e-03
  3.3459798e-03
 -4.7796010e-03
 -1.2076070e-02
  6.6605834e-03
 -6.9258008e-03
 -2.4646550e-05
 -3.0803180e-03
 -6.7615032e-04
 -9.1537340e-03
  5.6670182e-05
  2.4177241e-03
 -4.5313052e-04
 -4.7296993e-04
  5.4145800e-03
 -2.1348237e-03
  1.0808454e-02
 -1.2929175e-02
 -1.2574740e-03
  1.5192188e-03
  2.9795528e-03
  2.8085636e-04
 -2.1626465e-03
  7.3322281e-03
 -2.7784822e-03
  3.7961106e-03
 -2.3039400e-03
  4.0774001e-03
  6.0196402e-03
  2.3683181e-03
 -9.3488797e-04
 -3.0564453e-04
  6.7151845e-03
  4.0737074e-03
 -8.9063849e-03
  1.4256032e-02
  3.3618756e-02
  3.9906378e-04
  5.9217494e-02
 -1.5392334e-02
  9.3053784e-03
 -7.7201738e-03
 -2.9805854e-02
  4.1105528e-03
  2.6933933e-03
  4.7829606e-02
 -2.1917852e-02
  6.4892502e-04
  1.3710015e-02
 -9.9838646e-03
 -5.2427058e-04
  4.2730913e-02
 -6.4638932e-03
  2.1818318e-05
 -8.8862097e-03
 -9.6060615e-03
  2.0790745e-03
 -4.9883378e-04
 -3.8210449e-03
  1.5400277e-03
 -2.8137006e-03
 -1.0226520e-03
 -2.4633382e-03
 -1.4747347e-02
  3.0855839e-03
 -1.1753549e-02
  8.5317000e-04
  9.1830583e-04
 -4.2197313e-03
  1.4027792e-02
 -8.8697515e-04
 -5.3930767e-03
 -1.8339204e-02
 -2.6756767e-03
 -1.9508315e-03
 -1.1620370e-02
  3.7889287e-02
 -2.5135030e-03
  7.4329055e-03
 -3.4673659e-03
 -6.8001851e-04
  1.4895214e-03
 -2.4723832e-03
  1.0882413e-02
 -3.6865468e-03
 -7.0310417e-03
  5.7697697e-03
  1.0125021e-02
 -2.3160789e-03
  1.7452473e-02
  1.4935431e-04
 -3.0443527e-02
  1.2311869e-03
 -2.0439150e-02
  4.1373032e-03
  2.9238835e-02
 -6.9786464e-03
 -4.6289051e-03
 -6.2279347e-03
 -5.0210673e-04
 -3.0606634e-03
 -4.0948796e-03
 -3.1747101e-03
 -2.2020228e-03
  3.6469619e-03
  1.2295104e-02
 -1.5805554e-02
  1.5219921e-05
 -1.1164569e-03
  3.0570047e-03
 -1.8237500e-03
  3.5241076e-03
 -8.3168922e-03
 -4.5034927e-03
 -5.7609822e-04
  1.0605063e-02
  3.4061261e-04
 -5.7144909e-05
 -2.4263205e-03
 -2.2571643e-03
 -1.1773708e-03
 -5.3677388e-04
  2.5749530e-03
  9.7414821e-05
 -2.3497336e-02
 -5.4321093e-03
 -9.1419491e-04
 -3.2016247e-05
 -3.0183471e-03
 -2.0208627e-03
 -2.0989461e-03
 -4.8584528e-03
  1.8715480e-03
 -4.0512364e-03
 -5.1546255e-03
  1.8940578e-03
 -1.9044066e-03
  3.1320257e-03
  1.6334230e-02
  3.6711390e-03
 -8.6915412e-04
 -4.1646380e-03
 -1.6660865e-02
 -4.8350568e+00
  4.2175970e-04
 -6.1602856e-04
 -5.9842481e-03
 -3.1576680e-03
 -3.8390252e-04
  1.1703719e-02
 -2.5113648e-02
  5.1099467e-03
  2.6874598e-03
 -4.7208858e-03
 -7.7129113e-03
  2.0731837e-02
  7.6531027e-03
 -2.1646779e-03
 -2.7868876e-02
  4.8935372e-02
 -1.4221768e-02
 -6.9089108e-03
  1.3924385e-02
  2.6533469e-03
 -6.9887019e-03
 -2.8752847e-04
  1.0370919e-02
 -1.9274188e-04
  1.4817544e-02
  1.2000915e-02
  8.7323744e-04
  1.3272621e-03
  2.4971156e-03
  1.4464095e-02
  3.5562143e-03
 -9.9817384e-04
 -4.3359753e-03
  5.2833389e-03
 -9.8760915e-04
  1.8272657e-03
 -3.5543186e-03
 -7.5213257e-03
 -7.9652434e-03
  2.8001791e-04
  8.4754359e-04
  1.1379702e-02
  1.9107958e-03
 -2.3184221e-03
 -1.0971720e-03
  2.0244675e-02
  3.7307381e-03
 -1.8763497e-03
  4.6949447e-03
 -3.3380180e-03
  5.8520213e-03
  1.3572149e-03
 -2.3147009e-02
 -1.0301785e-02
  2.7793929e-01
 -3.6880188e-02
 -2.6423069e-02
 -1.1350232e-01
  1.1566740e-02
  1.7553708e-02
 -6.3662799e-03
 -1.0908369e-02
 -1.3146939e-03
  9.6083442e-03
 -1.6388115e-02
  2.1628784e-03
 -3.7143874e-04
  5.6574820e-03
  3.5185674e-03
 -1.2157332e-03
  6.1221636e-04
 -2.1927617e-03
  2.7807327e-03
 -9.8009175e-03
  8.0195583e-05
  2.4744601e-03
  3.1608427e-03
 -3.8896550e-03
  9.4526127e-04
  4.8211636e-03
 -5.0733886e-03
  4.8776332e-02
 -2.0776393e-03
  1.1823957e-03
 -5.0721032e-04
  2.9483132e-04
  1.8716375e-03
 -5.4162713e-03
 -1.1139249e-03
 -1.5847404e-03
 -4.2973245e-03
  1.1768483e-03
 -3.0595027e-03
 -6.3394485e-03
  2.8489854e-03
 -9.1443332e-03
 -9.0434484e-02
  2.4987364e-03
  5.3154482e-03
 -6.6123023e-03
  5.8182998e-04
  4.2859507e-03
  8.9434930e-04
  8.4664244e-03
  4.0348782e-03
 -6.6033681e-03
 -4.8835138e-03
  3.6613930e-02
 -1.1695371e-03
 -8.1179693e-04
 -2.5270170e-02
 -4.9432227e-04
  2.4135144e-02
 -1.4610750e-02
 -7.3012062e-03
  2.0652806e-02
 -1.4004564e-02
 -8.1472490e-03
  1.8640686e-02
  1.2816418e-02
 -1.0168483e-02
 -2.5325858e-03
 -2.6097791e-03
 -1.5657691e-02
  3.2380645e-03
 -4.7268551e-03
  1.8409442e-03
  6.7336313e-02
 -1.4916204e-03
  5.1984098e-03
 -8.5696392e-04
  1.5078287e-03
  4.1315076e-03
  3.9709904e-03
  2.8413255e-03
 -1.8770553e-02
  1.2217526e-02
  1.8159756e-03
 -1.9208049e-02
 -2.7488591e-03
  2.3861853e-03
  2.1857731e-02
 -1.9652746e-03
  4.2308506e-02
 -1.1923619e-03
  5.9613190e-04
  8.0524702e-03
 -2.3717415e-03
 -2.6302094e-02
 -4.0424991e-02
  1.9033931e-03
 -2.1861424e-03
 -1.2141390e-04
 -2.4838367e-04
  2.3326157e-03
 -2.7225765e-03
 -8.0381939e-03
 -4.3527508e-04
 -2.9785633e-03
 -3.6859114e-03
  7.9592952e-05
 -3.4008253e-02
 -1.4715961e-03
  1.2650467e-02
 -3.2576352e-02
  5.2406558e-05
  2.8284442e-02
 -8.3729904e-03
  2.9904315e-02
  7.7102971e-03
 -2.1528478e-03
  2.1015571e-02
  4.0814821e-03
 -5.4983487e-03
  3.8271989e-03
  4.6027673e-04
 -5.3069093e-03
 -1.0169893e-02
  2.1397208e-03
  2.5118357e-03
 -1.2122392e-02
 -5.7100216e-03
  1.0681322e-02
 -1.6795675e-03
  6.9623813e-03
  1.0366496e-03
  3.0108637e-03
 -6.6975020e-03
  5.5789971e-04
 -2.0421084e-02
 -7.9939299e-04
  4.0701384e-04
 -3.8434478e-04
 -2.5394501e-03
 -1.5362663e-03
  4.6677850e-03
 -5.6984229e-03
  6.5482833e-05
  2.4839054e-04
  4.1094624e-02
  1.3283612e-03
  6.9489186e-05
 -1.3877390e-04
 -7.6286372e-04
  1.7350354e-03
 -6.9575768e-04
 -5.5754720e-04
  1.8732937e-03
 -1.4264753e-02
  7.5219241e-03
  7.8447629e-03
 -7.0800134e-03
 -2.2009923e-03
  5.0396011e-03
 -1.3510383e-03
  5.6816746e-02
 -5.0477334e-03
 -3.9897565e-02
 -9.8097147e-03
 -2.4570046e-02
 -3.6416426e-02
 -6.1178044e-03
  5.2073658e-03
 -6.7760851e-03
  6.0621379e-03
  2.2784358e-02
  3.9564027e-03
 -1.6023185e-02
 -2.2374928e-02
 -7.4302265e-04
  7.4267378e-03
  3.4406192e-03
 -2.8972244e-03
 -3.0761980e-03
 -7.9986211e-03
  2.1129721e-03
  1.1280146e-03
  3.1413827e-03
  2.9295315e-03
 -5.0572501e-03
 -2.1494164e-03
  6.0206004e-03
 -9.6314484e-03
  2.3388343e-03
  2.2085521e-03
  1.1651852e-03
  1.7941805e-03
  1.5512978e-03
  6.8843062e-03
 -1.2360376e-03
  1.0582775e-02
 -5.0782673e-02
  1.0020416e-02
  2.0631962e-03
 -2.4000790e-03
 -1.5399817e-03
  1.2902276e-02
  3.4559000e-02
  2.1640069e-03
  4.6939189e-03
  7.5739395e-04
 -2.3000659e-03
 -1.3423311e-02
 -9.9867443e-03
  9.1944346e-03
  1.7581452e-02
 -2.8835481e-03
 -2.0584976e-03
  1.3448855e-02
 -1.8611621e-03
  6.4528799e-03
 -1.6682994e-02
 -4.2757072e-02
  9.2394967e-03
  9.7128740e-03
  6.1057586e-02
 -1.1136532e-02
  6.8028863e-03
 -7.5139282e-03
 -5.3515557e-02
 -5.8609276e-04
 -2.0428080e-02
 -7.7253734e-03
  6.6454307e-04
 -3.4902650e-03
 -8.8600980e-05
  6.4715454e-03
  6.2069562e-03
 -4.6015596e-03
  6.2562576e-03
 -5.2697212e-04
 -1.6988702e-03
 -8.7572809e-04
 -2.0480633e-03
 -9.3322754e-04
  9.3975365e-03
  9.4044785e-04
  8.5063174e-04
  1.9766679e-02
 -5.3181252e-03
 -2.3943190e-03
  7.1032322e-04
  2.6231834e-03
 -2.6034750e-03
  5.3935079e-04
  2.5839657e-03
  3.0060587e-03
  1.9400166e-02
 -1.1401787e-02
 -2.6116047e-02
 -3.0328970e-02
 -2.2935569e-02
 -1.5709774e-03
  7.6998456e-04
  2.9928528e-03
 -5.4110575e-04
 -4.3732608e-03
  1.4889424e-03
  1.2109827e-03
 -6.2679348e-04
 -4.2785970e-03
 -5.9189196e-03
 -1.3570544e-04
 -1.3028604e-02
 -1.5671278e-03
  2.0291695e-02
  2.5491834e-02
  9.0674814e-03
 -1.1726503e-02
 -8.5685635e-03
  2.1155018e-02
 -3.8945889e-03
 -8.7430300e-03
 -4.6865628e-04
  3.0859865e-03
 -9.7924909e-03
  6.0684662e-03
  1.5555208e-02
  1.0384880e-02
  3.0220779e-02
  2.1940267e-03
 -1.9381454e-03
 -4.8506666e-02
 -7.3325378e-03
  5.1293401e-03
 -1.0598768e-03
  4.1880374e-04
  2.8163109e-03
 -1.1754466e-03
 -1.4548878e-02
 -3.6498831e-04
 -8.0968958e-04
 -1.2731416e-02
  3.6939366e-03
  1.4989981e-03
  3.1908602e-03
 -6.0097268e-03
  7.7627489e-04
 -3.5662740e-02
 -1.3473969e-03
 -7.5423531e-03
 -4.7628015e-02
  2.0020658e-03
  1.5611953e-02
  4.6839160e-03
  1.6543796e-02
  2.6559969e-04
 -7.0836242e-05
 -3.3872568e-03
  8.0273785e-03
 -3.0590447e-03
 -9.5341317e-03
  2.7274718e-03
  5.4357974e-03
 -8.0836080e-03
 -8.3786109e-03
 -6.3429736e-03
 -3.8149439e-02
 -8.6571798e-03
  1.3033599e-02
 -2.3751197e-02
 -2.3519117e-02
 -1.8326672e-02
  2.6546586e-03
  7.7403113e-03
  1.9506607e-02
 -6.5146312e-03
  6.5339459e-03
  1.2784471e-03
  1.0647001e-02
  2.3903059e-02
 -4.0803399e-02
  8.0453372e-03
 -2.4082774e-02
 -4.0571927e-03
  1.6922863e-02
 -1.7251962e+00
  1.7405082e-02
  6.9328374e-03
  4.0865981e-04
  2.1858418e-03
  7.1469429e-03
  5.5859848e-03
 -6.2689197e-04
  5.0897701e-03
  3.7486604e-03
  5.0538749e-04
 -2.4365680e-03
  3.2437388e-03
 -6.1868032e-04
 -7.5845346e-03
 -3.7200244e-03
  1.9839669e-02
  4.0288819e-03
 -1.6045471e-03
 -3.4435499e-02
 -5.8236364e-03
  2.9077349e-02
 -4.9468754e-03
  1.2385194e-02
 -4.2989739e-04
  2.6883725e-03
  4.0274527e-04
 -1.7548446e-03
  7.0334552e-03
 -1.2675517e-02
  3.3650484e-03
 -1.7047835e-04
 -8.8009732e-03
  3.5786082e-03
 -7.3069304e-02
  1.6110493e-02
 -7.4622105e-03
  1.0810653e-03
  1.3891225e-02
  1.0196123e-02
  1.7518662e-02
  2.9436233e-03
  1.9123664e-02
 -3.9501670e-03
 -1.2145314e-02
 -3.3349819e-03
 -1.7091736e-02
  8.8569932e-03
 -4.1078595e-03
  1.4159110e-02
  4.8299250e-03
 -6.4111757e-03
  8.9491829e-03
 -4.3304795e-03
  1.6874217e-03
  2.9456561e-02
  5.8728517e-03
  1.7812684e-04
  7.0578540e-03
 -5.5823126e-04
 -1.5816779e-03
 -1.0798755e-02
  4.9885395e-03
 -2.8081065e-02
  4.2923405e-03
 -8.5140048e-03
 -1.2302338e-02
 -2.9713691e-03
  9.1211805e-03
  3.3816448e-03
  3.6425327e-03
  6.7091919e-03
 -1.0664540e-02
 -2.4776628e-02
 -5.4296025e-04
  8.2052853e-03
  1.4499669e-03
  6.6303149e-02
 -7.3934486e-04
  6.7533120e-03
 -2.0070663e-03
 -1.0473003e-03
  8.6960858e-03
 -1.1941324e-02
 -2.6080174e-02
 -1.4661341e-02
 -1.4768389e-02
  6.3434918e-03
  1.1918473e-02
 -5.5253874e-03
 -1.1669097e-02
 -2.4484578e-03
  4.7419327e-03
  2.0282878e-02
  1.6800316e-04
 -8.5530523e-03
  8.3188224e-04
 -7.4068819e-05
  1.4885941e-02
 -3.6944378e-02
  5.1807880e-04
  7.9081645e-03
 -6.2569776e-03
  7.9878261e-03
 -1.2861614e-04
  2.9853659e-04
  1.2263875e-02
 -1.8362715e-03
  8.1405789e-03
 -2.0422704e-04
  5.0199111e-03
 -2.6094827e-03
 -7.5346851e-03
 -1.5165549e-03
 -1.1215973e-02
  1.1394416e-03
 -1.8611368e-03
  2.0817790e-02
 -1.7547107e-03
 -1.1249712e-02
  2.9370235e-03
 -1.0539553e-02
 -6.5186917e-04
 -2.0901563e-03
 -8.5202465e-04
  1.7528478e-02
 -1.1210623e-02
 -1.9581608e-02
  1.1733865e-03
  8.6154859e-04
 -4.5193336e-04
  1.9092975e-02
  2.3316182e-04
 -1.1105596e-02
 -7.1550766e-04
 -4.9264599e-03
 -4.0930277e-03
  5.4555788e-04
 -6.8051869e-04
 -4.7641732e-03
  1.6084525e-03
  3.2240064e-03
 -3.7177876e-02
  2.5640122e-04
 -1.8391160e-02
  3.8900848e-03
 -1.5252451e-03
  1.3711981e-02
 -1.1654422e-02
 -2.1700354e-03
  6.2286470e-02
 -2.4802620e-03
 -1.5596706e-02
 -4.4498511e-02
  1.7969010e-03
  4.9654292e-03
 -5.7214091e-04
  4.8485547e-03
  1.5124694e-03
  9.7992262e-05
  5.5731530e-04
 -4.6639671e-04
  1.8946033e-03
  1.6984385e-02
 -5.4218998e-04
  2.2994152e-03
 -3.0907636e-04
  1.4735721e-03
 -3.6417914e-03
  2.5198809e-03
  1.8838377e-03
 -1.7335245e-02
  4.9511547e-04
 -7.8798924e-03
  1.9301609e-03
 -1.4139806e-03
 -3.2399818e-03
 -8.3219130e-03
 -6.4731998e-05
 -3.3381742e-03
  6.7945854e-03
 -3.6158413e-03
  3.4679263e-03
  1.1101686e-02
  1.4389453e-02
  3.0546630e-02
  4.4583981e-03
 -5.1526708e-04
 -3.0949768e-03
  2.5714429e-03
 -4.4032400e-03
  9.5676817e-03
 -5.0413054e-03
  6.3485825e-03
 -3.6788601e-03
 -3.5063475e-03
 -4.0383316e-03
 -5.4412525e-02
 -1.4069511e-02
 -1.8891424e-02
 -7.3338952e-03
 -2.2770598e-04
  8.6616904e-02
 -5.2383166e-02
  2.1495824e-03
  1.1233028e-02
  1.3489971e-02
 -5.7395208e-03
 -1.0353480e-02
 -1.3491491e-02
  5.6930678e-03
  6.6355891e-03
  9.1540422e-03
 -4.4702911e-03
  3.6564900e-03
  1.2473304e-02
 -1.0210351e-02
  1.7012704e-02
 -2.2032531e-04
  5.0193518e-03
 -6.2305052e-03
 -5.6799257e-04
 -1.5668008e-02
  3.6733094e-04
  2.7881083e-03
 -1.4525517e-03
 -4.1585322e-04
 -2.6942478e-03
 -3.5337941e-03
 -1.6548946e-03
 -2.5732259e-03
  1.3187459e-04
  6.6107820e-04
 -6.8928231e-04
 -1.9537769e-03
 -3.0332520e-03
  1.4093766e-04
 -2.2563277e-04
 -2.6601169e-02
  4.5647051e-02
  2.5888891e-03
  7.5982581e-04
  1.0064295e-03
 -4.3050814e-03
 -5.9395484e-03
  4.2364621e-03
 -2.5777246e-03
  2.2570060e-03
 -9.0530887e-03
  8.6238431e-03
  7.8638494e-03
 -3.8726993e-02
  1.6648127e-01
  1.9137362e-03
 -1.8953059e-02
  8.1294468e-03
 -1.8426465e-02
  2.7480049e-02
  3.9685670e-02
  8.4815109e-03
  1.3341916e-03
  3.7283234e-02
 -1.0452761e-03
 -1.4853493e-02
 -2.7827446e-03
 -4.5749252e-03
 -8.9938368e-04
  1.6225657e-03
 -2.8183202e-03
  4.0548858e-03
 -1.0253210e-03
  2.5824930e-03
 -3.5276073e-03
 -3.5218461e-03
 -2.0964995e-03
 -2.2547126e-03
 -3.9948090e-03
 -1.1079663e-02
  2.3944918e-03
  4.2265318e-02
 -5.6838403e-03
  1.1322063e-03
  4.5060378e-04
  2.5880255e-03
 -2.0193281e-03
  2.3682353e-03
  2.8424220e-02
 -1.6471593e-02
  7.1210979e-04
 -4.9863993e-03
  6.6795610e-03
  2.5702883e-03
 -4.6597705e-03
  1.7267095e-02
  2.7415007e-02
 -6.1285033e+00
 -3.9421010e-01
 -4.7039185e+00
  1.3856094e+00
 -3.7385571e+00
  4.6592612e+00
  9.5293187e-03
 -6.4506664e+00
 -2.2171626e+00
  2.1015530e+00
  5.1097522e+00
 -7.1107584e-01
 -3.8455334e+00
  1.5501796e-02
  8.6628002e-01
  4.4598573e-01
  4.1299319e+00
 -2.3807318e+00
  1.7960930e+00
  4.5764408e-01
 -3.2776656e+00
  2.7601788e-02
  3.4567687e-01
 -1.3815741e-03
  9.6896142e-01
 -2.5258310e+00
 -7.2507493e-02
 -1.5492804e-01
 -1.5355557e+00
  1.7062089e-01
  1.1041070e+00
 -2.7369103e-01
  2.2014563e-01
 -2.8089240e-01
 -3.3530075e-02
 -7.8438556e-01
 -2.1559160e-02
 -1.5904506e+00
 -2.5661993e+00
 -8.2602733e-01
  7.4738830e-01
  8.2803166e-01
 -3.0603352e-01
  6.9292009e-01
  6.2461984e-01
  2.8256205e-01
  7.5175762e-03
 -3.6385173e-01
 -1.4745413e-02
  8.5380614e-02
  1.2384561e-02
 -1.0490993e+00
 -4.9345362e-01
  3.2159012e-02
  7.2734281e-03
 -4.6973717e-03
  4.2705340e+00
 -9.9429432e-03
  4.1593025e-03
  3.0143615e-02
  2.3561290e-01
  3.4853318e-01
  2.5260922e-02
  2.3841619e-02
 -1.7330661e-02
  1.3452485e-01
  1.1041111e-03
 -3.5063379e-02
 -1.8777832e-03
 -1.3102113e+00
  7.2769322e-02
 -1.1201591e-03
  9.4517358e-03
 -6.0397987e-03
  3.9460590e-01
  5.6095161e-03
  4.1868088e-01
  7.0225078e-01
 -1.5081912e+00
  2.6830286e-03
 -3.1893224e-02
  2.3644443e-03
 -4.9544000e-03
  4.0419996e-02
 -3.5988357e-02
  1.6552329e+00
 -2.2488441e-02
 -3.1782389e+00
 -3.3368114e-01
  5.0512054e-03
  7.5593829e-01
 -7.3914984e-03
 -6.1130244e-01
 -4.4895254e-02
 -3.8598451e-01
  1.4839113e-01
  2.2441277e-02
 -6.2275225e-01
 -8.0404459e-03
 -2.2802435e-02
  8.0973114e-04
  2.2055388e-03
  4.5320425e-02
 -6.5099198e-04
 -1.8661581e-03
  1.7858915e-02
  7.9044029e-03
  9.5775165e-03
 -6.1171753e-03
  3.4146162e-04
  9.6553834e-03
 -6.4726453e-03
  2.3274966e-02
 -7.4667744e-03
 -8.4091065e-04
 -8.8429116e-03
  9.7434511e-03
  1.1437166e-03
 -4.3481872e-05
 -9.9394089e-03
  2.1426069e-02
  3.6942505e-03
  1.5008765e-03
  4.3383217e-03
  1.5102368e-02
  6.3398993e-04
 -1.3136581e-02
 -6.2416955e-03
  5.5232204e-02
 -1.9475799e-03
 -2.0394754e-03
  8.3112679e-03
  1.8617749e-02
 -5.7922150e-03
 -2.8732677e-03
 -5.9754923e-03
  1.5214849e-03
  1.5475672e-02
 -8.2007414e-03
 -1.2499159e-02
 -5.7557048e-03
 -6.4067026e-03
 -3.0792740e-03
  1.8197817e-03
  2.2572369e-05
  9.1213913e-04
  1.9942250e-02
 -5.2696881e-03
 -1.6781205e-04
 -2.3689568e-04
  1.8175574e-03
 -5.1093986e-03
 -6.8877393e-04
  3.4966037e-04
 -9.2018256e-03
 -5.5700159e-03
 -2.8954682e-04
  3.4447256e-04
  1.3350587e-03
 -1.2888511e-03
  4.2328355e-03
 -6.7922822e-03
 -1.5624847e-02
  1.6596088e-03
  1.1674661e-02
  5.2569065e-02
  7.3533952e-03
 -3.1564858e-02
 -1.6091386e-03
 -7.5064246e-03
  1.1329608e-02
 -6.0916566e-03
  1.2625373e-02
  1.0714264e-02
  4.0741760e-02
  5.4509852e-02
  2.0309382e-04
 -9.3146870e-03
 -3.2304805e-03
  2.3533221e-02
 -3.2241936e-03
 -1.2072644e-02
  2.7654087e-03
  6.8396707e-03
 -1.8285455e-02
 -4.7356873e-03
  1.1337493e-02
  9.4427457e-03
  3.2388911e-04
 -3.7964929e-03
 -9.3683711e-04
 -4.9498209e-05
 -4.3867207e-03
 -4.3681832e-03
 -5.8725877e-03
 -1.1761828e-03
 -5.0782091e-03
  2.8242946e-03
  1.2134329e-03
 -9.3376311e-04
 -5.1217936e-03
 -1.7177990e-03
 -9.1580523e-04
  6.3528051e-04
 -8.0102980e-03
  8.0460589e-03
 -5.3854370e-03
 -1.0805957e-02
 -5.3628823e-03
 -4.3392284e-03
 -7.8700334e-03
  1.2557622e-02
  8.2526498e-02
 -5.3306570e-04
  1.8365295e-03
  9.6491462e-04
  5.4552392e-03
 -2.5376498e-03
 -8.5698711e-03
 -6.3832197e-03
 -1.8877781e-04
  1.7516050e-02
 -9.6722776e-03
 -6.2504075e-03
 -1.0933946e-03
 -1.4343308e-02
 -5.7121538e-02
 -1.3097499e-03
 -3.6881704e-02
 -1.8050175e-03
  7.1495725e-04
 -4.7932577e-04
 -2.9138916e-03
 -7.4614523e-05
 -3.1912094e-03
  1.4632677e-02
  3.5996727e-05
 -3.6370218e-02
  2.3437508e-03
 -1.9766511e-03
 -1.3618715e-02
  9.4140675e-03
  3.4373291e-03
 -5.1135924e-03
  5.2542435e-03
  9.3778297e-03
  1.7033739e-02
 -1.3260884e-04
  4.5920303e-03
  2.5851054e-02
 -2.1278575e-02
  1.5266873e-03
  3.1554297e-02
 -8.8219641e-04
 -5.8780354e-03
  3.5977256e-02
 -2.4630779e-03
  1.7379813e-03
 -5.3054034e-03
  1.0244591e-05
 -6.5724137e-03
 -9.0700155e-04
 -1.5892125e-04
  3.6862619e-02
  4.1877732e-04
 -3.4956045e-02
  2.7073720e-03
  1.6036110e-02
 -3.7207801e-03
 -4.0932540e-03
 -1.6788522e-03
  5.4308790e-04
  6.3035744e-03
  4.9377297e-04
 -8.6221611e-03
  1.3362151e-02
  2.9078554e-03
  4.6232543e-03
  2.5193596e-03
 -8.9908903e-03
 -3.5930868e-02
  1.0842723e-02
  7.1993927e-03
  9.8535316e-03
  5.1367558e-03
  1.8959085e-02
  3.5776567e-02
  6.4331652e-03
 -2.9403020e-03
 -1.1266622e-02
  4.0551578e-03
 -2.8582599e-02
  5.6046317e-03
 -1.6442148e-02
  2.7702209e-02
 -5.7021817e-03
  4.8985588e-03
  1.2538444e-02
 -1.7611017e-03
 -8.9592971e-03
 -1.2556400e-02
 -1.1711941e-03
 -4.4744671e-03
  8.3518954e-04
  4.2909659e-03
 -3.2854443e-03
  1.6557388e-03
 -5.8023375e-03
  1.8658433e-02
  1.3665205e-02
  8.0327578e-03
 -4.3210649e-04
  6.5730261e-03
 -9.9229452e-04
 -6.1622211e-03
 -5.1998869e-02
 -5.1227412e-03
  9.3905283e-03
  5.5851068e-02
  4.0317373e-03
 -1.7188260e-02
 -2.5000039e-03
  4.5388360e-03
 -5.6479536e-03
 -2.4911845e+00
  3.4950631e+00
  5.5936370e+00
  2.5598879e+00
  2.6733694e+00
 -1.9938265e+00
 -1.2011869e+00
 -4.7296810e+00
  3.9338069e-03
  1.3171494e-01
 -1.3147932e-02
 -3.9980507e-01
  6.9382787e-02
  7.4015453e-02
 -2.2519600e-02
 -1.4780054e+00
  2.0689983e+00
 -3.9253529e-02
 -3.4384910e-02
  2.4399182e-03
  1.1175169e-03
  1.8614554e-01
  2.7422318e+00
 -6.0591302e-03
  1.9910954e+00
 -4.6225488e-02
  4.5561305e-01
  4.4863610e+00
 -1.3942036e-02
  2.7307905e-03
 -5.1051122e-03
  4.6814740e-02
 -1.3091478e-02
  1.0135262e+00
 -1.1302084e+00
  2.1689748e-03
  2.1630719e+00
  5.8845477e-03
 -2.4179615e-02
 -5.0651026e-01
  9.2429087e-02
 -3.1146431e+00
 -6.0831429e-03
 -1.9334178e-02
 -1.9747133e-03
 -1.7238830e-03
  2.7326332e-02
  5.7414104e-04
 -3.4226156e-03
  2.6683007e-05
  2.8971523e-02
 -3.0613255e-02
 -1.6126255e-02
 -1.5280920e-02
 -2.6198039e-02
 -1.3179013e-04
 -5.8148545e-04
 -1.6271662e-02
 -1.6840924e-02
 -8.6244172e-04
 -3.3373773e-02
  9.2965364e-04
 -1.8204413e-02
 -5.9399527e-04
 -2.5555374e-02
 -1.5440668e-03
 -3.3048627e-03
  7.0623723e-03
  2.5196798e-04
 -1.5583813e-02
  1.2659170e-03
 -1.3174769e-02
 -7.8501562e-03
  1.4888145e-03
  9.6613821e-04
  1.6617952e-02
 -7.9175143e-04
 -9.0518472e-04
 -2.2246268e-02
 -3.9324060e-02
  3.9445362e-03
  1.1413529e-02
  1.8058188e-02
 -5.7098340e-02
 -5.8863456e-03
 -3.8579872e-03
 -7.3464913e-04
  2.3583272e-03
  4.3151215e-02
 -2.4334745e-02
 -1.9111484e-02
  9.4698602e-04
 -1.2601373e-03
 -1.3997070e-02
  2.9903705e+00
 -1.5345596e-02
  3.0209895e-02
  1.5817121e-02
  1.0431752e-02
  1.0868317e-03
  5.0985161e-03
  3.4745462e-02
 -3.1798682e-04
  5.9019887e-05
  1.5212109e-04
 -1.2548096e-03
 -2.2577466e-02
 -3.8051419e-04
 -7.7414014e-03
  9.8418370e-03
 -1.4459816e-02
 -1.8428697e-04
  8.8150173e-06
 -3.1995045e-03
 -1.3858422e-02
 -2.0629435e-03
  1.8301668e-02
  1.9624021e-03
 -3.6417454e-04
  9.4605684e-03
 -1.3460233e-03
 -6.3195586e-02
  4.0038782e-03
  9.8073771e-03
  6.5151162e-02
  2.7068265e-04
  3.1943973e-03
 -2.9196007e-02
 -7.7117374e-03
 -2.0106542e-03
 -5.1370081e-03
 -1.9647919e-03
 -9.5357494e-03
  1.2649802e-02
  3.1040723e-03
  8.1769340e-03
 -8.1969285e-03
  3.1372582e-04
  2.2383546e-02
 -4.2952099e-03
  1.3323997e-03
  6.6626440e-03
  5.2570307e-04
  7.9613067e-03
 -1.6130840e-03
  3.3619693e-03
 -4.8594596e-04
 -3.0319295e-03
  6.4693028e-03
 -1.5630610e-03
  5.6041946e-04
 -2.3485483e-03
 -1.3879766e-03
 -2.2819821e-02
 -6.5155426e-04
 -3.2692394e-04
 -2.1947755e-02
 -2.1601494e-03
 -9.9534250e-04
  1.7398518e-02
 -2.9276942e-03
 -1.1982007e-03
 -3.2195183e-03
 -7.2628246e-03
  3.3028896e-03
 -3.9245421e-03
  1.4840902e-03
  3.1727534e-03
 -2.9048955e-03
  1.2451761e-03
  1.4553880e-03
 -6.3664219e-03
  4.2217267e-03
  1.3059736e-04
 -3.2462820e-02
 -5.3247372e-03
  8.4678899e-04
  2.5480950e-02
  2.6978496e-02
 -1.1107966e-03
 -4.0524518e-03
  8.1941038e-03
  2.0469541e-02
  1.7034267e-03
 -5.5648736e-03
  5.1940489e-03
 -1.7433781e-02
  1.4365899e-03
  5.1834306e-04
 -8.8895729e-04
 -7.4664707e-04
  4.9583806e-04
  1.1786860e-03
 -3.0653051e-03
 -1.3658168e-03
 -1.0654495e-04
 -3.7866307e-03
 -1.2983857e-03
  9.4291065e-03
 -8.7818902e-05
 -1.8727031e-02
 -3.4982823e-03
  1.6848262e-02
 -2.3458945e-03
 -6.7469035e-04
 -1.9527539e-03
 -4.0122876e-03
  1.2391683e-02
  2.1372173e-02
 -4.0151970e-04
  3.4647060e-04
  1.1816336e-02
 -3.9681204e-04
  1.5352393e-03
  2.0493250e-02
  6.4900937e-03
  4.9157967e-03
  6.5086572e-03
 -4.2775264e-03
 -2.2892938e-03
 -6.4269250e-04
 -1.3278733e-02
  5.3900364e-03
 -8.2279546e-03
 -1.5340289e-03
  9.2507973e-03
 -1.7002050e-03
 -7.6020104e-03
  1.3324673e-02
  2.3835475e-02
 -3.9883126e-03
 -3.6035273e-02
 -8.9171985e-03
  7.3774476e-03
 -1.0878732e-03
  1.2830185e-02
  5.7352013e-03
  1.3808216e-02
  3.5243463e-02
  1.9165120e-03
 -1.1829298e-02
 -3.8560885e-03
 -8.2161101e-03
  2.9908121e-03
  3.4525633e-02
  1.2543217e-03
  9.2290388e-03
 -1.1609357e-03
  5.2071982e-03
 -3.0702578e-03
  2.5554448e-03
  2.3317204e-03
 -9.1261268e-03
  1.5185564e-03
 -1.4072615e-02
  1.4890159e-02
 -4.1846493e-03
 -2.8452390e-01
 -2.8879661e-03
 -5.8870466e-04
 -1.1959228e-03
  4.4288100e-03
  1.0077973e-02
 -1.1468736e-02
  3.2703825e-03
  6.0894038e-04
 -1.1621984e-02
 -1.2188065e-03
  3.8429789e-02
 -6.1074260e-04
 -1.5318443e-03
 -1.2727519e-03
 -1.0176270e-03
  4.7093448e-03
 -3.3054284e-03
 -2.3854279e-03
 -1.4290781e-03
  1.5338752e-03
 -2.1205745e-03
 -6.6725658e-03
 -8.8236583e-03
 -4.4830982e-03
  1.0273328e-02
 -8.0900546e-03
  6.3055224e-04
 -1.3580122e-02
  6.9192918e-03
  3.7090750e-03
  8.9096632e-03
 -8.6658904e-03
  8.8640362e-02
 -1.6438382e-03
  1.0220110e-03
  6.8579004e-03
  1.9164591e-03
  1.2435050e-03
  2.7898655e-03
  1.6105988e-03
 -7.2901463e-04
  7.3241647e-03
 -2.9608007e-03
  1.8774706e-03
 -2.9435118e-03
  1.3478942e-03
  5.8096447e-03
  4.6068472e-03
 -3.3623341e-03
 -2.6131005e-03
 -5.5469625e-04
  2.2452662e-03
 -2.4845772e-03
 -9.6531515e-04
 -2.3219432e-04
  5.5116584e-04
 -1.0674138e-03
  7.4449025e-02
 -1.5660877e-04
  1.0423358e-03
  1.1749656e-02
  7.1596791e-04
 -8.4825128e-02
  1.1616277e-02
  6.6184849e-02
 -7.6937460e-05
 -9.2119951e+00
 -1.7932152e+00
  4.2296400e+00
 -7.1183610e-01
  3.7540717e+00
  6.2130880e-01
  1.1243533e+00
 -4.0644846e+00
 -8.9583272e-01
  3.2442434e+00
 -2.0306520e+00
  3.9204113e-02
  1.0090938e+01
  6.8139482e+00
 -3.0047705e+00
 -5.7027912e+00
 -3.4386411e+00
  2.8888914e-03
  8.8728309e-01
 -7.8095660e+00
 -1.9325587e+00
  2.2830786e-02
  2.3605173e+00
 -1.3873042e+00
  2.2389815e+00
  2.4234509e+00
  4.2313188e-01
  4.3111701e+00
 -2.6411536e-01
 -4.3210816e+00
 -1.4451780e+00
  2.7768213e-01
 -1.8118365e+00
  2.5965440e+00
 -9.1639066e-01
  1.8165730e+00
  2.0615811e+00
 -1.2788016e-01
 -6.8341732e-01
  1.0648333e-01
 -9.2940140e-01
 -1.2889187e+00
 -1.3978699e+00
  8.8375229e-01
  1.3115670e-01
  7.4201852e-02
  9.8171070e-02
  1.8349038e-02
 -1.0297965e-01
 -1.1868531e-02
  4.2120408e-02
 -1.5021473e-01
 -2.6827736e-02
  6.0779206e-02
  3.7314661e-03
 -1.2678087e-02
  2.0337876e-02
 -8.3029130e-03
  1.6969942e-02
 -4.0837661e-03
  2.1946924e-02
 -7.1247383e-03
 -1.2225810e-02
 -1.1307422e-02
 -2.8640892e-02
  5.3614751e-02
 -4.8710317e-03
 -1.4703563e-02
 -2.2115178e-01
  4.3775123e-02
 -3.2677995e-03
  2.1457651e-03
 -2.3168014e-02
 -4.0352434e-02
  2.3880156e-02
  2.1103239e-03
  2.5638584e-02
  2.7087783e-03
  2.4902463e-02
  7.4257492e-03
 -4.2849677e-03
  7.5844792e-03
  6.4700320e-03
  1.8566810e-02
 -8.7369107e-02
  2.5442755e-03
  2.1770401e-03
  5.5892672e-03
  5.7256821e-04
  6.7933677e-03
 -5.1509030e-04
  1.4151745e-03
 -2.4531145e-02
  7.4938806e-03
 -8.4074488e-04
 -1.8217134e-03
 -1.8987475e-03
  8.4461953e-04
  6.3296426e-03
 -4.0463392e-02
  6.5624737e-03
 -1.0213514e-03
  1.7448477e-02
  1.8127330e-03
  2.0304240e-02
  1.6412179e-01
  2.6733603e-02
 -2.2717675e-02
  1.0702707e-03
 -3.1025528e-03
  6.3498397e-03
  2.0132388e-03
  9.1916200e-04
  1.8453943e-04
  1.1458821e-03
 -1.1591954e-03
  7.4476009e-04
 -1.0313828e-03
  2.5429733e-02
 -2.8584355e-02
 -5.2386843e-02
  3.4191884e-04
 -9.2302701e-03
  2.8116455e-02
 -4.2438000e-02
  6.8302169e-02
 -2.3662539e-02
 -4.3831673e-03
  1.1192042e-02
 -9.7927721e-03
 -3.0776095e-03
  1.9254902e-02
 -5.1428336e-03
  3.4070367e-03
  1.1541555e-02
 -1.6306568e-02
  3.7536437e-03
 -1.1943709e-02
 -3.1945270e-02
  6.9302847e-03
 -9.6678995e-03
  7.0967032e-03
  3.0591837e-04
 -4.5343162e-04
 -6.4993009e-04
 -8.7100256e-04
 -3.5957946e-03
  1.4560224e-02
  4.7712065e-03
 -3.1743478e-03
 -8.2658813e-04
 -1.0959229e-03
  4.5262277e-03
 -1.3782387e-03
  5.2930880e-03
 -3.2440815e-04
  5.1020813e-04
 -1.1636222e-04
 -7.7043922e-04
  2.0220113e-04
  1.1856872e-02
  2.4711920e-03
 -1.6439414e-02
  5.3466889e-03
 -1.8567879e-03
 -1.2940402e-02
  9.7192079e-04
  1.8199796e-02
 -2.2556472e-03
 -9.4972411e-03
 -6.2059914e-03
  3.7637382e-04
 -3.0729519e-02
 -1.3381585e-03
 -3.9565018e-03
  1.1717952e-03
 -9.4524147e-03
  9.7408118e-03
 -1.0757851e-02
 -5.2026924e-05
 -1.0276560e-03
 -4.2839408e-02
  4.1325293e-03
 -1.2620490e-03
 -1.3202740e-02
  2.0076817e-02
  1.8479800e-03
  3.1643551e-02
 -2.3440612e-03
  1.2357409e-02
  1.6290732e-03
 -3.5558484e-04
  5.4270322e-03
  1.4792999e-02
 -7.0208414e-03
 -1.2403694e-03
 -1.2834673e+00
  8.4633958e-03
  9.4584934e-03
  7.2723413e-03
 -1.3360928e-04
 -4.5390553e-03
  7.4974759e-03
  3.9339187e-03
  7.5635840e-03
 -6.2238043e-03
  3.2392659e-03
  4.3858273e-04
  2.8931920e-04
  4.9224570e-03
 -1.7073490e-02
 -2.1378027e-04
 -1.5537350e-03
 -2.8445260e-03
  1.1695583e-04
  7.2795390e-03
  5.7949019e-03
  1.8632339e-04
 -7.8419009e-03
 -6.6846097e-04
 -4.0112998e-02
  1.2631936e-02
  2.5850637e-03
  8.3981818e-03
 -2.3819102e-02
  3.8347870e-02
  6.8118284e-03
 -1.8063379e-02
 -3.3142408e-03
  1.1044467e-02
  3.2228630e-02
 -1.8900158e-02
 -8.1524411e-03
  1.0527427e-02
  9.2061460e-01
  1.3169192e-01
 -1.2581077e-01
  9.2114257e-03
  6.0748286e-03
  2.1660013e-02
  4.8526810e-03
  6.0884287e-03
 -2.1407612e-02
  5.0177686e-03
 -2.6363993e-04
 -3.5869047e-02
  2.5126806e-01
 -6.8689231e-04
 -1.1571792e-03
 -8.5805967e-02
  2.4580962e-03
  1.7605245e-03
  5.3473222e-03
  4.2056548e-03
 -5.1976040e-02
  2.9021451e-02
 -1.0803469e-03
 -2.2457670e-01
 -2.1641862e-02
 -5.4432857e-03
  1.1865576e-01
 -6.5367314e-04
 -9.5328810e-03
  1.6460887e-03
 -7.2951312e-03
 -1.3945533e-02
  1.0405722e-03
 -2.0685716e-02
  4.5870129e-02
 -2.4313379e-02
 -1.4716245e-03
  3.0735880e-03
  3.4918349e-02
  2.6643155e-02
  1.7933084e-02
 -1.2350919e-02
 -8.9955353e-04
  9.1779213e-03
  1.1977325e-02
 -1.6272938e-02
  1.2674790e-02
  3.0721277e-02
  1.7015129e-02
  6.1621603e-02
 -1.7845202e-03
  6.0722567e-05
  5.6224596e-03
  1.9369436e-02
  3.5808697e-02
  1.1153293e-02
  4.4832532e-03
  3.8833811e-03
 -2.3641555e-02
 -7.4269101e-03
  3.4204273e-05
 -1.2455196e-03
  1.7669080e-02
  1.9980506e-03
 -8.9265034e-04
  1.1218018e-03
 -3.2922591e-03
 -4.0870900e-03
 -1.1735217e-02
  5.2508889e-03
 -4.8111160e-03
 -9.7094872e-04
  1.7576668e-02
 -7.8221569e-03
  3.8414557e-02
  1.0530312e-03
  2.6314221e-03
 -8.1383707e-03
  2.3560808e-03
  7.2431718e-03
 -6.0780779e-03
 -5.8275852e-03
  1.1733750e-02
 -9.1067050e-03
  8.1318685e-05
  2.1305008e-04
 -6.3081429e-04
 -4.0828846e-02
  2.2247644e-02
 -1.0624127e-03
  2.5378768e-03
 -1.0515143e-02
  5.1242299e-03
  1.7232902e-03
 -5.1358738e-03
  4.4769966e-03
  2.7877151e-03
 -3.0664008e-03
  6.3631907e-03
 -1.3950712e-03
 -2.3657992e-03
 -1.7653480e-02
  8.9337446e-02
 -1.0122196e-03
  3.7512351e-02
  2.9726673e-02
  2.3188818e-02
 -3.3211265e-02
 -4.0596430e-03
 -1.0475632e+00
  1.1270877e-02
  1.6236207e-02
 -1.4674520e-03
 -8.2038427e-03
 -2.9696133e-02
 -3.6219394e-01
 -4.6027992e-03
 -1.3887300e-03
  1.7117820e-03
  1.5790620e-01
 -3.8773175e-02
 -7.0037740e-01
 -1.0118150e-04
  6.1320728e-03
 -7.5109978e-03
 -4.1506138e-01
  4.1896091e-03
  3.6641648e-03
  3.3698862e+00
 -3.2527715e-01
  5.4308499e-04
 -3.4160435e-02
 -1.5003125e-03
 -6.1402158e-03
 -1.1673648e-01
 -7.9064500e-03
  1.4826099e-03
  7.5353944e-04
  3.8381673e-02
  5.8608884e-03
 -1.3159240e-02
  1.7933272e-03
  7.0923683e-03
  1.3936401e-03
  5.4251961e-04
  1.5212637e-03
  4.1072280e-03
 -5.1097260e-03
  6.6840472e-03
 -4.3802647e-04
 -6.2282109e-03
  2.4848939e-03
  2.8619128e-03
  3.0905019e-02
 -1.3069146e-02
 -1.1148110e-03
  5.8892544e-04
 -6.7446684e-03
 -6.3162679e-03
 -1.4829997e-02
  1.4209673e-02
 -3.8478526e-03
 -8.4583303e-03
  4.9418944e-04
  1.4295330e-03
  1.5529923e-04
  1.8693033e-03
  7.8059305e-03
 -6.2927429e-04
 -8.4151840e-03
 -8.1308102e-03
 -2.4388351e-03
  2.2148273e-03
  9.8229665e-04
  4.1788458e-03
  6.9019816e-06
 -1.5083757e-03
 -1.3113407e-02
 -1.0407683e-02
 -3.1780221e-03
  1.2440035e-02
  2.0226161e-03
 -1.6419338e-02
 -5.3336951e-03
  2.6472420e-03
  5.7330094e-03
  4.2978222e-03
  1.0240460e-03
  1.3252522e-04
  1.2801284e-03
  4.6624832e-02
  5.6543201e-03
 -2.4572015e-03
 -1.5440473e-04
  4.7363373e-03
  3.8294317e-04
  2.8924037e-02
 -7.6175827e-05
  7.9247551e-03
 -4.6289014e-03
  5.6675542e-03
 -6.5537258e-03
  2.1547822e-03
 -5.8891089e-03
 -6.7367065e-03
 -1.5414697e-03
 -3.9968683e-04
  5.5370942e-02
 -1.1998401e-03
  8.7519577e-03
 -4.1256156e-02
  1.9687037e-04
  1.0176547e-04
  7.9039868e-04
  3.9247066e-02
  7.4698566e-03
  2.1001667e-02
 -6.7094743e-02
  4.8056800e-02
 -4.6149321e-02
 -2.5725595e-03
 -4.6016159e-03
 -1.0066079e-02
  1.0683852e-02
  7.2842953e-04
 -3.7743989e-02
  2.8699513e-03
 -1.2833656e-02
 -6.3527703e-02
  5.3251181e-03
  1.4289595e-04
  7.9198889e-03
 -3.2713853e-03
 -4.5752460e-03
 -1.9897642e-02
 -1.0152044e-02
  1.5963024e-02
 -2.4614196e-02
  6.2651341e-03
 -2.8784331e-03
 -3.8904508e-03
  1.0387054e-02
 -1.8822813e-02
  8.5526536e-04
  2.5450566e-03
 -5.9655122e-05
 -3.6991257e-04
  7.5286633e-05
  1.7856041e-02
  1.1127648e-02
 -1.2815099e-02
 -7.1569704e-03
 -1.7436047e-04
 -9.9845240e-03
  6.5425097e-04
 -3.0723291e-03
 -2.9826893e-03
  2.9181780e-03
  5.6548323e-03
 -1.1715372e-03
  2.2727402e-03
  2.8554350e-03
 -1.0026168e-02
 -9.0585658e-03
  1.7591781e-03
  3.7221666e-03
 -6.2930137e-03
 -5.7881302e-03
 -2.6754786e-03
  9.4851274e-03
 -7.1160374e-03
 -3.2035613e-03
  6.4597218e-03
  2.3552198e-02
 -1.1460142e-02
  9.7825201e-03
 -1.1486984e-03
 -2.8087255e-03
  3.3826991e-03
  5.4937680e-03
  1.7790287e-03
  3.6589086e-02
 -4.9463694e-04
  2.1261198e-03
 -4.4939220e-03
 -8.1850812e-03
  6.3502644e-03
  9.8816976e-03
 -7.4108469e-04
  4.9442532e-03
  9.8224042e-04
  1.3038769e-02
  2.7464190e-03
 -5.7299514e-03
 -6.1620362e-03
  1.1775749e-03
  1.0850397e-02
 -5.2292035e-03
 -1.1132334e-02
 -4.0700904e-04
  3.1901349e-03
 -1.7425319e-02
 -3.7597846e-03
  8.4018879e-02
  8.5729118e-03
 -8.7927915e-03
 -7.4373079e-03
 -2.3227009e-04
 -2.1115972e-03
 -1.4700129e-02
 -2.3253483e-03
  9.6953167e-03
 -2.9948962e-04
 -4.2196871e-03
 -5.2039423e-03
 -8.3845481e-04
 -6.3700066e-03
 -3.2860272e-02
 -5.7653611e-04
  4.4830336e-04
 -3.2651372e-02
  2.2477773e-03
 -2.9847017e-03
 -1.6762897e-02
 -3.6737951e-03
 -1.1380902e-02
 -3.0014725e-02
 -2.6600666e-02
 -1.1298276e-02
  3.0998403e-02
  3.6983925e-03
 -1.4404529e-03
 -1.3763212e-02
  3.0701701e-03
  2.1327874e-03
  1.1150290e-03
  3.7797108e-02
  3.3018978e-03
 -9.0445863e-04
  1.2132785e-03
 -7.2517396e-05
  4.7127469e-05
  1.2903567e-03
 -2.9903410e-03
  3.4801601e-03
 -5.3158817e-03
 -1.2735857e-02
  5.0040376e-03
  1.0076620e-02
 -2.1411967e-03
 -1.1837078e-03
 -5.7816780e-03
 -9.6763922e-03
 -1.7906675e-02
  2.9388243e-02
  1.3126297e-03
 -3.2880163e-04
 -2.9901199e-02
  5.3260091e-04
 -1.8400727e-03
 -8.2864298e-04
  3.8515753e-03
 -2.6890522e-02
  1.6150871e-02
 -1.1345528e-02
  6.0697398e-03
  3.2188424e-03
 -1.0671069e-02
 -2.1830453e-02
 -5.5586202e-03
 -8.1954822e-03
  6.4225923e-03
  2.2679044e-02
 -8.4678568e-02
  3.5230618e-02
 -1.0117832e-02
 -1.6568333e-02
  8.6028367e-02
 -1.0771852e-01
  8.6887917e-03
  1.3083027e-02
 -1.3476350e-02
 -1.5784146e-02
 -1.0308234e-02
  4.8880748e-02
 -1.7093759e-02
  9.8774871e-03
  2.9028544e-02
  1.6787759e-03
  1.1697290e-02
  1.8033282e-03
 -4.1523110e-03
 -2.2862675e-03
 -4.1008312e-03
  1.6648367e-02
  5.6279507e-03
 -5.2723675e-03
  6.4057345e-03
  1.1113613e-02
  4.3874136e-03
 -4.9195648e-04
  2.4489030e-02
  3.0341299e-02
  3.9223381e-03
  1.9826904e-01
 -1.9657933e-03
  3.5626952e-02
  2.3759984e-04
 -5.3693265e-02
 -3.7934601e-03
 -5.2756787e-04
  2.4653838e-03
 -5.2556768e-03
 -7.2953687e-03
  1.7035740e-03
 -3.1039701e-03
  2.1355154e-02
  2.8827970e-03
  5.9621567e-03
 -2.0335071e-02
  1.7387373e-03
 -1.1358269e-03
 -8.0765402e-03
 -8.0778040e-02
 -8.8016904e-04
  1.9087360e-04
 -4.0515117e-02
 -9.2463364e-04
  2.0716456e-03
  1.9994732e-04
  3.8043573e-03
 -1.2807951e-03
  1.7639093e-02
  5.3807873e-02
 -2.4582967e-02
 -5.3767271e-02
 -4.1592550e-02
 -7.4026071e-02
 -1.5693310e-03
 -8.6188479e-04
 -2.1330711e-02
 -2.5321876e-03
 -2.7052248e-02
 -1.9913856e-02
 -5.7030851e-03
 -6.3065407e-03
 -3.7022738e-03
  1.1345221e-02
 -2.8205765e-03
 -3.6705779e-03
  1.2275076e-02
 -1.2690518e-02
  6.3855257e-03
 -2.0602949e-02
 -1.7599272e-02
 -2.0017009e-02
  1.6585533e-02
  1.7371973e-02
 -4.5746053e-04
 -7.0323393e-04
 -9.9250779e-04
  1.2955568e-03
  2.2170360e-03
 -3.4210572e-04
  2.6323739e-04
 -2.2487913e-03
 -2.6638457e-03
 -2.6298063e-03
 -6.5035187e-03
 -3.4933132e-03
  5.4298150e-03
 -1.0988874e-02
  1.6002566e-02
 -1.4053958e-02
  2.8785227e-03
 -8.9877183e-03
  1.4791862e-04
  3.0419857e-03
  1.5407681e-02
 -8.6030141e-03
  1.7795708e-03
  5.6055933e-04
  8.5627608e-04
 -1.1192607e-03
  1.2936440e-03
  1.2399326e-03
 -1.9339990e-02
  3.2225914e-02
 -2.1399928e-02
  2.0174813e-02
  4.0379731e-04
  7.9109231e-03
  5.5754386e-02
  6.7546307e-03
 -9.4995767e-02
  1.8826941e-02
 -1.2353245e-03
  2.1602461e-02
 -6.4804079e-03
 -1.2311126e-03
  5.5641476e-03
  2.8960635e-03
 -5.7676126e-04
  1.8464844e-03
  2.2521913e-03
  7.6315715e-03
 -5.1851436e-03
  3.5106752e-03
  1.7284196e-02
 -9.1517431e-04
 -5.1974608e-03
 -1.5460266e+00
  5.1612067e-03
  9.5071143e-04
 -3.7629161e-02
  1.3218151e-03
 -7.3088668e-05
  7.8725512e-04
  2.7369281e-02
 -2.2322572e-04
 -9.7061289e-05
 -1.3222693e-02
 -3.1305463e+00
 -3.5447607e+00
 -2.7622211e+00
 -3.8638122e+00
  3.8041208e+00
  4.3468409e+00
  3.7636895e+00
 -4.0469880e+00
  1.1073847e+00
  4.2293758e+00
 -3.6861329e+00
 -3.6572270e+00
  3.9157054e+00
 -4.1346688e+00
 -2.6598163e+00
 -3.7051578e+00
 -4.0373411e+00
 -3.7721789e+00
 -3.7101526e+00
  4.3854299e+00
 -1.9576131e+00
 -4.1132598e+00
  3.2566948e+00
  4.0775943e+00
 -2.4982061e+00
  3.6357033e+00
 -4.4957218e+00
 -3.6510472e+00
 -3.6799259e+00
  3.7006745e+00
  3.0486355e+00
 -4.0147543e+00
 -3.7297263e+00
 -2.9655595e+00
 -3.3602903e+00
  3.7963407e+00
  3.9591956e+00
  3.9708455e+00
  3.1580870e+00
 -3.8317621e+00
 -3.3531480e+00
 -4.2702131e+00
 -3.9521372e+00
 -2.9707613e+00
  3.9242477e+00
  3.8925302e+00
  2.4840384e+00
 -5.2630091e+00
 -3.1329834e+00
 -3.8746612e+00
  3.5824716e+00
  4.2982235e+00
  3.8505931e+00
  3.8529999e+00
  3.6308441e+00
  3.9693305e+00
 -5.9755430e+00
 -3.8905268e+00
 -4.0427103e+00
 -3.2018542e+00
 -4.6670423e+00
  4.2494202e+00
 -3.3219109e+00
  3.2789023e+00
  4.1009712e+00
 -3.8105881e+00
  4.1691909e+00
 -3.8215523e+00
  3.6322944e+00
  3.6929846e+00
  3.4911871e+00
  3.3964887e+00
  3.5814493e+00
 -3.7314489e+00
 -9.9094075e-01
 -4.0274477e+00
 -3.9632041e+00
 -3.7500107e+00
  4.3183842e+00
 -3.4211438e+00
  3.7920084e+00
  4.9082398e+00
  3.4593630e+00
 -4.8494434e+00
  3.9385514e+00
  4.5008388e+00
  4.9910218e-01
 -3.8241868e+00
 -3.8970363e+00
 -4.7206559e+00
  2.8153746e+00
 -3.5940301e+00
 -3.0554268e+00
 -5.8498883e+00
 -3.4064682e+00
 -3.7242522e+00
  3.8839998e+00
 -3.9791114e+00
  4.2834706e+00
  4.3737946e+00
  5.3878315e+01
  4.2938892e+01
  5.5423956e+00
  6.2686676e+01
 -5.7029140e+01
 -5.7092789e+01
 -6.4187012e+01
  8.3687614e+01
  2.8372018e+00
 -5.6934860e+01
  4.2964222e+01
  5.2997311e+01
 -9.8905396e+01
  8.9064339e+01
  6.8071838e+01
  6.0716274e+01
  6.6266319e+01
  3.9161453e+01
  4.8279865e+01
 -4.0385689e+01
  1.7394600e+01
  8.7847458e+01
 -8.6697006e+01
 -7.0260384e+01
 -6.3066812e+00
 -4.5784378e+01
  7.3838898e+01
  4.2713379e+01
  7.0576035e+01
 -4.3542568e+01
 -6.4369934e+01
  7.8439079e+01
  2.8337511e+01
  5.7662495e+01
  4.1927593e+01
 -4.5448086e+01
 -5.4740459e+01
 -6.5077881e+01
 -1.3439976e+01
  3.6181557e+01
  2.0531012e+01
  1.0194913e+02
  9.4937134e+01
  9.1215134e+01
 -6.6180183e+01
 -5.8351624e+01
 -2.5526897e+01
  4.4698078e+01
  2.7072041e+01
  5.3212246e+01
 -8.9709801e+01
 -7.5068382e+01
 -6.9446701e+01
 -6.8892441e+01
 -3.9833836e+01
 -6.7539742e+01
  7.4018654e+01
  5.4286171e+01
  5.4278419e+01
  1.6885525e+01
  7.5805267e+01
 -9.0715065e+01
  3.6087383e+01
 -3.7845657e+01
 -8.7713478e+01
  4.7873920e+01
 -7.6352798e+01
  3.8583725e+01
 -4.7632675e+01
 -5.1231812e+01
 -3.5278446e+01
 -3.3196823e+01
 -2.9590380e+01
  4.8974777e+01
 -2.7421360e+00
  6.6775803e+01
  7.6462914e+01
  5.2194668e+01
 -8.9226730e+01
  4.2998699e+01
 -3.2907806e+01
 -3.9458652e+01
 -2.6176979e+01
  5.4741825e+01
 -9.2164375e+01
 -6.5086105e+01
 -2.6789231e+00
  7.7678291e+01
  5.1886272e+01
  6.0173374e+01
 -2.2729570e+01
  5.4474590e+01
  6.9300728e+01
  4.5119156e+01
  4.7743801e+01
  5.7265633e+01
 -7.1840790e+01
  5.6926777e+01
 -6.4765129e+01
 -7.8156418e+01
 -5.0516850e-03
  2.2073844e-02
 -9.9533203e-04
 -8.2744099e-03
  1.0341918e-01
 -4.4726923e-02
 -4.8149329e-02
  6.6162888e-03
 -7.3966477e-03
  3.6216039e-02
  3.4167659e-02
  4.8919752e-02
  1.0165568e-02
  8.7073240e-03
  2.7899831e-04
  7.3250607e-02
 -5.1875196e-02
  2.0662267e-02
 -3.1663163e-04
  1.1462499e-02
  3.5907018e-05
 -1.4410764e-02
 -4.7498522e-03
  2.3838494e-03
 -4.3589696e-03
  1.6872240e-03
  3.8025275e-02
  3.0487929e-03
 -3.5561472e-02
 -8.2520200e-03
 -9.5974524e-03
 -7.0186281e-03
 -8.2596922e-03
  2.5771186e-03
 -9.1815079e-03
 -7.4106883e-03
  2.1206686e-05
 -2.4157448e-02
 -2.0666668e-02
 -3.2372870e-02
 -1.6942647e-03
  3.1553071e-03
  7.0759547e-03
  3.9044884e-03
 -3.1282913e-02
  1.7117622e-03
 -2.1853738e-02
 -3.9777365e-03
 -4.7252674e-02
 -5.1320181e-04
  9.5273746e-04
 -2.6132546e-02
 -4.9676389e-02
  8.8113420e-02
 -5.9246263e-03
 -2.6161604e-02
 -1.0641552e-01
  5.1987775e-02
 -2.8050890e-02
  3.2882520e-03
 -1.4047092e-04
 -3.8230731e-03
  1.3927548e-02
 -9.0154717e-03
 -2.5212932e-02
 -2.7814098e-02
  2.9069434e-03
 -2.8681744e-02
 -2.4754327e-04
 -3.4480162e-02
  2.5898861e-02
 -2.4974432e-02
 -2.4954332e-02
 -2.1448331e-02
 -1.2150112e-02
  1.4568181e+00
  2.8122775e-03
  1.5642643e-02
 -8.8185183e-04
  4.5068897e-03
 -1.6544091e-02
 -2.3963603e-03
  1.3951212e-02
 -9.7744949e-03
  6.2779665e-02
 -2.4153855e-02
  2.9410245e-02
  3.5921757e-03
  2.3366347e-02
  1.1698615e-02
 -1.9386595e-02
  7.1593955e-02
 -8.2735326e-03
  4.2048067e-02
  8.2363738e-03
 -1.5898872e-02
 -1.6571758e-02
 -2.8536975e-02
  2.5557745e-02
 -1.4953995e-02
  1.5090343e-01
 -4.5322563e-02
  3.9235167e-03
 -6.4650930e-02
  6.9278851e-04
  6.0320217e-03
 -6.3306466e-02
 -6.0256090e-02
 -8.0580683e-03
 -6.4642592e-03
 -1.3340523e-02
  3.1634308e-02
 -1.8575134e-02
 -2.6814163e-02
 -4.4855524e-02
 -7.8436090e-03
  2.3719415e-02
 -2.7329838e-02
  1.1950482e-03
 -8.0099300e-02
  2.3737896e-02
 -8.0684340e-03
  6.5507309e-04
  1.2099575e-02
  1.0045682e-02
 -1.0669023e-01
 -1.4382314e-02
 -7.6089776e-03
  5.7597216e-02
  2.6880528e-03
  2.6213193e-02
  1.7287076e-02
 -6.4762994e-03
  8.3634555e-03
 -7.3047783e-03
  1.6793672e-02
  3.0385239e-02
  2.8505060e-03
  8.9283623e-03
  5.1509063e-03
 -3.5688749e-03
  2.2638844e-02
  6.1888557e-02
  2.7769402e-02
 -1.7799337e-03
  2.9209131e-02
  6.4867668e-02
  3.8935252e-02
  9.5702052e-02
 -2.9493829e-03
 -7.3839421e-03
 -7.6425786e-04
 -7.4834330e-03
 -1.5180705e-03
  4.0089354e-02
 -7.6472439e-02
 -2.5729239e-03
  5.0560725e-03
  1.4364674e-03
  6.2327823e-03
 -5.4063428e-02
 -1.2645869e-01
 -3.3400066e+00
 -1.6750975e+00
  4.3913674e-01
  1.6924320e+00
  5.1372361e-01
 -2.2190034e+00
  8.4746790e-01
 -3.0638736e-02
  1.4795324e+00
  1.2858343e+00
  2.7243898e+00
  4.4839234e+00
  5.2331624e+00
  6.3167276e+00
  8.1002340e+00
  3.3098483e+00
  8.5521281e-01
 -1.2015755e+00
 -9.4337636e-01
  2.0118484e+00
 -1.6580523e+00
  3.1349049e+00
  2.3069437e+00
 -6.2980846e-02
  2.0462809e+00
 -1.4313564e+00
 -1.2835878e+00
  2.6012497e+00
  6.8785423e-01
  2.4650953e+00
  6.8111092e-01
  4.3605459e-01
 -2.1113476e-01
 -1.0997529e+00
 -1.0042546e+00
 -2.1407468e+00
  1.8866009e+00
 -2.6836498e+00
  1.3980603e+00
 -3.9960209e-02
 -3.1849606e+00
  3.3334738e-01
 -2.1717384e+00
  1.3630002e+00
 -3.5026699e-01
 -2.2413351e-03
  2.3267476e-01
  1.1008646e+00
 -3.8136396e-01
  4.1065171e-02
  3.4530342e-02
  1.7481102e-02
  1.7552628e-01
  6.5332379e+00
 -1.3955025e-02
  1.7783341e-03
  3.6506050e-03
  9.1216732e-03
 -1.0699260e-02
  5.0668847e-03
  6.4217709e-03
  4.8846612e-03
  3.2527708e-02
  2.0720146e-03
 -7.3323391e-02
 -1.4349621e-02
  6.9867208e-04
  6.4844145e-03
  5.6351461e-03
 -5.6832978e-03
  1.9953823e-02
  1.4675258e-03
 -5.8826513e-04
  3.2943813e-03
  2.9323652e-02
  4.8832029e-02
  5.2645214e-02
 -3.3369150e-02
  1.4685690e-03
 -1.9939389e-02
 -8.3532147e-03
 -2.4917465e-02
  1.7339323e-02
 -9.0586124e-03
  6.4933854e-03
  9.6180523e-03
  4.0867883e-03
  1.1692108e-02
  1.6395924e-04
 -5.1200641e-03
  1.3192038e-02
  2.3846284e-02
 -9.4102118e-03
  3.3533495e-02
  1.1160810e-02
 -2.0828438e-03
  1.8496513e-03
  5.9361495e-03
  3.7020653e-02
  2.9192944e-03
  1.6422454e-02
  1.6123429e-03
 -9.7957649e-04
 -6.6791254e-04
 -1.0051745e-02
  1.4902918e-03
  4.7699390e-03
  6.1838315e-03
 -1.7074099e+00
  3.2087963e+00
  1.1168220e+00
  5.4232493e-02
  3.2860721e-03
  6.5736628e-01
  1.6810074e-01
