nep4 3 B N H 
cutoff 5 5 33 33
n_max 8 8
basis_size 12 12
l_max 4 2 0
ANN 50 0
  1.0077279e-01
 -5.5870545e-01
  5.1737797e-01
 -1.4161247e-01
  1.2348366e+00
  6.9352165e-02
 -1.2942721e+00
 -1.7953342e+00
  2.3409967e+00
  2.4463143e-04
 -7.5485873e-01
  8.0493273e-04
 -7.4742027e-05
 -3.3596061e-02
 -1.1172113e-01
 -1.3514025e+00
 -8.6183354e-07
  6.5040520e-05
 -2.8644223e-04
 -7.6890785e-01
 -6.6542201e-02
  7.3486179e-01
  5.1643323e-02
  1.7346538e-04
  3.1346944e-04
  2.8362882e-04
  1.0122489e+00
  9.4303890e-04
  3.2519799e-02
  6.0290015e-05
 -4.4840768e-01
 -2.1157011e-01
 -2.4590854e-04
 -3.9945431e-02
  5.8898658e-01
 -4.2061917e-02
  4.4121068e-02
 -4.6595559e-02
  5.3245735e-01
 -2.5153181e-02
  7.0671557e-04
 -2.8614375e-01
 -5.2130256e-02
  1.2396090e+00
  1.4380779e+00
  1.2690964e-03
 -3.5457218e-05
 -1.2014055e-04
  1.9506277e-03
 -1.2943521e-02
  2.8199048e-04
  2.0845342e-01
  2.1824933e-04
 -1.1079776e-01
 -1.1571279e-04
  1.1066749e-04
  2.6558107e-04
  6.8548157e-05
 -2.0127192e-03
 -1.6058524e-03
 -3.1798771e-03
  1.0425561e-04
 -1.1903782e-03
 -1.4256217e-03
 -1.0926650e-04
  9.4217547e-05
 -1.3169945e-04
 -1.0907294e-02
 -1.2182548e-04
 -6.3642119e-06
  5.8436749e-04
 -2.4971995e-04
  8.2258054e-04
 -3.6996320e-02
 -9.6913509e-04
  3.8739847e-04
 -3.5377736e-03
 -2.1873500e-05
 -1.8511206e-04
 -4.7828402e-02
 -3.3787084e-03
 -4.0729727e-05
  8.0901012e-04
 -2.3003616e-03
 -1.0327249e-03
 -2.3273433e-02
  6.8488785e-05
 -5.4599706e-04
 -1.8327326e-02
  1.3659705e-03
  2.9253250e-04
 -1.8164548e-03
 -1.9431835e-04
 -2.4598034e-03
 -7.9862162e-02
 -2.9282286e-04
 -4.9153221e-04
 -1.3528150e-03
 -2.1255715e-03
 -7.1167626e-04
  7.4820983e-04
  6.0614321e-04
 -8.4193575e-04
 -1.3383073e-04
  5.7243386e-05
 -2.4721716e-04
 -3.4725065e-03
 -3.2641614e-04
  2.0767608e-01
  1.6867113e-01
  3.5780635e-01
  1.0287721e+00
  2.4525051e+00
  6.4906463e-02
 -1.7051626e+00
 -2.8352246e+00
  1.2776544e+00
 -4.9718970e-04
 -1.2267085e-03
  2.4796683e-02
  1.0153501e-01
  1.3780290e-01
 -1.0288549e-03
 -4.3277416e-01
  2.1062721e-01
  1.3079933e+00
 -5.0649355e-04
  1.2988448e+00
 -3.0684962e-03
 -1.6587342e-01
  1.8337643e-02
 -2.1466718e-03
 -2.8054116e-04
 -4.5332387e-01
 -3.4271863e-01
 -4.6239714e-03
  1.8945779e-01
 -6.9907832e-01
 -6.4912802e-01
  7.9331219e-01
  3.3843916e-04
 -3.9058361e-02
  1.0712810e+00
  7.1962750e-01
  7.8301281e-02
  5.3770387e-01
  3.1817246e-03
  6.7366965e-02
  2.1384845e-03
  3.4440801e-02
 -8.9093310e-01
 -5.5705792e-01
  7.9855818e-01
 -3.9747020e-04
  1.6111389e-03
  2.3895247e-04
 -6.4258667e-04
 -4.1336752e-05
  3.1785465e-05
  4.2863042e-04
 -3.4210319e-04
  6.4708754e-02
  3.3733472e-01
 -7.8386173e-02
  4.6385509e-01
  1.7110527e-02
  3.9543205e-01
  6.2323767e-03
  1.0468942e+00
 -9.5131658e-03
  2.5055508e-04
  1.5072521e-03
 -1.3290005e-03
 -1.7163560e+00
 -3.6295231e-02
  2.7148271e-02
 -4.4748820e-03
  6.5693690e-04
 -2.9836525e-04
 -9.8129152e-04
 -3.2538315e-04
  1.5412328e-03
 -9.2403602e-04
  1.1371102e-03
  9.4994977e-02
 -1.0288201e-03
 -3.6387321e-02
 -7.1707688e-04
  1.1361967e-02
  2.4362828e-04
 -1.4823533e-03
 -7.4305753e-03
  1.9384724e-03
 -5.5008853e-04
 -6.0159143e-04
 -5.8608744e-03
 -1.1887279e-01
 -1.9798076e-01
  5.4471527e-04
 -2.1121176e-03
 -1.4631855e-03
  1.0500754e-02
  8.5059481e-05
  9.3813866e-02
 -3.4829646e-02
 -1.4949436e-03
 -7.6546684e-02
 -7.2982570e-04
 -4.1973169e-04
 -1.1550751e-04
 -5.0169940e-05
 -1.2676184e-03
 -2.7454277e-03
 -7.6951226e-05
 -5.3031174e-03
 -3.9575978e-05
  3.9109371e-05
  7.9030223e-04
 -6.0798379e-04
  5.9942354e-04
  7.6471106e-04
 -3.0741394e-01
 -1.5221650e-02
  6.4652989e-04
  2.1177968e-04
  9.2207786e-04
  1.1265464e-04
 -1.5066487e-04
  4.5604285e-04
 -1.7700411e-03
  6.1500592e-05
 -5.0183280e-05
 -3.1821657e-04
  1.3598378e-03
 -6.0753187e-04
 -2.2829773e-02
 -4.2550662e-04
 -8.4278145e-05
 -1.2445806e-03
  2.4186264e-04
 -5.7589146e-04
 -3.1334621e-05
  1.2290894e-04
  4.2617707e-05
  7.2506569e-05
 -2.9236416e-04
  1.5876144e-04
 -1.8451973e-03
  8.6045638e-04
 -2.2465900e-02
 -9.6966454e-04
  4.0871618e-04
 -4.4657206e-04
 -8.7981686e-02
  2.8080607e-03
 -3.7543138e-03
 -8.9158898e-04
  2.3083812e-04
 -5.6038203e-04
 -2.7052408e-01
 -1.5380641e-04
 -3.5767644e-05
 -1.6025405e-03
  6.9944312e-05
  1.5852445e-04
  1.1254129e-03
  4.6015918e-04
  5.2675977e-04
  9.7593256e-05
  4.7930312e-01
  6.3431805e-01
  1.9235605e+00
  1.6429937e+00
  1.1288030e-01
  8.2301122e-01
  4.0359777e-01
  1.5633407e-03
 -1.9478084e-01
 -6.8774420e-01
 -3.1473860e-03
  2.8117636e-04
  1.3886627e-02
  2.9589573e-03
 -6.1556854e-04
 -3.8427598e-04
  1.5165624e-01
 -3.7839440e-01
  2.8730834e-05
  9.2201124e-05
 -1.7420244e-01
  6.9561484e-04
 -5.1028002e-04
 -8.5663575e-01
  2.0148048e-04
  1.0455367e-03
  2.6113969e-01
 -7.4737841e-01
 -9.0850110e-05
 -7.6811761e-01
 -5.4380131e-01
  1.5568869e+00
 -4.6718192e-01
 -2.8556064e-01
 -1.3503847e+00
  3.7524663e-04
 -7.3134834e-01
  1.1906912e-02
  1.6613194e-01
 -2.7262691e-01
  5.3071171e-01
 -9.6214237e-04
  6.6607021e-02
 -3.1071877e-01
 -2.1943572e-01
  4.1992167e-01
 -9.0881228e-04
  4.7581602e-04
  3.3297085e-03
 -2.2268998e-04
  1.1199961e-03
  5.3411219e-05
  1.1698055e-03
 -1.3490571e-01
  2.6047134e-04
 -1.6025400e-03
  6.7190176e-01
 -6.4495467e-02
 -5.7578802e-01
  1.7133379e-01
 -1.0081131e+00
  5.3040022e-01
  5.0059819e-01
 -7.5878948e-02
 -2.0203630e-04
 -6.4527118e-01
 -9.3462594e-02
  1.3590541e-01
  6.0749702e-02
 -8.8808693e-02
  9.1032148e-04
 -4.0161714e-02
 -1.5296328e-01
 -4.9609313e-04
 -5.4539627e-01
  6.4305615e-01
  6.1847395e-01
 -3.6494699e-01
  6.6512215e-01
 -2.9905133e-03
 -3.4946757e-03
 -1.3859668e+00
  2.7168989e-01
  1.1799357e-01
 -9.3259767e-02
 -3.6242020e-01
 -2.3617933e-02
  9.8809297e-04
 -1.6225956e-01
 -1.6686518e+00
 -2.0974781e-01
  6.1402172e-03
 -2.3272203e-01
  3.8960490e-01
  3.4486681e-02
 -1.2355486e-01
 -1.9160716e-01
 -4.3167986e-02
  2.7107251e-01
 -4.8881605e-01
 -1.9069159e-03
 -7.4346614e-04
 -2.0495080e-03
 -3.0230841e-04
 -6.0922827e-04
  2.1913341e-04
 -1.1151534e+00
  5.5614661e-02
  1.9003382e-01
 -9.6965361e-01
  9.4333895e-02
  1.4686538e-01
  1.3326344e+00
  1.1968374e-03
 -9.7873278e-02
  6.7056781e-01
 -4.1802038e-02
 -7.2081870e-01
  5.8369085e-05
 -7.6196057e-01
  2.8064171e-05
 -1.9648438e-03
  1.9589381e-01
 -2.1705529e-01
 -2.2404303e-01
 -4.6606805e-02
 -2.9365295e-01
 -2.7128083e-01
  2.1021822e-03
 -9.4484255e-02
 -1.6614540e-03
  4.7987631e-01
 -5.5921888e-01
  2.4970493e-04
 -1.5410650e-01
  5.0375712e-01
 -3.0226833e-03
 -8.4390765e-01
  3.6643615e-01
  3.3314321e-02
  3.1457797e-03
 -3.9496094e-01
  3.1131631e-01
  2.5425909e+00
 -7.1283895e-01
 -4.4538370e-05
  3.6137739e-01
  1.6315044e-01
  3.6550549e-01
  1.1497722e+00
  3.7826414e-03
  1.8258581e+00
  7.9048073e-01
  3.0489159e-01
 -7.0362928e-04
 -1.3492412e-04
  2.9902908e-03
 -9.8121597e-04
 -1.0100294e-04
 -6.2884373e-04
 -1.8161047e-03
 -4.3142925e-04
  3.9914256e-01
  1.3302871e-03
 -1.1439265e-03
 -2.3660515e-03
  5.7660684e-04
 -1.0576384e-03
 -3.9209816e-01
 -1.2218454e-01
 -1.6808926e-04
 -9.5654158e-03
  3.7565097e-04
  1.3745880e-03
 -8.2477571e-05
  1.5543925e-04
 -2.5315845e-01
 -2.9874802e-05
  5.0835268e-05
  1.6144558e-04
  4.8098614e-04
 -9.4108742e-05
 -1.8611740e-02
 -1.8018487e-05
 -7.1846756e-05
 -4.0353223e-04
  6.0469535e-04
  1.5431829e-04
 -1.6618956e-02
 -1.8318334e-03
  3.7101674e-04
  8.0020240e-05
  4.3743695e-04
 -3.0340673e-04
 -1.6979872e-03
  7.7057426e-04
  3.7466385e-04
 -8.5646011e-02
 -9.8058453e-04
  7.3498690e-05
  4.3673406e-04
  1.0396632e-03
 -1.8346624e-03
 -6.6151922e-03
 -1.9618245e-03
 -9.5769586e-03
 -2.2305413e-01
 -2.3863701e-02
  9.9796290e-04
 -4.9987837e-04
 -1.5817762e-04
 -3.4367162e-04
 -4.5526703e-04
  6.4718665e-04
  1.3148617e-04
 -1.6253784e-05
 -4.3442650e-04
  1.0584952e+00
  8.1483405e-03
 -2.1424543e-02
 -1.7045445e+00
  1.0200703e+00
 -9.3600249e-01
  2.0791432e-03
 -4.6254837e-04
 -9.5264077e-01
 -2.5024655e-01
 -2.0169213e+00
 -1.0388762e+00
 -2.0037501e-03
  2.2174947e-01
  1.1482052e-04
 -2.3142840e-01
 -4.8604766e-01
 -2.1311913e-01
  3.9634653e-04
 -2.9881031e-03
 -1.5082419e-03
  3.5597152e-01
  1.3643226e-01
 -2.1050699e-01
 -1.6302451e-04
 -1.0598046e-01
  9.9832856e-04
 -4.2634993e-04
 -1.3182162e-01
  2.3180670e-03
 -9.7137772e-02
  4.7352348e-04
 -1.4504327e-01
 -1.0433174e-01
  4.8190385e-01
  7.3253769e-01
  1.6628899e-02
 -8.3496845e-01
  4.6845850e-02
 -1.6329975e-01
  6.4134818e-01
  8.0830641e-02
  7.2154492e-02
 -1.1323743e+00
 -9.8740333e-01
  9.6911617e-04
  1.9233594e-02
 -1.2184493e-04
 -2.4720372e-04
 -4.7036418e-04
  1.1883386e-03
 -9.8095465e-05
 -9.2972040e-01
  4.1876934e-02
  3.3587757e-03
  6.8270928e-01
 -8.5243881e-01
 -7.3079312e-01
 -3.4073994e-01
  1.0419850e+00
 -1.3186260e-03
  1.8224572e+00
 -7.6292455e-01
 -4.4798816e-04
  2.0845458e-04
 -1.8777545e-04
  1.2691058e-03
 -3.4348018e-02
 -3.9506052e-02
 -3.5059357e-03
  2.8409413e-01
  8.0539280e-01
  1.2250253e-01
 -5.0002360e-01
 -1.0062356e-04
 -4.6094533e-04
 -9.9664743e-05
 -3.3298500e-02
  5.3596151e-01
  9.7934282e-01
  8.2445079e-01
 -3.7892249e-05
  9.3204695e-01
 -6.4608820e-02
  1.2716056e-01
  8.2730114e-02
 -8.9127064e-02
  6.5151942e-01
  4.6031043e-01
 -3.8681689e-01
  4.9260989e-02
  8.5260481e-02
  2.3506841e-01
 -4.0448233e-01
 -8.1831604e-02
 -5.0568004e-04
  9.2575133e-01
  5.6689717e-03
 -1.6009245e+00
 -1.2648563e-04
  5.5644572e-02
  7.2125206e-04
  1.2115515e-04
 -9.2804385e-04
 -1.3932546e-03
  2.7129462e-04
  5.4435979e-04
 -7.1246453e-05
 -1.8272984e-01
  1.0014597e+00
  2.8954924e-03
 -7.7273667e-01
  4.4467080e-01
 -3.2580629e-01
 -5.0795197e-01
 -1.2337544e+00
  8.1261322e-02
 -5.1095241e-01
  1.8181460e-01
  2.7974233e-01
  6.6864347e-01
  5.7511264e-01
  2.8792858e-01
  1.8913797e-01
  3.2419538e-01
  3.1917699e-02
  1.1736981e+00
  1.7283443e+00
 -3.9527017e-01
  1.1348299e-01
  1.3000145e+00
  2.0846759e-01
  7.6897758e-01
 -1.5202029e+00
 -4.4550347e-01
  3.9353608e-03
  7.9351181e-01
  6.6222805e-01
  7.2672826e-01
 -9.4457352e-01
  6.7315179e-01
 -4.9760285e-01
 -3.0157298e-01
 -1.6006468e-01
  4.4666810e-04
  2.4654391e-01
 -1.0115178e+00
  1.1445813e+00
 -8.1525296e-01
  1.9049008e-01
 -5.7210937e-02
  3.9094302e-01
  6.3775361e-01
 -7.3798869e-06
 -5.3918140e-04
  4.3905314e-04
  1.4057374e-04
 -6.3658708e-01
 -1.9384726e-04
  3.2932931e-04
 -1.1050019e+00
 -3.9036205e-01
  6.3749873e-03
  2.4260034e-01
 -1.2958485e-04
  7.2910497e-04
 -7.0659071e-04
 -3.9448810e-01
 -7.6448075e-02
  2.2632265e-02
 -3.1061608e-02
  1.4892571e-04
 -4.2149314e-04
  3.4209783e-04
  1.9448000e-04
  7.8399363e-04
 -2.1900283e-03
  1.1405150e-03
  1.1598979e-03
 -1.4045190e-03
  2.0819739e-03
 -1.5198910e-01
  5.6421990e-04
 -1.0125075e-03
 -2.8528503e-01
  2.3146860e-04
 -5.7037803e-04
 -8.7007284e-02
  7.5636031e-05
  2.4839367e-03
  1.3244595e-02
 -5.6095084e-04
 -8.8100746e-02
 -6.8990700e-03
 -3.5718098e-04
  1.3141612e-04
  1.9334115e-03
 -2.9992319e-03
  8.5209066e-04
 -4.2164724e-04
  6.7631572e-01
  4.5611781e-05
 -2.9346021e-02
 -1.3112068e-01
  4.3497038e-01
 -2.0393414e-02
 -7.3495513e-04
  7.6192584e-05
 -1.5623597e-04
 -2.4741758e-03
 -3.2958262e-05
 -6.5335748e-04
 -6.2879542e-04
 -6.3792228e-05
  6.3555629e-04
 -1.0966101e-03
 -1.0982929e+00
 -5.4888093e-01
 -5.4530591e-01
 -1.2897021e+00
 -1.6097642e+00
 -8.1245530e-01
  9.6762228e-01
  2.2077534e+00
  4.6196201e-01
  5.6774460e-02
  9.9865878e-01
  2.0010170e-01
 -5.5188048e-01
 -9.9387550e-01
 -1.4411764e-01
 -9.1679388e-01
 -3.5893859e-04
  5.3292781e-01
  5.3637654e-01
  4.9179146e-01
 -1.2956600e-03
 -8.5055239e-05
 -7.6798439e-01
 -4.1512829e-01
  1.6468503e+00
 -2.8938657e-01
 -1.7242151e+00
  1.5321966e-01
 -3.3700317e-02
  3.4963119e-01
 -9.2153780e-02
 -6.6631392e-02
 -7.7720642e-01
  2.4919567e+00
 -2.2097747e+00
 -1.0815140e+00
  5.4959845e-02
 -6.3435096e-01
 -1.3619391e+00
  1.3249367e-01
 -8.2207188e-02
  4.4369340e-01
  5.2287239e-01
 -7.5904682e-02
  7.1354222e-01
 -2.7710637e-03
 -2.9321688e-01
  2.6040082e-03
 -2.2037937e-01
  1.1872256e-01
 -2.2684528e-04
  1.3648695e-04
  1.2218871e+00
  1.1593740e+00
 -1.8674113e-02
  3.3802476e-03
  3.0549955e-01
  1.3512136e+00
 -5.2057967e-02
  1.3136300e+00
  5.4388404e-01
  7.0256799e-02
  2.0221578e-05
  5.3540892e-03
 -4.2698447e-02
 -5.7366113e-03
  1.3030946e-03
 -4.1507877e-02
 -3.2508063e-01
  2.9133318e-05
 -8.2250714e-04
 -5.8833853e-04
 -1.1987152e-04
  2.8110685e-02
 -3.2559995e-04
 -3.2274573e-05
  3.3738516e-02
 -9.7001769e-02
 -5.4394780e-03
  5.5934662e-01
  2.3327665e-01
  5.3043485e-05
 -1.0623967e-03
 -5.1612931e-01
  5.6830171e-02
  6.8536592e-01
 -2.0507623e-04
  8.5469065e-03
 -3.9750823e-01
 -3.9736396e-03
 -8.6576467e-05
  5.7006747e-01
  1.8017668e-02
  1.3725702e-01
 -1.6687147e-01
 -2.8921937e-04
 -7.1461821e-01
  8.1891632e-01
 -1.4840227e-01
 -1.2087789e-03
  4.0304186e-03
 -2.6051118e-03
 -6.6026353e-04
  1.8106462e-03
 -1.6007350e-03
 -4.2371222e-01
 -2.4242394e-02
 -4.1899152e-04
  3.1271169e-01
  4.7339384e-02
 -6.5047771e-01
  5.8144653e-01
 -6.2023365e-01
 -6.8408948e-01
 -5.4888415e-01
  6.5774906e-01
 -5.5807590e-01
  9.3356268e-03
  1.0723257e+00
 -5.4618297e-04
  9.5360637e-02
 -6.2933463e-01
 -3.2963054e-04
 -6.8297020e-05
 -1.6672468e-03
 -3.4654350e-04
  5.6968230e-01
  4.4287297e-01
  5.0747342e-04
  9.3477330e-04
 -2.6125798e-01
  2.3024951e-01
 -5.4878330e-01
  1.4430706e-01
 -2.0962627e-01
  3.7440013e-02
  1.1466240e+00
 -8.0895144e-01
 -1.5920298e+00
 -9.2801817e-02
  2.4985686e-01
 -5.7418549e-01
  1.4122249e+00
  5.5176552e-02
 -3.7058655e-03
 -5.5998057e-01
 -4.9948275e-02
 -5.9078509e-01
 -4.8532918e-02
 -8.5085714e-03
  8.8696919e-02
 -7.6553452e-01
 -4.9039400e-03
  1.7376483e-03
 -8.3374590e-02
 -7.0478709e-04
  1.2542313e-03
 -7.0358976e-04
 -2.1226911e-04
  2.3814836e-01
  1.1179419e-04
 -1.0491584e-01
 -4.9051356e-01
 -3.1482201e-02
 -4.2524195e-01
 -2.0785653e-03
 -4.9999890e-01
  3.2813135e-01
 -3.0838936e-03
  8.7762535e-02
  3.7330587e-04
  1.4085749e-04
  7.3723143e-01
  2.2749919e-01
 -1.2599422e-04
 -2.6825700e-02
  2.2596445e+00
  3.8614011e-04
  1.9967359e-02
 -2.2313700e-04
  9.8437496e-02
 -7.4642211e-01
  3.2173861e-03
  2.3624435e-02
 -3.9960673e-01
  1.4322272e-01
  4.4754720e-01
  3.6463243e-04
 -3.2005075e-01
  1.2055418e-04
  1.5845016e-03
 -1.4736426e+00
  1.7952099e-02
 -1.8362613e-02
 -6.2926189e-04
  2.4231579e-04
 -3.4470236e-01
  1.5062998e-01
 -1.8126407e-04
  9.1188684e-02
  1.7356710e-01
 -1.6208464e-01
 -2.1473682e-03
  4.7384091e-02
 -5.8990109e-01
 -6.0831916e-01
 -6.3605413e-02
  3.5044263e-04
  1.5538538e-01
 -6.5329944e-04
  9.4727036e-03
 -9.4009278e-04
  5.5088615e-04
  1.0781664e-03
  3.1963352e-02
 -2.7907458e-03
  2.5736149e-03
  7.9752697e-04
  1.2266361e-03
  2.4107676e-04
  1.1262603e-04
  3.8355970e-04
 -5.9525797e-04
 -4.1173902e-04
  5.7822012e-04
  8.3008548e-04
  3.7659600e-04
 -1.5277034e-04
  5.3383806e-04
  1.2673084e-04
  1.1073788e-01
  4.4208322e-05
 -1.2548971e-03
  6.5738626e-04
  1.2718441e-04
 -6.6772965e-04
  4.6680603e-04
  8.5285101e-05
 -1.3951039e-04
  5.2338809e-04
 -7.0815015e-04
 -8.6180866e-04
  3.8612972e-04
  2.3262069e-04
  4.7115923e-04
 -2.3836878e-03
 -1.3391748e-03
 -3.0021681e-04
  5.5636466e-04
  9.4874064e-05
  4.4695833e-05
  4.1524673e-04
  1.7298608e-04
 -1.0439483e-04
 -3.2981849e-04
  5.9630216e-05
 -6.6943292e-04
 -8.8946945e-05
 -7.3574937e-04
  9.5638650e-04
  7.9098035e-04
  2.4190712e-04
 -2.1057211e-04
  5.3283444e-04
 -6.7528832e-04
  2.5685251e-04
 -2.4725054e-04
  5.4525433e-04
  4.4977994e-04
  1.8554818e-04
  3.3135865e+00
 -7.7946943e-01
  1.0290935e+00
  1.4259753e+00
  9.7572142e-01
 -8.4077382e-01
  4.7896240e-02
 -3.7866873e-01
  1.1605470e-01
  6.8804041e-02
  2.9548445e-01
 -5.8558535e-02
 -6.1505723e-01
  1.9430436e-01
 -1.7689732e-04
  4.6765834e-01
  2.7969396e+00
  1.8254615e+00
 -4.1996082e-03
  5.1396656e-01
  1.3474240e-03
  1.7804650e-03
  8.4510106e-01
 -3.9614362e-01
 -1.5540332e+00
 -1.6971302e-01
  6.3007653e-02
  5.6228846e-02
 -5.4744464e-01
 -1.1503623e-01
 -1.1748846e+00
 -2.8177306e-01
 -3.2712752e-01
 -1.2036242e-01
 -5.3784704e-01
  2.6855247e-02
 -1.2108881e-01
  1.5074131e-01
  2.1288639e-02
 -1.2085893e+00
  7.3457712e-01
 -6.8585657e-02
 -1.5545917e-01
 -4.4459048e-01
 -2.2274831e-03
 -1.8361940e-03
  1.5574951e-03
  1.7595367e-04
  2.7064392e-01
 -1.4228070e-01
  9.6912511e-02
 -2.0216544e-04
 -2.5549368e-03
 -1.5255737e-01
  4.0477070e-01
  1.4686729e+00
  1.1312567e+00
 -1.0443184e+00
 -2.3412418e+00
  9.3069738e-01
 -2.0963587e-01
 -6.4260632e-02
  1.8886445e+00
  1.3660548e-02
 -1.0646424e-01
  1.0328392e+00
 -4.8725458e-04
  1.3116747e-04
  1.0791849e-03
  1.1310347e+00
 -4.5017022e-01
  3.7879490e-03
 -2.4905754e-03
  7.7958518e-01
  9.6442592e-01
 -2.1353507e-01
 -8.1504104e-06
  1.0771669e-01
  1.5262312e-01
 -1.4172070e+00
  4.0957424e-01
 -4.4672227e-01
 -7.8841072e-01
  1.7532672e-01
 -6.6860610e-01
  3.4279397e-01
 -1.0035192e-01
  8.2472688e-01
 -2.7399176e-01
  6.1954137e-02
  2.2877192e-02
  8.9086771e-01
  4.7372535e-01
 -2.7116558e-01
 -1.1728114e-02
  2.2142309e-01
  5.2704000e-01
 -1.6675273e-01
 -1.0182985e+00
  4.2192402e-04
 -6.3417554e-01
  1.3555037e-03
 -1.1182608e-03
 -1.6384262e-03
 -1.5301791e-01
  7.9776153e-05
  7.3623496e-01
  2.6595714e-02
  1.1482522e+00
 -7.7590748e-04
 -1.2470992e-02
  2.6332369e-04
 -1.2380179e-03
 -4.8546404e-01
 -1.0661472e-01
 -6.3461560e-04
 -4.4453819e-04
  2.8179833e-04
 -4.0399175e-04
 -9.4754930e-04
 -9.6439983e-04
 -1.7403703e-03
  1.5981802e-04
 -7.1809150e-04
  1.0595635e-03
  3.8940279e-04
  4.8195603e-04
 -5.7792896e-04
 -1.0244483e-05
  3.0107022e-04
 -1.3486710e-03
  3.7502320e-04
 -5.4774137e-04
 -1.0008096e-02
 -5.8185691e-05
  6.0189830e-04
  3.1787396e-04
 -6.8647945e-01
  7.4844272e-03
 -8.0016730e-03
  5.8848146e-02
 -5.1765721e-02
 -2.2831190e-04
  1.5360682e-01
  5.4000667e-04
  3.5160258e-01
 -6.3508045e-04
 -1.2597677e-02
 -2.8389846e-03
 -8.6389016e-05
 -3.1845078e-03
 -5.3604826e-04
 -2.6298391e-03
  4.2547352e-04
 -2.3081923e-04
 -2.2432415e-03
 -7.1174611e-04
  6.7782094e-04
  1.2831500e-03
  6.5785542e-04
 -1.5720328e-04
 -1.9329212e-03
  9.8748314e-06
  4.6271013e-04
 -3.4278297e-04
  2.0686234e-04
 -2.0646972e-03
  1.9288902e-01
 -4.7498026e-01
 -1.2310809e-03
  1.1505388e-03
  4.1440123e-04
  2.3199301e-02
  5.8314682e-04
 -2.5331078e-04
  6.3764089e-01
 -3.0896947e-04
 -1.2779309e-03
 -1.6703433e-04
 -2.0316625e-03
 -3.2467354e-04
  2.1218897e-03
 -8.4318256e-04
 -7.9181220e-04
  1.4487746e-04
 -7.8840606e-04
  1.1654461e-03
  3.7621120e-03
 -6.9049321e-04
  5.3759670e-04
 -2.5930334e-04
  2.3666635e-04
  1.2701552e-04
 -8.0156786e-04
 -1.3972817e-03
  3.6719618e-03
  1.5482951e-04
 -3.2879747e-04
  2.4584483e-03
  7.8194455e-04
 -5.5385266e-05
 -5.3655787e-04
 -1.9361874e-03
 -1.6790412e-04
  8.2735048e-04
  3.3696648e-03
  2.3469802e-03
 -5.3077794e-05
  1.0341455e-04
 -3.4868167e-04
 -3.9930954e-03
 -4.9105083e-04
 -3.5448646e-04
  4.2239340e-06
 -2.3081074e-03
  1.2875197e-03
  7.7830321e-01
 -6.4981215e-02
 -2.6103410e-01
 -1.2799613e+00
 -9.1043371e-01
 -7.2943139e-01
 -5.1857901e-01
  1.5922074e-01
  4.0174761e-01
 -2.9000264e-01
 -7.2281045e-01
 -5.7457010e-03
 -5.5467814e-01
 -5.3889692e-01
 -1.8756451e-01
 -2.4630217e-04
  6.5463310e-01
  1.4204210e-02
 -6.2769629e-02
  7.6840085e-01
  5.7485127e-01
  2.7342673e-02
 -4.4643223e-01
  8.4906983e-01
  2.2967337e-01
 -4.3966299e-01
 -7.4589920e-01
  3.8554510e-01
  1.9247374e-01
  1.2654927e-01
 -4.8399797e-01
 -2.8201106e-01
 -3.3611894e-01
 -2.7707580e-01
 -7.3481661e-01
 -6.8794027e-02
 -3.7710525e-02
  6.3324261e-01
  4.1899810e-05
 -7.2003371e-01
 -7.1749724e-02
  1.6354431e-01
 -2.4207333e-01
  3.8591969e-01
 -1.1245533e+00
 -4.2840248e-04
 -5.6526548e-01
 -6.9432326e-02
  1.0402907e-01
 -1.3068106e-03
  1.5278762e-02
  1.1256236e-01
  2.9011087e-02
  7.4239445e-01
  5.8848038e-02
 -2.2477428e-03
 -3.8224496e-03
 -9.6647032e-05
 -1.1029463e-03
 -4.7299419e-02
 -6.6370972e-02
 -9.6209107e-05
 -2.3827138e-03
 -1.2445803e-05
  4.0373070e-06
 -3.0186606e-04
 -8.9256320e-04
  1.4568331e-03
 -1.9053453e-04
 -2.3482557e-04
  1.5678261e-04
 -1.4076058e-03
  1.3514493e-04
 -3.6707188e-03
  1.5365445e-03
  7.1426498e-04
 -2.5133896e-01
 -8.8432850e-04
 -1.0413601e-04
 -1.8998992e-03
 -4.9419953e-03
 -3.5806384e-05
  2.5291962e-04
  4.0863667e-04
 -5.2660245e-02
 -3.3977244e-02
  4.7028641e-04
  3.5807721e-02
 -1.8883139e-02
  1.9072296e-04
  5.4444460e-04
 -1.2940292e-03
 -1.7028229e-04
 -1.4283301e-01
 -4.4600849e-05
  9.8142249e-05
 -1.7964769e-04
 -2.0537062e-01
 -1.9694511e-03
 -9.5244410e-05
  3.5661131e-03
 -1.3246037e-03
  1.2897919e-03
 -2.5199170e-04
  8.2659785e-04
 -7.3763623e-04
 -1.9648217e-04
 -2.6395000e-04
  1.5281865e-03
 -1.5937436e-02
 -1.3957887e-04
  7.2848059e-02
  5.9112819e-04
 -4.1748503e-01
 -9.0218604e-02
  1.7168033e-01
 -7.3369861e-01
  5.1227980e-04
 -1.6660595e-04
 -2.9920993e-05
  1.8813332e-03
 -1.0409615e-03
  3.0960411e-02
 -3.5771948e-01
  1.4500584e-03
  5.7053659e-02
  2.0309072e-03
 -1.0314459e+00
  3.2102144e-03
  1.4985281e-04
 -7.8377603e-03
  2.6160749e-03
  1.2730497e-05
 -4.0372230e-02
 -7.6752034e-04
  4.0659629e-04
  2.3698805e-01
 -1.4575644e-04
 -1.9539113e-01
 -9.3303896e-02
 -4.3739434e-05
 -2.4607338e-02
  3.4669153e-03
  9.6790103e-04
 -3.4756451e-03
 -3.4639522e-01
  5.8663012e-03
 -6.5055467e-02
 -2.1539798e-03
 -2.0036392e-02
  2.8302101e-02
 -6.0725367e-01
 -4.0532939e-02
 -7.5885875e-04
 -5.0182518e-04
 -8.1735093e-04
  2.0424820e-02
  3.1596544e-05
  5.2894396e-04
  7.0427157e-02
 -3.2926905e-03
  5.9445517e-04
  7.8461150e-04
  8.5171161e-04
 -1.8470557e-04
  6.8239332e-04
 -5.6609878e-04
 -1.4736840e-01
 -1.4901136e-02
 -8.1941672e-04
 -9.0849632e-04
  2.0614872e-03
  1.9591356e-04
 -4.7185787e-04
  1.9535256e-04
 -1.0119933e-03
  2.5263935e-02
  6.8731083e-06
 -1.3715118e-04
 -2.1467471e-04
 -7.0717762e-04
 -9.8157534e-04
 -9.9960725e-06
  2.8468476e-04
 -3.1013358e-03
  3.6227421e-04
 -9.2652149e-04
  1.9720120e-04
  2.5472359e-04
 -6.4145053e-05
  1.3691424e-03
 -5.3319265e-05
  1.0881283e-04
  6.1447732e-04
  1.2289674e-04
 -5.0871255e-04
 -1.8714410e-03
  2.6016349e-03
  5.6874857e-04
  1.1673915e-04
 -2.0843960e-05
 -1.5121726e-03
  1.5307439e-03
 -1.2457792e-03
 -1.2510398e-03
  2.4025192e-04
  4.3766198e-04
  2.2221159e-03
  1.2307758e-04
 -2.4298931e-04
  1.2325939e-04
 -9.6371880e-04
  8.3558803e-04
 -2.5597253e-01
 -4.9632759e-05
 -5.2337721e-04
 -2.3090084e-01
 -1.0014625e+00
 -1.5259483e+00
  5.7855731e-01
 -2.9790172e-01
 -5.1525599e-01
  4.1374126e-01
  1.8895332e+00
  7.5030887e-01
 -4.3496284e-01
 -2.6789802e-01
 -9.9721830e-05
  8.7821305e-01
 -3.4303972e-01
 -1.7617409e-01
 -1.4016491e+00
 -5.6834990e-01
 -1.6688155e+00
  2.2286455e-01
  1.9823829e+00
  1.2375089e-05
 -4.8764038e-01
 -3.7237781e-01
  6.5318465e-02
 -3.0779912e+00
 -1.6007638e+00
  4.9003580e-01
 -3.5927810e-03
  1.6615493e-02
  5.5987603e-06
 -7.1366116e-02
 -4.9725331e-02
 -6.6915329e-04
  1.5014943e-01
  6.4010328e-01
 -7.4795061e-01
  3.3480370e-01
  7.2845596e-01
 -7.7845806e-01
 -8.1793332e-01
  3.6998224e-01
  5.0763816e-01
  2.1729845e-01
  1.5113726e+00
  1.1175148e+00
  9.4196985e-05
 -5.4534275e-02
  1.7679640e-05
  2.5006512e-03
  3.4501523e-04
  5.0568511e-04
  6.1472625e-01
  1.3751789e-03
 -7.4468208e-03
 -1.3225132e-02
  1.5574280e+00
 -1.2705551e+00
 -5.5199456e-01
  1.9238664e-01
 -1.0335014e-01
 -1.7166118e-03
 -1.5852669e-01
  3.2144057e-04
 -7.3802926e-02
  3.2031354e-01
 -1.0381934e-03
  9.4339713e-02
 -2.2484040e-01
  8.8371563e-04
  5.4502290e-01
 -3.9492291e-01
 -9.0899423e-02
  9.8064111e-06
 -1.0664539e-01
  3.7303969e-01
  2.4679746e-04
 -1.6572785e-04
 -1.1745220e-03
  1.4059899e+00
 -6.1996382e-01
 -9.7915870e-01
  4.6809652e-04
 -6.6034555e-01
 -2.9080566e-02
 -1.1558790e+00
 -1.3484363e-02
  1.5084524e-01
  1.7071925e-01
 -2.2764428e-01
 -2.3433350e-02
  8.9766324e-04
  2.8031141e-01
  7.2827983e-01
  6.1093732e-03
 -4.7500312e-02
  1.0256706e+00
 -4.1920832e-01
  2.2240901e-01
  7.7890426e-02
 -7.9499448e-05
 -1.3745941e-01
  4.0400671e-04
 -7.8515394e-04
 -6.6265017e-01
  2.8062621e-04
  3.2206662e-03
  5.2183475e-03
 -3.8645774e-04
  6.1820901e-05
  1.9762216e-03
  3.0759929e-04
 -3.0518189e-04
  1.6051561e-03
  1.7226340e-01
  9.0982109e-02
 -6.0752960e-04
 -1.9438127e-04
 -1.2953689e-04
 -1.3653585e-03
 -1.4805859e-03
  2.4300694e-04
 -6.5043787e-06
 -1.2701770e-03
  7.6546369e-04
 -1.1570857e-04
 -2.7296130e-04
  2.6247109e-04
  4.3286494e-04
  8.8495079e-05
  1.7669391e-03
  4.6859562e-01
  8.3768874e-04
 -1.6970575e-03
  1.1156556e-03
  8.7744283e-04
  4.9779312e-05
  1.7399873e-03
  8.3137915e-04
  5.5302255e-04
  3.8274220e-06
  6.6355208e-04
  3.5338192e-03
  1.7579603e-03
  3.2140285e-02
  2.2875953e-03
  1.6464830e-03
  4.6447014e-05
  4.5209634e-03
  9.5570000e-04
  2.2480039e-04
 -3.8465610e-04
  2.4654402e-04
  2.1995332e-03
 -5.2223634e-04
 -8.1710075e-04
  2.0953550e-03
 -1.2275366e-03
  3.3069254e-04
  5.0281023e-04
 -5.1964429e-04
  2.2815964e-03
  9.2184928e-04
 -3.3910127e+00
  1.8486482e+00
 -2.0153607e-01
 -8.0151064e-03
 -3.1730900e+00
 -8.2254060e-02
  1.7799450e+00
  1.7210564e-01
 -1.2641324e+00
  2.5317144e-01
 -8.9076057e-02
 -1.1744349e+00
 -1.5462826e+00
  5.1917922e-02
 -9.3183374e-01
  7.7990586e-01
  8.5529611e-02
  2.4974020e+00
 -1.5961380e-01
  1.9101381e+00
  2.0710256e+00
 -1.8383626e+00
 -3.4151009e-01
  1.1334600e+00
  2.5833831e+00
 -3.9374137e-01
 -3.0141473e-01
  1.5064774e-01
 -1.0957227e+00
 -4.3953291e-01
 -9.9429476e-01
 -3.0250376e-01
  1.3138902e-01
 -8.3801560e-02
 -2.4766603e+00
 -3.6267439e-01
 -9.4474562e-02
 -8.8677591e-01
  1.7897258e+00
  6.5889430e-01
 -7.7936739e-01
  4.8235670e-01
 -1.0733529e+00
 -3.9844042e-01
 -4.8487720e-01
 -7.8068924e-04
 -7.8276079e-04
  6.1325607e-04
 -4.3042694e-04
  4.2924929e-01
 -1.1087380e-01
  4.0297040e-01
 -4.1742417e-01
 -7.6883125e-01
  2.0634971e+00
 -8.8575131e-01
 -1.4889266e-02
 -4.9773625e-01
  3.9484715e-01
 -2.1146498e+00
 -3.6462286e+00
 -2.1115880e-01
 -6.0804784e-01
  1.2313622e+00
  4.1087842e-01
  2.4702540e-03
  5.3987477e-04
 -7.8405828e-05
  1.4876886e-01
 -5.6633929e-04
  9.0696710e-01
  3.4143142e-02
  2.5289556e-02
  5.6792545e-01
  1.6011401e-01
  5.4986979e-04
  4.6891542e-03
  2.6465702e-04
  4.5029111e-02
 -8.8621899e-03
 -1.9444879e-04
  3.6366975e-01
 -4.8690024e-04
  9.3855157e-02
 -8.1095546e-05
  1.7990268e+00
  3.1627556e-03
 -1.2420764e-01
  8.1095499e-01
  2.3907602e-01
  8.1156089e-05
  8.7719873e-02
 -1.2660298e-02
  7.7859462e-05
  5.4033846e-01
  1.0770336e-02
 -1.0557849e+00
 -1.2675297e-02
  9.8040111e-02
  4.5274573e-04
  4.1355091e-04
 -6.0544495e-04
  1.1594981e-03
 -1.5276637e-05
  2.8316153e-03
  9.6885584e-02
 -2.3890925e-05
  3.9242944e-04
 -8.7389505e-01
 -4.9863666e-01
  2.2381318e-01
 -1.8255478e+00
 -6.5149581e-01
  4.4288215e-01
 -1.3056536e-01
  6.5557021e-01
  1.2165639e-01
 -6.4351141e-02
  5.0793338e-01
 -1.6057142e-04
  1.1376023e-01
 -6.0891742e-01
 -5.0854483e-03
  3.0385512e-01
  4.2262141e-04
 -1.8464361e-04
 -3.7308604e-01
  9.2485112e-01
  1.2188798e+00
 -1.2380773e-01
  7.8791030e-02
  8.8109361e-04
  5.7165867e-01
 -8.9351445e-01
 -1.9887450e+00
 -2.6047084e-02
  8.3165103e-01
 -3.6649090e-01
  1.2453485e-02
 -1.8853414e+00
 -3.2115537e-01
  3.3356667e-01
  4.1051289e-01
  8.6493516e-01
 -5.7062203e-01
  1.2565027e+00
 -6.0886455e-01
  1.8927478e-03
 -3.3447450e-01
  2.4425697e-01
  7.1591491e-01
 -8.0829632e-01
 -7.0619509e-02
 -7.3015277e-04
  6.3656062e-02
  1.7445645e-01
 -6.2113553e-02
  1.1383160e-01
 -5.9862412e-03
 -2.0215099e-03
  3.3448079e-01
 -1.9008909e-04
  2.8987043e-04
  3.9663213e-01
 -1.5959028e-02
 -3.8126175e-04
 -4.4993586e-03
 -5.3165865e-01
 -1.8537523e-02
  8.7563920e-01
 -1.5232643e-01
 -1.6367270e-04
 -3.9442959e-03
 -4.4868790e-04
  1.1673690e-03
  7.5324019e-04
  5.2009989e-04
 -4.7924356e-03
  6.2674810e-03
  3.5893047e-04
  1.0142033e-03
 -2.7194431e-01
  1.0426862e-03
 -2.6356580e-04
 -6.9798698e-04
 -1.3708590e-03
  4.6925825e-01
 -1.6158369e-01
 -7.5771481e-02
  6.4450310e-04
  1.0647812e-01
 -3.4610119e-01
 -1.6981296e-01
  1.0342309e-03
 -1.0734336e-03
 -1.1228447e+00
  4.0023607e-01
 -1.3591161e-01
 -1.5115633e-04
 -4.9119046e-01
  1.2447598e+00
  9.1599741e-06
 -2.7249835e-02
 -4.0275881e-01
  1.8780353e-02
 -7.5381406e-02
 -1.9700948e-02
  2.3566830e-04
 -8.3986000e-04
 -3.7939873e-04
 -5.9201466e-05
 -5.1127054e-04
 -5.4208595e-05
  2.7373971e-02
  1.1483572e-03
  1.1365517e-04
  9.9496530e-05
  6.8721150e-05
 -6.5444241e-05
  3.0586107e-03
 -1.0894562e-01
  1.5969118e-01
 -4.7379953e-01
  2.2177832e-01
 -2.0639212e-01
 -3.9081037e-04
  5.6752941e-04
 -1.4532825e-03
  4.5038454e-04
 -6.2660896e-03
  3.4721283e-04
 -1.7056378e-04
  7.7667304e-05
  2.9872790e-01
  1.3792295e-03
 -7.6961922e-03
  1.0752806e-03
  9.5513024e-05
 -3.2051023e-02
 -6.6895780e-05
 -3.4877224e-04
 -1.6342008e-03
 -6.3938178e-02
  9.2748160e-05
  1.6731571e-03
 -1.2588626e-02
 -4.3470647e-02
 -3.7126665e-03
 -5.4333836e-04
 -1.4090429e-01
 -1.9770714e-02
 -9.4526005e-04
 -4.4861346e-04
 -2.1229799e-04
 -2.0236720e-04
 -4.0254246e-02
 -1.5804055e-01
 -1.7558715e-03
 -2.2956475e-03
 -1.9602383e-02
 -6.4789347e-02
  6.1349070e-05
  1.1814695e-05
  7.8282121e-04
 -1.3721194e-04
  4.0606936e-04
  1.0722210e-03
  2.3433715e-03
 -2.0102422e-04
 -1.3284625e-03
  1.1142822e-01
  2.7568981e-02
 -2.7156195e-02
 -2.4488473e-01
  1.2206957e+00
 -1.2899880e-02
  6.2522233e-01
 -5.0126290e-01
  2.9751685e-01
  4.7875030e-04
  1.3169020e-01
 -6.3660601e-04
  3.9029860e-01
 -6.1027963e-02
 -1.5667659e-03
  7.8778088e-01
 -4.5642149e-01
 -8.7629461e-01
  5.2879500e-01
  1.0508329e+00
  2.0865498e-01
 -4.7258124e-01
  1.0959186e-01
  3.4147605e-01
 -1.4675086e+00
  6.9471985e-02
 -1.3978690e+00
  7.6242246e-02
  9.6974023e-02
 -1.1078612e-02
 -3.0182546e-03
 -3.4046128e-01
  2.2267453e-01
 -1.3938278e-01
  1.5317161e+00
 -2.0843425e+00
  2.2273634e-03
 -4.3770808e-01
 -1.3479811e-02
  7.0474893e-02
 -1.2690401e-01
  5.4747063e-01
  7.4497727e-03
  1.3577856e+00
 -2.3931406e-02
 -6.5498432e-04
  1.3748723e+00
 -4.6012934e-05
 -1.6378012e-03
 -1.9402901e-02
 -5.9577335e-02
 -4.9878851e-01
  7.3600298e-01
  1.4245629e+00
  1.0054339e+00
 -8.2998842e-01
  3.0497470e-01
  1.3963435e+00
  5.7972357e-02
  9.5354110e-01
  6.7496592e-01
 -4.7791204e-01
 -6.9068038e-01
  1.8769975e-03
  6.0062140e-01
  2.2908392e-04
  3.5516340e-03
  6.6481632e-01
  2.5321916e-01
  2.5451106e-01
  1.9550279e-03
  7.6808000e-01
 -3.9974996e-03
  1.7733382e-01
  9.9424690e-02
 -2.9160261e-01
  2.9920833e-03
 -1.2659687e-02
 -4.8697833e-04
  2.2413821e+00
  1.5546589e-01
  6.6014880e-05
  1.1306361e+00
  5.4371933e-04
 -8.5802391e-02
 -5.9599447e-01
 -2.1976791e-01
  3.1650284e-01
 -3.0968645e+00
 -5.7171535e-02
 -7.7352899e-01
 -2.2789054e-01
 -1.2167662e+00
  1.2073747e+00
 -6.4870685e-01
 -1.1791805e+00
 -6.8198889e-01
  2.5264746e-01
  1.2771529e-01
 -1.0806731e-04
 -3.7561810e-01
  3.5117592e-03
 -9.1820495e-04
 -5.2908562e-02
 -2.6918302e-04
  6.2734302e-04
 -5.2678233e-01
  2.0551027e-04
  5.0123632e-01
  7.2030187e-01
  1.6655295e+00
  8.4564507e-01
  1.8257526e+00
  1.3018249e+00
 -3.3280438e-01
 -1.8569930e+00
 -5.9580427e-01
 -5.1378918e-01
 -5.0545043e-01
 -5.1597196e-01
  1.6664454e-01
  3.5926983e-01
  6.4757127e-01
  7.2895378e-01
  7.5991469e-05
 -6.6529042e-01
 -3.1055966e-01
  5.9052670e-01
 -5.1587838e-01
  2.7030704e-03
  8.8322425e-01
  4.5927882e-01
 -1.0555946e+00
  6.4040440e-01
  1.8511876e+00
 -7.5825340e-01
  1.0495826e+00
 -2.0834227e+00
  1.2950121e-01
 -3.4686348e-01
  1.0502557e+00
 -1.1600610e+00
  4.5233610e-01
  3.4679863e-01
  3.4659472e-01
  1.8272591e-01
 -1.2411410e-01
 -1.1263263e+00
 -1.7773390e-02
  7.7989286e-01
  2.7335694e-01
 -4.7300828e-01
  1.9160001e-01
 -4.4184955e-04
 -7.3977083e-01
  3.0502307e-03
 -2.6195553e-01
  1.1240651e-01
 -3.7197587e-01
 -1.1250101e-01
 -1.1327169e+00
 -3.9260331e-01
  2.4432875e-01
 -1.1013813e+00
 -1.9451970e-03
 -9.9291241e-01
 -1.7612662e-02
 -8.8699746e-01
  5.7673818e-01
 -1.6927967e+00
 -1.3823375e-01
  1.0069994e-04
 -4.9748391e-01
  5.9733474e-01
 -2.5182238e-01
  7.7752256e-01
  4.2379111e-01
  5.8372352e-02
 -1.4424445e-02
 -4.8300684e-03
  1.1327297e-03
  3.8803136e-01
  6.4211769e-04
 -3.7954282e-04
 -6.5331030e-01
  1.0394411e-01
 -2.0377240e-04
 -4.0025633e-02
 -5.4100198e-01
  7.3478132e-02
 -8.1915408e-01
  1.3420199e-01
 -6.0065824e-01
 -7.5457124e-03
  5.5717826e-03
  2.5165717e-03
 -9.9592304e-01
 -4.4347961e-02
 -9.6859422e-04
 -1.8354866e-01
 -1.4248762e-01
 -2.5210339e-01
  4.2470470e-01
  2.6139739e-01
  1.3905851e+00
 -4.5683393e-01
 -9.2145793e-02
 -1.6754324e-03
  3.1052896e-01
 -2.8581431e-04
 -1.5051037e-05
 -4.8882386e-04
 -1.0105281e-04
  1.0692647e-01
  1.2945637e-02
 -2.3755257e-04
 -3.8130886e-03
  1.7501372e+00
 -1.6514193e-01
  1.8065913e+00
 -1.5744082e+00
  1.1444041e+00
 -5.3044399e-03
  2.4131061e-01
  5.9546521e-03
 -9.4715564e-04
 -4.9891724e-04
 -5.3062616e-04
  1.4076744e-01
  1.1686835e-01
 -4.5817094e-03
 -4.1329694e-01
  2.2208184e-01
  1.2691775e-03
  9.9490071e-04
 -3.6614192e-01
  5.2592554e-04
 -1.0601093e-04
  8.6938389e-02
  4.6387672e-06
  3.7081945e-03
 -9.2383671e-01
  9.5863240e-03
 -2.2096985e-03
 -2.8294295e-01
 -7.7666700e-02
 -4.8310238e-01
  2.8703073e-02
  2.4924890e-05
 -1.5810684e+00
  2.3781613e-01
 -1.9234459e-01
  3.4405089e-03
 -1.0483435e+00
 -2.8527373e-02
 -2.8398632e-05
 -2.3147503e-02
  6.6222064e-04
 -6.3756347e-01
 -4.3129858e-01
 -1.0640931e+00
 -6.4862863e-04
  3.5364743e-04
  6.2729605e-04
  2.4601663e-05
  8.7281907e-05
  2.7440151e-04
  1.7488782e-03
 -1.6344887e-01
 -5.9555250e-01
 -2.8119780e-04
 -1.5906367e-01
  8.3668350e-04
  2.6391103e-04
  8.9316731e-03
  8.2168519e-02
  1.5228905e-01
  8.9399874e-02
  2.3249625e-03
 -5.9164094e-04
  1.5653014e-01
  1.2636614e-04
  9.6202682e-05
  9.5649564e-05
  1.8789207e-03
  2.0294786e-04
 -1.2846575e-04
 -2.6027011e-04
 -1.6206129e-04
  1.4858272e-02
 -6.6099958e-05
 -8.9274063e-06
  1.7543498e-01
 -6.5601541e-04
 -1.1034568e-03
  5.3956499e-03
  1.2341083e-03
 -2.4030845e-04
  9.5804065e-04
 -1.1703996e-04
  1.5151309e-03
  4.9359974e-04
 -3.8692227e-04
  1.9422632e-03
  6.1938510e-04
 -4.1397606e-04
 -3.2719722e-04
  8.6514564e-04
 -4.6105357e-04
 -3.1488042e-05
  5.4333243e-04
 -2.8363886e-04
 -2.0813858e-04
 -2.3313891e-04
  9.2493845e-03
 -7.2381127e-04
 -1.9953104e-04
 -2.4503335e-05
 -1.9895153e-04
  1.7049894e-03
  2.0991489e-05
 -1.5665092e-04
 -1.5086029e-03
  6.6014484e-04
  4.3488299e-03
  4.1269004e-01
 -1.6283248e-01
 -2.3826705e-01
  6.3996357e-01
 -6.6270912e-01
  7.7399455e-02
 -1.7963983e+00
 -2.0368490e-01
 -1.4087647e-03
 -2.3231179e-01
 -3.0493465e-01
  9.2068355e-04
  3.4792700e-01
  3.7722524e-02
 -6.8813720e-04
 -2.4371778e-04
 -4.3382400e-01
 -1.3703095e-02
 -9.3361908e-01
  5.7518925e-04
 -1.4093742e-01
 -3.2775673e-01
  9.5210835e-02
  7.5355326e-03
 -4.1854474e-01
 -5.5749035e-01
  4.9001188e-04
 -6.3018435e-01
  8.4391415e-01
  2.9848486e-01
  7.2802836e-01
  2.3165759e-01
 -1.1982419e+00
  4.9149454e-01
  3.7488911e-01
  5.8011577e-04
 -9.3831408e-01
 -3.6575543e-04
  2.2679417e-01
  1.0531352e+00
  2.2285739e-03
 -3.9660092e-02
  3.1568505e-02
  3.3933599e-03
  6.3422986e-04
 -7.2315842e-01
  6.2468834e-04
 -8.5537980e-04
 -3.0314771e-04
 -5.3755363e-04
  1.3898030e-03
 -1.2583677e-01
  1.1535192e-02
  1.6877666e-02
 -5.3575271e-01
 -1.9755502e-01
 -1.3590483e-01
  5.9582546e-02
 -9.7852570e-01
  5.7396376e-01
 -1.8345720e+00
  6.4188975e-01
 -7.7444531e-02
  2.3815972e-03
 -1.4821427e-01
 -7.1421921e-01
  6.5584935e-02
 -1.0463685e+00
 -2.3705330e+00
  3.1088197e-01
  7.4409717e-01
 -1.1431099e+00
 -2.5439736e-01
 -2.4786042e-01
 -2.9865056e-01
 -2.5347340e-01
 -3.7518951e-01
 -3.7526470e-01
 -2.4684894e-01
 -9.6121013e-02
 -4.5978450e-03
 -1.8616307e-01
  2.3437682e-01
 -6.4728278e-01
  4.4008598e-02
 -5.3340845e-02
  1.0889668e+00
 -2.5362628e+00
  1.4173467e-01
  2.4430298e-03
  1.6690577e+00
  5.1086622e-01
  1.0994039e-01
  2.2289568e-01
  1.2521474e-03
 -2.6583730e-03
 -3.1914738e-01
  5.3464949e-01
 -9.6672034e-04
  7.7475911e-01
  1.1077079e-03
 -4.5245233e-01
 -3.1845510e-01
 -1.8952265e-04
 -1.2850082e-02
  9.4940469e-02
  3.8770273e-02
  4.6744400e-01
 -1.4635719e+00
 -1.2592764e+00
  5.6314307e-01
  1.2937964e-01
 -4.1621223e-01
 -2.3689671e+00
 -3.3573662e-03
 -5.9525024e-02
 -1.3532052e+00
 -2.0350920e-01
 -8.9843273e-01
  8.4710091e-02
  3.6237396e-02
 -7.6214053e-02
  3.3291256e-01
  6.7549080e-02
  3.8916618e-04
 -2.3112444e-03
  9.7419620e-01
  2.5323033e-03
  1.8081582e-01
 -8.4859326e-02
  2.0768283e-01
 -1.5019372e-01
 -3.2036681e-02
  3.3496621e-01
  2.2677377e-02
  7.8374654e-01
  1.6639034e-01
  6.6877866e-01
 -1.8380952e-01
 -2.8627849e-01
  2.9421696e-01
  1.0748259e+00
  7.5770766e-02
  3.8010600e-01
  6.3840702e-02
 -9.5930856e-01
  5.3591621e-01
  1.0087153e-01
 -1.6229547e-04
  6.7613047e-01
  6.2344605e-01
  4.4233614e-01
  1.0944039e-04
 -1.0700136e-01
 -7.8763318e-04
 -1.7801211e-05
 -1.1228994e-03
  2.7875552e-01
  5.3886045e-04
 -6.2116939e-01
 -5.3667629e-01
  1.7254648e+00
 -8.3288944e-01
 -1.1904281e+00
  1.9249202e-01
 -1.8186630e+00
  8.5505134e-01
  8.0575961e-01
 -1.4069189e+00
 -1.0983812e+00
  1.6957469e-01
  2.5373369e-01
 -1.0617485e+00
 -8.4246315e-02
 -5.8535874e-01
 -1.4065726e-01
 -5.3203517e-01
  5.6865150e-01
  2.8407064e-01
 -7.1364447e-02
 -3.9515990e-01
  3.3133900e-01
  8.0777919e-01
 -3.2098725e-01
  1.9497383e-01
  3.4096774e-02
  6.2323153e-01
  1.3499318e+00
  9.7932976e-01
 -1.4248898e+00
 -1.4241278e+00
 -1.0116637e+00
  4.0979944e-02
  3.9200553e-01
 -5.2389216e-01
 -2.6329255e+00
 -1.3798475e-01
 -7.7271737e-02
  3.7702035e-02
 -4.5834172e-01
 -3.1267858e-01
 -4.6955934e-01
  3.3284539e-01
  4.0847149e-02
 -2.6806746e+00
  2.3917034e-01
 -4.9730903e-04
 -4.2459333e-01
 -3.4596468e-04
  7.1028958e-04
 -1.8262158e-01
 -3.3077321e-04
 -5.1963525e-03
 -6.0940188e-01
 -9.1138101e-01
 -1.9615667e-01
  3.6954405e-04
  1.0571332e-05
 -1.1415324e-01
  1.1209886e-03
  1.5848416e-01
  1.4384139e-01
 -1.2430553e-02
  2.4263768e-03
  1.6128467e-04
 -1.1494408e-03
 -2.8942988e-04
  8.8234257e-05
 -8.8563080e-05
 -6.2603771e-04
 -6.7197907e-05
  2.5227951e-06
  1.2015022e-03
 -2.8325100e-03
  5.8579929e-03
  2.5035994e-04
 -5.6267221e-04
  5.8037501e-02
  3.1243922e-04
  1.5520047e-03
  2.3439279e-02
 -7.9980690e-04
 -8.9777209e-04
 -8.1222586e-04
  6.5186154e-04
  1.7002079e-03
  1.3492239e-03
  9.2054390e-05
 -3.1987621e-04
  2.9051778e-01
 -1.5907493e-04
  2.4221966e-04
  6.6357747e-02
 -2.3830454e-04
  9.7628031e-03
  1.1546058e-02
  4.3442543e-03
  2.5672901e-03
  1.1004945e-01
  9.9966362e-02
  5.1076128e-04
  3.7260531e-04
  1.8806070e-04
 -1.5307599e-03
  3.2440628e-04
  5.7268061e-04
 -1.6568572e-04
  8.6249871e-04
  1.7438870e-04
 -5.8978103e-04
  1.3106268e-02
  6.3601308e-02
  1.5741523e-05
 -1.1733368e-04
  8.5139775e-01
  5.2613456e-02
 -1.0752866e-01
 -5.3741841e-04
  2.9053126e-05
 -1.6572863e-04
  1.2179851e-06
 -4.0070037e-04
 -1.9849313e-04
  4.2184294e-04
 -1.6330964e-04
 -5.0432200e-04
 -3.5822019e-04
 -4.7661310e-05
  1.5612191e-04
  6.7915814e-04
  2.0610220e-03
 -1.3783658e-03
 -1.3251615e-03
 -4.7706612e-03
 -8.9963047e-05
 -8.1986870e-04
 -7.0949015e-04
  1.5524623e-01
  3.5210794e-01
 -1.7887309e-04
 -2.2643582e-04
  3.6680249e-05
  2.2003110e-01
 -1.4539725e-03
 -2.2410357e-01
  2.2236761e-04
 -5.1702131e-02
 -1.1760013e-03
  7.0608938e-01
 -3.6961513e-04
  4.0464714e-04
 -7.9872864e-01
 -1.0623178e-01
  6.3213090e-05
 -8.2247087e-04
  9.6364238e-04
  5.2626401e-05
 -1.0200210e-03
  3.2714306e-04
 -1.2290629e-05
 -1.2692488e-03
 -3.0264119e-03
  1.7701973e-03
  1.0286994e+00
  1.0024735e+00
  3.9485949e-01
  1.1560783e+00
  1.6721671e-02
 -7.5959116e-01
  3.3659618e-02
 -5.1901716e-01
  8.8146430e-01
  2.1381106e-03
 -1.1256995e+00
  1.2264801e-03
 -1.5430947e-01
 -8.9927799e-01
  1.0451925e-03
  1.3687453e-01
 -5.9033804e-02
 -2.9304463e-03
  1.2488075e-01
 -7.6953453e-01
  4.9880956e-04
 -3.3339712e-01
 -1.2547344e-01
  1.6555071e-01
  1.4502217e-01
  8.5325783e-01
 -2.5070670e-01
  4.4021204e-02
  9.3013710e-01
 -1.6985491e-01
 -6.4661288e-01
  5.9281313e-01
  2.9167827e-02
  6.0427386e-02
 -1.4487927e+00
 -4.3865532e-01
  1.4680211e-03
  6.0423964e-01
 -4.3910342e-01
  3.3116192e-01
 -1.3700448e+00
  5.8254158e-01
 -1.3164874e+00
 -1.6176624e+00
 -7.0769638e-01
  1.2816158e-04
 -8.0832481e-02
  1.1499189e-05
  1.9960334e-04
 -9.2283275e-04
 -8.3708431e-04
  1.8553878e-01
 -1.4123055e-01
 -4.4767043e-01
  4.8478499e-02
 -6.6104293e-01
 -5.1025999e-01
 -3.9356193e-01
 -9.7785234e-02
 -1.2624204e+00
 -3.7853885e-02
 -1.3132036e+00
 -9.7919339e-01
  4.5266166e-01
 -2.5908616e-01
  9.1926128e-01
 -6.9253176e-01
  8.1065565e-02
  8.4983158e-01
  1.6228265e-01
  2.8192264e-01
  4.4658482e-01
  1.1408023e+00
  2.6915537e-02
  2.0249994e+00
 -1.7728882e+00
 -8.4504455e-02
  1.9362943e-01
  7.6517862e-01
 -2.3873645e-01
 -3.2876965e-01
 -2.5115466e-01
 -1.7648745e-01
  1.0627725e+00
 -1.9554293e-01
 -2.1134701e-01
  2.4038409e-01
 -6.7512167e-01
 -1.1907845e+00
 -9.1307813e-01
  6.5030921e-03
  3.3657643e-01
 -1.9382024e-01
  5.3145266e-01
  6.1841798e-01
  8.0927497e-01
  3.2700381e-01
 -1.1442661e+00
 -4.0240201e-01
  3.7874028e-02
 -8.8852537e-01
 -2.6068783e-01
  1.0859643e+00
 -6.9072453e-04
 -4.1958378e-05
  3.7056866e-01
  1.7674097e-01
  5.6093919e-01
  6.2852836e-01
 -5.2444458e-01
 -9.1360241e-01
 -2.4335957e-01
 -3.3930662e-01
  1.3247329e+00
 -1.7458062e-01
 -8.0823845e-01
  1.8837852e+00
 -2.6704496e-01
 -1.7000531e+00
  8.3739156e-01
  1.4480931e-02
  9.3078125e-01
  1.1896037e-01
  1.7265086e+00
 -3.9573586e-01
 -7.2806293e-01
  3.6312696e-03
 -2.9967529e-01
 -2.7240747e-01
 -5.8498951e-03
 -4.2575315e-01
 -7.8586626e-01
  8.6114168e-01
  4.7764797e-02
 -1.6257460e-03
 -3.5029855e-02
  2.4848935e-01
  1.8269235e+00
 -1.4460696e+00
  9.6975297e-01
 -8.0078179e-01
 -1.2638040e+00
  6.9565260e-01
 -7.4416882e-01
  4.8676339e-01
 -8.3114289e-02
 -1.5077676e+00
  2.3110357e-01
  1.9725978e+00
  2.1328583e-01
  7.1301326e-02
  1.4065235e+00
 -3.0568835e-01
 -2.2014829e-05
  1.4078119e-04
  3.1881160e-01
 -1.3033880e-01
  9.1981805e-05
  1.0892608e-03
 -1.3958954e-03
 -3.0019054e-01
  1.0739024e+00
  5.6266618e-01
  1.2980815e+00
 -1.1882169e-01
 -3.2622156e+00
 -1.2772923e+00
  1.7568660e+00
  6.2981635e-01
  5.3566957e-01
  9.9410340e-02
  4.2272666e-01
 -5.0998843e-01
 -5.4935817e-02
 -9.5302677e-01
 -2.6795161e+00
 -1.1251541e+00
  1.7259029e+00
 -6.3441986e-01
 -1.2189246e+00
 -1.2158746e+00
  3.5761604e-01
  4.5088962e-01
 -6.9940694e-02
  7.3036653e-01
 -8.3448589e-03
  9.2633951e-01
 -5.7014716e-01
 -1.3688352e+00
 -1.4240794e+00
 -5.9892243e-01
  6.0348326e-01
 -5.2721989e-01
  4.6316089e-04
 -4.5366225e-01
  4.3667912e-01
  1.5045458e+00
 -2.3737802e-01
 -5.7308716e-01
 -1.3929130e-01
  4.6684768e-02
 -1.1026144e+00
 -4.0291371e-03
 -4.6041676e-01
  1.1288389e+00
  3.8241416e-01
  5.9963983e-01
  6.8725059e-03
 -8.0621368e-01
  1.4971091e-01
  2.1098035e-04
 -4.0514645e-01
  2.4696143e-04
 -2.4299747e-01
  2.6599233e+00
  1.6932507e-01
  3.2548952e-01
  1.0187764e+00
  1.7897748e+00
 -1.2013731e+00
  1.6568203e+00
 -1.3281767e+00
  1.8782713e-01
  1.2798085e+00
  1.0520487e+00
 -1.7047282e+00
 -9.6101010e-01
  1.1701562e+00
  6.6538221e-01
 -1.4875761e+00
 -6.1368889e-01
 -4.4564584e-01
 -6.8006404e-02
  1.8034531e-02
 -1.9450802e-01
 -7.5280291e-01
  1.0422659e-02
 -1.0811434e+00
  2.3160030e-01
  1.8615947e+00
  7.2377585e-02
  1.3091130e+00
 -9.8760933e-02
  1.0816369e+00
 -4.5349678e-01
 -2.9858363e-01
  4.9642041e-01
 -8.7915319e-01
  9.2629090e-02
  1.1407048e+00
 -1.1305610e+00
  4.5404693e-01
 -5.2354224e-02
  9.4173396e-01
 -2.7270091e+00
 -1.6406302e+00
 -1.7658690e+00
  5.3639966e-01
  2.5229683e+00
  9.2546225e-02
 -8.4476995e-01
  2.6713455e-01
 -7.0055634e-01
 -1.4220648e+00
  4.1583785e-01
 -6.0504711e-01
  7.9181010e-01
  7.0629054e-01
 -3.4073487e-01
 -1.3188802e+00
  1.8626685e+00
 -3.3647215e-01
  1.5422337e+00
 -4.1832262e-01
  9.2833978e-01
 -1.1296686e+00
 -1.0447425e+00
  1.4814315e+00
  5.5292648e-01
 -9.6495658e-01
 -8.0232167e-01
  5.8761185e-01
  6.9564921e-01
 -3.9506957e-04
  7.4700713e-01
 -1.8963387e+00
  2.8853688e-01
 -5.0460118e-01
  1.6403409e+00
  2.8138752e+00
  7.3487550e-01
  6.8319386e-01
  8.3323228e-01
  1.6890410e+00
 -3.0298266e-01
 -1.4688742e+00
  4.4713235e-01
 -2.6484039e+00
  4.2670786e-01
  1.0302005e+00
 -1.8217682e+00
 -8.6705923e-01
 -1.2678503e+00
  7.8033119e-01
 -5.8440226e-01
 -1.7600602e+00
 -1.0956211e+00
 -8.7676495e-01
  2.4022732e+00
  1.1856488e+00
 -7.6142180e-01
 -3.2582864e-01
 -7.7305090e-01
  1.4347688e+00
 -1.6191987e+00
 -3.1495457e+00
  6.8308301e-03
 -3.4631860e-02
  4.2713637e-04
 -4.8288945e-04
  3.3780408e-01
 -1.0564585e-02
 -1.0570981e-02
 -1.7602823e-03
  3.1026076e-03
 -7.0148590e-03
 -2.5303138e-04
 -6.0746545e-04
  1.1868477e-04
  8.6454483e-04
  1.6832126e-05
  2.9718431e-05
  6.6916586e-04
 -2.4127764e-04
 -5.7307434e-01
  3.4926261e-04
 -5.7904719e-04
  1.7708943e-03
  7.6848496e-04
  7.2425435e-04
  4.2271963e-04
  4.5043154e-04
 -5.0332248e-05
  6.0868380e-05
  8.2217841e-05
  3.2108329e-02
 -2.9782945e-04
  1.6241618e-03
  2.0582315e-04
 -5.0494476e-04
  1.9159047e-04
  1.2056796e-03
  1.0207567e-04
 -1.5661260e-01
  6.1743410e-04
 -1.8985790e-03
 -1.1837331e-04
  2.9947291e-04
 -4.1556745e-04
  7.5030905e-05
 -5.5221649e-04
  2.8763292e-04
  2.3424455e-04
 -2.9161185e-04
 -6.2294549e-04
  1.5434237e-04
  1.1576393e-03
  2.7943574e-04
  3.6849533e-04
 -2.3280196e-03
  9.4227776e-02
 -1.2923666e+00
 -9.4607063e-02
 -1.0809651e-01
 -1.2196846e-01
  1.5448025e+00
  1.3574266e+00
  7.2151192e-02
 -1.1288046e+00
  2.4091715e-01
  4.7018814e-01
  5.2507150e-01
 -4.4210643e-02
  1.1977457e+00
  3.3227333e-01
  5.7859629e-02
 -1.6199967e-01
 -1.4998769e+00
  9.5155036e-01
 -1.1591439e-01
  1.9527438e-01
  1.1027905e-01
  3.7664178e-01
  8.8406384e-01
  5.3082371e-01
 -1.9341697e-01
 -8.8520747e-01
  1.9254024e+00
 -1.2202250e+00
  1.4633132e+00
 -4.5459434e-02
 -5.7106987e-02
 -1.7475184e-02
 -5.5830789e-01
  4.9163583e-01
  7.6132411e-01
 -1.5088250e-01
  8.6592418e-01
 -5.8281261e-01
  8.5618805e-05
 -3.3417910e-01
  4.9573976e-01
  8.0703151e-01
  1.7945045e-01
 -1.7918938e-01
 -9.3455036e-04
  1.2435425e-03
 -1.7525337e-04
 -1.0521861e-03
  1.2274665e-01
 -2.2415651e-03
 -1.3878742e-03
 -5.0105814e-02
  7.4233852e-02
 -2.3791386e-01
  3.0457312e-01
 -4.7710431e-01
  1.1215608e+00
 -3.6465890e-06
 -9.0049189e-01
 -9.5687860e-01
  1.2928454e+00
 -5.3248411e-01
 -8.9993171e-04
 -3.2713171e-04
  1.1803719e+00
  1.3433339e-01
  6.4357094e-02
 -1.2783188e+00
  7.7511771e-03
 -9.8870532e-04
  4.8928675e-01
 -7.9075998e-01
  8.5738248e-01
 -8.6786978e-02
 -8.3142185e-01
  1.6537623e-04
 -2.2367200e-01
  7.1799889e-02
 -7.0962995e-01
  4.0372859e-05
 -1.7010076e-02
  1.2523203e+00
 -3.9662465e-01
 -3.5512540e-01
 -1.3006264e+00
 -6.1372793e-01
 -7.2102648e-01
 -1.1636747e+00
 -8.4038490e-01
  4.0231249e-01
 -5.2844590e-01
 -1.3015044e+00
 -6.0234427e-01
 -1.0099851e+00
 -2.9072690e-01
  1.1387287e+00
  3.2147747e-01
  2.4626717e-02
  1.2206250e-04
 -1.5986993e-03
  5.4113043e-05
  6.1941543e-04
 -1.1728078e-03
  1.0637401e-03
 -6.6073681e-04
  4.6604440e-05
 -5.9242584e-02
 -7.7978194e-01
 -5.2090421e-02
  6.3193977e-01
 -1.2960705e-01
 -5.3738004e-01
 -1.8388450e+00
 -7.5047338e-01
  2.1682777e+00
 -1.5233548e+00
 -1.1110888e-01
  1.0009892e+00
  9.5268923e-01
  3.5870302e-01
  1.2435243e+00
  1.2562221e+00
 -1.7104578e-01
 -3.4370317e-04
  7.5827634e-01
 -1.0869296e+00
  6.4879954e-01
 -3.5767353e-01
  1.2395421e+00
  1.0508702e-01
 -2.8362033e-01
 -7.0270127e-01
  1.5556003e-01
  3.0220490e+00
 -3.0799381e-02
 -6.9260263e-01
  2.8629556e-01
 -1.4307789e+00
 -1.6645011e+00
  1.1345865e+00
  5.4335284e-01
 -8.2888275e-01
  1.0975614e+00
  2.5507814e-01
 -1.3215513e+00
  1.2577540e+00
 -1.9849919e-01
 -9.0602440e-01
  2.3171291e-02
  3.9054331e-01
 -8.1575382e-01
 -9.2676204e-01
 -2.7443781e-01
  4.1697789e-03
 -7.0180714e-02
 -2.7107153e-04
  4.6251476e-04
 -1.3810836e-01
 -1.1473366e-04
 -5.5414593e-01
  3.1646767e-01
  2.4216116e-04
 -7.9326832e-04
  1.3154361e-04
 -5.1917747e-04
  3.6478587e-04
  6.7104935e-05
 -1.5795290e-03
 -2.3965315e-04
  4.5287341e-04
 -8.6275535e-04
 -5.6435668e-04
 -4.7624862e-04
 -2.5222750e-04
 -1.2741669e-03
  6.1614206e-04
  1.0676046e-03
  1.8637014e-03
  3.6950212e-05
 -3.5865858e-04
 -4.0321113e-04
  2.3414777e-04
  1.0791176e-04
  1.1737607e-03
 -5.6313659e-04
 -2.8275175e-04
  6.6177294e-05
 -3.8495872e-04
  1.4147737e-04
  6.6745328e-05
 -1.1860043e-03
  4.2530173e-04
  1.5290582e-04
 -9.4142416e-04
  1.7325950e-04
  8.5678577e-05
 -6.6719163e-04
  9.2240173e-04
  3.1043089e-04
 -1.7120196e-04
  3.3118550e-04
 -1.5659699e-04
  5.6782064e-06
  1.1920814e-03
 -7.0647344e-05
 -1.1736756e-04
 -4.7267784e-04
 -1.4553108e-04
 -4.9147470e-04
 -8.0731850e-05
 -1.8222036e-04
  2.7710682e-04
  2.3281265e-05
 -1.1701289e-03
 -3.9451831e-04
 -1.2599440e-01
  2.0741096e+00
 -1.9109753e+00
 -5.6006646e-01
 -3.4255201e-01
 -6.3084114e-01
 -2.1042301e-01
  2.4905108e-01
 -1.4628258e+00
 -1.9727390e-01
 -2.3919386e-03
  7.9430175e-01
  1.7909028e-03
 -1.4425238e+00
 -1.2774932e+00
  6.8495423e-01
 -4.2797559e-01
 -5.1123607e-03
 -2.4580867e+00
  8.8122380e-01
 -1.0263546e+00
  7.7153045e-01
 -8.1585956e-01
 -5.2845920e-04
 -1.3970107e+00
 -4.8598414e-03
  1.2685068e-01
 -5.4594796e-02
  1.8696680e+00
 -1.5883830e-01
 -6.4906001e-01
 -2.4316071e-01
 -1.1381187e+00
 -7.9810137e-01
  2.4257801e-01
 -2.3337911e-01
 -4.1790754e-01
 -8.4838852e-02
  3.4279367e-01
 -6.5716010e-01
  5.1164168e-01
 -2.5311801e-01
 -3.7412232e-01
  2.2913964e-01
 -1.8753744e+00
 -5.4731112e-02
  8.8527156e-03
  1.7469312e-01
 -1.7272414e-03
  1.6071066e-03
 -1.9033012e-01
 -2.2086375e-03
 -3.0598518e-01
  2.4468076e-04
  1.0967876e-03
  3.8307396e-04
  4.4532664e-04
 -3.7148211e-04
  8.2868195e-05
 -2.6898651e-04
 -1.2028217e-04
 -9.4016781e-05
  7.7606016e-04
 -3.4553953e-04
  7.4959164e-05
 -2.1121719e-04
  6.7856148e-05
 -1.3072549e-03
 -6.3852556e-03
  1.1440299e-03
  1.0132976e-03
 -3.3502965e-04
 -2.7000863e-04
 -4.9245416e-04
 -9.7833527e-04
  1.4068122e-04
  5.0379463e-06
  1.3187984e-03
 -6.8195036e-04
  1.0406295e-03
  1.1360272e-04
 -5.9317832e-04
 -8.9742412e-04
 -6.1184750e-04
  1.9643854e-04
 -6.2112586e-04
  1.1627390e-04
 -4.2020218e-03
  8.2008960e-04
  9.5070555e-04
 -1.2357278e-03
 -4.3856191e-05
  8.3528447e-04
 -8.0684433e-04
  4.3410101e-04
  6.0418091e-04
  5.4814154e-04
 -1.5764299e-05
  9.0800071e-01
  9.0869250e-08
 -9.1698428e-04
  3.2151730e-03
  6.5654203e-06
 -2.6198524e-05
  5.8948202e-04
  6.5794750e-04
  1.2888897e-03
  1.3036369e-03
 -3.2291761e-01
  4.9952331e-01
 -5.0271887e-01
  1.5528864e-02
  1.5498539e+00
  8.0039966e-01
  3.8428059e-01
  5.3479522e-01
  2.1607178e-04
 -1.3861410e-01
  6.7011901e-04
  4.1091532e-04
  6.3002971e-04
 -6.6773945e-01
 -2.2777424e-03
 -1.1402334e-01
  6.3663268e-01
  4.6257919e-01
  1.5118749e-04
 -7.6290040e-04
  1.1699095e+00
  2.4790095e-05
 -1.1404996e+00
 -3.6354957e-04
 -1.9763470e-02
  7.0580584e-04
  1.2577071e-02
 -6.0856575e-01
 -3.5633987e-01
  3.2137733e-04
  1.5512238e-03
 -3.0358718e-03
 -3.4893557e-04
 -1.3132894e-02
 -4.4932687e-01
 -1.3999148e-01
 -1.6037878e-04
  7.5062615e-01
  2.0945757e-03
 -4.7862288e-03
 -1.6709119e-01
  3.4622255e-01
 -8.5268315e-04
  7.0488994e-04
 -7.3088735e-04
  2.5936961e-04
  4.5094616e-04
 -1.1282765e-03
  1.4025015e-03
  7.2303432e-04
 -2.8642875e-05
  7.5985998e-04
 -6.0738676e-06
  8.3771655e-03
  2.4064841e-04
  3.0307131e-04
  4.3409651e-05
 -1.4027616e-04
 -9.9005352e-04
  1.1374648e-03
 -1.0079616e-02
  1.9590027e-04
 -5.4179202e-04
  6.2588093e-05
 -1.4677014e-04
 -6.9636488e-05
 -2.7521074e-04
  8.5345581e-03
 -2.4925856e-04
 -1.3813822e-04
 -7.2560314e-04
 -6.7127252e-04
  6.6893961e-04
  1.3048443e-03
 -2.0684686e-03
 -2.8829346e-03
  7.4114476e-05
 -4.3644675e-05
 -2.1971699e-05
  2.1446703e-03
 -7.3019642e-04
  3.9531675e-05
 -2.7586308e-01
 -1.1924345e-03
 -1.8129579e-04
 -6.8835908e-04
 -6.0556957e-04
 -7.3993887e-04
 -2.6793045e-04
 -6.7818190e-05
  3.7160970e-04
 -6.3566923e-01
  3.8484004e-04
  9.4592264e-03
 -7.0628925e-04
 -1.8807563e-05
  3.8091023e-03
  1.4352561e-03
 -2.1546351e-04
  3.7641570e-04
  1.5888084e-04
  4.9600244e-04
 -3.3211082e-04
 -1.9543523e-04
  1.3008079e-04
 -4.6543876e-04
  2.1446239e-04
 -9.3445116e-05
  2.2745087e+00
  3.9070815e-01
 -9.7715986e-01
 -8.2934994e-01
  5.0896198e-01
 -4.8842123e-01
  6.4267451e-01
  1.1004574e+00
  9.3173459e-02
  1.8553452e-04
 -2.0174429e-01
  6.2328395e-02
 -1.4540701e-01
 -1.1306500e+00
  1.6655606e-01
  3.1108952e-03
 -4.1656673e-01
 -6.8476874e-01
  2.5277850e-01
  3.3125952e-01
  1.1303006e+00
 -1.5883164e-02
 -1.3773032e-02
  2.1251485e-04
 -2.1010193e-01
  7.3578441e-01
  2.0175478e-01
 -1.5544554e-02
  1.7029762e+00
  1.2426083e+00
 -7.7547651e-05
 -2.0403484e-01
  4.1934106e-01
  1.8958667e-01
  2.8910778e-02
  1.6284899e-01
  8.8002831e-01
  5.6995875e-01
 -7.7287167e-01
 -3.1957114e-01
 -2.1357635e-01
  2.4649743e-03
  3.1613365e-02
 -3.1460509e-01
  2.9107207e-01
  2.3959379e-03
  1.4037258e-04
 -7.5612008e-04
 -5.0939783e-05
 -8.4707433e-05
 -1.2462985e-04
 -5.6219520e-03
 -6.1710483e-01
 -1.0794900e-04
  2.1748385e+00
  2.8745456e+00
 -2.8000953e+00
  5.9093869e-01
  7.5017560e-01
 -5.8050442e-01
  3.6482184e+00
 -4.7240911e+00
 -7.9097527e-01
  6.1164767e-01
 -6.2910980e-01
  4.9758158e+00
 -1.3598290e-01
 -7.8859001e-02
  8.2863575e-01
  2.1292810e-01
  3.8116891e-03
  6.5191054e-01
 -9.8780263e-04
 -9.6534735e-01
  7.1650945e-02
 -8.7886758e-02
  4.6586731e-05
  1.5370911e-01
  5.5568555e-04
 -9.3757975e-01
 -5.7356226e-01
 -1.1462699e+00
 -1.5567489e+00
 -7.9721677e-01
 -4.3072125e-01
  2.0146475e-03
 -4.4097212e-01
  5.9108078e-01
 -7.1263838e-01
 -1.2583286e-02
 -6.6140312e-01
  5.2937281e-01
  9.3472612e-01
 -6.4745724e-01
 -1.3115337e+00
  6.3313085e-01
  2.2265596e+00
 -1.2455204e+00
 -8.7113023e-01
 -4.9936824e-04
 -1.4315690e-01
 -5.6818408e-01
 -2.5586266e-04
 -9.9525671e-04
  4.0620079e-04
  1.3486812e-01
  1.3657304e-03
 -8.1104670e-05
 -6.2545896e-01
 -1.0600170e+00
  4.3183258e-01
  8.8266367e-01
  1.3634027e+00
 -7.7500200e-01
  9.0644932e-01
 -3.8940448e-01
 -7.5939137e-01
  5.3375040e-04
  5.6492988e-02
  8.3108366e-01
 -4.6938608e-04
  1.3678446e-01
 -3.4593093e-05
  3.3225406e-02
  8.7282759e-01
  1.9315124e-01
  1.4946319e-01
 -2.2286177e-01
 -7.5353913e-05
 -1.5159416e-01
 -8.0908817e-04
 -3.5895570e-04
 -3.9381948e-01
  8.2369978e-03
  3.7731001e-01
  1.0292575e+00
 -1.7019881e+00
 -3.6783826e-01
  3.2754694e-04
  2.5952589e-02
 -6.3984317e-04
  6.4574009e-01
 -1.2602208e+00
 -1.0783315e-01
  3.7565723e-01
  9.4764131e-01
 -7.8531313e-01
 -2.0552856e-01
  1.1042751e+00
 -3.9007020e-01
 -2.4539693e-01
  8.8198197e-01
  1.4522943e-01
  2.0156892e-03
 -5.6652557e-03
 -1.7303261e-01
  6.7500171e-04
  8.2127826e-04
  1.2893187e-03
 -4.8734036e-01
  2.6652319e-03
  2.9843819e-01
  1.2562302e+00
 -8.3343588e-02
  1.8236820e+00
  9.9644595e-01
  1.4144289e+00
  4.0936333e-01
  1.0449991e+00
 -5.6636757e-01
  6.2230277e-01
 -1.3064686e-03
 -9.0625341e-04
 -4.0575951e-01
 -2.9272889e-04
  1.3343017e+00
  5.3518109e-02
  1.1089102e+00
 -4.6247862e-02
 -4.0994248e-01
  1.8503340e+00
 -1.0303540e+00
  8.1880206e-01
 -4.1060847e-01
  6.4697856e-01
 -2.8496209e-04
 -1.1573948e+00
  3.9103009e-02
 -3.7826662e-04
 -5.7108366e-01
  3.5650250e-02
  8.2701570e-01
  6.7415375e-01
 -1.0654743e-01
  1.0960507e-01
  4.7267869e-02
  5.2600938e-01
  9.8541492e-01
  3.9780628e-02
 -8.0462217e-01
  1.2343006e+00
  4.6417099e-05
 -3.8895050e-01
  2.5680989e-01
  6.1790615e-02
 -2.2898161e-01
  5.3920388e-02
  4.8704687e-01
  2.4420206e-02
  1.4524218e-01
  3.1754556e-01
  1.1342355e+00
  8.3994426e-05
 -2.4733348e-01
 -1.7375696e-02
 -9.8132348e-01
 -2.7604622e-01
  9.5152938e-01
  9.6956929e-03
  1.6397075e-01
 -6.6845042e-01
  1.1196599e+00
 -8.4341858e-03
  6.8973288e-02
 -1.6691325e+00
  6.0485649e-01
  2.5521460e-01
 -1.3267234e-01
 -1.6229782e-04
  4.6796304e-01
  1.1708315e-01
  1.9063717e+00
  1.7217713e-03
 -7.0867360e-01
  1.5995104e+00
  1.5491699e+00
  3.0292338e-01
 -9.9893582e-01
  8.7961531e-01
  6.4807528e-01
  6.2875427e-02
  2.4934171e-01
  1.6517807e+00
  1.9701765e-01
  2.9571301e-01
  7.1172130e-01
  8.3051288e-01
 -2.6605925e-01
 -2.4223099e+00
 -8.7797081e-01
 -6.7185748e-01
 -1.1367120e+00
  1.3057061e+00
  7.2978717e-01
 -4.5949340e-01
  6.3293874e-03
 -4.2525044e-01
 -5.5789733e-01
  4.6978673e-01
 -4.5359457e-01
  6.6645777e-01
 -8.9573610e-01
 -7.9629064e-01
  1.0810515e+00
  5.3995794e-01
  1.6934907e-01
 -8.2247898e-02
 -5.5467046e-04
  1.3194656e-01
  9.9922024e-02
 -4.9705518e-04
  8.4920242e-02
 -2.2332695e-06
  7.5193857e-05
 -1.6112348e-01
  1.3630965e-03
  9.5431961e-02
  9.1378373e-04
 -4.2957203e-03
  7.7258774e-05
 -6.2447660e-02
  1.6629479e-05
  2.0014228e-04
 -4.3996863e-04
  4.5422604e-04
 -8.5911239e-03
 -1.2034066e-03
  7.9834979e-05
  2.6788880e-04
  4.6315952e-05
 -5.6092354e-04
  1.5477453e-04
 -1.0147819e-03
  1.0918236e-03
  1.5866458e-04
  1.4306508e-03
 -4.5135178e-04
  4.9873204e-03
  1.3854912e-04
 -3.1356190e-03
 -2.5411070e-04
 -3.4477504e-04
 -5.4927915e-04
 -1.4593413e-04
  1.8244707e-04
 -1.5931515e-04
  9.0550937e-05
 -4.2991128e-04
 -1.4974549e-04
 -5.3732650e-04
 -2.8768880e-04
 -2.0231490e-03
 -2.7483789e-04
 -4.1626304e-04
  5.8252801e-04
 -1.1859449e-03
  2.2352417e-03
  2.6744325e-04
 -1.7544700e-04
  6.2584493e-04
 -8.4596038e-02
  5.6585664e-04
 -1.3477205e-04
  4.0289183e-04
  5.9133430e-04
 -1.3407169e-05
 -1.1959575e-03
 -6.2775525e-04
  1.6444816e-05
 -1.5819481e-03
 -1.0036024e-03
  6.7251385e-05
 -1.5052957e-03
 -3.6243506e-04
 -6.9051562e-04
 -3.9673338e-04
  4.8813086e-05
  7.6874153e-04
  4.4256775e-04
  2.7712708e-04
  1.4143733e-03
  9.1130176e-05
 -7.4003352e-04
 -5.3797307e-04
  1.1521386e-04
 -2.3287552e-04
  1.6704977e-04
 -1.5425691e-04
 -9.7032089e-06
 -2.1481663e-05
 -5.8572012e-04
  1.4663584e-03
 -6.1070226e-05
  7.5225144e-05
  7.9596875e-04
 -5.2717031e-04
 -1.7822132e-03
 -8.6767954e-04
 -3.8861421e-05
 -4.2049002e-04
  1.6647315e-04
 -1.4623402e-04
  8.9302221e-03
  3.9794229e-04
 -7.9945760e-04
  5.5823097e-05
  6.8597653e-04
 -3.3233006e-05
 -1.4064391e-04
  9.5822885e-05
  1.4039873e-05
  5.1279046e-04
 -6.0708163e-04
  1.0465892e-04
 -1.0414813e-04
 -2.3478597e-05
 -2.6371588e-05
  4.6028331e-04
 -2.4529175e-01
 -8.4823310e-01
  1.0002652e+00
 -1.1949303e-02
  5.0591773e-01
  4.7535464e-01
 -3.4840144e-02
 -4.2526340e-03
 -1.2257657e-03
  1.0935931e-03
 -1.9244472e-03
 -3.2036990e-01
 -5.3206772e-01
  1.1736839e+00
 -5.5832130e-01
  2.4098237e-03
 -9.8863447e-01
 -1.3790205e+00
 -5.3979808e-01
  1.4445310e+00
  1.1716239e+00
  3.5559416e-03
  1.1077430e+00
  3.8196113e-02
  1.8842196e-01
 -1.0447749e-01
  8.3530706e-01
  6.1644360e-02
 -5.3247964e-01
 -1.0928674e+00
 -1.2298527e+00
  1.1187486e-01
 -5.7172626e-01
  1.1788145e-01
 -3.4637916e-01
 -1.0877383e+00
  4.3794623e-01
  3.2036510e-01
 -4.2923167e-01
 -2.1753810e-01
  1.3615482e-01
 -2.7068663e-01
 -3.8651916e-01
  9.5044404e-02
  5.3079832e-01
  8.6446921e-04
  3.0876216e-02
  4.7786921e-01
 -1.0185879e-04
  8.3293356e-03
  1.1675448e-04
  1.1869308e+00
  3.0365947e-05
 -6.5528468e-04
 -3.2886201e-01
 -1.9158550e-02
 -3.5560080e-01
  1.2007278e-04
  9.0341279e-03
  2.0025091e-03
  6.6558552e-01
  1.7477307e-01
 -2.6129901e-02
 -2.3782982e-04
 -1.5977814e-04
 -3.7154812e-02
  6.4715906e-04
  1.0138191e-03
 -6.3058472e-04
 -8.8992989e-01
 -3.3667118e-03
 -1.0800346e-03
 -7.3989984e-03
  1.2786301e-04
  1.5557864e-01
 -8.0217503e-04
  3.8184217e-04
 -7.0525007e-04
  1.0484909e-01
  1.0572350e-04
 -1.1633893e-04
  2.2259456e-01
  1.3742342e+00
 -5.6790490e-02
 -3.5944025e-03
 -1.8626951e-04
 -4.2768574e-04
  2.9836413e-03
 -1.8909715e-04
  1.0621098e-01
  2.8512076e-02
  1.9406644e-03
 -1.4471955e+00
 -3.0328561e-06
 -1.8813828e-01
  2.2715241e-01
  1.6168322e-03
  2.6864477e-03
 -1.6941023e-03
 -1.1680042e-04
  1.0153721e-03
  3.0365077e-04
 -5.3846260e-04
 -4.1020492e-05
 -1.8716704e-03
  2.1256253e-03
  3.1772386e-05
  1.0983711e-03
 -2.2389103e-01
 -1.6424122e+00
  4.0742296e-01
 -1.2585291e-01
  2.4507609e-01
  4.6630013e-03
 -4.1699866e-04
 -2.8866994e-01
  9.5345980e-01
 -2.4428600e-04
  1.0302378e-03
 -7.3245063e-04
  4.1811275e-03
  6.4369783e-02
  6.6790561e-04
  1.6153179e-01
  1.4953052e-01
  3.3317484e-02
 -3.4990723e-04
 -9.7651873e-03
  3.2573038e-01
 -4.2815595e-03
  1.5981041e-01
 -5.6731526e-04
  2.6306352e-01
  1.0877459e-01
  4.1808347e-05
  4.4273503e-02
  1.3080634e-03
  1.1090900e-01
  1.1196941e-02
  1.9706648e-03
  1.0765042e-01
  4.3941970e-04
  6.4156752e-04
 -3.4856744e-04
  4.4963798e-01
 -6.8598300e-01
 -8.4561156e-03
 -1.5532317e-03
 -2.9899818e-01
  7.0239382e-04
  8.1093669e-05
 -1.2222128e+00
 -1.5442019e-03
  7.6500066e-02
 -4.6324995e-04
 -2.1122224e-03
  1.0793725e-03
 -3.8818263e-03
 -5.1487528e-05
 -5.9264578e-04
 -6.1413302e-04
  6.6080492e-04
 -2.3745464e-03
 -3.7177086e-01
 -6.8875594e-04
  2.0578928e+00
 -7.0085514e-01
  1.1515631e-01
  7.7002102e-01
 -1.7384769e+00
 -2.3363969e-01
  7.0941396e-04
 -2.9917815e-01
 -1.3340905e-01
 -1.9832217e-04
 -1.6068988e-01
  1.5899472e-02
 -1.2099295e+00
 -5.9187847e-01
  6.5078080e-04
  3.0083287e-01
  9.5551908e-02
  4.5476068e-04
  2.9851526e-02
  1.0009570e-04
  1.2548551e-03
  2.7622342e-01
 -3.4351022e-05
 -1.7501070e-04
 -1.3420050e-01
  9.4039798e-01
 -1.0215803e+00
  1.1187695e-03
 -4.8192129e-02
 -1.8172732e-03
 -4.4713348e-01
  5.7879937e-01
  5.9545553e-01
  1.5295817e-01
  1.5161741e+00
  1.7500210e+00
 -1.2608088e-03
 -1.2714024e-01
  5.4571998e-01
 -2.4378400e-01
  3.6463913e-04
  8.0753011e-01
 -3.4469995e-04
  1.5775200e-03
  2.5776514e-01
  5.4967211e-05
 -1.8345920e-04
 -1.3035137e-03
  1.8347277e-03
 -4.0452226e-04
  2.7271913e-04
  2.4843984e-04
 -3.9111888e-03
 -6.8469980e-04
 -7.2232076e-05
  5.8593574e-05
 -5.8187323e-04
 -3.7974354e-03
 -1.1892328e-04
  8.7928762e-05
  1.8467246e-04
  5.8483693e-04
 -4.5571971e-04
  1.2644357e-04
 -2.2542158e-04
 -1.3824769e-03
  1.1597940e-04
 -4.3689509e-04
  1.1242382e-04
 -9.9380282e-05
 -4.1284345e-04
 -8.5061125e-04
  5.7291432e-05
 -1.2072355e-04
 -2.5251761e-04
  1.8686465e-04
  8.1662316e-04
 -4.9344468e-04
 -1.9836162e-04
  6.0113409e-04
  2.1531670e-04
 -1.5859147e-04
  5.9608760e-04
  3.0624281e-04
  2.3124230e-04
  9.5720779e-06
  7.9441379e-04
  7.1962262e-05
 -1.3096521e-04
  2.4498603e-04
  2.0763875e-05
  5.7740783e-04
 -3.1177278e-05
  6.0352028e-05
  5.9532747e-04
  3.1864183e-04
 -1.7331660e-01
 -3.6999589e-04
  1.4168477e-04
  3.3755007e-04
  6.4255617e-04
  1.4566888e-04
  9.3518622e-04
  5.1953248e-04
 -4.8530503e-04
 -5.9977396e-05
 -8.7487683e-02
  1.5680962e-04
  5.3979468e-02
  2.7556980e-03
 -3.6200585e-03
 -8.7281756e-02
  2.4851720e-04
  6.8784226e-04
  6.6894986e-04
  2.0221088e-04
  3.4484357e-04
  8.7443629e-04
  7.6866847e-05
  5.7011723e-05
 -3.8744703e-05
 -2.3255304e-04
 -1.1858057e-03
  1.6346073e-04
 -5.4248690e-04
  1.4159434e-04
  3.8117525e-04
  7.5821037e-04
 -2.0469108e-04
  3.9185132e-04
 -1.3496447e-04
 -3.8288184e-04
  1.6171020e-04
  1.2218972e-03
 -2.1368410e-03
 -1.2013775e-03
  2.7674861e-04
 -1.0583467e-03
 -4.4609720e-07
  8.6541355e-02
  1.9590803e-04
 -1.1133060e-01
  2.8569935e-04
  2.0727012e-03
 -3.0739364e-04
  1.7523646e-04
  9.5380186e-05
  1.5864876e-04
  1.3865718e-04
  1.2170997e-02
  3.8495287e-04
 -6.5316743e-04
 -2.3764819e-04
  3.7999179e-03
 -1.3720415e-03
  2.7638222e-03
  4.0347502e-04
 -9.5019460e-04
 -5.6139921e-04
 -5.2226597e-01
  6.5631576e-02
 -2.6100106e-03
  8.6572859e-04
 -1.8648242e-03
  4.0373757e-02
  1.6355486e-01
  1.8580455e-02
 -6.7083566e-03
  3.1332756e-04
 -8.7121729e-04
 -5.8228953e-04
 -5.5605150e-04
  1.6080409e-04
  2.2545408e-03
 -6.8544119e-04
 -9.3012779e-05
 -1.9633791e-03
  3.2298145e-04
 -6.6754794e-01
 -3.9284235e-01
  5.4273719e-04
 -1.1104594e-01
 -1.1426881e-04
 -6.8059751e-05
  9.1781389e-05
 -1.0354523e-04
  1.5953659e-03
 -1.0101388e-01
 -6.1111193e-04
 -6.4350810e-04
 -9.2112678e-05
  3.7385710e-04
 -2.0825592e-01
 -1.5501915e-04
 -4.8530370e-01
 -6.1358261e-04
 -2.5617750e-04
 -2.0148593e-03
  2.3080757e-01
  1.4281110e-04
  7.2348368e-05
 -1.8797707e-03
  5.5492559e-04
 -1.5094470e-04
 -3.5694016e-03
  8.5825544e-05
  5.5340969e-04
  1.9314255e-03
 -2.1252944e-04
 -1.3888028e-04
 -4.4947988e-04
 -1.0757113e-04
  1.7972765e-03
 -1.0038689e-03
  6.4488215e-04
 -4.0725002e-04
 -2.7717430e-02
 -3.6637593e-04
  1.0259217e-03
 -1.2813864e-04
 -7.7214951e-05
 -3.2002828e-04
  5.8881345e-04
  4.4486247e-04
 -9.7145408e-04
  2.1264974e-05
  9.1130802e-05
 -2.2423702e-04
  2.2967115e-04
 -3.3333381e-05
 -7.4819603e-04
  1.1005350e-03
 -5.4380822e-04
 -3.1995622e-03
  1.5289336e-04
 -2.3672258e-04
 -6.5915589e-04
  8.3280173e-07
  2.5367536e-04
 -6.7222654e-04
  6.2522589e-04
 -8.9945103e-04
 -7.9039484e-05
 -2.1686152e-05
  3.8061521e-04
 -3.9234517e-05
  1.0107550e-03
  1.3904924e-03
 -1.1935209e-05
  5.5532140e-04
 -2.4240636e-04
 -3.7583802e-04
  6.7852403e-04
 -1.5505139e-03
 -6.4881454e-04
 -7.4733590e-04
  2.5916871e-04
 -6.6723919e-04
 -8.4843552e-05
 -1.3030977e-04
 -1.6535454e-03
  1.7447345e-04
 -3.4787680e-04
 -6.5868528e-04
  4.0219576e-04
  5.5671786e-04
 -8.4292813e-05
 -9.4711357e-01
 -1.1308186e+00
  1.5176290e+00
 -9.0728417e-02
 -1.4132391e+00
  1.8913888e+00
 -1.7024379e+00
 -2.2054455e-01
  9.4443733e-01
  1.4029445e-01
 -9.4484184e-03
 -9.2633808e-01
  1.4751990e-03
  3.7490323e-01
  3.7896147e-01
  1.7183326e-03
  4.9483401e-01
 -2.4476119e-03
  1.5317509e+00
 -1.8780211e-01
  4.5072147e-01
 -1.1413614e-02
 -7.2863892e-02
  1.2468405e+00
 -4.6705501e-03
 -1.1169421e-01
 -4.2862221e-04
 -1.4007332e-02
  7.6477027e-01
 -2.9845038e-01
  4.9193907e-01
  4.6787408e-01
  1.4037369e-03
  4.2935053e-01
  4.4049466e-01
  3.3122818e-03
  3.7727383e-01
 -1.8465364e-01
 -1.5305609e-01
 -6.1898300e-04
 -7.8668460e-02
 -7.6374924e-04
 -5.9449576e-02
  3.5191391e-02
  3.4120354e-01
 -1.0816832e-01
  2.1438103e-04
 -4.4825235e-01
 -5.5060107e-03
 -1.1457286e-03
 -3.0528323e-04
  3.2399330e-01
  3.0939063e-04
 -5.5280066e-04
  2.2461247e-01
 -3.8747451e-01
  4.4829828e-01
 -2.0521930e-03
  4.4001156e-01
 -3.8991344e-01
 -5.0706256e-02
 -1.8183248e-01
  7.0896489e-03
  2.3637002e-02
 -1.6563691e-03
  1.8997115e-01
 -2.1626310e-02
  8.2054579e-01
 -7.1838079e-04
  6.7741894e-05
 -8.1608270e-04
 -7.7137716e-05
  4.3067633e-04
 -3.9829200e-04
 -1.6171494e-01
 -5.7030391e-02
  1.5903027e-01
  1.3824095e-04
  5.6867871e-02
 -5.0764339e-04
 -2.9631413e-03
  9.5927743e-03
 -1.6784608e-01
  1.1608063e-01
 -1.9767851e-04
  1.7543309e-03
 -1.0260989e-04
 -1.9766309e-03
  2.0290482e-01
  1.8673085e-01
  8.7839290e-03
 -1.2459677e-03
 -2.3644243e-01
  2.9352299e-04
  5.4141722e-04
 -7.0195101e-02
 -1.5354365e-04
 -6.6197535e-05
 -2.9583272e-04
  7.0241711e-04
  9.0382778e-04
 -9.3428697e-04
  8.4077641e-05
 -1.6556475e-02
  2.7447686e-04
  8.4433489e-04
 -2.4623768e-03
  3.1019106e-05
 -2.9642083e-04
  2.8793563e-04
  2.7976753e-04
 -1.0564596e-03
 -2.3819170e-04
  1.5188778e-03
 -1.9794831e-04
 -3.9501450e-04
 -6.1019295e-04
  6.9098198e-05
 -1.8391784e-04
  4.6183623e-04
 -4.7685808e-04
  5.8240723e-04
  1.8551982e-04
  1.8752812e-04
 -9.2300936e-04
 -7.1256724e-04
  5.3872925e-05
  1.9738021e-04
  1.1419886e-03
  4.8448954e-04
  3.4737019e-05
  3.5240693e-05
 -1.4712276e-04
 -5.6540139e-04
 -2.7399234e-04
 -4.2360087e-05
  4.6192607e-04
 -3.3904053e-04
 -1.5854702e-04
 -2.0548876e-04
  9.5976065e-05
 -3.9269540e-05
 -3.8817059e-04
 -8.1963248e-07
  1.2001164e-03
  2.9164142e-04
  1.1595353e+00
  7.7300785e-05
 -1.3958412e-05
 -4.3776931e-04
  1.3207129e-03
 -3.5190649e-02
  1.3738681e-03
  4.5423399e-04
 -7.6566677e-04
 -1.6588006e-03
 -1.6500668e-05
 -2.8237989e-04
  4.2470405e-04
 -7.8003411e-04
 -3.9519492e-04
  5.6080398e-04
 -5.7326369e-02
  1.5002282e-02
  7.3268835e-05
  1.2789051e-03
 -4.2029852e-03
  2.9774368e-04
  8.5554728e-03
 -3.1541422e-05
 -5.2042393e-04
 -2.1177353e-04
  4.4583714e-05
 -4.4484320e-04
 -2.4201191e-04
  7.0864760e-04
  9.0887072e-04
  1.5128304e-05
  2.5491795e-04
 -2.2085264e-04
 -4.5424094e-04
 -7.2417455e-04
  3.8288225e-04
  2.2494064e-03
 -2.5896414e-04
 -1.3056010e-04
 -7.4052991e-04
 -7.1536597e-05
 -1.3124238e-04
 -1.1727028e-04
  9.8341412e-04
 -2.4527090e-04
  3.0799574e-04
 -7.0779736e-04
  1.0271200e-04
 -5.8495143e-04
 -6.4315123e-04
 -1.3716459e-04
 -6.2709319e-04
  1.1001276e-06
  1.8043992e-03
  4.1744942e-04
 -2.7891874e-04
 -4.6756199e-05
 -4.2596628e-04
 -2.2791143e-01
  7.9568919e-05
  3.8271703e-04
  7.6746970e-04
 -4.1025295e-04
 -4.4628425e-05
  1.7325519e-04
 -1.7033638e-04
 -1.7185895e-01
  1.4039457e-05
 -6.1315943e-05
 -9.8792619e-01
 -2.2664358e-01
  8.0207381e-03
 -9.0155867e-05
 -3.8356835e-04
  5.8044392e-01
  5.3672796e-01
 -1.0394435e+00
  1.0599365e+00
  5.9747636e-05
 -3.4216752e-03
  2.3866463e-01
  3.0158498e-04
 -3.8760003e-01
 -3.2354947e-03
 -4.4080880e-01
 -2.8109154e-02
  1.2016699e-01
 -4.5087233e-01
 -9.8782010e-02
 -3.6782387e-01
  3.5700420e-04
 -3.1318802e-03
 -1.1854628e-04
 -7.4398931e-04
 -8.8019121e-01
 -3.3121333e-03
 -2.5958806e-01
 -4.6814251e-01
 -3.6977951e-03
  1.7525457e-01
 -6.8243891e-01
 -1.4599451e-01
 -9.0171784e-01
 -3.4956127e-01
  1.1722239e+00
  2.4424097e-01
  1.5736260e-02
  3.2624555e-01
  1.6237459e-01
  9.3697891e-02
 -5.2386832e-01
  3.6310443e-01
 -2.5449601e-01
  7.8897941e-04
  2.8305480e-04
 -1.4118317e-03
 -1.1843917e-01
 -9.4363308e-03
 -1.1414447e-01
  1.0201678e-04
  6.4689876e-04
 -8.3303027e-02
 -5.2666437e-02
 -1.4410074e-01
 -8.4174889e-01
  3.2419044e-01
 -2.2444473e-01
  2.6172265e-01
  1.8005547e-01
  1.4991347e-01
  1.3264558e+00
  1.5657918e+00
  7.1170521e-01
  1.0852244e+00
 -1.1739519e-01
 -1.0506289e-04
 -5.2906942e-02
 -1.0578913e-04
 -9.3618974e-02
  1.0680883e+00
 -1.1996442e+00
  1.3104586e-01
  8.0571692e-05
 -3.4233895e-01
 -2.0304123e-01
 -5.3289391e-02
  2.4994565e-03
 -1.7281879e-01
  1.4140199e+00
  1.9354881e+00
  7.8132027e-01
 -2.3976937e-01
 -4.3655929e-01
 -4.0960490e-06
 -3.6468610e-02
  8.7699627e-05
 -1.9262794e+00
  9.3223505e-02
 -4.4329658e-01
 -1.5418348e+00
 -2.8087035e-01
 -1.5276258e-01
 -3.0560860e-02
  5.8435643e-01
  4.5749962e-01
 -5.9011424e-01
  1.4608846e+00
 -1.7310252e+00
  5.8309425e-02
 -1.2584715e-01
  7.5144308e-05
  8.7229401e-04
 -2.9799173e-04
 -1.1299150e-05
 -3.2691464e-02
  6.4114444e-03
  5.4095156e-04
 -1.3183790e+00
  1.6420891e+00
  3.8851625e-01
 -9.8446161e-02
 -1.1836355e+00
 -2.2485175e+00
 -1.7324604e+00
  2.0515759e+00
  1.0302886e-02
  8.5727906e-01
  3.4809789e-01
 -2.2142179e+00
  6.6657054e-01
 -1.0757781e+00
  3.0482819e-04
 -4.1956067e-01
  2.8335613e-01
 -8.8476397e-02
 -6.7051435e-01
  1.9829133e+00
 -5.3618830e-01
  1.8386063e-01
 -4.8544458e-01
  4.1056857e-03
 -4.9162555e-01
  2.6096243e-01
 -3.3091404e-02
 -1.7182790e+00
  2.0739312e-01
  1.1039808e+00
 -2.6842009e-03
  1.3874503e+00
 -3.7133551e-01
 -5.3145134e-01
 -4.5580667e-02
 -1.0533704e+00
 -3.2568130e-01
  1.6247131e-01
  1.7521739e-01
 -1.5207671e+00
 -1.0350421e-01
  3.4054729e-01
  3.1238204e-01
 -7.4609083e-01
 -5.6626922e-01
  1.7548713e-04
 -3.9836608e-02
  1.1759938e+00
 -2.1890603e-01
 -6.7169344e-01
  5.7158573e-04
  1.2320783e+00
  8.0684491e-04
 -1.3706242e-01
  4.3446830e-04
  5.5928295e-04
  1.8601703e-04
  2.8508437e-01
  2.0195701e-04
 -5.6077825e-04
 -3.4192164e-04
 -1.0553580e-03
  8.5396395e-04
 -4.4458482e-04
 -1.4873062e-05
  3.6853075e-05
 -6.9876370e-04
  1.1665207e-04
  2.1842957e-04
  1.9069726e-03
  1.9120898e-04
  1.9046690e-04
  1.9464040e-03
  1.5002358e-04
  7.7677483e-04
 -7.6159267e-05
 -5.6508527e-04
  6.6137552e-04
  6.2394873e-05
  1.7763436e-03
  5.9090718e-04
  2.3239516e-04
  4.2838286e-04
  3.7676166e-04
 -6.6085084e-04
  2.5715388e-04
 -4.2605642e-04
  1.2743749e-03
  3.4849655e-02
 -6.9717254e-04
 -9.3018578e-05
  3.7337485e-04
  1.7544862e-02
  7.1544237e-05
 -1.1327013e-03
 -2.9416481e-04
  1.7884223e-03
  4.9724753e-05
  4.2555257e-04
 -7.1379350e-04
  1.7872790e-03
 -1.5871771e-04
  5.2525979e-03
  1.0443786e-04
  2.0947016e-04
 -3.7980813e-03
  7.6418224e-04
 -4.8846059e-04
  1.1672617e-01
 -3.2362697e-01
  4.1656126e-04
  1.2371387e-05
  2.1152957e-01
 -2.3642494e-01
 -4.7541555e-02
 -1.8147932e-03
  1.8629212e+00
  7.5489277e-04
 -1.3291023e-03
 -2.7824906e-04
 -1.4545051e-04
  1.1946185e-03
 -2.5812368e-04
 -1.0491920e-05
 -1.4967908e-04
  2.0487318e-03
 -1.4016890e-03
 -1.5473965e-03
  5.8847503e-03
 -4.0110888e-05
  4.4820714e-04
 -5.1883492e-04
  1.7688580e-01
  2.1485635e-06
  5.1527428e-03
  8.4018260e-01
  1.1933039e-02
  1.9246656e-02
 -2.2309127e-04
 -3.1013705e-04
 -3.6205666e-04
  2.5889321e-04
  1.3316497e-04
 -1.7883198e-04
 -7.1835151e-04
 -2.2112769e-03
 -1.2640733e-01
  9.1291999e-04
 -9.6660166e-04
  1.2458596e-06
  4.4986650e-02
 -4.7218043e-01
  1.2795019e-03
  1.6634019e-04
 -7.8128144e-04
  1.7324847e-03
  4.8041090e-04
 -1.1645604e-05
  4.6987261e-05
 -4.5783535e-04
 -5.9929810e-04
  2.3984090e-05
 -3.0717751e-01
  8.1113374e-01
  8.9613050e-01
  2.4256173e-03
 -5.2644318e-01
  6.6312808e-01
 -5.0306368e-01
  1.9233267e+00
 -7.1928340e-01
 -5.1516778e-04
  7.3011324e-05
  1.2470257e-02
 -6.4174505e-04
  2.7882628e+00
 -2.9520647e-04
  1.1104219e+00
  3.1750751e-04
 -4.2603961e-01
  3.8768495e-03
 -3.0240983e-01
  1.2876567e+00
  7.0031703e-04
  2.7797312e-01
  2.8724459e-03
 -4.7272906e-02
  1.7425682e-03
 -5.6440774e-03
  1.0473716e-02
  8.3683260e-02
 -5.2100230e-02
  2.4108940e-05
  7.2406012e-01
  8.2157147e-01
  6.3950318e-01
 -2.2146592e-01
  6.4882070e-02
  5.0297922e-01
  7.2849041e-01
 -8.2819246e-02
  3.6328225e-03
 -1.2683386e-01
  1.4142543e+00
  1.1374658e+00
 -1.3027493e+00
 -1.6077964e-02
  9.1254688e-04
  1.3230633e-03
  2.0324263e-01
 -5.6527311e-04
 -7.4843812e-04
  2.4349862e-03
  1.1011742e-03
 -7.4557523e-05
 -1.1818803e-02
 -9.6373743e-01
  1.0059651e+00
 -4.9625328e-03
 -1.7455075e+00
 -2.8042066e-01
  2.9652065e-02
 -2.6912344e-01
  2.4554980e-01
  1.6450197e-01
 -5.8102936e-01
 -5.1055843e-01
 -3.0570519e-01
 -3.2631881e-04
 -1.4604701e+00
  5.7162037e-03
 -5.9290159e-01
  1.1022927e-02
 -5.0498307e-04
 -4.3320355e-01
  8.4544040e-02
  1.5112121e+00
  1.2886897e-01
  6.6069072e-01
 -1.2388992e-05
  3.4190127e-01
  4.3923903e-01
 -1.0299828e+00
 -8.1415498e-01
  9.5313683e-02
  4.3630648e-01
  3.3050185e-01
  1.0792570e+00
  1.5371841e-01
  4.8508236e-01
  4.2561613e-02
  3.0386209e-01
 -3.2000309e-01
 -1.5561582e+00
  4.5707326e-02
  2.6314750e-01
  1.3689156e-01
  5.7649791e-01
  3.4974328e-01
  2.9820555e-01
 -5.2705705e-01
 -2.1654233e-01
  1.0384569e-03
  9.5543042e-03
  4.2110492e-04
 -1.6720779e-04
 -5.7399820e-04
  5.1830796e-04
 -1.6447473e-02
  4.6567600e-02
  5.4078561e-01
  9.3281603e-01
 -1.5359136e-03
 -1.7542322e-01
  5.1638764e-01
 -1.1961422e+00
 -1.5519379e+00
 -8.6339921e-01
 -1.3728102e+00
  1.0641338e-03
 -4.4261795e-03
  1.5665406e+00
 -1.6477086e-04
 -2.1602179e-01
 -2.6677846e-04
 -4.1134222e-03
 -2.4110053e-01
 -1.7049948e-02
 -7.4801445e-01
 -4.4249973e-04
 -2.0650227e+00
 -1.9522615e-01
  2.6271322e-01
  2.0076628e-04
 -2.8832647e-01
 -3.6004436e-01
 -2.5034647e-02
  1.7176916e-01
 -7.0431992e-02
  6.8315136e-01
 -1.0626024e-01
 -9.0004638e-02
 -5.9759389e-03
 -5.1112133e-01
 -3.0320548e-02
  4.9662766e-01
  3.5446795e-04
  2.7655214e-01
  1.3201439e-01
 -4.9411255e-01
 -9.5477974e-01
 -2.9659015e-01
 -1.1666972e-01
  2.1122402e-01
 -2.2669414e-01
  1.8308078e-03
  7.9897296e-04
  1.4357330e-01
 -5.7998608e-04
 -2.7882156e-04
 -1.4689984e-04
  1.9543730e-03
 -3.6390667e-04
 -8.9690753e-04
  1.0006969e-04
  2.2597246e-04
 -3.8834232e-06
 -2.7743157e-04
 -9.5632853e-04
  7.6779537e-04
 -4.6441733e-04
 -1.4492219e-03
 -2.3606802e-04
  2.0449658e-01
  4.5822747e-04
  1.2331836e-04
  1.9423154e-04
  7.3855372e-05
 -1.3570121e-03
 -4.2763242e-04
 -8.9087657e-04
  6.3219829e-04
  1.1748134e-04
  3.5506603e-01
 -6.0707226e-04
 -5.2548588e-05
 -5.3940090e-05
 -1.5650867e-04
  4.5999989e-04
  3.4468856e-03
  1.5630772e-04
 -7.6808076e-04
  9.6084067e-04
  1.6659249e-02
  1.3638992e-04
 -1.4904571e-04
 -1.0180254e-03
  8.4426116e-05
  1.5468294e-04
 -7.0141023e-04
  1.9814564e-04
 -1.7857079e-04
 -4.2454711e-05
  1.7905408e-04
  1.3229345e-04
 -4.0585047e-04
 -6.2364811e-04
 -5.0952012e-04
 -3.4492218e-04
 -1.5628745e-03
 -2.3120926e-06
  3.7096423e-05
  9.8062614e-05
 -4.9096154e-04
  1.9360229e-04
 -3.8247610e-05
 -5.2388932e-04
 -3.1911757e-05
 -4.2693090e-01
 -1.3146647e-03
  1.0046415e-04
  1.5779581e-03
 -2.0564847e-01
  1.8253787e-01
  3.9206871e-01
  1.6165841e-01
 -4.0167784e-03
  2.1322939e-04
  7.5015874e-04
 -8.2003343e-04
  4.4988096e-04
  1.3391279e-04
 -9.5473581e-05
 -1.3806121e-04
 -2.7298467e-04
  1.1329555e-05
  1.8499181e+00
 -6.8262074e-04
  2.4088530e-02
  2.6520398e-03
 -2.3425089e-02
 -1.2639305e-04
 -3.9398409e-03
 -3.9688346e-04
  1.2709387e-04
 -4.2894167e-01
  8.0092880e-04
  5.9518288e-04
  2.3737308e-03
 -3.0901615e-04
  4.0666792e-01
  9.4189763e-02
 -2.0185076e-02
 -1.1163879e-03
  6.3583121e-04
  2.9621975e-04
  2.0595355e-02
 -5.3385779e-04
 -1.9753404e-04
  1.1126372e-01
  1.0976264e-03
 -4.1431093e-05
 -7.0356432e-04
 -3.0294035e-03
 -5.6176994e-04
 -5.1512878e-04
  3.7708652e-04
 -5.7526055e-04
 -2.1558801e-04
  4.5893030e-04
 -6.9870387e-04
 -1.3743883e-01
  4.5778355e-01
 -9.5695776e-01
 -2.2591975e+00
 -3.9116066e-02
  6.2922913e-01
  5.2496594e-01
  1.9016855e+00
 -1.0936186e+00
  3.4874895e+00
  5.1864352e-02
 -4.7376168e-01
 -1.4093641e+00
  2.0376766e-04
  1.3454584e+00
  1.4032322e-03
 -7.5374687e-01
 -7.1940821e-01
  1.3560579e+00
 -8.4148246e-01
  4.2814800e-01
 -4.1075516e-01
  1.2983201e+00
 -2.8162634e-01
  5.5301882e-04
 -1.6508642e+00
 -4.6995041e-01
 -2.8104071e-02
  2.4763459e-01
  4.1635090e-01
  9.5469582e-01
 -1.0413737e-04
  3.0003470e-01
 -2.3101973e-04
 -1.7448146e+00
 -7.7703851e-01
 -3.2966132e+00
 -3.4005633e-01
 -1.2367018e-03
 -3.6309597e-01
 -1.9171607e+00
  6.4828461e-01
 -5.2535337e-01
  1.9383097e-01
  6.6051531e-01
 -3.6869314e-01
 -3.0248746e-01
  4.5464542e-02
 -8.4473997e-01
 -1.7409108e-03
 -5.9716956e-04
 -2.5107327e-03
  3.9536147e-03
 -1.9936216e-04
 -6.8883947e-04
 -1.8747542e-04
  3.5504044e-03
 -2.4556097e-05
  5.6171790e-04
 -3.8983088e-04
  9.6827670e-04
  2.1137176e-03
  2.0457257e-03
 -2.8986941e-04
  1.2078567e-04
  1.0391525e-05
  3.6983663e-05
 -3.1749473e-04
 -1.1508095e-05
  3.7492040e-04
  2.5949892e-04
 -1.4617190e-03
  1.3470367e-04
 -9.3624945e-04
  1.4726148e-04
 -1.1736425e-03
 -3.2629710e-04
  1.9499489e-04
 -2.0646112e-04
 -1.5792663e-03
 -4.3632017e-04
 -2.8408007e-05
 -2.3941530e-03
 -1.4890639e-04
 -2.2198990e-01
  1.6010968e-05
  9.7192671e-05
 -2.0587495e-05
 -7.7274442e-04
 -2.6606924e-03
 -2.5902141e-04
 -7.4539836e-05
  1.0789224e-04
  4.0188525e-04
 -7.5152464e-05
  1.6659783e-04
 -6.2329514e-04
 -4.0617683e-03
  6.4981898e-04
 -4.2756772e-04
  4.3145378e-04
  2.3184459e-04
 -6.6944252e-04
 -1.9225332e-05
  4.1889548e-04
  1.8823255e-04
  3.7273139e-04
  4.5639790e-05
  3.6209801e-04
 -1.8734006e-03
  8.0323321e-01
 -9.0001547e-04
 -2.7511764e-04
  5.2374518e-05
  7.0440251e-04
 -3.7924372e-05
  1.3411041e-04
 -2.2664957e-03
 -2.2910070e-04
  5.5911532e-04
 -4.2809416e-03
 -2.1492371e-04
  9.2114840e-04
  3.3010891e-01
 -3.9476666e-04
 -4.7454695e-04
 -6.8726938e-04
  2.3867279e-04
  1.9683564e-04
  1.7661600e-04
 -3.9366708e-04
 -2.3434863e-03
  9.2352083e-04
  1.3518012e-04
 -8.2191922e-02
  7.2381651e-04
  7.4521563e-04
 -7.5109955e-04
 -1.5887311e-02
 -1.1972144e-03
 -9.5686753e-04
 -1.2084438e-02
  1.4687822e-05
 -3.0866370e-03
 -1.7385962e-04
 -5.5729941e-04
 -9.6240611e-04
  4.2292177e-05
  4.5447962e-04
  1.6995124e-04
 -7.0153904e-04
 -3.3073773e-04
 -9.2752933e-05
 -8.1912571e-05
 -2.2821572e-04
  2.4705532e-04
  5.2965141e-04
  7.6041836e-04
 -4.5404409e-04
 -2.2563997e-04
  6.0973311e-04
  7.2870869e-04
  2.5579307e-04
 -9.8433428e-02
  7.7762318e-01
 -8.5916424e-01
  6.7534991e-02
  1.1125609e+00
 -1.0447516e-01
 -6.7528063e-01
  1.3198809e-02
 -3.2985881e-01
 -7.6704280e-04
 -2.4538476e-04
 -4.9008733e-01
  3.0952133e-04
 -5.9431911e-01
 -1.8199520e-04
 -1.8414718e+00
  2.5057993e-03
 -1.5104710e-02
 -4.3810105e-01
  2.6475214e-03
  2.6345587e-01
 -8.7235636e-01
 -9.3634211e-02
 -2.9539975e-04
 -4.4345453e-02
 -6.5068819e-02
 -1.6297653e-01
  2.1219353e-01
  2.9688066e-01
  1.2265748e+00
 -4.8678820e-03
  2.9338527e-01
 -1.1782367e-03
 -2.7464429e-01
 -1.1427980e-02
  5.4993168e-02
 -1.3138260e+00
 -2.9971391e-01
  1.1717165e-01
 -2.3705558e-01
  1.3338169e+00
  7.1454298e-04
 -1.3128430e+00
  9.9511072e-02
 -5.4402685e-01
 -1.1951205e-02
  2.4602479e-05
  5.5218721e-03
 -5.9249514e-04
  9.7137868e-02
 -3.1548733e-04
 -2.9480110e-03
  8.9155428e-02
 -1.8178264e-04
 -5.3586179e-01
 -1.4154669e+00
 -2.5843930e-01
 -1.4379529e+00
 -3.0026216e-02
 -1.2200706e+00
 -5.7749599e-01
 -1.1181587e+00
 -1.6947529e+00
 -1.8560615e-01
 -2.0130835e-02
  5.1359999e-01
  7.0489079e-02
  5.4125392e-01
 -2.9829133e-02
 -1.0095747e+00
 -3.2964784e-03
  2.7349443e-04
 -1.3470861e-01
  3.3759561e-01
 -8.8995025e-02
 -8.5473317e-04
  2.0694098e-01
 -1.0372550e-03
 -6.0629135e-01
  7.5696176e-01
 -1.6310312e-01
  1.2345322e-02
 -3.7732039e-02
 -7.4182051e-01
 -7.6100370e-04
  3.2219008e-01
  4.1234604e-01
 -4.0175831e-01
 -1.0978080e+00
  2.1319686e-02
  4.8892772e-01
  1.3126500e+00
 -4.5774478e-01
 -4.8427735e-02
  1.2554528e-01
  9.2878276e-05
 -4.8251203e-01
  1.0479785e-01
 -1.2109711e-01
 -2.8835204e-03
  4.0625441e-03
  8.0709258e-05
 -5.6217581e-05
 -7.3086075e-02
  1.4624604e-04
  1.8061296e-04
 -9.8242372e-02
  1.5998849e-04
 -7.2006658e-02
  1.1129410e-01
 -1.0648979e-01
 -6.6550948e-02
  1.8106481e-01
 -3.2987228e-01
  3.6483851e-01
  6.4134067e-01
  1.1671412e+00
  8.5688740e-02
  5.6413502e-02
  2.4877698e+00
  7.5650925e-04
 -5.5188501e-01
 -1.9420695e-04
 -2.1432675e-01
 -2.6568365e-01
 -5.2586430e-01
 -9.2920405e-04
  5.1400024e-01
  5.5292845e-01
 -2.3786446e-02
 -1.2100384e+00
 -2.2352531e-03
 -1.7112283e-01
 -2.5136626e-01
  1.0118676e-04
  3.2740167e-01
  4.5096332e-01
 -1.4311618e+00
  1.5749858e-05
  8.1346685e-01
 -3.1198440e-02
  2.5627458e-01
  8.4096324e-01
 -3.4291124e-01
 -1.7247723e-01
  6.1972165e-01
 -9.9285924e-01
 -3.2488370e-01
 -3.2824326e-01
  3.6417523e-01
  8.3721146e-02
  4.3262365e-01
 -2.3418806e-01
 -3.1071877e-01
 -4.2993415e-04
 -1.6851339e-01
 -1.1360393e-04
  2.3610206e-01
 -5.6653894e-03
  7.7369425e-04
  2.7628141e-04
 -5.3865166e-04
  2.3378979e-04
 -9.7522989e-06
  3.8404640e-05
 -1.1451173e-03
  2.8815557e-04
 -3.1204036e-05
  4.1016995e-04
 -2.9822947e-03
  7.0317817e-04
  4.1303238e-01
 -1.5287908e-03
  1.8489439e-04
 -5.6498015e-04
 -1.0990437e-04
  6.0212740e-04
 -2.9139017e-04
 -2.6960432e-04
  1.2427891e-04
 -1.3046230e-04
 -7.0372957e-04
 -4.2220196e-04
  7.7418674e-04
  4.1742387e-04
  1.3452189e-04
  3.3795979e-04
 -9.0466643e-04
 -1.9193734e-03
 -1.1076065e-03
  3.4105321e-04
  1.7504478e-03
 -6.2656705e-05
  5.9761619e-04
 -3.1826796e-04
 -4.2365980e-04
  1.8295837e-03
  1.8574311e-04
  1.0275013e-03
  3.3582823e-05
  8.0677279e-04
  2.7342737e-04
  4.2116971e-04
  5.9394049e-04
  7.1864115e-04
 -5.6486164e-04
  5.9112481e-05
  8.4558791e-03
 -4.2774042e-04
 -2.8923093e-04
  8.1803162e-05
  3.5905039e-03
 -3.1260241e-04
  1.5332026e-03
 -3.0672931e-04
 -2.4829700e-04
  6.8524492e-01
 -1.4956038e+00
  1.8891026e-01
 -1.2586917e-01
  9.8168123e-01
 -1.0097263e+00
 -9.2041039e-01
 -8.5729748e-01
 -5.3201085e-01
  8.5458308e-03
 -3.1527082e-04
  4.9217059e-03
 -3.9766917e-01
  1.2680697e-01
 -2.5678599e-02
  3.3591336e-01
  2.9793059e-04
 -6.5538001e-01
  5.9367702e-03
 -2.6474320e-04
  6.5845184e-02
  1.7424858e-01
 -1.0790348e-01
 -1.1808740e-04
  1.3530664e-01
  9.1644242e-02
  3.0237980e-02
 -4.7171521e-05
  5.8172131e-01
  4.4659147e-01
  7.2354602e-04
 -2.9544103e-01
  4.4588777e-04
 -2.4237278e-01
 -2.7266449e-01
  2.5747168e-01
  5.4612858e-03
  1.4511919e-04
  6.1539412e-01
  7.7910572e-02
  9.3956536e-04
  3.0362559e-03
  4.7096244e-01
 -2.3949492e-01
  1.2334454e+00
  3.6770338e-03
  1.2194787e-04
 -1.1132856e-04
 -5.5731426e-04
  4.7155321e-02
  2.6382710e-05
  2.2597069e-01
 -1.6351350e-03
 -1.8680047e-02
  7.4506718e-01
 -9.7172195e-04
  5.1934507e-02
 -6.0535822e-05
  1.3785368e-01
 -1.8180703e-01
 -4.0305167e-02
 -1.6142239e-01
  9.4474427e-02
 -1.9985079e-04
  3.7540585e-02
  2.1744846e-01
 -2.5944502e-04
  3.2958214e-04
 -4.3191720e-04
  2.0066516e-02
  2.6232452e-04
  2.4165742e-03
 -8.4772741e-04
 -5.4628767e-05
 -2.2862828e-04
 -1.7621679e-03
  2.7186950e-03
  1.6745162e-04
 -4.5677884e-06
 -2.8687565e-02
  3.4734816e-04
  6.0956497e-03
  2.2748296e-01
  1.8732562e-03
 -6.4567686e-04
  1.2492435e-02
  2.1573192e-05
  4.5849502e-02
 -1.2155061e-04
  5.5431207e-03
 -8.2875751e-03
  6.8735257e-02
  2.7693398e-03
  6.6793623e-04
  4.0247380e-03
 -3.2842472e-02
 -7.3900691e-04
  1.8302357e-01
  7.6573861e-01
  1.1062494e-03
 -1.0982798e-03
  5.6551117e-04
 -2.1736028e-04
  1.6111454e-03
  7.3829468e-04
  4.3127564e-04
 -2.4094556e-03
 -1.5146202e-04
 -1.3043041e+00
  5.0799286e-01
 -6.1386131e-04
 -8.1573114e-02
 -9.3252170e-01
  1.0051746e+00
  1.2467437e-01
  1.5090828e+00
 -3.3833105e-02
  7.0497692e-05
  8.9242953e-05
 -1.6322404e-01
 -9.0526373e-05
 -6.1750647e-02
 -8.5235843e-05
 -3.7471280e-01
 -9.4029400e-03
 -4.9288108e-05
 -5.0022532e-03
  8.4738492e-04
  1.2442344e-01
 -1.1349544e-04
  3.0119061e-02
  1.0956823e+00
  2.3352010e-03
 -1.5369472e-03
 -2.3809435e-02
  1.9392488e-03
  3.2602038e-02
 -2.6474337e-03
 -5.1209480e-03
 -7.1314925e-01
  7.1361754e-04
 -3.6667982e-01
  1.0253772e+00
 -7.1479371e-03
  6.9873022e-05
 -1.2118262e-04
 -1.0168803e-01
 -4.8879123e-05
  7.1640891e-01
  5.5658398e-04
  7.9575799e-02
  3.6657104e-01
 -5.7249673e-04
 -1.5842300e-04
  3.2770002e-04
  3.2022456e-04
  5.8148493e-05
  2.3571234e-04
 -3.0147796e-04
  4.1549420e-04
  1.2960449e-04
 -1.3912596e-04
  2.0115474e-01
  1.3186507e+00
 -9.7183675e-02
 -1.6000411e-01
 -5.0285661e-01
  3.2899088e-01
  8.3979291e-01
 -1.9341667e-01
 -1.3425235e-01
 -1.3678079e-03
 -1.0708041e-04
 -1.3657753e-01
 -2.8470068e-04
 -5.8547483e-04
  3.5784434e-04
 -1.6707144e-04
 -1.3097662e-02
 -8.3702557e-02
  4.4503358e-05
  1.3390653e-04
 -1.6234547e-03
  1.7696846e-01
 -2.4458097e-02
  3.6318536e-04
 -2.2697325e-01
 -1.1605970e-01
 -1.3671198e-02
 -4.1010249e-03
  3.9116278e-01
 -3.3981591e-01
  7.6376316e-05
 -8.8368182e-04
  3.8909898e-04
 -1.3563957e-02
  5.1965233e-04
 -1.5944946e-01
 -9.1892155e-04
 -3.4074892e-05
  5.7686139e-02
  8.5804629e-04
  2.7560896e-01
  4.9521819e-02
 -5.8292836e-04
 -1.1577887e-02
 -1.3620713e-03
 -4.9187182e-03
  1.9453238e-03
  2.2288553e-04
 -1.2771507e-05
  8.6168572e-04
  2.7803882e-04
 -1.8636337e-04
  4.4890179e-04
  2.9246360e-03
  1.3393639e-03
  1.2492918e-01
 -3.7890351e-03
 -1.1254904e-03
 -1.7846709e-02
  2.9919201e-03
 -1.3560976e-04
 -8.6142412e-05
 -1.9554885e-02
 -3.0697975e-04
  6.6012384e-05
 -8.8427804e-02
 -6.9150934e-04
 -4.2285060e-04
  1.2344102e-04
  3.2329472e-04
 -1.5545023e-03
 -3.6323525e-02
 -1.0648104e-03
  1.6987090e-03
 -5.4470724e-01
 -3.8666880e-05
 -6.9816834e-03
 -1.8013950e-05
 -2.4752715e-04
  2.4542224e-04
 -1.0345943e-01
  4.2882416e-04
 -1.2449542e-04
 -2.7155073e-02
 -3.3395021e-04
  4.7420421e-05
 -2.0042734e-04
 -8.6971850e-04
 -9.7548077e-04
  1.7096510e-04
  1.3739330e-03
  1.1481452e-03
 -2.1759174e-03
  1.5506569e-04
  1.0052531e-03
  2.8091294e-03
  5.1814999e-04
 -1.9475340e-04
 -1.0697426e-04
 -2.1848369e-04
 -1.5868712e-04
  2.2632610e-03
  4.1349407e-04
  1.4633669e-04
  1.8244264e-04
 -5.2912766e-04
 -4.8783814e-04
  7.4266241e-04
 -9.9715799e-01
  1.6823698e+00
 -1.2645831e+00
  1.1732186e+00
 -2.0263137e-01
 -1.6788629e-01
 -1.4648430e-05
  7.9984790e-01
 -1.0676352e-01
  1.0713167e+00
 -3.6817530e-01
 -2.0308366e-01
 -2.8083903e-01
 -1.0915906e+00
  1.4438820e+00
 -4.0025788e-04
  6.2756878e-01
  1.6463211e+00
  1.1214158e-01
 -5.2378136e-01
 -9.9614179e-01
 -1.4489051e+00
  4.1342261e-01
 -2.3285560e-04
  2.2098975e+00
 -7.1097946e-01
  6.1672037e-03
  1.1519269e+00
  8.1763709e-01
 -6.4196980e-01
 -1.4511719e+00
  1.6314067e-03
  5.3348267e-01
  3.2331792e-01
  1.8132915e-01
 -1.4627156e+00
  3.2546642e-04
  1.3322213e+00
 -7.3863380e-02
  1.7155961e+00
  1.0769016e+00
  4.9417445e-01
  1.0656025e+00
  5.1054162e-01
 -5.3586251e-01
  1.0352248e+00
 -1.2121453e+00
 -1.8373400e-01
  2.7726561e-01
  1.3369021e+00
 -5.7056898e-01
  2.4074099e+00
 -9.5560646e-01
  3.0874622e+00
 -8.4031068e-02
  2.7415013e+00
 -5.9546628e-03
  7.6486868e-01
 -2.0958573e-02
 -8.2672125e-01
 -9.8414356e-01
 -6.8231177e-01
 -1.6767354e+00
  2.5274129e+00
  1.4255335e+00
 -1.9798177e-05
 -1.3087893e+00
  2.8438399e+00
 -7.0107335e-01
  5.8390075e-01
 -3.7634534e-01
 -1.0961900e+00
  3.1342161e-01
 -6.9814123e-05
  2.1525259e+00
 -1.0099864e+00
  9.5897503e-02
  6.2192136e-01
 -8.3522874e-01
 -2.6349049e+00
 -1.8174055e+00
  4.0538032e-03
 -2.8803453e-01
 -6.0867387e-01
  9.6446282e-01
 -7.6818907e-01
 -5.9406664e-02
  1.8403223e+00
  1.4183781e+00
  1.2517565e+00
  9.0435189e-01
  8.5000098e-01
  2.9723210e+00
  1.3610518e+00
 -1.6179733e-01
 -7.5145739e-01
 -2.1482790e+00
  4.5367229e-01
  8.8875413e-01
  1.5683790e+00
  1.5370698e-03
  2.3036781e-01
  8.2130154e-04
 -3.9397460e-01
 -1.9619176e-03
 -1.8453440e-01
  4.6891549e-01
 -4.7923926e-02
 -1.5253337e-03
 -2.8973154e-03
 -8.6567281e-03
  3.5426514e-03
 -5.0033522e-03
 -7.7092618e-04
 -6.3012872e-04
  1.1031779e-03
  1.8207205e-03
 -1.5448560e-03
 -2.1885252e-04
  1.2536654e-03
 -9.4827759e-05
 -1.5749957e-02
  1.1437969e-04
 -3.6646079e-04
  9.3807232e-01
 -7.0895354e-04
  4.6049394e-03
  8.9526322e-04
 -2.0627882e-03
  3.8775353e-04
 -2.5369844e-03
 -1.4669993e-03
 -1.1386665e-02
 -2.7783487e-03
 -2.0883402e-03
 -5.5117026e-04
 -2.1567759e-03
 -1.7294323e-03
  1.8468712e-04
  6.9144764e-03
 -1.3894334e-03
 -2.6832190e-03
  8.5095386e-04
 -2.1124710e-03
 -3.5749988e-03
 -7.6670462e-05
 -1.1304521e-04
 -2.4442249e-03
  2.5064952e-03
  4.7883071e-04
 -1.1475750e-02
 -1.3478348e-01
  1.4277829e-03
  1.2371176e-03
 -1.3578036e-01
 -1.4697194e+00
 -1.2740754e-01
 -1.1341874e-01
  8.1551617e-01
  1.9217529e+00
  6.8589330e-01
  1.0758705e-01
 -6.4301908e-01
  1.0315521e+00
 -6.7427444e-01
 -2.7934953e-03
  3.2133454e-01
 -1.7109761e+00
 -5.0985333e-02
 -4.4355968e-01
 -1.3785933e-03
 -1.4899638e-02
  3.6729935e-01
 -5.3729302e-01
 -3.8613658e-03
  6.2195897e-01
 -8.2293636e-01
  9.3260384e-01
 -8.4427774e-01
  2.5418373e-03
  4.4442165e-01
  2.8855434e-01
  1.1848771e-01
  3.7542328e-01
  5.1500439e-04
  2.0379132e-01
  4.1102168e-01
  6.7400748e-01
 -2.4052279e-03
 -1.1469453e-01
 -3.8697764e-02
 -1.2478844e+00
  8.3687997e-01
 -4.5071328e-01
 -3.9757313e-03
 -7.4225390e-01
  3.1364927e-01
  5.9726671e-04
  1.7785905e-01
  4.5025678e-04
 -3.0624417e-03
 -2.5982209e-03
  3.0273367e-03
  7.8013306e-03
 -6.6219635e-02
 -8.9948587e-02
 -1.7197509e-04
  3.6376157e-01
  1.8270253e-03
 -1.2305762e-01
  4.8258991e-04
  4.5728770e-01
  3.1342101e-04
  1.8440777e-01
 -3.6916268e-01
  4.0668205e-04
  1.6316224e-03
 -1.6375419e-03
  1.9593914e-03
  8.3990220e-04
  3.5375948e-03
  6.6872383e-04
  1.0398369e-04
 -3.2919352e-03
 -2.9234493e-03
  1.4087576e-02
  7.8708015e-02
 -1.1919619e-04
 -6.3885987e-04
  4.5568808e-03
 -3.7550514e-03
 -1.9461256e-04
  7.6784467e-04
  9.2815241e-04
 -1.2113377e-03
 -1.1900221e-03
  8.0022856e-04
 -2.0361622e-03
 -1.6150031e-04
  4.4755354e-03
  6.1545944e-01
 -1.3179779e-03
  1.1796259e-03
  2.8348670e-03
 -4.9026351e-04
  1.1221291e-01
  1.7325444e-03
  1.8274209e-02
  1.1202069e-03
 -5.4722687e-04
  7.6102074e-03
 -4.2113042e-04
  2.1764994e-04
 -1.6420856e-05
 -7.0671274e-05
  2.0195798e-03
  9.5124595e-04
 -3.8100552e-04
  2.7302476e-03
 -3.2456208e-03
  3.0975854e-03
  3.6369050e-03
 -1.3342776e-03
 -1.2287482e-01
  4.9099404e-02
 -9.6108355e-02
  2.6691547e-03
  4.2429761e-04
 -3.7338284e-01
  1.2614340e+00
 -5.9158411e-02
  6.8680555e-02
 -1.0383335e-03
  1.3268098e-03
  2.6656652e-02
 -1.3042610e-02
  4.1559741e-01
 -2.3394916e-03
 -1.4103319e-03
 -1.8501469e+00
  1.2743553e-02
 -1.8181613e-01
 -2.4726294e-04
  6.7519471e-02
 -3.3224458e-03
  1.0793271e-02
 -4.4862884e-03
  6.4070494e-04
 -5.1054633e-01
  1.9048016e-01
 -6.0247403e-01
  1.5499918e-03
 -1.6171504e-03
  1.1528456e-02
  3.3307988e-02
  1.8483122e-01
  4.3921327e-04
 -1.5228568e+00
 -4.5666267e-04
 -1.2942079e+00
  4.9295779e-03
 -2.7685493e-04
 -9.0734120e-03
  1.8226793e-01
  3.5357913e-01
  6.2235282e-04
 -1.6819832e+00
  1.7954566e-03
 -2.8083849e-04
  4.9809008e-03
  5.9118221e-04
  4.3993150e-03
  4.4795319e-02
  2.0100933e-03
 -3.2534078e-03
 -2.5284907e-04
  1.7121417e-03
  2.5139454e-01
  1.3759956e-03
 -4.4156653e-01
 -1.5802428e-03
 -2.7474913e-01
  2.0809187e-01
 -2.4954205e-02
  3.1888406e-04
 -3.4446251e-03
  1.9896754e-04
  2.3512139e-03
  7.3180866e-04
  4.3694014e-03
 -6.2643777e-04
 -1.2105241e-04
 -2.2426296e-03
 -1.1324039e-02
 -4.0489347e-03
 -1.2311407e-03
  2.1595396e-03
 -2.6890817e-03
  1.1925517e-03
 -2.4070291e-02
 -9.3852141e-05
 -2.2249841e-03
 -1.5204430e-04
 -3.6490103e-04
 -2.0720162e-03
 -5.5373640e-04
  4.3186854e-04
 -8.5175742e-04
 -2.0898079e-02
 -3.2824515e-03
  1.3251612e-02
  2.2734157e-03
  1.8831971e-01
 -8.2972634e-04
 -5.9284726e-03
  2.5038939e-04
 -9.7638654e-04
  1.8331457e-02
 -2.9534160e-03
 -1.0288450e-03
 -9.8499246e-03
 -1.3114494e-02
 -2.2385611e-04
 -5.3741591e-04
 -7.6700989e-03
  3.9603063e-04
 -5.9515389e-04
  1.1874347e-03
 -2.6945630e-03
 -3.1692972e-03
 -2.6977758e-03
 -2.7472866e-01
  8.3560077e-04
  1.5150976e-01
  6.3062791e-04
  1.5534300e-01
 -3.7803322e-01
