nep4 3 Li P S 
cutoff 6 5 66 37
n_max 10 10
basis_size 10 10
l_max 4 2 0
ANN 30 0
  1.1058771e-02
  4.2847316e-03
  1.7787911e-02
  5.1267181e-02
  7.7636898e-03
  7.4485831e-02
  1.0495942e-02
 -7.5135477e-02
  1.8481306e-03
 -4.0483467e-02
 -2.2202658e-02
  4.5172855e-02
  6.6288099e-02
  2.9831421e-02
 -3.9675198e-02
  5.8187228e-02
 -3.2129209e-02
  1.1342945e-01
  2.2627288e-02
  2.7658048e-03
 -2.6566861e-02
 -6.4158730e-02
 -2.1535165e-03
 -1.0837832e-03
  7.8289704e-03
  8.4335536e-02
  2.0778539e-02
  1.3062392e-02
  5.4096814e-02
 -2.3812592e-02
 -2.7783226e-02
 -1.6587557e-02
  9.5112454e-03
  5.1792841e-02
  5.7144210e-02
  3.8614452e-02
 -8.1733717e-03
 -1.6010340e-01
 -6.9337793e-02
 -2.7118871e-02
  4.7440259e-04
  5.3189844e-02
 -8.3758548e-02
 -7.6473849e-03
  2.1930564e-02
 -4.1643981e-02
 -3.9827321e-02
  1.3048482e-01
 -2.6393352e-02
 -8.9749206e-05
  1.8363127e-03
 -4.7733460e-02
 -2.3571958e-03
  5.6091249e-02
  5.0109316e-02
  5.6719664e-02
  1.8015275e-02
 -5.1291235e-02
  3.7874244e-02
 -3.7089370e-02
  7.5685284e-07
 -2.1759095e-02
  3.1911291e-02
 -7.2334707e-02
  3.1146718e-02
  4.0718190e-02
 -6.3425740e-03
 -1.8377364e-02
  6.6174209e-02
  2.2615014e-02
  5.2420802e-02
 -9.0005724e-03
  1.9362148e-02
 -3.7220769e-02
  3.7885353e-03
 -9.6956156e-02
  1.2982591e-02
  6.0436074e-03
 -2.5212098e-02
  1.6572349e-02
  4.4851065e-02
  4.2142267e-03
 -7.0170313e-02
  6.0325805e-02
  6.4372038e-03
  1.4076849e-02
 -1.5638627e-02
 -4.2858094e-02
 -1.8209424e-02
  2.3282403e-02
  2.7622576e-03
 -4.6188705e-02
 -3.1869422e-04
  4.8921682e-02
 -6.6203810e-02
  6.2831081e-02
 -9.0361442e-03
 -5.5830188e-02
 -2.2026923e-02
 -7.4159267e-04
 -3.8790155e-02
  2.9211687e-02
 -4.0015426e-02
 -1.7517013e-02
 -2.9110888e-02
  1.5768293e-02
 -1.9853085e-02
 -6.0690943e-02
  2.2393584e-03
 -1.2352734e-01
  3.1055477e-02
 -1.0738939e-01
 -6.4887375e-02
  2.6403131e-02
 -5.4837190e-02
 -2.1557011e-02
  7.7816680e-02
  6.9243792e-03
 -5.8723558e-03
  3.0634594e-03
  2.4962731e-02
 -4.2108811e-02
 -1.7684838e-03
 -9.0030106e-03
  6.6098288e-02
  4.3638520e-02
 -1.3933279e-02
  5.7738945e-02
  4.7978174e-02
 -2.2145478e-02
 -1.0271562e-03
 -3.7901945e-02
 -1.2959920e-04
  1.5198243e-02
 -2.4117839e-02
 -6.5491378e-02
 -1.4227626e-03
  1.0478783e-01
 -3.8746290e-02
  1.4538622e-01
  2.9069137e-02
 -2.1632567e-02
  1.6105246e-02
  1.5529998e-02
  7.8073665e-02
  5.2580841e-02
 -5.1759910e-02
 -1.3222420e-01
  1.1147388e-02
 -2.2691572e-02
  1.2760021e-01
  5.2795455e-02
  2.8034337e-03
  1.0784687e-02
  7.2525583e-02
  3.0335303e-02
  1.2719993e-02
  4.7374617e-02
 -1.2839023e-02
 -2.0182149e-02
 -1.2634541e-02
  9.2626385e-02
  1.7147403e-02
 -5.1498860e-02
  5.9499629e-02
  1.4403937e-02
 -1.1741263e-01
 -3.1873643e-02
  2.8671646e-02
  7.7708755e-03
 -6.2362999e-02
 -1.9080980e-02
  1.1628756e-01
 -3.6449372e-03
  7.2824210e-02
 -5.1353835e-02
  1.1771903e-02
  5.3866699e-02
 -2.1733141e-03
 -1.9633710e-02
  5.1909420e-03
  2.2256796e-03
  1.6566838e-01
  4.9618700e-01
 -1.0386467e+00
 -1.8121805e-02
 -2.3795234e-02
 -2.2309383e-03
 -2.2584660e-02
  1.1523869e-03
  4.4509444e-02
  3.1248245e-02
  5.8684934e-02
 -3.6712516e-02
  2.6783524e-02
 -7.3086065e-03
  2.2452066e-03
  7.4095257e-02
 -4.5902520e-02
  1.8760528e-02
 -5.1541917e-02
 -4.7109772e-02
  1.7202627e-02
 -2.2279181e-02
  2.9317431e-02
  9.9060312e-02
  1.6572729e-02
  4.9701806e-02
 -9.3686804e-03
  1.4499967e-03
 -2.3985238e-04
  9.1431603e-02
 -4.8998725e-02
 -3.2473437e-02
 -3.3951312e-02
 -2.6533205e-02
  1.1734236e-02
 -2.6690117e-03
  4.6571787e-03
  3.6834204e-03
 -7.6765642e-03
 -4.1939631e-02
  2.3420895e-02
  1.1564238e-01
 -3.2402977e-02
  3.8329791e-02
 -5.2285742e-02
  8.1740767e-03
 -1.0959428e-02
  3.1197143e-03
 -1.6615896e-02
 -1.4003254e-02
  1.8034118e-01
 -3.3567594e-03
 -2.1725928e-02
  9.4792750e-03
  3.0131901e-02
  1.1212375e-02
 -8.3353287e-03
  8.7265978e-03
 -1.8852711e-02
  2.1002090e-02
  2.5391374e-02
  5.7754714e-02
  2.4603069e-02
 -9.6274681e-02
 -4.5020256e-02
  5.0867652e-03
 -2.1780731e-02
  1.6945567e-02
  3.8432111e-03
 -1.7467182e+00
 -2.5280679e-02
 -7.2573423e-02
 -2.4439830e-02
 -1.4985752e-02
  7.0070095e-02
  3.0698350e-02
 -2.8315546e-02
 -9.3254484e-03
  7.2388900e-03
 -1.3974726e-03
  1.8385137e-02
  1.5904887e-02
 -1.5510322e-03
 -5.5961721e-03
 -1.4710079e-03
  6.6716194e-02
  6.8794987e-03
  1.5743265e-02
  6.1832245e-02
  8.8355370e-02
 -3.8525566e-02
  7.1714915e-02
 -7.4165434e-02
  9.6765906e-03
 -6.4787879e-03
  3.8291495e-03
 -1.7574774e-02
 -9.1332458e-03
  3.9157324e-02
  2.4080414e-02
  6.8955654e-03
  2.0299593e-02
  1.2273654e-02
 -8.3558284e-02
  6.5844938e-02
 -2.1578496e-02
  2.1836523e-02
  4.8864456e-03
  3.2386914e-02
 -7.1128509e-03
  2.5676141e-02
 -3.0134087e-02
  2.7534772e-02
 -1.4369324e-02
  2.6928214e-02
 -6.2334731e-02
 -7.4385293e-03
 -1.0466390e-01
 -4.1059557e-02
  1.2501615e-02
 -8.1623614e-02
  3.3366422e-03
  2.2655055e-03
 -7.0348874e-02
  1.7603952e-03
 -8.3205923e-02
 -3.8465951e-02
  1.6081385e-02
 -3.0633518e-02
  2.7102459e-02
  3.2932628e-02
 -5.1021442e-02
 -1.1974497e-01
  8.1096888e-02
 -1.3246729e-02
 -4.6909876e-02
  2.5657218e-02
 -3.8450502e-02
  3.7815818e-03
  3.7990689e-02
 -2.7815979e-02
  1.1414302e-03
  2.1415023e-02
  1.0944564e-02
  3.5897219e-03
  7.5427783e-03
  1.4683479e-02
 -7.7259941e-03
 -2.9570049e-02
 -2.6841454e-02
  4.1988688e-03
  7.5876052e-03
  1.6201308e-02
 -9.0224653e-02
  1.5570268e-02
 -7.9175580e-04
  1.0068320e-01
  2.8827868e-02
 -3.2831974e-02
  2.1066213e-02
 -2.2529881e-02
 -9.6010556e-03
 -3.6583092e-02
 -2.1108076e-02
 -1.9990859e-04
 -1.9703884e-05
 -1.2205243e-02
  1.8141363e-02
 -1.0655598e-01
 -2.8884439e-02
  3.7105847e-02
 -7.0186188e-03
 -2.1266188e-02
 -4.7175057e-02
 -5.8152519e-02
  5.6965861e-02
  5.3328648e-02
  1.0069419e-01
  3.2661770e-02
 -5.8416207e-04
  8.9024110e-03
 -3.2586623e-02
 -2.2238917e-03
  2.6933830e-02
  3.8375959e-02
  2.0187601e-02
  1.0649495e-01
  4.5725685e-03
 -1.3640366e-02
 -5.1732082e-02
 -2.3666725e-03
 -8.3905138e-02
 -8.6978190e-02
 -1.1819264e-01
  1.9910103e-02
 -2.0743434e-03
 -1.8954162e-02
 -2.1985503e-02
  1.3358084e-02
 -9.4927736e-02
 -5.1431827e-02
 -2.2866216e-02
  4.4182770e-02
 -5.9282687e-02
 -8.7128714e-02
 -6.1256662e-02
 -5.5641305e-02
 -1.1044004e-02
  7.3780920e-03
 -1.2320631e-02
  2.1246048e-02
  2.7155479e-02
 -1.3699222e-02
  5.8264557e-02
  5.9123249e-03
  1.8915005e-02
  5.9325784e-03
 -6.4544730e-02
  5.0893158e-02
  2.3474331e-01
  2.1925939e-02
  1.4315863e-01
 -3.1303857e-02
  1.3478809e-03
  2.0021293e-02
 -5.1226605e-02
 -3.7578624e-02
 -2.7970016e-02
 -4.2623330e-02
  4.2464916e-02
  9.5418718e-04
 -4.4014532e-02
  8.7727226e-02
  1.2211024e-01
  7.4669756e-02
 -9.0179220e-03
  2.7498549e-01
 -5.7742998e-02
  7.2382600e-03
  3.6354151e-02
 -1.9296927e-02
 -1.1551264e-02
  8.9022264e-02
  3.2023031e-02
  1.2106175e-02
  1.6403708e-03
  1.7339855e-02
  6.7963436e-02
 -8.8790478e-03
  1.8727455e-02
  2.7866740e-04
  6.3866982e-04
  8.7971933e-02
  3.9541792e-02
  1.2502248e-02
  4.8947114e-02
  3.9564449e-02
  2.7151577e-02
  1.0287576e-02
 -1.0021682e-02
 -1.8399592e-02
 -2.3653481e-02
 -3.7203148e-02
  4.0298142e-02
 -8.1362845e-03
 -6.1610423e-02
  5.2806582e-02
 -1.7063033e-02
  3.4260571e-02
 -1.2201900e-03
 -1.2652459e-02
  5.0585527e-02
  1.6136979e-01
 -9.2917904e-03
  1.1513405e-02
  2.8253192e-02
 -2.8982782e-03
 -1.2135097e+00
 -8.8688403e-02
 -2.8472047e-02
  2.4683997e-02
 -1.0187635e-03
  1.9970838e-02
 -3.6166966e-02
 -1.9079585e-02
 -2.3811061e-02
  1.1867201e-01
  7.8756206e-02
  8.9450693e-03
 -1.6171342e-02
 -3.0124960e-03
 -7.5606019e-03
  4.3758497e-02
  1.5121505e-02
 -1.0202426e-02
 -1.0428541e-01
  1.8341962e-02
 -2.1197353e-03
  8.5159086e-02
 -6.5037481e-02
 -4.5652337e-02
  4.7103129e-03
 -3.0585229e-02
 -1.3298040e-02
  5.0031833e-02
 -1.2433129e-02
  3.7832800e-02
  5.4505840e-02
  3.0682411e-02
 -2.2521442e-02
  4.4800814e-02
 -5.5658642e-02
 -5.0274585e-03
  2.6268717e-02
 -1.2494245e-02
  1.7883796e-02
 -1.3295103e-02
 -7.3573820e-04
 -2.5576212e-02
 -8.3215505e-02
  1.2675127e-02
  4.1255608e-02
 -8.1778830e-03
  1.4881201e-01
  2.0020055e-03
 -1.0485980e-02
  3.4649700e-02
  4.7314423e-03
  1.9603552e-02
  3.2627407e-02
  3.9152753e-02
 -2.0949706e-02
 -3.7849035e-02
  1.2484685e-01
 -2.2012442e-02
  9.1315150e-02
 -5.3824270e-03
  1.5878281e-02
  4.4647548e-02
  9.3494159e-01
 -7.6771085e-03
  3.2132864e-03
 -5.1388472e-02
  3.2963187e-02
  3.8029706e-01
  5.1477369e-02
  1.3909954e-01
 -2.4002904e-02
  3.5328504e-02
 -1.0146446e-02
  2.6060365e-02
 -5.3955059e-02
 -2.1632511e-02
  7.6141702e-03
  4.6331532e-02
 -6.5403044e-02
  1.6758312e-02
  1.2145935e-02
 -3.6997110e-02
  1.2626994e-02
 -2.9802129e-02
  1.6874135e-02
 -7.7206552e-02
 -2.9985862e-02
  2.8054642e-02
 -1.0717359e-02
 -2.0012056e-02
  7.3611937e-02
  1.9395065e-04
  2.2970030e-02
  4.1806507e-03
  7.1202099e-02
 -5.4505263e-02
  2.5922595e-02
  3.9505787e-02
  6.9160670e-02
 -1.2524515e-01
 -2.4951080e-02
  9.7699696e-03
 -6.1751906e-02
 -3.4071721e-02
  5.2917044e-04
 -4.8262611e-02
  4.6861678e-02
  4.7863025e-02
  1.2611987e-02
  1.6091296e-02
  9.1413096e-02
 -3.5870709e-02
 -8.0434836e-02
 -5.2374799e-02
 -6.1282922e-02
 -3.9333362e-02
 -2.8296996e-02
  2.2103736e-02
 -4.2350655e-03
  1.3405756e-02
  2.5073841e-02
 -1.3287962e-02
 -2.5602171e-02
 -1.4345656e-02
 -2.1381488e-02
 -4.0715248e-03
 -2.6286175e-02
 -2.5180664e-03
  5.8383860e-02
 -9.3596183e-02
 -3.7515469e-02
  1.1097441e-02
 -1.5289846e-02
 -8.8940179e-03
  4.8813252e-03
  3.8945768e-02
 -6.8678603e-02
  2.1924850e-02
  2.0689316e-02
 -3.5090353e-02
 -3.6562078e-03
  1.3857015e-02
 -5.2135874e-02
  1.2659037e-02
  1.1267296e-01
 -3.8628746e-02
  5.0928753e-02
  3.5940237e-02
 -6.5296918e-02
 -1.3077307e-02
  1.1251888e-02
 -1.8655057e-03
  2.3648942e-02
 -3.4453657e-02
  7.8683579e-03
  1.5408054e-01
 -1.7323267e-02
 -3.0521711e-02
  2.6258277e-03
  5.3600900e-02
 -7.0114620e-02
  9.4012424e-02
  1.3041470e-02
 -7.5981937e-02
 -7.5483606e-03
 -3.4576904e-03
 -2.6268343e-02
  9.6173167e-02
 -1.1002063e-02
 -1.4833326e-02
  4.5125163e-03
  7.7051241e-03
 -6.9315953e-05
 -4.2422246e-02
  2.0482368e-03
 -8.5242480e-02
 -2.2325167e-02
 -1.3268995e-02
  5.3139187e-02
 -1.3388425e-02
  1.6840013e-02
  1.6085189e-02
  1.2480832e-02
 -9.9235959e-02
 -8.8820696e-02
 -3.1607773e-02
 -3.1291295e-02
 -9.5388405e-03
  4.1228224e-02
  4.4620380e-02
 -3.8662332e-03
  1.4074637e-02
  3.1887870e-02
 -2.2614878e-02
  2.0312774e-03
  8.4319733e-02
  9.6848942e-02
  6.1462004e-02
  1.7920410e-02
  1.3805882e-02
 -3.4880307e-02
 -1.0047399e-02
 -1.0570746e-03
 -2.8493350e-02
 -4.3561187e-02
  6.6816472e-02
  2.0911857e-02
  2.0957457e-02
  1.7170881e-01
 -1.5381465e-02
 -2.5247759e-03
 -5.9945567e-04
  6.0863756e-02
  5.5987567e-02
  7.2070897e-02
  6.9530047e-02
  8.3885588e-02
 -1.1519433e-02
 -3.0230250e-02
  6.7960255e-02
  4.5727156e-03
  1.2397456e-01
  2.3535140e-02
 -1.1152431e-02
 -4.7675800e-03
  5.6277964e-02
  2.3762271e-02
 -8.8620670e-02
  2.7609291e-02
 -6.9486332e-04
  7.7801573e-01
 -4.3718857e-03
 -4.5278057e-02
 -1.6598638e-02
 -4.8067387e-02
  5.9533268e-02
 -8.8003084e-02
  5.7323663e-03
  3.4213394e-02
 -1.1683760e-02
 -2.0971082e-02
  7.6177925e-02
 -3.1978544e-03
  1.2787119e-02
 -4.7158960e-02
 -1.4946315e-02
 -4.6437636e-02
 -5.6378286e-02
  5.2479678e-03
  2.6532209e-02
  3.0094627e-02
 -5.3542770e-02
 -1.8882390e-02
  9.7072590e-03
 -3.5647307e-02
 -1.7792919e-04
  3.2204010e-02
  9.4443168e-03
  4.4939388e-03
  9.7127836e-03
 -6.3641347e-02
  5.2384108e-02
  5.7258513e-02
 -3.3066075e-02
 -7.8562431e-02
  5.5494007e-02
 -2.0938138e-02
  4.3333750e-02
  6.1492935e-02
  9.5734689e-03
 -2.8443255e-02
 -3.7453167e-02
 -5.9428614e-02
 -7.2057277e-02
 -1.4925482e-02
 -2.1381376e-02
  6.0260087e-02
 -1.6993729e-02
  1.0469788e-02
 -1.1028167e-01
  5.4856207e-02
  1.2872256e-02
 -2.1076551e-02
 -7.0090972e-02
  7.1344212e-02
 -1.2341122e-02
 -9.5138680e-03
  4.0199015e-02
  3.0707004e-02
 -5.9588319e-03
 -4.1861918e-02
  3.8369022e-02
 -5.3362206e-02
  3.4589771e-02
  3.8191669e-02
 -3.1018434e-02
 -1.3922113e-01
  3.0898402e-02
 -4.0742621e-02
 -6.4743325e-02
 -1.3846311e-03
  1.3294978e-02
 -3.3434372e-02
  3.2004572e-02
 -3.4315735e-02
  3.2788794e-02
  2.1596525e-02
  3.6260106e-03
 -4.7368925e-02
  1.2454453e-02
  5.3844310e-02
  5.1233273e-02
 -3.3079665e-02
 -2.5276361e-02
  7.9212599e-02
 -4.2031888e-02
  4.7971338e-02
  8.9555874e-02
  2.0869762e-02
 -5.6612953e-03
  1.3365192e-04
 -2.4285927e-02
  3.2456834e-02
  1.4972669e-03
  1.9335417e-02
  5.8209930e-02
  1.5604000e-02
  4.8331856e-03
  1.4515277e-02
 -2.2338893e-02
 -1.2208994e-02
 -6.1077639e-03
  1.2604389e-02
  2.6141906e-03
 -2.6528502e-03
 -3.0548578e-02
  1.6551197e-02
 -4.9173716e-02
 -9.4214090e-05
 -7.0247136e-02
  9.3776807e-02
 -1.4148973e-01
  5.3792535e-03
 -2.0923523e-02
 -9.3975915e-03
  5.0427478e-02
  3.5922416e-02
  3.4739431e-02
 -3.5819069e-02
  2.3280814e-02
  1.7454287e-02
  2.3984190e-02
  1.4735529e-02
  3.0416828e-03
  1.1490070e-01
  1.1043800e-02
 -9.7291246e-03
 -4.1091020e-04
 -5.9288270e-03
  2.9924169e-02
  1.1850745e-01
 -7.9639656e-03
  1.8583011e-02
  2.8388765e-02
 -1.7909255e-02
 -5.1920615e-02
  2.2277297e-02
 -3.0329037e-02
  3.8448699e-02
 -6.4252429e-03
 -3.1968165e-02
  3.7063733e-02
  1.4574842e-02
  2.7213562e-02
  1.1953767e-02
  1.9086687e-03
 -3.2563128e-02
 -7.4012734e-02
  9.2968985e-02
 -1.6601056e-01
 -1.9728081e-02
 -8.0748238e-02
 -4.3362666e-02
 -4.7445349e-02
 -2.3430794e-02
 -2.1717766e-02
  1.2659637e-02
 -3.3724308e-02
  8.2236074e-02
  1.1476678e-01
  8.4297903e-02
 -3.8995000e-03
  4.2687651e-02
 -1.9692553e-02
  3.9135635e-02
 -6.4465199e-03
  2.6982266e-02
 -8.2349017e-02
  2.6545594e-02
 -7.8440517e-02
  1.9347098e-02
 -2.9003886e-03
  5.0038990e-02
 -5.9840754e-02
  4.8001971e-02
  3.9313875e-02
 -7.6815173e-02
 -8.2364483e-03
  5.9769140e-03
 -1.1503415e-03
 -5.6369103e-02
  5.9965141e-02
 -8.5960710e-01
  6.5779902e-02
  5.5287216e-02
 -1.3930164e-03
  1.3401596e-01
  1.7651472e-02
 -1.4193157e-02
  1.8921178e-02
  2.2488171e-03
  4.2895652e-02
  6.2913842e-02
 -1.8504076e-02
  5.7632150e-03
  3.6419839e-02
 -1.6525522e-02
  1.0450348e-01
 -2.1506944e-01
  3.0376999e-02
 -9.2057697e-03
 -2.9426971e-02
  2.4724988e-02
 -2.2748884e-02
 -9.1110729e-04
 -5.1114131e-02
 -2.1200901e-02
 -7.8946546e-02
  8.0290474e-02
 -1.0026363e-01
  1.1729042e-02
  3.9892100e-02
 -1.1169260e-03
 -4.4740364e-02
 -3.0514438e-02
 -1.9648436e-02
 -5.8874283e-02
 -3.1795293e-02
 -4.4415820e-02
 -6.1314408e-02
 -1.0606739e-02
  3.8704684e-03
 -4.4682138e-02
 -4.9993861e-02
  9.0630300e-02
  3.3451512e-02
 -5.0874580e-02
  1.0657441e-02
 -4.9214056e-03
  2.2551412e-02
  1.7085638e-02
 -1.2922799e-02
  1.1753730e-02
  3.3208676e-02
 -1.2978411e-01
 -1.1547023e-02
  8.9735858e-02
 -7.2871931e-02
 -6.4425450e-03
  7.0413370e-03
 -5.3822741e-02
  2.9818043e-02
 -7.9437578e-03
 -4.9223509e-02
  1.0981516e-02
  1.1310792e-02
  5.5411533e-02
 -6.8836771e-02
  1.1657825e-02
 -6.4606570e-02
 -2.3065692e-02
  9.0081029e-04
 -1.2122172e-02
 -4.1295569e-02
 -2.9632093e-02
  7.6260261e-02
  1.1317464e-02
 -2.8083858e-03
  7.3607154e-02
  1.4861424e-02
 -6.3996199e-03
 -2.2950545e-02
 -3.6914833e-02
  1.6383871e-02
  9.4423564e-03
 -2.4791565e-02
  9.2391290e-02
  8.5260347e-02
  5.5136815e-02
 -3.1725205e-02
 -5.6981858e-02
 -6.8284860e-03
 -4.9519159e-02
  5.3382288e-03
 -2.4017103e-02
 -1.2814896e-01
 -2.2038547e-02
 -1.2744978e-02
 -2.3883923e-03
  8.6916208e-02
 -2.5013883e-02
  3.1211294e-02
 -1.0834357e-01
  2.1634547e-02
  1.2856894e-03
 -3.1011904e-02
 -1.3928096e-01
 -7.2052218e-02
  8.7006167e-03
  1.3813976e-02
  2.5261926e-02
 -1.2146325e-02
  2.8048364e-02
  1.1482842e-01
  3.4641545e-02
  7.1407631e-03
 -2.6816871e-02
 -9.8912464e-03
 -1.2442249e-02
  4.4878157e-05
 -1.3990141e-04
  2.0121515e-02
 -1.0232047e-02
  1.0009271e-01
 -2.8439473e-02
 -1.2920270e-02
  1.3449123e-02
  1.6992468e-02
  8.7555712e-03
 -1.0405743e-02
 -7.1792463e-03
 -4.4616763e-02
 -1.8880699e-02
  6.1061405e-02
  6.9300957e-02
 -2.9593037e-02
 -4.9837884e-03
 -8.4963761e-02
  1.1536875e-03
 -1.7408763e-01
  1.6778214e-03
 -6.1051793e-02
 -6.0025182e-02
 -1.1913344e-02
  4.3568416e-05
  2.6244549e-02
 -4.5351315e-02
 -3.5849158e-02
  4.8638787e-03
 -1.9383786e-02
  7.1888864e-02
  3.2238435e-02
 -6.1166916e-02
 -6.2189799e-02
  8.4462669e-04
 -9.4054936e-04
  2.2175696e-02
 -7.8273863e-02
  3.1910174e-02
  2.7323278e-02
 -4.3939125e-02
  9.7669214e-03
  1.0997435e-01
  4.9709842e-02
  2.6942609e-02
  1.8578030e-02
  1.0002660e-01
  9.0218253e-02
 -1.5580849e-02
  1.8002093e-02
  9.4591370e-03
  2.1747725e-02
 -6.5527419e-03
 -3.8537271e-02
  1.3835670e-01
 -2.0144606e-02
  6.2320244e-02
  9.8817624e-02
  5.7525810e-02
  9.7822249e-03
 -5.1185660e-02
  1.9474588e-02
 -1.1177773e-02
  3.6608018e-02
 -2.6010577e-02
 -2.7576754e-02
  4.2894036e-02
  2.8585685e-02
 -8.1040353e-02
 -1.2119772e-02
 -6.4870156e-02
 -2.6176192e-02
 -2.2704389e-02
 -9.5065594e-02
 -3.8768008e-02
 -8.4466478e-03
  1.4129092e-02
  5.8542151e-02
 -3.1205346e-03
 -4.7171321e-02
  1.4593738e-02
 -1.1550277e-02
  2.7700953e-02
 -2.6228802e-02
  1.0831122e-01
 -9.6196651e-02
 -2.4508568e-02
  1.8413549e-02
 -3.5574857e-02
  3.2662567e-02
 -1.4979928e-03
 -5.0768433e-03
  8.2920110e-03
 -8.1231138e-03
 -5.1067621e-02
  6.1459407e-02
 -2.7817857e-02
  9.8090786e-03
 -7.4498959e-02
 -1.8462809e-02
 -3.1310569e-03
 -4.4147181e-03
 -6.2432490e-02
  1.2612824e-02
 -6.9657214e-02
 -7.6666616e-02
 -1.5946639e-01
  3.0786663e-02
 -3.6177747e-02
  1.5086021e-02
 -1.9235736e-02
  2.3408777e-04
  3.6314165e-03
 -6.8388559e-02
 -4.4052633e-03
 -1.3062087e-01
  2.2548528e-03
  2.9491059e-02
 -1.8512018e-02
  7.8787953e-03
  5.2188645e-04
 -3.1197767e-04
 -6.8333551e-02
 -5.6540046e-02
 -1.8264439e-02
  2.1014955e-04
  4.8167862e-02
  5.5570710e-02
 -4.2092510e-02
  1.3737104e-02
 -7.6890819e-02
 -4.1842673e-02
  3.6036212e-02
 -4.1447499e-01
  6.3181139e-04
 -4.4428125e-02
 -4.1241697e-03
  6.8006031e-02
  3.0779755e-03
  7.8613516e-03
  1.6525198e-02
  1.7345526e-03
 -4.1041085e-03
  8.0450810e-03
 -1.2358214e-02
  7.8757005e-03
  1.7507349e-01
 -4.0560566e-02
  7.7620894e-02
  3.3626720e-02
 -3.8404162e-03
  1.3303114e-01
 -8.3312154e-02
  4.5251004e-02
  1.6248699e-02
 -1.5255579e-03
 -8.2169352e-03
  1.1905669e-01
 -5.6409571e-02
  1.6933268e-02
  1.9963530e-03
  1.1668092e-01
  6.8189971e-02
  1.2058696e-02
 -3.5453364e-02
 -9.7687542e-03
  1.4080931e-01
  1.7023368e-02
 -1.4242994e-02
 -9.5260553e-03
  2.5424169e-02
 -1.0297130e-02
  3.2796222e-03
  3.6823109e-02
  6.5323763e-02
  4.4973022e-03
 -8.4073387e-02
  3.0249197e-03
  1.8552231e-02
  5.3392318e-03
 -7.0373803e-02
 -2.9021375e-02
  4.8546437e-03
  1.1671038e-01
  2.7560927e-02
  4.1779306e-02
 -1.3577065e-02
 -6.2308074e-03
  3.6976870e-02
 -5.2244991e-02
  4.7291949e-02
 -1.7441219e-02
  4.6825841e-02
  4.9124304e-03
  4.7160797e-02
  2.3563005e-02
 -3.5780091e-02
 -1.4445406e-02
 -5.4617371e-02
  2.2104839e-02
 -2.8433889e-02
  2.7921634e-02
  1.1910701e-02
  4.7298528e-02
  2.8305704e-02
  9.1752000e-02
  2.1808106e-02
  2.7974000e-02
 -5.5543553e-02
  6.2529361e-03
 -2.8744424e-02
  5.7291374e-02
  6.6311960e-03
  3.7834730e-02
  3.2080647e-02
  3.6482878e-02
  4.4205245e-02
 -2.9442466e-03
 -5.8569994e-02
 -5.5903164e-03
  2.1306999e-01
  4.2760205e-03
  2.0599652e-02
 -4.3095041e-02
  3.8055526e-03
 -3.0060865e-02
  8.5316405e-02
  1.6418825e-03
 -1.8597029e-02
  4.3785465e-03
 -1.5060273e-01
 -4.7322423e-03
  9.0886295e-02
 -4.8562992e-02
  5.0524067e-02
 -5.6629457e-02
  3.1840596e-02
  2.0699507e-02
 -8.0137393e-03
  1.4277569e-02
  2.9848288e-03
 -7.7795540e-03
 -2.0525593e-03
  1.6069874e-02
  4.6719864e-02
  8.8816009e-02
 -1.8325401e-02
 -5.3503104e-02
  6.6147661e-03
  3.6030037e-03
  8.5767386e-03
 -4.1680183e-02
 -4.0536430e-02
 -2.4374845e-03
 -1.3071556e-01
  7.3518972e-03
 -2.4787433e-02
  3.1927492e-02
 -4.6163715e-02
 -1.3675156e-02
  6.8275899e-02
 -6.2452935e-02
  5.5413763e-04
  3.7787009e-02
  6.0659321e-03
 -9.1876965e-03
 -1.1381371e-02
  2.4512993e-02
  8.3638523e-03
 -1.3057659e-03
  2.2089358e-03
  6.1474673e-02
 -3.8957596e-02
 -9.5924726e-03
  1.9531036e-02
 -1.7712998e-01
 -3.8793769e-02
 -3.5877435e-03
  6.7940779e-02
 -5.1821820e-02
  7.3147789e-03
  4.1626677e-02
  8.0923498e-02
  7.1076147e-02
  2.6731249e-02
 -1.0891384e-02
 -6.8650566e-02
  4.0238842e-02
  3.2287128e-02
 -1.2559643e-02
 -1.1354018e-02
  1.1001625e-01
 -8.1634820e-03
  2.7729094e-03
 -5.9735060e-02
 -3.6213286e-02
 -3.7503119e-03
  4.0700287e-02
  1.1601978e-02
 -1.9885330e-02
 -7.4164867e-02
 -3.7342727e-02
  2.1096559e-02
  5.6839705e-02
 -4.9667496e-02
  2.3302758e-02
 -5.9784246e-03
  4.1861892e-02
 -1.1643518e-02
  5.5342391e-02
 -1.1397034e-03
  1.0366161e-01
  3.4784745e-02
 -1.6139911e-01
 -1.4055814e-01
 -1.1630992e-02
 -6.2776022e-02
  2.3408158e-02
 -2.5117066e-02
  2.3542054e-02
  1.5383394e-01
 -8.6744681e-02
  5.0596677e-02
  3.8191925e-03
  6.1212718e-02
 -2.6197734e-03
 -1.9269679e-02
  5.7539567e-02
  3.3605181e-02
  2.0132702e-02
  8.5034324e-03
 -9.1268281e-03
 -6.8182491e-02
 -1.3232220e-02
  1.5483706e-02
  9.0906091e-02
  4.3153796e-02
 -1.7006390e-02
 -3.7785947e-02
  2.4682170e-01
  2.4821980e-02
  5.9325122e-03
  1.2612769e-02
  1.7841505e-02
 -7.3458799e-03
 -3.2880481e-02
 -3.4432162e-02
  6.5939806e-02
 -2.2364430e-02
  5.3421475e-02
  1.6065352e-03
  1.2383461e-03
  1.4914071e-02
  3.6857776e-02
 -1.9894703e-03
  7.1834140e-02
  1.7912136e-02
  2.7074695e-03
  3.6459800e-02
  4.2007126e-02
  2.1121306e-02
  5.5846557e-02
 -7.1007237e-02
  7.1896397e-02
 -6.4666686e-03
  1.1423969e-02
  1.1463063e-01
  4.7238525e-02
 -4.5067120e-02
 -6.5268013e-03
 -1.8066440e-02
  9.6480828e-03
 -7.8148164e-02
  4.7201416e-01
  2.5868163e-02
 -3.5129280e-03
  6.8764384e-03
 -6.7214952e-03
 -2.3069732e-02
 -2.1561658e-02
 -1.8941322e-02
  6.8242900e-02
  1.1239434e-02
  5.3849317e-02
  8.9126423e-02
 -9.2355618e-03
  3.0606212e-02
  1.7729230e-02
 -1.9040398e-02
  1.2340156e-02
 -2.3350423e-02
 -4.9761806e-02
  4.8949026e-02
  1.3141127e-01
  7.7379413e-02
  3.8316805e-02
  2.2326052e-02
 -1.3413506e-02
  6.1039971e-03
  1.7815525e-02
  7.7878051e-03
 -1.5003869e-02
  1.1961736e-02
 -1.2300608e-01
 -1.3031281e-02
  7.1019889e-03
  2.3924850e-02
  5.2165329e-03
 -4.7294971e-02
  2.3764180e-02
  1.7506445e-02
 -2.8105594e-02
 -8.9713067e-02
  2.9530358e-02
  4.2882813e-03
 -2.7576789e-02
  6.2650636e-02
  2.4861540e-03
 -1.0155926e-02
 -6.3551627e-02
 -1.7795683e-03
 -3.1415198e-02
  4.5616560e-02
 -2.0414948e-02
 -3.6492743e-02
  1.9668836e-02
 -6.8066061e-02
  1.3104728e-02
 -3.4893535e-02
  3.1647536e-03
 -6.1861571e-02
  1.9216599e-02
  3.0213187e-04
  7.9002880e-02
  6.9629133e-02
  4.9709488e-04
 -3.4752216e-03
  9.6083768e-03
  8.9536636e-04
 -1.2400703e-03
 -3.0264350e-02
  1.6880147e-02
  6.7048850e-03
 -3.6312420e-02
  6.8276864e-03
  9.7608730e-02
  6.0330901e-02
 -3.1401474e-02
  1.8596103e-02
  3.0530851e-02
 -4.2049639e-02
  7.3753856e-04
  1.3595056e-02
 -1.7257159e-03
 -2.8213734e-02
 -6.1220452e-03
  1.9505646e-02
  2.1902253e-03
  2.1472374e-02
 -2.5175652e-02
  9.8028872e-03
 -7.1967952e-03
  5.0955463e-02
  2.3489181e-02
 -9.7590610e-02
  5.0448641e-02
 -4.6232153e-02
  8.6747453e-02
  2.2643870e-03
 -1.4635339e-02
  4.0530452e-01
 -4.3125845e-02
 -3.2566953e-02
 -1.8554422e-03
 -1.1064312e-02
  2.4944637e-02
  3.8988304e-01
  6.8285759e-03
  1.9648561e-02
  2.8364494e-02
 -2.7367726e-01
  6.0161781e-01
 -3.9914247e-02
 -3.4134369e-02
 -1.7653935e-02
 -3.5732329e-02
 -1.1285254e-02
  6.0510922e-02
 -1.2850138e-02
  7.3680758e-02
 -3.8370952e-02
 -1.5444485e-02
  3.3576134e-01
 -6.4432472e-02
  5.6357577e-02
  1.0501595e-03
 -6.3103423e-02
 -8.0150139e-04
 -1.3544681e-02
  9.6486546e-02
  8.1041537e-02
  3.8371999e-02
 -2.3604418e-01
  6.5178716e-01
  6.2067187e-03
 -5.7593904e-02
  2.5078911e-02
  1.9008565e-03
  7.2896697e-02
 -2.9127005e-01
  3.3598535e-02
  3.6996506e-02
  1.2857408e-02
 -6.3603468e-02
  3.0252856e-01
  6.6134162e-02
  5.8414306e-02
 -1.4271736e-02
  3.0912936e-02
 -1.7986851e-02
 -2.1863077e-02
  8.1336228e-03
 -1.1537042e-02
 -2.0932009e-02
  1.0317866e-01
  1.6399780e-02
 -4.0694412e-02
  2.9963519e-02
  1.8731380e-03
 -1.3049650e-01
 -1.2210668e-02
 -3.6883663e-02
 -5.0613947e-02
 -4.2248793e-02
  6.2348690e-02
  2.6956368e-03
  3.9913021e-02
 -5.8527524e-03
 -1.4763827e-02
  3.5675354e-02
 -3.8351249e-02
 -5.1677730e-02
 -9.4282381e-02
 -1.3173532e-02
  7.4948378e-02
  7.5547071e-03
  6.1719690e-02
  1.2486501e-02
  1.5249596e-02
 -3.1034470e-02
  4.4969361e-02
  9.2284910e-02
 -3.3937145e-02
 -3.4652236e-03
  8.5660154e-03
  4.7355946e-02
  4.3690477e-02
 -1.0195202e-01
  1.0744020e-02
  7.6502929e-03
 -1.0749473e-01
  9.2290733e-03
  3.5285119e-02
  1.0392132e-01
 -3.7907853e-03
 -2.9874526e-02
 -1.5047043e-02
  4.8189759e-03
  1.1448610e-02
  1.2060189e-02
 -1.2255576e-02
  5.1423103e-02
  1.8547834e-03
 -5.3206272e-02
  8.6556757e-03
  6.1870217e-03
  2.0452484e-02
 -1.2379863e-02
 -3.2556933e-01
  6.2541492e-02
 -6.2025387e-02
 -3.8786236e-02
  4.1641323e-03
  2.2960212e-02
  5.6140896e-02
 -5.2037738e-02
 -2.0372393e-02
  1.5536444e-02
 -7.3784061e-02
  2.0140024e-02
  4.8463617e-02
 -5.4614641e-02
  4.5694639e-03
  3.9680220e-02
  1.8452540e-02
  1.5903357e-02
 -6.2133104e-02
  1.6262092e-02
  1.2133635e-03
 -4.1249325e-03
 -2.0192254e-02
 -3.3260759e-02
  3.7645359e-02
  9.8963030e-02
  1.8181216e-02
  7.6205701e-02
  4.9616043e-02
  2.5573408e-02
 -1.6337562e-03
 -3.8936827e-02
  5.2934151e-02
  1.0135905e-01
  3.7777133e-02
 -3.2787632e-02
  6.9867112e-02
 -2.1185491e-02
 -6.1879195e-02
  4.6468630e-02
 -3.6653139e-02
 -5.9488334e-02
  2.0597884e-02
 -3.3590909e-02
  5.4928439e-04
  1.4706870e-02
  1.1309966e-03
 -3.4887099e-04
 -1.2741964e-01
 -5.8933876e-02
  4.2309947e-02
  1.9067977e-02
 -6.3020620e-03
  6.8533141e-04
  7.1651321e-03
 -3.9203275e-02
 -1.1003400e-02
  4.8601035e-02
  4.2623173e-02
 -8.3295576e-02
 -1.3678587e-02
 -1.2580149e-03
 -1.1526934e-02
  1.0975709e-03
  1.0988932e-02
 -1.7119914e-02
  4.9986433e-02
  6.5935412e-03
 -1.8362788e-02
 -2.6314126e-02
 -5.9305284e-02
 -2.4600958e-02
 -2.3600863e-02
  1.1840831e-01
  3.4240659e-02
  6.1112199e-02
  4.9032137e-02
 -3.4386769e-02
 -2.8668916e-02
 -3.3684112e-02
  3.4431018e-02
 -4.6078853e-02
 -7.8432057e-03
  3.5316024e-02
 -8.4012389e-02
  7.6178974e-03
  2.9587483e-03
 -9.2616178e-02
 -2.7077110e-02
  1.7027812e-02
 -6.6831581e-02
 -4.0547423e-02
 -7.4573271e-02
  1.3035369e-02
 -4.7786497e-02
  2.7688768e-02
  2.7150428e-02
 -3.7473019e-02
  3.2288022e-02
  6.6857740e-02
 -5.3751443e-02
 -7.3141302e-03
 -1.0350595e-02
 -4.6458978e-02
 -4.0415458e-02
 -1.2301810e-02
  1.9232778e-02
 -6.3794809e-03
 -6.7828603e-02
 -1.9288657e-02
  8.4493998e-03
 -9.5776550e-02
 -1.3270679e-01
  3.8294077e-03
 -1.1410981e-01
 -1.3697396e-03
  1.4816166e-01
 -1.3885756e-02
 -2.5434423e-02
 -1.8717946e-02
 -3.5867944e-02
  3.8015556e-02
  1.0469435e-02
  1.6685177e-02
  5.2199718e-03
 -3.5160857e-03
  4.3726161e-02
  4.3456528e-02
 -7.7490434e-03
 -1.4378211e-02
  6.0916455e-03
 -7.5813924e-04
 -1.1232938e-02
 -4.2251214e-02
  6.8535678e-02
 -1.2054099e-02
  1.0737835e-02
 -2.3258571e-02
 -4.3186815e-03
 -4.6560917e-02
  3.5868995e-02
 -4.2685948e-02
  3.9722390e-02
  9.8071406e-03
 -8.9387335e-02
  5.6072217e-03
  4.4590037e-02
  2.7342021e-02
  6.4269148e-02
  6.3473620e-03
 -6.9137603e-02
  5.3044897e-01
 -3.5171814e-02
  3.4488015e-02
 -7.2838232e-02
  4.2332560e-02
  8.8873315e-01
  4.9950442e-01
 -1.5736373e-02
 -9.7499497e-02
 -7.4070022e-02
 -1.6448550e-02
  4.3455651e-01
 -1.8254017e-02
 -1.3781389e-03
 -9.2675379e-03
 -2.9189354e-01
  2.4345365e-01
 -1.7338645e-02
 -2.7268564e-02
  1.9798627e-02
 -3.2899622e-03
  1.1643456e-02
  1.4803450e-01
  3.0640487e-03
 -2.7449429e-02
 -7.4127622e-02
  5.9464373e-02
  6.5732861e-01
  1.4696505e-03
 -7.5918655e-03
  1.5865818e-03
 -5.9050437e-02
  6.5192948e-03
 -1.4727360e-01
 -4.1926038e-02
 -1.6801009e-02
  1.3997278e-02
 -4.1653949e-01
  6.0987496e-01
  4.0814728e-03
  1.9184882e-02
 -6.7545222e-03
  4.2914315e-03
 -5.0064631e-02
 -2.7828982e-01
 -3.5502508e-02
  3.4870841e-02
 -1.7307451e-02
 -1.6401552e-02
  2.1997064e-01
  1.7480925e-02
 -3.4554970e-02
 -1.8405518e-02
  8.3480859e-03
  1.4397539e-02
  3.2076553e-02
  4.7279168e-03
 -5.2112289e-02
  5.6433812e-02
  4.3672290e-02
  1.2069361e-01
 -1.6540641e-02
 -8.6854607e-02
 -6.9601893e-02
  1.0296612e-02
 -7.4295931e-02
  6.3587003e-03
 -1.3387810e-02
 -5.0816927e-02
  5.9028547e-02
 -2.9353166e-03
 -2.6493941e-02
  8.3710169e-03
 -8.7302223e-02
 -1.2024108e-01
 -8.1120804e-03
  2.1732977e-02
  1.9077042e-02
 -6.0619734e-02
  1.0570918e-01
 -4.6195551e-03
 -5.7925042e-02
 -1.4471807e-01
 -4.2674731e-04
 -4.3432530e-02
  2.7277749e-02
  1.2760881e-03
  9.1946246e-03
  2.9438479e-02
  3.5335755e-03
  1.3991040e-02
  6.9290750e-02
  7.2607905e-02
 -7.9765078e-03
 -1.1092251e-02
 -2.9463368e-02
  3.3162482e-02
 -1.0652699e-01
 -6.7387328e-02
 -9.7875834e-02
  5.6330033e-02
 -1.8034285e-02
  8.7534353e-02
  9.2304416e-02
  2.2154748e-02
 -8.8456355e-02
 -2.9761240e-02
  5.3097121e-02
 -5.8916152e-02
 -1.4073530e-02
 -3.8360417e-02
  7.2976388e-03
  1.9675147e-02
  5.4665845e-02
  1.1006410e-01
  2.7005563e-02
 -5.4751337e-02
  4.6994753e-02
  6.4853020e-02
 -2.2249430e-02
  3.6821749e-02
 -3.2259673e-02
  7.9341531e-02
 -3.9441176e-03
 -5.1765639e-02
 -1.0087018e-02
 -1.1986679e-01
 -1.7444883e-02
  1.4573806e-02
 -4.0978976e-02
  3.0078767e-02
  2.5997505e-02
  1.9527042e-02
 -1.4521012e-02
 -1.8494944e-03
 -4.2188361e-02
  3.7453525e-02
 -2.6422812e-02
  7.3635750e-03
 -3.9160188e-02
 -2.6880670e-03
  4.4119456e-03
 -6.2805956e-04
  2.4848664e-02
  2.3276057e-02
 -5.7081193e-02
 -7.0382573e-02
 -5.4786179e-02
 -3.7554618e-02
  7.6330267e-02
 -1.5310296e-03
 -4.0174473e-02
  4.0245082e-02
  6.5170992e-03
  4.1092578e-02
  3.2483257e-02
  2.1280559e-02
 -6.9536790e-02
 -3.4971070e-02
 -2.0726402e-03
 -1.6932156e-02
 -3.1374872e-02
  1.8264906e-02
 -2.8815394e-02
 -6.1026983e-02
 -4.1280661e-02
  2.0176405e-02
  2.5668915e-02
  4.8383400e-03
 -5.0857160e-02
  5.5585314e-02
  5.6098336e-03
 -1.7113687e-01
  1.5658790e-02
  7.8750968e-02
 -4.2693146e-02
  1.0961575e-02
 -3.2155619e-03
  4.3618284e-02
  1.6499968e-02
 -2.2469291e-02
 -1.5452442e-02
 -1.0494282e-02
  8.2451351e-02
 -5.7476845e-02
 -6.9574237e-02
  2.7033372e-02
  7.3232591e-02
  1.6092151e-02
  4.6640236e-02
 -5.9526231e-02
  6.3194618e-02
  1.1112785e-01
  4.1546142e-03
 -5.0135523e-02
 -5.2578144e-02
  1.9563239e-03
 -1.1439455e-03
 -3.3942219e-02
 -3.3076104e-02
  5.4625046e-02
 -2.9034229e-02
  2.9866703e-02
 -5.4273151e-02
  1.6999310e-01
  3.5893044e-03
 -1.1814256e-02
  7.8062654e-02
  8.1699109e-03
 -2.0412399e-02
 -8.8415276e-03
 -1.7507434e-02
 -1.0489438e-02
  3.4370434e-02
 -7.3242420e-03
 -1.1647746e-02
  2.9586319e-02
 -2.2135122e-02
 -1.1697838e-01
  4.5231566e-02
  1.0752514e-02
  1.8786078e-02
 -1.1509239e-02
  8.4607460e-02
  6.2203677e-03
 -1.0645244e-01
 -8.2374103e-03
 -6.4945786e-04
 -1.7446164e-02
  2.1887034e-02
 -1.0963015e-02
 -3.2260451e-02
 -5.9418749e-02
  6.8097912e-02
 -4.6717580e-02
  7.5104083e-03
  2.6040969e-02
 -1.5570210e-02
 -2.3146102e-02
 -8.2814153e-03
  1.8612403e-02
 -2.2065230e-02
 -3.1809755e-02
 -3.1520125e-02
 -5.4985425e-03
 -3.8604375e-02
 -1.6419293e-02
 -7.7683181e-02
  6.9655694e-02
  5.6403838e-02
 -5.7914477e-02
 -4.4037116e-04
 -2.2541061e-02
 -1.1591524e-02
 -1.6388500e-02
  2.7243394e-02
  8.7502282e-03
  4.1492254e-02
  5.6891415e-02
 -2.8230468e-02
 -3.7083089e-02
  3.9916795e-02
  1.3793695e+00
 -2.4203029e-02
 -5.2974757e-02
 -3.9960746e-02
  3.1686318e-03
 -4.9640618e-02
  1.0893907e-02
  5.7071757e-02
 -1.6779454e-02
  1.4240350e-02
  8.6919732e-02
 -2.2373119e-02
 -1.2263629e-02
  1.9518574e-03
  1.2190459e+00
  9.3654916e-03
 -2.6587215e-01
 -1.3578880e-02
  1.2990229e-02
 -6.0052574e-02
  1.3556287e-02
 -1.9314559e-02
 -1.2911509e-03
 -6.2910356e-02
  4.1106865e-03
  2.0051366e-03
  5.2505769e-02
 -2.5269037e-02
 -2.7616434e-03
 -1.9180849e-02
 -2.1342447e-02
  3.3527996e-02
  3.1220365e-01
  8.5556865e-02
  4.9428217e-02
  8.0290837e-03
  2.6084702e-02
  1.3489892e-01
  6.5051362e-02
 -2.2306079e-02
  4.5898336e-01
 -1.3131653e-01
  2.3593080e-01
 -3.1231678e-01
 -2.2341788e-02
  8.8195309e-02
 -7.6674253e-02
  2.6717731e-01
 -4.0282220e-02
  2.2916120e-02
  2.0376449e-02
 -2.0183759e-02
  1.3518286e+00
 -2.3494063e-02
 -2.0422710e-02
  1.4279428e-04
  1.7467207e+00
  7.9266857e-03
  1.4777391e-02
  8.4371129e-03
 -6.9246888e-02
  6.1378177e-02
  2.6111165e-02
  2.2285720e-02
  2.7149749e-01
  4.4927865e-02
 -7.3185028e-03
  4.4623576e-02
 -1.2460975e-02
 -6.1608970e-02
 -3.8574222e-02
  9.4269417e-02
 -1.8936095e-03
 -2.9983412e-02
  1.6912278e-02
  4.2661657e-03
 -1.3090459e-01
  3.9258608e-01
 -3.5844417e-03
 -1.0615394e-03
 -7.0417657e-02
  9.6380673e-02
  9.8914899e-02
 -1.1178155e-01
 -2.0336686e-01
  4.3496913e-03
 -3.3110559e-02
  9.4540149e-02
 -7.9645388e-02
  5.9303157e-02
 -6.2624859e-03
 -8.2174808e-02
  2.3941994e-01
 -5.6875028e-02
  5.9224438e-02
 -4.7564369e-02
  9.0085678e-02
 -6.9196969e-03
 -1.9596573e-02
 -4.4584227e-01
 -2.4013410e-03
 -1.4652221e-01
  1.6583143e-01
  3.4654665e-01
  1.4226967e-02
  1.4418277e-01
  1.6713463e-01
 -3.7812028e-02
 -1.1714555e-03
  1.9629154e-02
 -6.0053663e-03
  1.4455841e-01
  1.6286321e-01
 -8.5562423e-02
  6.5967448e-02
  6.5459441e-03
 -8.4672857e-04
 -3.5995815e-02
 -7.8320503e-02
 -8.9833148e-02
  3.1314695e-03
  1.3087569e-01
 -5.3377345e-02
 -5.2558007e-03
  5.2984306e-03
 -5.0438028e-02
  3.1452511e-02
  4.6636909e-02
 -7.0901804e-02
  6.6028185e-02
  4.6334226e-02
 -1.1453584e-01
 -1.9616401e-02
  2.2228807e-02
 -5.7975572e-02
  8.1773549e-02
  5.3949997e-02
 -4.5434054e-02
  2.1024373e-01
  1.5612815e-02
 -1.8204441e-02
  4.6329126e-02
  4.4965683e-03
 -6.9095597e-02
 -5.1311228e-02
 -1.4737532e-02
  2.0376021e-01
  1.4447743e-01
 -9.8869577e-02
 -4.4560995e-02
  1.2363135e-02
 -1.6754067e-02
 -9.4315775e-02
  7.5188398e-02
  3.1390790e-02
  3.8431194e-02
  1.9162346e-02
  4.9121413e-02
 -3.7772652e-02
  3.2858469e-02
 -4.5529723e-02
 -2.8963296e-02
 -2.3545306e-03
 -2.8897911e-02
 -3.4911267e-02
 -1.3594359e-02
 -3.4420427e-02
  4.1726820e-02
  2.7549678e-02
 -1.5924107e-02
  1.5092239e-01
 -3.2831982e-02
  2.0599135e-03
  1.3878286e-01
  2.8788965e-02
 -5.7676833e-02
  7.8926563e-02
 -1.8271407e-02
 -1.0759614e-01
 -5.1004943e-03
  2.4571044e-02
  2.2578452e-02
  3.0064206e-03
 -4.8801627e-02
  4.3961771e-02
  3.2921857e-03
 -1.2928553e-01
 -5.7430111e-02
 -4.4077914e-02
  3.2666050e-02
  9.0719927e-03
  8.1856929e-02
  5.4523513e-02
  1.4082524e-02
  1.1751086e-01
 -7.6421420e-03
  7.4773664e-03
  6.3687854e-02
 -1.2586557e-02
 -4.9253117e-02
 -4.9655754e-02
 -1.0701141e-02
 -5.3664815e-02
 -2.0001985e-02
 -1.2315111e-02
 -3.5422333e-02
  1.3364519e-03
  1.4961141e-01
  6.2760860e-03
 -4.5950305e-01
 -1.4138891e-02
 -1.4453528e-02
 -1.0250873e-02
  7.9358734e-02
 -4.9248710e-02
  5.2655214e-03
 -1.7158732e-02
  1.5541582e-02
  3.9421190e-02
 -3.5365146e-02
  1.4754659e+00
  1.0140093e-02
  3.2373983e-02
 -1.1871042e-04
 -3.4442257e-02
 -5.2772639e-03
  2.5841694e-02
 -1.9046618e-01
  3.3687137e-03
  6.9333650e-02
 -2.2889802e-01
 -1.2135240e+00
 -9.5861390e-02
 -9.7896336e-03
  3.9300732e-02
  2.8423127e-03
  5.5197883e-02
 -4.6515763e-02
 -4.2984498e-01
 -2.2774976e-02
  1.2464892e-02
 -9.2358917e-02
 -6.3716084e-02
  3.5148386e-02
 -7.0531972e-02
 -3.8095150e-02
 -5.0796553e-02
 -9.2091449e-02
  9.2934659e-03
 -1.5759496e-02
 -1.6692406e-02
  2.0207562e-02
 -3.4632050e-03
  2.5357345e-01
  3.2240148e-03
 -4.5952234e-02
 -5.5313006e-02
 -8.5783936e-02
 -5.9197545e-02
  5.2105114e-03
 -1.2066619e-02
  1.4494333e-01
  1.1830391e+00
  3.0474115e-02
 -8.9312658e-02
  1.7866759e-01
  5.0579526e-02
  3.6642663e-02
 -1.0179322e-02
  1.0213682e-02
  3.1531431e-02
  1.0911530e-01
  4.5636933e-02
  1.2870195e-03
 -1.5408279e-01
  2.7796078e-01
 -1.2200832e-02
 -9.0725860e-03
 -8.7930501e-02
  1.4061219e-01
  2.1467097e-02
 -5.3273078e-02
 -2.6480192e-01
 -3.8761364e-03
 -1.1578415e-01
 -8.5437663e-02
  3.7742829e-01
 -1.1243079e-02
  1.8399045e-01
 -2.8402945e-03
  3.1040466e-01
 -1.5688889e-01
  1.1078323e-01
 -1.6864663e-01
  4.8546693e-03
 -1.6299699e-02
  1.3908762e-01
 -2.7518094e-01
 -2.0356575e-02
 -3.6846880e-02
  1.1754009e-02
  3.7935245e-01
 -7.8303725e-02
  1.5895487e-01
  1.0891423e-01
 -5.4683201e-03
  2.7101427e-02
  7.2130136e-02
 -2.5876543e-01
 -1.6799178e-03
  2.0243558e-03
  2.1392768e-02
  1.4825711e-01
 -9.0750344e-03
  2.4391713e-02
  1.8773058e-02
  1.8272797e-03
 -8.2851395e-02
  5.5420622e-02
 -1.8561224e-02
 -6.2466958e-03
 -1.6024448e-02
 -2.6236677e-03
  6.5339103e-02
  3.0867592e-02
  7.8849263e-02
 -7.7720970e-02
 -1.4160419e-02
 -1.6172703e-02
  4.6938181e-02
 -3.9294823e-03
 -1.2699324e-01
  7.6099552e-02
 -6.7814566e-02
 -1.6571580e-01
 -1.6004015e-02
 -7.7914218e-03
  2.4049096e-02
 -1.2492940e-03
 -6.1313555e-02
 -2.7498191e-02
 -1.3692358e-01
  2.1304024e-02
  5.8490779e-02
  1.8280339e-01
 -6.9139816e-04
 -1.7061911e-03
  4.9610145e-02
  1.6767450e-01
 -3.1052524e-02
  2.5173090e-02
  5.6620248e-02
 -1.5861675e-01
  1.0860224e-03
 -4.4874780e-02
  7.6042302e-02
 -1.6225360e-01
  2.3550475e-02
 -5.2642409e-02
 -2.4043927e-02
  4.2928312e-02
  3.1973101e-02
 -2.7782463e-02
 -1.2810925e-02
 -3.4042165e-02
 -7.9313375e-02
 -2.5449572e-02
 -3.7051372e-02
  6.8122987e-03
 -1.2673098e-01
 -3.1951010e-02
 -5.9291042e-02
 -8.2183760e-03
  6.9792443e-03
 -6.2360901e-02
  2.3053830e-02
 -7.3180743e-02
  6.6565834e-03
 -1.8654849e-02
 -1.1761520e-02
  5.0527040e-02
  1.2423678e-01
  4.1387338e-02
 -2.3246577e-03
 -4.5567565e-03
 -1.5627395e-02
  7.7323592e-03
 -1.8131013e-01
  2.3975225e-02
 -3.8389768e-02
  2.8422931e-02
  4.4825874e-02
 -2.7603280e-02
  9.5093966e-02
 -4.1345619e-02
  4.9796425e-02
  7.0295960e-02
  1.6321816e-02
 -5.9743211e-02
  4.2098076e-03
  1.8230520e-02
 -4.8090816e-02
  9.1550410e-02
  3.8134992e-02
  2.6284980e-03
  1.0443877e-02
 -6.5175587e-01
  3.5523377e-02
  1.3987117e-02
  3.9792523e-02
 -6.9742516e-02
  8.2016163e-02
 -1.3474676e-02
  1.2192779e-02
 -2.0279545e-02
 -1.2787793e-02
  1.3987031e-02
  2.5926733e-02
 -3.5067312e-02
 -2.8466030e-03
  4.8530579e-02
  4.9042396e-02
  1.3342188e-01
  3.3218790e-02
 -1.0879391e-02
  3.4916461e-02
 -4.8720944e-03
  7.5044915e-02
 -1.5974488e-02
 -6.1984211e-02
 -1.5565926e-02
  2.0839358e-02
 -9.2089514e-04
  2.1720299e-02
 -9.9142306e-03
  2.1116218e-02
 -1.3450978e-03
 -3.6715802e-02
 -8.2088150e-02
  6.4047717e-02
  9.7137414e-02
  5.3572714e-02
  4.4412624e-02
 -8.9121647e-02
  8.5524609e-03
 -2.5575094e-02
 -4.5951299e-02
 -5.6236074e-03
  3.6892951e-03
  1.4696746e-02
  1.2986537e-02
 -2.4098236e-02
  6.2377982e-02
 -2.1949390e-02
 -2.1322530e-02
  5.7718132e-02
  7.7786230e-02
 -7.0498665e-03
  2.4408570e-02
  1.9296706e-02
 -2.5165612e-01
  3.7629321e-02
  1.2130766e-01
 -2.3973759e-02
 -2.9015489e-02
  1.9059839e-02
  5.1425691e-03
  2.3707481e-02
  1.4188065e-02
 -3.4887265e-02
 -2.5020836e-02
  9.4832778e-03
  1.1657023e-01
 -2.4236432e-01
 -2.4097519e-02
 -2.7538342e-02
  4.3952994e-02
 -3.7039746e-02
  6.9431439e-02
  1.0206968e-01
  2.0175056e-01
 -6.5373607e-02
 -1.1953487e-01
  5.5094730e-02
  3.3301204e-02
  1.6259216e-02
 -2.8324446e-02
 -4.4397410e-02
 -2.3158755e-02
  7.6348469e-02
 -4.9828809e-02
 -4.6700932e-02
  6.5458152e-03
 -6.2150985e-02
  1.7422143e-02
  1.2143234e+00
  1.0425903e-02
 -3.6579095e-02
 -1.4201453e-01
 -3.5986793e-01
  1.6343841e-01
 -8.6399131e-02
 -5.8279645e-02
 -6.5335184e-02
  4.4640034e-02
 -7.8411944e-02
 -3.5648021e-01
 -1.2323380e-02
 -1.6917372e-02
 -4.7720049e-04
 -4.0333226e-02
  5.8060858e-02
 -2.9282449e-02
 -4.4653889e-02
  5.3747248e-02
 -1.3241681e-03
  5.5457179e-02
  4.0282514e-02
 -4.2186696e-02
  1.1710842e-02
 -1.5967915e-02
 -5.9406306e-03
 -3.2008056e-02
  1.5279019e-02
  5.4561822e-03
 -5.4487776e-02
 -4.7139570e-02
 -1.1531929e-01
  5.3973101e-02
  4.3310872e-03
 -5.1056542e-03
  1.5659137e-02
  7.5928196e-03
 -1.1544532e-01
  1.2225193e-02
  5.0498780e-02
  3.4597579e-02
 -3.2776754e-02
 -1.6291797e-03
 -5.7212841e-02
 -8.6837691e-01
 -2.3182837e-02
  2.7818375e-03
  1.7415969e-01
 -5.1565394e-02
  2.0262066e-02
  1.1290646e-01
 -2.9229561e-02
  6.7331895e-02
  9.0042517e-02
  3.6439490e-02
  1.5047351e-02
 -7.9378232e-02
 -1.8804122e-02
 -5.6554750e-04
  1.3006459e-01
  7.5102352e-02
  3.9059322e-02
 -3.3575587e-04
  8.4588252e-02
  2.0095190e-02
  2.2366654e-02
 -1.0940350e-02
 -1.2383309e-02
  1.5561855e-02
 -2.1534737e-02
  9.3506891e-03
 -5.6562666e-03
  6.5202259e-02
  9.1955494e-03
  1.8379621e-02
 -3.2239426e-03
  5.3267166e-02
  1.3899752e-02
  8.9016080e-02
  4.6967078e-02
 -8.9544384e-03
 -7.7629313e-03
  2.6258514e-03
 -9.0242326e-03
  2.9759442e-02
 -5.3494130e-03
 -6.5387497e-03
  7.5572832e-03
  1.7588586e-02
 -1.5706789e-02
  6.4439520e-02
  2.4249500e-02
  2.7215369e-02
  7.6853223e-02
  1.2317380e-02
 -6.0492158e-02
  1.0582139e-03
  1.5295728e-02
  1.5321932e-03
 -1.6225527e-01
 -9.8293042e-03
  2.3572750e-02
 -3.4855172e-02
 -1.4340712e-03
  1.6261599e-03
 -2.4514044e-02
  1.3289602e-02
 -4.0034312e-03
  1.3281740e-02
  4.7298484e-02
 -1.6263930e-02
 -9.4566889e-02
 -6.1413404e-02
  2.1118147e-02
  1.4414313e-02
  7.3210448e-02
  6.4258978e-02
 -1.9192891e-02
  6.4922073e-03
 -6.8395495e-02
 -6.1971460e-02
 -5.5015851e-02
 -1.3334820e-01
  5.4604899e-02
 -1.8523693e-02
 -5.3660337e-02
 -4.4970799e-02
  2.1994736e-02
  1.8598907e-02
 -1.4531357e-02
  6.0965358e-03
  3.1249146e-03
  2.3609840e-03
  5.5332802e-02
 -2.7384195e-02
 -4.1906737e-02
  2.4209246e-02
 -2.2611456e-02
  3.1729717e-02
 -3.2477379e-02
  4.8703425e-02
 -3.4304280e-02
  1.8706864e-02
 -1.0305000e-02
  1.5577849e-04
  2.4997143e-03
 -8.1741903e-03
  5.0252853e-03
 -2.0731617e-02
 -4.1496055e-03
  5.0898574e-02
 -1.6233826e-02
 -8.8644670e-03
 -2.0293558e-02
 -2.7703622e-02
  1.1541060e-02
 -3.9893433e-02
 -5.6341093e-02
  6.5388232e-02
 -1.8939801e-02
 -8.9287590e-03
 -3.9854541e-02
 -1.7941746e-01
  9.1032006e-02
  1.0604624e-02
  1.4516217e-01
  1.4996168e-01
  1.5334796e-02
  7.1964093e-02
 -5.1926248e-02
 -2.4601286e-02
 -2.3807901e-01
 -7.1995039e-03
 -2.4015645e-03
  5.1615082e-02
 -7.5091410e-01
  7.6609282e-03
 -1.0791501e-02
  2.5994778e-01
  1.0235260e-01
  3.9147470e-02
  2.1990754e-01
  2.7226889e-01
  1.7100746e-02
 -4.7290672e-02
  1.0926525e-01
 -9.2192732e-02
  3.2994710e-03
  2.1530133e-02
 -1.3765610e-03
 -3.4181705e-01
  1.3827362e-02
 -2.0982845e-02
  4.3317202e-02
  3.4883860e-02
 -5.8812560e-03
 -5.6476142e-02
  8.3966327e-01
 -2.2652326e-02
  2.4616837e-03
 -1.6729507e+00
 -4.3441448e-01
 -1.0116225e-01
 -1.1512512e-01
 -4.7584955e-02
  2.9536660e-03
  3.8281851e-02
 -8.2462907e-02
  1.3655628e-01
 -1.3671508e-01
  1.4806605e-02
  3.5280472e-04
 -3.1552145e-01
  1.8113649e-02
 -5.7431519e-02
  3.5023257e-02
  1.0424626e-02
  1.0019644e-01
  2.0491149e-02
  7.1146577e-03
 -5.1138870e-02
 -2.5407395e-03
 -5.8808811e-03
  1.8351803e-02
  3.6623165e-02
  1.7501278e-02
  6.8561926e-02
 -1.0825532e-01
 -5.2905298e-04
 -2.3927795e-02
  1.8125933e-02
 -3.3823811e-02
  1.0033499e-02
  1.3786102e-02
  1.0193200e-02
 -6.5148965e-02
  3.7650201e-02
 -2.4151804e-02
  7.3616326e-02
  3.3757687e-02
 -6.8078277e-04
 -6.0947319e-03
  5.0836802e-02
  1.0558053e-01
  4.4208918e-02
 -1.0451572e-01
  2.9478399e-02
 -1.2329963e-02
 -2.2890471e-02
  3.5238653e-02
 -2.3378119e-02
 -2.3590809e-02
 -1.3257110e-01
 -3.4741346e-02
 -1.0075653e-02
  4.9041972e-02
 -2.3714764e-02
  2.8157005e-02
 -3.1990029e-02
 -1.8162879e-01
  2.0535745e-02
 -3.7535049e-02
  1.8404203e-02
  1.0432088e-02
  1.3712879e-03
  4.9659915e-02
 -1.4994693e-01
  6.3885618e-03
  4.5265034e-03
 -7.0738145e-03
  2.8593555e-02
  4.3246485e-02
 -3.0777235e-02
  6.7052031e-03
 -4.1138045e-02
  8.7177875e-03
  2.3119753e-02
 -3.8942513e-03
 -2.9672058e-02
  1.0024082e-02
  8.3606936e-02
  6.8192547e-03
  1.6556736e-02
 -3.3320470e-03
 -1.3195708e-01
 -2.2076804e-03
  2.4629071e-02
 -9.6880592e-02
 -2.9198837e-03
  6.1477441e-03
  4.7983974e-02
 -3.1614944e-02
 -3.0215433e-02
  1.4551034e+00
 -2.0338723e-02
 -5.2912787e-02
 -1.0677204e-02
  6.5745665e-03
 -1.0514643e-02
 -6.7603491e-02
  7.5797968e-02
  3.8451566e-03
 -1.1519582e-01
 -3.1292837e-02
  8.9947339e-03
  3.5011105e-02
 -1.2873020e-02
  3.6296546e-02
  1.8154731e-02
  1.2555400e-01
  8.4883031e-03
  1.2521899e-01
 -2.7538789e-03
  5.0526902e-02
  1.0847609e-01
  2.6619993e-03
  1.0390208e-01
 -6.2142061e-03
  5.2918321e-03
  6.3410904e-03
 -2.7838029e-02
 -4.4664406e-04
 -1.1291891e-01
 -7.4145749e-02
 -1.2678093e-01
  1.7345732e-02
 -1.1867454e-02
 -1.1829866e-02
 -1.1078992e-01
  7.9675661e-03
  3.6143370e-02
 -3.2179195e-02
 -3.4071852e-03
 -9.3523469e-03
  7.2812714e-02
  4.0014390e-02
  9.1794338e-03
  2.5749836e-02
  2.9717663e-02
 -1.3292343e-02
 -4.3024500e-03
  3.8329635e-02
  8.0647756e-04
 -5.0599430e-02
 -6.4434931e-02
 -1.5757732e-02
 -5.7717592e-02
 -6.1244287e-02
 -1.6413530e-02
  1.4947726e-02
  3.9015289e-02
 -5.1812600e-02
 -2.7323870e-02
 -5.0123144e-02
 -4.0698346e-02
  1.1880287e-02
  6.6901678e-03
 -1.6446388e-01
  7.1499817e-02
 -1.0129321e-02
  4.7545142e-02
  1.2888625e-02
  4.6810296e-06
  5.9992258e-02
 -3.4252167e-02
  6.0178833e-03
 -3.3579141e-02
  8.9431778e-02
 -1.1861839e-02
  7.3967488e-03
  3.1359244e-02
  2.3917926e-02
  1.3050906e-01
 -6.9941178e-02
 -7.5546880e-03
  9.3684651e-02
 -6.0723104e-02
 -2.8838633e-02
  1.3140388e-01
 -3.7790544e-02
 -5.2714944e-02
 -2.9761136e-02
  7.8754663e-02
 -1.4069921e-01
  1.1589381e-02
 -3.6017433e-02
 -1.1331690e-02
  5.7347160e-02
 -1.6634459e-02
  2.4637714e-02
  4.2916838e-02
  6.6925913e-02
 -2.1666959e-03
 -9.4203420e-02
 -4.0690564e-02
 -6.6207838e-04
  5.1312545e-06
  1.4077666e-03
 -3.5141117e-04
  9.7643202e-03
  6.4482123e-02
  6.6256657e-02
  8.6400937e-03
  3.3265501e-03
  5.1002637e-02
 -5.0860554e-02
  3.4525178e-02
 -1.8140808e-02
 -8.6298786e-02
  2.8199942e-03
  1.3367231e-02
 -4.5657810e-02
 -5.4715648e-02
 -2.2247154e-02
  3.1369861e-02
  2.0172689e-02
  4.8582140e-02
  5.2139345e-03
 -8.8807140e-03
 -4.5768727e-02
  6.6010274e-02
  3.0952968e-02
 -7.5289369e-02
  6.6957355e-02
  8.0509353e-03
  4.8171701e-03
  4.1150156e-02
  3.6945529e-02
 -2.7231203e-02
  3.3033732e-02
  6.2591530e-02
 -9.8986566e-02
 -3.1013382e-03
  1.7874323e-02
 -5.5363434e-03
 -5.9472360e-02
 -6.7665651e-02
 -7.5220212e-02
 -4.1210953e-02
  4.6800181e-02
  9.3709931e-02
 -4.8196852e-02
  6.5213526e-03
  7.5998944e-03
  6.6710196e-02
  1.1195097e-02
  8.7205827e-02
 -2.3365162e-02
  7.5303957e-02
  2.5449261e-02
 -9.9342354e-03
 -5.2250855e-02
  3.2061294e-02
  2.2841690e-02
 -1.1330107e-01
 -4.2932130e-02
 -1.2081907e-01
 -1.0394398e-01
  5.3915605e-02
 -4.4640094e-02
  1.0663153e-02
  3.9830251e-04
 -1.7431777e-02
  2.8501427e-02
 -4.4003990e-02
 -8.2277454e-02
 -2.7771566e-02
 -5.1679045e-02
  1.2368304e-02
 -8.3073955e-03
 -7.8488961e-02
 -3.2907732e-02
  3.8020764e-02
 -9.9053368e-02
  9.9520355e-02
 -1.5530336e-02
 -3.2910290e-03
  8.9444727e-02
 -1.8181123e-02
 -2.4569502e-02
 -1.9966614e-01
  7.2679711e-03
  1.0268009e-01
  1.4491410e-02
 -9.0455003e-03
  8.2851192e-03
 -2.0341044e-03
  9.0737455e-03
  6.5287180e-02
  6.4462394e-02
  4.7178846e-02
 -8.3714254e-02
  3.0824315e-02
  8.9902572e-02
 -3.7886657e-02
  1.2230700e-01
  4.3837125e-03
 -1.2938911e-02
 -6.6890553e-02
 -5.3074691e-02
  7.1200030e-04
  1.3768912e-02
 -5.9231121e-02
 -1.2676665e-02
 -2.2480581e-02
 -1.3840511e-02
  2.1123784e-02
 -2.3011351e-02
  3.3153310e-02
 -2.6742807e-02
  1.1944178e-01
 -1.2939486e-02
 -5.5296250e-02
 -1.7472498e-02
  1.1554338e-02
 -1.1512347e-01
 -1.4467874e-02
 -6.2638742e-04
  6.9291419e-03
 -5.7202028e-03
 -6.4969525e-02
 -5.3043336e-02
 -5.9277732e-02
 -2.7759278e-02
  3.3780441e-02
  8.0009811e-02
  1.2838870e-02
  8.3235214e-03
  8.6455144e-02
 -1.6685536e-02
  4.4506513e-02
  6.8991743e-03
 -2.2001456e-02
  3.1351835e-02
  1.9090699e-02
  9.1200043e-03
 -2.4085676e-02
  2.8968390e-02
 -7.8256354e-03
  2.8208960e-02
  1.5037733e-02
 -9.8628350e-02
 -1.8116746e-02
  4.3119002e-02
 -8.5339487e-02
  4.5127682e-02
  3.5742940e-03
 -1.1067721e-02
  3.6680732e-02
  2.3194414e-02
 -3.5594154e-02
 -1.7863331e-02
  1.9988287e-02
 -7.3750800e-04
 -6.4059161e-02
  1.1010921e-01
  4.8189037e-03
 -5.7998404e-02
  3.1197020e-01
 -8.5369991e-03
  5.2561588e-04
  3.2228986e-03
  5.3848352e-02
 -4.2601813e-02
 -7.7238894e-04
  5.8295093e-02
  4.9526330e-02
  2.7094331e-01
 -4.1023206e-02
 -2.2374244e-02
 -3.1201738e-01
  2.6478499e-01
 -1.6915302e-01
 -6.7440197e-02
 -2.9093897e-01
  1.5142503e-01
  1.1144323e-01
 -2.0444970e-01
 -4.4738388e-01
 -5.3783771e-02
  2.7351934e-03
 -1.1835786e-01
  7.0319273e-02
 -9.3107261e-03
  4.0761288e-03
 -6.1007876e-02
  2.2558406e-01
 -2.8433682e-02
  2.0096464e-01
  3.9261991e-01
 -4.2877112e-02
  3.4145706e-03
 -3.2063488e-02
  1.7542429e-01
 -5.1166948e-02
  4.1574514e-03
  2.6028511e-01
  4.2679644e-01
  3.8023658e-02
  1.4150438e-01
 -3.3978555e-02
  1.9478129e-02
 -4.0617950e-02
  1.4116153e-01
 -9.3544073e-02
 -8.8819973e-03
  3.1009289e-03
  1.6254429e-02
  1.4549351e-01
 -1.5640816e-02
 -8.2873390e-04
 -1.0529946e-02
  3.8636278e-02
 -4.8022807e-02
 -1.2576615e-03
  9.0003148e-02
 -7.9354927e-02
 -2.6201182e-03
 -6.3338345e-03
  5.5817176e-02
 -1.5737997e-02
 -2.5916906e-02
  2.6612168e-02
  4.9089149e-02
 -3.2748077e-02
 -1.3181970e-02
  2.7342236e-03
  2.2633126e-02
 -2.4414752e-03
 -4.1555017e-03
  6.0073077e-03
  4.8266295e-02
 -2.3947723e-02
  8.1245303e-02
  4.3115960e-03
  2.2450718e-03
 -2.2235570e-02
 -2.0583181e-02
  1.9675803e-01
 -2.1433452e-02
  1.1175171e-01
  2.8233469e-02
 -6.1672982e-03
 -1.4296046e-02
  9.0733655e-02
 -3.4161102e-02
  1.8748926e-02
  6.1463243e-03
 -1.3461125e-02
  2.2824112e-02
 -6.0264509e-02
  8.8363523e-03
 -1.1994475e-02
 -4.1816752e-02
 -2.6993844e-01
  9.0809604e-03
  7.0250981e-02
 -2.3217717e-02
 -1.6121754e-02
 -7.2622232e-02
 -1.5525592e-02
 -9.1346661e-03
 -5.6167236e-03
 -2.9014808e-03
  2.1127413e-01
 -5.2423976e-02
 -3.5742118e-03
 -2.4311664e-02
  2.6855141e-02
  1.0281552e-01
 -7.6077431e-02
  6.9312014e-02
 -7.4584946e-02
 -2.6957283e-02
 -2.4870042e-02
  5.1145930e-02
 -9.2886217e-02
 -1.0399419e-01
 -4.4589601e-02
  1.3216781e-02
  7.8587092e-02
 -8.3438694e-02
 -1.0807700e-01
 -2.4062058e-02
  1.7289864e-03
 -6.6876225e-02
 -9.5530655e-03
  1.1672719e-02
 -4.5242749e-02
 -1.1644664e-03
 -1.9415645e-02
  1.8356006e-03
 -8.5750118e-02
 -2.5726035e-03
  5.0292529e-02
 -9.3585290e-02
  5.0594080e-02
 -9.1423742e-02
  1.5543086e-02
 -7.2500713e-02
  1.6231707e-03
 -3.6370210e-02
 -2.5694439e-02
  1.4582729e-01
  2.5535518e-02
 -1.1486301e-01
  6.8520546e-02
  7.9623796e-02
  8.6178221e-02
  8.4291669e-03
  2.2025224e-02
  9.5097460e-02
 -1.4668460e-02
 -1.3682839e-02
 -8.0172338e-02
  9.0371026e-03
 -2.0437300e-02
 -2.3169814e-02
 -2.5606491e-02
 -3.9503533e-02
 -7.8204233e-04
  1.1729307e-02
 -7.8678858e-03
  1.3483266e-02
 -7.4745260e-02
 -3.4178231e-02
  9.4524167e-02
  3.5400003e-02
  3.5258003e-02
  5.9020914e-02
  7.6385617e-02
  3.6141567e-02
  7.7574220e-03
 -1.8258375e-01
 -2.0236885e-02
  7.0149358e-03
 -2.6817899e-02
 -4.4947606e-02
 -1.3056657e-01
 -8.4200628e-02
  2.5700193e-02
 -5.3069580e-02
 -1.6491722e-02
 -2.8692195e-02
  2.4740769e-02
  6.3080792e-03
  3.8999675e-05
  1.4169888e-01
  1.5534732e-02
  1.3017695e-02
 -4.4465259e-02
  4.8943479e-03
  7.2951294e-02
 -1.5018274e-02
  2.5835369e-02
  2.7138108e-02
 -9.0956300e-02
  1.6090160e-02
 -2.5298281e-02
 -1.0501209e-02
  4.1351240e-02
 -4.2236563e-02
  2.9274302e-03
 -3.4402512e-02
 -3.5899289e-02
  1.0985659e-02
  6.0650986e-03
 -5.4186769e-02
  4.7866488e-03
 -1.0896269e-02
 -1.4027285e-03
  1.6310923e-02
 -3.9825104e-02
  3.1811747e-01
  9.7453333e-02
 -4.5827175e-03
  5.2707445e-02
  5.1468171e-02
 -3.9998159e-02
 -1.0399733e-01
 -2.1724886e-01
 -3.5962064e-02
 -6.4020969e-02
  1.0760909e-02
 -5.5664603e-02
 -2.3443526e-02
  1.9959516e-03
  9.3229637e-02
 -1.1530603e-01
  3.2297965e-02
  1.0236570e-01
  5.0052047e-02
 -5.9050698e-02
  4.2794295e-02
 -1.3677366e-01
 -1.2801331e-01
 -6.9548860e-02
 -8.4752634e-02
 -5.1851617e-03
 -2.8110433e-02
 -5.8044113e-02
 -2.5937457e-03
  6.0923256e-02
 -3.9564144e-02
 -5.7394795e-02
  2.0140052e-02
 -4.5041842e-03
 -9.7820852e-03
  1.9624190e-02
 -2.1695541e-02
 -9.9160723e-02
 -9.1909774e-04
  1.8828373e-01
  7.0481170e-03
  9.6838204e-03
  2.2888772e-02
 -3.6524504e-02
  6.4349495e-02
 -4.3731321e-05
 -7.3410705e-02
 -2.0203553e-02
  1.2252153e-02
 -3.4569607e-03
  3.5677582e-02
  8.5035354e-02
 -3.7040692e-02
 -1.3137892e-01
 -8.0458798e-02
  6.1838891e-02
 -1.5777761e-02
 -1.4934198e-02
 -6.9451950e-02
  1.0357528e-02
 -1.0193660e-02
  2.2949789e-02
 -5.2783664e-02
  2.2172671e-02
 -1.1461772e-01
 -7.8187943e-02
  7.2162035e-03
  1.0468663e-01
 -7.0970736e-02
  4.6284147e-02
 -5.4853123e-02
  3.0196430e-02
  7.4242745e-03
  2.4600126e-02
 -9.9186515e-03
  1.6473118e-02
  4.4410516e-02
 -4.0250257e-02
 -1.2318973e-02
 -1.5705179e-02
  1.0430628e-02
 -5.6797151e-02
 -6.6720587e-03
  2.9449785e-02
  3.1165048e-02
 -4.4529620e-03
 -9.7297374e-03
 -3.5672411e-02
 -5.4731101e-02
  4.0681839e-02
 -3.3951629e-02
  3.3109952e-02
  2.4249390e-02
  1.1024234e-02
 -3.8907610e-04
 -4.7001004e-02
 -1.1021118e-02
  3.6193926e-02
  7.3510744e-02
  2.2077815e-01
 -3.1843632e-02
  3.2471355e-02
 -7.5197361e-02
 -7.6056264e-02
  4.0220775e-02
  2.7117556e-02
  5.1057236e-03
  5.6170348e-02
  1.7188037e-02
 -5.3155892e-02
  1.2185796e-02
  1.8658763e-02
 -3.0984572e-01
  1.0425795e-02
  3.0618995e-02
  2.3864916e-01
  4.7330372e-02
 -3.7713642e-03
 -5.3348802e-02
  1.1196455e-01
  8.5774846e-02
  7.0636429e-02
  1.9913394e-02
  4.2861100e-02
 -5.7451736e-02
  1.8735344e-02
 -1.4095832e-02
 -9.3602128e-02
 -2.1091630e+00
  5.9967060e-02
 -1.0382958e-02
 -5.0258458e-02
 -4.0060271e-02
  3.0820059e-02
  6.0645275e-02
 -1.9993445e-01
  3.1797167e-02
 -1.7873576e-03
 -1.1074374e-02
  1.3598166e-01
 -3.8699452e-02
 -4.9447209e-02
 -2.4076852e-01
 -2.4142610e-01
 -1.4263214e-02
 -4.0553890e-02
  4.6636000e-01
  1.3778593e-01
 -8.0464417e-03
  1.5658867e-02
  1.0435044e+00
 -4.8762893e-05
  1.0106773e-02
  6.5875806e-02
 -2.6986465e-02
 -6.8221134e-03
  2.1164212e-01
 -1.1648571e-01
  9.7847600e-03
 -2.2575734e-02
 -1.0265929e-01
  8.1254348e-02
 -1.9790079e-02
 -9.4796671e-03
 -5.4951534e-03
  2.0975608e-02
 -2.5293440e-02
  1.3559996e-01
  1.7997496e-02
 -4.7426712e-02
 -4.7871610e-03
  1.3760124e-02
  1.5680100e-01
  1.0236085e-01
  1.7020039e-01
 -6.0982727e-02
 -2.2975156e-02
 -1.4988893e-01
  1.6844425e-02
 -9.5078669e-02
 -4.9738199e-03
 -2.4927495e+00
 -5.5990785e-02
 -3.2144643e-02
 -7.3211157e-01
  1.5191100e-02
 -2.4689144e-01
 -3.7991220e-01
  7.7588357e-02
  2.7857642e-04
 -1.0392481e-02
 -1.7826991e-02
  5.4586582e-02
 -1.3608015e-01
 -1.0036474e-01
  2.3192354e-02
  6.0204003e-02
 -4.8223186e-01
  1.6692002e-01
  7.0547588e-02
 -1.0675708e-01
 -8.7234579e-02
 -9.6947597e-03
 -9.3321420e-02
 -1.6822004e-01
 -2.7134459e-02
  1.3279493e-02
  5.8290306e-03
 -1.3737981e-01
  6.1954117e-01
 -4.4858348e-02
  2.1689653e-01
  5.2310150e-02
 -6.0037216e-03
  5.6672327e-02
  8.0401208e-03
  1.9420958e-01
  5.0880779e-02
 -1.8133776e-01
  1.2544627e-01
  6.0567433e-01
  1.0125852e-01
  1.9199252e-01
  1.5774746e-01
 -4.1443944e-02
 -2.5709977e-02
  2.2173056e-03
 -4.1010460e-01
 -7.3498175e-02
  5.1663179e-02
  4.6766657e-02
  1.7256555e-03
 -3.3632055e-02
 -7.4883252e-02
 -1.1881354e-01
 -3.9968297e-02
 -2.4333630e-02
  9.4018102e-02
  1.5759364e-01
 -3.8508818e-02
  3.3084381e-02
 -3.0371097e-03
 -1.3211868e-02
 -2.4645429e-02
 -5.2782323e-02
 -1.7388148e-02
  1.9038700e-02
  1.7019300e-02
  2.0073385e-04
  3.1902604e-02
 -8.3591767e-02
 -1.1650654e-02
 -5.4910135e-02
  3.7650492e-02
 -8.8861451e-02
  1.1966458e-01
  3.1078542e-03
  1.2690607e-02
  1.7577168e-02
 -5.0656986e-03
 -5.7316363e-02
  4.6150595e-02
 -1.4424825e-02
 -4.3676273e-04
  1.5129529e-02
  3.3704508e-02
 -4.7705088e-02
  6.2135424e-02
  2.0497723e-02
 -7.1148679e-02
  2.6284330e-02
  1.4950442e-02
 -3.7094101e-02
 -3.5682645e-02
 -2.5640057e-02
 -6.9505513e-02
  3.5014509e-03
 -4.6079536e-03
  2.1755141e-03
  2.7843283e-02
 -1.8759755e-02
  3.7926842e-02
 -7.9409689e-02
 -6.1372727e-02
 -7.7971913e-02
  1.3377810e-02
  9.1632679e-03
  5.8007061e-02
 -1.6312238e-02
  6.9238871e-02
 -1.4562373e-02
  5.2069835e-02
 -1.4820522e-01
  4.1037863e-03
 -6.9035947e-02
  2.1780726e-02
 -3.2769822e-02
 -7.7802162e-03
 -5.3524990e-02
  1.0367848e-03
  3.7718546e-02
  9.3723899e-03
 -3.8873885e-02
 -1.6473357e-01
 -5.0351378e-02
 -5.9041906e-02
  2.2187006e-02
  3.7062444e-02
 -4.1089300e-02
 -4.6843421e-02
 -1.1995983e-02
 -6.3427210e-02
 -4.1964289e-02
 -1.2113558e-02
  8.9267656e-02
  2.8108133e-02
  5.2195046e-02
 -5.2764613e-02
  6.3653588e-02
 -8.9982199e-03
 -1.7304110e-03
 -8.7790014e-03
  1.2894797e-01
 -3.6270399e-02
  4.4260088e-02
 -2.1494934e-02
  7.0946939e-02
  6.4041638e-03
 -1.2527277e-02
 -3.1495595e-03
 -5.7407912e-02
 -1.0219702e-02
 -4.9717701e-03
 -4.8562173e-02
  2.0768693e-02
 -5.9303444e-02
  2.4549260e-03
  5.1552419e-02
  4.0998448e-02
  2.1116057e-02
 -7.0635448e-03
  2.7457168e-02
 -3.8240161e-02
  5.2847858e-03
  2.5004407e-03
 -3.6837153e-02
 -6.0651796e-03
  1.1787278e-02
 -1.8655121e-02
 -3.8067468e-02
 -3.1085111e-02
 -7.3546292e-03
  6.7543685e-02
 -2.3738088e-03
 -8.9664407e-02
  2.1244109e-02
  4.9916748e-02
  5.1143230e-03
  4.5746539e-02
  1.0145022e-01
 -3.2540858e-02
 -1.8443376e-02
 -1.5626209e-02
  1.3279675e-01
 -6.7768484e-02
  8.4156811e-02
 -8.3477107e-06
 -9.5564360e-03
 -7.2598584e-02
 -6.1213255e-02
  8.6829841e-02
 -3.4953315e-02
 -7.4771456e-02
 -9.3358406e-04
  1.3492606e-02
 -1.1097673e-02
 -3.9005563e-02
 -2.0360649e-02
  6.1196247e-03
  5.7381537e-02
  1.1182164e-02
  2.0409096e-02
 -2.0179231e-02
 -7.9305120e-02
  9.4547115e-02
 -2.6815089e-05
  7.3799230e-03
 -9.7328711e-01
  9.0357192e-02
  2.3601653e-02
  4.2644278e-03
  6.0767494e-02
  1.4317794e-02
  8.5287327e-03
 -1.4149432e-02
 -5.0322350e-02
  6.6129044e-02
  1.1428306e-02
  2.0612739e-03
 -2.8940652e-02
 -7.7052554e-03
 -9.2866845e-02
  1.0674140e-01
 -4.2695675e-02
 -8.2538452e-04
 -1.4484099e-02
 -1.2400285e-01
 -1.4708340e-02
 -5.0813355e-03
 -4.6216961e-02
  1.7220834e-02
  4.4323478e-02
 -3.4367345e-02
  7.8695836e-03
  6.6687549e-03
 -2.2188276e-02
  6.9354422e-02
  1.8272765e-02
  2.2419982e-02
 -8.5114396e-01
  1.1440120e-02
 -1.6040374e-01
 -2.7402595e-02
 -5.6049228e-03
  1.3134861e-02
  1.0759653e-01
  4.6734631e-02
  4.6908759e-02
  2.0090241e-02
  3.3388145e-02
  3.2148045e-02
 -9.3755899e-03
  2.6151365e-02
  6.4490594e-02
  6.1402064e-02
  7.2244532e-02
 -6.4146213e-02
  2.2430338e-02
  3.7524804e-02
 -4.4226460e-02
 -7.1716294e-02
 -1.1242984e-02
 -6.1054073e-02
  1.0564411e-02
 -1.4391848e-01
  1.0439914e-02
 -8.9112394e-02
 -1.4916806e-02
  4.3652516e-02
 -1.0696608e-02
  1.5683275e-02
 -6.1453573e-02
 -1.9868156e-02
  3.7336178e-02
  3.4102120e-02
 -5.0295470e-03
 -1.4334892e-01
 -4.1220146e-03
  9.5935941e-02
 -1.3005826e-02
  4.7235515e-02
 -6.5695144e-02
  9.0564527e-02
  1.9736577e-02
 -6.9304183e-02
 -7.1804747e-03
 -2.9312005e-02
  5.0441202e-02
 -2.8873062e-02
 -7.1586724e-03
  1.7530374e-02
 -1.8881651e-02
 -5.7768330e-02
  3.5072424e-02
  5.1015712e-02
 -9.5585575e-03
  8.2684427e-02
 -1.3254686e-02
 -1.6109725e-02
 -3.0281950e-02
  1.8798733e-01
  2.1249879e-02
 -3.8045179e-02
 -4.3042388e-02
 -3.0565321e-02
 -5.0011799e-03
 -8.0649272e-02
  9.4384499e-02
 -3.1208662e-02
 -1.9014034e-03
 -8.7288179e-04
  2.7433184e-01
  6.8855964e-02
 -1.9115793e-02
 -2.8482977e-02
 -1.1090178e-03
  1.8160453e-02
 -8.7046245e-04
  4.8541572e-02
  2.0974256e-02
  7.4326746e-02
 -5.9879351e-02
  1.5590156e-02
  1.8321915e-02
 -4.5816410e-02
 -1.1535449e-01
  3.5421629e-03
 -7.0436418e-02
  3.8149185e-02
 -1.3157777e-02
 -5.0749023e-02
  2.3759997e-02
 -4.2950023e-02
  3.3356078e-02
 -8.4970822e-04
 -1.2290847e-01
 -4.9853001e-02
  4.4335235e-02
  1.4944294e-02
 -1.6572863e-02
 -3.1093761e-04
 -1.2141597e-02
  6.4510801e-03
  1.7548505e-02
 -5.4063234e-03
  3.1533444e-03
 -8.9610564e-03
  3.3709593e-02
 -9.2373669e-02
 -1.0676219e-01
 -4.9411714e-02
  2.1884205e-02
 -1.1976453e-02
  9.2372419e-03
  4.6632729e-02
  5.2472290e-02
  3.1570472e-02
 -4.8011649e-02
  7.9993320e-01
  4.4795563e-03
  3.2481670e-02
  1.1517128e-01
 -7.5194505e-03
  2.0643752e-02
 -6.5992944e-02
  4.0948484e-02
 -1.5245805e-02
 -4.5860405e-03
  1.6610621e-02
 -1.3746093e-02
 -9.8974928e-02
  7.0686668e-02
  2.2256861e-02
  4.2353701e-02
  1.5373225e-02
 -5.9134740e-02
  8.4521294e-02
 -3.1201711e-01
 -2.4060751e-03
  3.1443644e-02
  1.1813075e-01
  1.0231186e-02
  8.6125873e-02
  2.8943723e-02
  4.2039499e-02
 -1.1754962e-02
 -9.0473015e-03
  1.2740216e-02
 -1.2400132e-02
  2.7575932e-02
 -3.3071633e-02
  6.9772169e-02
 -1.0617293e-01
  7.8551825e-03
  3.3427102e-03
  2.5378896e-02
  3.3515386e-02
 -2.0267360e-02
  9.4098998e-03
  4.4395357e-02
 -7.3424406e-02
 -3.3408705e-02
 -1.4238243e-02
  3.9306901e-02
 -1.0767644e-02
  3.2724341e-04
 -1.3691348e-02
 -2.0648672e-01
  7.6321833e-02
 -8.4649280e-02
 -5.6557775e-02
  2.9486650e-01
  1.2852099e-02
  9.7252384e-02
 -6.5171919e-03
 -4.2796023e-02
  1.0247820e-01
 -7.2408162e-02
 -8.7770969e-03
 -1.3282560e-01
  6.6699579e-02
 -1.0514049e-02
 -1.5794497e-02
 -2.8743636e-02
  9.4078980e-02
  1.6857041e-02
  9.6523724e-03
  7.0840105e-02
  1.2453417e-02
  2.1149909e-02
 -9.4038500e-03
 -5.1588076e-03
  1.2183154e-03
 -1.0369203e-01
  4.2298634e-02
 -3.1553734e-02
  7.0073202e-02
  2.1357933e-01
 -1.0875010e-01
 -1.0363036e-02
  3.0693619e-02
 -2.1243633e-03
 -1.0249881e-01
 -3.4802891e-02
 -5.1696488e-04
 -1.2272858e-02
 -1.7243007e-02
 -1.1034856e-02
  5.1953916e-02
  1.0161617e-01
  2.2560645e-02
 -3.5863784e-01
 -1.5180612e-01
  2.6300505e-02
 -3.4601461e-02
  4.0849842e-02
 -1.4234932e-02
 -4.7794513e-02
  5.4900341e-02
  1.9137146e-02
 -3.8338929e-02
  1.1679945e-02
 -3.1540532e-02
  2.4205643e-01
  4.0751216e-03
 -4.9705431e-03
  2.7324243e-02
  6.5387331e-02
  6.4188205e-02
 -5.7824783e-02
  9.3187820e-03
  1.7771600e-01
  1.0289837e-01
  3.0057417e-02
 -1.3858540e-02
 -8.4554881e-02
  2.9252681e-01
  1.1579113e-02
 -2.7957454e-02
 -1.6934954e-01
  1.4529409e-01
  1.1841761e-02
 -3.1413463e-01
 -4.0011755e-01
  1.0973214e-01
  2.2064520e-02
  1.5356864e-02
 -3.6932462e-01
 -3.1074310e-02
  3.9778344e-04
 -4.7945231e-02
  5.9389257e-01
  5.1744105e-03
  1.2545860e-02
 -4.3139163e-02
  1.1470250e-02
 -2.4623888e-02
  1.0214183e-02
 -1.0062605e-01
  1.4241480e-02
  1.0426103e-02
  3.2428762e-01
  1.8152010e-01
 -1.5036209e-01
  4.7224641e-01
  2.4345627e-01
  4.2172700e-02
  4.0408932e-02
  3.2317188e-02
  1.8104790e-02
  8.2567602e-02
 -9.4940905e-03
  1.9814972e-02
  4.7394508e-01
 -8.2909968e-03
 -6.3499376e-02
 -4.3139495e-02
 -1.2236068e-01
  2.6562061e-02
 -7.7524753e-03
  8.0291979e-02
  4.0010940e-02
  3.2236256e-02
 -6.0512707e-02
 -1.0778160e-01
 -8.3263308e-02
 -5.8690854e-03
  2.4051240e-02
 -1.1237852e-01
 -3.1012533e-02
 -1.6024058e-01
 -8.8779569e-02
  3.0725237e-03
  3.1808991e-02
 -6.3546687e-02
 -2.5146035e-02
 -1.7865275e-03
 -5.4909118e-02
 -4.4681393e-03
  1.7918551e-02
  2.3005622e-02
 -1.2660170e-01
 -5.3880148e-02
 -6.8137380e-03
  1.4066839e-03
  9.0493765e-03
 -2.8345315e-02
  7.2879326e-03
 -7.0374846e-02
 -6.8058677e-02
 -5.0248802e-03
  1.2987511e-01
 -9.5665351e-02
  4.3542270e-02
 -2.2551246e-02
 -1.5306387e-02
 -3.3249304e-02
  1.4970985e-01
 -2.8758656e-02
 -2.4623366e-03
  1.4708482e-01
 -1.8418537e-02
  1.2716627e-01
  3.2112692e-02
 -1.2239047e-01
  4.2401310e-03
  6.9471247e-02
  1.7520565e-01
  5.4049175e-02
  2.7079038e-02
  8.9692371e-03
  3.4067966e-02
  6.1927959e-03
  2.6401974e-02
  1.2121521e-01
  1.9611947e-01
 -4.7862250e-02
 -7.4677788e-05
  3.2968227e-02
  5.4490659e-02
 -3.5422556e-02
 -8.1896437e-03
 -1.1435317e-02
 -4.8554335e-02
 -1.3343965e-02
 -1.5013072e-01
 -1.3213710e-02
 -4.8010558e-02
 -1.4504732e-03
 -1.9793130e-02
  1.1385795e-02
 -3.1366116e-01
  7.3808543e-02
  2.0356881e-02
  1.4195045e-02
 -2.0073080e-03
  3.6953915e-02
  6.3527179e-01
 -1.0948615e-02
 -1.1105632e-02
  5.6204069e-01
 -4.1116322e-03
 -3.4097183e-01
 -3.0895310e-02
 -4.0249716e-02
  2.7123209e-02
  2.2881742e-01
 -5.0717406e-02
 -5.2372925e-02
 -3.0021802e-02
 -2.0977941e-01
 -2.9101700e-01
  2.9266065e-01
  7.7920146e-03
 -7.5544015e-02
  3.5838474e-02
 -4.8388194e-02
  9.9369027e-03
 -7.3859550e-02
  1.0748001e-01
  3.2846633e-02
  7.0108151e-01
 -4.8552919e-02
  1.2129905e+00
  1.0492544e+00
 -5.6308025e-01
  2.8519121e-01
 -4.3760011e-01
  1.3349363e-01
 -1.5252206e-02
 -1.1425010e+00
  1.7068073e-03
 -2.2337582e-02
 -2.6174380e-02
 -1.1921481e-01
 -1.5086230e-02
  1.3170177e+00
 -2.1034304e-02
  1.9317913e-03
 -1.7891774e-02
 -1.2821450e-02
  1.9077579e+00
  2.0529628e+00
  4.2098556e-03
 -3.2402426e-02
  4.3186337e-02
  5.4337239e-01
 -6.1814316e-02
 -2.2623394e-01
  1.1002431e+00
  5.6153333e-01
  2.2385018e-02
 -7.3842585e-01
 -1.3281490e-01
 -9.4685942e-01
  2.5219634e-01
 -9.7744927e-02
  3.2996526e-01
 -7.0715852e-02
  5.8075815e-01
 -5.9068543e-01
  2.1000375e-01
 -1.6445267e+00
 -1.3580514e+00
 -2.5637367e-01
  2.8748240e-02
 -4.0143755e-01
 -1.4836282e-02
  2.6683536e-01
 -4.5142221e-01
  2.6314944e-01
 -1.1568321e+00
  2.7015346e-01
 -2.8417319e-01
 -1.7190039e-01
  4.2448473e-01
 -1.6424838e-01
 -3.2565275e-01
  6.3124346e-04
  1.0621616e-02
 -2.4396169e-01
  5.9015965e-01
  1.4518976e-02
  2.1820530e-01
 -1.0688760e+00
 -5.8781618e-01
 -5.3366078e-03
 -2.0802644e-01
 -3.3749622e-01
 -1.6504823e-01
 -1.0984603e-01
 -2.5611457e-01
  2.9429279e-02
  4.8757507e-04
  1.0745722e-01
  4.6080905e-01
 -5.8823735e-01
  6.8476973e-03
 -2.1151081e-01
 -5.9792733e-01
 -5.0918561e-01
  1.1432061e-01
  1.7410167e-01
 -1.8143205e-01
 -7.4786946e-02
 -4.1966790e-01
  6.7435628e-01
 -3.9382598e-01
 -1.0996678e-02
 -1.2687045e-02
 -7.8410760e-02
  2.2272313e-02
  6.7095980e-02
 -4.8237804e-02
 -1.9122101e-02
 -1.7527720e-02
  6.1712001e-02
  6.4285606e-01
 -7.3571905e-02
 -8.4423751e-01
 -1.5107645e-01
  2.8113585e-02
 -1.0878754e-01
  2.1355963e-01
 -4.4424835e-01
  2.4370156e-01
 -5.6424558e-01
  3.3896345e-01
 -2.3557967e-01
 -5.9094578e-01
 -6.2055822e-02
 -2.4050724e-02
 -7.6881093e-01
 -3.1155467e-01
  3.8548881e-01
  1.4716176e-02
  3.6214244e-02
 -2.2654355e-01
 -3.8134506e-01
 -9.3991685e-01
 -9.5966989e-01
 -1.4773349e+00
 -2.3700548e-02
 -1.2046459e+00
  4.7605965e-02
  1.3706720e-02
 -3.0131814e-01
 -2.7321044e-01
 -2.7323391e-02
 -3.4124786e-01
  1.1674013e-01
 -1.2158412e+00
  7.3584951e-02
  2.4295736e-02
 -1.3168101e+00
 -8.3169961e-01
  4.2730993e-01
 -1.4338334e-01
 -3.8123444e-01
 -3.2184678e-01
 -3.5353962e-01
  4.2704504e-02
 -3.4684947e-01
  2.0935716e-01
 -3.1158755e-02
  3.8484953e-02
 -6.3331157e-02
 -7.6739914e-03
 -2.6346883e-01
  1.1974534e-02
  1.2256756e-01
  1.4611204e-01
 -8.0019623e-02
 -8.3721542e-01
  2.3156907e-02
  1.4641113e-02
  5.4744324e-03
  2.3190145e-01
  7.3736534e-02
 -6.7691892e-02
  8.6525217e-02
 -1.8441346e-02
  3.9138254e-02
 -9.4001627e-01
  6.1375666e-02
  6.1862200e-01
  3.3587092e-01
 -1.4548354e-02
 -2.1617734e-01
 -1.4640668e-01
  1.1596666e-01
 -1.4539523e-01
  2.1480972e-01
  1.6633502e-01
 -6.6484824e-02
  2.5768075e-02
 -5.9954938e-03
 -1.4240661e-03
  6.4902920e-03
  2.9138548e-02
 -2.5412606e-02
 -3.7711769e-02
 -1.0536831e-01
  5.9964681e-01
 -2.5872114e-01
  5.5225313e-01
  5.4283660e-02
  3.1592850e-02
 -3.0319786e-02
  1.4194424e-01
  3.5739478e-02
 -4.1514043e-02
  2.4878921e-02
 -2.7866122e-01
 -7.0345611e-03
 -3.2020431e-02
  1.9799005e-03
  8.2563818e-02
 -2.1820931e-01
  1.4851183e-02
  8.9704478e-03
  9.4535694e-02
 -2.4284992e-02
  5.8873924e-03
  7.9630744e-03
  1.5129824e-02
  5.5178595e-01
  1.3409551e+00
  8.0275811e-02
 -6.6926762e-02
  1.0115472e-01
  2.4056730e-01
 -1.3530241e-01
  1.9809432e-01
 -3.6783807e-02
 -1.6859575e-01
 -6.5759026e-02
 -6.8047843e-03
  9.1924310e-02
 -8.6012082e-03
  1.5121648e-01
 -4.0606346e-02
 -2.1151910e-02
 -7.8350805e-02
  1.8902440e-02
  2.8495168e-02
 -1.3808551e-01
 -3.9918095e-02
  4.7242425e-02
 -1.1751046e+00
  2.0401511e-01
  5.6261116e-01
  9.3180919e-03
 -2.2439957e-01
  1.8822469e-01
 -3.8524184e-01
  3.7650964e-01
  4.0387419e-01
  2.6054218e-01
 -6.3196480e-01
  3.2735342e-01
 -3.9635509e-02
  3.6893731e-01
  7.8370590e-03
  1.5925480e-01
 -6.8071038e-02
  4.2500420e-04
  2.0386647e-02
  4.1507164e-01
  7.7318219e-03
  1.5084429e-01
 -3.2569212e-01
  1.2665800e-02
 -1.6461627e+00
 -5.5061977e-02
 -1.6712932e-02
  9.2420943e-02
 -2.5569907e-01
 -1.2286248e+00
  4.4175482e-01
 -6.1586849e-02
  6.1759019e-01
  1.0428153e+00
  4.9558908e-02
  2.8831078e-02
  1.6692966e-01
  1.1863833e-01
 -4.9356561e-02
  1.5995065e-02
 -1.7294799e-01
  1.5961896e-01
  4.8751716e-02
  3.2791200e-01
  3.4660923e-01
  1.2236607e-02
  6.1347777e-01
  4.2448077e-01
  5.5050172e-02
 -1.9601829e-01
  7.8893304e-03
 -1.5476360e+00
  2.8955245e-01
  2.1063866e-01
  2.7538761e-01
 -2.5641812e-02
  4.7581203e-02
 -3.6048335e-01
 -5.8656368e-02
 -1.8246837e-01
  2.4027230e-02
  1.1753339e-01
 -2.6058273e-02
  1.9894284e-01
 -1.8456038e-03
  1.1292481e-02
 -6.3405603e-01
 -3.3981215e-02
  1.2918824e+00
 -3.9257091e-01
  2.0333366e+00
  1.4253426e+00
  5.5353725e-01
  6.8953693e-01
  1.4727631e+00
  1.6110362e-02
  1.7134745e-01
  7.0562124e-01
 -3.9501145e-02
  1.1825308e+00
  4.5484442e-02
 -1.3120471e-01
 -8.0586463e-02
  1.0599607e-01
 -5.3241920e-01
 -5.5706851e-02
 -1.0940878e+00
  5.7835555e-01
  6.6484004e-02
  4.3206990e-02
 -1.3961306e+00
 -8.9107081e-02
 -2.0545466e-01
 -1.6326921e-01
  1.5695034e-01
 -1.2148832e+00
  9.9951428e-01
 -1.8412655e-02
  5.2549863e-01
  7.7545691e-01
 -4.8156146e-02
  2.1833348e-01
 -2.9408488e-01
 -3.1784540e-01
 -8.5460252e-01
 -3.2837689e-01
 -6.8232322e-01
  6.0937303e-01
 -5.6271535e-01
  1.3015506e+00
  5.3678375e-01
  2.4899121e-03
 -8.9914763e-01
  5.8097165e-02
 -1.2753576e-01
  6.2349088e-02
 -2.4215825e-01
 -3.4918517e-01
  8.7435417e-02
 -2.8396107e-02
  1.6790056e-01
 -3.5337675e-01
 -9.8226555e-02
 -5.7540119e-02
 -6.6599339e-02
  1.3347585e-01
  1.5343933e-01
 -8.4337341e-03
 -3.1183597e-02
  2.5610325e-01
  4.0665157e-02
  2.2830574e-02
 -4.1648671e-02
  1.4219887e-02
 -4.0864836e-02
  5.0011259e-03
 -3.0657067e-03
 -2.5665209e-02
  5.4935545e-02
  5.4157893e-03
 -1.5370407e-02
  2.5335816e-03
 -1.1697643e-02
 -2.1769463e-03
 -7.6332097e-03
  5.1289063e-02
  3.7785135e-02
  3.9930761e-02
  1.4589393e-01
 -2.8260842e-02
 -2.2027537e-02
 -5.9403796e-03
  4.0444978e-02
  2.5642982e-02
  1.1992506e-02
  5.0055370e-02
 -8.2499325e-02
  1.4687374e-01
  1.6501409e-01
  1.3756049e-02
 -1.0068501e-02
 -4.1582491e-02
  5.9128150e-02
  3.7652474e-02
  4.5602530e-02
  6.4569689e-02
 -2.4232622e-03
  1.8617551e-01
 -2.9101739e-02
  5.7422131e-02
 -7.5586997e-02
 -3.5907600e-02
 -7.9786871e-04
 -8.0980279e-02
 -2.0879935e-03
 -4.9277127e-02
  3.5608627e-02
  5.7655461e-02
 -6.2062986e-02
 -2.2126941e-02
 -3.2376282e-02
 -8.7546092e-04
  3.5764775e-03
 -2.8192545e-03
  2.0753314e-01
  2.6106583e-02
 -2.0201395e-03
  3.0609465e-03
  5.1831648e-02
  3.6523081e-02
 -3.1239668e-02
  2.6196238e-02
 -1.1895849e-02
 -1.8707039e-03
  1.8479250e-02
 -1.1763543e-01
  1.4677113e-02
  2.4858294e-01
  1.1938519e-02
 -5.3350370e-02
  8.7357797e-03
  7.7013001e-02
 -1.4962477e-02
 -8.1044652e-02
 -3.5067197e-02
 -1.6793845e-02
  1.9165637e-02
 -5.4387902e-03
 -2.1820195e-04
 -1.9122189e-03
 -4.1828942e-02
  4.3383088e-02
  3.8264431e-02
  9.8324664e-02
  2.6135918e-04
 -9.3410873e-01
  8.7373964e-02
 -1.9280531e-01
  1.8238561e-01
  5.7071950e-03
  7.8824542e-02
 -6.7304894e-02
 -1.6340243e-02
  2.9920015e-01
  8.9028273e-03
  5.0474443e-03
 -7.7171912e-03
  6.5109506e-02
 -3.7983406e-04
  5.1619350e-03
  1.9894455e-02
  7.0420049e-02
  1.2318985e-01
  3.8654100e-02
  9.7824046e-03
  7.7147976e-02
  7.1378872e-02
 -1.6771731e-01
 -3.5383023e-02
  4.2995632e-02
  3.5212778e-02
  1.5402002e-02
  2.3039129e-01
  5.2094813e-02
  9.6346699e-02
  9.0709161e-03
  4.6982829e-02
  3.7263064e-03
  5.8437061e-02
 -1.3512498e-02
  4.9329381e-02
 -5.9774335e-02
 -1.0850352e-02
  1.6250991e-03
  6.1914407e-02
 -9.9042594e-02
 -8.9818668e-03
  2.7233398e-02
  2.1443523e-02
 -5.3278558e-02
  5.9216652e-02
 -6.6324905e-02
 -6.0701123e-03
 -4.4029560e-02
  6.3752756e-02
 -6.4524042e-04
  4.1560490e-02
  3.9821390e-02
 -3.3654343e-02
 -2.1738829e-02
  1.2542300e-02
  1.5191539e-02
  2.5042002e-03
 -2.4761496e-02
 -1.3668267e-02
 -2.2504736e-02
  2.2781983e-02
 -1.4177017e-02
 -3.3144612e-02
 -3.2357130e-02
 -1.2539972e-02
 -4.0464789e-01
  2.6013225e-02
 -8.9244753e-02
  7.0508793e-02
  4.7178732e-04
  5.4610912e-02
 -5.2296452e-02
 -2.2804415e-01
  1.5064897e-02
 -6.0942899e-03
  4.1919176e-02
  3.4389675e-02
  6.2643699e-02
 -7.8093775e-02
 -4.0013302e-02
  4.1479405e-02
  6.1476689e-02
  6.8391889e-02
 -6.2505774e-02
  7.9741944e-03
  3.9881453e-02
  4.2543873e-02
  1.7292755e-02
 -1.9033609e-02
 -1.1741735e-01
  1.0032423e-01
 -9.5134474e-02
 -2.7113713e-02
 -2.6351698e-03
 -1.3820194e-03
  4.7590904e-02
  6.0025372e-02
  2.5979258e-02
 -3.9295409e-02
  3.2895848e-01
 -5.0417338e-03
 -4.3272022e-02
 -1.4981050e-02
  1.8225948e-03
  3.2204814e-02
 -7.1497388e-02
 -3.0858278e-02
  1.3783496e-02
  5.0457926e-03
 -1.2166568e-01
  8.5328422e-02
  2.9616812e-02
  2.0197695e-02
  1.2240290e-03
 -2.4864018e-01
 -3.3071604e-02
  4.9427111e-02
 -1.9006006e-02
  5.0569912e-03
 -5.5097505e-02
 -1.5138656e-04
  7.1653970e-02
 -5.4890264e-02
 -3.3041022e-03
 -5.1388487e-02
  1.4500087e-01
  5.7114761e-02
  1.5076788e-03
 -2.3469776e-02
  4.0990595e-02
 -9.9782489e-02
  4.5036700e-02
  5.1062286e-02
 -5.9381116e-02
  9.0595067e-02
  3.5566527e-03
  6.6353731e-02
  3.2074180e-02
  4.1134346e-02
  2.1673040e-01
 -3.9290171e-02
 -6.7409212e-03
 -4.0404916e-02
  1.1244442e-01
 -5.1360756e-02
 -1.1863756e-01
 -4.3358903e-02
 -4.8691362e-02
  2.8803924e-02
 -4.6861833e-03
  1.4226811e-01
  2.9619981e-02
  2.5190560e-02
  1.8752666e-02
  3.0477930e-02
 -8.8951781e-02
 -1.3695359e-01
 -1.1454643e-01
 -7.3012128e-02
 -3.2982954e-03
  8.2065694e-02
 -6.5585308e-02
  6.9362380e-02
  2.9371275e-02
 -6.2111415e-02
 -2.2762613e-03
 -1.2211188e-01
 -9.4999954e-02
  3.1937331e-02
  2.3522250e-01
  1.4067759e-01
 -1.3551600e-01
 -1.5693652e-02
 -3.0080419e-02
 -1.2977700e-01
 -9.9904807e-03
  6.8045832e-02
 -3.2010116e-02
 -5.6962777e-02
  2.9857093e-02
  9.8554958e-03
  4.9669087e-01
  1.3126162e-02
 -1.5532312e-01
 -2.7341503e-01
 -4.8024780e-01
 -4.7721267e-02
  6.2526898e-03
 -5.6922615e-02
 -4.5451757e-02
  1.0446230e-02
  4.7719058e-01
  2.0212904e-01
  4.3174925e-01
 -1.4390468e-02
  7.8243487e-02
 -4.7560189e-02
  9.7187292e-03
  7.0362616e-01
 -1.9499573e-01
  1.5359838e+00
 -1.1576200e+00
  1.9842917e-01
  1.0678500e+00
 -3.6707036e-02
 -8.3689891e-02
  3.0406832e-03
  3.3957952e-01
 -5.8265664e-03
  1.0369792e-01
 -2.5885627e-01
 -2.2389588e-01
  1.6757001e+00
  8.2687986e-01
  1.6016793e-01
  4.5510548e-01
  2.3750622e-02
  2.4563164e-01
 -9.7612449e-04
  4.4185051e-01
  2.0419043e-03
  5.8212273e-02
  2.0624191e-01
  2.2299053e-02
  7.9672986e-01
  3.1294101e-01
 -4.6339932e-01
  4.1680001e-02
  1.9600914e-01
  5.4428671e-02
  3.6907539e-02
  7.6995307e-01
 -1.7781490e-02
  1.7199372e-01
 -4.0826645e-02
 -2.5032023e-03
  5.6741655e-02
 -3.8772892e-02
  6.8109562e-03
  2.1365264e-02
  4.4862449e-02
 -1.8589955e-02
  5.4587346e-02
 -2.6588367e-02
 -6.9403432e-02
  2.8069180e-02
 -7.5056750e-01
 -9.2826295e-01
  3.4873519e-02
 -1.5798073e-01
  1.5413063e+00
 -5.8475888e-01
  1.6735701e-01
  1.9644362e-01
  8.4980048e-02
  7.6418713e-02
  5.7960381e-03
  7.9568815e-01
  5.0280489e-02
  1.4046997e-01
 -4.6446305e-02
  1.1143079e-02
  1.3512437e-01
 -7.2176079e-03
  7.2987095e-02
 -1.4740325e+00
  1.0162634e-01
 -1.1383554e+00
  9.3212909e-01
 -1.4274716e-03
  3.0075824e-01
 -1.9752850e-01
  6.9964854e-03
  1.0999785e-01
 -2.7318430e-01
  6.8292171e-01
 -2.8908712e-01
 -1.1573602e-01
 -1.4740657e+00
  2.1377090e-02
 -4.1061141e-02
 -7.7547586e-01
  2.9012566e-02
  2.2216404e-02
 -8.3270200e-02
 -5.0390279e-03
  6.4972347e-01
  3.9529163e-01
 -2.2277880e-02
  2.9524717e-02
 -1.5024458e-01
  8.9971982e-02
 -6.4590037e-01
 -9.5251776e-02
 -8.5797362e-02
  3.7777650e-01
 -1.2932941e-01
  5.5958096e-02
  1.3360873e-01
 -3.2969826e-01
  1.7078878e-01
  3.1417900e-01
 -1.2959376e-01
 -1.5439773e-02
 -8.9070626e-02
 -2.2392941e-01
  5.0643995e-02
 -1.2524137e-01
 -2.2684429e-02
  1.4957497e-01
 -2.2800475e-02
  2.8877875e-01
 -3.4885623e-02
  2.8081037e-02
 -1.0572718e-02
 -1.8389661e-02
 -3.4119308e-02
 -5.9190858e-02
 -3.8489822e-02
  2.2826130e-02
  1.9255618e-02
  9.5459139e-03
  5.0860289e-02
 -1.2272740e-01
 -4.6017598e-02
  1.8996324e-01
 -1.3044174e-01
  8.4194560e-03
 -1.5372840e-01
 -8.7530561e-02
 -1.7615860e-02
 -3.9932590e-02
  1.4147855e-01
 -2.6881859e-01
  6.9672868e-02
  1.8265976e-02
 -6.4928015e-03
 -1.2940194e-02
 -8.9634135e-03
 -3.6661047e-02
 -5.5470981e-02
 -3.9265484e-02
  2.4974614e-02
  1.1544108e-01
 -8.6558059e-02
 -1.0642238e-01
 -2.1942961e-03
 -1.1988406e-01
 -2.3121594e-02
  3.3638487e-03
  5.4482039e-02
  2.4589164e-02
 -1.5401628e-02
  6.0545052e-03
  4.7249161e-02
 -2.2969708e-02
  6.8823263e-02
  3.8584983e-03
 -2.0498591e-02
 -1.1050022e-02
 -3.8876876e-02
 -7.6880911e-05
 -5.9576808e-03
  2.1875670e-02
 -2.9219033e-02
  3.7607774e-01
 -1.5804546e-02
 -7.8045679e-03
 -1.3453545e-01
  1.8322101e-02
  1.5532918e-02
 -7.2988287e-02
  2.6473844e-02
  7.0741758e-02
 -6.5415710e-02
  2.9198626e-02
 -2.4782398e-03
 -5.4949811e-03
  4.3950290e-03
  3.4343813e-02
  1.1644497e-03
  6.6573292e-02
 -2.0009601e-03
  2.2840217e-02
  6.2061489e-02
 -3.1513344e-02
 -5.6819089e-02
 -2.5831828e-02
  3.6154058e-02
  3.8497426e-02
 -6.0783152e-02
 -2.0412371e-02
 -3.4610756e-02
  2.7620778e-03
  2.7140498e-02
  2.9059451e-02
  1.8854840e-01
 -3.2203674e-02
 -5.3784985e-02
  2.6326120e-02
  4.9205557e-02
 -4.8636325e-02
 -3.0756673e-01
 -9.3213663e-02
  2.5002412e-02
 -3.9645894e-03
 -9.9393860e-02
 -2.5885556e-02
  6.0322805e-04
  5.6668788e-02
  6.4953580e-02
 -5.6773089e-02
  2.0970507e-01
 -6.6758581e-03
 -6.2793992e-02
 -1.1974989e-03
 -2.3150422e-02
  3.8819835e-02
  2.3851810e-02
  1.1521617e-01
 -1.1995803e-01
  3.8726676e-02
 -4.0293839e-03
 -1.4458844e-02
 -5.9190940e-02
  4.7668591e-02
 -8.7077171e-02
  3.5799999e-02
 -2.4712257e-02
  2.6652720e-02
 -3.6211908e-02
  3.3160031e-02
  4.3719909e-03
  1.0313919e-02
  3.5545256e-03
 -6.2513769e-02
 -1.1513809e-02
  5.3665794e-02
 -3.1060386e-02
 -1.6015034e-02
  2.1535875e-02
  1.1702794e-01
 -1.4666106e-03
  5.0604466e-02
  2.1974249e-02
 -3.3613499e-02
 -1.0858452e-02
  1.6050618e-02
  3.2769229e-02
 -6.7474559e-02
  1.2733539e-02
  6.5383554e-02
  6.1153471e-02
 -4.5823328e-02
  4.5175646e-02
 -3.1902868e-02
 -3.8338460e-02
 -8.8574044e-02
  3.5001371e-02
  1.5291628e-02
 -4.4486154e-02
 -5.1612658e-03
 -8.0213286e-03
  3.0033734e-02
  7.6238543e-02
  4.8040487e-02
 -5.5644969e-03
  3.0806124e-02
 -1.0626552e-01
  1.2910413e-02
  4.5259097e-03
  4.1406681e-03
  3.2168541e-02
 -7.8337610e-02
  1.2311271e-02
  3.4419548e-02
  1.2174498e-01
 -4.3369051e-02
 -1.7227357e-02
  1.5943196e-02
 -1.0352205e-02
  2.0863954e-02
  5.6829348e-02
  1.3115073e-02
 -3.6146272e-02
 -1.4641467e-02
 -8.0127148e-03
  1.5628688e-01
  2.9208150e-02
 -9.4703230e-04
  2.7533822e-02
  7.2107813e-03
 -4.6793748e-02
 -1.3564909e-02
  5.4143708e-02
 -2.4677346e-02
 -1.4566056e-02
  2.1509446e-02
  1.0863557e-01
  1.6978201e-02
 -1.2665217e-02
  4.9592026e-02
 -1.3578403e-01
  6.0988464e-03
  3.5607245e-02
 -4.8664965e-02
 -2.0553239e-02
  4.7545587e-03
  7.7607534e-03
  1.9555919e-01
 -2.2456229e-02
 -4.1596692e-02
 -4.7082800e-02
  3.2015767e-02
 -2.0600848e-02
 -1.1330788e-01
  3.2119006e-02
 -4.8046101e-02
 -2.3541008e-03
  3.0656412e-01
 -6.4306825e-02
  1.5559891e-01
 -4.1212194e-02
  1.3858394e-01
  9.2869708e-03
 -5.7098730e-03
  3.9379213e-02
  3.7663486e-03
 -3.0788366e-02
 -2.9454151e-02
  4.8293242e-01
 -7.1229562e-03
  9.1816291e-02
 -1.1397931e-02
  1.1728061e-02
  1.1718770e-01
 -3.8674136e-03
  5.0270099e-02
 -9.5446734e-03
 -6.3871783e-03
 -4.3703504e-02
 -1.3833933e-02
  1.3522068e-01
  1.9753940e-02
  1.0827156e-02
 -1.6378043e-02
  1.4512836e-02
 -1.3911959e-02
 -1.2987319e-01
  1.5693616e-02
 -3.7312917e-02
  6.3897334e-03
 -1.7395345e-02
 -1.6407517e-01
  3.6906642e-03
  1.7689418e-02
  7.7975839e-02
  1.3064878e-02
  3.1100515e-01
 -1.0420831e-02
 -3.2475673e-02
  5.3822505e-01
 -1.2802924e-02
 -5.1835854e-02
  6.3573909e-03
  4.9607068e-02
 -1.6458619e-02
  9.9633597e-03
  1.7078974e-03
  2.6921390e-02
 -9.8755524e-02
  3.2001849e-02
  5.6053646e-02
  3.8936615e-02
  1.4015290e-01
  9.3307823e-02
  6.6442019e-01
  2.3507750e-01
 -9.7756374e-01
 -2.2223387e-03
  3.5225093e-01
 -2.2968910e+00
  6.9569319e-01
 -4.2045838e-01
 -1.0036705e-01
  2.3540837e-01
  4.5837185e-01
  1.0321755e+00
 -2.7475325e-02
  8.7348349e-02
 -1.1643205e-01
  9.9664014e-03
  4.2402502e-02
 -1.5350489e-01
 -6.2033218e-01
 -1.3110323e-01
  1.3013543e-01
 -5.1889724e-01
  1.2890654e+00
 -1.1899061e-02
  9.9182940e-01
 -3.5265765e-01
  6.8666436e-02
 -3.5618788e-01
  4.9306631e-01
 -7.7757466e-01
 -1.8873158e-01
  7.4527650e-03
 -2.7534094e-01
  8.4092712e-01
 -5.4354984e-02
 -3.6350816e-01
  5.4094024e-02
  1.7238584e-01
  3.2618701e-01
 -9.3259543e-02
 -1.8735816e-01
 -6.2159684e-02
 -2.9617190e-01
 -4.3645531e-02
  3.1853405e-01
 -6.2533855e-02
  2.2045290e-01
  1.5421093e-02
  2.0571848e-02
  1.4222049e-02
 -3.4694168e-01
 -7.5223818e-02
  4.9233632e-03
 -1.0483257e-01
  4.6859625e-01
 -1.9835822e-04
 -1.2881067e-01
 -2.9423907e-02
 -6.5090828e-02
  1.1019716e-01
 -3.8909036e-01
  1.5522683e-03
  9.2355438e-02
 -1.5421057e-01
  2.1355195e-02
 -9.0662248e-02
  3.2330683e-01
  1.0867538e+00
  1.4127544e+00
  9.4587260e-01
 -3.5296485e-02
 -3.1007221e-01
 -4.5672268e-01
 -6.1503060e-02
 -1.2234868e+00
  4.7509909e-01
 -2.9724620e-02
  3.6711711e-01
  9.0488099e-02
  7.3913032e-01
  3.1242442e-01
  3.7752355e-03
 -5.5490963e-02
 -2.6802804e-02
  1.1806224e-01
 -3.0029470e-01
  2.0733076e-01
 -8.2556927e-01
  1.1012387e+00
  5.3722002e-02
  1.0518407e-01
  1.4531849e-01
  7.3292563e-03
 -8.0786401e-01
  2.5289815e-03
 -5.7688522e-01
 -8.1209993e-01
  6.5886050e-01
 -1.1710845e-01
  4.2996308e-01
  9.3486607e-02
  4.2572123e-01
  6.0491513e-02
  1.0886137e-01
 -4.1692850e-01
 -3.3727512e-02
  1.0892399e-01
 -8.3119893e-01
  3.1931537e-01
  1.3182593e-02
  4.4539295e-02
  1.3105249e-01
  1.4984512e-01
  1.5209910e-01
  2.6339627e-04
  4.8954681e-02
 -5.6037605e-02
 -4.9373341e-01
 -4.2110983e-02
  8.9381404e-02
  1.6047834e-01
 -5.5074416e-02
 -3.4131505e-02
  2.8867640e-02
  1.6209418e-01
 -6.6037837e-04
 -1.3468219e-01
  7.4458607e-02
  8.4687102e-01
 -3.4804802e-02
 -4.4476282e-02
  2.8901150e-02
 -4.3987253e-01
 -6.4565384e-01
 -1.6717365e+00
 -4.6252710e-01
  8.2793349e-01
 -5.3506535e-01
  3.3480465e-02
 -1.4467397e+00
  3.2070708e-01
 -1.1762286e+00
 -1.6718056e-02
 -4.2111728e-01
  2.2937781e-01
 -1.0989270e-01
 -1.6135712e-01
  1.5960053e-01
  6.3614464e-01
  6.6297460e-01
 -1.0791930e+00
  4.3210515e-01
  4.1818997e-01
 -3.2508487e-01
 -7.1296819e-02
  6.7927361e-01
 -2.7429780e-01
  1.4354916e-01
  2.6655790e-01
  2.6898941e-01
 -4.0387664e-02
 -5.8301383e-01
  2.2380918e-02
 -2.9594451e-01
 -1.0465368e+00
  1.4555500e-01
  4.7258306e-01
  1.1708066e+00
  6.4249253e-03
  2.0848796e-01
 -1.4594083e+00
  5.9567320e-01
 -1.0062890e+00
 -6.4588344e-01
 -2.0969304e-01
 -5.7089144e-01
 -2.9589930e-01
  3.3150610e-02
  8.5637271e-02
 -3.2263856e-02
  7.1827173e-02
 -6.0482018e-02
  8.7666504e-02
 -2.9530057e-01
  4.4376798e-02
 -6.0307469e-02
 -6.4154220e-01
 -5.6023706e-02
  4.9908131e-01
  1.1006375e-02
 -1.8855959e-01
 -1.3168590e-02
 -9.7186454e-02
 -1.1585242e-01
  2.8460408e-02
  7.4630938e-02
  1.2987387e-01
 -2.0021197e-01
 -1.6075812e-01
  8.7296046e-02
  1.2672161e+00
  4.2921942e-01
  3.1219056e-01
 -8.5472941e-01
  3.3511214e-02
  2.4948265e-02
 -1.0916520e+00
 -4.3853214e-01
 -2.0582812e-02
  5.8841670e-01
  1.1746163e-02
 -4.8226103e-01
  7.1391687e-02
  3.4073854e-03
  2.2503106e-01
 -3.3338723e-01
  9.4350427e-02
  1.0458370e-02
  7.7962745e-03
  1.6413273e+00
 -5.6432313e-01
 -1.1148967e-02
 -7.3755063e-02
 -5.5432584e-02
  1.5330949e-01
  1.1588110e-01
 -2.2109188e-01
  7.8404397e-02
 -3.8974576e-02
 -2.1607831e-01
 -1.1067911e-01
  8.5632062e-01
 -9.7005498e-03
 -3.7885141e-01
 -3.2645531e-02
  3.9494913e-02
 -5.9854317e-02
 -2.4788034e-01
 -4.5323245e-02
 -8.1539577e-01
  9.7119845e-03
 -3.1433046e-02
 -2.7506962e-01
 -1.9260993e-02
 -2.7444884e-01
 -2.2231397e-01
 -1.3766673e-01
  1.5587303e-01
 -3.7256125e-01
 -5.4456410e-03
  1.5348266e-01
 -5.5230886e-02
 -1.7698947e-01
  7.8805886e-02
  5.1894881e-02
 -2.7782023e-02
 -3.6525644e-02
  6.7581587e-02
 -2.8147299e-02
 -3.2748960e-02
 -2.6609419e-02
  5.3772002e-02
  2.6180463e-02
 -5.7649113e-02
 -2.9981377e-02
  1.4418764e-01
 -5.7186164e-02
 -1.2565873e-03
  1.3947880e-01
  2.9507542e-02
  9.0703731e-03
  4.0960852e-02
  1.4507571e-02
  1.9579316e-02
 -1.9377230e-02
 -1.6217996e-01
 -2.5164897e-02
  5.8306032e-03
 -3.2232083e-02
  3.2349650e-02
  2.5574587e-02
 -7.4145079e-02
 -5.7723220e-02
  1.2264879e-03
 -2.0937627e-02
  6.6000476e-02
 -4.2918190e-02
 -1.0768991e-01
  1.4538461e-03
 -6.8376139e-03
  1.2334848e-02
 -1.1162990e-01
 -1.7969558e-02
 -4.9804915e-03
 -5.8792535e-02
  1.2374873e-02
  1.6069332e-02
 -1.8595122e-02
  1.5462948e-01
 -1.3546480e-01
 -9.5836945e-02
 -1.9255511e-02
 -9.1376612e-03
 -7.5375959e-02
 -1.5093050e-02
  7.8482933e-02
 -1.4142680e-02
  8.1091691e-03
  5.4971557e-02
  6.2614210e-02
  1.3402210e-02
  6.0516406e-02
 -2.3478104e-02
 -7.6549910e-02
 -3.1438664e-02
  2.5108183e-02
 -4.8094008e-02
 -1.0401390e-01
  4.5195859e-02
 -1.8943012e-02
 -5.9492578e-04
 -5.6620270e-02
 -5.1591795e-02
  3.5390370e-02
 -1.6817471e-02
  1.0256805e-02
 -3.9591204e-02
 -1.9883465e-02
  1.9542725e-01
 -1.4181442e-03
 -6.7369506e-02
  2.4221661e-02
  3.8878027e-02
 -4.3694783e-02
  1.8004226e-02
 -6.5061101e-03
  1.3949269e-03
  2.3766946e-02
  7.9829164e-02
 -2.0730717e-02
 -9.7884849e-02
 -9.2283033e-02
 -2.6936624e-02
 -4.0920824e-02
  1.5662041e-01
 -1.4159931e-01
  9.1307666e-03
  5.1522579e-02
  7.3146336e-02
  4.6225190e-02
  3.5367928e-02
  1.4727890e-02
 -2.1098932e-02
  3.8457744e-02
  3.0065512e-02
 -3.2986018e-03
  1.9060535e-02
  2.8588446e-02
 -1.7381156e-02
  1.1210790e-02
 -3.3048607e-02
  4.0632207e-02
 -3.0244596e-03
  6.7260569e-01
  1.3461140e-01
 -5.7788354e-01
 -4.4454832e-02
  1.5223907e-01
  1.6289625e-03
 -6.1418884e-02
  3.2738846e-02
  9.5093753e-03
 -3.2132566e-01
 -6.0512032e-02
  2.9367090e-03
  7.5122468e-02
  4.7807372e-03
 -7.7072154e-03
  1.6200285e-02
  1.8523104e-03
 -2.7214726e-02
  3.9789066e-02
 -1.0560207e-02
  9.1062292e-02
  5.8134822e-03
  6.0365863e-02
  3.3547261e-03
  9.4245384e-03
  9.1398470e-02
 -4.6199482e-02
 -1.4695875e-01
  1.1192338e-02
  1.2791008e-01
 -8.9497417e-03
  2.4639179e-01
 -7.3486811e-04
 -8.4697053e-02
  5.8785611e-01
 -2.8801614e-01
  3.9523587e-01
 -4.2645255e-01
  7.6702368e-01
 -5.3986973e-01
 -9.0827602e-01
  3.5910763e-02
 -6.1570901e-01
 -2.8261620e-01
  1.7974063e+00
  1.0306143e-01
  1.1517408e+00
  5.6520599e-01
 -5.9292551e-02
 -2.4131153e-02
 -1.4367120e-01
 -1.2174267e-02
 -5.6996906e-01
  3.4397885e-01
  4.0542915e-01
  2.6956356e-01
  3.7853789e-02
 -1.3563952e-01
  9.0938464e-02
  2.8794279e-02
 -2.8602341e-01
  2.9487520e-01
  8.4107226e-01
  3.0766356e-01
  1.2734672e-01
 -5.6256498e-03
  1.1846620e+00
  2.7003046e-02
  8.4048945e-01
 -1.0348958e-01
 -6.6706665e-02
 -3.5743070e-01
  3.0893251e-01
  9.0853177e-02
 -5.2337646e-01
  1.6420625e-01
  4.5430243e-01
  2.9682833e-01
 -6.7766644e-02
  1.4061716e-01
  8.5092575e-04
  3.2214858e-03
 -3.8520776e-02
  8.5207606e-03
 -9.3184458e-03
  2.5464265e-02
 -4.1018408e-02
  5.3558499e-01
 -5.5132300e-01
  2.0178233e-03
  1.9367611e-01
  1.4370242e-01
  2.2030033e-02
  1.5927191e-01
  1.7085128e-01
 -4.4403127e-01
  4.5764271e-02
  4.7467584e-03
  2.5157037e-01
  1.5820704e-01
  1.1657326e-02
  4.4719152e-02
 -1.5949149e-02
 -3.9161585e-02
  2.8272686e-03
 -2.8444284e-03
  1.8358756e-02
 -4.1403465e-02
  1.2557928e-02
  1.9358234e-02
 -2.6286308e-02
  1.3754124e-02
 -1.3383133e-02
  8.4333587e-03
  3.0065969e-02
 -5.1246040e-02
  3.0246723e-02
  2.1619150e-02
 -2.5342314e-02
  5.0554287e-02
  3.7821431e-02
  1.0814327e-02
  1.3531692e-02
  4.1297566e-02
 -1.1673068e-03
 -1.6437976e-02
 -7.5515330e-02
  1.4210894e-02
 -6.0413806e-03
  1.3807301e-02
  7.8073129e-02
  3.2531366e-02
 -8.2784802e-02
 -5.4240357e-02
  1.0562683e-02
 -4.9101762e-03
 -9.3683852e-03
  3.8131554e-02
  1.5104094e-03
 -1.3027428e-02
 -1.3572873e-02
  8.2690291e-02
 -5.5571232e-02
 -8.4538534e-02
  1.1196448e-02
  3.7226737e-02
  1.0439601e-02
 -1.0347482e-01
  5.4737240e-02
 -9.2622310e-02
 -2.2268895e-02
  1.1148924e-01
  3.0749265e-02
  1.1894832e-01
  3.7940972e-02
  3.4214703e-03
  1.1433746e+00
  2.4429312e-02
 -1.0331015e-01
 -2.6551677e-02
  4.0737856e-02
 -7.7626824e-02
 -5.2968718e-02
 -1.6016157e-01
 -4.2176500e-02
 -5.0365388e-02
  3.1338283e-03
  4.1143719e-02
 -5.7813160e-02
  3.5264916e-04
 -2.6877415e-03
  1.6410969e-02
 -1.4587324e-02
 -5.4615881e-02
 -4.0175255e-02
 -6.8615228e-02
 -2.9752377e-02
  6.4676613e-02
  7.0186913e-02
 -4.7605034e-02
 -2.0847922e-02
 -1.0911766e-01
 -5.3724252e-02
  4.2846352e-02
 -1.0993436e-01
  3.7888573e-03
  2.2604652e-02
 -2.2540579e-02
 -1.6839029e-02
  1.7595717e-01
  2.8442381e-02
 -7.5402759e-02
  2.1139018e-03
  2.9179372e-03
 -1.2429166e-01
 -5.9143580e-02
  2.8740048e-02
  6.9549540e-03
  2.3715485e-02
 -2.6835944e-03
  8.5301526e-02
 -2.1460555e-02
 -3.8535871e-02
 -1.1269456e-02
 -1.3877737e-02
 -9.3322098e-02
  5.6860972e-02
  1.5455665e-02
 -3.0383652e-02
 -5.7361382e-03
 -6.4180478e-02
 -1.7258815e-02
 -1.9183904e-02
 -2.9666891e-02
  1.7920401e-02
 -1.6801089e-02
 -1.2116861e-01
 -2.2197098e-02
  8.9759436e-03
 -3.8276352e-02
 -1.5154012e-02
 -2.0564198e-02
  1.2275918e-01
  8.8726524e-03
 -2.0211402e-02
 -5.5758338e-02
 -3.4381860e-01
 -6.2689029e-02
 -6.2184211e-02
 -7.3080152e-02
 -9.6625574e-02
  1.5605804e-01
 -6.9178499e-02
 -2.7046271e-02
 -1.4119862e-02
  4.2641103e-02
  2.5293287e-02
  1.4660037e-01
  2.1382255e-02
  5.7928979e-02
  4.6407368e-02
 -3.4251567e-03
  8.4496075e-03
  3.1889390e-02
  2.5126437e-02
  1.2945768e-01
  9.2395544e-03
  9.3241848e-02
 -1.6843358e-02
 -3.4968618e-02
  8.8588288e-03
 -5.2048530e-02
  2.7356711e-03
 -5.4050185e-02
 -3.7297707e-02
  3.0629408e-02
 -1.3363929e-02
  4.3138687e-02
 -2.3618117e-02
 -8.2419150e-02
 -4.6212953e-02
 -3.8416322e-02
  3.8402539e-03
 -1.6141299e-02
 -1.7725378e-01
 -4.2496648e-02
  1.6362755e-02
  1.5362851e-02
  4.0853947e-02
  6.0962238e-03
 -2.8188862e-02
  4.8509799e-02
  7.3699415e-02
 -1.2182508e-01
  2.6379107e-02
  8.8839149e-03
  1.8622445e-02
  1.5399056e-02
  4.0517218e-02
  1.8653783e-01
 -9.3969017e-02
 -4.5201790e-02
 -8.9126080e-02
  6.5010421e-02
 -6.4209481e-03
  9.1436565e-02
 -1.3195816e-01
 -1.8290818e-02
  4.3092421e-03
  3.4840915e-02
  1.2677859e-01
  1.2185564e-02
 -5.1790156e-04
 -3.5413112e-02
  9.8558187e-02
  2.3755655e-02
 -1.5851045e-02
 -1.0116830e-02
  2.9162291e-01
 -4.0317480e-02
 -1.9873491e-02
  6.6059022e-03
  7.0757806e-02
 -5.8337778e-02
  2.3926120e-02
  5.3699959e-02
  1.3863191e-02
 -8.3135627e-02
  9.1682673e-02
  2.2083491e-03
 -1.2334722e-01
  8.3520591e-02
  1.1789164e-01
  3.9391797e-02
  4.8173983e-03
  6.9555536e-02
 -8.3549440e-02
  3.6977679e-01
 -2.0124649e-01
 -2.8763154e-01
 -3.8898937e-02
 -4.7004707e-02
 -1.3439815e-01
  2.1799838e-02
  1.5058176e-02
 -1.4491403e-02
 -4.3009795e-02
 -4.6504613e-02
 -4.0641028e-02
  2.5626572e-02
 -1.0030525e-01
 -3.4326264e-03
  1.4089987e-02
  1.7974636e-02
  3.4040391e-02
  1.6702937e-02
  3.5043448e-04
 -2.5319854e-02
  5.5991173e-02
  8.9641750e-02
  1.9164801e-02
 -2.7733716e-01
 -2.4548374e-02
  1.5928131e-02
  2.3940645e-02
  1.0700519e-01
 -1.1878505e-01
 -1.7673267e-01
  4.2255882e-02
  3.0300805e-02
  3.1867445e-02
 -4.9532647e-03
  1.6612371e-02
  3.0540027e-02
  1.2894674e-02
  2.1544607e-02
  1.2776901e-02
 -1.4436825e-01
  3.4105908e-02
 -2.1486196e-03
 -8.3972506e-02
 -1.3681331e-02
 -4.5816071e-02
  1.3500113e-02
  3.0300064e-02
  1.5698663e-03
  8.4267981e-02
  4.1740160e-03
  1.1881991e-01
  2.7339434e-02
 -2.6816331e-02
 -1.2934265e-03
  1.9027719e-02
  1.3841342e-02
 -4.9754202e-02
 -8.7422483e-02
  3.9920568e-02
  1.3408452e-01
  7.8517094e-02
 -3.8568042e-02
  1.0196804e+00
  3.0792290e-03
  6.4083211e-02
 -5.9672692e-03
  2.8741653e-03
  1.6727502e-02
  1.2473426e-02
  8.7928325e-02
  1.0583488e-02
 -1.2564403e-03
  3.8381603e-02
 -1.7548271e-02
  8.8271871e-03
  9.1266677e-02
  4.3037884e-02
 -1.9163581e-02
 -3.9092779e-02
 -2.7766284e-02
  6.8190850e-02
  6.5369583e-03
  1.0580213e-01
 -2.9295478e-02
  4.3213956e-02
 -3.6707215e-02
 -7.1348478e-03
  1.4649201e-03
  1.8464578e-02
  1.7510833e-02
  2.3415487e-02
 -4.4335894e-02
  1.1944807e-02
 -1.1253142e-02
 -8.1374031e-03
 -1.1293712e-02
  2.0199846e-02
  7.3723108e-02
  1.9501554e-02
 -6.8577938e-02
  7.2375722e-02
  4.4299301e-02
  1.0366692e-01
 -7.0247672e-02
  3.8281731e-02
 -5.8799170e-02
 -1.9827375e-02
 -3.2890335e-02
  1.3536688e-02
 -6.2440060e-02
 -6.9936156e-02
 -2.2523455e-01
 -6.7205327e-03
  3.9181251e-02
 -3.7834749e-02
 -5.9296809e-02
 -9.6581429e-02
  4.2041533e-02
  1.1643867e-02
 -6.3424289e-01
  4.5845884e-01
 -5.7254273e-01
 -1.3974564e+00
 -1.6313152e-02
 -1.2573690e+00
 -1.2897970e-01
 -1.7728528e-02
  1.2886460e-01
 -3.4490290e-01
  6.3694745e-01
 -1.8184464e-01
  5.7785935e-03
 -9.2999625e-01
  2.9805186e-01
  8.3594397e-03
  8.1794238e-01
 -1.0420852e-01
  1.1174379e-01
 -1.4073641e-02
 -6.7195974e-02
  2.3092960e-01
  3.4040254e-01
  1.6658489e-02
 -8.5780591e-01
 -6.6437072e-01
  9.7567841e-02
 -1.9998141e-01
  1.5922098e-01
  3.7697834e-01
  1.8732609e-02
 -9.1524079e-02
  3.5396766e-02
 -6.1352450e-02
  9.9659950e-02
  6.3127987e-02
  6.0217685e-01
 -1.6796453e-02
 -3.9259282e-01
 -1.4694615e-01
  5.1449865e-01
  4.7999187e-04
 -1.5244773e-02
  2.3371272e-01
 -1.0481279e-01
 -2.5763953e-02
  9.6014224e-04
  6.3119538e-02
  5.6925952e-02
  5.5337595e-03
 -1.2688509e-01
 -6.9851667e-02
  5.2716136e-02
  4.5359164e-02
 -7.9570323e-02
  3.3452231e-03
  9.5324321e-03
 -1.0714140e-03
 -1.3012566e-02
 -7.6339184e-03
 -1.0675492e-02
  4.2356014e-02
  5.8172341e-02
 -6.4774558e-02
 -3.6555100e-02
 -2.8060773e-02
  9.2915133e-02
  5.7101115e-03
 -2.2811091e-03
  9.9751890e-02
  1.8792193e-02
 -4.8395686e-02
 -1.2745542e-02
  8.2287729e-02
  7.7815108e-02
 -1.6218157e-02
  5.3265858e-02
 -1.5471951e-02
  5.8565718e-01
  1.1788858e-01
 -9.4691843e-02
  7.8760624e-02
  7.1093291e-02
 -7.3749140e-02
  6.8555504e-02
 -1.0471161e-02
  1.4445440e-01
 -3.1405907e-02
 -4.8451882e-02
 -6.2871754e-02
 -1.0875610e-02
  2.4373559e-03
 -5.7226256e-03
 -1.3522386e-03
  2.3705382e-02
  4.6883975e-03
 -9.8964669e-02
 -5.6535266e-02
 -1.9569071e-02
 -5.2708630e-02
 -2.9007010e-02
 -9.3267709e-02
  9.7198701e-03
 -3.9408919e-03
 -2.2502804e-02
 -1.6669082e-02
  1.3692552e-01
  5.9710514e-02
  1.1322493e-01
  2.7478177e-02
  4.5592263e-02
  7.1531232e-03
  6.4367481e-02
 -1.5759288e-01
 -5.8027375e-03
  1.8831553e-03
 -5.2044056e-02
  4.3713372e-02
 -8.5975692e-02
 -2.0091325e-02
  2.9014286e-02
 -1.9759977e-02
 -1.2608363e-02
 -3.4293160e-02
  1.1122127e+00
 -8.5974598e-01
 -2.3854399e+00
 -5.4818970e-01
  1.0701877e+00
 -1.6567721e+00
  3.6650866e-01
  5.3405672e-02
 -3.2442892e-01
  8.3590263e-01
  1.1772562e+00
 -6.4993328e-01
 -4.6164054e-01
 -1.9464941e+00
 -4.2303926e-01
  4.2282787e-01
  1.3760132e+00
  4.8581949e-01
  1.5597817e-01
  6.7558452e-03
 -3.0668971e-01
 -3.1713068e-02
 -2.0232365e+00
  1.1287218e-02
 -2.8904268e-01
 -1.0476713e+00
  1.0071844e+00
  8.9670861e-01
  2.9618236e-01
 -1.5675691e-01
  3.4627861e-01
 -5.5744481e-01
  9.7401179e-02
 -5.7885849e-01
 -1.1326925e+00
 -8.7273788e-01
  8.9156014e-01
  9.9630252e-02
 -2.5958115e-01
  8.2350791e-02
  3.4058884e-01
  3.0990851e-01
 -4.7408596e-01
 -5.4923755e-01
 -1.0542523e-02
 -1.4545318e-01
  3.5820833e-01
 -1.2788462e-02
  1.0359572e-01
 -3.2584509e-01
  2.9842314e-01
  8.9213789e-02
 -2.2085693e-03
 -5.8078873e-01
 -8.0509230e-02
 -9.4869417e-01
  9.2785627e-02
 -5.4185015e-01
 -1.0296819e-01
 -3.0444402e-02
 -3.7451363e-01
  1.8457303e-02
 -2.0659629e-01
 -2.3351204e-02
  1.7366579e-01
  4.6315141e-02
 -1.4631413e+00
 -1.0913851e+00
  6.6930556e-01
 -8.6360335e-01
  6.3784277e-01
  4.1883752e-02
 -1.3360357e-02
 -2.8901493e-02
 -6.0887489e-02
  1.4613581e+00
 -1.0894206e+00
 -6.6154855e-03
  5.9519265e-02
 -5.5834491e-02
 -1.8921353e-02
 -7.0083183e-01
 -4.0843925e-01
 -2.6925129e-01
  5.9708548e-01
  4.6120849e-03
 -4.7844443e-01
 -5.7935792e-01
  2.8429141e-02
  1.4541407e-02
  4.8079556e-03
  2.8004758e-03
  4.1397471e-02
 -4.0002009e-01
  4.5204509e-02
 -2.0716764e-01
 -1.0412778e+00
 -1.5617855e+00
  6.7733675e-01
  1.8176892e+00
 -8.8995951e-01
 -9.8960521e-04
  2.1478611e-01
  7.7316321e-02
  7.2094399e-01
  6.7498738e-01
  6.6815770e-01
  6.3918941e-02
  1.0717998e-02
 -1.2514430e-01
  2.6838556e-01
  1.7509171e+00
 -1.6210179e+00
  2.0327802e+00
  6.8703574e-01
 -4.5233136e-03
  1.7313500e-01
 -4.0292177e+00
 -1.6590463e-01
 -5.6998532e-02
 -1.4720309e-01
  2.9869962e-01
  6.7832820e-02
  7.9095936e-01
  6.2548138e-02
  1.4746727e+00
 -2.9772949e+00
  2.2315808e-02
 -3.2490026e-02
  1.4232802e-02
  4.0824521e-02
 -3.6830712e-02
 -1.0734548e-01
  8.8893741e-02
 -3.2355588e-02
  3.2062957e-01
  2.2726204e-02
  1.3369907e-02
 -5.7422421e-03
  1.2246220e-02
  1.1583316e-02
 -3.8694814e-02
  9.3066961e-02
 -7.7285850e-03
  3.3744262e-03
 -6.5193526e-02
  6.3530438e-02
  1.9610997e-02
  1.7746687e-02
  1.6622373e-03
 -5.3062212e-02
  7.4491598e-02
  2.6517754e-02
 -1.0619152e-01
  1.2374537e-03
  5.8002425e-03
 -1.8054945e-02
  7.1996115e-02
  2.2051599e-02
  5.0011616e-02
  7.2806519e-01
 -3.8869089e-01
  5.9352696e-01
 -8.6591959e-02
  9.1171721e-03
  8.7041140e-04
 -1.1416359e-02
 -3.2832451e-02
  2.0110134e-02
 -9.7709380e-02
  1.6372023e-02
  1.3930811e-01
 -2.2917116e-02
 -2.4331493e-02
  5.9746495e-03
  3.7886322e-01
 -3.5108421e-02
 -2.4873803e-03
  1.8661766e-01
 -1.8325055e-02
 -1.1981419e-01
 -3.7536331e-02
  4.6664521e-02
 -8.7181935e-03
  5.9067979e-03
  1.1505831e-01
 -3.9278656e-02
  4.8904979e-01
 -7.1596042e-03
  1.2628269e+00
 -6.9863565e-02
 -8.2786746e-02
  6.0048647e-02
 -7.3655888e-02
  6.7839868e-02
 -9.2921937e-03
 -8.4564745e-02
 -1.6051665e-01
 -8.7542392e-02
  6.5661673e-03
  6.2851412e-03
 -2.1497849e-02
  2.3127641e-01
  2.6577972e-03
 -1.7122571e-01
  7.8933358e-02
 -2.0333408e-01
  8.7064944e-02
  1.3313281e-02
  1.1991248e-02
 -4.0146656e-02
  4.0064551e-02
 -4.2172363e-03
  3.0475862e-02
  1.8515257e-02
  7.3094867e-02
  1.1244107e+00
 -2.5074288e-02
 -6.3477166e-02
  2.0312438e-02
  1.0599046e-01
 -2.0720160e-02
 -1.7416130e-01
  7.1258283e-01
 -1.0468664e+00
  1.0763977e-01
 -2.6674867e-01
 -6.8973057e-02
  7.8451738e-02
  1.8760595e-02
 -9.7548328e-03
  3.9143604e-01
  9.5498842e-01
  2.8453988e-03
 -1.3388558e-01
  2.1744363e-02
 -7.7976629e-02
  1.0223936e-01
  1.1847214e-02
  1.3566655e-01
  8.6183675e-02
  2.6202056e-01
  5.6513395e-02
  7.1684986e-02
  3.5307370e-02
  4.5029771e-02
 -5.5910069e-03
  4.1696131e-02
 -1.8018600e-02
  1.3384342e-02
