nep4_zbl 4 Li La Zr O 
zbl 1 2
cutoff 7.5 4 189 32
n_max 4 4
basis_size 8 8
l_max 4 2 1
ANN 30 0
 -8.6566303e-03
 -9.0390360e-03
 -5.1080391e-02
 -2.1481334e-01
  3.1997394e-03
 -4.3773134e-03
  6.8164240e-03
  1.2004316e-02
  1.4599253e+00
  1.2301763e-02
  9.0803355e-03
  1.1357460e-02
  9.1703655e-03
 -7.8085731e-03
  2.0630158e-02
  2.1704029e-02
  1.9030698e-02
 -1.7842155e-02
 -1.3787971e-02
  9.3823805e-02
 -1.8144827e-04
  5.9140812e-06
  1.5742929e-03
  1.1864021e-02
  1.9284473e-01
 -2.2814169e-03
 -5.3869516e-01
 -6.2165949e-03
  6.6677993e-03
 -3.7870460e-04
 -8.6524682e-03
 -8.3625205e-03
 -9.8775184e-01
  5.8262288e-03
  2.9343641e-03
 -1.8523269e-03
  8.2713868e-03
  2.6763284e-03
  7.2511216e-04
 -2.6772555e-03
  5.3498423e-01
  8.7530166e-03
 -1.2810717e-02
  1.5565490e-03
  4.7360365e-03
 -9.2449300e-03
 -1.2489237e-02
 -2.4480869e-03
 -9.2227254e-03
 -2.1322842e-03
  9.0044495e-03
 -2.1817614e-03
  1.5268314e-03
  1.1351816e-02
 -8.3793281e-04
 -6.4090486e-03
  5.9286398e-03
  3.4560850e-03
 -7.9314737e-03
  2.1560274e-03
  1.5969382e-01
 -1.6405092e-03
  1.2672589e-02
  3.3689239e-03
  2.3003311e-03
  6.9293161e-03
 -3.0828139e-03
 -2.7379068e-03
  5.2753516e-04
 -4.0392587e-03
 -2.9692717e-02
  8.0096436e-04
  2.0759895e-03
  2.0213255e-03
  4.6250722e-03
  1.0115140e-03
 -7.3016334e-01
  1.9773354e-03
  1.1377544e-04
  2.2105221e-03
 -3.0206332e-02
 -3.8570196e-03
 -1.9396606e-04
 -7.4915444e-03
  6.9081048e-03
 -6.1501074e-03
 -1.1525735e-02
  3.1387419e-03
 -5.7239975e-03
  2.0410813e-02
 -1.0371169e-03
 -4.0130164e-03
 -1.1198563e-02
  1.3597642e-02
  6.2445536e-02
 -1.4540952e-02
  1.3430257e-02
 -1.3712475e-02
 -1.2104255e-02
  1.8053334e-02
 -4.8417035e-03
 -8.5443687e-03
 -3.6264412e-02
  4.4749547e-03
  2.4742617e-03
  1.7940727e-03
 -2.2198409e-03
  1.5142155e-02
 -8.2115354e-03
  7.6289647e-03
 -8.4760580e-03
  4.4168532e-03
  3.7577827e-04
  1.8111788e-03
  5.4873861e-03
 -4.5512142e-03
  1.1857314e-02
  2.0923799e-02
 -9.1080116e-03
 -3.3930121e-03
  3.1460482e-03
  4.6849158e-03
 -2.0016574e-03
 -1.5239157e-02
  2.6418201e-03
 -2.1777914e-03
 -1.7338721e-02
 -5.6639700e-03
 -2.7723124e-04
 -3.5760633e-03
 -1.2017277e+00
 -1.9913837e-02
  2.8291363e-03
 -1.4832265e-03
 -2.4389583e-03
  5.5284775e-03
 -1.2792652e-03
  6.4272629e-03
 -2.5313252e-03
  3.2825454e-03
  9.8825060e-03
  5.9648110e-03
 -1.5684137e-02
 -1.7398261e-01
  2.5801866e-03
  2.1972856e-03
 -5.7687988e-03
 -2.4452328e-03
 -1.5639561e-03
 -3.6908191e-04
 -7.3751202e-03
  6.2025216e-04
 -2.0186007e-02
  3.1757785e-03
  2.0064714e-03
  3.8150172e-03
  1.5494520e-03
 -2.2768117e-02
  2.9741803e-02
 -4.9942883e-04
 -7.2632106e-03
 -3.9112289e-03
 -5.9398967e-03
 -1.7773544e-02
 -4.0692440e-03
 -5.4093078e-03
  1.8186092e-02
  8.1755864e-03
  2.1119611e-03
 -2.1580754e-02
 -1.5145662e-03
  1.2226121e-02
  1.3583782e-01
 -3.4665959e-03
  7.6246317e-03
  3.0721015e-01
  5.9390161e-04
 -3.1350691e-02
 -1.1996077e-01
  6.7548275e-02
 -5.0276488e-02
  1.0903088e-01
  1.0002806e-01
 -5.6358200e-02
 -2.2828445e-01
 -9.6301176e-02
  3.8829483e-02
  2.4528119e-01
  1.6834857e-02
 -5.5509490e-01
  3.7459153e-01
 -3.5004428e-01
  3.1313509e-01
 -8.5675734e-01
 -8.7390050e-02
  2.1698421e-01
 -7.1146060e-03
  1.9805594e-01
 -5.6352544e-01
 -4.4040695e-01
  1.0100803e-02
 -3.2943758e-01
 -6.0486090e-03
  2.4015671e-02
 -2.1787341e-01
  6.7025498e-03
  2.1482600e-02
 -1.2966543e-02
 -6.4928560e-03
 -1.0696071e-03
 -1.2864630e-02
  5.8044791e-03
 -6.6360232e-04
  6.6234595e-03
  5.4971729e-03
 -6.7246816e-04
 -5.5693975e-03
  5.2975896e-03
 -5.2633150e-03
 -8.0111315e-03
  6.8266625e-03
  4.7119167e-03
 -2.9899942e-04
  1.6846962e-03
 -2.0116454e-02
 -6.3432283e-03
 -1.0194853e-03
 -1.0431984e-02
 -2.4300884e-03
  1.4926214e-02
  9.4016567e-03
  5.4703437e-04
 -4.2319270e-03
 -1.5986965e-04
  3.5327794e-03
  1.7678853e-02
 -3.0062913e-03
  7.2228332e-04
  4.6130659e-05
 -2.4021845e-02
 -2.2643778e-01
 -1.3797247e-02
  3.9954134e-03
 -2.9791750e-03
  1.0430710e-03
  2.0497877e-02
 -1.6215064e-03
  6.8536997e-02
  2.5061343e-03
  5.7406356e-03
  7.6011596e-03
 -2.2316740e-01
  3.2476594e-03
 -2.7558001e-02
  8.3079180e-03
  1.4917318e+00
 -2.3287285e-02
 -7.9548929e-04
 -2.8648637e-03
  1.1581305e-02
 -5.7144444e-03
 -1.1472856e-03
 -6.6106408e-03
 -4.7271405e-03
  8.3556250e-03
  2.7503839e-03
  1.4677652e-03
 -3.0212947e-03
 -8.4930360e-03
 -3.5893609e-04
 -2.3002353e-02
 -2.1021019e-03
 -3.7098457e-03
 -3.5954202e-03
 -7.1979566e-03
  3.3947192e-02
  2.3004077e-03
  6.5816555e-04
  3.6869165e-03
 -4.9774954e-03
 -1.1249540e-03
  8.3909472e-03
  7.1764840e-03
 -9.2948973e-04
 -1.0630702e+00
  9.2533696e-03
 -6.1850431e-03
 -1.5586798e-02
  2.0930623e-03
 -1.4670418e-03
  8.9825329e-04
  1.2432785e-03
  1.7310552e-04
  7.5483522e-03
 -9.1028120e-04
  6.9134254e-03
 -5.2479766e-03
  1.0548214e-03
 -3.2423357e-03
 -1.7116437e-03
  5.6294436e-03
 -4.3180782e-02
  6.0624382e-03
 -1.3094222e-03
 -8.4530674e-03
 -1.4395831e-02
 -2.8700635e-03
  1.2146045e-02
  4.1875667e-03
 -8.7295769e-04
  3.8060343e-03
  1.1657557e-02
 -2.1076903e-03
  3.4944965e-03
 -4.4582565e-03
 -2.3608135e-01
  3.7583306e-02
  5.7007658e-01
  4.2535833e-01
 -1.1373114e-02
  6.4136153e-03
 -5.9393449e-03
 -3.1281777e-02
  1.8360421e-02
  2.1913873e-02
 -6.1771120e-03
 -2.5858702e-02
  3.7673099e-03
  4.1146101e-03
 -2.8366565e-03
 -1.2770545e-01
 -2.6925795e-02
  4.3950202e-03
 -2.4677641e-03
  1.6163279e-01
 -2.0103310e-01
 -2.4900225e-03
  3.3055898e-04
 -4.2754193e-03
  4.2414200e-02
 -3.3085814e-03
  1.3514456e-01
 -8.7913247e-03
 -3.0121848e-03
  3.1996563e-02
  2.0676726e-02
 -1.3807770e-02
 -4.8707050e-04
  1.6753983e-02
  1.0491844e-04
 -7.7981595e-03
 -1.4813123e-03
 -6.2349401e-03
  1.7680746e-02
  1.2953688e-02
  2.5430869e-02
 -2.9856549e-03
 -4.6683685e-03
 -9.5456932e-03
  1.2314735e-03
  5.6691580e-02
  2.2289602e-02
  2.3015505e-03
  1.6497159e-03
  5.8498158e-04
 -2.2234458e-03
 -1.7675777e-03
  7.5878931e-04
 -2.1492999e-02
  9.3869872e-02
  1.8000751e-03
  5.9128646e-04
 -1.1276735e-03
 -9.2511037e-03
  8.2478533e-03
 -7.4484567e-03
 -8.9865169e-03
 -2.1334738e-02
 -6.6522551e-03
  2.5309739e-04
 -4.2714518e-03
  1.7288981e-03
  1.2815453e-02
 -1.5266975e-04
 -1.0205290e-02
  1.0422237e-02
  5.7058367e-03
 -3.1512170e+00
  1.1772376e-02
 -7.0785726e-03
 -1.8633028e-04
 -1.0202083e-02
  4.5740674e-03
  1.1940027e-02
 -2.8798564e-03
 -1.5773997e-03
 -2.6199040e-03
  2.7259056e-02
  4.6872336e-04
 -2.1643249e-02
  1.0870248e-02
 -3.8816547e-03
 -4.0449579e-03
  5.8792490e-03
  1.0613920e-02
 -2.1790252e-03
  2.4923412e-03
 -1.1870209e-03
  6.6523263e-03
  4.5162790e-02
  2.5146587e-02
  5.9975043e-04
  9.2855142e-03
 -9.3408400e-04
 -6.2065576e-03
 -2.9048217e-03
  1.4680442e-02
  1.1058659e-01
  4.8573711e-03
 -4.9436261e-04
  4.9540494e-03
 -1.6844592e-03
 -2.0694253e-03
 -1.0247185e-03
 -6.7614677e-04
  9.7315060e-03
  1.0686584e-02
  6.6586308e-02
  2.6227639e-04
 -9.2271063e-03
  1.7073635e-03
  2.8921808e-03
  1.5268417e-02
 -3.6280397e-03
 -3.9399415e-03
 -8.4771384e-03
 -1.5672436e-02
  7.3896372e-04
 -1.3192241e-02
  6.9025235e-04
 -6.0568424e-03
 -2.6531403e-05
 -2.7113156e-03
  3.9076596e-03
 -6.2229905e-02
  6.1858436e-03
 -9.5745277e-01
 -9.1822296e-03
 -4.2246510e-03
  8.2315551e-03
 -1.6606324e-03
 -3.4428630e-03
  6.5549707e-01
 -9.2030013e-01
  1.4924772e-02
  1.2959959e-01
 -4.0985548e-01
 -1.0862089e-02
  7.4206066e-04
  1.8825586e-01
 -1.4987130e-01
  2.2863045e-01
  2.6804013e-02
 -3.8552922e-01
 -2.3355095e-01
 -9.0848971e-03
  1.2126782e+00
  6.3876860e-02
 -7.5815149e-02
 -1.8007250e-01
 -2.6788393e-03
  1.1542698e-02
  2.1971361e-01
 -9.1396950e-02
 -2.1380690e-01
  1.1554670e-02
 -1.3790498e-02
  1.5262404e-01
 -3.5370255e-01
 -4.7920123e-01
 -5.5200129e-04
 -2.9499581e-02
 -2.1421320e-03
  1.5569055e-02
 -1.9713770e-01
  6.4545479e-03
  1.3562237e-02
  2.5478493e-02
  2.3196312e-03
 -1.6774150e-02
 -4.9892687e-03
 -1.7011920e-01
  7.2038458e-03
 -1.7735140e+00
  9.2374124e-03
 -6.3603483e-03
 -1.0584214e-03
 -4.4942903e-03
 -3.7250330e-03
  1.1600244e-02
 -8.1324140e-03
  4.9897362e-03
 -1.4359430e-02
 -6.8390337e-03
 -7.0007564e-03
  1.8311691e-01
  7.6534050e-03
  9.7523071e-03
  5.7003358e-03
 -1.9436304e-02
  9.0454314e-03
 -3.7298489e-01
  1.7695151e-03
 -1.2317068e-02
 -1.5546837e-01
 -2.7236674e-04
  1.8538086e-02
 -3.6588210e-01
 -1.9054472e-02
  5.2022771e-04
 -1.2649765e-03
  2.1286283e-02
  1.6427722e-02
  9.2321495e-03
 -1.1476750e-03
 -1.6043131e+00
 -2.6181039e-01
  2.9423577e-01
  1.0552971e+00
 -1.4250937e-01
  2.4158552e-01
  2.0626950e-01
 -5.6612469e-02
  1.0398849e-01
  4.9985552e-01
 -4.8480913e-02
 -4.9545264e-01
 -2.0106430e-01
  7.8928620e-03
  6.2980032e-01
 -7.3898351e-01
 -8.4336378e-02
 -2.2124641e-01
  2.7731399e-05
  7.4359763e-01
 -1.4343510e+00
 -7.2560660e-03
 -4.7673878e-01
  2.8002581e-02
  6.1807734e-01
 -6.5802261e-02
  6.0526639e-02
  4.4240761e-03
 -3.2643031e-02
 -5.9436709e-02
 -4.2626616e-03
 -1.2006905e-02
  8.4734671e-03
  1.2644901e-03
  1.0015451e-03
  1.2296306e-01
 -6.2763309e-01
  9.0288991e-01
 -1.4078546e-01
  1.0785993e-01
 -4.5059455e-04
  1.2743515e-01
  9.9409498e-02
 -3.3978984e-02
 -4.1360348e-02
 -1.0486561e-01
  2.1470640e-02
  3.2944061e-02
 -8.1423885e-01
 -3.7894554e-02
  1.2379141e-03
  8.1306612e-01
  7.9989393e-04
 -6.8342090e-02
 -7.6778477e-01
  1.9474536e-01
  1.7771386e-03
  8.3027268e-04
 -9.3401723e-02
 -2.2589925e-01
  1.3511967e-02
  1.5445465e-03
  4.8229276e-04
 -1.1440421e-02
 -1.7537273e-02
  1.6379408e-03
 -3.9926907e-03
 -1.6654160e-02
 -7.7298805e-03
 -9.0259723e-03
 -6.3780923e-03
 -4.5322166e-03
 -2.9837040e-03
 -6.7328545e-03
 -6.3421610e-03
  3.1763052e-03
 -1.2736708e-03
  1.2309028e-02
  5.0614970e-03
  2.7724894e-02
 -8.7257950e-03
 -7.0535098e-03
 -1.0515024e-04
 -4.7825254e-03
  1.9050638e-04
  5.8483304e-03
 -1.5927950e-03
  4.8806975e-03
 -7.9114339e-04
  1.2432332e-02
 -1.9087469e-02
 -3.5837027e-03
  1.5709763e-02
 -1.0134336e-02
  3.3827973e-04
  1.2801415e-02
 -1.4644205e-04
  1.0901007e-02
 -2.3952397e-03
  9.0052362e-04
 -2.2144401e-03
 -5.1647896e-01
  3.2372554e-03
 -7.8356303e-03
 -9.7260745e-03
  1.2801322e-02
 -5.7903561e-03
  7.4565299e-03
  5.4080239e-03
 -1.0033522e-03
  1.8589225e-03
  1.8866271e-02
  1.1732560e-04
 -9.5857237e-04
  6.0595553e-03
  5.0407340e-04
  8.8376290e-04
 -1.0019286e-03
 -4.3656277e-03
 -1.2952872e-02
 -1.1238798e-03
 -2.0866070e-03
  1.2347605e-02
 -2.5783343e-02
 -3.9974213e-02
 -6.2991646e-03
 -4.1781515e-03
  9.0686977e-03
 -8.5788742e-03
 -1.0708870e-02
  6.0130018e-03
 -6.5901787e-03
  2.5080817e-03
  1.1150989e-02
 -1.8377592e-04
  4.3266951e-03
  9.1790792e-04
 -7.7583618e-03
  8.3895022e-04
 -9.8118708e-03
  5.2677640e-03
  2.7790545e-02
 -4.7511274e-01
  2.9930972e-02
 -5.0923890e-03
  1.8854482e-03
 -4.2542880e-03
 -1.1515601e-02
  2.7952616e-03
  1.5165747e-02
  1.9582713e-03
 -1.0538667e-02
  3.4466814e-03
  6.0103298e-03
 -1.0921787e-02
  4.6005980e-03
 -1.3976180e-02
 -1.2687874e-02
 -5.9116655e-03
  1.4515786e-02
 -3.0868780e-03
  1.8312659e-02
 -1.7067490e-02
  9.0812449e-05
  1.8705918e-02
 -5.5411551e-03
 -6.9583319e-03
 -5.9465535e-02
  2.4326541e-03
 -5.2963644e-03
 -1.1319178e-02
  4.7684070e-02
  7.9579623e-03
 -3.5137346e-03
  1.8149359e-02
  4.2432360e-03
  6.3452974e-04
 -6.3319312e-04
  1.0680802e-03
 -9.8102996e-03
 -8.8310251e-03
 -1.1109632e-02
  3.5803543e-05
 -4.0746182e-03
  5.2306345e-03
 -6.7751841e-03
 -8.4645656e-04
  2.2901883e-03
 -1.5516528e-02
  3.3589870e-01
  2.0695718e-03
  8.6075412e-03
 -8.3234021e-03
 -1.4748481e-02
  2.1044764e-04
 -4.4060764e-03
 -4.2770375e-03
  2.0922881e-03
  3.3523671e-03
  2.5323484e-02
  7.4397912e-04
  5.8963289e-03
 -8.3756782e-03
 -6.2787188e-03
 -3.4489431e-03
  2.9355097e-03
  2.9754927e-02
  2.7736157e-02
 -1.6673014e-02
 -2.7848654e-03
 -8.4100969e-02
  9.9050410e-02
  1.0401368e-03
  5.5249906e-01
  5.8232457e-03
  1.3283147e-03
 -1.2776995e-02
 -8.4046600e-04
  8.5166341e-04
 -6.0922853e-03
  1.3234648e-01
 -1.6514530e-02
 -1.7325729e-02
  1.1792245e-02
  1.0124962e-02
  5.8385688e-03
 -4.3007387e-03
 -6.4665060e-03
  1.1004543e-01
  2.3891404e-01
 -1.5769566e-03
 -7.9332234e-04
 -2.9471505e-03
  1.7537568e-02
  3.3128783e-02
  1.3675204e-03
 -6.7683286e-03
  9.1681897e-04
 -1.0617324e-03
  6.3720359e-03
  1.1411404e-02
 -4.9635028e-03
  1.8683484e-02
  1.1852229e-02
  6.2838364e-01
  4.2438800e-03
  9.2027280e-03
 -7.6452927e-03
 -6.0341917e-03
 -4.9894233e-03
  6.2785684e-03
  8.6254831e-03
  8.0926483e-04
 -1.7263466e-02
 -8.1349019e-04
 -5.0322949e-03
 -4.7208107e-04
 -1.7328784e-02
 -1.3421938e-03
  9.2671346e-03
 -1.2591581e-02
 -7.3374235e-03
  5.7354588e-03
  1.1282066e-03
  1.3262353e-02
  1.6216550e-02
  1.4686439e-02
 -9.4071031e-03
 -9.6850022e-04
 -9.4301589e-03
  6.1386928e-04
  7.8065256e-03
 -2.4358410e-02
 -1.0409334e-03
 -3.3321227e-03
  1.8859841e-03
  5.7357633e-03
  2.4263898e-02
 -5.6202705e-03
  4.0582562e-04
 -8.1210062e-03
 -1.4207633e+00
  8.0987293e-01
 -9.9871880e-01
  9.6668851e-01
 -7.6568767e-02
  1.6527463e+00
  2.5492866e-02
  4.1147095e-01
  1.2485125e-03
  3.1297487e-01
  5.7699120e-01
 -3.3264316e-03
 -1.6477285e-02
 -1.4748332e-03
 -1.7778991e-01
  1.3215445e+00
 -3.3538023e-03
  2.6625821e-01
  3.0060366e-01
  2.6287118e-01
  6.3883144e-01
  6.6634633e-02
 -6.8751507e-02
 -3.1563781e-02
  9.0726865e-03
 -1.4088932e-01
 -4.8963274e-03
  1.3610340e-03
 -2.4331816e-01
 -2.8493790e-02
  3.8143490e-02
  3.1279013e-03
  8.7409681e-03
  4.4718659e-03
  1.1926043e+00
 -8.2720771e-02
 -1.2093446e+00
 -2.1765889e-01
  5.8023232e-01
 -5.9996253e-01
 -3.7273189e-01
  5.8594155e-03
 -8.4489407e-03
 -6.2188789e-02
 -3.8127385e-02
  9.5719546e-02
 -9.8416349e-04
 -9.3138075e-01
 -3.9056006e-01
  1.0996338e+00
  5.0799024e-01
 -5.7201996e-04
 -1.0108793e+00
 -8.5783762e-01
  3.8864106e-02
 -6.9252086e-01
  1.9779678e-01
 -9.9649352e-01
 -5.5125311e-02
 -7.3138210e-03
 -9.3426304e-03
 -3.3892523e-03
  5.4337233e-03
  5.1096976e-01
 -7.5128698e-04
  5.7274825e-03
  9.1704996e-03
  6.3575651e-03
 -8.6065568e-03
  2.7110928e-01
 -3.8939187e-01
 -3.7889503e-02
 -1.6099565e-02
  1.5895721e-02
 -2.5234900e-02
  2.0221287e-01
  5.3913295e-02
 -3.3017593e-03
 -1.0108101e-01
 -1.4981325e-01
  1.4267357e-01
  3.9768998e-02
 -6.5397769e-03
 -8.2415789e-02
 -3.4916487e-01
  6.8772254e-03
  3.5029959e-02
  3.5429231e-03
 -2.2260922e-01
  1.1101938e-02
 -2.0867972e-02
  1.5002702e-01
 -6.7080773e-02
 -9.7626038e-02
  1.9597352e-02
 -3.3254541e-02
 -9.2744734e-03
  1.4275735e-02
 -5.3178694e-02
 -1.2173683e-02
 -3.0903809e-03
 -4.1308589e-03
 -2.2309788e-03
  7.0034289e-03
 -6.5179565e-03
  1.1781440e-03
  1.0532689e-03
  1.1104448e-02
 -2.2138134e-02
 -1.4323961e-03
  8.0062419e-01
  1.1052988e-02
 -3.4657989e-03
 -2.0992471e-02
 -1.9908438e-03
  7.5563136e-03
  9.5796923e-04
  2.9905671e-03
 -4.9793986e-03
 -4.2797485e-03
 -1.1036908e-04
  1.8609179e-03
  4.3159146e-03
 -1.2695232e-03
 -1.4499577e-02
  4.9601295e-03
  5.9482851e-03
  5.0038658e-04
  1.3592724e-03
 -7.7268132e-03
 -2.0852135e-03
  3.8393840e-01
 -8.3751855e-03
 -1.0645818e-03
  2.2530662e-02
  3.4623917e-03
  1.4003076e-02
 -1.8735003e-03
 -8.6529551e-05
  2.3231583e-03
  1.9221243e-03
  2.5669554e-02
  7.0656204e-01
  1.7776813e-03
 -3.1286820e-03
 -1.1511286e-03
 -3.3008843e-03
  2.7830891e-02
  1.3795133e-02
 -1.2483656e-01
 -7.1182777e-03
 -2.3526393e-03
  1.1399776e-02
 -3.8625239e-04
 -9.5523596e-03
 -5.4043247e-03
 -2.7948689e-02
 -1.3249308e-01
  5.4765581e-03
  1.7298090e-03
  1.0041571e-02
  2.5856171e-03
 -3.0887735e-03
  3.2284459e-01
 -2.4868308e-03
  4.3646740e-03
 -9.4803807e-04
 -3.1723811e-03
  3.3277033e-03
  6.8732159e-04
 -7.4506998e-03
 -4.6446593e-03
 -1.4723325e-02
 -5.0177332e-03
 -2.8734863e-01
 -5.2129817e-03
  9.3850575e-04
  1.4279806e-03
  1.0492714e-01
  1.7529774e-03
 -2.4100859e-03
 -1.2893816e-03
 -2.2747416e-02
 -1.0782713e-02
 -7.3599443e-03
  5.7326271e-03
  2.2841133e-03
 -1.1061051e-01
  1.0173597e-02
  1.5145597e-03
  8.5791247e-03
  1.2827518e-02
 -1.6935067e-03
 -2.6042461e-01
  2.5451207e-04
 -1.0332388e-03
  8.7489961e-03
 -7.5427582e-03
 -1.8130800e-03
 -6.7470949e-03
  5.8848793e-03
 -3.0817359e-03
 -1.7301807e-02
 -7.5213581e-02
  8.3373180e-03
 -4.6414193e-03
  3.8685065e-03
  5.3443795e-04
 -3.7759116e-01
 -2.6682569e-02
  5.7277773e-03
 -1.0407530e-02
 -5.3915428e-04
 -1.9019799e-02
 -5.8514433e-04
 -6.9356691e-03
 -6.7553199e-03
 -1.0013604e-03
 -2.1396216e-03
  8.2112346e-03
 -7.3197309e-04
 -8.3228191e-03
 -2.9431824e-03
  8.4815128e-04
 -5.1554036e-03
 -3.7676112e-03
 -1.1192096e-02
 -3.5719916e-03
  3.3949979e-02
 -8.2696071e-03
 -8.7329006e-04
 -3.8168086e-03
  3.5640556e-02
 -2.5804248e-03
 -1.7762182e-02
  1.1626244e-01
 -3.8669521e-03
 -2.4210079e-01
  8.2278159e-03
 -7.7594887e-03
 -9.3116827e-02
  6.9178916e-03
 -2.8743427e-03
 -1.4242345e-03
 -1.6025349e-02
 -1.0834668e+00
 -1.4427903e-02
 -9.1938591e-03
  3.5480410e-03
  4.1645300e-01
  1.4468373e-02
 -2.2789167e-05
  1.7672116e-03
 -3.0575721e-03
 -8.4195780e-03
 -1.7247733e-02
  3.3717453e-02
  4.6994135e-02
  6.6429690e-02
 -6.3079417e-01
  1.4684758e-01
  5.5156634e-03
  2.0240290e-02
  7.2862413e-03
  2.1335853e-03
 -1.4934583e+00
 -5.2328878e-03
  1.3210549e+00
 -8.3182526e-01
  1.3237634e-01
 -2.0472929e-03
 -9.6234642e-03
  3.5178918e-01
  3.2853358e-03
  2.4853951e-01
 -3.7203033e-02
  7.3650315e-02
 -7.5844049e-02
 -2.5214055e-03
 -1.2167885e+00
 -8.0553425e-04
  1.7026752e-02
  4.0876817e-02
  4.0478477e-01
  4.9337354e-02
 -1.5100777e-01
 -7.8897281e-03
 -1.1543103e+00
 -2.5995043e-01
  8.2924944e-01
 -5.6665534e-01
 -3.8988963e-03
 -1.3909213e-01
 -4.4371281e-02
  1.5202935e-02
  6.8963253e-01
  7.7868260e-02
 -1.2251046e+00
 -6.6063648e-01
 -8.6135328e-01
 -1.0895368e-01
  1.0929509e-01
 -3.1040233e-01
  2.1154660e-01
  1.0623812e-02
  1.9077247e-02
  4.2625216e-01
  6.1880592e-03
  3.6625445e-03
  1.1809275e-02
 -1.3169354e-03
  5.2388565e-04
 -6.9109676e-03
 -8.5262198e-04
 -3.3753437e-03
  9.6080108e-03
  1.6081457e-01
  1.6882146e-03
 -1.7508653e-03
 -2.8286788e-03
  4.5600865e-04
 -3.5524220e-04
  5.4376962e-04
  1.3126013e-03
 -9.6730692e-03
  2.0824638e-03
 -1.7636808e-03
 -1.6564640e-04
 -1.5019020e-03
  1.7470603e-03
 -5.7380227e-03
 -2.9367366e-05
  1.6038255e-03
  3.2834483e-03
  7.9549331e-04
  2.7548915e-03
  2.7087683e-04
 -3.8880564e-03
 -2.7372252e-02
 -3.5292193e-01
 -1.0074565e+00
  7.0067143e-01
 -5.8106875e-01
 -1.5461752e-02
 -3.7221199e-01
 -1.3908999e-02
 -1.2440395e-01
  1.7497246e-01
  1.8149616e-02
  1.7456965e-03
 -1.3908765e-01
 -2.3858847e-01
  7.1161455e-01
 -3.5278764e-01
 -2.6913062e-02
  1.1099080e-01
 -1.3159105e-01
  7.4113160e-01
 -7.7983236e-01
 -1.1246976e-02
 -2.0047009e+00
 -1.4260052e-01
  7.8244311e-01
 -1.6557376e-01
  2.8831293e-03
  9.5043296e-04
 -1.7970281e-02
 -6.1137527e-03
 -1.7744280e-02
 -9.1160750e-03
 -1.9841598e-02
  6.6651697e-03
  2.2603628e-04
 -4.7702101e-01
  9.0569395e-01
 -3.0807206e-01
 -4.4092041e-01
  1.2112944e+00
 -1.0881720e+00
  4.8668524e-03
  8.5747403e-01
 -2.2269005e-01
 -4.0661550e-01
 -2.5173751e-01
  5.0000381e-02
 -1.6752687e-01
 -1.8178956e-01
 -1.1195131e-01
  3.4504887e-02
  9.9539373e-04
  1.4841605e+00
 -4.4989423e-03
 -1.4690574e-01
  3.3110285e-01
 -1.2729613e-01
  9.1935888e-02
 -2.0325878e-01
 -5.9466295e-02
  9.8861063e-01
  3.3820318e-03
 -5.4300115e-03
 -6.3698250e-03
  8.2885129e-03
  1.0237243e+00
  6.5207947e-03
 -1.8637083e-01
 -9.1184623e-04
 -8.8782096e-03
  9.9469703e-03
  6.0981167e-03
  8.8537036e-04
  5.8650672e-03
 -2.4229584e-03
  6.9612805e-03
 -1.9150734e-03
 -1.2094803e-03
  2.2334091e-02
  5.1880549e-03
  2.4272676e-03
 -1.1296645e-02
 -6.5457230e-03
  1.6808421e-03
 -5.7341829e-03
 -8.5316896e-03
  1.5611433e-04
 -1.2991845e-02
  4.2589093e-03
 -1.5753025e-02
  1.4347846e-02
  1.6918558e-03
  6.4066255e-01
  1.1266579e-02
 -1.3761198e-03
  3.4044024e-03
 -6.4589112e-04
  1.6303064e-02
 -2.8420389e-03
 -2.8511696e-03
 -7.2879149e-03
 -3.9468464e-03
 -9.8086777e-04
 -9.4214809e-04
  1.9700355e-03
 -3.1590007e-02
  1.0277421e-02
 -1.2184331e-02
  3.7273986e-03
 -1.4359310e-02
  7.1895998e-03
 -6.2575052e-03
 -7.0171100e-03
  1.3815057e-02
 -5.7661632e-04
  2.4731590e-03
 -4.9129222e-03
 -9.4201863e-03
  6.2812879e-03
 -1.7973450e-03
  3.1806910e-03
 -6.4090983e-04
 -9.3775008e-05
  3.8894047e-03
 -4.8948000e-03
  6.0965412e-04
  2.6263051e-02
  8.9464188e-03
 -4.2719283e-04
 -3.4945495e-02
  9.2010982e-03
 -1.3863895e-02
  2.0819246e-03
  9.6552065e-03
 -2.9901757e-03
  3.9602565e-03
  2.0008148e-03
  1.8857442e-02
  5.8520649e-02
  8.3589545e-03
  9.0527181e-03
 -1.7400819e+00
  2.8129596e-02
 -9.1322249e-01
  1.6116254e-02
  9.9974704e-01
 -2.0242980e-01
  6.1810762e-01
  9.6637392e-01
 -4.0773100e-01
 -1.0853988e-02
 -9.8361745e-02
  3.2349551e-01
  8.7421083e-01
 -5.3994876e-01
 -1.5165664e-01
  1.6177568e-01
  6.6645181e-01
  7.9623306e-01
 -1.0907406e-03
 -9.5725024e-01
 -1.6645800e-03
 -7.5167507e-01
  3.4985936e-01
 -1.3732381e-01
  1.7344882e+00
  8.7415613e-03
  1.3812152e-01
  1.5966986e-01
 -6.6835684e-04
  7.2823919e-02
 -1.3588846e-02
  1.5189952e-02
  3.2507905e-04
 -1.7458237e-03
 -2.6409349e-01
 -3.9417806e+00
  1.3579099e+00
 -1.0625671e+00
 -2.0092666e+00
  1.3510646e+00
  1.6181546e-01
 -3.2916602e-01
  7.7720505e-01
  5.4561943e-01
 -1.5026680e+00
 -9.9731334e-02
 -1.0601269e+00
  2.0901078e-01
  2.3670464e+00
 -1.1206963e+00
  1.3104097e-03
 -4.8429549e-01
 -4.7085438e-02
  1.2137973e+00
 -1.7356031e+00
 -7.1559544e-04
 -2.0363662e-01
  2.5874171e-01
  3.0663797e-01
 -1.7975034e+00
 -1.4498449e-03
  7.1342126e-03
 -3.1813839e-03
 -1.6285274e-02
  3.2535342e-03
 -2.4296464e-02
  1.9396235e-03
 -3.6539901e-03
  2.1311563e-02
  5.8914828e-03
  6.3362956e-02
 -2.2325590e-01
  1.4674141e-01
 -5.5204177e-01
 -1.3911220e-01
 -1.1011679e-01
  1.3744621e-01
  1.4154933e-03
  4.0848721e-02
 -5.7590649e-02
  2.9982371e-02
 -3.8962928e-04
 -1.4117463e-01
  2.6038688e-01
 -3.1403426e-02
 -6.6735491e-04
  1.3302101e-01
 -2.9528680e-01
  8.4830672e-03
 -1.8679114e-02
  6.4330930e-03
  3.4535858e-03
 -3.7890699e-02
 -1.1985807e-02
  7.1196824e-02
 -2.8931690e-02
 -1.9524835e-02
  3.7168534e-03
  3.0915961e-03
 -2.1094579e-02
 -1.6283494e-03
 -1.2727358e-02
  1.1719277e-03
 -3.7275576e-03
 -4.3102531e-03
 -3.2824732e-03
  1.1167760e-02
  3.8773162e-04
  4.4728555e-03
 -6.9184965e-03
 -1.1835628e-02
 -2.3563304e-03
  2.1920849e-03
  1.2083222e-03
 -5.6371861e-04
  7.4474618e-04
 -1.2193971e-02
  3.3664247e-03
  4.1619148e-03
  9.2317548e-04
 -1.6763246e-03
 -1.6329280e-03
 -1.1173321e-02
  2.1971477e-04
 -1.1111542e-03
  5.8092917e-03
 -4.3625608e-03
 -1.0942233e-03
 -9.7007165e-04
  8.6779473e-05
  4.3869745e-03
 -2.9632970e-04
  1.2790399e-02
  4.0852157e-03
  7.8471554e-03
  3.0240393e-03
 -3.2983210e-03
  2.2465864e-02
 -1.1775497e-01
 -3.9281743e-03
  1.1572292e-02
  5.5332392e-01
 -1.0257705e+00
  1.2096509e+00
 -6.0431462e-02
  1.6271604e-02
 -1.8857060e-03
  7.4017965e-03
 -6.8553187e-02
  1.3471456e-01
  7.6112014e-01
 -8.8274464e-02
 -7.5279139e-03
 -6.8394953e-01
  4.3130787e-03
  1.8605866e-02
 -1.6197253e-02
  1.5026107e-02
 -2.2664817e-02
  4.9036890e-03
  2.9845280e-03
 -2.2666361e-03
  1.6931323e-02
 -2.0385705e-01
 -9.0208072e-03
 -1.2629264e-03
  6.6096117e-03
  1.3745864e-02
 -1.2882331e-02
  2.0180560e-04
  5.4909377e-03
  2.2010705e-03
 -2.1454024e-03
  4.9472501e-04
 -1.1059220e-02
 -2.5209389e-03
 -1.6464185e-03
 -1.1157970e-02
  1.4809988e-02
 -1.7313806e-02
  4.4622692e-01
 -3.3448350e-03
 -1.9514024e-02
  4.3346710e-03
 -1.1846509e-02
  9.7023214e-05
  6.1241849e-03
 -8.9618459e-04
  7.0717144e-03
 -6.5665832e-03
  6.7766529e-01
  3.5087257e-03
  8.3177444e-03
 -2.5944337e-03
  3.8832822e-03
  1.7330871e-03
 -2.5301480e-03
 -8.1892079e-03
 -1.7737383e-03
 -7.0456229e-03
 -3.0630575e-03
 -2.0729443e-03
  3.2299110e-03
 -8.1483182e-03
 -3.9261482e-03
  1.9997356e-02
 -8.5482933e-03
  1.8576423e-02
  2.9281491e-02
 -5.7796533e-03
 -1.6700486e-03
 -1.0315544e-03
 -1.4570225e-02
  8.2079101e-01
 -1.1147750e-02
 -3.4528680e-03
  3.9251344e-03
  7.8808330e-03
 -5.1813610e-03
 -1.1875187e-03
  1.4030641e-02
 -5.3593900e-02
  1.1080773e-02
 -2.2252971e-02
  1.4592437e-02
  7.4825394e-03
  2.5079623e-03
  1.2131481e-02
 -5.5731367e-04
  2.5763963e-03
  1.7339309e-03
 -1.3662513e-02
  9.6793221e-03
 -2.2536787e-04
  6.7632031e-03
  8.0678323e-03
 -6.3279616e-03
  8.6321905e-03
 -1.3765169e-03
 -1.5577469e-02
 -1.5963000e-03
  1.1159149e-03
 -1.7300982e-03
  5.6008841e-03
 -2.0119739e-03
  8.3546694e-03
 -3.1544270e-03
  7.1917914e-02
 -2.3239532e-02
 -2.8688377e-03
  1.2622479e-02
 -1.6654840e+00
 -1.1590767e-02
  8.2842453e-05
 -4.2491046e-01
 -2.0371284e-03
  3.5303629e-03
  2.0297996e-03
  2.3125615e-03
 -1.1251180e-02
 -3.1118974e-04
 -3.9598122e-03
 -8.3300946e-03
  5.4634653e-02
 -2.8439082e-04
  1.6109553e-03
  6.7010000e-03
 -1.1922577e-04
 -1.0115163e-01
  1.4406176e-03
  3.4421317e-03
 -3.5040248e-03
 -1.3928831e-02
 -1.4230090e-01
  2.5373031e-03
 -9.0675795e-04
 -5.1562773e-04
 -1.6048530e-03
  1.1013559e-02
  3.9555402e-03
 -1.3465849e-02
 -1.1111178e-02
  7.2151306e-05
  5.1952749e-03
 -3.4184020e-02
  9.4619894e-04
  6.8940111e-03
  8.5480250e-03
 -1.1082853e-02
 -5.8462989e-04
 -5.5589466e-03
  3.3629853e-03
 -4.0011453e-03
  5.4093365e-02
  1.0587953e+00
  2.6202141e-03
  3.0558780e-03
 -6.8389983e-03
 -3.4469613e-04
  1.0169808e-02
  4.5991288e-03
  3.1360902e-03
  6.9539384e-03
 -5.1356456e-04
  7.9314830e-03
 -1.7687639e-02
  1.1274179e-02
 -2.0140257e-04
 -5.4318609e-04
  6.1468251e-02
  4.9803257e-03
 -5.1797675e-03
  2.4365059e-03
  3.3822074e-03
 -8.1482279e-04
  5.6654420e-03
 -3.8588837e-01
  4.1391593e-01
 -5.2412701e-01
  3.1337489e-03
 -1.0789236e-03
 -2.9901476e-03
 -8.4424618e-04
  8.6979739e-02
 -3.4067087e-02
 -8.8052712e-03
  8.9440895e-03
 -1.2890894e-02
  1.7521959e-02
 -1.8688371e-04
  3.5977275e-03
  8.4672160e-03
 -6.0108802e-03
 -4.3602753e-03
 -2.4501327e-03
 -8.5248044e-03
  6.9684511e-01
 -2.2089747e-01
 -5.1137879e-03
  3.1635994e-01
 -1.8315011e-03
  4.2701573e-03
  7.5802981e-04
 -3.0943968e-03
 -2.9003313e-03
 -6.8412902e-04
  7.1272845e-03
 -1.5483687e-03
 -2.7349256e-03
  4.9967980e-03
 -1.3213975e-03
 -2.5969206e-03
  7.6955874e-03
  1.0225615e-03
 -6.1564237e-01
 -7.2095136e-04
 -2.0321598e-04
 -1.0443716e-03
  9.4369485e-04
  3.5820522e-03
 -2.2581909e-03
 -4.1205604e-03
  2.7233101e-03
  1.0054306e-02
 -9.2616177e-01
  1.5156751e-02
  1.0079173e-02
  7.1431400e-04
  1.0836262e-02
  2.2927180e-01
 -5.1013935e-01
  4.6164840e-03
  1.5669414e-01
 -1.0001091e-02
 -1.9585818e-02
 -2.3442663e-03
  2.4700607e-03
  1.3196117e-02
 -5.6643230e-03
 -1.4665212e-02
 -2.7645956e-04
  2.7600925e-03
 -1.0626300e-02
  6.7948125e-04
 -1.4010600e-02
  2.0931638e-03
 -1.8045789e-02
  2.2837662e-03
 -1.3246837e-03
 -4.2928508e-03
 -2.8324684e-03
 -5.6991512e-03
  7.2703366e-03
 -1.3698916e-02
  1.2482275e-03
  7.5068865e-03
  3.0234980e-03
  1.8918734e-03
  2.8168594e-03
 -2.7066455e-03
 -1.8117249e-03
  5.2624958e-04
 -4.1237413e-03
  6.8528708e-03
  2.0718363e-03
 -2.4640968e-03
 -8.4051333e-04
 -2.9175561e-03
  2.2655147e-01
  1.5120298e-04
  1.2213954e-02
  1.7712401e-02
 -1.2882779e-03
 -3.5251288e-03
  7.9204217e-03
 -1.2406503e-02
  1.8543822e-03
  1.5905766e-02
 -1.1726631e-02
  4.5112632e-03
 -1.5080363e-02
  3.0563045e-03
 -5.4986030e-03
  4.7320710e-03
  1.0186583e-02
  9.7628543e-03
 -5.8118962e-03
  6.5680225e-03
  8.5661858e-03
 -1.4017290e-02
  1.1678526e-02
 -2.6131911e-02
 -1.3255073e-02
  7.3796404e-03
  6.0554821e-04
  2.4810067e-04
  1.6436119e-02
 -1.8745508e-02
 -1.5074501e-02
 -2.1879064e-02
 -1.2874042e-03
 -1.3461137e-03
  1.7073953e-03
  1.7973881e-03
  2.5020305e-03
  2.8629160e-02
  1.2512960e-02
  9.0159737e-03
  1.8762195e-02
  1.1427466e-02
  9.7188186e-03
 -4.9070483e-03
  3.6857389e-03
 -4.3361313e-03
 -9.0919267e-03
  2.2718222e-03
  1.9813727e-03
 -1.6232784e-03
  1.7434624e-03
  1.3494883e-03
  8.3751865e-03
  1.1329825e-02
  1.4824345e-03
 -7.0585185e-03
 -8.1201317e-03
 -2.0725711e-03
  1.2949661e-02
  1.6597881e-03
  7.8279180e-03
 -2.1964207e-03
  5.4601179e-03
 -4.6391372e-02
  3.2897512e-03
  5.3045009e-03
 -2.1264412e-02
  2.6357614e-03
 -3.1537663e-03
 -6.6355597e-03
 -1.4038004e-02
 -1.0464760e+00
 -9.3526561e-03
  1.0048962e-02
  8.0625797e-03
 -1.0953723e-02
 -1.0608826e-03
 -5.4133724e-04
 -2.9408961e-04
 -2.8620360e-03
 -2.4767453e-03
  6.9868197e-03
 -4.4705138e-01
  3.6169937e-01
 -3.6464137e-01
  2.2880357e-02
  4.2495671e-01
  7.6069366e-03
  9.5224805e-02
  1.2609136e-01
  3.2718286e-03
  2.0355752e-02
 -2.5984237e-02
  1.6846273e-02
  6.3225374e-02
 -1.0407346e-01
  8.2833124e-03
  5.3489450e-03
 -3.3797219e-02
  1.8893118e-01
 -6.4224615e-03
 -7.6706102e-04
  1.5996400e-03
 -6.3681257e-01
  2.0571340e-02
  3.3833962e-02
 -5.7741661e-02
 -4.3456624e-03
 -7.8503537e-04
 -4.7130566e-03
 -1.0525872e-02
 -9.9361432e-04
  9.2273229e-04
  2.6919791e-03
  3.0838519e-02
 -3.8709727e-03
 -1.6084753e-02
 -8.7380129e-01
  9.2068273e-01
  2.1050194e-01
  4.4090563e-01
  5.5633855e-01
  5.3451872e-01
 -6.5382117e-01
  1.3385448e-01
 -3.3214796e-01
 -1.3562520e+00
 -1.0671251e-02
  7.2771333e-02
  6.0122207e-02
 -3.6858866e-01
  3.1013450e-02
  1.6864246e-01
  1.0730342e+00
  3.2734367e-01
 -6.6220140e-01
  9.5720261e-01
 -4.7540549e-02
 -4.0508512e-01
  4.2249981e-01
  4.1792780e-01
 -2.4624848e-01
  8.6223120e-03
  5.6193841e-01
  1.8591050e-02
 -1.2321960e-02
  2.1238247e-02
 -1.9605692e-02
  9.9323392e-03
 -1.0151218e-02
  5.5840341e-03
 -1.3270146e-02
 -2.9143393e-03
  1.0205177e-03
 -2.1974528e-03
 -3.5738386e-03
 -8.6489168e-04
 -3.2569747e-03
  1.9251380e-02
  4.4068713e-03
  1.4550649e-03
  3.6004183e-03
 -6.4467369e-03
 -6.6727847e-03
  1.0550014e-02
 -1.5497088e-02
  2.2040147e-03
 -2.1971880e-04
  1.3069116e-03
 -1.3040935e-03
  6.7047887e-03
 -5.5112503e-03
 -1.3096665e-03
  5.0946074e-03
  9.9453467e-01
 -5.8323324e-01
  3.6188328e-01
  4.5063838e-01
 -2.6627597e-03
  1.7014793e-03
  1.8687488e-03
  3.1983301e-03
 -5.1569380e-03
  1.7008252e-02
 -4.0283483e-03
  9.7804237e-04
 -1.1505559e-03
 -1.8082247e-03
  1.7025862e-03
 -3.4096409e-03
  4.5792465e-03
 -2.7540333e-03
  7.5109238e-03
 -1.5524592e-02
  6.1380947e-03
  5.3156875e-03
  7.4552126e-02
 -7.8016287e-03
  1.9648660e-02
  9.9766724e-02
 -3.4123634e-03
  9.4737029e-03
 -3.9187828e-03
 -3.3049495e-03
 -4.9801618e-02
  6.9821161e-01
  5.5126077e-04
 -8.1414003e-03
  1.9531022e-03
 -9.8992670e-03
 -5.5873318e-04
 -9.6406629e-03
  5.1646465e-03
 -3.2980859e-03
  3.8190067e-03
  7.2935121e-03
 -4.9963053e-03
 -6.1389751e-04
  3.2819018e-02
 -2.7021675e-03
  1.6221250e-03
 -2.7806929e-03
 -4.7620060e-03
 -1.4047267e+00
 -2.3261909e-03
 -1.8247489e-02
  6.6040563e-03
  9.5553175e-03
  1.3637153e-03
 -7.4967225e-03
  1.1635556e+00
 -1.0544850e-02
 -2.6533818e-03
 -1.4834400e-02
 -9.7394095e-06
 -9.7586969e-03
 -1.0320834e-02
 -3.9457472e-04
  1.3319114e-02
  5.1567582e-03
 -3.4082076e-03
  7.4639581e-03
  3.2210064e-03
 -1.1965797e-02
 -7.2929622e-03
  2.6909420e-02
  2.2343486e-03
 -4.5553837e-03
 -4.6808999e-03
 -5.8263079e-03
  1.0690303e-03
 -2.5420438e-03
 -9.8981254e-04
 -6.1388784e-03
 -3.4084536e-02
  1.1852986e-01
 -8.4642263e-04
  2.5055904e-03
 -3.0511429e-03
  7.9871211e-03
  2.1233095e-03
 -2.6513604e-03
 -3.3494143e-03
 -4.5733506e-04
 -3.9716330e-03
 -1.7301509e-03
  2.6298154e-03
 -2.5532020e-03
 -1.5587365e-02
 -7.1029693e-02
  1.6035454e-03
  2.3951586e-03
 -2.2883725e-05
  5.8902383e-01
 -1.2063381e-02
 -1.9433788e-03
  2.0293735e-01
  1.2127770e-03
 -1.1927526e-03
  4.6626848e-04
 -8.2035493e-03
  9.1725989e-05
  1.6900806e-03
  5.9893671e-03
 -1.2464270e-02
  2.1600628e-03
 -2.6984650e-03
  8.0749160e-03
 -4.2291362e-02
 -9.1686463e-03
 -5.4264819e-04
  4.6648779e-03
 -3.3686964e-03
  6.2890211e-03
  9.3173403e-03
  2.6780084e-01
 -8.9653376e-03
  4.2964444e-03
  4.3763174e-03
  8.2718336e-04
 -3.1225078e-03
  2.6246044e-03
 -7.1881651e-03
  1.3927039e-02
  4.7648808e-01
 -2.1665129e-03
 -3.9924406e-03
  2.1973511e-03
 -1.8657320e-03
  3.0517303e-03
 -1.7282593e-03
  1.2311482e-02
 -8.9166226e-04
 -5.1155440e-03
 -1.6507659e-02
 -2.5967618e-02
 -1.4336288e-03
  1.9723393e-03
 -7.5395387e-01
 -1.8873666e-03
 -1.6647589e-03
  1.1584847e-02
  1.6747929e-02
 -7.9763145e-04
  1.8054508e-02
 -9.1926887e-04
 -4.0195822e-03
  5.4385527e-03
  2.0787688e-02
  2.5512218e-01
  1.3598391e+00
  2.0377739e-01
  1.1456017e+00
  1.0223004e+00
  5.6493718e-02
 -1.8351334e-01
 -9.5507413e-02
  1.7058884e-04
  8.6816227e-01
  1.8593624e-01
  2.2456211e-01
  8.1627482e-01
  4.4376153e-02
  1.8491055e-01
  4.2275265e-01
 -2.0276725e-01
  1.0311337e+00
 -8.1304926e-03
  1.0874019e+00
  8.6503106e-01
 -6.2732196e-01
  3.1253406e-01
  9.5169852e-04
  7.9886489e-02
  2.3272004e-02
 -2.2037572e-03
 -1.5578235e-03
 -1.0525996e-02
  3.5781946e-02
 -3.4138646e-03
  1.5229773e-03
 -6.8353422e-02
 -3.8469423e-02
  1.0285260e-01
 -8.8445663e-02
  7.1800746e-02
  5.9974562e-02
 -4.4018943e-03
 -5.4424239e-04
  5.6373447e-02
 -1.4537879e-02
  7.5629085e-02
  4.2816894e-03
  8.2700796e-02
  6.3937125e-03
 -3.9756224e-03
  2.5712347e-02
  1.8455528e-02
 -3.7632171e-02
  1.3220836e-01
 -3.7759259e-02
 -1.7315739e-01
  6.7703407e-03
 -1.5555548e-03
  3.3412578e-03
 -2.9438105e-03
 -2.2706704e-01
 -6.4023808e-03
  1.0605828e-03
  1.0891623e-02
 -8.9709577e-04
 -8.1987707e-03
 -7.3485170e-03
  3.7608298e-03
  7.8612381e-01
 -6.3382830e-03
 -2.4352694e-02
  3.2724724e-03
  5.4505016e-03
  9.3206670e-03
  1.2125606e-02
 -1.6141728e-02
 -7.7651584e-01
  1.6743364e-04
 -4.6628849e-03
 -1.9164773e-03
  9.1208234e-02
  2.3601511e-03
  9.5980550e-04
 -6.6016549e-03
  6.8260299e-04
 -2.8266555e-03
 -1.4797554e-03
 -5.4224096e-03
  1.0999376e-03
  3.2973918e-04
 -8.8175582e-03
  3.4517681e-03
 -3.5488580e-03
  1.1750816e-02
 -1.0646766e-03
 -6.1201775e-01
  2.8044584e-03
 -3.0714932e-03
  1.1385050e-02
  5.1596566e-05
  4.9762926e-03
  2.1889315e-03
  6.6865734e-03
 -1.0861273e-02
  6.9257407e-03
  6.1450852e-03
 -3.1341782e-01
  1.9311443e-03
 -2.1402547e-03
 -1.3717903e-03
  4.3173696e-04
 -8.0795737e-04
 -4.4912240e-04
 -1.7061508e-03
 -1.4901687e-02
  1.0898482e-02
 -1.2884600e-02
  2.4460156e-03
 -1.0182231e-03
 -4.3535568e-03
  5.2686012e-03
 -1.0639373e-02
 -1.2578945e-02
  2.9165200e-03
  9.0933805e-03
  3.2904047e-01
 -9.5092598e-03
  4.5553048e-04
  1.9309737e-03
  1.4797873e+00
 -1.4409438e-02
  1.7175470e-03
 -9.1606583e-03
 -6.0406760e-03
 -1.0816471e-02
 -3.7538499e-04
  2.0667403e-03
  2.6970033e-03
  4.9635749e-03
  9.6290223e-03
 -6.4337123e-03
  1.5534773e-05
 -1.0619675e+00
  1.1490508e+00
 -7.4073076e-03
 -2.2651588e-03
  1.3960975e-01
 -1.1660132e+00
 -3.7189615e-01
  1.8173726e-03
  1.7159652e+00
 -3.9762761e-03
  1.5710142e+00
 -1.9800168e-02
 -1.2783627e-03
 -8.2941204e-01
  6.5922079e-04
  1.8397665e-02
  2.6598880e-02
 -3.9909580e-03
 -1.2746219e-03
 -8.5127652e-02
  5.7939319e-03
  2.9486222e-03
 -5.4882853e-03
 -3.1757320e-03
  1.8820841e-03
  1.4426867e+00
  4.5906708e-02
 -1.1961833e-03
  6.3373029e-01
 -1.9639196e-02
 -1.6895913e+00
 -1.2718400e+00
  6.6738069e-02
 -3.4275743e-06
  2.0966654e+00
  1.4529328e+00
 -1.0377486e+00
 -2.3275877e-03
  7.9599905e-01
  4.7186516e-02
  4.3783566e-01
 -1.8512750e-01
  5.8575861e-02
 -6.0696238e-01
 -1.2757605e-01
 -1.4899839e-03
 -2.4144866e-03
  8.9218706e-02
  8.6313373e-01
  1.4025754e+00
  2.8631397e-02
  3.0671575e-03
 -1.0172998e-01
 -9.2409976e-02
  1.2410601e-01
  1.5275964e+00
  6.4134240e-01
  2.1576518e-02
  4.1562122e-01
  2.9311483e-03
 -4.4540834e-04
  1.0918354e-03
 -4.7333045e-03
  9.4300825e-03
  7.5765059e-04
 -2.5726287e-03
  2.9383464e-02
  1.5882080e-02
  5.4154918e-03
 -9.3867192e-03
  6.4396556e-03
 -4.6265322e-05
  4.0945178e-03
 -4.0206842e-02
 -2.0804619e-05
  6.9525966e-04
 -1.7061561e-03
 -4.8796982e-03
  6.8024895e-03
 -2.1108175e-03
  2.6177450e-03
  1.5843278e-02
 -2.7075119e-03
 -7.4781533e-03
  4.7571938e-03
 -4.2039920e-03
  8.1720045e-03
 -6.8175732e-03
 -2.6474481e-03
 -5.0916672e-03
  3.1454004e-03
  1.4284005e-03
 -1.2783402e-02
  2.3660490e-03
  2.8921263e-03
  7.0247902e-03
 -2.1148086e-02
  8.9500211e-03
  5.9401351e-03
  1.1878326e-02
  6.1676893e-03
  6.7434413e-03
 -7.0621236e-03
  3.5084120e-04
  1.5365902e-02
 -1.2928144e-02
  3.3244039e-03
 -2.4504010e-02
 -3.8598028e-03
 -5.0465202e-05
  1.7843498e-03
  8.2971805e-01
  7.1137971e-03
 -6.1150459e-03
  5.7024835e-03
 -2.6800942e-03
 -8.8366279e-03
  2.6986831e-01
 -7.4396725e-03
 -1.8095704e-03
 -9.5593277e-03
 -7.4787033e-03
  1.5713839e-03
 -1.1242417e-03
 -9.9693663e-02
  4.9369894e-03
 -1.0965138e-03
 -1.0296036e-02
 -3.9025203e-03
 -1.2994406e-02
  2.1985497e+00
  7.8574819e-03
 -3.2604258e-03
 -1.9321576e-02
  1.7493335e-03
 -6.2045031e-03
  5.7864795e-03
  1.8648957e-03
 -6.9071557e-03
 -2.0443140e-02
 -2.0547637e-03
 -2.1545930e-02
 -7.3644524e-03
 -1.8321995e-02
 -5.4878055e-04
  6.5028421e-03
  8.7460494e-03
  1.8383131e-03
 -2.3312462e-03
  8.8136503e-03
 -8.7638600e-03
 -6.4100511e-03
 -7.1471636e-03
 -1.2972870e-02
  1.0157757e-02
 -3.8072537e-03
 -9.6397568e-03
  2.1857626e-03
  5.7079042e-03
  3.5068372e-03
 -1.5404742e-02
 -4.9492712e-03
 -3.2335040e-03
  6.8314339e-04
  9.3165541e-01
 -8.2254595e-01
  6.6306794e-01
 -7.4879247e-01
  1.9597373e+00
  1.6329128e-01
 -1.5454233e-01
  1.5842680e-02
 -7.9057509e-01
  7.7079380e-01
  2.5475311e-01
  8.0527574e-01
  1.7534842e+00
 -6.4480704e-01
  2.3392005e-01
  5.8275771e-01
  1.3448973e-01
  2.9698938e-01
 -8.3323002e-01
  3.7417302e-03
  6.7696536e-01
  1.0659897e+00
 -3.3632937e-01
 -8.2759076e-01
  2.1574621e-01
  1.3252499e-03
 -1.2846309e-01
  1.1973906e-03
  7.0419706e-02
 -6.5356367e-03
  1.1586373e-02
 -6.2572514e-03
  5.8516739e-03
  8.2510682e-03
 -7.0215412e-03
 -1.3811571e-02
  3.8509640e-01
  1.1793207e-01
  1.3144124e-01
 -2.0650327e-01
  1.0933890e-02
 -1.7564945e-03
  2.5842784e-02
  2.3015830e-01
  1.7888902e-02
  7.0653297e-02
  6.5448550e-03
  1.3218099e-01
  7.2108040e-04
  3.8895966e-03
  2.4180252e-02
  5.1498143e-03
  2.7545530e-01
  5.6082536e-03
 -8.2831783e-03
 -7.9420787e-01
 -6.4282506e-03
  4.9470868e-03
 -8.7989384e-01
  2.5252689e-02
 -4.0512308e-02
 -1.0694444e-02
 -2.2881471e-03
 -3.6687474e-03
  1.2949876e-03
  2.5506909e-03
  7.0631206e-03
  3.8340371e-03
  1.5110254e-02
  7.2675166e-03
  7.0464974e-03
  6.5868278e-03
 -7.3023915e-02
 -4.7901215e-04
  1.8952882e-02
  5.3520617e-03
  3.4648604e-03
 -2.0100813e-02
 -5.3464010e-04
 -8.0161259e-02
 -1.2266313e-02
 -7.4244891e-03
 -3.5100922e-02
  5.0864697e-02
  5.7758959e-03
 -2.9098804e-03
  3.7344089e-03
 -1.3889238e-01
 -4.5456000e-02
 -1.0107864e-02
  2.9941103e-03
 -2.6120485e-03
  7.3884120e-03
  7.7707924e-02
 -1.4800483e-02
 -6.3454844e-03
  1.4064255e-03
  6.7061563e-03
 -3.2258872e-03
  2.0525001e-03
  2.5371937e-03
  1.7763033e-03
 -3.2148371e-03
 -1.9954368e-01
 -9.6766781e-03
 -4.6409890e-03
  1.4292533e-03
 -2.1346642e-04
  2.4280834e-03
  1.3783387e-03
  1.2214922e-02
 -1.5014214e-04
  7.2730402e-03
  2.2369029e-03
 -8.2933344e-03
 -7.0518777e-03
  3.3026990e-03
  8.3469029e-04
 -7.2838045e-03
  1.1075384e-03
 -1.0684258e-02
  6.8047517e-03
 -1.0856362e-02
  8.8674929e-03
  3.7321586e-03
 -2.2435500e-03
  1.2576186e-02
 -8.2398066e-03
  7.0413924e-03
  7.4472413e-03
  1.1643147e-02
 -3.7324525e-04
  3.9292234e-01
  4.2883009e-03
  6.9263862e-03
  1.7902166e-02
 -3.4433857e-03
  6.8786386e-03
 -1.2658595e-02
  6.6908230e-03
 -5.6313802e-03
 -1.6120919e-03
  4.5923732e-04
  7.8520030e-03
  4.9730386e-03
 -7.9578832e-03
  7.5375871e-03
  3.7443794e-03
  1.9144077e-03
 -2.5417604e-03
  1.8002780e-02
 -4.4899778e-05
  3.2220401e-03
  1.0460913e-04
  5.5683899e-04
 -9.0365298e-03
 -6.1705760e-03
 -1.3597424e-03
 -1.1449819e-02
 -7.0738024e-03
  1.1813263e-02
  2.1906111e-03
  5.2602380e-03
 -1.0311588e-02
  3.1175739e-03
  2.3293530e-03
 -1.2122326e-03
  3.6075178e-03
  2.8093921e-03
 -1.8598356e+00
  1.8807996e-02
  3.7223529e-03
 -1.5973568e-02
  4.3710028e-03
 -1.9361477e-02
  1.5472487e-01
 -5.7047568e-03
 -7.4694091e-01
  1.5688257e-03
 -9.4371615e-03
 -1.2089825e-01
 -5.6170348e-02
  6.9350400e-03
 -2.4115776e-03
 -1.4391121e-02
 -7.3699742e-03
  5.7121395e-04
 -2.6668364e-01
  4.6054304e-02
  3.1926201e-03
 -2.1278841e-02
 -2.5277449e-02
 -4.1325018e-03
 -2.0160629e-01
 -1.3065273e-03
 -1.1073319e-03
 -1.9842347e-03
  1.1603924e-02
  1.0176678e-01
 -4.5375433e-02
  6.9078547e-03
  1.2973291e-01
  1.9941130e-03
 -1.0232680e-02
  2.0446824e-02
  1.9777892e-03
 -3.4968553e-03
 -6.6589471e-04
 -2.7284131e-03
  5.0388156e-03
 -2.2226995e-02
  1.6310481e+00
  3.3188394e-01
  9.4787639e-01
 -2.3609225e-02
  4.9167722e-03
  3.4232074e-03
  4.0561203e-02
 -4.3091737e-04
  2.9767226e-02
 -6.5491716e-03
 -1.6152479e-02
  2.9832914e-02
  1.6103316e-02
 -3.0972622e-03
 -3.8025799e-04
  5.9475531e-03
  1.7114381e-01
  1.0391447e-01
  5.4285564e-03
  2.8523132e-02
 -6.0260561e-03
  7.3383749e-02
  4.3073016e-01
 -7.6242234e-03
 -1.2275902e-02
  1.9419888e-03
 -2.4817715e-04
 -2.1330356e-03
 -2.4575174e-01
 -7.0796534e-03
 -2.6789755e-03
  3.4420078e-03
 -4.7251461e-03
  1.6751770e-03
  3.1980631e-01
  4.8719451e-04
 -1.1631914e+00
  6.4656921e-03
 -2.2816546e-02
 -4.9724743e-02
  4.3049883e-03
 -1.6426621e-01
  1.9821789e-04
 -7.7374369e-02
 -2.6277271e-01
 -4.7104484e-03
 -4.8951004e-02
 -9.1204919e-02
  4.2476370e-03
 -9.7745150e-02
 -7.4975612e-03
 -7.6446772e-02
 -2.8104344e-01
 -9.8875874e-01
 -2.8764732e-02
 -7.5591080e-02
 -9.9114212e-04
  2.2008039e-02
 -4.6530679e-02
  1.2614732e-03
  1.9192386e-04
  9.8250329e-02
 -2.6659085e-03
  2.0468261e-02
  2.3648946e-03
  2.1203170e-02
 -7.0842141e-03
 -1.4755740e-03
 -3.3453822e-03
  7.5419879e-01
 -4.9882725e-01
 -1.0775921e-01
  1.6777296e-01
  1.8276203e-01
 -5.7065004e-01
 -9.2394441e-02
 -1.1728315e+00
  3.6838469e-01
 -8.5415119e-01
 -9.5032018e-01
  4.8397198e-02
  8.3885568e-01
 -4.5983705e-01
 -3.1160826e-03
 -9.7498089e-01
 -2.3392595e-01
 -1.0477434e+00
  1.1116514e+00
 -6.1107870e-02
 -4.3971869e-01
 -3.8932737e-02
  1.1617992e-01
 -2.3023625e-01
 -3.6767671e-01
  5.7412623e-03
  1.2469156e+00
  1.9170417e-01
 -7.8496054e-02
 -1.1335820e-02
 -5.4684798e-03
  2.8070188e-03
  5.5334624e-03
  1.0001405e+00
  7.6116594e-03
 -1.1496295e-03
  1.3447026e-03
 -3.3958168e-03
  5.2381931e-03
 -2.9868002e-03
  2.4485294e-04
  2.1279816e-04
  2.1129488e-03
  2.8733718e-03
 -1.0408547e-02
 -1.5819741e-02
 -6.1581675e-03
  1.2355724e-02
  2.0670567e-03
 -6.5230331e-03
 -8.4828362e-03
  3.4581544e-04
 -4.0570788e-02
 -4.5207338e-03
  6.5728812e-03
 -3.9524082e-03
  1.3005607e-02
 -1.2627645e-01
 -1.9591716e-03
  3.1692409e-03
 -1.6235508e-03
 -1.0876805e-02
  3.2196802e-04
 -5.2449577e-03
  9.4567547e-03
  4.8256860e-04
  3.0429377e-03
  4.4282622e-04
 -3.8801506e-03
  4.1411249e-03
  8.9671440e-02
  2.7587560e-01
 -6.3965333e-01
  2.5257677e-01
 -1.5848126e-02
 -9.1636783e-01
  2.7682709e-03
 -3.4209090e-01
  1.2631797e-02
 -3.6630028e-01
 -4.9736765e-01
  2.6254654e-03
 -8.8459319e-01
  3.6367321e-01
 -2.5551806e-03
 -5.2814603e-01
 -1.6687573e-01
 -1.6454852e-01
 -9.4836093e-02
 -4.8978706e-03
 -1.1297988e-01
  1.1563344e-02
 -6.2074631e-02
  1.4022031e-02
 -1.2127756e-02
  2.7958470e-04
  1.5727162e-01
  1.2425036e-02
  2.6112844e-03
  3.1562350e-03
  4.6809297e-03
 -7.1093892e-03
  6.2226504e-03
 -1.4371353e-03
 -7.2525423e-03
 -8.2776800e-04
  6.6034789e-03
  4.5552878e-03
  6.3200132e-03
 -9.8534347e-03
 -1.0045880e-02
  3.9672264e-04
  1.0047150e-02
  1.9678155e-01
  1.5559736e-02
  4.1095992e-03
 -2.5370920e-01
 -1.3115294e-03
 -5.9501984e-04
  1.4109273e-02
 -6.1869877e-04
 -5.3793816e-03
  3.9879307e-01
 -3.3800544e-03
 -7.4807071e-04
  1.0792938e-02
  7.7724056e-03
 -2.2741471e-04
  4.3109918e-04
 -9.4472133e-03
  1.4893743e+00
  1.7964341e-02
 -1.8708974e-03
  4.3347036e-03
  1.1309262e-04
 -2.4693399e-03
 -5.1775743e-05
 -3.1059561e-03
  3.4546196e-03
  2.6227839e-03
 -3.1428125e-02
 -1.3915205e-01
  5.7840067e-01
  5.7402056e-01
 -1.1232138e-01
  1.5946867e-02
  9.2996163e-03
 -7.5802562e-04
  4.4651840e-02
  1.0565717e-02
  5.7865451e-03
 -2.8766601e-03
  1.2164950e-01
  8.9442693e-03
  9.2750192e-03
 -7.4383221e-04
 -1.0535181e-02
  3.2313369e-02
  3.3993613e-02
 -9.2196455e-03
  6.4953552e-03
  1.5837803e-02
 -3.5597201e-02
 -1.2922794e+00
  8.7615270e-03
  9.0362290e-03
 -4.8238985e-04
 -2.8948325e-03
  3.7945219e-04
 -3.0594835e-02
  3.0911120e-03
  4.1035309e-01
 -2.8347896e-04
  5.4957923e-03
  3.0605940e-02
 -1.9346036e-02
 -2.9346749e-01
  1.1342046e-01
  1.0175509e-01
  1.0110132e-02
  6.8141301e-03
 -4.0582996e-03
 -4.3406258e-03
 -1.9855885e-02
  8.4746163e-03
  6.0796821e-03
  1.2600747e-02
  3.7337270e-02
 -9.0387449e-02
  3.4581260e-03
  4.1179836e-04
  2.3993603e-03
 -2.7852136e-01
  3.5472863e-04
  1.0394352e-02
  4.0358110e-04
  5.9141312e-03
  1.6407552e-01
  2.6546684e-01
 -7.3780707e-04
  2.4897594e-02
 -1.6467204e-02
  3.0515783e-03
 -2.9320987e-02
 -5.7535432e-04
 -3.4323591e-03
  4.6024974e-03
 -3.4883635e-03
  2.7616140e-03
  2.3503548e-03
  6.7882743e-03
  2.7343195e-03
  4.2667375e-03
  3.8676264e-04
 -9.3607958e-03
  2.0480734e-04
 -8.2876226e-03
 -9.2547191e-03
  8.9746509e-03
 -5.4204487e-03
  5.0879898e-04
  1.0225628e-02
 -1.3476603e-03
  1.2807263e-02
  2.2721289e-02
 -5.4357568e-04
 -1.2387956e-02
 -5.3985510e-04
 -2.7015535e-03
  8.1829494e-03
 -1.0438787e-03
  2.0749058e-01
  3.7906801e-03
 -8.1202816e-03
 -1.5359621e-03
  1.5390138e-02
  7.9424139e-03
  5.1458400e-01
  1.2195428e-02
 -1.2074718e-02
  9.9189691e-02
 -2.2922261e-03
  1.4342689e-03
  7.7411379e-03
  1.2777193e-01
 -2.1387788e-03
 -1.4489314e-02
  1.1840805e+00
  2.9106203e-01
  4.8070109e-01
  8.2820170e-02
  8.2327165e-03
  7.7340081e-02
 -2.1671364e-01
 -3.8460287e-04
  1.2072986e-01
 -3.5057541e-02
  5.3765960e-02
 -1.2301739e-01
 -1.0835363e-02
  9.9885374e-02
 -2.2960457e-03
  2.0164764e-02
 -5.9780812e-01
 -7.6644979e-02
  4.1960962e-02
 -4.7750967e-03
  1.1528950e+00
  3.2948592e-01
  2.2797219e-02
 -1.2274110e-02
 -7.2714249e-03
 -1.9887175e-02
  2.0679862e-03
 -7.0326459e-01
  8.1246477e-03
 -9.2735384e-03
  4.9574403e-03
  7.9495898e-03
  4.7091045e-04
 -7.1839541e-03
  5.2261460e-03
 -3.3358776e-03
  5.3306837e-03
 -1.3627949e-03
 -8.0023565e-06
  2.3548985e-03
  1.9946422e-03
  1.5280126e+00
 -3.5345855e-01
 -1.6443926e-03
 -8.4196089e-04
  2.7596872e-04
 -4.3476070e-03
  9.8058418e-04
 -1.6990647e-02
 -1.7774778e-03
 -1.9337500e-02
  4.3745823e-03
  4.6856171e-03
 -4.3841690e-04
  1.2428953e-01
 -7.7214226e-04
 -7.6770070e-03
 -6.3575497e-03
  1.0651659e-02
  7.5449813e-03
 -2.1083960e-03
 -3.1131564e-03
 -1.5703691e-03
  4.0843501e-03
  3.4200403e-04
 -1.4958455e-03
 -2.0170463e-03
 -2.3586277e-03
 -2.7691276e+00
  1.9086704e+00
 -1.0615406e-02
  7.0493096e-01
 -2.2603984e+00
  1.3165502e-01
  1.0587578e-01
  5.8116239e-01
 -6.3337696e-01
  1.2297697e-01
  5.9691250e-01
 -5.3434618e-02
 -3.9285859e-01
 -1.5110305e-03
  4.4731927e-04
  4.5195511e-01
  1.6719677e-01
 -3.0425027e-01
  3.7336725e-01
  1.6218619e-03
 -2.9063395e-01
  7.0502454e-01
  8.2438940e-01
  8.2085788e-01
  7.0552808e-01
 -1.8645313e-05
 -8.2610222e-03
 -4.1400772e-01
 -1.3364846e-01
 -2.3599623e-02
 -9.2267781e-04
  7.0852786e-04
 -1.9654289e-03
  1.7469857e-02
  1.3074148e-05
  7.4609503e-04
  1.0662571e+00
  1.3011476e-02
 -3.4374644e-03
 -2.4968167e-03
  1.3901677e-03
  2.1657150e-02
  1.6136106e-02
 -3.8217071e-03
 -6.1223162e-03
 -1.0268938e-02
 -7.0501552e-03
  3.3482623e-01
 -6.8538949e-02
 -7.1615082e-01
 -4.9881293e-03
 -2.1702615e-03
  2.4884590e-04
 -7.3115155e-03
  5.2699251e-03
  5.8280043e-03
 -1.4903784e-03
  1.8624159e-02
 -6.8789027e-03
  1.1384934e-02
 -1.3236172e-02
 -6.3199494e-03
  2.2261988e-02
  5.1830355e-03
 -1.1499156e-02
 -2.0767234e-02
 -3.8507786e-03
 -2.1282333e-04
  9.0807742e-03
  1.3804613e-03
 -3.6907309e-01
  3.4312604e-03
  6.4845103e-01
 -1.0525879e-01
 -1.4447336e-03
 -1.6664545e-03
 -6.9112703e-03
  2.1474564e-03
  1.3578199e-03
 -6.0380585e-03
  1.6286768e-02
 -8.4952265e-03
  6.0215136e-03
  6.1264667e-03
 -9.3188346e-04
  2.9855145e-02
  1.6782604e-02
 -3.4277760e-03
 -6.4300452e-03
 -1.0894583e-02
  1.3511555e-03
 -3.3518537e-03
  6.1728027e-02
 -2.4285840e-03
  2.2207210e-03
 -1.2989787e-02
 -1.2739467e-02
 -7.2447369e-03
 -4.0061641e-01
 -3.8853819e-03
  6.6235000e-03
 -5.4113357e-06
  5.1646964e-03
  1.8007185e-03
 -2.0191487e-02
  2.6385672e+00
 -4.6489167e-01
  6.3878715e-01
 -2.1996393e+00
  1.4677613e+00
  4.7312495e-01
 -4.9170828e-03
  1.4664532e-01
 -2.9907731e-02
  3.3983454e-01
  4.6507210e-02
  1.9835001e-01
  1.0027307e+00
 -1.3884424e-01
  8.3427709e-03
  3.9956751e-01
 -3.7768167e-03
 -3.4568094e-02
 -5.5326921e-01
  1.2177969e-02
  3.3640420e-01
 -8.6626905e-01
 -1.0582766e-01
 -7.5810802e-01
 -5.4526601e-02
 -1.0959224e-03
 -1.7397083e-01
  7.5356038e-03
  8.9508645e-02
 -2.5331561e-02
 -1.8648808e-04
  1.4322198e-03
 -7.1627260e-03
  1.4193637e-03
  3.4761194e-03
  6.9290884e-03
  1.2608865e-02
  1.5477878e-04
 -2.0365668e-02
 -6.6928696e-03
 -2.1826837e-03
  1.2363361e-03
  5.0924689e-04
 -1.2520820e-02
 -1.4782150e-03
  1.0488752e-03
 -8.9431033e-03
 -2.1892220e-03
 -1.3230794e-02
 -1.6114783e-02
 -8.7850966e-04
  9.2771528e-03
  1.3491764e-02
  1.6237011e-02
 -2.8849631e-03
 -4.2413792e-01
  8.9056855e-03
  3.4006310e-03
 -8.0787800e-03
 -2.4241008e-02
  1.3957625e-02
 -6.3602235e-03
 -6.2921020e-04
 -5.5655264e-03
 -2.5881482e-03
 -5.9620300e-03
 -1.3440655e-03
 -3.1098255e-03
  1.4453375e-04
  3.4772005e-02
 -6.8610930e-03
  5.9030378e-01
  4.5699213e-02
  1.1022619e-02
  3.0309143e-03
 -9.5758680e-04
 -7.6165743e-04
 -2.3907498e-03
  7.3054205e-03
 -3.8427432e-05
 -3.2473018e-03
 -2.1017903e-02
  1.0138908e-03
 -1.2518669e-02
 -1.8215084e-02
 -4.6924232e-03
  1.2471699e-02
  1.5289966e-02
  1.8315909e-03
  1.1646541e-02
 -8.4356550e-05
 -8.7408638e-03
  6.7645651e-03
  2.1176980e-04
  2.1120321e-03
  7.3935352e-03
  3.2374528e-03
  8.2263174e-03
 -9.6865809e-03
  2.4944197e-03
 -3.5111508e-03
  5.9277555e-03
  9.6368035e-03
  1.5947752e-03
  1.9241048e-03
 -5.7105516e-04
 -3.5540983e-03
  6.5650187e-02
 -3.3671125e-03
  9.5149456e-03
 -4.3077380e-03
 -5.0581461e-03
 -8.9844113e-04
  9.3552622e-04
  2.1851773e-03
 -2.7479874e-03
  2.0420516e-02
  7.7677770e-03
 -1.4853695e-03
  1.9085641e-03
 -3.0699912e-03
 -1.7574686e-03
  8.2618726e-04
 -1.3803138e-03
 -5.0373194e-03
  2.5035378e-02
 -1.0185158e-02
  4.5019859e-03
 -1.0785465e-02
  4.2133857e-02
 -5.2073165e-03
  7.5068783e-05
  3.2927673e-03
 -6.3520442e-03
  3.3132532e-03
  2.0057775e-04
  4.8916582e-03
 -7.7010379e-03
  2.4230257e-03
  1.4776587e-02
  2.4824045e-04
 -1.7366493e-02
  7.9487609e-03
 -2.6444430e-03
  3.0820492e-01
  2.7213125e-03
  9.4029790e-04
  1.6098489e-03
  2.5849175e-04
  4.5374255e-03
  2.1134395e-02
 -4.8161545e-03
 -1.4337752e-03
 -4.1188812e-03
  2.7595407e-03
  4.8742048e-03
  1.0004798e-02
 -3.8391706e-03
  2.9932517e-03
 -5.2684199e-02
  1.0057287e-02
  1.0103508e-04
 -5.6072492e-03
  1.0045694e-02
  1.0283108e-02
 -8.1707379e-03
  1.7995432e-02
  1.2160662e-02
  2.3352865e-03
  1.0057659e-02
  1.0151994e-02
  1.0825841e-02
 -1.3098957e-02
  1.9700652e-02
 -2.1762580e-03
  8.1917671e-03
 -2.9356475e-03
  2.8072121e-03
 -1.9043017e-02
 -6.6973567e-03
 -5.7165255e-03
  2.7775473e-03
 -3.4556228e-03
 -6.7688321e-04
 -2.0357969e-03
 -2.1161716e-03
 -1.2508031e-02
 -1.1373118e-02
 -1.7807258e-03
  1.9167349e-03
  8.6189220e-03
  5.5417833e-03
  5.4086000e-03
  2.7396143e-03
  4.6357517e-03
 -6.1931922e-03
  1.1067123e-03
 -4.6666190e-03
  2.9331420e-03
 -1.3777123e-02
  6.9477339e-03
  1.0418552e-03
 -8.4185312e-03
  5.5705005e-04
  1.1358720e-01
 -3.2857182e-03
 -8.9867581e-03
 -5.0046118e-03
 -9.4422996e-03
 -8.0742836e-03
 -4.8230806e-01
  6.9196701e-01
 -2.2910218e-01
  1.9322866e+00
 -9.4995874e-01
 -4.2353544e-02
  5.1519447e-03
 -3.5355616e-02
  1.6896015e-01
 -1.1335180e-02
  2.6895695e-03
  1.9476196e-03
 -3.1389499e-01
  4.2220145e-01
 -1.5546571e-03
 -4.0545851e-02
  1.6977306e-04
  8.6175818e-03
 -4.4600484e-03
 -8.7662792e-04
 -4.9881579e-04
  1.4516283e-02
 -2.7081945e-03
  8.0575657e-01
 -1.2023709e-02
  2.6963546e-03
 -6.6076644e-04
  7.1861488e-03
 -2.9034257e-02
  6.0466174e-03
 -3.1112600e-04
 -1.0461788e-02
 -3.3477894e-03
 -2.0137934e-03
 -5.5250281e-01
  2.8602716e-03
  5.7508415e-03
 -2.5926141e-02
 -1.6466314e-01
 -7.4852651e-01
  4.5321989e-03
  4.8884186e-03
  1.5708401e-03
 -9.5279530e-02
  3.2503128e-01
 -3.0185449e-01
  4.2702329e-01
 -1.0001392e-02
 -2.6283574e-01
 -8.9612193e-03
 -6.8108262e-03
  1.3311991e-03
  1.1285997e-02
  3.4205717e-01
 -1.0140609e-02
  4.6428546e-01
  3.1579917e-03
  5.1304093e-03
 -9.4876933e-01
 -1.5128110e-04
  4.7354684e-03
  1.0359151e-02
  1.1022628e-02
  3.9047387e-03
  7.8203660e-01
 -8.3134981e-04
  1.5228797e-01
  1.1811138e-02
  1.9906193e+00
  5.6020832e-01
 -4.1335618e-01
 -9.1546169e-03
  1.1127681e-01
 -8.0076897e-01
  5.3761500e-01
 -1.0709738e+00
 -2.2441282e+00
 -2.5680913e-03
 -1.6153435e+00
  1.2577157e-02
  5.5706108e-01
  6.0784590e-01
  1.2041173e-03
  1.0973035e+00
 -3.1678876e-01
  1.7206445e+00
  2.9011250e-03
  3.5779950e-01
  2.1292877e+00
 -3.5144479e-03
  2.0797446e-01
  6.9175130e-03
  1.6179170e-01
  1.3267827e-03
 -9.0208495e-01
  3.6789137e-03
  1.7905672e+00
 -1.6837303e-01
  2.6432499e-01
 -1.9033475e-01
 -5.3610872e-03
 -1.7168565e-02
 -2.9674277e-01
  8.6577278e-01
 -1.8906244e-04
 -2.9108438e-01
  3.2640458e-03
 -4.6501849e-02
 -1.8332332e-02
  2.3068164e-03
 -1.2116474e-02
 -1.1388561e-02
 -1.4248253e-02
  1.4664328e-01
  1.2580746e-01
  3.2135381e-03
  7.1612038e-03
 -1.0490790e-02
  3.8732076e-03
  1.2573903e-02
  8.7324148e-03
 -1.5707815e-03
 -1.3460766e-01
 -6.9563817e-03
 -4.1206661e-03
  4.8383824e-03
  5.7078822e-04
 -1.6063411e-02
  1.2208080e-02
 -1.7437952e-02
  3.7573387e-03
 -5.7058805e-01
 -1.3766515e-01
 -9.0426765e-03
  1.1004050e-05
 -1.8566344e-03
  3.2811955e-01
  1.1375049e-03
 -1.1193815e-02
 -9.9393167e-03
 -1.6004661e-02
 -9.4821472e-03
 -4.1510304e-03
 -5.9148282e-02
  2.4966816e-03
  4.8626084e-03
  3.7825146e-01
  1.1418253e+00
 -7.3430683e-03
  5.6843727e-04
  6.5461737e-01
  9.4879547e-04
  8.3494056e-03
  1.0290286e-02
 -1.0811542e-02
  8.4811319e-03
  1.1528341e-02
 -4.8089567e-01
  1.6354640e-01
 -2.1998652e-03
 -6.0668378e-03
 -2.6079486e-03
  4.1197470e-01
 -9.6285343e-03
 -1.6970946e-02
  1.6671741e+00
  2.8423016e+00
  1.5043107e+00
  2.1223297e+00
 -3.1137416e-01
 -9.5896512e-01
 -7.7943301e-01
 -1.3113337e+00
 -7.6573700e-01
  4.7841737e-01
 -3.9435598e-01
  4.4891441e-01
 -2.3011293e+00
 -5.7570565e-01
 -1.2591583e-01
  8.2809544e-01
 -3.7738505e-01
 -1.7836211e+00
 -1.2784338e+00
  1.5834719e-02
  1.5814263e-02
  6.5523016e-01
 -1.3696246e+00
 -6.3873112e-01
  5.7945032e-02
  5.1512928e-03
 -4.7108624e-03
 -3.7696430e-01
 -9.2021413e-02
  2.5763276e-01
  6.9184462e-05
 -1.0575924e+00
 -3.5274449e-01
  1.3668689e-01
  6.1410379e-02
 -1.8119223e-03
 -2.0925887e-02
  5.1571429e-04
  2.6738071e-03
  3.0594068e-03
 -5.3585144e-03
 -4.8597958e-03
  5.2165012e-03
 -7.6184916e-01
 -3.0481216e-04
  4.6034758e-03
 -4.8023746e-03
 -8.2820477e-03
 -1.0610628e-02
 -8.0957161e-03
 -9.2299003e-04
  2.3611155e-03
 -6.0184342e-01
 -4.4607813e-03
 -1.2194623e-02
 -6.3918234e-04
  3.2146550e-03
 -2.2810591e-02
  5.7399601e-01
 -1.2016851e-02
 -8.1839748e-03
  4.8989393e-03
  4.4532968e-03
  4.3252646e-03
 -4.5327852e-03
  1.3520207e-02
  2.4715923e-03
  5.7277284e-03
  2.9856570e-03
 -2.2303347e-02
  3.5826760e-04
  2.5784879e-03
 -4.4800206e-03
 -3.3663092e-03
  4.0953513e-03
 -2.0981976e-01
 -1.3578442e-02
  1.4670267e-03
  1.0292600e-02
 -1.7911096e-03
 -1.1376384e-04
 -1.2357646e-02
  2.4006441e-03
 -7.9244580e-03
  1.4100402e-02
 -6.0783871e-03
 -5.7911366e-04
  2.2611022e-03
  2.1447722e-02
  7.9673697e-04
  3.1439362e-03
 -9.1953259e-03
  3.7777813e-03
  2.4726026e-01
  1.1696982e-02
 -1.9527716e-03
 -1.0501309e-02
 -1.6877572e-03
 -2.2464778e-02
  7.4385842e-03
 -1.6043076e-03
  3.1119725e-01
  3.2100021e-03
  1.7405393e-03
 -9.6392329e-04
  1.1973200e-02
 -5.9414376e-02
 -1.3919718e-03
 -5.4394703e-02
 -2.7819255e-01
 -8.1588365e-03
 -5.7508335e-03
  1.0813157e-02
 -1.6798493e-02
 -4.1858321e-03
 -4.0489826e-02
  1.0427929e-03
 -5.1381576e-01
 -1.7229345e-01
  1.4310203e-02
  3.3445060e-02
 -1.2188528e-03
 -4.1614915e-03
 -7.2046272e-03
 -6.1911279e-03
  2.2240407e-04
  2.5123775e-03
 -1.1166587e-02
 -1.7614799e-03
 -3.5336975e-04
  3.5043361e-03
 -6.3296367e-04
 -1.4110265e-02
 -5.2331006e-03
 -9.7504985e-03
 -6.2597748e-05
  2.7975407e-03
  2.1901319e-02
 -1.6430149e-02
 -5.4814951e-03
 -2.6465524e-03
 -1.2655082e-01
  6.1786395e-01
  1.2202040e+00
  1.5738551e-04
  2.0989884e-01
 -7.8800596e-02
 -6.2178284e-01
  7.7426426e-02
  2.4741423e-01
 -5.8400106e-01
 -8.4052928e-02
  8.5011834e-01
 -4.7243953e-01
 -7.0053868e-02
 -8.8123423e-01
  2.6404209e-02
 -5.0929575e-03
 -4.8508543e-01
 -1.6721313e-01
 -4.5444086e-01
 -8.1269674e-02
 -6.0983694e-01
 -7.2307899e-03
  7.5688046e-01
  1.8369919e-03
 -4.7269948e-03
 -7.1240842e-02
 -3.6863682e-03
 -2.3363255e-02
 -1.3393280e-03
  3.4987929e-03
 -3.4062162e-01
 -2.0920305e-02
 -6.0933274e-03
 -7.6698032e-03
  2.7840473e-03
  3.1733410e-03
  3.7915464e-03
  1.8853283e-02
 -1.7293464e-02
 -7.1492833e-01
 -7.5278938e-04
  9.8237805e-03
  7.1102018e-03
  3.5591272e-03
 -8.6426042e-04
 -1.8084472e-02
  8.5466765e-03
 -1.8471850e-02
 -7.1063410e-03
  4.5075761e-03
  4.9889581e-03
  1.4665130e-02
  3.7905594e-04
 -2.1766113e-02
  7.0897432e-04
 -3.2350095e-03
  8.0216117e-03
  1.2937284e-02
 -8.9772791e-03
  6.2040305e-03
  3.8086563e-02
 -1.5909496e-03
  2.4994758e-03
 -6.3611692e-01
  1.1446981e-02
 -6.1926250e-03
  7.0013665e-03
 -3.9608330e-03
  1.6944118e-02
  9.0273842e-03
 -4.2466843e-03
  1.7525065e-01
 -1.5273278e-03
 -3.2290213e-03
  4.9268873e-03
 -8.3761783e-03
  1.6063468e-03
 -4.5931459e-04
  4.4736369e-03
  9.4812596e-01
  1.7712103e-02
  6.5746978e-03
  7.8954222e-03
 -7.1247197e-03
 -1.1998882e-02
  3.1627258e-03
 -1.2183705e-02
 -2.2267541e-03
 -4.0177549e-03
  1.7102952e-03
 -3.3727088e-03
 -9.0186864e-02
  3.0764032e-04
  1.9076381e-02
  6.1223247e-05
  5.8107625e-04
 -7.8122976e-05
 -8.9136194e-03
  1.1775539e-03
  6.4531888e-04
 -1.8636507e-03
  1.1914419e-04
 -6.8632164e-04
 -9.4039552e-03
  3.3590284e-03
  2.5743830e-03
  3.6260614e-03
 -4.8161419e-03
  2.4496361e-03
  9.7749848e-03
  1.0720712e-02
 -1.1587777e-02
 -2.0584431e-03
 -7.8021274e-03
 -3.3447468e-03
  7.3217698e-03
  4.8787403e-03
  9.2782296e-04
 -1.3278603e-02
 -7.7463929e-03
  2.3504747e-03
 -1.1905849e-02
 -1.2772595e-02
 -2.8063285e-03
  5.1968154e-03
 -7.5690839e-03
  2.8296995e-03
 -2.4253301e-02
 -7.5913551e-03
  7.2465837e-01
  1.1714047e-02
 -1.0228635e-02
  8.6669978e-03
  1.6620006e-02
 -5.0519962e-02
  3.7281003e-04
  1.7299642e-03
  1.3611888e-03
  1.7087816e-01
  9.6067190e-02
  1.6305546e-01
 -2.1076541e-01
 -7.3458827e-01
 -3.7718362e-01
 -5.3961512e-02
 -1.8434927e-01
 -2.1852542e-01
 -6.0431772e-01
 -5.5239904e-01
  1.8336494e-02
 -4.7150549e-01
 -6.2467372e-01
 -3.6175868e-01
 -1.5508692e-01
  3.8674492e-02
 -1.2610241e+00
 -2.7512187e-01
 -3.2840073e-02
  2.2863125e-02
  1.6381850e-03
 -1.2306302e-01
 -7.6684870e-02
 -3.0239764e-01
  4.8434891e-02
  6.3604242e-03
 -3.0787194e-02
  3.8457231e-04
 -2.3421535e-02
  3.2594332e-03
  3.3992475e-01
  1.7656641e-02
 -7.2044380e-02
 -2.6023227e-03
  1.3162991e-03
 -2.3471503e-02
 -9.2705432e-03
  6.5807179e-03
  1.7812632e-02
  2.6790699e-04
 -8.0162403e-04
 -1.0122742e-02
 -3.2251584e-03
 -2.4511274e-02
 -8.3307613e-04
  6.7712734e-03
  3.2429892e-04
  1.7146438e-02
 -6.5502515e-03
  2.5956249e-02
 -7.6663466e-03
  6.4262766e-03
  8.3104856e-03
  1.8831502e-03
 -5.7856501e-03
 -1.3800472e+00
  1.1411567e-02
 -1.0266900e+00
 -4.0178243e-03
  1.3489297e-03
 -8.8509737e-04
  1.1739997e-02
 -6.3283169e-03
  1.5139990e-03
 -3.8022036e-03
  4.8634445e-04
 -4.6468908e-03
 -8.3317952e-03
 -2.3220216e-03
  1.2696260e-02
  6.4900424e-04
  9.6259983e-03
  3.0160138e-01
  6.8335515e-03
  6.0989230e-04
  1.0756124e-03
 -2.6518539e-02
 -4.2429302e-04
  2.8142103e-03
  2.1143674e-03
 -3.2142308e-03
 -5.4767897e-04
  6.3030235e-03
 -4.0327972e-03
 -1.9028736e-02
  6.3134823e-03
 -3.8751874e-03
 -2.9058852e-03
  6.8270460e-02
 -1.4677823e-04
 -7.7993153e-03
 -1.7700028e-02
  5.0642136e-03
 -5.6843664e-03
 -3.8131976e-03
 -1.4994455e-03
  3.7327139e-03
 -8.7018212e-04
 -5.9638531e-03
 -2.3673517e-03
  9.7307551e-04
 -6.2913843e-03
 -7.1022601e-04
 -2.3531774e-03
 -4.1347306e-02
  2.3895264e-01
  8.1259161e-05
  1.4414401e-01
  4.5744702e-01
  5.5016219e-03
 -1.2674792e-01
  4.3086582e-01
  2.9777160e-01
  8.0768904e-03
  5.3558112e-03
  2.3080808e-01
  7.3868908e-02
  4.2834885e-02
  3.4322236e-03
 -4.9896756e-01
 -1.2807971e-03
  2.2781685e-02
  4.5877721e-02
  5.8943069e-01
 -1.8679221e-03
  3.1704906e-02
  1.1847180e-02
  4.4771107e-03
  2.7065927e-01
  9.3468633e-03
  1.0045310e-03
  1.2229919e-01
  1.3326624e-02
 -1.5430469e-03
 -6.8568555e-03
  2.2683989e-03
 -1.2900439e-01
  8.4794452e-04
  8.0967108e-03
  3.9494550e-03
 -7.3828280e-04
  6.9319266e-01
 -1.9312070e-03
  7.0170704e-03
  7.9767048e-02
 -1.5338195e-02
 -1.1676039e-02
 -7.4269734e-03
  2.8185725e-02
 -1.4167756e-04
 -2.3770509e-03
 -1.1238556e-03
  7.3209526e-03
 -8.6793667e-03
 -9.2320265e-03
  1.0615009e-02
 -1.0786950e-01
  7.9420861e-04
 -2.5786508e-03
 -8.9660501e-03
 -5.8738473e-03
  5.9407311e-03
  1.9087886e-02
  2.2686981e-02
  1.2087677e-02
  9.5508127e-03
 -6.1276997e-04
  1.8911697e-02
 -1.2344352e-03
 -1.0816561e-02
  8.3701400e-04
 -1.1775835e-03
  1.2485173e-02
  1.8047458e-02
 -4.2516503e-02
  6.2727265e-02
  4.6106406e-02
  4.0283462e-01
  1.4530059e-02
  5.1622454e-04
  6.2242179e-04
  5.0509428e-03
 -2.0435225e-04
 -1.1663202e-02
 -7.0396061e-03
 -3.7627663e-03
  1.5262100e-02
  1.3566500e-02
  5.5130129e-03
  1.9446909e-02
  5.2787014e-04
 -1.3036766e-03
  1.8666609e-03
  3.6118296e-03
 -2.7950157e-03
  9.7539313e-03
  4.1777236e-04
 -4.3249959e-03
  8.4441407e-03
  6.0353475e-03
  1.5109613e-03
  3.8075724e-03
 -2.4818990e-03
  3.8834061e-03
  2.4976186e-02
 -1.6070710e-04
  9.4933763e-02
 -1.5915059e-02
  4.1448502e-03
  5.0395052e-03
 -5.9161754e-03
 -5.4058599e-01
 -1.7808377e-03
  4.7122958e-01
  2.1308057e-03
 -3.8230902e-01
  2.1587880e-03
 -1.1875935e-02
  4.3651822e-04
  1.4224548e-02
  6.0900366e-03
 -9.6323239e-03
  3.3124452e-03
 -2.7846356e-03
 -6.6610589e-03
  1.2203058e-03
  5.6406329e-03
 -1.4633158e-03
 -1.4394366e-03
  9.9205729e-03
 -1.1320669e-03
  1.7403141e-02
  4.5193210e-03
 -3.2329278e-03
  1.5793605e-03
  1.1741159e-02
  1.4247078e-02
 -4.1832452e-04
  1.0037854e-02
 -1.0430686e-02
  8.5550044e-03
 -1.0667531e-02
  5.9291195e-02
 -8.1259711e-03
 -5.1528979e-03
  1.1805793e+00
  1.9185403e-01
  1.6653021e-04
  1.8403742e-02
  3.7519436e-02
  5.6043332e-03
 -2.0499105e-02
  6.1295591e-02
  9.6535189e-03
 -4.4744774e-03
  1.7445104e-03
  7.7764563e-02
  2.9355448e-02
  7.8498544e-03
 -2.6181960e-03
 -4.0693870e-03
  3.7501240e-03
  1.3982227e-01
 -3.3301078e-02
 -7.5326823e-02
 -8.3983626e-04
 -4.6494917e-04
 -1.1629842e-02
  2.1870578e-02
 -1.4895776e-03
  5.1944498e-03
  7.1016110e-02
 -1.8700348e-01
  6.5571489e-03
 -2.6392399e-03
 -7.5066620e-03
  9.9472832e-03
  4.7309600e-02
 -4.3210830e-03
 -1.1279976e-01
  2.8634247e-01
  1.0441177e-01
  3.2921848e-01
 -1.2310400e-01
  5.5508089e-01
  1.6063814e+00
  4.8913839e-01
 -1.2246304e+00
 -1.2260213e+00
  4.6414879e-01
  2.3253703e+00
  6.2945044e-01
 -1.9171301e+00
 -5.5936098e-01
  8.5948199e-01
  1.1065612e+00
  8.6809576e-01
 -1.2887542e+00
 -1.4832232e+00
  2.6900622e-01
  3.0087203e-01
  4.6848810e-01
 -6.2957026e-02
 -4.8216361e-01
 -6.6977870e-01
  5.9684642e-02
 -1.3240467e+00
  8.3653873e-04
  2.5565512e-03
  5.7401196e-03
  2.9334307e-02
 -1.9797310e-01
  4.3304056e-01
 -6.0239797e-03
  4.5919414e-03
  4.2423763e-04
  3.0281325e-03
 -3.4655500e-03
 -3.2759623e-03
  6.8988819e-03
 -8.2130404e-03
 -6.5758228e-03
 -8.0537247e-03
  5.8452263e-03
 -5.0167213e-03
  5.4361694e-04
 -9.4778156e-03
  2.5655350e-03
 -5.8670505e-03
  9.0953620e-04
 -1.5545529e-02
  2.1838559e-02
  1.1398445e-02
  5.7108025e-04
 -6.9774436e-03
  3.0049607e-03
 -3.4015744e-03
  6.6835564e-03
 -2.8553526e-03
  4.9477458e-01
 -4.3576434e-03
 -4.7533684e-03
 -1.6039828e-02
 -2.2251119e-03
  5.5140723e-03
  3.1094700e-02
  5.6874142e-03
  1.5579703e-01
  7.8682443e-03
 -3.4236265e-03
  2.3818770e-02
  1.1044466e-03
 -5.8405584e-04
 -2.2909407e-01
 -7.4835732e-03
  2.7603447e-03
 -6.8671501e-04
  3.2297624e-03
 -1.0478968e-01
 -2.4347615e-03
  1.8326037e-03
 -3.3594894e-03
  1.3501969e-03
 -7.3352212e-01
 -1.7982224e+00
 -1.2907434e-04
  4.9435520e-03
  8.3362535e-03
  1.2650562e-02
 -6.3800360e-03
  1.9307370e-01
 -1.9661544e-03
 -6.0531842e-03
 -2.2085584e-03
 -5.5713579e-03
  6.0514007e-03
 -3.7669197e-03
  1.0490431e-02
  3.5118526e-05
 -1.0026374e-02
 -1.3974334e-02
  1.0897163e+00
 -9.3293246e-03
  1.3250448e-03
  3.3477980e-03
 -6.4612820e-04
 -1.4347159e-03
  5.9365598e-03
  1.0915004e-02
 -4.6590636e-03
  4.7889818e-03
 -2.2298975e-03
  7.5276428e-01
  1.7432179e-02
 -5.4116733e-03
  2.8442722e-03
  2.2312665e-02
 -1.4508496e-03
 -1.7572267e-03
 -2.8056288e-03
 -4.6529239e-03
  1.3835266e-02
 -5.4935766e-03
  4.9869092e-03
  1.8344891e-03
 -1.7289169e-02
  9.4634038e-04
  1.3651847e-02
 -1.2002344e-03
  1.1899649e-02
 -1.6997121e-03
 -2.2062471e-03
 -4.8375721e-03
  2.4715383e-02
 -2.1642819e-02
  6.3421093e-03
  4.4296877e-03
  1.1916310e-02
 -4.1985582e-04
 -1.8646903e-03
 -2.8215731e-02
 -2.7028106e-03
 -3.7389726e-03
  1.0029777e-02
 -6.9789755e-01
 -8.2996342e-04
 -5.9600160e-03
 -2.9109167e-02
  6.6504214e-04
 -7.0562181e-03
 -7.9321433e-03
 -9.9260849e-04
  7.0940177e-03
  4.4628601e-03
  3.1419910e-02
  6.6791440e-04
  4.3906206e-03
 -1.9033125e-03
  1.7717835e-02
  4.4990340e-03
  8.3695538e-03
  1.1226909e-03
 -3.3776534e-03
 -3.6813671e-04
 -5.3618914e-03
  7.5219952e-02
  2.0204331e-03
  4.9491213e-03
 -4.1356380e-03
  3.7562216e-03
 -3.5134787e-03
 -9.0324730e-03
 -2.7239986e-03
  3.3497217e-05
  1.1564797e+00
  2.8405497e+00
  2.6485996e+00
  3.1922543e-01
 -2.8165743e-01
 -3.3942854e-01
  2.3849906e-01
 -1.5600566e+00
  1.0521708e-01
  1.0476129e+00
  2.7732155e-01
 -7.7669597e-01
 -8.5969532e-01
  1.2406173e-01
  2.5544098e-01
 -1.4702156e-01
 -1.1825804e-01
 -1.6761669e+00
 -4.1978475e-02
  1.4041500e-01
  9.1844028e-01
  3.2481697e-01
 -7.4955851e-01
 -8.0222988e-01
 -7.4755651e-01
  5.1933378e-03
  1.6388895e-01
  9.5163137e-01
 -1.9458625e-01
 -3.7009157e-02
 -7.4593052e-02
  4.5109540e-03
  1.0197951e-02
  1.6275775e-01
  2.9561371e-01
  1.6069987e-03
  2.9300686e-02
  1.3730548e-03
 -7.1124168e-04
  2.7345013e-02
  9.5365848e-03
 -6.6237603e-03
 -1.4307529e-04
  6.0224170e-03
  4.5855891e-02
 -6.5140771e-03
 -1.4247053e-02
  1.6774131e-02
  4.1185571e-03
 -1.2941343e-03
 -1.1896652e-03
  1.1000033e-03
  4.0315334e-03
  1.1125721e+00
  4.8461151e-03
 -1.5532563e-02
  2.0210587e-03
 -3.2316131e-04
  3.3198844e-03
  1.3614036e-03
 -2.1860102e-02
 -5.7127029e-03
  1.7686183e-02
 -6.8239556e-03
 -7.6234945e-05
  4.8083859e-03
 -8.1791630e-04
 -1.1471430e-02
  1.5995739e-02
  3.9212080e-03
 -1.8845746e-02
  9.5876560e-02
 -8.1201926e-02
  2.5362228e-03
  1.4367695e-01
  1.9964401e-03
 -2.8457409e-02
 -2.8440799e-03
  3.4901891e-02
  3.5585720e-02
  4.2235143e-03
 -6.7714308e-03
  8.4199309e-02
  6.2115341e-02
  7.4582933e-03
 -1.4031750e-02
  5.1608835e-03
  7.0359372e-02
  1.4747604e-02
  2.8392185e-02
 -3.2029194e-03
  1.9953305e-01
  1.6333991e-01
  7.1368488e-03
  8.0763891e-02
 -7.3121878e-04
  7.3748315e-03
  9.9879270e-03
 -8.9979274e-03
 -4.6578124e-03
 -2.8430461e-03
 -1.5964608e-03
 -8.3287992e-03
 -2.0469767e-03
  1.3068647e-02
 -8.2897663e-04
 -9.7151129e-03
  8.3517395e-03
  4.2625982e-03
 -1.1393261e-02
  2.9698445e-03
  5.0053163e-04
  6.4583584e-03
 -5.3339852e-03
 -2.1680107e-03
 -6.4298809e-03
  4.6110349e-03
 -2.3446245e-01
 -7.6121003e-03
  2.1957760e-03
  7.4161245e-03
  1.6474774e-02
  2.4554231e-03
  6.4911231e-02
 -9.6646007e-03
  8.3605386e-04
 -5.4484590e-05
 -1.5819474e-03
 -2.9235051e-03
  4.2282455e-02
  1.0120352e-02
 -6.8881440e-05
  3.3787932e-02
  5.0004581e-03
 -1.6429765e-02
 -3.7284198e-01
 -1.0824011e-02
  5.5402271e-03
 -3.8922045e-03
  9.3717435e-03
 -3.8862030e-03
  5.3959829e-04
  1.4492149e-02
  2.2427437e-01
 -8.4112296e-03
  4.1575497e-03
 -5.3604646e-04
 -7.6070119e-04
 -1.3148027e-02
 -1.1456816e-03
  1.5613899e-03
 -9.9502166e-04
  9.1546858e-03
 -1.1625208e-01
 -8.9346552e-03
 -1.5311801e-02
  5.1594367e-03
 -1.9683370e-02
  1.9316770e-02
  1.3898621e-02
  2.4886557e-03
  6.6396659e-03
  3.0154658e-03
  4.9056583e-03
 -5.4012951e-03
  5.4637175e-03
 -1.8491553e-03
 -3.2752415e-03
  1.0080820e-02
 -2.0879034e-03
  7.1277040e-01
 -5.5083558e-05
  2.3003221e-03
  2.0694903e-03
  2.9210147e-02
  5.4969907e-01
  5.4577512e-01
  2.5086045e-01
  1.1935865e+00
  1.2676655e+00
  4.8179811e-01
  9.3348429e-02
  1.3203543e+00
  1.6007541e-02
 -7.3280878e-02
  3.0272296e-01
  7.0073761e-02
  7.5314671e-01
  1.4020294e-02
  7.8451335e-02
  4.4419608e-01
 -2.9333697e-03
  3.6956492e-01
 -5.2017736e-01
  3.7434548e-01
  1.6912156e-01
  3.9313780e-03
  1.9717501e-02
  5.2866968e-03
 -4.9081046e-02
  3.3188304e-03
  1.1290489e-02
  6.2573868e-01
  3.7889935e-03
 -9.1092438e-03
 -1.3775765e-03
  1.1452652e-03
 -1.4054013e-02
  3.2384421e-03
  3.1202057e-04
  1.1641535e-02
 -2.3518300e-03
 -1.4609529e-02
  1.7811874e-02
 -4.7041927e-03
  8.4818006e-03
 -1.9809634e-03
  5.6930503e-04
 -1.0922392e-02
 -1.3451210e-02
  4.2645838e-03
 -8.3069680e-03
 -7.0599206e-03
 -2.7000264e-03
  3.1444749e-03
  5.6746709e-03
 -9.8405685e-03
  7.0049305e-04
 -1.4536408e-03
  1.0104996e-02
 -6.6778804e-03
  4.3046703e-03
  2.2997027e-02
  6.9971224e-03
 -8.2132703e-04
  1.1631233e-02
 -3.7558202e-03
  2.1845099e-04
  1.6593074e-02
 -7.5766416e-03
 -4.7664167e-03
 -5.2078925e-03
 -7.9238024e-03
 -4.2314511e-03
 -2.2555636e-03
 -2.0604637e+00
  2.9000238e-01
 -9.2648470e-01
 -1.0851232e-02
  1.3691968e-02
 -2.3536617e-02
 -4.2223364e-01
  1.4829685e-03
  5.9489375e-03
  1.4095723e-03
 -5.0301182e-01
 -6.3047619e-03
  3.0853103e-03
  2.0788215e-02
 -1.0089877e-03
 -3.1810137e-03
  1.4958462e-02
 -2.5023565e-01
  7.1223438e-02
 -6.1034751e-01
 -1.3600731e+00
 -3.0939338e-01
 -2.4300399e-03
 -4.5644589e-02
  2.8151777e-03
  8.7934063e-04
 -7.9411184e-03
  4.0902472e-01
 -3.3242798e-01
 -7.6022938e-05
 -2.3192221e-01
 -1.4643608e-01
  1.5660013e+00
 -1.1161067e-01
  1.1968948e-02
 -2.8847417e-01
 -9.9293590e-01
  1.2625299e-01
 -8.9303337e-02
 -6.0001290e-03
 -5.8409071e-01
  8.8835254e-02
  6.0211942e-03
  3.6665791e-01
  1.6737540e-01
  7.4377872e-02
  8.3325002e-03
  2.6765552e-01
  1.1913422e+00
 -7.2830764e-04
 -9.8782787e-03
  2.9934984e-02
 -6.3957155e-02
  2.6171715e+00
  1.6864529e-01
  2.9551935e-01
 -5.2064462e-03
  1.1717136e-03
  6.0170430e-01
 -5.6312691e-02
  5.2069669e+00
 -1.5890077e+00
  1.3255878e-01
  2.5377280e-04
 -2.6526263e-01
  3.1275389e-01
  3.6354262e-02
 -1.3310796e+00
  1.4624491e+00
 -3.9485707e-03
  2.6317644e-01
  5.2460456e-01
 -4.9602067e-01
  2.6913399e-03
 -1.5832387e+00
 -1.1806938e-02
  1.4943342e+00
 -5.4213870e-02
 -1.6890444e-02
  1.2849576e-03
  4.5627680e-01
 -1.1997148e-01
 -2.1506791e-01
 -3.9335430e-01
  9.1981679e-01
  2.0257971e-01
  1.4744425e-01
  5.2472739e-04
  3.9461842e-01
 -1.4175584e+00
 -4.8631889e-01
 -6.6959530e-01
  4.0809309e-01
  4.0862337e-01
  1.1158482e-01
 -2.4208957e-03
  8.1335455e-01
 -1.0663269e-01
  2.1185488e-02
  7.8125870e-01
 -2.6947674e-01
 -2.0339978e+00
 -5.4778364e-02
  4.5539686e-01
 -9.6931261e-01
  1.8839583e+00
  2.5727576e-01
  7.3229969e-01
 -7.2010897e-02
  1.3097486e-01
  2.2508509e-01
  4.4287252e-04
 -1.3455094e+00
 -7.2996736e-01
 -4.5304736e-01
 -5.8219165e-01
  1.8987217e+00
  3.2241204e-01
  2.4352920e+00
  5.3927690e-01
 -5.7824403e-01
  8.5141027e-01
 -8.4063441e-01
 -1.7009833e-01
  5.4412669e-01
 -7.0739478e-01
 -9.2832342e-02
 -3.7130436e-03
  7.5228637e-01
 -2.3287702e+00
 -2.6515555e-01
 -8.7137973e-01
  1.7973644e+00
  5.6062341e-03
  9.0223724e-01
  3.7628352e-03
 -2.0649107e+00
  1.5127614e-01
 -1.6996545e+00
 -9.0433197e-04
 -7.9791540e-01
 -1.2887317e-03
 -3.9037718e-03
 -4.2352837e-02
  1.5958401e+00
 -2.2289403e-01
  3.9665845e-01
  3.0611575e-01
 -5.0741941e-01
  3.5701030e-01
 -2.9154739e-01
  1.1751206e+00
  4.7405234e-01
 -8.6763299e-01
  8.4530056e-01
 -1.1581333e+00
 -6.7049503e-01
  2.2750825e-01
  5.9901834e-01
  2.0794432e-04
  1.2962899e-01
 -1.3428237e+00
 -1.7954722e-01
 -1.0874847e+00
 -2.1216969e+00
  1.1337472e+00
  4.1273978e-02
  8.6668599e-03
  1.0454829e-02
  5.6155962e-01
  5.6420010e-01
 -3.2492200e-01
 -9.9568091e-02
  1.1063011e+00
 -4.7668201e-01
  1.9877808e-01
 -5.5178434e-01
  4.1266434e-02
 -1.7257570e+00
 -3.0174940e+00
 -1.2209193e+00
  3.3535287e-02
  1.4537694e+00
  4.0925643e-01
  1.2264736e+00
  2.8387129e-01
  3.9146996e-01
  1.7093091e+00
 -9.0796328e-01
  5.9611596e-02
  3.5554165e-01
 -6.9381677e-02
 -5.6089092e-02
 -1.7098244e-01
 -5.3764117e-01
 -1.9807641e-01
  4.5278123e-01
 -4.7835401e-01
 -3.2161474e-01
  6.8281394e-01
  7.7773041e-01
 -6.4565551e-01
 -1.6064097e-01
 -5.0993435e-02
  9.7433209e-01
  1.0492357e+00
 -1.1427286e-02
  2.7243055e-02
 -1.8975355e-02
 -1.1271281e+00
 -8.2430512e-01
 -9.8506967e-03
 -6.8511099e-01
 -1.1301214e+00
 -3.1959450e-01
 -2.3297276e-01
 -1.1821270e+00
 -6.8668586e-01
 -1.9419949e+00
 -2.2194328e+00
 -5.0149834e-01
  1.0004342e-01
  1.2113271e-02
 -9.9538325e-04
 -8.6539062e-03
  4.1221194e-02
  3.4511695e-03
  1.3064478e-03
 -6.5728085e-04
 -4.4881153e-01
 -4.7831349e-02
  4.5962373e-04
  4.8621649e-01
 -3.1642573e+00
 -7.8743339e-01
 -1.2488222e-01
  3.2760785e+00
 -1.6669725e-01
 -5.5049020e-03
 -1.0376934e-02
  7.0436828e-02
  1.2531645e+00
 -1.6787505e-02
 -7.2759375e-02
  2.3695549e-02
  1.7186627e-01
 -6.0766786e-03
  1.4248266e-02
  1.3655228e-02
  2.5711349e-01
  5.2364373e-01
  1.3606250e+00
  1.1103851e-01
  3.0693477e-03
 -4.7105965e-03
  2.4472689e-03
  4.2656004e-02
  7.6104287e-04
  3.7629597e-02
 -8.8433456e-03
  3.2012147e-01
 -7.7211559e-01
 -4.0776643e-01
 -1.7525417e-01
 -3.4419048e-01
 -7.5953089e-02
 -2.0769095e+00
 -6.3120437e-01
 -7.7425736e-01
  6.0338870e-02
 -8.0772480e-03
  3.5581958e-02
  3.6742154e-01
  3.0295283e-02
  4.4644842e-01
  1.7048678e-01
 -1.0248616e+00
 -2.2366469e+00
 -5.7591487e-02
 -1.0066527e-02
  4.8055813e-02
 -1.5980217e+00
 -1.9666672e+00
 -2.9619575e+00
  2.7271175e+00
  5.7512772e-01
 -2.5926584e-02
  6.2505864e-02
 -7.8121150e-01
  2.4316368e-01
 -5.3979856e-01
 -1.2557815e+00
  1.2777472e+00
 -3.2948840e-01
  8.9827217e-03
 -2.2452015e-01
 -6.1522824e-01
 -1.1656774e+00
 -1.6683242e-01
 -5.9438940e-02
  3.7409747e-01
  2.9199997e-01
 -3.1943067e-03
 -7.9731243e-03
  6.8378592e-01
 -7.0071357e-01
 -2.8938716e-02
 -2.4256650e-01
  5.2912539e-01
 -1.3595926e+00
 -2.2340401e-01
  1.4381354e-03
  2.0995409e+00
  8.1711054e-02
  5.0600344e-01
  8.9624882e-02
 -8.2399994e-01
 -8.8472828e-02
 -5.1577655e-03
 -5.7377894e-03
  2.6600680e-01
 -7.9093820e-01
  1.3656297e-01
  1.6736601e-01
  1.1071296e+00
 -2.1629882e-01
 -4.7297326e-01
 -7.7721052e-02
  3.6634564e-01
  7.7392870e-01
  1.1687800e+00
  9.4051264e-02
  2.5994459e-01
  2.1809438e-01
 -3.8634170e-02
  1.8906514e-01
  1.1694440e+00
 -1.0435961e-02
  5.5513680e-01
  5.1303822e-01
 -1.1171700e-02
  6.6914342e-02
  3.1878072e-01
 -2.3954427e-01
  2.2571091e-01
  1.0719221e-02
 -1.4563384e+00
 -9.8300981e-04
  2.3869358e-01
  9.7294056e-01
 -1.3854983e-01
  1.6887661e-02
 -4.5948187e-01
  3.4116518e-01
  1.1238984e-02
 -4.8167568e-02
 -9.1095877e-01
  4.8626018e-01
 -1.8358437e-02
  1.9806365e-03
  1.2052722e+00
 -6.4723527e-01
 -1.4277452e-01
 -4.0610280e-02
  1.0491394e+00
  4.3218634e-03
 -5.0844550e-03
 -1.4973811e-02
  1.8678451e+00
  3.6229132e-04
  2.6950033e-03
  2.4139012e-01
  9.7131066e-04
  2.7468374e-02
  6.0359524e-03
  1.4402675e-02
 -2.7720761e-01
 -1.4015110e+00
 -6.9655943e-01
 -1.0857409e+00
  2.9667811e+00
  1.6356683e-03
 -7.3391008e-03
 -1.3151431e-03
 -1.2554872e-02
  2.5191598e-03
 -3.0747056e-03
  2.9989364e-02
 -7.0095360e-02
  4.1843206e-03
 -2.4643046e-01
 -1.9014927e-02
  2.8169307e-01
  1.4284111e+00
  1.2369814e+00
  1.9032685e+00
 -8.9653134e-01
  7.4149631e-03
 -4.9158488e-03
  1.2058917e-03
  4.0307480e-01
  2.8448754e-03
 -1.4913514e-01
 -1.4909639e-02
 -5.0598275e-02
 -3.3645576e-01
 -2.8003963e-02
 -1.1340717e-02
  4.5539501e-01
  1.3334780e+00
  2.2060566e+00
  3.1433985e-01
  2.8737506e-02
  2.2753065e-02
  3.7509456e-01
  1.0413064e-03
  2.0988610e-01
 -5.3131020e-01
 -1.8874495e-01
 -1.0266657e-01
  3.1203080e-03
  3.8007620e-01
  4.0431091e-01
  2.0754017e-02
 -1.1437535e+00
  5.8039182e-01
 -1.6906930e+00
 -2.2119920e+00
 -9.3774164e-01
  9.6137114e-02
 -1.2846424e-03
 -4.2043021e-03
 -4.4504553e-03
 -1.3592451e-04
  4.7446844e-01
  5.7272166e-03
 -1.0718277e+00
  7.2463500e-01
 -4.9034745e-02
 -1.4607681e-01
 -3.7004176e-01
 -1.0167578e-01
  6.7719133e-03
 -2.4092124e-01
  1.0969923e+00
  2.8290391e-01
 -1.2215782e-01
  2.8955108e-03
  4.2753133e-01
  2.5822496e-01
 -2.4711397e-03
  3.0933192e-01
 -1.0911150e+00
 -1.0564049e+00
 -3.3437558e-03
  1.3762355e-02
  9.6798187e-01
 -6.4413953e-01
  3.3169913e-01
 -4.6352223e-02
  9.8925792e-02
  1.1948983e-02
  1.9807741e-02
 -2.7266314e-02
  1.0748832e-02
  1.7998622e-01
 -2.1128545e-02
 -2.9006278e-02
 -4.9094260e-01
 -7.2441083e-01
  4.8958135e-01
 -1.7845349e-02
  5.0574207e-01
 -4.0207365e-01
 -1.2078840e-01
  1.4080362e-01
 -3.3569247e-01
  6.5824270e-01
  6.8182029e-02
 -1.0684814e-02
  7.0227958e-02
  7.9504354e-03
 -1.0700210e-01
 -3.7438059e-01
  3.4154102e-02
 -1.9142683e-01
  8.7953597e-01
 -1.8578629e-01
  5.4552536e-02
  8.4738618e-01
  1.7589725e+00
 -1.2835270e-01
 -2.3842312e-01
 -7.4745941e-01
 -4.9567232e-03
 -5.7119727e-03
 -1.0377588e+00
  8.1261772e-01
 -1.8639158e+00
 -1.5437447e+00
  1.6717051e+00
 -1.7632990e+00
 -1.1817828e-01
  2.2354994e-03
  6.4061397e-01
  5.4177529e-01
 -2.4184136e-01
 -1.9382044e+00
  2.9229043e-02
  2.3584111e-01
 -2.7142621e-03
 -1.5315439e-03
 -1.8857503e-02
  2.5236553e-03
 -7.6147668e-02
 -8.4619984e-02
  5.5015641e-01
 -2.7141372e-02
  5.2758190e-03
 -8.3312002e-04
  1.4450535e+00
 -1.4037384e-01
 -8.4474140e-01
 -3.4064844e-01
 -3.6426436e-03
 -1.9104242e-01
 -3.5665412e-02
  9.5372694e-03
  1.6537638e-01
  5.8867800e-01
 -7.4926309e-02
 -1.0610549e-02
 -2.9868534e-01
  7.7196164e-03
  1.9092542e-01
 -1.7247567e-01
 -7.1819991e-01
  9.0473187e-01
  3.0404204e-01
  1.6336651e-01
 -1.9834028e+00
 -7.1065091e-02
 -3.3223178e-02
 -4.4451691e-03
  2.0451218e-01
 -7.9071349e-01
 -2.0306001e+00
 -7.6093769e-01
  1.3254333e-01
  1.8265952e+00
 -2.7255237e-02
 -8.5630873e-04
  7.2101462e-01
 -6.5541230e-02
 -2.3089027e+00
 -1.1429979e+00
  8.1842631e-01
  2.1680951e-01
  1.4649662e-03
  8.6064041e-03
 -3.8089484e-01
  3.9821863e-01
 -7.8976583e-01
 -1.3865079e-01
  3.3023775e+00
 -1.0056702e+00
 -8.8291568e-01
  5.9649930e-03
  1.6689348e+00
 -1.0647500e+00
 -1.5206406e+00
 -7.2454861e-03
  1.2561678e+00
 -8.5904356e-03
 -1.7508319e-02
  2.6622719e-01
  2.4201211e-01
 -6.8797415e-01
 -5.0070133e-02
  4.7493643e-01
  5.9632683e-01
  8.9975923e-01
  2.4495320e-01
 -5.3570224e-03
  3.1334131e+00
  3.0579931e-01
  5.5643070e-01
  3.0219246e-04
  7.3130369e-01
 -2.0369487e+00
 -2.7092084e-01
 -3.4198193e-03
 -4.7649611e-02
 -1.5527945e+00
 -3.1715348e+00
 -7.7870303e-01
  4.0085018e-01
 -4.0002704e-01
  3.0913201e-01
 -9.1629308e-03
 -4.0808475e-01
  5.6448836e-02
  5.2731460e-01
 -1.1885499e-01
  1.3951142e+00
 -9.1961998e-01
  3.0921160e-03
 -8.2302198e-04
  4.4276111e-02
 -1.0929211e+00
 -1.3271607e+00
 -1.2741489e+00
 -6.3311434e-01
  5.2731331e-03
 -6.3172621e-01
 -7.1331509e-03
 -3.4326512e-02
 -1.6103350e-01
  6.1188649e-02
  1.7537866e-02
 -1.9809467e-01
 -1.2998123e+00
 -5.6441624e-02
  1.2663515e-01
 -6.6029853e-01
 -2.1197924e-01
  1.2984422e+00
  1.4806228e+00
  1.8459594e+00
  4.6978295e-01
  1.5043930e+00
 -4.5276070e-03
 -1.0339482e+00
 -2.5039777e-01
 -9.1157444e-02
  2.8711021e-01
 -1.5109577e+00
 -6.8981135e-01
 -8.3767688e-03
 -2.0473160e-02
  2.4126166e-02
 -3.2559505e-01
  9.7730416e-01
  1.7540937e-02
 -1.3450814e+00
  1.3803998e+00
  1.1135052e+00
  8.5404992e-01
 -1.4978455e+00
 -1.3672863e-01
 -2.1379467e-03
  3.2617450e-03
  7.7345061e-01
 -6.7735370e-03
  8.9080725e-03
  1.8161166e-04
  3.3731125e-03
  2.3472619e-01
  6.2276311e-03
  4.6299264e-02
  2.7749467e-01
  1.3173224e+00
  4.5257162e-02
 -3.4452421e-03
 -1.1314195e+00
 -1.1813388e-02
 -1.6338717e-02
  5.5417647e-03
 -4.5150596e-01
  2.0773846e-01
  1.2684973e+00
 -1.1034829e-03
 -1.0972780e-02
 -2.9734744e-02
 -2.4239402e-01
 -7.3835835e-02
  1.4224583e+00
  2.4639678e-01
 -7.6714918e-02
  8.7141335e-01
  6.7615497e-01
 -1.0784866e-02
 -5.3238366e-02
 -7.3724312e-01
 -1.6812588e+00
 -2.0867072e-03
  6.2172269e-03
  3.7058080e-03
 -2.1298756e-01
  1.2195864e+00
  9.0693347e-03
 -8.3451922e-04
 -1.5116290e+00
 -6.0333025e-01
  2.0393586e+00
 -5.2541150e-03
 -8.8783473e-02
  1.6160114e-01
 -2.0213841e-02
  1.8919451e-04
 -3.9009511e-01
  3.7123074e-03
 -1.6171467e-02
 -2.0665357e-02
  9.3749121e-02
  2.6190317e-01
  1.3050640e+00
  5.6485504e-01
  1.2498074e+00
 -1.8103918e-02
  6.7402160e-01
  1.7240658e-01
 -9.7644901e-01
 -1.6954567e-02
 -3.2001475e-03
 -7.1068280e-03
 -4.1632724e-01
  3.7960962e-03
 -3.5400197e-03
  7.3448941e-03
 -2.1044319e-02
  2.3918612e-01
 -8.7034690e-01
  5.4033664e-03
 -4.7973934e-01
  3.1150827e-01
 -3.5508055e-02
  4.6807489e-01
 -8.5308522e-01
  1.1027658e+00
 -4.3972972e-04
 -1.0171734e-03
  1.0716891e+00
 -7.1649060e-02
 -1.1209839e-02
  1.1578460e-02
 -2.3041730e-01
 -2.2790020e+00
  7.0749777e-03
 -4.8610505e-01
  9.4003904e-01
 -3.2643864e-01
  7.7254914e-02
 -8.4673047e-05
 -1.1654469e+00
 -2.8032357e-01
 -1.5267257e-01
 -4.6303551e-04
  4.5003140e-01
  1.2621182e-02
 -1.7674467e-02
 -2.5741642e-03
 -1.4096367e-01
  1.5261379e-01
  4.5728090e-01
  2.5925520e-01
 -1.3281991e+00
 -1.2301463e-02
  1.4118047e+00
  2.9887050e-02
  2.2982673e-01
  2.4012694e-01
  2.4400424e-02
 -1.6354850e-02
 -1.1474119e+00
 -2.8196780e-02
  2.3592869e-02
 -8.7626632e-03
 -1.3020337e-01
  3.2365152e-01
  4.3663508e-01
  8.1775510e-01
  7.4404866e-01
  1.1115448e+00
 -9.9248928e-04
  1.5196165e-01
 -1.0943727e+00
  2.8273785e-01
 -1.7983948e-01
 -4.5740053e-02
 -6.4350758e-03
  8.0541843e-01
  2.4421185e-01
  5.3522363e-03
  1.6088901e-01
 -1.9766442e-02
  3.1838243e-04
 -8.2196444e-02
  7.2926898e-03
 -3.6743227e-01
  1.4746640e+00
 -2.2133829e-02
 -2.3724630e+00
  2.4524137e-01
  4.4262835e-01
  2.1654479e-01
  2.0154437e-01
  1.4834388e-02
  1.8842302e-03
  4.2031910e-03
 -6.6050625e-01
 -2.4856913e-03
  1.1268922e-02
  7.6280255e-03
 -1.0451662e-02
 -5.9587788e-03
  1.3775227e-02
  9.6628070e-03
  2.9200159e-02
 -1.2703489e-01
 -3.2824252e-02
  5.1235549e-02
  1.2210640e-03
 -9.1546498e-02
  3.6612007e-01
  9.6048392e-02
  3.6155322e-01
  1.3993335e-02
 -5.5176816e-03
 -1.8963072e-01
  4.1539770e-01
 -1.4438689e-02
  1.4738666e+00
 -1.8038870e-03
 -1.6418685e-01
  7.2514632e-04
 -1.6824301e-01
 -6.4455485e-01
  8.4678438e-03
  6.1173040e-01
 -2.3943894e-03
 -5.4913655e-02
 -1.0566081e+00
 -7.6747991e-02
  6.2242728e-03
  3.5898274e-01
 -1.6808836e-02
 -7.8226876e-01
  6.6656429e-01
 -4.9783047e-03
  6.8223590e-01
 -4.2092147e-01
 -1.8642318e+00
 -6.9606483e-01
  4.4652882e+00
  4.9119118e-01
  1.1898679e-01
  2.7429432e-01
 -1.4974625e+00
  1.6464835e-02
  7.6432445e-04
 -1.2787673e-01
 -7.2248481e-02
 -3.4173205e-01
  1.1447544e-01
 -3.6732103e-03
  1.6325309e-03
 -7.6066814e-02
 -3.6582507e-02
 -2.4655766e+00
  8.1083529e-02
 -1.1824682e+00
  4.4668996e-01
 -1.3062668e-02
 -2.4129334e-01
 -9.1444932e-02
  9.7231902e-03
  7.9354970e-03
  9.9257648e-01
  1.2192980e-01
  1.5872465e+00
  6.3124015e-03
  3.1361067e-01
  5.3774732e-01
 -6.5217414e-03
  5.7837194e-01
 -3.8615683e-01
 -2.6406324e-01
  1.3537754e-01
  2.8014924e-02
 -6.2512690e-01
  8.0515072e-03
  5.8780015e-03
 -1.0268219e-02
 -3.2656487e-02
 -1.5574114e+00
  7.3995150e-04
 -9.0138773e-03
  7.7110302e-01
 -2.0914429e-01
 -6.2824553e-01
 -8.1760216e-01
 -5.7086772e-01
  4.5515865e-01
  1.9373107e-01
 -1.6862487e-02
 -5.0846148e-01
 -1.4041043e-03
  6.2088057e-02
 -7.2470494e-02
 -3.2986158e-01
 -5.8809714e-03
  1.8923200e+00
 -1.7879867e-03
  4.6010360e-01
 -8.4713586e-02
 -5.7100934e-01
 -8.5876852e-01
 -3.0621487e-01
  5.1705283e-01
  5.6119391e-04
  2.1288495e-01
 -7.4716353e-01
 -1.2973410e-01
  1.6275834e-03
 -5.2305777e-04
  9.5564777e-01
  6.0119259e-01
  1.4843555e-01
  1.3886151e-03
  6.6409878e-02
 -3.5346508e-01
  6.9549304e-01
  8.5962248e-01
 -2.6589206e-01
  2.9507807e-01
  4.7113933e-02
 -2.2962333e-01
 -6.2630391e-01
 -2.2265457e-01
 -1.7578060e-02
  7.8965448e-02
 -1.9548690e+00
  4.0719095e-03
  7.1386319e-01
  1.8925646e-05
  4.6244971e-02
 -9.8267919e-01
  1.8215653e-01
  7.2875828e-01
 -1.2612324e+00
  1.5390746e-02
  1.0708207e-03
  1.9965894e-03
 -2.1414206e+00
 -4.1027041e-03
 -7.8173634e-03
  1.5556180e-03
 -9.9664795e-01
 -8.1897664e-01
  9.0375561e-03
 -2.0449932e-03
  1.2987400e+00
  1.3574047e+00
 -3.4613036e-02
 -2.7394183e+00
 -1.0611094e-01
  1.5255833e-01
 -4.9684715e-01
  1.6370583e-03
  1.4661067e+00
 -1.8246853e-01
  7.3211700e-01
  2.1490145e-02
  5.3353572e-01
 -1.6757330e-01
  5.2742821e-01
 -2.1553175e-03
 -9.1501641e-01
  1.7779157e+00
  1.4654342e+00
  5.1192546e-01
 -8.8597804e-01
 -8.3905190e-01
  4.5973607e-03
 -3.3206916e-03
  6.3887388e-01
  7.3306743e-05
  1.5644725e-02
 -9.8549854e-03
 -7.0345390e-01
 -5.1707770e-03
  1.2323930e-02
 -8.2070881e-04
  4.5659515e-01
 -8.1708066e-02
 -2.6205566e-02
  3.8567540e-01
 -4.9124011e-01
  1.3123178e-01
  5.4019195e-01
 -4.1859437e-02
 -1.6764483e+00
 -3.1740665e-01
  3.6658259e-04
 -7.7812496e-04
 -5.0689989e-01
 -2.0131625e-01
  3.1020766e-01
  4.8755328e-03
  3.8269234e-01
  4.7954342e-01
  7.7748415e-03
 -1.1636279e+00
 -7.7282751e-01
  3.9544010e-01
 -6.9492705e-02
 -4.5183040e-02
 -1.6231374e-01
  3.3743784e-04
 -2.0898957e-02
 -3.4949814e-03
  9.1428322e-01
 -1.2795109e-03
  2.2205042e-02
  4.1636795e-05
  5.8299832e-02
  1.9651449e-01
 -1.3407592e+00
  6.0090667e-01
 -5.1780397e-01
  2.5074530e-01
 -5.7844509e-04
 -1.1605249e-01
 -4.5406342e-01
 -1.9933641e-01
  5.9909355e-02
  7.0690915e-02
 -1.6623833e+00
 -3.8960049e-01
  4.0264457e-02
  6.8160170e-04
  5.4070985e-01
  6.7915696e-01
 -1.9322853e+00
 -1.3648616e+00
 -7.8127730e-01
  1.1479437e-01
  4.0324962e-01
 -7.2793230e-02
 -3.4200361e-01
  2.2570621e-03
 -7.2665717e-03
 -2.8113862e-03
 -1.1138735e+00
 -1.7757025e-01
  3.7355357e-01
  9.9220313e-04
 -1.8565569e+00
  5.3093934e-01
  7.0925927e-01
  3.0894879e-01
  1.7512727e-01
  3.0066172e-02
 -1.5482345e-01
  7.5327389e-02
 -8.5153770e-01
 -3.4346815e-02
 -2.1535033e-02
  2.0136118e-02
  9.6743292e-01
 -1.5341066e-03
 -1.1044831e-03
  5.9300656e-03
  1.2814510e+00
  5.6171894e-01
  9.5135313e-01
  2.2018521e+00
  7.4799013e-01
  1.3079153e-01
  1.3138309e-02
  5.8976132e-03
 -8.1532970e-02
 -6.1217946e-01
 -8.3728522e-01
 -8.1388694e-01
  1.0952055e+00
  1.1103899e+00
  2.8311187e-01
  2.5223384e-03
 -1.1230557e+00
  1.6999757e-01
 -1.2587783e-01
  7.1415079e-01
 -8.7348714e-02
 -1.6273741e-03
 -1.4708229e-02
 -1.7596476e-03
 -4.7401297e-03
  5.2748386e-02
  2.4752349e-03
  7.1660778e-04
  3.0214260e-03
  2.0594706e-01
 -8.0381446e-03
 -6.0343477e-03
 -3.8609135e-01
  8.0510564e-02
 -1.2963291e+00
  1.7000201e+00
 -3.0925416e-04
  6.8085402e-02
  9.8228650e-03
  1.3497854e-02
  5.1789605e-03
 -1.2721608e-03
 -8.1563991e-01
 -7.6523149e-01
  6.7245489e-01
  8.3026063e-01
  5.6675589e-01
 -8.0605596e-03
 -8.6405113e-02
  8.2881486e-01
 -1.9128565e-01
 -4.5174515e-01
 -2.1007218e+00
  8.4171370e-03
  4.1479585e-03
  9.3911625e-03
 -1.1739758e-01
 -1.1314535e+00
 -1.3627334e-02
 -8.1800660e-03
  6.9564520e-03
  1.7172517e+00
 -1.4993279e-03
 -1.0169630e-03
 -4.3011698e-01
 -6.9101757e-01
 -9.9545956e-01
  1.9550246e+00
  1.9454174e-01
 -7.0617110e-03
  4.0551084e-03
 -3.2753316e-03
  9.6848942e-02
  9.5022080e-04
 -1.0617874e+00
 -5.7493687e-01
  2.5572980e-02
  7.5274014e-01
  2.0805310e-01
 -4.4313981e-03
  4.2115620e-01
 -4.0059656e-01
 -1.0059249e-01
  9.2619735e-01
  1.9437360e+00
  1.2922041e-02
  1.4735184e-02
  2.3315290e-03
 -4.5515424e-01
 -1.0931307e+00
 -1.2358125e-01
 -1.1226443e-02
  2.1825376e-01
 -7.6956600e-01
 -3.6637567e-03
 -1.8548100e-03
 -1.0452007e+00
 -4.4749743e-01
 -6.2234914e-01
  8.2288724e-01
  2.7480668e-01
  1.0689477e-03
  1.6106162e-02
  7.5733508e-03
 -9.3300796e-01
 -1.1169444e+00
 -1.5141305e-01
 -3.3486402e-01
  7.5069554e-02
 -7.3082316e-01
  2.2714171e-01
 -1.6792065e-03
 -3.9028442e-01
  2.1929480e-01
 -1.9673998e+00
  3.2134703e-01
 -3.5452804e-01
  3.1680018e-01
 -2.6279737e-03
 -1.0615310e-03
  1.0939581e+00
 -2.2501382e-03
 -9.7756758e-02
 -8.1836164e-01
  1.3283536e+00
 -7.6025891e-01
  1.5907196e-02
 -8.9033572e-03
 -1.1029699e+00
  6.3657939e-02
 -1.3248148e+00
  6.3770747e-01
  6.1341792e-01
 -6.8450473e-02
  2.6992576e-03
  2.2391288e-03
 -3.5848835e-01
  5.0627697e-01
 -9.3915891e-03
 -2.7600214e-01
  2.9172656e-01
 -4.6508983e-02
  1.0687418e-01
 -9.5879175e-03
 -4.9465662e-01
  5.6412652e-02
 -1.7250760e-01
  1.8850622e-01
  5.1305789e-01
 -3.1603435e-01
  3.7436095e-01
 -8.3598070e-02
  7.5101137e-02
 -1.2248062e+00
  1.6617550e-02
  9.9057585e-01
  1.3558693e+00
  1.3030363e+00
 -5.4628402e-01
  9.1333222e-04
  1.6111271e+00
  2.2518781e-01
  6.5323079e-01
 -5.0749952e-01
 -5.3820819e-01
  2.0908543e-01
  2.1686183e-02
 -4.5464118e-03
  1.1334487e+00
  8.6873304e-03
  7.7906884e-03
  1.0225523e-03
  1.7946085e-03
 -4.0810779e-01
 -5.9012100e-03
  6.0525760e-03
  6.6641152e-02
 -4.8479715e-01
  1.3829560e+00
  3.9080688e-01
  5.6844749e-03
 -1.2149972e+00
  5.0287459e-02
  2.2778749e-01
 -2.1507075e-01
 -1.4735456e+00
  5.3885570e-03
  9.1052538e-01
  2.2045624e+00
 -7.6625353e-01
 -4.6330240e-01
 -2.8839117e-02
 -1.4230852e+00
 -7.3964030e-01
  1.0512071e-01
  5.3309023e-01
  2.5268338e+00
  6.6364706e-01
  1.2573643e+00
  2.2393644e-01
 -1.7450768e+00
 -5.7364153e-03
  2.6677482e-02
  1.1729611e-03
  1.9667840e-02
 -4.4112834e-01
 -1.1968297e-02
 -1.7302311e-03
  4.5255810e-01
 -1.7590235e-01
 -5.0433743e-01
 -1.8911406e-01
  1.2451537e+00
  1.9966315e+00
 -3.9955810e-01
  6.3069187e-02
  2.3996137e-01
 -8.2908994e-01
  1.2701447e-02
  9.0289313e-01
  1.9161759e-01
 -2.0206675e-01
 -1.0290989e-01
 -9.7191762e-03
  2.7177312e+00
 -1.1714746e+00
 -8.7531024e-01
 -1.9635631e+00
 -3.4256187e-01
  1.2116246e+00
  1.9117427e-01
  3.1835333e-01
 -8.2311982e-01
 -4.4553433e-02
  2.9449814e-03
  5.3272615e-03
  8.0896163e-01
 -3.5615614e-01
 -3.7513781e-01
 -9.4679385e-01
  4.9614576e-01
  3.9191219e-01
 -5.4139185e-01
  1.2220987e+00
 -1.1614608e+00
  7.4730289e-01
  1.0025776e-02
  5.6826593e-03
  4.8928098e-03
 -5.2145737e-01
 -5.1771137e-03
  7.5898707e-01
 -2.2947344e-01
 -5.6361330e-01
 -1.7801871e-03
 -3.6075308e-03
  5.1023751e-01
 -1.9387218e-01
 -7.7116042e-01
  2.3555562e+00
 -5.5438805e-01
  1.6201153e-01
  1.7044009e-01
  1.2631413e-01
  3.0512556e-02
 -1.6790308e-01
 -1.2267744e-03
  3.1471367e-03
  2.0840802e+00
 -3.7258747e-01
  3.3848739e-01
  1.4278641e-02
  3.6869508e-01
 -2.3609120e-01
  1.0038797e+00
 -2.1774092e+00
  4.6075577e-01
 -5.5093282e-01
 -3.0510048e-03
 -1.3711657e-03
  1.9977157e+00
 -1.6362463e-01
  6.4110905e-03
  3.7153566e-01
  8.0081590e-02
  1.0665043e-01
 -5.9359162e-03
  2.4258327e-03
 -4.6252891e-01
 -8.2765716e-01
  1.8465235e+00
 -4.7825277e-01
  7.2517204e-01
 -1.8440222e+00
 -1.0851004e+00
 -3.0173942e-01
 -8.4407657e-01
  9.7360289e-01
  4.7271243e-01
  9.0292048e-01
 -1.4795556e+00
 -2.4480748e-01
 -6.2732520e-03
 -1.3220175e-02
  1.7143539e-01
 -6.1705804e-01
 -1.6979049e+00
 -2.1989223e-01
  2.2030814e-01
 -8.8307731e-02
 -1.1794498e-01
 -3.5125956e-02
 -7.1390137e-02
 -3.8022173e-04
 -5.6288397e-04
 -1.4408886e-03
 -1.1066519e+00
  5.4124058e-03
 -1.1386450e-02
 -7.6818578e-03
  1.4562806e+00
  1.2441781e+00
 -2.2042781e-01
 -4.8483022e-02
  2.4807707e-03
  3.7321818e-01
 -6.8449104e-01
 -6.0061771e-02
  2.7075303e-01
 -3.6485532e-01
  3.7326953e-01
  8.4778297e-01
  5.2971649e-01
  2.7386293e-01
 -9.5302975e-03
  3.7436609e-03
  2.0988908e-01
  1.9376521e-01
 -1.1509092e+00
 -1.8651869e+00
  2.4119836e-01
  8.9389913e-02
 -1.6673630e+00
 -8.1872296e-01
 -3.2348233e-01
 -2.0185152e-01
 -6.3207382e-03
  5.9667539e-02
 -8.2676643e-01
 -1.3685669e-01
 -1.4684927e-02
 -1.6997653e-03
 -2.1303219e-01
  1.2369195e-01
 -3.1110635e-01
 -4.6329308e-01
  2.1587823e-01
  2.0823763e-03
  3.7832513e-02
  2.5816912e-02
  6.1867988e-01
 -6.8173289e-01
  2.1214341e-01
  4.2621610e-01
  2.2507893e-01
  1.1344994e-01
 -4.0475973e-03
  1.4375238e-03
  5.9210378e-01
 -2.0199880e-01
 -3.6600195e-03
  1.6185680e-03
  8.6135060e-01
  8.8440061e-01
 -7.4266903e-02
 -1.1974704e+00
 -1.6954731e-02
  1.7440414e-02
 -2.4809609e-01
  5.5929240e-02
 -1.0001848e+00
  5.1673067e-01
  5.8434284e-03
  4.3179942e-03
 -2.1418324e+00
 -4.5781624e-01
 -1.1370802e+00
 -8.4683871e-01
 -7.2666371e-01
 -9.8958068e-02
 -7.4785733e-01
 -6.7836469e-01
  1.6143125e+00
  6.0225356e-01
  4.7744983e-03
  2.7117252e-01
 -1.0530058e+00
  3.9954882e-02
 -2.5637602e-03
 -7.9338569e-03
  7.3877394e-01
 -2.8431129e-01
 -2.2763529e-01
 -1.2065459e+00
 -5.9801447e-01
 -2.4364334e-01
 -4.1479766e-01
 -1.8052708e-01
  1.2925406e+00
 -1.7336973e-03
  3.8709578e-01
  2.0379771e-01
  7.1035451e-01
 -1.8232097e-01
 -4.8811841e-03
  2.7431233e-03
 -1.5668858e+00
 -4.9590170e-01
  4.8135805e-01
  1.1184396e+00
 -4.5551595e-01
 -3.3658817e-01
 -2.5464976e-01
 -3.3321792e-01
  1.8689182e+00
 -1.0779176e-01
 -1.4400887e-02
  4.4777194e-01
  4.7960344e-01
 -2.1154124e-01
 -2.0877726e-04
  2.8535551e-03
  2.2554116e+00
 -1.3889626e-01
  3.7895753e-03
 -1.4678000e+00
 -4.8855650e-01
  1.9745514e-02
  1.9745514e-02
  1.9745514e-02
  1.9745514e-02
  1.9745514e-02
  1.2615371e-01
  1.2615371e-01
  1.2615371e-01
  1.2615371e-01
  1.2615371e-01
  7.6216251e-02
  7.6216251e-02
  7.6216251e-02
  7.6216251e-02
  7.6216251e-02
  4.1649155e-02
  4.1649155e-02
  4.1649155e-02
  4.1649155e-02
  4.1649155e-02
  1.5238099e-02
  1.5238099e-02
  1.5238099e-02
  1.5238099e-02
  1.5238099e-02
  6.6891015e-02
  6.6891015e-02
  6.6891015e-02
  6.6891015e-02
  6.6891015e-02
  3.4103043e-02
  3.4103043e-02
  3.4103043e-02
  3.4103043e-02
  3.4103043e-02
