nep4_zbl 2 Mo S 
zbl 1 2
cutoff 6 5 37 26
n_max 4 4
basis_size 8 8
l_max 4 2 1
ANN 80 0
  2.6811573e-01
 -1.3939180e+00
  2.0954052e-01
 -7.0020151e-01
 -2.8480678e+00
 -2.6091645e+00
  7.1693802e-01
  1.2886856e+00
 -2.1120551e+00
 -8.7646616e-01
 -1.7518368e+00
  5.4930598e-01
  1.3829446e+00
 -6.4513636e-01
  1.2001910e+00
  1.8397524e+00
  4.4827616e-01
  3.7748194e-01
 -1.0117017e+00
  1.0815462e+00
 -3.0193312e+00
  2.3040004e+00
 -3.4853127e+00
  3.1601231e+00
  1.6995505e+00
 -4.3392664e-01
 -1.0128338e+00
 -2.1848668e-01
  1.4700480e-01
 -6.5938950e-01
  9.6458244e-01
 -9.8131108e-01
 -1.7199844e+00
 -3.6849186e-01
 -2.0285714e-01
  2.4725823e+00
 -1.2429655e+00
 -3.2483804e-01
 -1.7673521e+00
 -6.1849844e-01
 -1.3635512e-01
  7.0145035e-01
  2.0101864e+00
  2.1514881e+00
 -1.0337123e+00
 -1.2903553e-01
 -4.6905103e-01
 -1.9211551e+00
 -2.9885655e-03
  1.7587862e+00
  1.8121409e+00
  2.9785726e-02
 -1.0476342e+00
  3.8085353e-01
  1.0805496e+00
 -2.7881420e-01
  2.9311660e-01
  3.9839712e-01
 -4.7040933e-01
  2.4249795e-01
  1.0650773e+00
  1.0604180e+00
 -8.8993806e-01
  6.3592690e-01
  5.8082968e-01
  8.1374925e-01
  1.3981358e+00
  5.0236964e-01
  5.0529915e-01
  3.4226552e-01
  4.9585395e-02
 -5.9001088e-01
 -5.8538802e-02
 -4.1518908e+00
 -1.1657376e+00
 -1.3924848e+00
 -2.1118279e+00
  1.7818110e+00
  1.8266351e+00
 -3.5623467e+00
 -1.1626126e+00
  9.3520544e-02
  1.6864331e+00
 -5.6209028e-01
  1.8655729e-01
 -4.0974927e-01
 -1.6944484e-01
 -2.5769186e-01
  1.1503493e+00
 -2.3683003e-01
 -2.1207854e-01
  2.6981418e+00
  4.6538572e+00
  4.5605273e+00
 -1.1114359e-02
  2.3992386e+00
 -4.6869883e-01
  2.8141809e-01
  7.6416469e-01
 -4.4841480e-01
  6.6727328e-01
  2.3721650e+00
  2.8697753e-01
 -2.2893898e-01
 -1.8388793e+00
 -3.5363803e+00
 -3.5002878e-01
 -2.3827658e+00
  3.3263147e-01
  2.4201435e-01
  9.8848599e-01
  9.0631533e-01
 -2.1761180e-01
 -8.3636689e-01
  5.2499926e-01
  1.9427052e+00
  5.1087028e-01
  6.2138742e-01
  2.2070162e+00
 -1.3883486e+00
 -1.4540157e+00
  1.1797631e+00
  2.2157453e-01
 -2.3326045e-01
  6.8965106e+00
  1.4586415e+00
 -1.2947844e+00
 -1.2707920e-01
 -2.5600429e+00
 -9.2633229e-01
 -4.0194297e-01
 -6.4219916e-01
  9.3148924e-02
 -3.4047719e-02
 -1.7338439e+00
 -1.2067959e-01
 -9.6710688e-01
 -1.0846436e+00
 -5.7171494e-01
 -1.1770422e+00
  1.0605538e+00
  1.2450458e+00
 -8.5727310e-01
  7.8870177e-01
  8.8773876e-02
 -3.4926758e+00
  6.4748757e-02
 -3.1209435e+00
  4.6351743e+00
  6.7671740e-01
 -1.7904774e+00
 -3.1875795e-01
 -8.5339648e-01
  4.8126864e+00
  2.1951556e+00
  7.0676929e-01
 -7.0436262e-03
  4.4434695e+00
  2.0045500e+00
  1.8616600e-02
 -8.6945665e-01
 -2.0840878e+00
  4.2643056e+00
 -3.4050158e-01
  9.0052676e-01
 -4.9689832e-01
  2.5967238e+00
 -3.5597369e-01
  6.6665459e-01
  9.6228427e-01
 -1.1695145e+00
 -1.0343946e+00
 -2.0861244e+00
 -1.6193374e+00
 -5.9323967e-01
 -1.0614117e-01
  5.4595184e-01
 -1.4110885e+00
 -1.2283989e+00
  1.1696997e+00
  1.5946105e+00
  4.3721306e-01
 -1.4106274e-01
 -1.1422441e+00
 -8.8294804e-01
  1.2728032e+00
  3.6161461e-01
  2.3896000e+00
 -8.4494787e-01
  1.7809425e-01
  9.4281304e-01
 -1.0172776e+00
  1.3034669e+00
 -2.0690191e-01
 -4.4015370e-02
 -6.7303592e-01
 -2.0341084e+00
 -1.2696100e+00
 -1.3866696e+00
 -5.4175723e-01
 -1.6299489e+00
  1.1820710e+00
  1.0661954e+00
 -2.0160814e-01
  3.9660978e-01
 -1.9199874e+00
  1.3449532e+00
 -7.6980644e-01
  6.7561483e-01
  6.5578830e-01
 -2.6786363e+00
  7.0424294e-01
 -9.4995958e-01
  9.3361817e-02
 -5.8049971e-01
  1.7893537e+00
  7.0270878e-01
  6.7639232e-01
  7.2991508e-01
 -6.4215392e-01
  1.9697483e+00
  1.5743099e+00
  2.0392274e-02
  5.3687787e-01
 -1.1170149e+00
 -7.2672164e-01
  6.1446893e-01
 -1.7882456e+00
 -3.0984740e+00
  6.5673667e-01
  4.7661567e-01
 -1.0112822e+00
 -1.9830829e+00
 -1.4861368e+00
  7.8431046e-01
 -1.3892725e+00
 -1.0092256e-01
  3.6336783e-01
 -3.5891631e-01
 -2.2609635e-01
 -8.0643736e-02
  2.0092206e-02
 -9.2413157e-01
  5.2342772e-01
  6.2055570e-01
  4.5357122e+00
 -1.9808195e+00
 -6.3289845e-01
  1.7929031e+00
 -4.1133909e+00
 -1.2248188e+00
 -2.2907524e+00
  2.0985460e+00
  8.9712846e-01
  1.8980759e+00
 -2.2668650e+00
  6.3153750e-01
 -1.5219852e+00
  1.5068038e+00
  1.5524741e+00
  2.0261030e+00
 -8.8918224e-02
 -6.2387422e-02
 -6.7693663e-01
  6.4209765e-01
  2.6691127e+00
 -1.6983925e+00
  9.4237544e-02
  1.2369843e-01
  6.0024315e-01
  1.2209100e+00
 -3.1155884e-01
 -9.4133574e-01
  5.0575185e-01
  9.3399799e-01
 -9.4235039e-01
  9.4942111e-01
 -5.8604246e-01
 -4.8286942e-01
  3.8452709e-01
 -2.0691881e+00
  4.0398221e+00
  3.4513404e+00
  7.7338696e-01
 -2.6093094e+00
 -1.3487396e+00
  1.9001026e-01
 -1.5641487e+00
  1.3875096e+00
 -3.5301993e+00
  1.4884002e+00
 -2.4557159e+00
 -1.8067927e+00
  5.7022339e-01
 -1.3024542e+00
  1.6460517e-01
  1.7965724e+00
  2.3083160e+00
  3.3399544e+00
 -1.1225264e+00
  6.2098086e-01
  1.5421793e+00
  1.0910418e+00
  3.8284721e+00
 -9.3050754e-01
 -5.0769281e-01
  2.0719177e-01
 -7.4239922e-01
 -2.8103096e+00
 -9.5475596e-01
 -1.6172777e+00
 -1.2546844e+00
  5.3961670e-01
  2.8809243e-01
  6.5440655e-01
  2.0365269e+00
  1.9268396e+00
 -1.1865852e+00
  2.5251908e-02
  1.8229495e+00
  1.5823158e+00
 -1.7734971e+00
 -2.7689710e+00
 -1.9403135e+00
 -2.3800433e+00
  8.1954628e-01
 -9.0259540e-01
 -2.0915740e+00
  1.7483407e+00
 -4.8456481e-01
 -1.2924057e+00
 -3.3506355e+00
 -1.7427331e+00
 -1.8499000e+00
 -8.7310070e-01
 -2.2224758e+00
 -1.2453386e+00
 -1.0690734e+00
 -3.6638954e+00
  1.0272179e-02
 -2.3200087e-01
  3.1071249e-01
  1.4222510e-02
  8.0331457e-01
 -4.8038564e+00
  9.7141105e-01
  5.8174886e-02
  7.8953959e-02
 -4.5662591e-01
  5.3015149e-01
 -3.9768279e-02
 -1.1730249e+00
  1.5702537e+00
 -1.5571032e+00
 -9.5413256e-01
 -1.8622882e+00
 -1.7111681e+00
  2.7406082e+00
 -3.1425171e-02
 -1.1080823e+00
 -7.3295152e-01
  2.4871254e-01
  1.9703541e+00
 -1.8378582e+00
  8.0045420e-01
  1.6560155e+00
 -2.8907916e-01
  5.7163686e-01
  1.2034413e+00
  8.4183133e-01
  7.4784952e-01
 -1.2916014e+00
  7.4076843e-01
 -8.9640373e-01
  1.3650835e+00
 -1.2092727e+00
 -1.4960279e+00
 -3.3042026e-01
  4.9398533e-01
  9.5473492e-01
  1.3474315e-01
  1.7828360e+00
 -3.8152659e+00
 -5.1643562e-01
 -1.4027114e-01
  1.3630685e+00
  2.8304219e+00
 -6.9058973e-01
  1.4442933e+00
  2.1880624e+00
 -2.4847277e-01
  4.4604039e-01
 -1.6754818e-01
  1.1551130e-02
  7.5322884e-01
  2.9677227e+00
  5.8691096e-01
 -1.8202640e-02
 -3.1054497e-01
  8.2024360e-01
  1.4218345e-01
  3.3381488e+00
  1.4157023e+00
 -6.3742191e-01
  4.4894237e-02
 -1.2380848e+00
 -4.5074886e-01
  1.3426596e+00
 -6.1311907e-01
 -5.7908487e-01
 -7.4157488e-01
  9.3837626e-02
  1.0416155e+00
 -4.5191896e-01
  5.2524674e-01
 -2.6151973e-01
 -5.6224853e-01
  1.9891049e+00
 -3.5825402e-01
 -9.5608294e-01
 -1.3515358e+00
 -1.8616430e+00
 -1.3835829e+00
  6.8630373e-01
  8.4716016e-01
 -3.7620777e-01
 -3.0479655e-01
 -9.4801116e-01
 -1.2283098e+00
  4.8993644e-01
 -1.5266113e+00
 -2.8174025e-01
  6.2018758e-01
  2.6132248e-02
 -8.8236341e-03
 -2.9787251e-01
 -4.3889332e+00
  2.2384534e+00
  7.6216841e-01
 -7.1250707e-01
 -7.7174580e-01
 -1.1886932e-01
 -1.5731459e+00
  3.9270130e-01
  7.6513153e-01
 -1.0002762e+00
  3.9328247e-01
 -8.8611394e-01
  7.6214296e-01
  6.6309214e-01
 -1.3261443e+00
 -1.1871872e+00
  1.4815439e-01
 -4.8036742e-01
  1.3079039e+00
 -2.0508080e+00
 -4.2482901e+00
  6.0976696e-01
  3.1126235e+00
  2.5551838e-01
 -2.4787743e+00
  1.8985369e+00
 -2.0654871e+00
 -2.1344457e+00
 -1.9828542e+00
 -3.3440609e-02
 -5.2144408e-01
  8.0545855e-01
 -7.7171557e-02
 -5.2451217e-01
 -6.5460908e-01
  6.2702876e-01
 -4.4793051e-01
 -1.8614751e+00
  2.5601205e-01
 -7.7458367e-02
  9.1803551e-01
 -2.5311477e+00
 -2.0787404e+00
  9.2129892e-01
  7.2898693e-02
 -1.3620895e-01
  1.9967219e-01
 -7.2487223e-01
 -5.4280323e-01
  2.9682666e-01
  2.7888033e-01
  1.1021978e+00
  5.0965893e-01
 -8.3499171e-02
  1.1570582e+00
 -1.5153441e-01
  1.1551188e+00
 -3.0416260e+00
  3.3025256e-01
  1.0633041e+00
  2.1146312e-01
  3.5466167e-01
 -3.4008310e+00
 -1.0963617e-01
 -3.9702871e-01
  3.3356629e-02
 -2.9628399e-01
 -2.3969227e-01
  8.2977666e-03
  1.7722267e-01
 -5.5475503e-01
 -1.1995070e+00
 -2.6994483e+00
  1.3725471e+00
  1.2451038e+00
 -7.9330349e-01
 -9.9647170e-01
 -4.9285874e-01
 -4.5172673e-01
  4.3227223e-01
  1.2852975e+00
  4.9938923e-01
  2.3405378e-01
  1.4303141e+00
 -1.6118827e+00
 -5.0752515e-01
 -4.7832227e-01
  8.4744823e-01
  1.2187455e+00
 -1.4335709e+00
 -2.1578457e+00
  2.5850734e-01
  7.9242140e-01
  8.0685115e-01
  6.6297215e-01
 -4.2285255e-01
  2.8406909e-01
 -1.2806172e+00
  6.6051698e-01
 -1.2839924e+00
  6.7728627e-01
  1.5066686e+00
 -2.2446041e-01
  2.1381097e+00
  4.0062150e-01
  1.0236480e+00
  7.6378122e-02
 -1.2730401e+00
  1.1852884e-01
 -7.1154934e-01
  1.0338295e+00
  3.4954515e-01
  2.2512031e-01
  3.8690624e-01
 -2.5592607e-01
  4.0562651e-01
  6.0837001e-01
 -1.3676410e+00
 -7.8570372e-01
 -1.0439724e+00
 -1.2879198e+00
  2.2494498e-01
 -1.2992485e+00
 -8.6378276e-02
  2.8257191e-02
  6.9987768e-01
  1.4070243e+00
  5.5725205e-01
 -3.5647588e+00
 -3.7795210e-01
  5.1469153e-01
 -2.6552324e+00
  7.7787960e-01
 -4.7512358e-01
 -9.2083454e-01
  1.1488892e+00
 -3.0594915e-01
 -1.2208086e+00
  2.8552768e-01
  4.2026973e-01
 -3.2657576e-01
 -1.0577045e-01
  3.7427971e-01
 -3.3954301e-01
 -1.1896644e+00
 -4.7937432e-01
 -6.2197529e-02
 -3.6630705e-01
 -2.2229564e+00
  4.0492517e-01
 -4.2305925e-01
  1.7853020e+00
  9.7135001e-01
 -2.6444054e+00
  7.6187688e-01
  5.0354135e-01
 -4.4773227e-01
  2.6037052e-02
  8.6940783e-01
  1.4665623e+00
  2.2145300e+00
  3.1986735e+00
  3.2333311e-01
  9.1296208e-01
 -7.2870326e-01
  5.4593056e-01
 -1.3123853e+00
  2.8211894e+00
  1.7665602e+00
 -2.2394989e+00
 -1.0536828e+00
 -1.5519698e+00
  1.0573577e+00
 -2.3659976e+00
 -3.7822503e-01
  1.3842514e-01
 -8.0429268e-01
 -1.9167483e-01
 -1.3129308e+00
 -1.5076240e+00
 -5.7102108e-01
 -4.6958649e-01
  1.2703813e+00
 -5.2757394e-01
 -7.1910262e-01
  7.2408181e-01
  6.3363767e-01
  5.6155022e-02
  1.2469510e+00
  5.3387680e+00
  5.8133441e-01
  6.0021901e-01
 -4.5865878e-01
 -1.1343926e+00
  3.3026350e-01
  1.7263936e+00
  1.1748208e+00
 -2.4535806e+00
 -6.7839777e-01
  1.0332921e+00
  1.6994812e-01
  1.2687277e+00
 -3.4609675e+00
 -1.2576379e+00
  2.0972280e-01
  1.4057305e+00
 -3.2731023e-01
 -3.8692830e+00
 -2.9963376e-02
  1.7861753e+00
 -5.8036196e-01
  2.3530485e-01
 -1.8980434e+00
 -2.9978651e-01
  3.8723001e-01
 -1.4885926e-01
  1.7577529e+00
 -7.4903291e-01
  5.8548939e-01
  1.1014900e+00
  4.4547108e-01
  5.3999764e-01
  4.7040620e-01
  8.3240464e-02
  3.5176328e-01
  1.1984866e-02
  5.0572243e-02
 -4.5423251e-01
  1.9388513e-01
  7.0961690e-01
 -5.5610542e+00
 -1.3802842e+00
 -1.2601125e-01
 -7.6557904e-01
  8.4022236e-01
 -1.5249099e+00
  1.3578472e+00
 -2.7844539e+00
 -3.6486405e-01
  1.1821426e+00
 -8.9636159e-01
 -1.2319319e+00
 -5.8317471e-01
 -2.6436818e-01
 -1.1493225e+00
 -1.2661637e+00
  8.3582718e-03
 -9.8559454e-02
 -1.1042540e+00
  2.5991266e+00
 -2.0378010e+00
 -1.1101476e+00
 -2.1706448e+00
  6.9524102e-02
  1.1592331e-01
 -1.1152594e-01
 -7.3272169e-01
 -1.3348051e+00
 -4.2979887e-01
 -1.2140412e+00
  6.7012745e-01
 -9.2127299e-01
  3.2543927e-02
  1.6335249e+00
  9.6464080e-01
  1.7663807e+00
 -2.5126641e+00
 -1.2440730e-01
  2.7403329e-02
 -3.0380485e+00
  1.4771234e+00
 -1.9626464e+00
  1.2793212e+00
  3.0595988e-01
  1.2346448e+00
 -6.9393837e-01
 -1.1254992e+00
 -3.0804542e-01
 -4.8463333e-01
 -3.2303579e+00
 -2.7749404e-01
  1.1441736e-02
  3.1601498e+00
 -5.3746510e-01
 -1.4690156e+00
 -3.3275628e-01
 -3.1108878e+00
 -9.0520757e-01
 -1.0398376e+00
  1.6154541e-01
  1.2275741e+00
  2.0032437e-01
 -6.1609846e-01
 -4.9424884e-01
  2.2151496e+00
  1.2173755e+00
 -4.8754653e-01
 -2.0149843e-01
 -4.5030609e-02
 -1.3448976e-01
 -1.4033300e+00
 -1.2375425e+00
 -1.4955715e+00
  7.7415496e-01
  1.2251866e+00
 -2.1401072e+00
  7.1041477e-01
 -2.0879030e+00
  3.6833057e-01
 -2.8435099e-01
 -1.6587900e-01
  1.6692337e+00
 -1.5148954e+00
  1.4405762e+00
  3.4752312e+00
  3.6322814e-01
 -2.0374370e+00
 -3.2802784e+00
  6.8656844e-01
  9.5086360e-01
 -8.5216367e-01
  9.5218778e-02
  1.1198071e+00
  1.3517791e+00
  4.0366623e-01
  5.5470314e-02
 -8.4919816e-01
  1.6863698e+00
 -1.1495336e+00
 -6.0023558e-01
  6.1132395e-01
  2.6674464e+00
  2.4570863e-01
  5.5829823e-01
 -1.6543260e+00
  6.2576227e-02
 -2.0933913e-01
  1.6993085e+00
 -1.0344930e+00
 -1.4835334e+00
 -3.2167962e-01
  2.6239815e+00
 -6.4596869e-02
  5.7995427e-01
 -6.4125162e-01
  7.1213555e-01
  8.7611353e-01
  1.6212204e+00
 -2.0531960e-01
  2.2433499e-01
 -2.7928740e-01
  8.4637147e-01
 -6.0928994e-01
  6.8874729e-01
  3.8290247e-01
 -1.3497602e+00
  2.9526100e-01
  1.3038990e-01
 -1.6910452e-01
 -3.6084014e-01
  2.6574612e-01
 -9.8932683e-01
  4.3439421e-01
  9.7392596e-02
 -6.2145078e-01
 -3.0963984e-01
 -1.1084559e+00
 -1.7105681e+00
  1.3236929e-01
  8.3510190e-01
  1.8507859e+00
 -3.4935567e+00
  8.4993267e-01
  1.7164087e+00
  3.5307297e-01
  2.2502639e+00
 -3.7209630e-01
  2.5825775e+00
  6.5802431e-01
  9.1375285e-01
 -1.0361751e+00
 -1.6771722e+00
  3.2647476e+00
  6.8488640e-01
  1.1743461e+00
 -2.2539537e-01
 -2.3683562e+00
 -2.4578840e-01
 -2.9570022e+00
 -8.9759946e-01
 -1.9909496e+00
 -2.8570592e+00
  8.7842703e-01
  1.1237788e+00
 -7.0079684e-01
 -4.1404861e-01
 -2.3903400e-01
 -1.2819968e+00
  7.3219776e-01
  4.6599153e-01
 -1.8516805e-02
  6.5601462e-01
 -2.3553743e+00
  8.8737351e-01
 -3.1984317e+00
  3.3976507e+00
 -4.6871420e-02
  1.9808455e+00
 -3.2161871e-01
  5.4014083e-02
  2.0209696e+00
  6.1163640e-01
  2.1380398e-01
  1.6782411e+00
 -1.9178987e+00
 -6.7471966e-02
 -7.1379155e-01
  1.2446172e+00
 -9.5892954e-01
 -7.6976126e-01
 -2.0909059e+00
  2.2830492e-01
  6.1277640e-01
  1.2243307e+00
  1.5820286e+00
  2.3825603e+00
 -8.9900744e-01
  1.7694911e+00
  4.9674511e-01
 -7.2253615e-01
  1.1091700e+00
 -3.7836966e-01
 -1.0275928e+00
 -5.8971278e-02
 -5.1559025e-01
 -4.2138442e-01
 -3.6262760e-01
  3.0540738e-01
  9.6800663e-02
  1.2504400e+00
 -2.2677977e-01
  2.6577666e-01
 -2.2772253e+00
  1.4606360e-01
  1.0139235e+00
  6.2646103e-01
  6.0250604e-01
 -3.2081899e-01
  2.9301417e-01
  1.1463182e+00
 -7.9763883e-01
 -3.7370095e-01
  7.1564150e-01
 -5.4860532e-01
 -2.4791007e-01
 -4.7399786e-01
 -1.2202508e+00
  8.5168606e-01
  1.5501371e-01
 -1.4629611e+00
 -3.9448184e-01
  2.0430799e-01
 -1.1432850e+00
 -8.0363822e-01
 -4.8678884e-01
  8.1502992e-01
 -6.8726584e-02
 -8.7374318e-01
  1.1234950e-01
 -4.3727499e-01
 -1.5160486e+00
  2.6930246e-01
 -5.5184174e-01
  7.9913260e-03
  1.6296218e-01
  7.3787457e-01
  2.6570642e-01
 -4.5564494e+00
  2.2590475e+00
 -3.3731994e-01
 -4.6951547e-01
 -1.4570800e+00
 -2.6714721e+00
  5.2420646e-01
  3.5847825e-01
  5.8485240e-01
  2.5429208e+00
 -8.0047292e-01
  5.6502467e-01
 -2.3800406e+00
  3.0778855e-01
 -1.1210020e-01
 -4.7175434e-01
  1.1593995e-01
  2.4964492e-01
 -1.7618783e-01
  1.3070226e+00
 -2.0242612e+00
 -6.0000467e-01
  6.7208844e-01
  5.3468150e-01
 -4.4316278e+00
 -4.1252434e-01
 -1.1463616e+00
 -8.7721974e-01
  1.1053854e+00
 -5.0462604e-01
 -7.8165942e-01
 -1.2949101e+00
  4.0745237e-01
 -3.7579319e+00
  6.8722993e-02
  1.7036250e+00
 -1.4584690e+00
  9.1036528e-01
 -1.6358954e+00
  1.1717981e+00
  1.5462810e-01
  8.5478641e-02
 -7.1623826e-01
 -9.4698364e-01
 -2.5094962e-01
 -7.0791209e-01
 -1.1884853e+00
 -2.8383261e-01
 -8.6937822e-02
  7.7178103e-01
 -2.0897465e+00
 -2.4336026e+00
  3.0337128e-01
  3.3729386e-01
  2.0992734e+00
  1.2808555e-01
 -7.2270775e-01
 -1.3431650e-01
  2.2130047e-01
 -4.0718541e-01
 -6.8840258e-02
 -4.3615932e+00
 -3.7025434e-01
 -3.3412626e+00
 -2.7469528e-01
 -5.2615583e-01
 -9.0160048e-01
 -3.1576669e+00
 -2.3862908e+00
 -3.1448057e+00
 -2.3401082e+00
  4.0286450e+00
 -1.2586546e+00
 -1.4614011e+00
  5.5538648e-01
 -4.0953997e-01
 -7.8139901e-01
 -2.3144321e+00
  3.9454994e-01
 -8.8312578e-01
 -4.6155924e-01
  9.7415572e-01
 -2.3111258e-01
  1.9431855e-01
  3.7381652e-01
 -1.6045336e-01
  5.3419150e-02
  2.3533641e-01
 -9.4635695e-02
  1.1426186e-01
  6.9282919e-01
  3.6123577e-01
  6.9508350e-01
 -2.2734146e-01
 -5.3620005e-01
 -4.8886222e-01
  8.8940084e-02
 -8.1907824e-02
  3.6374321e+00
 -1.8388186e+00
  1.1236047e+00
 -8.4779292e-02
  1.7633778e+00
 -1.6323891e+00
  3.7565026e-02
 -2.0958202e+00
  8.6657524e-01
  4.3210893e+00
  1.5022928e+00
  1.7032692e+00
 -1.5438136e+00
 -6.8865389e-01
  7.6822919e-01
  4.6151915e-01
  1.6953032e+00
 -2.6015782e+00
 -3.1813133e+00
 -3.9744467e-01
  2.3005903e+00
 -2.1537544e-01
  1.0446523e+00
 -8.6338300e-01
  1.6595234e+00
  7.3517662e-01
 -1.3121432e+00
 -4.1585107e+00
  3.2202258e+00
 -1.2029436e+00
 -4.6608466e-01
  2.9211253e-01
 -1.5778675e+00
 -3.6342216e-01
 -1.8760464e-01
 -1.3851184e+00
 -1.7548843e-01
  2.7450864e+00
 -3.1529913e+00
  5.4751243e-02
 -5.0033027e-01
 -1.3572171e+00
 -1.7352897e-01
 -2.6184747e+00
  1.0951017e+00
  1.1570859e+00
 -5.1542991e-01
 -1.0376669e+00
  6.6115201e-01
  4.6437334e-02
  2.0435584e+00
  3.2013279e-01
  5.0842124e-01
 -1.2870350e+00
  3.7148404e-01
  5.1155329e-02
  3.1934807e-01
 -8.3632666e-01
  4.2312756e-02
  4.6859956e-01
 -1.1977798e+00
 -1.5396277e+00
  1.1627812e+00
 -5.5570441e-01
 -9.9035668e-01
 -3.5339409e-01
 -3.6735815e-01
  2.2878741e-01
  2.1154928e+00
 -9.5295858e-01
 -7.3696810e-01
  9.5495772e-01
  1.7047764e-01
 -3.8843951e-01
 -1.0229316e+00
 -2.1261144e+00
  5.2397355e-02
 -1.6508558e+00
  3.0022779e-01
  1.1985784e+00
 -5.0332892e-01
 -1.8592502e+00
  1.0704814e+00
  2.1635464e-01
  6.4600158e-01
 -5.1210487e-01
  1.2311769e+00
  4.2254405e+00
 -8.8590401e-01
  1.3448061e+00
 -2.3800282e+00
 -3.1635419e-01
  1.5769489e+00
  4.2976147e-01
  1.1929979e-02
  5.0718939e-01
  2.0024428e+00
  9.7701728e-02
 -1.6131692e+00
  1.4550865e+00
  7.1706671e-01
 -2.6147908e-01
  2.1642172e+00
 -2.3884623e-01
  9.3858194e-01
 -1.5558648e-01
 -1.7113371e-01
 -1.0818434e+00
  1.0810707e+00
 -2.8801179e+00
 -1.4588960e+00
  1.3704785e+00
 -1.2491781e+00
  7.2238433e-01
  2.9550354e+00
  6.1270261e-01
  1.0654382e+00
  5.6024587e-01
 -1.9251783e-01
 -8.9808989e-01
  2.2210183e+00
  2.0430791e+00
  1.7850795e+00
  2.1471229e+00
 -9.9627018e-01
 -8.9764333e-01
 -4.0283591e-01
 -2.4094880e+00
 -2.4084999e-01
 -1.3338912e+00
 -4.8881358e-01
 -2.4551847e+00
  1.8863428e+00
 -1.5837721e+00
  2.7797866e-01
  8.6119753e-01
 -1.1518880e-01
  8.4033579e-01
  5.3076321e-01
 -3.4246346e-01
  8.2872272e-01
  5.3119069e-01
 -1.4914510e-02
  7.0870572e-01
 -3.6193281e-01
 -7.7221501e-01
 -1.8121734e+00
 -1.5885864e+00
 -6.3494623e-01
  7.0546055e-01
  7.8737539e-01
 -1.8207440e+00
 -5.2812986e-02
 -3.2787907e-01
  2.1476235e+00
 -5.9041500e-01
  8.7986410e-02
  1.8423334e+00
 -2.3438272e+00
 -4.7747713e-02
  6.0805088e-01
  1.8802786e+00
  3.4697788e+00
  9.5284277e-01
 -1.3885872e-02
 -2.1982653e+00
  2.6645427e+00
  1.6451886e+00
  1.0515374e+00
  1.8754307e+00
  2.2937180e-01
  1.3143209e+00
  4.9209854e-01
 -1.1285030e+00
 -8.6717570e-01
 -4.3061066e-01
  1.2956604e-01
 -5.0552201e-01
  5.7944530e-01
 -2.7473867e+00
 -1.4238301e-01
 -2.4743829e+00
  1.2789253e+00
 -7.3383546e-01
 -1.6717267e+00
  1.2744813e+00
 -1.4610802e-01
  1.5694762e+00
 -1.7092821e-01
  8.8275307e-01
  1.8530354e+00
 -5.2401888e-01
 -1.1334194e+00
  5.7677394e-01
  1.3243312e+00
 -1.1165518e+00
  4.4582577e+00
  1.8200970e+00
  1.0272814e-01
 -1.3609502e+00
 -1.6344570e+00
  3.2076941e+00
  3.6092148e+00
  2.6006215e+00
 -1.3325061e+00
  4.6822410e+00
 -1.9564697e-01
 -1.5897909e-01
 -5.6718987e-01
  3.7682670e-01
 -4.3936151e-01
 -2.6311556e-01
  2.2884887e-01
  8.8483882e-01
  1.0170290e+00
 -2.4993536e-01
  1.8321027e+00
 -3.1230679e+00
  8.0070591e-01
 -1.2324628e+00
 -1.4002391e+00
  2.9256032e+00
  2.8164014e-01
  2.3406606e+00
  1.0629838e+00
 -1.0574335e+00
 -1.5073228e-01
  9.0769815e-01
  4.2982143e-01
  5.3622354e-02
  8.7844834e-02
  7.6701319e-01
 -6.9587725e-01
  1.1026104e-01
  3.1246921e-01
 -5.3342062e-01
  6.4282119e-01
 -1.1034648e+00
  1.8595037e+00
  6.1345953e-01
 -3.7636924e-01
  1.6155618e-01
  2.9327909e-02
 -1.0488312e+00
 -1.2474612e+00
  8.0300611e-01
  1.8376118e+00
 -1.1214000e+00
  1.2837991e+00
 -1.0773396e+00
 -2.2211158e-01
  6.5013802e-01
  2.3566520e+00
 -1.4104878e+00
 -5.1155311e-01
  8.5298848e-01
 -9.7188151e-01
 -4.9098201e-02
 -2.1022317e+00
 -9.3909539e-02
  2.7636263e+00
  8.7575376e-01
  1.0916507e+00
 -1.6275083e-01
 -1.3298707e+00
  2.2513558e-01
 -2.2424161e+00
  8.2769193e-02
 -5.0366151e-01
  1.6529587e-01
 -4.3708438e-01
 -7.5477469e-01
  7.9176450e-01
  4.4368109e-01
 -5.9435558e-02
  1.4101992e+00
 -4.4401956e-01
  2.5165100e-02
  9.4158131e-01
 -1.7943586e-01
  1.3648322e-01
  1.0668894e-01
  1.7412333e+00
 -8.9547884e-01
  2.1812062e+00
  4.2829236e-01
  1.0082292e-01
  1.0026500e-01
 -8.0372989e-01
  7.1901351e-01
 -6.8441266e-01
  1.6971035e+00
 -1.2778901e-01
 -3.0544062e+00
 -1.6655192e+00
  1.0780990e+00
  3.4225025e+00
 -2.0066066e-01
  2.6227436e+00
  1.4855398e+00
 -1.8103027e-01
 -5.9931624e-01
  2.2942288e-01
  2.7327476e+00
 -2.7079258e+00
  2.2384831e-01
  5.7803667e-01
 -3.1237215e-01
  4.6242785e-01
  3.7658259e-01
 -3.7659508e-01
  5.5145788e-01
  1.7186545e+00
  2.5600749e-01
  4.0552175e-01
  6.1958313e-01
  4.2470646e-01
  8.9482702e-02
 -7.2444105e-01
  2.6324830e+00
  2.4395807e+00
  2.4490485e+00
 -1.3683827e+00
  1.0492959e+00
 -1.2760702e+00
  2.0376127e+00
 -7.7190280e-01
 -6.3571715e-01
 -4.5319778e-01
  1.9067808e+00
  2.5902584e+00
  1.7265437e+00
  1.0803440e+00
  3.3290249e-01
  2.4178028e+00
  9.2250443e-01
  1.5267420e-01
  1.4078381e+00
 -1.2605708e+00
  1.2672447e+00
  2.0079556e-01
  1.5998335e+00
 -3.8666291e+00
 -1.5669862e+00
 -8.6358142e-01
 -5.7091260e-01
 -3.5505235e-01
  6.5698594e-01
  8.7544388e-01
 -3.3642080e-01
 -1.0109718e-02
  5.9118308e-02
  5.4817575e-01
  2.1196257e-01
  1.4549021e+00
 -1.1061738e+00
  1.9350915e-01
  2.4387910e+00
  6.1864102e-01
 -7.4767739e-01
 -1.1212757e+00
  1.5411857e-01
  2.4713998e+00
  8.2104343e-01
  8.6986494e-01
  6.9012249e-01
 -4.2503619e+00
 -2.9653192e+00
  1.7874448e+00
  3.1418234e-01
 -1.3141917e+00
  2.1739049e+00
 -3.1109354e-01
  5.2948916e-01
  2.1648107e+00
  1.1019133e+00
 -8.6351764e-01
  5.9543055e-01
  7.0196438e-01
 -1.3931040e+00
 -4.1786808e-01
 -8.8723952e-01
  6.1683804e-01
  1.8967675e-02
  2.9931635e-01
  1.8917663e+00
  7.9990304e-01
  9.8872340e-01
  5.6428611e-01
  1.6621556e+00
 -1.7449839e+00
  1.5231615e+00
  1.5439698e+00
 -5.3723369e+00
 -3.8208207e-01
 -3.5406573e+00
 -2.3428683e+00
 -2.8497086e+00
 -2.2218716e+00
  3.0409596e+00
  3.0856931e-01
 -1.0025473e+00
  5.4392821e-01
 -3.2784256e-01
  1.9397559e+00
  3.8277227e-01
  1.3634681e+00
 -8.7266809e-01
  1.3882922e+00
  2.2806728e+00
  7.3425961e-01
  1.4777050e+00
  2.9495144e+00
  3.0952098e+00
  1.9626948e-01
  6.0969150e-01
  9.8286796e-01
 -5.5965972e-01
 -2.9665241e-01
  7.8314489e-01
  1.1179055e+00
  9.8057139e-01
  1.8246409e+00
 -1.0085641e-01
 -3.1475762e-01
  9.6573383e-01
  2.5306898e-01
  3.8809521e+00
  1.6774263e+00
  7.3844743e-01
  2.6436961e-01
  8.7378420e-02
 -1.1961901e+00
 -1.1002632e+00
  1.1725986e+00
 -1.7551845e-01
  9.9077463e-02
  4.5922365e-02
 -1.3400997e+00
 -1.7996963e+00
 -9.8254776e-01
 -2.6281674e+00
  1.5794369e+00
 -7.6540601e-01
 -1.3964976e-01
 -5.2986574e-01
 -1.5404507e+00
 -2.6166129e+00
  1.0603056e+00
 -2.7286347e-02
 -2.5001627e-01
  3.2107010e-01
 -4.1258946e-01
  3.0982706e-01
  3.4033474e-01
  2.3325814e-01
  7.5077152e-01
  1.9736617e+00
 -3.5727534e-01
 -9.5950770e-01
  4.8404932e-02
  1.2011600e+00
 -9.2804730e-01
  1.8076748e+00
 -5.5344898e-01
  1.6487571e+00
  4.5286498e+00
  1.1704644e+00
  3.6351699e-01
  1.6741966e+00
 -9.7649075e-02
  1.2728064e+00
 -1.6449115e+00
 -6.2240487e-01
 -5.0434601e-01
  4.0022311e-01
 -1.4855621e+00
  4.8917770e-01
 -7.5937867e-01
  1.1846751e+00
 -8.5031527e-01
  7.0025146e-02
 -5.2500302e-01
  7.0440978e-01
 -2.4354587e-01
 -2.7352503e-01
 -1.1572233e+00
  1.1464384e-01
 -2.5889841e-01
  4.8441255e-01
  1.2508947e+00
 -2.2272673e+00
 -2.7076012e-01
 -8.9415741e-01
 -2.1627292e-01
 -6.4254780e+00
 -6.3325934e+00
  1.2481962e+00
  1.7931821e+00
 -9.2137820e-01
 -3.1799090e+00
  3.2285259e+00
 -2.3994291e+00
 -3.2244251e+00
  1.3330836e+00
 -4.1683811e-01
  4.0166181e-01
  1.5157485e+00
  8.3663702e-01
 -6.7990530e-01
 -1.4847603e-03
  1.6685151e+00
  6.8385929e-01
 -3.6085894e+00
 -1.0597217e+00
  2.2625690e+00
  1.6565658e+00
  6.9346076e-01
 -8.7278569e-01
  1.9744986e-01
 -1.8876233e+00
  4.0729982e-01
  4.1100493e-01
  2.9746717e-01
 -3.9786586e-01
 -6.7390555e-01
  6.1223018e-01
 -3.9117545e-02
  3.1868494e-01
 -6.9148205e-02
 -7.1159333e-01
 -5.6900716e-01
 -7.0848769e-01
 -1.5720671e-01
  5.8400476e-01
 -9.7492373e-01
 -3.1451729e-01
  2.1383366e-01
 -1.9652944e-02
 -1.0151824e+00
 -3.2585663e-01
 -2.0613238e-01
 -1.1957653e+00
 -1.4352156e+00
 -9.0394676e-01
 -3.0241954e+00
  2.3538558e-01
  1.3121574e-01
  5.8301014e-01
  4.4341561e-01
  3.4466720e-01
 -3.7707624e-01
 -1.3887195e-01
 -7.9995120e-01
  1.0683885e+00
  2.9741237e-01
  5.5071402e-01
  8.5724247e-01
 -4.2112187e-01
 -1.7453578e+00
 -1.3852571e+00
 -6.2706655e-01
  2.4734868e-02
  6.1654037e-01
  1.7912074e+00
  6.2849456e-01
  1.2283156e+00
 -2.2921727e+00
  8.9989841e-01
  1.2286559e+00
 -1.9473901e+00
  4.2604691e-01
  1.6843107e+00
  1.2920455e+00
 -4.5118460e-01
 -5.3229755e-01
 -2.9412637e+00
  1.6485748e+00
 -1.4794813e+00
 -7.7439469e-01
 -2.3745780e+00
  1.0142459e+00
 -2.0358555e+00
 -3.9363980e-01
  1.0471233e+00
  3.7867527e-02
 -8.4775239e-01
  1.9557789e-01
 -1.6945951e-01
 -5.6518376e-01
 -4.9719203e-02
 -6.3022792e-01
  5.4099900e-01
  9.3063849e-01
  6.3084900e-01
  5.5189949e-01
 -1.1312314e+00
 -6.3157815e-01
 -3.6284822e-01
 -1.7362101e-01
 -4.1380759e-02
  1.5732645e+00
 -2.7800405e+00
 -1.0025376e+00
  3.4451964e-01
 -1.7516576e+00
  1.2799196e+00
 -4.4931436e-01
 -1.1580256e+00
 -9.9887288e-01
 -9.6197307e-01
  5.6450682e+00
  8.1688517e-01
  2.5921826e+00
 -2.7267879e-01
  2.0396037e+00
 -2.8068724e+00
 -1.3622395e+00
 -6.8526226e-01
  2.2482309e+00
 -1.1962150e-02
  6.1554468e-01
 -9.8439455e-01
  3.4128990e-02
  5.2795786e-01
  1.1555830e+00
 -3.4256452e-01
 -1.0543427e+00
 -5.4807848e-01
 -1.3152409e+00
  2.0243348e-01
  5.9172545e-02
  1.4008965e+00
 -6.6993171e-01
 -3.8504839e-01
  4.3487039e+00
 -2.7468634e+00
 -1.3363755e-01
  4.8624692e+00
  4.8975989e-01
  3.0579829e-01
 -1.5280863e+00
 -2.3556063e-01
  2.1099328e-01
 -1.2353156e+00
 -9.8108917e-01
 -1.8564068e+00
 -1.6422441e+00
 -3.6710028e-03
 -1.9316288e+00
  3.3177097e+00
 -9.5874494e-01
 -4.5987955e-01
 -4.0512800e-02
 -1.8807485e+00
  6.3448286e-01
 -4.3350897e+00
 -4.7584969e-01
  5.3732163e-01
 -2.4422822e+00
 -3.5348766e+00
 -3.4146529e-01
  3.3712202e-01
  1.2344456e+00
  1.3473475e+00
  8.4987473e-01
 -2.6195854e-01
 -5.7698238e-01
  1.2358780e+00
 -1.7318879e+00
  1.1091106e-01
 -5.3418702e-01
  1.4040648e+00
  4.6164596e-01
  1.0652711e+00
  3.1028908e-01
  1.3430743e+00
 -4.4831342e-01
  7.9716778e-01
  2.9425272e-01
  2.0819259e+00
 -2.8492043e+00
 -7.9942566e-01
 -5.3105120e-02
  4.2724925e-01
  5.0965899e-01
 -1.7214338e+00
 -1.4157152e-01
 -6.9212657e-01
  3.5516949e+00
 -7.3324835e-01
  7.5679129e-01
  4.2555124e-01
 -1.3615254e+00
  1.8680320e+00
  5.3120863e-01
  7.8198290e-01
  9.8585600e-01
  8.1232172e-01
 -6.8479317e-01
  3.6379411e+00
 -1.0152072e-01
  8.3988345e-01
  4.9609536e-01
  2.9205542e+00
 -4.0375819e+00
 -6.7367679e-01
 -1.6633902e+00
 -1.2018878e+00
  1.2920823e+00
  2.2963482e-01
 -1.0393853e+00
 -8.2966518e-01
 -5.4989022e-01
  1.7731037e+00
 -8.6118507e-01
 -2.0357802e+00
 -2.0583448e+00
 -1.8086689e+00
 -3.4424374e+00
 -3.7911620e+00
 -5.6827416e+00
 -1.2795636e-01
  9.7184455e-01
  1.6359596e+00
 -3.0307245e+00
 -6.0568814e+00
 -2.4121103e+00
  1.5137738e+00
 -1.5769166e+00
 -2.0501719e-01
 -5.5715311e-01
 -1.0565047e+00
  4.4805157e-01
  3.2123880e+00
 -7.7123368e-01
  5.8654392e-01
 -1.7466532e-01
  2.4100496e-01
  2.8591580e+00
  1.4230214e+00
  1.7192911e+00
 -2.9135536e-02
 -8.0086762e-01
  1.2775211e+00
  5.9193540e-01
  1.0571887e+00
  1.4691086e+00
 -1.8710966e-01
 -9.3090057e-01
  1.5192217e+00
  4.1993293e-01
  3.2502816e+00
  2.6587279e+00
 -2.1692748e-01
 -1.1497307e+00
 -1.0892705e+00
 -1.6835815e+00
  1.6067077e+00
 -5.9207237e-01
 -1.7902522e-01
 -3.0051994e+00
 -4.1068697e-01
  9.5614469e-01
  1.0617863e+00
  1.0738125e+00
  3.2535997e-01
 -8.5629565e-01
 -6.6488212e-01
 -7.4506611e-02
 -1.5145889e-01
  1.4572461e-01
 -4.8889899e-01
  1.0616294e-01
  4.5954134e-02
 -3.9046055e-01
 -2.1900120e+00
 -1.8693987e+00
  2.0594280e+00
 -1.5610539e+00
 -7.3615718e-01
  1.4064877e+00
  6.4685583e-01
  9.4170958e-02
  2.5290587e+00
  1.5758603e+00
  6.3938391e-01
  1.9933590e-01
  1.1662783e-01
  2.2409554e+00
 -7.7065569e-01
  1.3473765e+00
 -6.7916918e-01
  1.6120051e+00
 -7.5867331e-01
 -2.4567499e+00
 -1.2079539e+00
  1.2499480e+00
 -1.9709727e+00
  1.5964224e+00
 -5.8125353e+00
 -5.7675338e-01
 -2.3863602e-01
 -7.7398734e+00
  2.4800370e-02
 -4.4853038e-01
  1.2287000e+00
 -1.5618855e-01
  5.9346974e-02
 -4.7695005e-01
 -1.1934025e+00
  7.6293957e-01
  3.1919262e-01
  1.6823026e+00
 -1.0793869e+00
 -3.0257645e+00
  8.8650995e-01
  2.0896904e+00
 -3.6742604e-01
  2.6003927e-01
 -1.6387334e+00
 -4.7378442e-01
  4.9818322e-01
 -9.5727789e-01
 -3.0583141e+00
 -4.7346455e-01
  8.5696006e-01
  1.7409604e+00
  4.7508030e+00
 -2.2878809e+00
 -2.7315667e+00
  9.4612265e-01
  1.1459771e+00
  1.9220358e-02
 -8.6475694e-01
  3.4161881e-01
 -1.6835922e-01
 -1.2333392e+00
  1.4254662e+00
  1.4198730e+00
 -4.8958954e-01
  4.1968614e-01
  6.1585724e-01
 -1.0008644e+00
 -1.6785012e+00
 -1.3577195e+00
  1.6338936e+00
  1.5307833e+00
  2.5962858e+00
  1.5301780e+00
 -3.7917645e+00
  6.5377128e-01
  3.2548690e+00
 -1.4508976e+00
  8.1234783e-01
 -2.6605644e+00
  6.9675767e-01
  9.9060589e-01
 -2.4936423e+00
  1.5355800e+00
 -1.3558089e+00
  1.1868176e+00
  3.4600785e+00
  8.3525842e-01
  1.0730010e+00
 -2.4427725e-01
  7.3789245e-01
 -2.0535314e+00
 -1.2735908e+00
 -2.6471403e+00
 -5.8238173e-01
 -1.0804905e-01
  3.9604142e-01
  3.4057897e-01
  6.0306627e-01
 -1.0190866e-01
 -9.7530879e-02
  6.1756951e-01
  2.4600226e-01
 -1.2094244e+00
  1.3531463e-01
 -9.5787776e-01
 -7.6495790e-01
 -1.2827942e-01
 -7.3627317e-01
  2.8084280e-02
  3.0558103e-01
  6.7437971e-01
 -2.3879385e-01
 -5.2939707e-01
  1.0803302e-01
 -6.6640127e-01
  4.4644156e-01
 -1.1268246e+00
 -2.8480677e-02
 -3.2646298e-01
 -1.4653276e+00
  1.3112144e+00
 -8.6136156e-01
  6.1971718e-01
  6.6499300e-02
 -1.4740504e+00
  5.6421435e-01
 -9.6560252e-01
  4.0494286e-02
  7.7263248e-01
  5.0828940e-01
  3.2173383e-01
  4.4975153e-01
  2.4965256e-01
 -2.2102635e+00
 -8.1078619e-01
  1.1466984e+00
 -1.8973283e-01
 -1.3109789e+00
  6.8577558e-01
 -2.5223029e+00
  3.1995466e-01
  6.4787513e-01
  1.3655924e+00
 -1.3850718e+00
  8.2511075e-02
 -3.1853670e-01
 -8.3292592e-01
 -3.6570361e-01
 -8.0619460e-01
 -3.5629046e-01
 -1.2762051e+00
 -1.9044365e+00
 -8.3439869e-01
 -3.4304088e-01
 -3.9855707e-01
 -1.8360704e+00
  8.2946968e-01
  1.7267466e-01
 -2.2900696e+00
 -8.1020075e-01
 -3.4889138e-01
 -3.0214301e-01
  1.5092234e-01
 -1.2884622e+00
 -9.7041553e-01
 -1.8690770e+00
 -1.5014328e+00
 -6.5945655e-01
  1.0982249e+00
  3.1580764e-01
  1.1312478e+00
  7.0983416e-01
 -1.4245458e+00
  2.2531893e+00
  2.4542016e-01
 -4.0357084e+00
 -6.5928721e-01
 -1.0111774e+00
  5.8398902e-01
  2.7566044e+00
 -9.6445233e-01
  2.2566633e+00
  2.2496560e+00
 -1.4924037e-01
  1.6994120e+00
 -1.4677991e+00
 -1.1130136e-01
  2.9839997e+00
 -2.6250963e+00
  1.4446884e-01
 -1.4221410e+00
  6.2842470e-01
  1.8099115e+00
 -4.1577649e+00
  1.2917233e+00
 -1.8782297e-01
  2.6784286e+00
 -2.4834700e-01
  2.1404178e-01
  1.4932729e+00
 -4.0349455e+00
 -1.4281062e+00
  4.8354602e-01
  3.0029321e-01
 -5.6003946e-01
  2.4032617e+00
  2.9192725e-01
 -1.7626542e+00
  9.4171506e-01
  5.3368869e+00
 -2.2269529e-01
 -2.2139053e+00
 -1.4645164e+00
  1.4024299e+00
 -2.5517757e+00
  1.4473652e+00
  7.8440034e-01
  3.5827565e-01
  4.9056381e-01
  2.0312393e+00
  2.1774666e+00
  2.5971943e-01
 -1.1002784e+00
  3.1426575e+00
  1.4888670e+00
  1.8981898e+00
 -1.5359011e-01
 -1.4755784e-01
  4.6596684e+00
  2.9190028e+00
  6.6613598e+00
  9.4101542e-01
 -4.4439384e-01
  9.4305915e-01
 -2.7810332e-01
  2.7655771e-01
  1.0875688e+00
 -1.0206738e+00
  2.6042771e-01
  2.5108993e-01
 -9.2857754e-01
  5.4659516e-01
  8.1223154e-01
  3.4913537e-01
 -2.4152897e-01
 -4.1622787e+00
  1.4853120e+00
  4.8944741e-01
 -1.4173979e+00
  6.8624300e-01
  1.1265232e-01
 -6.2894845e-01
  6.7358190e-01
  2.1829213e-01
 -9.5735657e-01
 -5.8083873e+00
 -2.7480856e-01
  1.6192930e+00
 -1.3235881e+00
 -2.1795788e+00
 -5.4341298e-01
  7.8943864e-02
 -3.0401771e+00
 -1.7435651e+00
  1.7460392e+00
 -5.7370353e+00
 -8.9107089e-02
 -4.6386495e-03
  2.8856365e-02
 -5.3802902e-01
 -1.5883276e+00
  1.8993765e-01
  2.1518302e-01
  1.9727678e+00
  2.4024172e-01
  4.9708760e-01
 -2.6158956e-01
 -3.0359498e-01
  2.7442098e+00
  5.9547224e+00
  2.1203439e+00
 -4.0702544e-02
 -1.3326030e+00
 -4.2317276e+00
  1.6353464e+00
 -2.7715281e-01
  1.0356327e+00
  6.5732235e-01
  2.2519050e+00
 -6.2040567e-01
  7.5041562e-01
  1.8810680e+00
  1.0989282e+00
  2.5332046e+00
  4.3476157e+00
 -1.8655208e+00
  1.1834655e+00
  9.1999048e-01
  3.1629114e+00
  3.0531216e+00
 -6.2062573e-01
  2.0892491e+00
  8.3892846e-01
 -8.1112200e-01
  4.0269253e-01
  4.4987872e-01
  1.5600368e+00
 -5.1098801e-02
 -2.2932193e-01
  8.7705749e-01
 -2.9574435e-02
 -1.0708834e-02
 -1.5872638e+00
  5.6054273e+00
 -1.1895828e+00
 -1.0637031e+00
  4.5714304e-01
  1.2443683e+00
  1.2362767e+00
  1.0992347e-01
  2.4711205e-01
  3.1392035e-01
  1.3645016e+00
  1.4694902e+00
 -1.8433571e+00
 -4.2437878e-01
 -1.4206026e+00
 -5.0390494e-01
  1.9877517e+00
  6.6395038e-01
 -3.7273481e-01
 -1.3181026e+00
 -7.3033935e-01
  2.8093214e+00
  3.7760198e-01
  6.2588573e-01
 -2.9262288e+00
 -2.0454760e+00
  4.2426591e+00
  1.1259289e+00
 -5.9212226e-01
  1.0492861e+00
 -2.0795774e+00
  2.8583420e-02
  1.4013865e+00
 -7.2557628e-01
 -4.0547514e+00
  1.5777403e+00
 -2.9678280e+00
 -2.3504703e+00
 -1.0334951e+00
  2.5482900e+00
  7.9634070e-01
  1.4374318e+00
  5.4112154e-01
 -7.8586465e-01
  7.6812494e-01
  1.2041498e+00
 -1.4355953e+00
  7.6875788e-01
  7.7578086e-01
  1.0108056e+00
  5.6731755e-01
 -8.5998738e-01
 -1.4128182e+00
  3.2265544e+00
  2.0146093e+00
 -1.1948813e-01
 -5.4755557e-01
  1.1155561e+00
 -1.4673319e+00
 -3.7688237e-01
  2.5175667e-01
  1.1828997e+00
  6.1185724e-01
 -1.5430029e-01
  2.5619140e-01
 -5.3992271e-01
  1.5966747e+00
 -1.5259649e+00
  3.2632884e-02
 -1.5292089e+00
  8.0777842e-01
 -3.3919351e+00
 -1.0224341e+00
 -3.2263541e+00
 -3.7922468e+00
 -1.1058463e+00
 -3.1722885e-01
  2.2910082e+00
  3.1240933e+00
 -2.0604327e-01
 -1.0399666e+00
  5.1494622e-01
 -5.7249236e-01
  7.0743155e-01
 -4.2735305e-01
  2.1593635e-01
  1.9425941e-01
 -2.9826484e+00
  5.4408020e-01
  3.0020422e-01
 -1.7867895e+00
  2.4339938e-01
 -4.1769943e-01
  7.6347083e-01
  9.7916192e-01
 -7.8080640e+00
 -6.2551564e-01
 -1.2224129e-02
  1.8266970e+00
 -1.4469444e+00
  2.5593024e-01
 -3.2203634e+00
  1.0621104e+00
  8.0204375e-02
  3.9465156e-01
 -1.3786176e+00
 -8.3068740e-01
 -2.1691422e+00
  8.0709827e-01
  3.8442659e-01
 -7.5623256e-01
 -3.3785498e+00
 -2.4155765e+00
  6.0803670e-01
 -2.1882925e+00
  6.7560774e-01
 -1.5475541e+00
 -2.8924432e-01
 -6.6887444e-01
 -4.6443439e+00
 -5.9761912e-01
 -1.6794527e+00
 -1.4869627e+00
 -2.2370008e-01
 -5.2159767e+00
  4.9185869e-01
 -2.3432984e+00
 -4.3167299e-01
 -1.5399590e-01
 -3.4599795e+00
  6.0236830e-01
  4.3841782e+00
 -2.3275265e-01
 -4.1111541e-01
 -4.3248349e-01
  2.7918830e+00
  6.8214124e-01
  1.6407863e+00
 -1.4620205e+00
 -1.4282176e-01
 -1.2964365e+00
  1.2234836e+00
  4.1658315e-01
  7.8095484e-01
  7.3627681e-01
 -6.7237300e-01
  6.8571144e-01
 -7.3523563e-01
  6.2638021e-01
 -5.8129573e-01
 -4.4253075e-01
 -6.4030564e-01
 -1.1522683e+00
  6.2957689e-02
 -2.1486405e-02
 -5.8958036e-01
  1.2029741e+00
 -1.4341334e-01
 -2.1733248e-01
 -7.6673681e-01
 -5.4526174e-01
 -9.5748872e-01
 -4.2477587e-01
  1.1233491e-01
  3.9847663e-01
  5.6679499e-01
  7.6932150e-01
 -1.8286990e+00
 -8.0290139e-01
  6.0527820e-02
 -3.4954384e-01
 -7.9132926e-01
 -1.8326341e+00
 -9.6858829e-01
  1.3622960e+00
 -2.5430021e+00
 -3.2380066e+00
 -7.4496490e-01
  5.9340084e-01
 -1.7604913e+00
  7.1612853e-01
 -2.0953081e+00
 -4.0345964e-01
  4.9004874e-01
  5.2445966e-01
  3.4039550e+00
  8.6194605e-01
  1.4171631e+00
 -2.0411415e+00
  1.5168544e+00
  6.1013258e-01
  2.7582910e+00
 -2.2017579e+00
  2.8716936e+00
  2.0034151e+00
  2.4200733e+00
  2.0213802e+00
 -1.5178397e+00
 -1.7451824e+00
  2.7236924e+00
  2.6168926e+00
  5.3163517e-01
  4.7797599e-01
  1.2595501e+00
  6.5040368e-01
 -5.8449978e-01
  4.6928984e-01
 -8.5405463e-01
 -7.3250741e-02
 -5.7649007e+00
  3.2201819e-02
  3.6814361e+00
 -1.3409879e+00
 -3.1973808e+00
  4.0125351e+00
 -7.3453343e-01
 -9.7667229e-01
 -1.3885713e+00
 -1.5965195e+00
  1.1133282e+00
  1.6827512e+00
 -6.2354380e-01
  1.2022806e+00
 -2.1653039e+00
  6.0174084e-01
 -1.4215206e-01
  2.4885492e-01
 -1.1776437e+00
 -2.1679826e+00
 -3.7688336e-01
  2.9444652e+00
  1.0447330e+00
  3.9752710e-01
 -1.8596524e+00
  5.1025897e-01
  6.7441994e-01
 -1.3785499e-01
 -9.9582142e-01
 -1.0556288e+00
  6.3169742e-01
 -1.2000786e+00
 -3.2764204e+00
 -7.9340845e-01
  9.6080112e-01
  1.6769916e+00
  3.0319324e+00
  2.9712071e+00
  1.1529337e+00
 -5.6872880e-01
  1.4976553e+00
 -6.5515125e-01
 -1.0263301e+00
 -1.1931369e+00
 -5.9830689e-01
  8.5333955e-01
 -1.2893309e-01
 -4.2661998e-01
  9.9076152e-01
 -2.6964924e-01
  6.8976647e-01
  5.2607983e-01
  1.0839467e+00
 -1.3782408e-02
 -8.0422479e-01
 -1.8806196e+00
  4.2908782e-01
  9.2823619e-01
 -2.9559726e-01
  1.3634183e+00
  1.2011939e+00
  9.0577967e-02
  1.9239881e+00
  7.6520729e-01
  6.5080953e-01
 -8.3150113e-01
 -3.8949353e-01
 -8.1854135e-01
  1.2551801e+00
 -5.4058666e+00
 -1.2685219e+00
  1.6560039e-01
 -6.7193216e-01
 -4.9298048e+00
 -1.2630323e+00
 -7.2919416e-01
 -7.4141413e-01
  1.8086569e+00
 -8.5665397e-02
  8.7264544e-01
  1.0577896e+00
  1.4129926e+00
 -1.4571221e+00
  3.3096042e-01
  1.4947406e+00
 -1.7159358e+00
 -1.2070862e+00
 -1.1412009e+00
 -2.4187701e+00
  1.0446957e+00
 -1.9729075e+00
 -2.9669330e-01
 -7.0434451e-01
 -1.4799616e+00
  4.9384451e-01
 -4.0113863e-02
  1.6659179e+00
  6.4449620e-01
  3.9500636e-01
  8.6131972e-01
 -3.2269094e+00
 -8.1919259e-01
 -8.9729077e-01
  1.1091573e+00
  5.1896203e-01
  1.5378547e+00
 -1.4182068e+00
 -1.3951077e-01
 -2.2811708e+00
 -1.0614034e+00
  1.1422050e+00
  6.7956066e-01
 -3.4152022e-01
 -3.2406220e-01
  7.3641038e-01
 -5.9727979e-01
  4.8030123e-01
  5.2077127e-01
 -2.0973012e+00
  1.0115464e+00
  5.1850271e-01
 -1.5663419e+00
 -9.9351823e-01
 -1.1386141e+00
  2.7518806e-01
 -4.6168849e-01
 -6.2009060e-01
 -1.3474284e+00
 -2.3516130e-03
 -6.3561106e-01
  8.1134522e-01
 -9.0952134e-01
  6.1303467e-01
  8.1887859e-01
  2.6334426e-01
 -3.4779063e-01
 -5.6854051e-01
  5.4265785e-01
  1.5747367e+00
 -1.6020955e+00
 -1.2909687e+00
  1.9766823e+00
  2.1246576e+00
  2.7800751e+00
 -1.3705726e+00
  2.3652703e-01
 -6.0870278e-01
 -6.7217022e-01
 -2.4305680e+00
  4.1174092e+00
  2.5251928e-01
 -2.0763922e-01
  1.2593840e+00
 -1.4765712e+00
  4.8633018e-01
 -4.6354657e-01
 -7.2329444e-01
  4.6803936e-01
  1.1907157e+00
 -2.0101149e+00
  2.7981832e+00
  1.8064940e+00
  1.0339960e+00
  1.3848186e+00
  3.6870790e-01
  1.9849621e+00
  4.1832991e-02
 -8.5663593e-01
 -1.0603915e+00
 -5.5406243e-02
 -2.5132120e-01
 -2.7216716e-02
  9.3334866e-01
  1.0850618e+00
  1.6692365e+00
 -4.1292748e-01
 -1.5029685e+00
 -4.9177092e-01
  9.1913694e-01
 -2.1316203e-01
 -1.7973704e+00
 -1.8107927e-01
 -9.9558197e-02
 -6.3040950e-03
  1.2994998e+00
  6.6831982e-01
  1.0463270e+00
  1.2178396e+00
 -2.8609363e-02
  3.9267781e-01
 -1.2499060e-01
  1.7642648e+00
  2.5266990e-01
  1.0300169e+00
 -7.5709635e-01
 -8.0835766e-01
 -4.0872365e-01
 -1.0514961e+00
  3.9584072e+00
  1.1690555e+00
  3.6099967e-01
 -1.4278368e+00
 -2.8876829e-01
  3.5885671e-01
 -4.1827139e-01
  1.0256172e+00
  6.3178402e-01
 -7.2660708e-01
 -1.5006069e+00
  5.3390527e-01
 -8.4694350e-01
  2.3010709e+00
 -1.1031463e+01
 -1.3210436e+00
  6.0246463e+00
 -3.9548285e+00
 -3.0066116e+00
 -3.8260882e+00
 -1.0826443e+00
 -2.1982358e+00
 -2.7088158e+00
 -1.5530756e+00
 -3.4707301e+00
  1.6635184e+00
 -6.0991377e-02
 -9.4625074e-01
 -2.3235607e+00
 -2.8898003e+00
 -3.3064163e+00
 -2.4258509e+00
 -8.9216167e-01
 -9.6743330e-02
 -3.4740005e+00
 -1.1760005e+00
 -1.2723914e+00
 -2.5183558e+00
  2.8178263e+00
 -1.1054122e+00
  2.0530519e-01
  1.1492431e-01
  4.8275840e-01
 -1.1574883e+00
 -1.8954166e+00
  1.8355615e+00
  1.5167878e+00
 -4.1638994e-01
 -3.1151762e+00
 -2.2938137e+00
 -1.9332447e+00
  2.2858877e+00
  8.0786860e-01
  1.0266229e+00
 -8.7984067e-01
  3.3176693e-01
 -5.9817487e-01
 -6.8959665e-01
 -1.2399002e+00
 -1.5128875e-01
 -4.3194029e-01
 -2.2100635e-01
  1.2089890e+00
 -3.6432755e-01
  7.7743655e-01
  1.2511414e-01
 -1.1944357e+00
 -4.4087794e-01
 -1.9752199e-02
 -1.9978040e-01
  3.4432817e-01
  3.2040553e+00
  5.5766505e-01
 -1.0656705e-01
 -2.3270071e-01
 -6.6855240e-01
  5.0731504e-01
  1.3998858e-02
 -2.2772668e-01
  4.4044426e-01
 -6.1071211e-01
  9.1030568e-01
  5.5583924e-01
  9.1525316e-01
 -3.7256160e+00
 -4.2666926e+00
 -2.0880485e-02
  3.3857348e+00
 -6.6594487e-01
 -1.4541657e-01
 -7.9189426e-01
 -9.4517000e-02
  7.3927313e-02
  6.1862677e-01
 -5.1856816e-01
 -6.8813615e-02
 -9.3489122e-01
  1.6143431e-01
 -1.6622505e-01
  6.5653002e-01
 -1.9641787e-01
 -8.1011403e-01
 -3.2818282e-01
 -5.2012962e-01
  2.7675459e-01
 -1.4309975e+00
 -8.7491286e-01
 -9.0941441e-01
  7.6535219e-01
 -3.4086055e-01
 -7.8682885e-02
  4.4161740e-01
 -1.4800820e-01
 -4.6665484e-01
 -4.6462166e-01
  1.9745563e+00
 -3.9381763e-01
  2.3828322e-01
 -4.4022989e-01
 -4.6273079e-02
  1.0821224e+00
  1.4037850e+00
 -4.8826316e-01
 -3.2267720e-01
 -3.9731172e-01
 -2.2194692e-01
  1.9208026e-01
 -2.1169515e+00
 -1.1701444e+00
  1.8977106e+00
  2.7207041e+00
  2.1716803e-01
 -1.1091595e+00
  5.7094383e-01
  3.1560093e-01
  4.4135466e-01
  3.6531252e-01
  6.9763732e-01
  2.0967052e+00
  6.7229474e-01
 -2.6956886e-01
 -1.0259771e-01
  5.6093001e-01
  1.3074528e+00
 -1.4574790e-01
  1.4958193e+00
 -7.9035038e-01
  3.4566460e+00
 -1.3214005e+00
  2.1074165e-01
  2.2320871e+00
  1.0696874e+00
 -4.7357669e-01
  1.0425367e+00
  1.3090211e+00
 -2.3733144e+00
  1.9530419e-01
 -1.1878420e-01
 -1.2969635e+00
 -1.9469935e+00
 -8.1112063e-01
 -2.3784566e+00
  1.5440180e+00
 -4.9343181e-01
 -1.6837562e+00
 -8.1675822e-01
  1.2577229e+00
  8.3980799e-01
  3.4620166e-01
 -3.2808304e+00
  7.5279230e-01
 -9.0052915e-01
  1.3386145e+00
 -2.0742350e+00
 -1.3251547e+00
  1.9746714e+00
 -2.2536218e+00
  1.1148825e+00
  1.3061985e+00
  1.1017753e+00
  7.4025638e-02
  1.3845544e-01
  1.5656111e+00
 -1.1801107e-01
  1.5519841e-01
  2.2603731e-01
 -7.1585542e-01
  1.8069909e+00
 -6.5417075e-01
  4.0540507e-01
 -2.2730451e+00
  1.3111648e-01
 -1.8806260e+00
  1.4853070e+00
  1.8716432e+00
 -1.7423257e+00
 -5.2411890e+00
  4.7758961e-01
  2.4176452e+00
 -8.0112237e-01
 -4.5307547e-02
  7.1309489e-01
  6.0001463e-01
  2.5834510e+00
 -7.3303461e-01
 -2.7501765e-01
 -3.1114614e-01
  9.0619051e-01
  4.2215227e-03
  9.1041589e-01
 -3.6784790e+00
 -2.8047731e+00
 -8.6940056e-01
  6.1639744e-01
 -3.2613695e-01
 -8.2815886e-01
  6.2210339e-01
  1.0546970e+00
 -5.6489861e-01
  1.5315516e+00
 -2.9945534e-01
  1.1319891e+00
  4.3701129e+00
  3.6568062e+00
  4.4619231e+00
  3.2669396e+00
  1.9556759e-01
 -1.9450644e+00
 -8.6718875e-01
 -3.0410832e-03
  1.8236851e-02
  5.5067331e-01
 -9.8640668e-01
 -1.1730360e-01
  1.5548114e-01
  1.4961317e+00
  1.1389383e+00
  8.0858666e-01
  1.1350311e+00
  5.3092438e-01
  1.2828205e+00
  6.2760276e-01
  2.1515644e-01
  6.5480179e-01
 -8.7350732e-01
 -6.0889328e-01
  9.9095005e-01
 -7.5822443e-01
  1.0558844e+00
  5.9907824e-01
  7.1903294e-01
 -4.0810518e+00
 -1.9652140e+00
  1.1548623e+00
  1.1171969e+00
 -1.1563107e-01
 -1.2991520e+00
  4.4686288e-02
  7.6650602e-01
  1.0534473e-03
  1.7380093e+00
  1.2264059e+00
  2.6942158e-01
 -4.4154581e-01
  2.7007978e+00
 -2.9091892e-01
 -3.3826756e+00
  1.8737270e-01
  1.0944970e+00
 -6.1123633e-01
 -3.8023782e-01
 -3.6347306e-01
 -1.3459805e+00
 -3.0557081e-01
 -8.4514093e-01
  1.3378812e+00
  7.2588515e-01
 -4.7765687e-01
  1.4157795e+00
  1.2767656e-01
  1.4399923e+00
  5.1631463e-01
  5.1267065e-02
 -7.4904466e-01
  1.3785478e+00
  2.9344085e-01
  5.2391297e-01
 -3.8163918e-01
 -6.8078524e-01
 -1.1839517e+00
  1.9095755e+00
  2.0755122e+00
  2.7906555e-01
 -1.3693478e+00
 -8.8029808e-01
 -9.1856158e-01
 -1.8321263e+00
 -8.1285459e-01
 -5.3655231e-01
 -5.0992846e-01
 -6.9670612e-01
 -4.7334966e-01
 -1.0178863e+00
 -4.7973278e-01
 -2.0328672e+00
  3.4969547e+00
 -1.3279744e+00
 -3.4508393e+00
 -3.1135180e+00
  1.4680265e+00
  2.2492974e-01
 -2.6704812e+00
 -3.3586841e+00
 -6.8910873e-01
 -5.4899585e-01
  1.8038415e+00
  1.7718757e+00
  9.2388034e-01
  1.4955851e+00
  2.7347274e+00
  9.1672711e-02
 -2.6811612e-01
 -3.5684952e-01
 -2.2068086e+00
  8.9347517e-01
 -7.7888346e-01
  2.4793255e+00
 -3.1898314e-01
  2.2379465e+00
  5.8846909e-01
 -1.1049860e+00
 -2.5589666e-01
 -6.9209194e-01
  8.7633707e-02
  8.1592774e-01
 -5.0284719e+00
 -7.8676647e-01
 -2.9185408e-01
  1.0593998e+00
 -5.8842516e-01
  7.1670014e-01
 -8.7368298e-01
 -2.3759658e+00
  1.2542113e+00
  8.2112199e-01
  1.6034896e+00
  7.6831275e-01
 -1.2411696e-01
 -1.5222564e-01
 -6.9092613e-01
 -3.6592171e-01
  1.3350526e+00
  2.6644087e+00
  9.0886509e-01
 -2.5406961e+00
 -1.3783989e+00
 -1.2840500e+00
  1.4135450e+00
 -1.1734763e+00
  2.0181210e+00
 -6.7190504e-01
 -2.0832503e+00
 -2.7771504e+00
  1.4649171e+00
  3.5020065e+00
 -7.4104142e-01
 -2.3382552e+00
 -2.0024064e+00
  1.4538908e+00
  9.2338842e-01
  1.4829435e+00
  4.6626482e+00
  2.1738799e+00
  1.3225458e+00
  6.0776412e-01
  4.9302566e-01
 -6.6504163e-01
  1.4223089e+00
 -1.8924068e-01
 -5.3598505e-01
  4.2337406e-01
 -2.3274982e+00
 -6.5933412e-01
  2.7503994e-01
  2.7355000e-01
 -2.8109610e+00
 -2.9110345e-01
  1.9468197e+00
  9.2583740e-01
  1.9392855e-01
 -3.8256139e-01
  2.0528109e+00
 -5.2161849e-01
 -2.4960952e-01
  1.2641784e+00
 -1.4457685e-01
 -2.4628365e+00
 -2.5129765e-01
 -1.9954422e-01
 -3.0120866e+00
  1.2667343e-01
  2.5974250e-01
  1.0117038e+00
 -8.8401616e-01
 -9.9238664e-01
 -3.1077346e-01
 -3.8707381e-01
  3.7352732e-01
 -8.0596626e-01
 -5.0568663e-02
  1.3150780e+00
  5.8211350e-01
  3.5080346e-01
  7.0201862e-01
 -1.9880152e-01
  1.1230808e+00
  1.1636764e+00
  2.1943528e-02
 -5.6856030e-01
  6.0907811e-01
 -8.4677565e-01
 -6.7807652e-02
 -6.1319685e-01
  1.3049179e+00
  8.1058741e-01
 -1.4598078e+00
 -6.1683816e-01
  6.4546089e-03
 -3.7730180e-02
  1.2952349e+00
 -2.1515591e+00
  1.0845631e+00
  6.7828548e-01
 -1.2192611e+00
 -1.1508580e+00
  2.6767492e-01
 -2.5483608e+00
 -1.9748156e-01
  1.2577496e+00
 -1.6679314e+00
  3.0186623e-01
 -5.5957621e-01
 -3.0180368e-01
  1.5958859e+00
 -2.3081683e-01
  1.1552958e+00
 -7.4585986e-01
  9.8298773e-02
 -7.7862769e-02
  9.6969771e-01
 -1.4788677e+00
  2.2109559e+00
  5.5653024e-01
 -3.1153135e-02
  3.0093448e+00
 -4.6824021e+00
  4.1513090e+00
 -2.7729592e+00
  3.0277875e-01
  2.0531325e+00
  6.8438727e-01
  1.2529474e+00
 -1.1540750e+00
 -4.5558235e-01
  3.6214213e+00
  1.0331742e+00
 -1.3116566e+00
 -1.7647394e+00
  2.8048236e+00
 -1.4617068e+00
  3.7772959e-01
  7.4177819e-01
  6.8618214e-01
  1.3360628e+00
  1.8624297e+00
  1.2259508e+00
  7.8927273e-01
  8.1817615e-01
  2.8081293e+00
  9.6777785e-01
  8.5536170e-01
 -2.1084797e+00
 -1.0712653e-01
 -2.6891987e+00
 -3.9146149e-01
  1.1858543e+00
 -1.0551983e+00
 -1.1918030e+00
  5.7365799e-01
 -5.3317279e-01
  3.0604449e-01
 -3.4227327e-01
  2.2347619e-01
 -7.0386553e-01
 -1.6059536e+00
 -1.4287820e-01
 -2.5516689e+00
 -6.1843213e-02
  1.4198893e-01
 -4.1911364e+00
 -6.7518657e-01
 -1.1543604e+00
  6.8777949e-01
 -3.1555644e-01
  4.6064579e-01
  8.8981546e-02
  1.2643515e+00
 -2.3212686e+00
  1.1168358e+00
 -1.2576905e+00
  8.1813890e-01
  2.6047084e+00
 -2.8055239e-01
  1.9242659e-01
  5.3845674e-01
  2.8316972e-01
 -1.7706292e+00
 -2.2904988e-01
  1.0880858e-01
 -6.2602341e-01
  8.4924823e-01
 -6.6624195e-03
 -6.2889397e-01
  1.6684720e-01
  2.1581752e+00
 -3.7318912e-01
  6.0379523e-01
 -4.2451078e-01
 -2.5792888e-01
 -2.7827007e-01
  1.5356666e+00
 -1.2995501e+00
  4.0303993e+00
 -1.7686176e-01
  6.4709580e-01
 -2.3621175e+00
 -1.6752385e+00
 -2.9603162e-01
 -1.8890324e+00
  1.6833043e+00
  4.0302086e-01
 -6.2525612e-01
  6.7411947e-01
  8.9497440e-02
 -4.1037419e-01
  7.4338877e-01
 -1.1779594e+00
  7.1350729e-01
  1.2448941e+00
  1.1873635e+00
  4.0935361e-01
  9.9709809e-02
  1.1295795e+00
 -2.5773332e+00
 -2.9065138e-01
 -1.8827169e+00
  1.9755162e+00
 -1.2385071e-01
 -1.2273313e-01
 -2.7140625e+00
 -1.7108793e+00
  5.9337741e-01
 -5.9304953e-01
  7.6213792e-02
 -2.3815598e-01
 -8.2260287e-01
  1.9051507e-01
  9.5543325e-02
  1.6021548e-01
  1.3983835e+00
  6.4836061e-01
 -6.6031617e-01
 -2.1646075e-01
  2.7732477e-01
  3.7177425e-02
 -1.5363609e+00
 -3.3754373e-01
 -6.9184518e-01
 -5.8810341e-01
  5.6069056e-03
  1.1857040e-01
  1.0061765e+00
  8.0973133e-02
  2.0672333e-01
 -9.7243565e-01
 -1.5078326e-01
  1.1591394e+00
  1.0589617e+00
  4.1695181e-01
 -9.9212766e-01
  1.7071726e+00
 -8.0018306e-01
  4.7206635e+00
  8.6721706e-01
  4.8184454e-01
 -4.1298547e+00
  9.2761528e-01
  1.4945943e+00
 -1.4653584e+00
  4.0075708e-02
 -7.9623856e-02
  7.1051788e-01
  4.0110546e-01
  2.3145688e-01
 -8.9902088e-02
 -1.1249909e-02
  4.8724172e-01
 -2.7735722e-01
  2.5631545e+00
  2.3322234e+00
 -2.2706556e+00
 -2.3190243e+00
  2.7458459e-01
  7.3782601e+00
 -1.1457185e-01
  1.9316100e+00
  5.4569876e-01
  3.9154509e-01
 -6.9602096e-01
  2.0842257e-01
  7.7692896e-01
  6.2852281e-01
  2.9575305e+00
 -2.6887581e-01
 -1.0078605e+00
  2.1344467e-01
  3.3109813e+00
 -2.5197500e-01
 -1.4984590e+00
  9.1968083e-01
  1.9635184e+00
  1.2777817e+00
  1.1004295e+00
 -5.4691404e-01
  1.3758558e-01
 -4.7155842e-01
  6.1776233e-01
 -3.7290418e+00
  9.0331292e-01
  2.5993612e+00
  6.4222383e-01
 -1.3414383e+00
 -3.5324297e+00
  6.0023017e-02
 -1.8814063e-01
 -1.2300104e+00
  7.9591525e-01
 -2.5676873e+00
 -8.7096977e-01
 -1.0916538e+00
  8.6468673e-01
  1.7646297e+00
 -1.8304540e+00
 -4.6284910e-02
 -1.9937046e-01
 -8.0167842e-01
  8.4059745e-02
  3.9165673e-01
  7.1648151e-01
  1.6352382e+00
 -5.2642548e-03
  4.4744188e-01
 -7.2775090e-01
 -2.3350532e+00
 -1.0293554e+00
  5.5141342e-01
  2.1141381e+00
 -2.8778157e-01
 -5.1561114e-03
 -6.0934871e-01
  3.3013074e+00
  1.2117100e+00
 -1.7328854e+00
  2.2706652e+00
  1.0199989e+00
  5.7131207e-01
 -1.4597465e-01
 -7.7894187e-01
 -1.4821423e+00
  4.5953482e-01
  1.0741127e+00
  6.9415683e-01
 -7.3121017e-01
  1.8044615e+00
  1.1198423e+00
  1.2898314e+00
  8.3880001e-01
 -4.9804980e-01
  7.9409730e-01
 -1.7743577e+00
 -1.9985708e+00
  8.5603756e-01
  3.6101294e-01
  3.4225526e-01
 -8.0964938e-02
 -1.2777615e-01
 -6.7884660e-01
 -4.3777493e-01
 -8.1745243e-01
  7.7889395e-01
 -2.5242192e-01
 -4.8358083e-01
  2.8016000e+00
 -5.0261497e-01
 -9.2023677e-01
 -2.7013728e-02
 -6.5195972e-01
  3.7574822e-01
 -7.3306364e-01
  1.7936327e+00
  9.6835345e-01
  8.4288627e-01
  5.4993701e-01
  2.0721071e+00
  9.8698741e-01
 -1.4199962e-01
  2.8853655e-01
 -5.1342702e-01
  1.8465247e+00
 -5.9393239e-01
 -1.2500900e+00
  1.5523146e+00
  1.3432330e+00
  6.0540843e-01
  1.5499436e+00
 -7.6700579e-03
  3.5745034e-01
  3.9866424e-01
 -1.1148282e+00
  3.9480606e-01
  1.0113757e+00
 -5.3112912e-01
  9.6908349e-01
 -2.5521641e+00
 -1.6020221e+00
  3.9414911e+00
 -1.2308826e+00
  9.0622365e-01
  1.8584540e+00
  3.8389996e-01
  5.0551493e-02
  2.8413928e-01
  1.1322148e+00
 -6.4379841e-01
 -1.6691248e+00
  3.6826041e-01
  9.8028934e-01
 -1.5512468e+00
  1.2523150e+00
  3.1211740e-01
 -3.0348909e-01
  1.5754945e+00
  3.1654134e+00
 -9.8259592e-01
  5.2654046e-01
 -9.4691902e-01
  1.7842928e-01
  2.2207861e+00
 -1.7473452e+00
  1.2106609e-01
 -1.2318525e+00
  2.4828170e-01
 -5.7150877e-01
 -3.0178494e+00
  5.0338227e-01
 -9.7643650e-01
  5.6713563e-01
 -2.2134057e-01
  6.0576546e-01
 -1.2432295e+00
 -8.0631787e-01
  3.5671718e+00
  1.0390265e+00
 -3.6822276e+00
  3.8327296e+00
  1.0785651e-01
  4.9391451e-01
  4.2761704e-01
  7.7515739e-01
 -7.3612291e-01
  4.4744700e-01
  1.5753158e+00
 -2.5571282e+00
  1.8843830e+00
 -1.2298008e+00
  5.9283811e-01
  2.2597654e+00
 -5.8566505e-01
 -1.1311949e+00
  1.2117339e+00
 -1.2313841e-01
  1.6438737e+00
 -9.6144110e-01
 -5.1545328e-01
  1.0939339e+00
  9.3855721e-01
  6.1058462e-01
  3.6284187e-01
 -1.4216466e+00
  1.4096727e+00
  1.5144364e+00
  2.4333668e+00
  1.9825808e+00
  9.7915924e-01
 -6.5357649e-01
 -2.4444063e+00
  2.3748963e+00
  4.9291939e-01
 -1.2350050e-01
  5.6121254e-01
 -1.3498329e-01
  1.7058232e+00
 -1.3407269e+00
 -3.0942566e+00
  5.9804016e-01
  4.4852829e-01
  9.6327716e-01
  3.4906756e-02
  1.0009311e+00
  4.1458881e-01
  2.1990142e+00
  9.7351271e-01
 -1.5974851e-01
 -1.1074680e+00
  8.8422066e-01
 -2.0853863e+00
  1.9588427e-01
  4.6579812e-02
 -1.6605201e+00
  2.5519242e+00
  1.3380759e+00
 -1.8721795e-01
  3.1553799e-01
  7.7328485e-01
  1.3240638e+00
  1.8446646e+00
  4.1648558e-01
 -4.3116808e-03
  1.3889249e-01
 -2.9207458e+00
  4.7109905e-01
  2.4101831e-02
  1.4965900e+00
 -2.0833461e-01
 -8.3662307e-01
  4.4167089e-01
 -3.8595697e-01
 -1.7981406e+00
 -2.5942746e-01
  7.2005764e-02
  1.5247698e+00
  3.2393267e+00
  1.4622402e+00
 -9.6148902e-01
 -4.5749736e+00
  2.9237406e+00
  8.1125492e-01
  2.1733451e-01
  5.1760137e-01
 -1.0827988e+00
  1.7219512e-01
  1.6620626e+00
  2.7398942e+00
 -1.2393444e+00
  3.2700267e-01
  6.2591679e-02
 -6.4717732e-02
 -2.3901315e+00
  3.0766839e-01
  6.7388761e-01
 -1.8472852e+00
  2.7715400e-01
  6.8366426e-01
  4.7646946e-01
  1.8557130e+00
 -9.7466725e-01
 -7.3354262e-01
 -1.7879498e+00
  2.0555794e+00
 -1.1236895e+00
  2.2361157e+00
  2.2791007e+00
  1.3861270e+00
  3.4549972e-01
 -1.9937114e+00
 -9.3629217e-01
 -2.2542523e-01
  4.6798639e+00
  2.2569697e+00
 -5.0433892e-01
 -3.7760530e-02
  3.4848988e-02
 -8.5956794e-01
 -6.6179991e-01
  1.2983248e+00
 -6.9931072e-01
  3.2552671e-01
  1.2742391e+00
 -1.6419022e+00
  2.3383433e-01
 -3.3224247e+00
 -1.4184134e+00
  6.0496622e-01
 -1.0340845e-01
 -2.9905358e-01
 -1.8311958e+00
  9.2216057e-01
  1.3051139e+00
  7.3409820e-01
  6.8798834e-01
 -1.2661428e+00
 -3.1154344e-02
  6.2484610e-01
  8.1173772e-01
 -2.6296637e+00
  2.0188770e-01
 -5.0165098e-02
  3.1317208e-02
 -3.3483138e+00
 -2.1766925e+00
 -3.7150231e-01
 -5.9453338e-01
  3.4726122e-01
  4.5144886e-01
  1.1159904e+00
 -1.1766649e+00
  2.0367303e+00
  2.0137957e-01
  5.3292340e-01
 -7.2098285e-01
  3.4955102e-01
  1.9023091e+00
  6.5340263e-01
 -5.0705123e-01
 -2.5436692e-02
  2.8974566e-01
 -9.6623622e-02
 -5.4089087e-01
 -2.6976436e-01
  1.5283254e-01
  9.9479425e-01
  4.6870771e-01
 -1.7193239e+00
 -3.3011514e-01
 -7.0238495e-01
  2.2902908e+00
  1.7539688e+00
 -1.5599191e+00
  1.5481461e+00
  2.8918836e-01
  3.5358974e-01
  5.3285259e-01
 -9.2914975e-01
  3.6631212e-01
  1.3796741e+00
  7.3662400e-01
  1.1118230e+00
  2.7513266e-01
  9.5466010e-02
  1.9048427e-01
  4.8019108e-01
  2.5257811e-01
 -3.4884772e-01
 -1.7605625e-02
 -1.8794124e-01
  3.8122350e-01
  2.1218913e+00
  6.1325538e-01
  4.3481684e-01
 -4.3767389e-02
 -7.9880255e-01
  6.4257723e-01
 -1.6300964e+00
 -3.5785344e-01
  2.0432870e+00
 -1.5958036e-01
  7.9621531e-02
 -7.0955688e-01
  4.5002589e+00
 -4.8768193e-01
  6.4558589e-01
 -8.9557298e-02
  8.9162616e-03
 -6.8790758e-01
 -2.2662926e+00
  3.0911775e-02
 -1.1566778e+00
  2.7797583e-01
  9.8917252e-01
 -5.8615085e-02
  4.4921368e-01
 -2.2758756e+00
  3.7358969e-01
 -3.6608469e+00
 -3.5471222e-01
  6.1151579e-02
 -7.7410430e-01
  2.1215858e+00
 -3.7600925e+00
  2.0013514e+00
 -1.3713817e-01
  1.2877834e+00
 -2.8768077e+00
  7.8486810e-03
 -9.4704211e-01
 -5.1347923e-01
  9.6633327e-01
  2.5339179e+00
 -3.6253667e-01
  3.7603385e+00
  4.9164027e-01
 -1.9237871e-01
 -2.7818531e-01
  9.8584485e-01
  1.1592557e+00
  3.0068618e-01
 -5.8084726e-01
  9.7873676e-01
 -1.3257747e+00
  3.0484015e-01
 -4.7709849e-01
  1.1444054e+00
 -3.0779630e-01
 -5.0093579e-01
 -1.4658326e+00
  6.6326970e-01
  1.5640975e+00
 -1.9045021e-01
  7.8030658e-01
  3.1214359e+00
 -1.4675461e+00
 -2.0482972e-01
  8.5353798e-01
 -1.0539467e+00
 -1.0187557e+00
  1.0346256e+00
  7.2440928e-01
 -1.7092739e+00
  1.6176299e+00
  2.4879444e+00
 -4.7563088e-01
  2.5398830e-01
  6.3170338e-01
 -6.6457635e-01
  1.9581291e-01
  4.3869622e-02
  9.9013156e-01
  1.0684414e+00
 -1.3219869e+00
  6.4892006e-01
 -4.9592528e-01
 -4.4502085e-01
  3.1258069e-02
 -1.1346318e+00
  5.4369217e-01
  2.9012179e+00
  3.8504326e-01
  7.3202497e-01
  2.1533722e-02
 -1.0178691e+00
  4.0824822e-01
 -4.9205101e-01
 -2.5856556e-02
 -9.3303436e-01
 -1.4722522e-01
  6.0520321e-02
 -2.3373170e+00
  2.7422741e-01
  1.9553591e+00
  1.1311989e+00
 -1.3844123e-01
  1.5011903e+00
 -1.8705331e-01
  4.0949431e-01
 -1.2380164e+00
  2.3655906e-01
 -8.1376988e-01
  2.5700760e-01
 -1.5016298e+00
 -3.1916072e+00
  5.6728631e-01
 -3.6875764e-01
  2.8618071e-02
  1.9633961e+00
 -4.3907934e-01
  9.6169078e-01
 -4.3364697e+00
  1.9560798e+00
 -1.4018563e+00
  7.4817640e-01
 -8.8807809e-01
 -1.1933162e+00
 -1.3718103e+00
  5.4428041e-01
  1.1965121e+00
  2.7089033e+00
 -1.3647527e+00
 -5.2258998e-01
 -1.6131479e+00
 -2.2075396e+00
  1.9378576e+00
 -8.3598888e-01
  1.6151866e+00
 -1.0400579e+00
 -1.7884078e+00
  2.8293691e+00
 -3.9176300e+00
 -1.3984356e+00
  1.8552826e-01
  1.0874093e+00
  9.2967242e-01
 -1.1535711e+00
  1.0920221e-01
 -6.4869601e-01
 -2.8142399e-01
 -7.8974062e-01
 -3.0674038e+00
 -7.5936025e-01
 -1.4777087e+00
  6.7115498e-01
  6.0401160e-01
 -9.2104429e-01
  2.1615003e-01
 -3.3618130e-02
  4.3335223e-01
  8.4314531e-01
  3.2720393e-01
 -3.6601335e-01
  6.7901291e-02
 -1.6177197e-01
  1.6378157e+00
 -4.4310890e-02
  1.4212096e-01
 -9.7063261e-01
  9.4426703e-01
 -1.2583535e+00
  3.0323559e-01
 -5.1481432e-01
  5.4957545e-01
 -2.3598382e-02
  8.4115410e-01
 -5.1157784e-01
  3.2295880e+00
 -2.9400524e-02
  6.4584237e-01
 -2.2113731e+00
 -9.9080002e-01
  6.9952363e-01
  7.0166832e-01
  8.7549999e-02
  6.5057105e-01
 -1.2738922e+00
  1.4721552e+00
  1.7411375e-01
 -4.7786079e-02
  2.0705222e-01
 -3.4697309e-01
  1.0827594e+00
  1.5806005e+00
 -1.3631918e+00
 -1.0482384e+00
 -9.0897018e-01
  2.1681230e+00
 -4.9282810e-01
  2.2049441e+00
 -3.9391119e-02
 -1.4237645e+00
 -2.4685255e-01
 -3.4116752e+00
  3.1134734e+00
 -7.8277898e-01
 -1.4423400e+00
  2.9753096e+00
 -1.7134148e+00
  2.1675782e+00
 -2.7296910e+00
  1.5678303e+00
  1.7715150e+00
 -1.0891098e+00
  1.0474612e+00
  8.9118332e-02
 -1.4029796e+00
 -3.1974606e-02
 -6.9916256e-02
  2.5129933e+00
  2.1245490e-01
  1.3313183e+00
 -7.5756103e-01
  2.2109427e+00
  1.0208290e+00
 -3.1048381e+00
  1.9290964e-01
  1.8116422e+00
 -9.6463168e-01
  1.5590319e-01
 -1.0393834e+00
 -3.9272556e-01
  2.6537636e-01
 -1.1082914e+00
  5.6613940e-01
  1.2629531e-01
  1.8078791e-01
 -1.6383916e+00
 -2.6251526e+00
  1.0284277e+00
 -4.7468951e-01
  1.1676294e+00
 -2.4556009e-01
 -4.1224866e+00
 -1.7823908e+00
 -4.9161321e-01
 -1.7014198e-01
  1.0472261e+00
 -6.7949671e-01
 -1.9010705e+00
 -1.6780894e-01
  4.1938350e-02
 -6.3030791e-01
  6.5930121e-02
 -4.9926963e-01
 -1.2758090e-01
 -1.3207266e+00
 -3.7643716e-01
  7.3983508e-01
 -1.6105299e+00
  1.9256656e+00
 -8.5776561e-01
 -5.2497643e-01
  7.4992549e-01
 -7.6493549e-01
  8.7728888e-01
 -7.2768772e-01
 -2.0822339e+00
  5.9418130e-01
 -7.6302058e-01
 -1.3062538e-01
  1.1110667e+00
 -1.2594193e+00
  7.3976552e-01
  1.3588585e-01
 -3.5279024e-01
  2.4928215e+00
 -7.1974784e-01
 -1.6991644e-01
 -1.0699792e+00
  1.1724422e+00
  1.5072106e-01
  1.5465404e+00
 -7.0327505e-02
  6.4985907e-01
 -1.7427471e-01
 -1.5826529e-02
 -1.1278812e+00
 -9.9032158e-01
  2.7957530e+00
 -2.1814939e-01
  2.3842542e+00
  9.0019417e-01
 -3.8068612e+00
  2.1819570e+00
  4.5159042e-01
  2.8402227e-01
  4.7009870e-01
 -2.7548668e-01
 -3.2160464e-01
 -6.4936769e-01
  5.9336013e-01
 -5.2880543e-01
 -1.9464467e+00
 -1.4037292e+00
 -1.4100664e+00
  5.2117896e-01
  5.1587021e-01
  1.9831516e+00
 -2.7263608e+00
 -2.8056934e-01
 -4.4943309e-01
  3.0871305e-01
 -1.7139574e+00
  5.0610530e-01
  1.1867037e+00
  3.0751818e-01
  2.7657898e-02
 -9.1667628e-01
  1.5613800e-01
 -3.8039219e-01
 -7.5995886e-01
 -3.1912002e-01
 -4.5227134e-01
 -3.6498159e-01
  1.8749808e+00
 -1.2322673e+00
 -2.8499359e-01
  7.1221429e-01
  1.2696341e+00
 -2.6651390e+00
 -7.4820185e-01
  2.4995406e+00
 -9.9998367e-01
 -1.3307699e+00
 -3.8923895e-01
 -1.6010894e-02
 -4.8352009e-01
  3.2260382e+00
 -6.3509381e-01
  9.8546594e-02
 -1.0020726e+00
  4.6321135e+00
  3.0088243e-01
  8.5470700e-01
 -4.4466478e-01
 -9.5463559e-02
 -7.1760499e-01
  2.7637526e-01
 -1.1714607e+00
 -1.6121218e+00
  2.2150593e+00
  8.0208147e-01
  7.4713933e-01
  1.0656770e+00
 -1.0624459e-01
 -7.4093103e-01
 -2.2095527e-01
  7.2678792e-01
 -5.8906078e-02
  1.2834133e+00
  2.4314444e-01
  4.8684695e-01
  1.2646078e+00
 -2.7679787e+00
  5.6105242e+00
  1.5595245e+00
  3.3155897e+00
  8.9522582e-01
  2.0150771e+00
  2.8263792e-01
  3.4511212e-01
 -1.2614129e+00
 -1.4884478e+00
  1.2424235e+00
  2.2649801e+00
 -5.6315523e-01
 -1.5182621e+00
  4.2027575e-01
  1.1655004e+00
  5.2928758e-01
 -5.2101392e-01
  6.4094144e-01
  1.5129997e+00
  9.7858548e-01
 -9.5541543e-01
 -1.2003870e-03
  1.2453519e+00
  5.8810031e-01
 -1.4478773e+00
 -1.0787134e+00
 -7.7503227e-02
 -1.2582667e+00
  6.4276814e-01
 -4.1570672e-01
 -2.6977137e-01
 -2.0966294e+00
 -6.5500993e-01
 -2.5147207e+00
  9.5050222e-01
 -1.2361983e+00
  3.5307527e+00
 -9.1605192e-01
  1.9387528e-01
  3.1873388e+00
 -1.0508357e+00
  1.4717661e+00
  1.3002626e+00
  1.1301730e+00
  1.1089282e+00
  6.0128894e-02
 -4.2897117e-01
 -3.4135365e-01
 -1.7480396e+00
  2.1163416e-01
 -9.0905887e-01
 -7.9812211e-01
  2.3873079e+00
 -9.5399880e-01
 -1.9635246e+00
 -4.4204745e-01
  7.5953406e-01
  6.0702449e-01
  1.6553466e+00
 -1.5265827e+00
  1.0406137e+00
  1.2689519e+00
 -2.9514459e-01
  1.4569209e+00
  9.6734691e-01
 -1.2925310e+00
  5.4079797e-02
  3.9075455e-01
 -3.5002786e-01
 -2.2411222e-02
 -3.0487177e-01
 -6.4496261e-01
  8.2426971e-01
 -4.9872780e-01
 -2.4405110e-01
 -1.3542941e+00
  1.7432117e+00
 -9.6087205e-01
 -6.8461500e-02
 -2.2621612e-01
  1.3490843e+00
  1.4968820e+00
  8.5058862e-01
 -9.7823858e-01
  1.0337226e+00
 -1.8338338e+00
 -3.6828476e-01
  5.8550465e-01
 -2.7745858e-01
  3.1891174e-03
 -5.3232455e-01
 -1.0264878e+00
  1.5536693e-01
 -6.4939255e-01
 -4.7205970e-02
 -3.4957030e+00
 -6.0010934e-01
 -1.5019171e-01
  8.7780163e-02
  2.0091735e-01
 -4.6568928e+00
  4.1630411e-01
 -1.4997546e-01
 -1.1453096e+00
  1.6039357e+00
 -1.3439168e+00
  4.0477440e-02
 -1.5890881e-01
 -3.6230156e+00
  5.9292287e-01
  9.7896570e-01
 -2.4754009e-01
  1.2580396e+00
  8.3145505e-01
  4.1146219e-01
  4.9964043e-01
  9.4720858e-01
 -9.4770694e-01
  7.4871814e-01
  2.1677859e+00
  4.1324363e+00
 -5.3260213e-01
 -5.3393871e-01
  1.3342127e+00
  8.3789247e-01
 -5.2947164e-01
  1.3922076e+00
 -4.3142271e-01
  2.4382125e-01
 -2.5354379e-01
  5.0099868e-02
 -2.0144386e+00
  3.4236559e-01
 -5.2196550e-01
 -6.8224496e-01
  5.3105035e+00
  3.4637389e-01
 -1.4417009e+00
  1.0438106e+00
  1.0701618e+00
 -1.0571089e-01
 -6.3674176e-01
  5.1512271e-01
  5.9585448e-02
 -2.9853129e+00
 -8.0292279e-01
  8.5127729e-01
  4.4637150e-01
 -2.5745144e+00
  1.1253811e+00
 -7.5727320e-01
  4.4489518e-01
  3.2943785e-02
 -4.4941759e-01
 -2.0390600e-01
 -3.0652869e-01
  1.1794573e+00
  4.1240135e-01
  7.0941842e-01
 -8.6632216e-01
 -1.7102633e-01
 -6.1254674e-01
  3.9576328e-01
  3.4665030e-01
  7.8643513e-01
  1.4737304e+00
 -8.3456784e-01
  3.9320120e-01
  8.8028044e-01
  2.3118203e+00
 -2.7428031e+00
 -4.2356178e-01
 -6.5467465e-01
  3.4089935e+00
 -2.5436151e+00
  1.3809148e+00
  6.0094614e+00
 -4.1763258e+00
  5.3787675e+00
 -2.0951383e+00
 -3.8491824e-01
  3.0793052e+00
  2.1498919e+00
  1.1269572e+00
  1.1001749e+00
  9.0662903e-01
  2.0244145e+00
 -2.0692542e+00
  7.7414961e+00
  2.8767099e+00
  1.5945239e+00
  4.8558865e+00
  6.8728151e+00
  5.2846737e+00
  4.8497071e+00
  3.5685282e+00
  6.0521083e+00
  6.4598613e+00
  4.8682454e-01
  6.7445105e-01
 -1.9905040e-01
  7.6818800e-01
  1.2407242e+00
 -1.7001079e-01
 -1.9202679e-01
 -4.8320627e-01
  1.0722189e-01
 -7.9907191e-01
 -1.9852393e+00
  9.1106093e-01
  6.6356015e-01
 -5.0058436e-01
  5.8350170e-01
 -4.9107015e-01
  1.5851685e-01
  4.7875147e+00
  6.2824219e-01
  4.6684337e-01
  9.9054569e-01
  2.3053125e-01
 -1.6064578e+00
  1.5832691e+00
  1.9952038e-01
 -1.1574084e+00
  1.6200608e+00
 -2.1056292e+00
  1.6914151e+00
 -4.6944296e-01
  2.7584246e-01
 -1.5216340e+00
 -4.3086519e+00
  1.6049819e+00
 -1.2426208e+00
 -6.4225590e-01
 -6.3786083e-01
 -1.0029973e+00
 -4.3029857e-01
 -2.8713113e-01
 -7.4779236e-01
  1.5455268e-01
  3.5503122e-01
  4.5819941e-01
  4.3078294e-01
 -8.3820856e-01
  4.1927022e-01
 -6.3103104e-01
 -8.8624138e-01
 -1.9234928e+00
 -1.4221761e+00
  1.2319039e+00
  1.4243522e+00
  5.5587369e-01
  1.1048062e+00
  1.1996491e+00
  1.9851717e-01
 -4.3368723e-02
  5.0368619e-01
  2.8918108e-01
  1.4907286e+00
 -1.0884458e+00
 -4.1001531e-01
  5.5655956e-01
 -9.2304582e-03
 -2.6987973e-01
  1.8932128e-01
  2.1808885e-01
 -1.3514199e+00
  9.3316978e-01
 -1.4527331e-01
  9.1752298e-02
 -2.7955505e-01
  4.4968171e+00
 -1.0311477e+00
 -3.3783295e+00
 -1.1584755e+00
  1.0868657e+00
 -9.3087159e-02
  2.7807936e-01
 -7.3518598e-01
 -5.9814513e-01
  2.0327614e-01
 -2.5444853e+00
  1.1141574e+00
 -4.3328023e-01
  3.3530455e+00
  6.9660276e-01
 -1.1793692e+00
  1.7497602e+00
  9.4711167e-01
 -1.1803581e+00
  1.3841870e+00
  8.4609920e-01
  1.2212526e+00
 -1.9058198e-01
  9.5401919e-01
  3.6847469e-01
 -4.5363975e-01
  7.5918704e-01
 -2.9910606e-01
  1.2179796e+00
  8.3076751e-01
  1.0279830e+00
  7.7632576e-01
  7.6823306e-01
  3.2570243e+00
  1.1470789e+00
 -3.5765213e-01
  7.4239552e-02
  1.1418129e+00
  1.2744877e+00
 -4.7023103e-01
  4.4880116e-01
  5.0330747e-02
  1.3663915e+00
 -4.7685859e-01
 -3.3395948e+00
  3.2435462e-01
 -2.9853003e+00
 -5.8133459e-01
 -2.6617436e+00
  3.9552408e-01
  3.5991330e-02
  8.5794902e-01
 -2.9142737e-01
 -4.7526667e-01
  6.7078942e-01
  6.9703281e-02
 -6.1810803e-01
  8.5165334e-01
 -1.4585427e+00
 -1.6082588e+00
  7.9359764e-01
  2.4190536e-01
 -1.0809357e+00
 -6.9676936e-01
  1.9577333e-01
  2.0813770e+00
 -1.4290791e+00
 -3.7926993e-01
  7.9100198e-01
 -1.6835765e+00
 -1.3172266e+00
  1.7870342e+00
  3.0473304e-01
 -1.5294886e+00
 -4.4662628e+00
 -1.6094963e-01
 -9.0180403e-01
 -8.8777941e-01
 -5.1655498e+00
  1.8657336e+00
  7.3259907e+00
 -4.7148538e+00
  1.0494509e+00
  2.0772841e+00
  1.9794558e-01
 -4.2211428e-01
 -8.8869500e-01
  1.4691921e+00
 -3.4913363e+00
 -6.8014346e-02
 -5.7707465e-01
 -1.5902523e+00
  7.8665853e-01
 -2.1321237e+00
  1.2669476e+00
  1.0641842e+00
 -3.7224677e+00
  2.9815938e+00
 -1.3680739e+00
  9.5106328e-01
  2.9527209e+00
  1.8210888e+00
 -2.6787224e-01
  6.5350729e-01
 -4.6448922e-01
  3.0117311e+00
  1.1906350e-01
  1.1716021e+00
  3.9413464e-01
  1.1160424e+00
  6.3975620e-01
  4.5413870e-01
 -2.2461538e+00
 -1.5641667e+00
  1.5003747e+00
 -8.0359101e-01
 -1.6849407e+00
  1.2865821e-01
  3.8988070e+00
 -4.1627052e-01
 -3.5972926e-01
  1.3781626e+00
 -7.8936350e-01
 -2.2961462e+00
  6.9023967e-01
 -1.1021214e+00
 -9.1422552e-01
 -4.4140276e-01
  4.7083282e+00
 -1.1452746e+00
 -7.7246487e-01
 -1.5017266e+00
  2.1283178e+00
  4.5355827e-02
 -9.7444683e-01
  9.7990042e-01
 -2.5403130e+00
 -1.1010431e+00
  2.0302773e-01
  2.6141651e+00
 -4.8297860e-02
  8.8494313e-01
  6.5412462e-01
 -2.6866931e-01
  2.7755207e-01
 -5.7366884e-01
 -6.8713480e-01
  3.3971852e-01
 -5.5320257e-01
  1.6283185e+00
 -9.4905846e-02
  7.7208638e-01
  7.5873591e-02
  3.3178248e+00
  2.4288340e+00
 -1.5499134e-01
  7.8762650e-01
 -1.8481411e+00
 -1.3857411e-01
 -2.1574528e+00
 -9.1459912e-01
  2.4543159e-01
  9.7737336e-01
 -4.1435633e+00
 -2.0039265e+00
 -1.2302750e+00
 -3.4693461e-02
 -1.7578548e-01
  5.3795680e-02
  2.2566793e+00
  1.0736784e+00
  1.2423151e-01
  6.3552535e-01
  1.6069667e-01
  1.2429218e+00
 -4.2602497e-01
  9.3785125e-01
 -5.2758145e-01
 -1.6156651e+00
 -8.1967957e-02
  4.2029023e-01
  1.4185894e+00
  1.1803935e-01
  4.9605212e-01
 -9.9552053e-01
  1.1213343e+00
  1.5523993e+00
 -2.8302017e-01
 -1.8692849e+00
  3.1514123e-01
  1.2348875e+00
  1.0112625e+00
  5.4207122e-01
 -4.3773833e-01
  1.3670956e+00
  9.3008298e-01
  4.2287865e+00
 -8.1400704e-01
 -4.1489646e-01
  1.1404197e+00
  7.6056814e-01
 -1.5901766e+00
  1.0519822e+00
  1.7051028e+00
 -6.3690579e-01
  1.3255008e+00
 -8.2707101e-01
  2.3077697e-01
  4.9348082e-02
 -2.8620493e-01
  4.4177812e-01
  5.8726031e-01
  2.0512515e-01
 -6.4420766e-01
  1.7580419e+00
  2.9767804e+00
  4.3366084e+00
  1.2244429e-01
  9.3191552e-01
  7.6456589e-01
  3.9116075e+00
  5.1904798e-01
  1.4016269e+00
  9.0422702e-01
  6.9198978e-01
  1.1969185e-02
 -2.8459069e-01
 -1.0505068e+00
  3.8075835e-01
  7.4290001e-01
  8.5932970e-01
  1.0866872e+00
  9.8580867e-01
 -1.3302776e+00
  1.7688811e+00
 -9.5767319e-01
  6.5353799e-01
  1.2098921e-01
 -1.5754060e+00
 -1.7149352e-01
 -2.8947076e-01
 -1.3512234e-01
  1.9862381e+00
 -9.9860609e-02
  5.9260970e-01
 -1.6545697e-01
 -2.7040094e-01
  3.0619898e-01
 -3.8137111e-01
  6.4686859e-01
  4.5031443e-01
 -9.0116167e-01
  3.0359871e+00
 -3.4065440e-01
 -7.9478604e-01
  4.0991569e+00
 -2.6668334e+00
 -1.1251428e+00
 -5.4782182e-01
  2.0517461e+00
 -1.1375076e+00
  1.0994610e+00
  1.1331917e+00
  2.6410100e+00
  1.0500619e+00
 -7.8829497e-01
  7.8946596e-01
  4.4495707e+00
  1.1803852e+00
  2.6342814e+00
 -4.0079623e-01
 -2.2515495e+00
  2.1968524e+00
  1.4141569e-01
  4.1278267e+00
  2.7407784e+00
 -5.4117584e-01
  8.6525664e-02
  2.9366547e-01
  2.0890553e+00
  4.6691856e-01
  2.3188181e+00
 -3.7535655e+00
  6.4835006e-01
 -1.4460531e-01
 -1.6005771e+00
  4.9228027e-01
  9.3525517e-01
 -1.4983955e-01
 -1.9548328e+00
 -4.7288167e-01
  2.5646842e+00
  1.4125942e-03
 -1.7160606e-01
 -9.9623126e-01
 -7.5860810e-01
 -6.2459493e-01
  1.2249396e+00
  7.7648157e-01
  8.5111451e-01
 -3.6300471e-01
  2.8573412e-01
  1.6491630e+00
  1.3768226e+00
 -2.4721656e+00
 -1.3132906e+00
  9.8945135e-01
 -6.8395686e-01
  7.8703892e-01
  2.7440929e+00
 -7.6590109e-01
 -4.5471478e-01
 -1.4700296e+00
  2.3716130e+00
  1.0063405e+00
  7.0129079e-01
  4.7473490e-01
 -9.8466289e-01
 -8.4439635e-02
 -5.7836038e-01
 -8.2512128e-01
 -6.5255725e-01
  2.0258076e+00
  9.9728918e-01
 -1.0438259e-01
  8.9826995e-01
  4.1213194e-01
 -4.2072976e-01
  1.0990973e+00
 -7.8348881e-01
 -5.8953714e-01
  3.4821773e+00
  3.3789592e+00
 -1.1880810e+00
  4.1337419e-01
 -2.4618099e+00
  1.6879619e+00
 -6.1944830e-01
  1.9067560e+00
 -6.0458493e-01
 -9.2673862e-01
  8.4357154e-01
  1.3776432e-01
  3.7449011e-01
 -1.7279396e+00
 -1.4834330e+00
  5.5389327e-01
 -4.1345592e+00
 -2.4914639e+00
 -2.8955641e+00
 -1.6690969e-01
  4.4489169e-01
  6.6477627e-01
  5.1286429e-01
  4.0381929e-01
 -5.4465234e-01
  1.3165530e-02
  1.5130914e+00
  6.3193280e-01
  2.0264010e-03
  2.7614968e+00
 -2.7552786e+00
  2.3098999e-01
  1.1339226e+00
 -1.0502874e-01
 -4.8568875e-01
 -2.2863026e+00
  2.3252536e-01
  3.9569288e-01
  1.1579344e+00
  9.7776049e-01
 -1.2304170e+00
  4.5627961e+00
  6.8616515e-01
  4.2234130e+00
  1.0781068e+00
  1.9694808e+00
  1.4378128e+00
  6.3733608e-01
 -1.1091572e+00
 -8.4909123e-01
 -4.8144855e+00
  1.7085792e+00
  2.6949234e+00
  2.2172016e-01
  9.8210603e-01
  5.5822998e-01
 -1.6379902e+00
  1.8011425e+00
 -1.1185091e+00
 -1.3207842e-01
  3.0326610e+00
 -1.1278291e+00
  1.3250976e+00
  8.2019009e-02
 -2.2399287e-01
  5.4289240e-01
  2.7019083e-02
  2.0124298e-01
  2.6100171e-01
 -1.3999507e-01
  2.7828866e-01
  2.0109686e-01
 -7.5295889e-01
  5.2122507e-02
  1.7787373e-02
  9.9134430e-02
 -8.0364811e-01
 -1.1915098e+00
 -5.3280920e-01
 -5.6524247e-01
 -4.2644623e-01
 -8.7818407e-02
  1.8573343e+00
  6.9029516e-01
  9.5725173e-01
  8.5533535e-01
 -5.4892045e-01
 -2.4748819e+00
 -7.8304075e-02
  8.9617670e-01
  2.0344861e+00
 -5.8258224e-01
 -1.9085615e+00
  3.4826062e+00
 -4.7935763e-01
 -2.0276628e-01
 -2.0480645e+00
  1.1220476e-01
 -8.4885615e-01
 -8.1397647e-01
 -1.3623955e+00
 -6.6753352e-01
  1.0851679e+00
  5.5707639e-01
  4.0749109e-01
  1.7098086e+00
 -1.7539634e+00
  3.3621165e-01
 -1.3534629e+00
  3.1036477e+00
  6.8886709e-01
 -2.5275218e-01
  6.0982939e-02
  6.6448385e-01
 -5.3589653e-02
  6.1354196e-01
 -1.3537585e-02
  4.7378555e-01
  9.2555124e-01
 -1.5761179e+00
 -5.6233710e-01
 -1.7337458e+00
  1.6798315e+00
  5.3645617e-01
 -4.4016036e-01
  2.7762213e-01
  7.6194859e-01
 -1.5857553e-01
  1.8649679e+00
 -8.0712652e-01
  1.7187525e-01
 -1.6996378e+00
 -9.8692888e-01
  1.1451321e+00
 -5.4566008e-01
 -1.1570880e+00
  3.3512083e-01
 -1.9273517e+00
 -1.2204728e-02
 -3.0461130e-01
  1.9536419e-01
 -6.7006075e-01
 -1.5980040e-01
 -2.9736147e+00
  4.8154569e-01
 -9.4241375e-01
 -1.4642144e+00
 -3.5918650e-01
  1.6359138e+00
 -2.6391622e-01
  1.5185024e-01
 -7.0950222e-01
  7.6135767e-01
 -4.5894227e+00
 -2.6084992e-01
 -7.3466265e-01
  1.6028844e-01
 -2.0765734e+00
  6.1429876e-01
 -2.1350124e+00
  6.5581620e-02
 -3.0883482e+00
  2.1780429e+00
  7.6159376e-01
  8.1694078e-01
 -4.8839214e-01
  1.0764978e+00
 -2.2193563e+00
  4.3001118e-01
  8.5419476e-01
  1.0075445e-01
 -3.3350947e-01
  2.9685280e-01
 -6.1988419e-01
  1.2451206e+00
  4.5410010e-01
  1.8007878e-02
 -1.4875117e-01
  6.8205744e-01
  8.5635014e-02
 -2.6485914e-01
 -3.1594634e-01
 -1.7485483e+00
 -4.7690827e-01
  4.7074679e-01
 -3.8859898e-01
 -1.2019893e+00
  6.2470859e-01
 -2.5391040e+00
  2.7779350e-01
 -1.5462482e+00
  1.0080419e-01
 -2.8519727e-02
 -6.6819859e-01
 -1.0072838e-01
 -4.7968443e-02
  2.2125542e-01
  3.7790567e-01
 -5.3129548e-01
  5.0834054e-01
  4.9631295e-01
  9.3145806e-01
  1.3856525e+00
  1.3064595e+00
  4.3222344e-01
  9.2095566e-01
  1.4579700e+00
  1.0511870e+00
 -1.2130462e+00
 -1.9090106e+00
  1.4762989e+00
 -4.6887207e-01
 -2.3911054e-01
  2.3414533e+00
  6.9073325e-01
  3.0983014e+00
 -2.0995979e-01
  7.9344535e-01
 -2.2130046e+00
 -3.0610687e-01
  1.6842608e+00
 -7.5969076e-01
  1.2106150e-01
  1.0586174e+00
  2.0583146e+00
  1.5671080e+00
 -4.8129800e-01
 -3.6910269e-01
 -1.2240931e-01
  1.2135528e+00
  2.4293308e-01
  5.2977222e-01
  4.1348190e+00
  3.9914900e-01
 -1.5936852e+00
  5.6242019e-01
 -2.9888995e+00
  2.5550749e+00
 -3.0536463e+00
  1.1488109e+00
 -6.0709172e-01
 -1.3019123e+00
  1.4189790e+00
 -4.0840238e-01
  4.1452819e-01
 -1.2680641e+00
  9.2182606e-01
 -3.6153060e-01
 -1.7291727e+00
  1.5712568e+00
 -2.1981914e+00
 -1.1998097e+00
  1.0662965e+00
  5.6607181e-01
 -9.8699111e-01
  7.9676139e-01
 -2.0690203e+00
 -2.9737952e+00
  1.5025258e+00
 -2.7008514e+00
 -8.4655064e-01
 -2.3280137e+00
  2.7163997e-01
  7.9968446e-01
 -3.8188499e-01
  1.3821572e+00
 -4.6108195e-01
 -2.2369815e-01
 -1.3057618e+00
  8.8570499e-01
 -1.6678776e-01
 -1.7469887e+00
 -3.8161421e+00
  3.1023567e+00
  2.5372145e-01
  2.3871212e-01
  1.0259382e+00
 -3.6168551e+00
  7.5568330e-01
 -1.3288803e-01
  9.6351206e-01
  8.9060044e-01
 -1.5761287e+00
  1.7288197e+00
 -3.5870412e-01
  4.7995324e+00
 -1.0676916e+00
  1.6591170e+00
 -1.7861171e+00
 -2.7640505e+00
  2.8596110e+00
 -2.1444423e-02
 -1.4646038e+00
  7.7779740e-01
  6.6113030e-03
 -2.1669226e+00
  9.4755042e-01
 -8.0816901e-01
 -4.3106085e-01
 -9.2820875e-02
 -1.4103914e+00
  3.1420350e+00
 -1.6464807e+00
 -7.3200083e-01
 -3.3065146e-01
  2.5612774e-01
 -8.2298748e-02
  6.1228430e-01
 -3.1043992e+00
 -3.4608683e-01
  2.2662389e+00
  5.6838119e-01
  6.9606346e-01
 -7.1584147e-01
 -1.8832129e+00
 -1.2096715e+00
 -6.8617713e-01
 -1.2121742e+00
  8.9139307e-01
 -4.4312689e-02
  1.8761250e+00
  6.6728491e-01
  7.5320923e-01
 -9.4576794e-01
 -5.0345200e-01
  5.3694689e-01
 -5.4340502e-03
 -2.7561280e-01
 -3.8090733e-01
 -1.3646874e-01
 -1.0212696e+00
 -9.0476638e-01
  4.5944056e-01
 -4.0507040e+00
 -1.7455326e-01
 -1.9049498e+00
 -5.6115746e-01
 -1.6992199e+00
  7.6948047e-01
  7.2493523e-01
  2.0041397e-01
 -8.3729699e-02
 -2.1272145e-01
  8.8911331e-01
  2.4170663e+00
  2.2085047e-01
 -3.8265005e-02
  2.6227459e-01
  2.5548937e+00
  5.7478565e-01
  4.5209605e-02
 -1.3369120e+00
 -2.1264121e-01
 -5.9641027e-03
  1.1694206e+00
 -9.6575163e-02
  3.9535519e-01
  4.0668777e-01
 -7.8742124e-02
  1.1961507e+00
  7.8659934e-01
 -1.1765308e+00
 -9.1293180e-01
  1.2648310e-01
 -5.3159767e-01
 -4.3691099e-01
  7.6307751e-02
  1.0481550e+00
 -7.8031778e-02
 -5.7033825e-01
  4.4141799e-01
  8.3245707e-01
  6.6017658e-01
  8.4887874e-01
 -1.4556497e-01
  1.4306711e+00
  2.0405910e+00
 -8.2114232e-01
 -2.4160035e+00
  1.5561653e+00
 -3.0022049e-01
 -1.7300487e+00
 -3.2497180e-01
 -6.2703043e-01
  1.8274219e+00
  8.6526436e-01
  1.7042930e-01
  1.2619637e+00
 -1.3480805e+00
  4.0437925e-01
  7.5608605e-01
  1.2105560e+00
  3.1304364e+00
 -3.5555565e-01
  1.1570283e+00
 -1.2801754e+00
  1.8228140e+00
 -5.3665757e-01
  2.9543000e-01
  4.4948694e-01
  3.7846306e-01
  1.0291102e+00
  7.6865917e-01
  1.9710422e+00
 -1.0762762e+00
 -3.3127144e-01
 -2.2496672e-01
 -8.2818322e-02
  8.5907716e-01
 -7.9548007e-01
 -1.1702927e+00
  3.8438742e+00
 -7.8907758e-01
 -2.2013209e+00
  5.6353850e+00
 -9.5620942e-01
  3.6855280e-02
 -1.9935421e+00
 -1.7749807e+00
  1.7606423e+00
  8.0576062e-01
  1.6601808e+00
  1.0664295e+00
  3.1433451e-01
  1.4142154e+00
  9.0097314e-01
  1.3270530e+00
  1.2447435e+00
 -1.5817966e+00
  3.8017496e-01
 -2.1116321e+00
  6.2742770e-01
 -1.3854548e+00
 -3.7774568e+00
  2.3487580e+00
  2.2224329e+00
  1.9126436e-01
 -3.6486712e-01
  2.9959643e-01
 -2.0073660e-01
  1.3483483e+00
 -1.5677526e+00
  2.3480382e+00
  1.6002256e+00
 -1.5509786e-01
  4.1551985e-02
  8.9672774e-01
  2.3293619e+00
  9.5555878e-01
 -2.9641159e+00
 -1.7234834e+00
 -1.3965856e-01
  3.6005366e+00
 -2.6761341e+00
  2.0224974e-02
 -7.9863769e-01
  1.7526381e-01
 -2.5512630e-01
  1.2042586e+00
 -6.2913664e-02
 -5.8438039e-01
 -9.6741945e-01
 -2.5167713e+00
  5.1496905e-01
 -1.6980098e+00
 -2.0545187e+00
  1.8993084e-01
 -1.4479363e+00
  8.6698091e-01
 -5.3637552e-01
  4.7528308e-02
 -2.3544991e-01
 -1.4381787e+00
  1.2771865e+00
  2.1284177e+00
 -5.3813428e-02
  1.4055415e+00
  8.6953151e-01
  7.8756398e-01
 -5.3289914e-01
  4.3609280e-02
 -1.8027167e-01
 -3.2543302e-01
 -9.0482676e-01
 -8.6932532e-02
 -9.0902738e-02
  3.7129483e-01
 -7.3534274e-01
 -3.4364933e-01
 -3.9329338e-01
 -1.2725441e+00
 -1.6686061e-01
 -6.7042816e-01
  2.6902633e+00
  1.9260706e-02
 -1.0671756e+00
  1.4922140e+00
  1.1559894e+00
  2.1101363e+00
 -2.3626211e+00
 -6.2450296e-01
  2.4587359e+00
 -1.1410744e+00
  2.3930724e-01
 -1.5872680e+00
 -3.8046208e-01
 -3.2714397e-01
  3.6490336e-01
 -8.1509039e-02
  5.1416987e-01
  6.0785359e-01
 -2.5295184e+00
 -1.5555015e+00
  2.9511949e-01
 -6.3832092e-01
  4.5200723e-01
 -8.5777926e-01
  5.4642099e-01
 -8.8863450e-01
  3.5141890e+00
 -5.6467885e-01
 -3.5818198e-01
  8.2222217e-01
 -1.4505668e+00
 -1.4498600e+00
 -8.9128208e-01
  1.4412908e-01
 -1.8630702e+00
 -2.5361854e-01
  1.1709318e+00
 -2.9170403e-01
  1.4119871e+00
 -5.6439018e-01
  6.4794101e-02
  2.0857487e+00
 -7.5959182e-01
  5.7659376e-01
  7.7267140e-02
 -1.1332883e-01
  3.3424580e-01
  1.5959784e+00
 -1.3548872e+00
  3.1026039e+00
 -5.9926734e+00
 -1.0153138e-01
 -3.9153796e-01
 -1.0197747e-01
 -2.1442112e-01
  6.7761135e-01
  1.0279118e+00
  8.5733548e-02
 -1.6903552e-01
 -2.2593133e+00
  4.6314678e+00
 -1.9096243e+00
 -3.7499300e-01
 -1.0059035e+00
 -2.6475973e-03
  3.4542084e+00
 -8.5046566e-01
  2.9432008e-01
  3.1562936e-01
  4.6966972e+00
  1.2192931e+00
 -5.6512195e-01
 -3.3338630e+00
 -2.8650916e-01
 -1.7598358e+00
 -1.9830820e-01
  6.7416644e-01
  2.7972913e+00
  9.6598113e-01
 -8.7702435e-01
 -4.6492317e-01
 -3.0297534e+00
  1.2628932e+00
 -9.3135023e-01
 -6.3050628e-01
  7.4057913e-01
  1.1282198e+00
  3.0257070e+00
  4.2449158e-01
  3.1390984e+00
 -3.3698660e-01
 -8.5116494e-01
  6.5818119e-01
 -9.6939552e-01
  4.5183587e-01
  1.1606926e+00
 -2.0168049e+00
 -2.2607033e+00
 -1.9555756e+00
 -5.6178284e-01
 -2.3633721e-01
  1.0756304e-01
 -7.9602015e-01
  1.0212009e+00
  3.4158966e-01
  3.3674762e-01
  5.4112703e-01
 -3.2810657e+00
 -1.3298994e+00
 -3.6540520e-01
 -5.2164953e-02
  7.7517891e-01
 -2.1977885e+00
 -1.8186326e-01
  8.2783437e-01
  1.3073413e+00
  2.4010631e-01
 -8.1639516e-01
 -1.1248339e+00
 -1.7836957e+00
  2.5717428e+00
  1.7911515e+00
 -1.0885144e+00
 -7.7461731e-01
 -1.3086125e+00
 -8.6240453e-01
  1.3648877e+00
 -7.6900095e-01
 -2.6875004e-01
  2.2275767e+00
 -1.0414315e+00
 -2.8436570e+00
 -8.8407183e-01
 -3.2142812e-01
 -5.4164235e-02
  1.7849042e+00
  5.3036743e-01
 -1.6769334e+00
 -2.1332936e+00
 -2.6920738e+00
 -1.4808189e+00
 -3.4726450e-01
  1.1621823e+00
 -1.1538295e+00
 -1.7638112e+00
 -4.6214664e-01
  5.4695082e-01
 -1.0154669e+00
 -5.4246366e-02
 -1.7185380e+00
  7.3498613e-01
 -1.6028543e+00
  3.1790486e-01
 -5.4617798e-01
  2.1498761e+00
  1.8429694e+00
  2.9421183e-01
 -2.0720474e-01
 -9.7442210e-02
  9.3544358e-01
  1.7645648e-01
  1.5470538e+00
  6.8374741e-01
  9.3836647e-01
  1.0048374e+00
 -9.7873077e-02
 -4.2629433e+00
  2.4426756e+00
 -1.8272997e+00
  3.6136678e-01
 -5.8264595e-01
 -6.3316035e-01
  2.5097265e+00
 -2.4648038e-01
 -2.5836208e-01
  1.4278949e+00
 -2.3456915e-01
 -9.1233587e-01
 -9.8505592e-01
 -6.2329578e-01
  5.5874497e-01
  2.4830146e+00
  8.0030471e-01
 -4.7409396e+00
  2.1676734e-01
 -6.2106347e-01
 -3.9125279e-01
 -6.4772201e-01
  3.6186022e-01
  1.1301630e+00
  7.2811210e-01
  1.9486938e-01
  8.9476067e-01
  2.1459658e-01
  1.0782181e+00
  2.5982344e-01
 -4.3570442e+00
  2.5563331e+00
 -9.7314968e+00
  1.3841743e+00
  8.1681883e-01
 -2.2118685e-03
  1.5404236e+00
  7.5926316e-01
  6.1784792e+00
  2.0305531e-01
  2.6010206e-01
  2.5246871e-01
  1.4074656e+00
  2.8108065e+00
  3.3218653e+00
  7.1742902e+00
  2.9641664e+00
  3.7762764e+00
  3.0625420e+00
 -3.2696009e+00
 -3.3236898e-02
 -8.1938511e-01
 -4.8568687e+00
  4.4530263e+00
  6.1822381e+00
 -8.2644135e-02
 -1.6401384e+00
 -7.6947242e-02
  3.3279702e-01
  2.0955079e+00
 -1.1580938e+00
  7.9115844e-01
 -5.5050820e-01
 -9.4630867e-01
  5.6693491e-02
 -3.1207675e-02
  1.1680832e+00
 -8.1945315e-02
  1.8191456e+00
 -1.7617112e+00
 -1.8917315e+00
  1.0559580e+00
 -3.4440305e+00
 -1.7240044e+00
 -2.1273260e+00
 -2.1182885e+00
 -9.0356618e-01
  4.9960592e-01
  7.4852335e-01
 -8.1464386e-01
 -2.3131897e+00
 -2.5098395e+00
 -2.0508161e+00
 -5.3798616e-01
 -1.8110199e+00
 -2.7711313e+00
  4.3898496e-01
 -2.6017518e+00
  2.7704110e+00
 -1.0478133e+00
 -3.3133314e+00
  7.4958187e-01
  1.4002481e+00
  7.1184117e-01
 -1.4734784e-01
 -1.2358537e+00
 -4.7138920e-01
 -1.5471390e+00
 -1.6696593e-01
  5.6278586e-01
 -1.9174651e+00
 -4.5581789e+00
 -5.2354288e-01
  1.8511590e+00
  2.1147342e+00
 -3.7663774e+00
  5.0272292e-01
  6.9830835e-02
  9.3349499e-01
 -3.3270640e+00
  1.3933154e+00
 -1.1856887e+00
  4.3759426e-01
  5.9979266e-01
  6.4866424e-01
 -1.3660798e+00
 -6.1362021e-02
  1.0332203e+00
  1.3337483e+00
 -2.6526849e+00
  4.4723839e-01
  1.6286014e+00
 -1.5106142e+00
  2.3596015e+00
 -1.0452151e-01
  4.4616228e-01
  4.6351251e-01
  7.1983993e-01
 -6.6983348e-01
 -3.2107100e-01
 -4.8767748e-01
  8.0905157e-01
  7.1998262e-01
  5.5283034e-01
  2.7232111e-01
  1.0001234e+00
 -1.1487753e-01
  3.8814270e-01
 -6.9844669e-01
 -1.7596370e+00
  1.9572970e+00
  4.4349959e-01
 -3.0736976e+00
  2.1112914e+00
  1.6478029e-01
  1.2277614e-01
 -1.3722061e+00
 -4.1347718e-01
  1.8359433e+00
 -2.0404491e+00
  2.9673511e-01
  9.6229315e-01
 -7.7151942e-01
  2.2651341e+00
  1.8401784e+00
 -1.6571673e+00
 -6.9649202e-01
 -3.1781507e-01
  1.8450866e+00
  3.5208485e+00
 -3.6379247e+00
 -9.3237519e-01
 -1.1868844e+00
  1.3531984e+00
 -1.5455508e+00
  3.3683720e+00
 -8.8541903e-02
 -1.1519903e+00
 -3.7876061e-01
  2.4376203e-01
 -1.2510853e-01
 -1.3085378e+00
  1.4884574e+00
  2.2525339e+00
 -7.3460740e-01
  6.3192886e-01
  1.3453614e+00
 -1.2688569e+00
  2.3018599e+00
 -3.0038745e+00
 -1.0000157e+00
 -1.8293997e+00
  1.6059892e+00
 -4.6081552e-03
 -2.2289650e+00
  1.8381680e+00
  9.3832552e-01
  6.1425465e-01
  1.1088834e+00
 -1.5603056e+00
 -1.3791479e+00
 -1.4564679e+00
  9.7884917e-01
 -2.6388317e-01
 -7.2833246e-01
  1.5629356e+00
  3.0937650e+00
  6.3396686e-01
  7.1129537e-01
  1.7103387e+00
 -3.6671221e+00
  1.0839687e-01
 -7.9450065e-01
  1.0921945e-01
 -2.7673960e+00
  3.2190189e-01
 -1.8573679e-01
  1.1611147e+00
  1.6220658e+00
  2.5470608e-01
  3.0750000e-01
 -1.4351150e+00
 -2.3923788e+00
 -2.3034297e-02
 -1.0825579e-01
  1.9456551e+00
  9.1068119e-01
  3.4054287e-02
  2.0631819e+00
  1.0023011e+00
 -2.0362689e-01
  2.5703440e+00
  2.3794746e+00
  3.6585277e-01
  1.2366059e+00
 -5.9066258e-02
 -1.5010297e+00
 -1.7050670e-01
 -7.2839774e-02
 -1.0782677e-01
  4.5762467e-01
  9.8084551e-01
  6.2926179e-01
  4.8516889e+00
  1.3978183e+00
  2.0020218e+00
  1.3549396e-01
 -1.4714388e+00
 -1.2196157e-01
  4.0073889e-01
  2.8398964e-01
 -4.6708167e-01
 -1.0307395e+00
 -2.7584141e-01
 -1.0353742e+00
 -1.7431509e+00
 -1.6558069e+00
 -7.3489837e-02
 -1.9926640e+00
  1.1361576e+00
 -7.8677672e-01
  4.0404588e-01
  2.2576330e+00
 -1.0428209e+00
  5.4062605e-01
 -3.3362252e-01
  5.4535609e-01
  1.0921556e+00
  2.7790289e+00
 -1.3417020e+00
  5.9586119e-02
 -4.5012000e-01
  1.8331980e+00
 -2.6312503e-01
  6.0986686e-01
 -3.0652862e-02
  2.5570458e-01
  2.1791534e+00
 -3.0024564e+00
  9.8842990e-01
  8.5313809e-01
  2.1635184e+00
  1.1802616e+00
  6.8135160e-01
  9.6908313e-01
  1.0060148e-01
 -1.7227324e+00
  3.0891219e-01
 -1.6002610e+00
  3.2919846e-02
  6.2131877e-03
  4.3625239e-01
 -8.9546710e-02
  3.9212734e-01
  9.0446502e-02
 -6.3474369e-01
 -7.0679164e-01
 -1.0115894e-01
 -3.0782087e+00
  1.9143976e-01
 -6.6580552e-01
 -8.6816299e-01
 -1.7827710e+00
  3.7299326e-01
 -5.6159532e-01
 -6.4835548e-01
  6.3394588e-01
  4.3010363e-01
 -5.7109231e-01
  2.1996772e-01
 -2.2861406e-02
 -1.0262207e+00
  1.4387203e+00
  1.1096035e+00
 -7.3212618e-01
  1.1702865e+00
  1.7410448e+00
 -4.0889561e-01
 -3.5664502e-01
  1.3605707e+00
  6.4542793e-02
  1.3231585e+00
 -2.3120756e+00
  3.4096937e+00
 -1.0893690e-01
  9.6761596e-01
  1.0898525e-01
 -2.5548484e+00
 -7.3063463e-01
  5.6963068e-01
 -3.6770996e-01
 -2.8950137e-01
 -8.5525262e-01
 -2.6022742e+00
 -8.2020533e-01
  7.3837316e-01
 -1.6351030e+00
 -2.6912146e+00
  7.5002652e-01
  2.9051375e-01
  2.7054715e-01
  7.6364416e-01
  3.1135364e+00
  1.3336653e+00
 -8.8120043e-01
  1.3114153e-01
 -2.7817169e-01
 -1.8146729e-01
  1.5920219e-01
 -1.3706594e+00
  9.5547915e-01
 -1.9644268e+00
  9.0714014e-01
 -1.4114178e+00
 -1.1484902e+00
  1.8662802e+00
  1.0749022e+00
 -4.6311253e-01
 -1.0226473e+00
  3.8344282e-01
 -2.1411145e+00
  2.5659008e+00
 -1.5941444e-01
 -4.5154486e+00
 -6.9681019e-01
 -1.8337028e+00
 -2.0780499e+00
 -1.8298399e+00
 -4.1539283e+00
 -1.8224610e+00
 -3.5432068e-01
 -3.3503711e+00
 -5.7704372e+00
  4.8504493e-01
  1.0896989e-02
 -6.7494363e-01
  1.7173378e+00
 -4.0978165e+00
 -2.2674196e+00
 -8.9825451e-01
 -8.0046004e-01
 -1.3473598e+00
  1.0424237e+00
 -9.6004266e-01
 -1.0742288e+00
 -4.8075208e-01
  5.8593559e-01
 -2.9624984e+00
 -7.2647266e-02
 -1.1374010e-01
 -3.9127271e+00
  8.0631739e-01
 -1.6829238e+00
 -1.5257555e+00
  1.3633939e+00
  3.3381941e+00
 -4.3681301e-02
  1.8918326e+00
 -2.9455209e+00
 -8.9420605e-01
 -1.0290089e+00
 -8.5596764e-01
  1.1395048e+00
 -5.0474274e-01
  1.5235656e-01
 -4.6963915e-01
  1.2814134e+00
 -9.8525178e-01
 -1.2696185e+00
 -2.5967815e+00
  1.6613437e-03
  2.0889413e+00
  5.9625238e-01
 -3.1545765e+00
 -2.8841779e+00
 -3.4429315e-01
 -1.5611845e-01
  4.3131742e-01
  4.9713674e+00
 -7.0388740e-01
 -7.4553710e-01
 -7.9343647e-01
  6.3574737e-01
 -3.8058728e-01
 -4.4826737e-01
 -2.1108930e+00
  1.1444317e-01
  2.2452688e+00
 -4.2871928e-01
 -7.3220098e-01
  5.0831449e-01
  1.7602174e+00
  2.0169501e-01
  1.7681579e-01
  4.0793723e-01
  6.0619295e-01
  2.0970712e+00
 -7.5155514e-01
  1.1681353e+00
  4.9419820e-01
  2.2030841e-01
 -3.4872562e-02
  1.1269594e+00
 -7.4564695e-01
  3.6621010e-01
  2.0282264e+00
 -1.5513649e+00
 -6.4361250e-01
 -5.3899240e-01
  6.1583674e-01
 -1.0210521e+00
 -3.5202375e-03
 -6.5844196e-01
  1.9667230e+00
 -6.8130338e-01
 -1.7434101e+00
  1.2796551e+00
  9.4969064e-01
  4.2596343e-01
  1.7784271e+00
  1.1797175e+00
 -8.0509745e-02
  6.4759269e-02
 -7.4256122e-01
  8.6223668e-01
  2.3766762e-01
  2.8438067e-01
 -4.0402114e-01
 -1.8104821e-01
  6.0705681e+00
  1.5164927e-01
  8.3109415e-01
 -7.1719676e-01
 -5.7103062e-01
  6.6756099e-02
 -2.4580963e-01
 -6.9166726e-01
 -5.9093761e-01
 -2.9128866e+00
  2.3995144e+00
  2.8465194e-01
 -8.0487030e-03
  5.2080911e-01
 -7.6847607e-01
 -2.3661416e+00
  1.9771187e+00
 -2.7223535e+00
 -5.0561476e-01
  1.2573643e+00
  1.0204724e+00
 -9.8728305e-01
  1.7576280e+00
 -6.0487407e-01
  3.3043382e-01
 -7.0080471e-01
  4.7718030e-01
 -5.0793934e-01
  1.3559318e+00
  1.2611786e+00
  7.8646195e-01
 -2.9688740e+00
  2.6694477e+00
  1.0383611e+00
  4.7058358e+00
  1.0144279e+00
 -2.7212255e-02
 -5.0063863e-02
  8.1424236e-01
  1.2477552e+00
 -8.7822670e-01
  3.8575849e-01
 -3.0314813e+00
 -6.1390224e+00
 -2.3363855e+00
  8.8859862e-01
 -1.4628611e+00
 -1.9882075e+00
 -3.8279278e+00
 -1.5703597e+00
  2.9452488e-01
  9.4460422e-01
  2.3080213e+00
  5.9409137e+00
  8.8988173e-01
  8.3101201e-01
  5.6607425e-01
 -2.6121469e+00
  1.3505616e+00
 -4.6116859e-01
 -1.0493509e-01
  4.4246188e-01
  6.6728622e-02
 -2.1086436e-02
  5.9139490e-01
 -7.0177847e-01
 -1.3176179e+00
  2.7706119e-01
  1.1631380e+00
  3.4491998e-01
  1.2570347e+00
 -3.1092215e-01
 -4.4333804e-01
 -3.5559773e-01
  9.5391560e-01
 -7.5089937e-01
  7.9798841e-01
 -2.5756514e-01
 -5.9298754e-01
 -4.5581287e-01
 -2.2896571e+00
 -1.4506986e+00
 -1.2166687e+00
 -1.4102175e+00
 -6.4944422e-01
 -6.2435138e-01
 -1.1289923e-01
 -9.1046184e-02
  3.6703849e-01
 -2.8010643e+00
 -5.5940026e-01
  3.9096701e-01
  3.6599579e-01
 -1.7339495e+00
 -9.8117185e-01
 -1.0023152e+00
 -1.3197459e-01
 -4.5254999e-01
 -9.1510713e-01
 -4.0279984e-01
 -2.2992659e-01
 -2.6822108e-01
 -7.5806957e-01
  7.9021612e-03
 -7.1373260e-01
 -5.5480130e-02
  1.0317234e+00
  4.5116904e-01
  5.7136619e-01
  4.5282321e+00
 -4.4625181e-01
 -5.5913243e-02
  3.4639397e-01
 -3.9354154e-01
 -9.0566821e-02
  7.6936208e-02
  1.6046591e+00
  7.7291629e-03
 -2.8092651e+00
  1.3820509e+00
  7.6047623e-01
  1.8060015e-01
 -2.6963515e+00
 -1.2177969e+00
 -2.0459740e+00
 -6.8514693e-01
 -5.3815997e-01
  1.4168279e+00
 -9.5398957e-01
  1.8194576e-01
  3.9366784e+00
 -1.3139886e-01
 -3.8144621e-01
 -2.5483496e+00
  1.2994504e+00
 -6.0027975e-01
 -4.0208450e-01
 -3.9907176e+00
  9.6920884e-01
  7.0843363e-01
 -1.8522109e+00
 -3.1075072e-01
  7.0146024e-01
  1.0110234e+00
  5.5353922e-01
  2.0470211e-02
 -1.2267216e+00
  5.3865147e-01
 -1.1839950e+00
  1.6542292e+00
  2.6263574e-01
  1.0473562e+00
  2.1179876e-01
  1.0827298e+00
 -1.7968367e+00
 -1.9691432e-01
 -2.0952824e-01
  3.1541452e-01
  6.8308449e-01
  2.1450887e+00
 -3.8416252e+00
 -6.4382905e-01
  2.3588438e-01
 -2.3756466e+00
 -6.6162860e-01
 -2.2011939e-01
 -7.6375818e-01
 -2.5588554e-01
  6.0870081e-01
 -7.2841579e-01
  1.2389805e+00
  1.5960543e+00
  3.0633485e-01
 -2.2010946e+00
  8.1696939e-01
 -3.4324488e-01
 -4.6979749e-01
 -1.1604381e+00
  5.4583484e-01
  1.2159241e+00
 -8.0599493e-01
  1.8324496e+00
  5.3868890e-02
  5.7988214e-01
 -1.3876671e-01
  1.2969115e+00
 -3.9748818e-01
  1.1345756e+00
 -5.0415330e-02
  7.0323187e-01
 -1.1111309e-01
  3.4379083e-01
 -1.1906959e+00
 -1.2178644e+00
 -1.3968821e-01
 -8.7133253e-01
  1.6635977e-01
  2.4584837e-01
  1.3628742e+00
 -7.4842274e-02
  2.1129920e+00
  2.4648871e+00
 -2.0132027e+00
 -3.6216444e-01
  1.5107316e+00
  1.5908474e+00
  4.3753557e+00
  6.3842869e-01
  9.1202742e-01
  7.9871273e-01
  1.5010712e+00
 -9.6955800e-01
 -1.9443794e+00
 -8.1270450e-01
 -2.0419466e+00
  1.1075199e+00
 -3.3884566e+00
 -1.8462964e+00
 -6.7121410e-01
 -9.0200168e-01
  3.7924497e+00
  8.1497741e-01
  1.7925790e-01
  1.5414183e+00
 -1.9145623e+00
  6.8454158e-01
 -1.2617842e+00
  1.7663747e+00
  5.5712968e-01
  5.7196122e-01
  1.9756444e-01
 -8.2323676e-01
  1.6772008e+00
  5.6976169e-02
 -1.4088632e+00
 -3.1535306e+00
  2.7229667e+00
 -2.6352551e+00
  1.6378380e-02
  3.0670869e+00
 -1.3687428e+00
 -6.8564588e-01
 -1.7982130e+00
  3.2024649e-01
 -1.9466168e+00
  1.4670740e+00
 -8.3080083e-02
 -2.7025664e+00
  9.7612262e-02
  1.2464861e+00
  2.2678530e+00
 -1.2394584e+00
  1.3712810e-01
  3.2434922e-01
 -5.5179626e-01
  3.2838038e-01
  4.2825010e-01
  5.8428901e-01
 -3.5750418e+00
  1.2018784e+00
  3.3691173e+00
 -2.5544803e+00
 -2.5784371e+00
 -2.1248705e+00
  4.7843903e-01
  4.5814559e-01
 -1.1045102e+00
  1.1079428e+00
 -3.7942079e-01
  4.4012335e-01
 -9.3171918e-01
 -9.6320713e-01
 -3.3231134e+00
 -7.5658405e-01
  3.4630087e-01
  1.1993672e+00
  1.0238931e+00
 -3.8686650e+00
 -2.2109442e+00
 -1.8296516e+00
 -1.5435132e-01
  4.5913061e-01
 -2.2910478e+00
  1.4420562e+00
 -5.3010690e-01
 -1.5874907e+00
  1.3420236e+00
  8.4910259e-02
 -8.1492752e-01
  1.3558778e+00
 -9.6685159e-01
 -1.3536650e+00
  2.6016853e+00
  3.9415398e-01
 -1.4012969e+00
 -4.4048861e-01
  1.9327809e+00
  2.1045034e+00
  1.0545231e+00
  1.0021683e-01
 -2.3377428e+00
  3.7024349e-01
 -2.7719954e-02
 -6.2571585e-01
  5.5316442e-01
 -1.2594216e-01
  2.6571807e-01
 -2.1203989e-01
 -3.4025988e-01
 -4.7569400e-01
  1.5602080e-02
  1.8060869e-01
 -2.6883402e-01
 -3.1109922e+00
  2.3815648e-01
  3.4293887e-01
  4.1860209e+00
 -6.0233951e-01
 -4.2984438e-01
 -1.4571829e+00
 -3.5936832e-01
  2.5470281e-01
 -3.0541992e-01
  7.8448313e-01
  1.0585274e+00
  1.7563637e-01
  4.1910774e-01
  1.8033605e+00
  2.0604300e-01
 -2.5745362e-01
 -4.5271325e+00
  1.4217046e+00
  8.3981401e-01
 -8.6738706e-01
  2.0193225e-01
  1.7634340e-02
  1.9814931e-01
  9.9989599e-01
  6.2357801e-01
 -1.2612450e-01
 -6.8513077e-01
 -1.2055199e+00
  2.0707252e+00
 -1.3781475e+00
  2.8259698e-01
  1.2614387e+00
 -1.2711873e+00
 -1.3654283e+00
  7.2124410e-01
  3.7711364e-01
  2.0254302e-01
 -2.6057544e+00
 -2.2971818e+00
 -5.4670930e-01
  1.9922101e+00
 -6.3625383e-01
  1.3189328e-01
  1.0164415e+00
  7.9768014e-01
  1.8769400e-01
  2.2701746e-02
 -7.0606697e-01
  1.6470914e+00
  1.8563416e+01
 -1.6338016e+00
 -4.1041641e+00
  1.5853724e+00
  1.9367825e+00
 -3.6977780e+00
  1.0454164e+00
  2.2480974e-01
 -1.1390702e+00
  1.0699978e-01
  1.4273409e+00
 -8.1462437e-01
 -2.6196405e-01
  3.4097636e+00
  1.4132475e+00
 -1.1129532e+00
  5.9925991e-01
  1.8767407e+00
  2.6204231e-01
  1.5035321e+00
 -2.1587686e-01
  2.2805200e+00
  3.1421461e+00
 -1.4397656e+00
 -3.0409970e+00
  1.1784089e+00
  1.1148685e+00
  6.5989220e-01
 -3.1162622e+00
 -8.2861775e-01
 -1.6867938e+00
  1.0117535e-01
  2.4895875e+00
 -5.7875001e-01
 -1.8880875e+00
 -1.1420225e+00
 -5.5246854e-01
  2.6893725e+00
 -1.7664753e+00
  3.3888689e-01
 -1.6909327e-01
  5.9448075e-01
 -8.9645082e-01
  4.8203072e-01
 -2.6368849e+00
 -1.6148823e+00
 -5.3634578e-01
 -1.7180420e+00
  1.7936305e+00
  3.5034692e+00
  5.1479435e+00
 -3.6435121e-01
  3.0039277e+00
  1.4978966e+00
  2.0355322e+00
  5.1282769e-01
 -9.5713288e-01
 -2.7705479e+00
 -1.8641338e+00
 -6.8951696e-02
  1.4051893e+00
  1.7931628e+00
 -2.3518429e+00
  4.0241724e-01
  1.9246579e+00
  1.2442962e+00
  2.0183325e+00
 -9.8994130e-01
  1.3206896e+00
  7.8423792e-01
  5.9470558e-01
 -5.3917158e-01
 -3.1983345e+00
  3.1118631e+00
 -6.6369796e-01
 -3.5399354e-01
  5.2713299e+00
  6.6603124e-01
  2.3393848e+00
 -7.2230130e-01
 -8.2097650e-01
 -5.1881719e+00
  2.4871245e-02
  1.4966683e+00
 -4.2149180e-01
  2.8411121e+00
  2.7288902e+00
  1.2861562e+00
 -1.7175033e+00
  2.6570077e+00
  4.0645537e+00
 -5.8889240e-01
 -4.1561380e-01
 -2.2749891e+00
 -8.7122786e-01
 -7.3594540e-02
 -4.5706323e-01
 -3.4985559e+00
  2.0865309e+00
  9.5311195e-01
 -6.5356803e+00
 -6.0487658e-01
  1.4794747e+00
  8.8646346e-01
 -2.2674571e-01
  2.6169777e+00
  6.2482047e-01
 -1.1117326e+00
  2.1983105e-01
  3.0222390e+00
  3.3742528e+00
  3.2399509e+00
  1.3214068e+00
 -3.9842122e+00
  4.2683876e-01
 -9.8404980e-01
  9.7045773e-01
  1.1780254e+00
  1.1941892e+00
 -1.6171535e+00
 -9.6779627e-01
 -1.2245054e+00
  1.4308599e+00
  2.3542941e-01
  2.2571862e+00
 -2.9487538e+00
  7.3047072e-01
 -8.4706789e-01
  2.3289572e-01
  7.1914822e-01
  9.6224314e-01
  2.3639467e+00
 -5.2614598e+00
 -8.6431646e-01
 -1.7413475e-01
  2.6831675e+00
 -1.6343403e-01
 -5.7720103e+00
 -3.1836754e-01
 -8.9347087e-02
  4.0883207e+00
 -4.6874180e-01
  9.0447408e-01
 -3.2569796e-03
  3.9132774e+00
  2.3013549e+00
  9.3744779e-01
 -1.2747446e+00
 -2.0500500e+00
 -5.9988189e+00
 -1.6446595e+00
  1.3228886e-01
  1.1839198e+00
 -5.9659654e-01
  8.2094318e-01
  3.0583256e-01
 -1.3991798e+00
  2.3490898e-01
  8.7261242e-01
  4.7852170e-01
 -1.6870250e+00
 -5.9411111e+00
  1.5890915e+00
  1.6002711e-02
 -2.2513168e+00
 -4.0726817e-01
 -1.7238511e+00
  9.4963253e-01
  1.4475422e+00
  1.4294949e+00
  1.5780870e+00
 -1.4886379e+00
  5.4144955e-01
 -1.4656497e+00
 -9.3873963e-02
 -7.6263338e-01
  1.1455631e+00
 -3.6726925e+00
  2.8753623e-01
 -8.2681453e-01
  2.8390131e+00
  2.1311302e-01
 -1.7207836e+00
  1.9958105e+00
  2.0790850e-01
  5.9690148e-01
 -5.4064828e-01
  1.0554308e+00
  3.0293455e+00
 -9.0355623e-01
  3.1143913e-01
  8.8591143e-02
  5.8099043e-01
 -4.0807033e+00
 -2.0207224e+00
  3.3263454e+00
  2.3477043e-01
 -4.7595663e+00
 -1.7861128e-01
  2.8281140e+00
  3.9978340e+00
 -2.2229407e+00
  1.6383623e+00
 -3.4721174e+00
  2.0920300e+00
  1.2227997e+00
  1.5171772e+00
  1.8006134e+00
 -3.5509465e+00
  2.7414832e-01
 -5.4924320e-02
  1.5245005e-01
 -4.3283792e+00
  1.2649980e+00
  1.7639383e+00
  2.2203171e+00
 -1.1784281e+00
 -2.4801654e-01
  1.8501173e+00
 -6.9951838e-01
 -1.6922086e+00
 -1.0246940e-01
  1.4709758e+00
  8.5636079e-01
 -4.7794275e+00
 -2.5256672e+00
  1.0162466e+00
  2.5424057e-01
  1.9567527e+00
 -1.2339796e+00
 -3.9559877e+00
  2.1249846e-01
  1.0486460e+00
  1.0409697e+00
 -1.6781318e-01
  3.0948639e+00
 -4.0947967e+00
 -5.9500175e+00
 -1.1500732e-01
 -7.3217535e-01
  2.0895991e+00
  1.3467997e+00
 -2.1037366e+00
 -1.8522913e+00
 -1.4618880e+00
  6.0322862e+00
 -5.0817180e-02
  2.9700601e+00
 -1.9291484e+00
  6.3753390e+00
  2.3028584e+00
 -8.3854026e-01
 -1.5348369e+00
 -3.7940049e-01
  2.2733817e+00
  5.3154802e-01
 -2.4088218e+00
  6.4918442e+00
  5.7618272e-01
 -2.5903897e+00
 -2.8926485e+00
 -3.4329686e-01
 -1.9644983e+00
 -1.5022293e+00
  2.9640284e-01
  3.8278697e+00
  2.3961663e+00
  1.3400879e+00
 -2.4227130e+00
  5.3621478e-02
  1.2731720e+00
 -3.0892980e+00
 -4.9016967e-01
 -3.5776513e+00
 -8.2167995e-01
  2.7027822e-01
  2.0167124e+00
  1.0119088e+00
  5.9948597e-02
  6.8101460e-01
 -5.1541793e-01
  4.2947230e+00
 -2.5223592e-01
  1.5726024e+00
  3.0347075e-05
  2.3966930e+00
  3.7782305e-01
  1.5012232e+00
  7.4922532e-02
 -3.6222064e+00
 -1.2160891e+00
 -9.6264303e-01
  2.1936843e+00
 -1.0080407e+01
 -1.8305737e+00
  8.9296550e-01
  2.0577466e+00
  6.8748999e+00
  9.6792942e-01
  2.5276909e+00
 -3.3747702e+00
  3.2262143e-01
  1.0639288e-01
  1.4547851e+00
 -2.3960869e+00
 -5.9781561e+00
 -6.7061192e-01
 -6.3502800e-01
  2.8799019e+00
 -1.1256369e+00
  2.1728954e+00
  1.1866540e-01
 -9.1752879e-02
  4.7840366e-01
  1.0058398e+00
  2.3643135e-01
  7.9770857e-01
  1.3846657e+00
 -1.5592127e+00
  9.3978894e-01
  1.1223406e+00
  8.1981510e-01
 -3.5714996e-01
 -4.7837634e+00
