nep4_zbl 2 Mo S 
zbl 1 2
cutoff 6 5 37 26
n_max 4 4
basis_size 8 8
l_max 4 2 1
ANN 80 0
  3.6047474e-01
 -1.3809800e+00
  2.2152869e-01
 -6.9830441e-01
 -2.8373115e+00
 -2.3192914e+00
  7.7931285e-01
  1.3740165e+00
 -2.1514969e+00
 -8.0387360e-01
 -1.7562926e+00
  5.5389220e-01
  1.3759623e+00
 -5.1759946e-01
  1.2523394e+00
  2.0507047e+00
  4.7391030e-01
  3.3671165e-01
 -1.0199116e+00
  9.3242931e-01
 -3.0640371e+00
  2.3179977e+00
 -3.4862635e+00
  2.8114817e+00
  2.2056651e+00
 -4.4213381e-01
 -1.0027584e+00
  2.1758749e-01
  1.8499313e-01
 -5.9841269e-01
  1.0875117e+00
 -8.0573958e-01
 -1.7188442e+00
 -5.2753705e-01
 -1.7240596e-01
  2.4777925e+00
 -1.1921215e+00
 -3.0847552e-01
 -1.7298524e+00
 -5.8593529e-01
 -5.0170403e-03
  7.2595626e-01
  1.8865091e+00
  2.2584381e+00
 -1.0737226e+00
 -7.5912252e-02
 -6.7194498e-01
 -2.1097374e+00
  1.3439967e-01
  1.7398688e+00
  1.8071649e+00
  6.7898832e-02
 -1.0256641e+00
  3.4334087e-01
  9.7481543e-01
 -2.1705998e-01
  2.8203496e-01
  3.9817616e-01
 -4.7052431e-01
  1.8839025e-01
  1.1134481e+00
  1.0341533e+00
 -8.9745396e-01
  7.7741134e-01
 -2.0107169e-01
  8.9169556e-01
  1.2072783e+00
  6.3967967e-01
  4.8029271e-01
  3.6372215e-01
  6.2486410e-02
 -5.6939650e-01
 -5.0755497e-02
 -4.1526222e+00
 -1.0964139e+00
 -1.2944270e+00
 -2.0829144e+00
  1.9183751e+00
  1.8461090e+00
 -3.4016986e+00
 -1.1286412e+00
  2.6038721e-02
  1.9591055e+00
 -5.5101985e-01
  5.0052315e-01
 -2.3538974e-01
 -2.7862489e-01
 -4.4053826e-01
  1.0902110e+00
 -2.3315302e-01
 -3.1364498e-01
  2.6896355e+00
  4.5202560e+00
  4.6285205e+00
  4.9777374e-02
  2.4125087e+00
 -6.6491944e-01
  2.8452423e-01
  7.6301432e-01
 -7.0534045e-01
  1.8594255e-01
  2.3257158e+00
  2.8527436e-01
 -3.6276826e-01
 -1.8911593e+00
 -3.5479708e+00
 -3.4370700e-01
 -2.3822057e+00
  3.3092943e-01
  2.4436474e-01
  1.1600525e+00
  1.9909120e-01
  5.6757011e-02
 -8.3817631e-01
  8.6713368e-01
  2.0132825e+00
  4.4051459e-01
  6.1317468e-01
  2.1640294e+00
 -1.1832466e+00
 -1.5813549e+00
  1.0292435e+00
  2.1610540e-01
 -2.1169454e-01
  6.8964949e+00
  1.4711748e+00
 -9.8150468e-01
 -1.2058443e-01
 -2.5419033e+00
 -9.8957551e-01
  2.9421717e-01
 -5.5716813e-01
  1.9597667e-01
  6.3310158e-01
 -1.7123874e+00
 -1.0273266e-01
 -7.7493387e-01
 -1.0507236e+00
 -3.4251454e-01
 -1.1235579e+00
  1.0871084e+00
  1.2461518e+00
 -8.5552841e-01
  7.8543127e-01
  1.9329563e-01
 -3.4828694e+00
  6.2494433e-01
 -3.1552806e+00
  4.5602918e+00
  5.6790125e-01
 -1.1035695e+00
 -4.2096096e-01
 -9.1251159e-01
  4.9817710e+00
  2.1922100e+00
  6.0234481e-01
 -4.3272164e-02
  4.4452415e+00
  2.0092001e+00
 -1.4384381e-01
 -8.2178730e-01
 -2.2191374e+00
  4.1940751e+00
 -3.3257023e-01
  9.4246340e-01
 -4.6882218e-01
  2.6057975e+00
 -2.8073451e-01
  1.3446881e+00
  1.1523072e+00
 -1.1777561e+00
 -1.0241443e+00
 -2.2684002e+00
 -1.7692586e+00
 -2.7702221e-01
 -8.8891245e-02
  6.2680268e-01
 -1.5224229e+00
 -1.2260959e+00
  1.1644738e+00
  1.5909463e+00
  2.1289741e-01
 -3.0121139e-01
 -1.4581877e+00
 -9.1796720e-01
  1.3565254e+00
  2.9387498e-01
  2.4284275e+00
 -9.4434226e-01
  2.5718614e-01
  9.0715134e-01
 -1.0811155e+00
  1.3079815e+00
 -1.6948596e-01
 -1.0604562e-01
 -5.7779777e-01
 -1.9812852e+00
 -1.3249080e+00
 -1.3819475e+00
 -4.9997452e-01
 -1.4469651e+00
  9.3427360e-01
  1.0693986e+00
  5.2878296e-01
  4.8151511e-01
 -1.9251324e+00
  1.1143416e+00
 -7.7355945e-01
  7.3436475e-01
  7.2697562e-01
 -2.6599953e+00
  7.0183671e-01
 -1.1202132e+00
  8.6008199e-02
 -5.8201319e-01
  2.1414206e+00
  6.8956423e-01
  6.7194885e-01
  1.0276897e+00
 -4.8956314e-01
  1.3559695e+00
  1.5807421e+00
  7.3162533e-02
  5.2058858e-01
 -1.3921168e+00
 -7.2020108e-01
  5.2613240e-01
 -1.7379665e+00
 -3.0873873e+00
  8.7377095e-01
  5.4651535e-01
 -1.0572090e+00
 -2.0129054e+00
 -1.4734677e+00
  7.1320379e-01
 -1.0913100e+00
 -5.0229769e-02
  1.1845727e-01
 -1.8528654e-01
 -3.2310548e-01
 -7.6392069e-02
  5.8034337e-03
 -7.8150505e-01
  3.7850657e-01
  1.8368104e-01
  4.5487785e+00
 -1.9460003e+00
 -7.6241452e-01
  1.7969506e+00
 -4.1627293e+00
 -1.3855828e+00
 -2.2529800e+00
  2.0680385e+00
  8.7228853e-01
  1.9042345e+00
 -2.5992119e+00
  6.3826096e-01
 -1.4774336e+00
  1.4905289e+00
  1.1711059e+00
  1.8178425e+00
 -1.5336177e-01
 -3.9426520e-02
 -8.1574142e-02
  6.4616555e-01
  2.6580703e+00
 -1.6833349e+00
  8.5804358e-02
 -1.0367422e-02
  7.8777671e-01
  1.2476314e+00
 -2.4617888e-01
 -1.1597654e+00
  7.7329302e-01
  5.3684360e-01
 -9.1355252e-01
  9.8595649e-01
 -4.9586105e-01
 -1.1615203e-01
  5.4877198e-01
 -2.0717688e+00
  4.0547132e+00
  3.4727254e+00
  7.5149572e-01
 -2.6077948e+00
 -1.2831614e+00
  1.8069766e-01
 -1.5675224e+00
  1.3645042e+00
 -3.6181037e+00
  1.4342794e+00
 -2.6522384e+00
 -1.7972536e+00
  6.5922254e-01
 -1.2795843e+00
  2.1263774e-01
  1.6576532e+00
  2.3364425e+00
  3.3399885e+00
 -9.0376133e-01
  6.2086672e-01
  1.5404570e+00
  1.0853244e+00
  3.6248066e+00
 -8.8212234e-01
 -4.7975931e-01
  1.8654124e-01
 -7.9615653e-01
 -2.8573148e+00
 -9.0362668e-01
 -1.5011082e+00
 -1.2517529e+00
  6.1739200e-01
  1.2483405e-01
  6.9153178e-01
  2.0679438e+00
  1.9298133e+00
 -1.1851101e+00
  5.0545938e-02
  1.8220466e+00
  1.5725325e+00
 -1.7888792e+00
 -2.7712717e+00
 -1.9323359e+00
 -2.3783948e+00
  8.4693849e-01
 -8.9416134e-01
 -2.2212062e+00
  1.7633251e+00
 -3.9731780e-01
 -1.3960556e+00
 -3.3095610e+00
 -1.7439383e+00
 -1.8498657e+00
 -9.2583036e-01
 -2.1612842e+00
 -1.0951705e+00
 -1.0426925e+00
 -3.6686933e+00
  9.3055693e-03
 -3.5246584e-01
  2.5789699e-01
 -6.7179024e-02
  9.8781472e-01
 -4.7789845e+00
  3.0848715e-01
  4.4072169e-01
 -3.9309159e-02
 -7.8003013e-01
  7.7913254e-01
  9.0565950e-02
 -1.0601070e+00
  1.6347593e+00
 -1.5515285e+00
 -9.8068094e-01
 -1.8264332e+00
 -1.9006689e+00
  2.7180846e+00
 -1.1458194e-01
 -1.0186877e+00
 -1.1295838e+00
  2.4311695e-01
  2.1822281e+00
 -1.8528646e+00
  7.0506459e-01
  1.4590224e+00
 -3.4084177e-01
  5.6240880e-01
  1.1961253e+00
  1.1987088e+00
  9.6468061e-01
 -1.3399106e+00
  7.2292888e-01
 -8.6020643e-01
  1.3695887e+00
 -1.2007664e+00
 -1.5163633e+00
 -3.9066848e-01
  8.0989748e-01
  8.9906991e-01
  3.7712950e-01
  1.1726956e+00
 -3.8135226e+00
 -3.0024040e-01
 -1.0090759e-01
  1.1286688e+00
  2.8380005e+00
 -6.7007095e-01
  1.4556034e+00
  2.2243929e+00
 -7.4712478e-02
  1.8950604e-01
 -9.9536639e-01
  3.7943897e-01
  7.4787521e-01
  2.9149756e+00
  6.4775634e-01
 -2.2584248e-02
 -3.0698830e-01
  2.7037492e-01
  1.7034896e-01
  3.2258685e+00
  1.5065007e+00
 -6.5230453e-01
 -4.7000527e-01
 -1.9782993e+00
 -8.1625324e-01
  1.4926188e+00
 -6.0735828e-01
 -6.2057537e-01
 -7.2569942e-01
  8.4315491e-01
  1.5920608e+00
  1.1183314e-01
  5.1773882e-01
 -3.9594612e-01
 -9.5075351e-01
  1.9893504e+00
  6.8188596e-01
 -7.9201531e-01
 -1.0160207e+00
 -1.8583636e+00
 -1.3773043e+00
  6.6082823e-01
  8.5283780e-01
 -3.6368132e-01
 -3.2047167e-01
 -9.2603242e-01
 -1.1525263e+00
  4.1400266e-01
 -1.5713919e+00
  1.7409591e-01
  6.9355941e-01
  4.0574369e-01
 -1.2376740e-01
 -3.4255329e-01
 -4.3789225e+00
  2.2801614e+00
  7.8615326e-01
 -5.6423366e-01
 -8.0731767e-01
  1.1438284e-01
 -1.5387094e+00
  3.8190356e-01
  7.1863055e-01
 -1.0001481e+00
  4.2715919e-01
 -7.2024673e-01
  1.0443870e+00
  1.0211388e+00
 -1.4048619e+00
 -1.3225060e+00
  1.9905393e-01
 -2.0054577e-01
  1.2964352e+00
 -2.0850399e+00
 -4.2406497e+00
  6.0531509e-01
  3.1142118e+00
  2.6147687e-01
 -2.4754925e+00
  1.8580927e+00
 -2.0683377e+00
 -2.3799386e+00
 -1.9420170e+00
  5.0090794e-03
 -5.0423437e-01
  9.2003888e-01
 -7.7943176e-02
 -5.0101179e-01
 -7.0275748e-01
  7.2058064e-01
 -4.6993676e-01
 -1.8640832e+00
  2.9427287e-01
 -5.0585258e-01
  9.4267219e-01
 -2.5237005e+00
 -2.1627975e+00
  9.6236223e-01
  1.0757165e-01
 -3.4366640e-01
  9.4771914e-02
 -7.2214270e-01
 -5.4575598e-01
  4.0170628e-01
 -1.5060905e-01
  1.3044591e+00
 -7.9265103e-02
 -4.8085067e-02
  1.1540753e+00
 -6.4523488e-02
  1.2439743e+00
 -3.0420563e+00
  3.9178938e-01
  1.0154359e+00
  2.3026757e-01
  6.8244255e-01
 -3.4494493e+00
 -1.4141580e+00
 -2.9845133e-01
  3.5849456e-02
 -3.0262172e-01
 -1.6898443e-01
  4.8590083e-02
  3.1172809e-01
 -5.5471683e-01
 -1.2077316e+00
 -2.6535149e+00
  1.0669483e+00
  1.2669910e+00
 -5.1829982e-01
 -1.0065002e+00
 -5.6801492e-01
 -7.3638606e-01
  4.3230203e-01
  1.4531341e+00
  5.4449904e-01
  2.3109385e-01
  1.5125517e+00
 -1.4074347e+00
 -1.1483674e+00
  2.4995393e-01
  9.9671310e-01
  9.9056190e-01
 -1.4884464e+00
 -2.1099620e+00
  5.7779235e-01
  8.8112187e-01
  8.9846992e-01
 -1.0532918e+00
  9.9630398e-01
  2.3996681e-02
 -1.2846484e+00
  1.9809006e-01
 -1.3337238e+00
  3.6752230e-01
  1.6041406e+00
 -4.4363132e-01
  2.1743419e+00
  3.1074479e-01
  9.6995026e-01
 -3.1091434e-01
 -1.2758272e+00
 -1.4258583e-02
 -3.8282430e-01
  1.6912626e-01
  4.1729155e-01
  2.5138852e-01
 -4.7515020e-02
 -2.9025325e-01
  3.0962250e-01
  9.5318264e-01
 -1.2409941e+00
 -5.5686837e-01
 -8.5789990e-01
 -1.2901003e+00
  2.3779005e-01
 -1.3423107e+00
 -1.9918524e-01
  7.6825214e-03
  6.8368077e-01
  1.4783832e+00
  5.9792429e-01
 -3.6044068e+00
 -3.1771535e-01
  4.9865782e-01
 -2.6441255e+00
  4.9834186e-01
 -4.6061361e-01
 -8.5957205e-01
  1.1779289e+00
 -4.7690043e-01
 -1.2759354e+00
  9.4982289e-02
  4.1341394e-01
  2.1989077e-01
 -1.1519454e-01
  4.0728402e-01
  4.8460308e-01
 -1.1813828e+00
 -4.1589874e-01
 -6.4272150e-02
  9.9577926e-02
 -2.2227771e+00
  2.3373792e-01
 -3.1865239e-01
  1.8051270e+00
  1.1868097e+00
 -2.6377821e+00
  1.2007145e+00
  5.0530243e-01
 -5.3051168e-01
  3.7728399e-01
  8.5763901e-01
  1.5176841e+00
  2.2172759e+00
  3.2117372e+00
  3.2584184e-01
  9.4061136e-01
 -8.6066395e-01
  7.7810669e-01
 -1.3138280e+00
  2.8641667e+00
  1.3728590e+00
 -2.2706039e+00
 -1.0441860e+00
 -1.5192677e+00
  1.0577885e+00
 -2.3779409e+00
 -4.2739141e-01
  1.4373823e-01
 -7.0965093e-01
 -2.2294904e-01
 -1.3128216e+00
 -1.5353031e+00
 -4.0427688e-01
 -4.7576943e-01
  1.2785650e+00
 -1.0506650e+00
 -8.0713296e-01
  7.2259367e-01
  6.5929061e-01
  7.9682074e-02
  1.2542084e+00
  5.3391600e+00
  7.0441008e-01
 -8.5388517e-01
 -1.1263664e-01
 -1.1439909e+00
  3.2515195e-01
  1.7183244e+00
  1.2215539e+00
 -2.4448125e+00
 -6.7987454e-01
  1.1599754e+00
  4.6737027e-01
  1.2267392e+00
 -3.4866645e+00
 -1.2464014e+00
  6.3013071e-01
  1.3838601e+00
 -4.1644922e-01
 -3.8736174e+00
  3.7920737e-01
  2.4189997e+00
 -6.1262292e-01
  2.3415555e-01
 -1.8965185e+00
 -3.4840110e-01
  3.8744354e-01
 -4.5113093e-01
  1.7384007e+00
 -7.3883748e-01
  5.2158827e-01
  1.1023434e+00
  5.0974208e-01
  5.4326874e-01
  4.9120727e-01
  9.0614420e-01
  3.9360800e-01
  4.3890992e-01
  9.7136118e-02
 -3.0290499e-01
  2.0057128e-01
  7.3429900e-01
 -5.5483027e+00
 -1.4927361e+00
 -1.2504120e-01
 -7.6532221e-01
  9.1825026e-01
 -1.5226244e+00
  1.3543656e+00
 -2.7883003e+00
 -4.5015472e-01
  1.1991688e+00
 -8.9519393e-01
 -9.8621005e-01
 -6.2582129e-01
  1.8779498e-01
 -1.1662545e+00
 -6.6952795e-01
 -1.2764336e-01
  3.2040927e-01
 -7.7038068e-01
  2.7078092e+00
 -1.9972036e+00
 -1.2141614e+00
 -2.2690201e+00
  1.2994775e+00
  1.9669202e-01
  1.0110618e+00
 -2.2865455e-01
 -1.4200634e+00
 -4.3216237e-01
 -1.1533703e+00
  1.1907991e+00
 -9.8390931e-01
 -2.7537891e-01
  1.6380566e+00
  9.5032424e-01
  1.7412587e+00
 -2.4583032e+00
  5.6224387e-02
 -1.3123247e-03
 -3.0443392e+00
  1.8616478e+00
 -2.1847377e+00
  1.1518915e+00
  3.0439842e-01
  1.0333073e+00
 -3.4096614e-01
 -1.1765803e+00
 -5.2237636e-01
 -3.7861606e-01
 -3.2298820e+00
 -1.5528600e-01
  1.6378490e-02
  3.1662858e+00
 -5.2834690e-01
 -1.6123605e+00
 -4.0924653e-01
 -3.2240362e+00
 -8.6698800e-01
 -1.0287660e+00
  2.4984765e-01
  1.1734470e+00
  1.8762700e-01
 -5.5132639e-01
 -4.6920428e-01
  2.1971033e+00
  1.2618771e+00
 -8.2918704e-01
 -5.5831474e-01
 -3.3991069e-02
 -1.4456505e-01
 -1.4035212e+00
 -1.2454445e+00
 -1.5078213e+00
  7.7437460e-01
  1.3077118e+00
 -2.0641758e+00
  6.8907183e-01
 -2.0814245e+00
  3.6309642e-01
 -2.2792134e-01
 -1.6386798e-01
  1.6369445e+00
 -1.5312375e+00
  1.4411943e+00
  3.2791286e+00
  3.6394072e-01
 -2.0404482e+00
 -3.2766268e+00
  6.9067085e-01
  9.5781320e-01
 -8.3551592e-01
  9.0492025e-02
  1.1443545e+00
  1.4124904e+00
  4.9687251e-01
  4.3539848e-02
 -8.2538557e-01
  1.6728483e+00
 -1.3085289e+00
 -7.4422896e-01
  7.4425930e-01
  2.7792609e+00
  1.5283810e-01
  7.1579283e-01
 -1.6276523e+00
  2.2344056e-01
 -1.2167412e-01
  1.6310861e+00
 -1.0463026e+00
 -1.4684837e+00
 -2.0158471e-01
  2.6210530e+00
  7.0577157e-01
  5.7679337e-01
 -6.4757490e-01
  6.8222791e-01
  8.1784105e-01
  1.6202869e+00
  5.0122875e-01
  1.6382794e-01
 -2.0532033e-01
  1.2319643e+00
 -2.5012076e-01
  7.0563221e-01
  3.1411564e-01
 -9.6334875e-01
  2.9030943e-01
  1.3737515e-01
 -2.3553735e-01
 -4.7771373e-01
  6.6457266e-01
 -7.3432499e-01
 -3.8519138e-01
  1.5313178e-01
 -2.5072190e-01
 -3.1693226e-01
 -1.1191084e+00
 -1.8767221e+00
  1.3145107e-01
  8.6068720e-01
  1.8629981e+00
 -3.4874072e+00
  7.8089935e-01
  1.7111409e+00
  3.5236108e-01
  2.2499790e+00
 -5.7156956e-01
  2.6313796e+00
  5.5892378e-02
  8.3567977e-01
 -7.9026079e-01
 -1.6448747e+00
  3.2649078e+00
  6.2404537e-01
  9.2757350e-01
 -2.4151875e-01
 -2.3334715e+00
 -2.6499963e-01
 -2.9653568e+00
 -9.4872987e-01
 -1.9818146e+00
 -2.8275039e+00
  9.5890033e-01
  8.4794265e-01
 -1.0208883e+00
 -5.9751272e-01
  3.4895575e-01
 -1.2774193e+00
  7.4798894e-01
  8.1252211e-01
 -9.3571857e-02
  6.6120088e-01
 -2.3526421e+00
  3.3163512e-01
 -3.2030184e+00
  3.3898702e+00
 -6.8845972e-02
  2.1976840e+00
 -4.7573239e-01
  7.0979729e-02
  2.0991571e+00
  6.1584860e-01
  2.5447509e-01
  2.0329835e+00
 -1.8954173e+00
 -4.5194864e-02
 -6.7771912e-01
  1.2607034e+00
 -1.2535850e+00
 -1.0557013e+00
 -2.1039560e+00
  2.2913447e-01
  6.4370817e-01
  1.2450353e+00
  1.5141072e+00
  2.3945711e+00
 -8.2332933e-01
  1.7951258e+00
  5.0609332e-01
 -9.5332849e-01
 -1.4858475e-01
 -2.2090523e-01
 -9.1855437e-01
 -2.4881278e-01
 -5.2715129e-01
 -4.7795883e-01
 -1.7879385e-01
 -2.5515148e-01
  8.4127054e-02
  1.2560508e+00
 -2.1029003e-01
  2.1504205e-01
 -2.3110943e+00
  1.5589394e-01
  1.3365886e+00
  7.5766939e-01
  3.4770238e-01
 -3.0383447e-01
  3.9237678e-01
  1.2850237e+00
 -9.1165465e-01
 -3.3177832e-01
  8.9412057e-01
 -4.9795121e-01
  3.9656734e-01
 -7.1253079e-01
 -1.3102068e+00
  8.4966528e-01
  6.3377810e-01
 -2.2608147e+00
  2.4135622e-01
  5.7399470e-02
 -1.3295407e+00
 -1.1917022e+00
 -3.7918335e-01
  7.4355239e-01
  2.1053776e-01
 -8.9530623e-01
 -1.4075440e-01
 -4.2231107e-01
 -1.4127113e+00
 -3.9925611e-01
 -1.2902330e+00
  3.0505907e-04
  1.6253029e-01
  7.5656074e-01
  4.0486631e-01
 -4.5582442e+00
  2.2564440e+00
 -4.8879397e-01
 -3.6212978e-01
 -1.5427841e+00
 -2.7521834e+00
  5.1230913e-01
  3.9386678e-01
  5.9236616e-01
  2.5431907e+00
 -7.3453707e-01
  5.6870174e-01
 -2.3811958e+00
 -3.5645077e-01
  1.9566603e-01
 -4.9707955e-01
 -3.7321135e-01
  2.8855681e-01
 -2.1802467e-01
  1.3081045e+00
 -2.1731644e+00
 -3.5059330e-01
  5.2947742e-01
  5.3355843e-01
 -4.4611254e+00
 -4.0793422e-01
 -9.5210707e-01
 -9.2726254e-01
  1.0918869e+00
 -5.4833144e-01
 -6.3617277e-01
 -1.2968223e+00
  4.9720034e-01
 -3.7186871e+00
  7.2829090e-02
  1.6670550e+00
 -1.5856261e+00
  9.1296941e-01
 -1.7111146e+00
  1.1373721e+00
  2.5502151e-01
 -2.1743689e-01
 -7.3438329e-01
 -9.4715816e-01
 -2.6106119e-01
 -5.4231817e-01
 -1.1594741e+00
 -1.3843925e-01
 -2.0374547e-01
  1.1047555e+00
 -2.0976367e+00
 -2.4348540e+00
  3.0395436e-01
  2.5782046e-01
  2.0839670e+00
  9.4414555e-02
 -1.8305266e-01
 -1.3551098e-01
  1.7918499e-01
 -3.7526450e-01
  1.2563424e-01
 -4.3863897e+00
 -6.7739792e-02
 -3.3374367e+00
 -5.3032112e-01
 -8.4230065e-02
 -8.5918760e-01
 -3.1812553e+00
 -2.3467178e+00
 -3.2123344e+00
 -2.1262429e+00
  4.0371752e+00
 -2.9246983e-01
 -1.7280922e+00
 -4.2750328e-03
 -3.9309734e-01
 -5.2588999e-01
 -1.3999121e+00
  3.4415197e-01
 -8.5500467e-01
 -1.0709857e+00
  6.5174365e-01
 -2.1260037e-01
  8.3155505e-02
  1.7499669e-01
 -1.8610996e-01
  6.8633713e-02
  2.1957660e-01
 -3.3890516e-01
  6.1881536e-01
  8.0986786e-01
  2.2928381e-01
  7.0429003e-01
 -2.5096568e-01
 -1.0069504e-01
 -7.5496382e-01
  5.8677997e-02
 -1.1823578e-01
  3.6374002e+00
 -1.8485026e+00
  1.0459653e+00
  3.6899889e-01
  1.7615288e+00
 -1.6236649e+00
  3.7794538e-02
 -2.1003482e+00
  8.8153952e-01
  4.3518562e+00
  1.4990106e+00
  1.6561450e+00
 -1.5531754e+00
 -8.2862675e-01
  8.0633092e-01
  3.4877172e-01
  1.7676214e+00
 -2.6194048e+00
 -3.2063642e+00
 -4.0337700e-01
  2.4865954e+00
 -2.1361360e-01
  1.0242382e+00
 -8.0424118e-01
  1.7215433e+00
  7.1700859e-01
 -1.3198475e+00
 -4.1541691e+00
  3.2168360e+00
 -1.1623615e+00
 -2.8600529e-01
  3.2588223e-01
 -1.5476503e+00
 -2.6409692e-01
 -1.2400618e-01
 -1.4232754e+00
 -2.2617568e-01
  2.8042183e+00
 -3.1531262e+00
 -8.4114596e-03
 -5.0631249e-01
 -1.3857148e+00
 -9.2396643e-03
 -2.6369131e+00
  7.8521216e-01
  9.7716784e-01
 -5.9469384e-01
 -1.0515757e+00
  1.0671033e+00
  3.0160567e-01
  2.0129547e+00
  3.0666420e-01
  1.9947638e-01
 -1.0139503e+00
  4.1571704e-01
  2.3150577e-03
  3.6988673e-01
 -8.3855397e-01
  5.3196936e-03
  5.8789742e-01
 -1.1736425e+00
 -1.9637624e+00
  1.1982080e+00
  1.1302697e-01
 -9.7973937e-01
 -2.6400560e-01
  6.0256749e-01
  3.9262363e-01
  2.1101725e+00
 -1.0359812e+00
 -7.2802413e-01
  9.5857531e-01
  3.2910085e-01
 -4.1298026e-01
 -1.0218542e+00
 -2.1256723e+00
  6.9346949e-02
 -1.6384865e+00
  2.9820567e-01
  1.2020100e+00
 -4.9781018e-01
 -1.8740073e+00
  1.0505261e+00
 -4.9250248e-01
  7.1106476e-01
 -5.0927329e-01
  1.2941257e+00
  4.2349448e+00
 -9.0679300e-01
  1.4193904e+00
 -2.2926185e+00
 -3.0836704e-01
  1.5819550e+00
  5.7933515e-01
 -2.0291399e-02
  3.5463795e-01
  2.0044074e+00
  9.8015040e-02
 -1.6539432e+00
  1.2891902e+00
  8.2797027e-01
 -2.6380283e-01
  2.1886525e+00
 -2.6447994e-01
  8.9451450e-01
 -1.7742842e-01
 -2.5605980e-01
 -1.0403032e+00
  7.0979720e-01
 -2.8610377e+00
 -1.4760985e+00
  1.3354746e+00
 -1.2590879e+00
  8.0995083e-01
  3.0963752e+00
  5.9714592e-01
  1.2993972e+00
  5.6128144e-01
 -3.8134196e-01
 -1.1224395e+00
  2.2159891e+00
  1.9968132e+00
  2.0187428e+00
  2.3433423e+00
 -1.0841930e+00
 -8.9728785e-01
 -4.0239367e-01
 -2.3991725e+00
 -2.6170042e-01
 -1.3196192e+00
 -5.7265991e-01
 -2.4554260e+00
  1.9345944e+00
 -1.6039090e+00
 -2.7701551e-02
  8.6257601e-01
  4.2249512e-02
  1.5103647e+00
  5.4698896e-01
 -3.3570513e-01
  8.4469670e-01
 -7.7627134e-01
  1.2908283e-01
  7.9833776e-01
 -3.4153616e-01
 -7.6544034e-01
 -1.8497200e+00
 -1.6098868e+00
 -6.3767910e-01
  6.4291471e-01
  1.1283035e+00
 -1.8222436e+00
  1.6595237e-01
 -3.7753692e-01
  2.1476400e+00
 -3.8657105e-01
  1.2188815e-01
  1.8178703e+00
 -2.3009477e+00
 -1.3405629e-01
  8.8141614e-01
  1.8928423e+00
  3.5708177e+00
  1.0150176e+00
  2.9782286e-01
 -2.0477161e+00
  2.5757716e+00
  1.6436136e+00
  1.0506557e+00
  1.8756717e+00
  1.2383022e-01
  1.3451034e+00
  4.8803452e-01
 -1.1926059e+00
 -8.9745945e-01
 -1.0733174e+00
 -1.3904624e-01
 -5.3856903e-01
  3.0870596e-01
 -2.7618423e+00
 -1.4043155e-01
 -2.4745188e+00
  1.2650026e+00
 -7.3218811e-01
 -1.9024742e+00
  1.2745764e+00
 -1.4774609e-01
  1.7326028e+00
 -5.0888464e-02
  9.0885586e-01
  1.7413913e+00
 -1.1178769e-01
 -1.1583683e+00
  6.8409491e-01
  1.3302288e+00
 -1.1118695e+00
  4.2661409e+00
  1.7722684e+00
  4.2662510e-01
 -1.4106432e+00
 -1.6957550e+00
  3.1790411e+00
  3.5100031e+00
  2.7421699e+00
 -1.3419572e+00
  4.6982055e+00
 -4.0706822e-01
  5.3347993e-01
 -3.3892080e-01
 -3.1584185e-01
 -9.6572304e-01
 -2.3756498e-01
  5.6425822e-01
 -5.0012112e-01
  1.0101477e+00
 -2.3478912e-01
  1.7877572e+00
 -3.1134982e+00
  7.0379263e-01
 -1.1662135e+00
 -1.3625629e+00
  2.9188001e+00
 -2.3388602e-02
  2.3621831e+00
  1.1549933e+00
 -8.8538057e-01
 -2.3549837e-01
  1.1232461e+00
  6.0646105e-01
  5.7884890e-01
  5.8888263e-01
  7.8219825e-01
 -6.7068309e-01
 -1.0536786e-01
  6.7515427e-01
 -4.6339792e-01
  5.7727826e-01
 -1.4405574e+00
  1.9940884e+00
  7.4435842e-01
 -3.3963877e-01
 -1.1857112e-01
  9.6879476e-01
 -3.9775354e-01
 -1.0622060e+00
  4.5662427e-01
  1.8586062e+00
 -4.2362839e-02
  1.2342368e+00
 -1.1763293e+00
 -6.6757530e-01
  6.3750136e-01
  2.1999657e+00
 -1.4027944e+00
 -1.0588946e+00
  1.0680399e+00
 -1.1740178e+00
  1.0619599e-01
 -2.1326265e+00
 -9.2519457e-03
  2.7660503e+00
  9.6796083e-01
  1.3375833e+00
 -1.7318076e-01
 -1.3395374e+00
  4.3449700e-02
 -1.6713703e+00
 -1.4610605e-01
 -5.0971782e-01
  1.5613167e-01
 -3.9426449e-01
 -2.1840253e-01
  8.9129812e-01
  5.7691276e-02
 -5.1903170e-02
  1.1152378e+00
 -8.1452924e-01
  1.6305965e-01
  8.4302157e-01
 -2.2328097e-01
 -1.9636902e-01
  6.8171918e-02
  1.6534398e+00
 -8.9398652e-01
  2.1463060e+00
  4.2113152e-01
  1.0158815e-01
  6.7891203e-02
 -8.4360421e-01
  6.6585755e-01
 -6.8430918e-01
  1.7188145e+00
 -8.3831735e-02
 -3.1669025e+00
 -1.5402653e+00
  1.0911815e+00
  3.4216988e+00
 -1.6380610e-02
  2.2352126e+00
  1.0787135e+00
 -1.0167840e-01
 -5.9680432e-01
  2.2796059e-01
  2.7455981e+00
 -2.6954379e+00
  2.0537263e-01
  5.9928060e-01
 -2.8773969e-01
  3.9760417e-01
  3.3962488e-01
 -6.8265599e-01
  1.7915110e-01
  1.6618193e+00
  1.3806480e-01
  3.4328184e-01
  6.1608344e-01
  3.9143300e-01
  3.2944912e-01
 -3.9127210e-01
  2.6474659e+00
  2.4517965e+00
  2.4475517e+00
 -1.3681493e+00
  1.0531647e+00
 -1.3879765e+00
  2.3434525e+00
 -8.2762343e-01
 -4.8392856e-01
 -6.1540830e-01
  2.0285659e+00
  2.8769205e+00
  1.6765105e+00
  1.0934671e+00
  4.7434130e-01
  2.1945684e+00
  9.3384677e-01
  1.5130183e-01
  1.4490906e+00
 -5.5127150e-01
  1.2726653e+00
 -1.8295033e-01
  1.6504397e+00
 -3.8597233e+00
 -1.7087401e+00
 -8.1487113e-01
 -5.4886341e-01
 -3.6012185e-01
  6.4647949e-01
  8.2638299e-01
 -4.0390193e-01
  4.3288013e-01
 -3.2323006e-01
  3.3200090e-03
  2.1381770e-01
  1.4693156e+00
 -1.0573740e+00
  1.9224693e-01
  2.4406180e+00
  6.3485187e-01
 -5.3633112e-01
 -1.2835761e+00
  1.3150813e-01
  2.4883871e+00
  8.1422788e-01
  8.1811178e-01
  2.9686770e-01
 -4.4686813e+00
 -2.9591458e+00
  1.3057861e+00
  3.1810692e-01
 -1.3135054e+00
  2.0291176e+00
 -3.5089317e-01
 -4.1721514e-01
  2.1531441e+00
  1.1168758e+00
 -8.6536914e-01
  2.7216765e-01
  7.0191956e-01
 -1.3958757e+00
 -9.7407532e-01
 -8.8686508e-01
  5.5374640e-01
 -1.6431423e-01
  2.2197846e-01
  1.9208901e+00
  8.4745216e-01
  7.3289281e-01
  6.2241948e-01
  1.6659698e+00
 -1.7393216e+00
  1.5267621e+00
  1.5483440e+00
 -5.3627806e+00
 -1.5259439e-01
 -3.7232177e+00
 -2.3355627e+00
 -2.8038678e+00
 -2.3505297e+00
  3.3335116e+00
  2.7577597e-01
 -1.0306934e+00
  5.6046075e-01
 -3.2852560e-01
  1.8129197e+00
  4.9507412e-01
  1.1985011e+00
 -8.1559896e-01
  1.3618836e+00
  2.2931499e+00
  7.3456264e-01
  1.5798149e+00
  2.3531539e+00
  3.1449583e+00
  1.8043382e-01
  6.5765405e-01
 -9.5536873e-02
 -7.0052242e-01
 -5.8242959e-01
  7.8404659e-01
  1.1178732e+00
  1.3576446e+00
  1.8414574e+00
 -1.3422747e-01
 -3.9453724e-01
  9.8924828e-01
  2.1734469e-01
  3.8658562e+00
  1.9095140e+00
  7.1114278e-01
 -5.5801764e-02
  7.0946388e-02
 -1.1726984e+00
 -1.1065361e+00
  1.1634245e+00
 -1.7573519e-01
  2.2242191e-01
  8.2865334e-01
 -1.3396095e+00
 -1.2524766e+00
 -6.6952747e-01
 -2.6402438e+00
  1.5954176e+00
 -6.3714445e-01
  1.8335406e-01
 -3.4725037e-01
 -1.5210673e+00
 -2.1883225e+00
  1.0513389e+00
  3.4488626e-02
 -2.0978077e-01
  3.1509015e-01
 -4.7234035e-01
  2.9401541e-01
  3.4680736e-01
  2.7517891e-01
  5.3033262e-01
  1.9968305e+00
 -2.7182883e-01
 -1.0035256e+00
  4.0263478e-02
  1.2498021e+00
 -7.3771042e-01
  1.1941016e+00
 -3.3373767e-01
  1.7527759e+00
  4.5390553e+00
  1.1206779e+00
  2.0370597e-01
  1.6703470e+00
 -7.0691437e-01
  1.2934936e+00
 -1.6764661e+00
 -9.3187034e-01
 -3.2644451e-01
  4.0633169e-01
 -1.4853777e+00
  1.4790919e-01
 -8.2148767e-01
  1.1717638e+00
 -9.6498704e-01
  5.6193426e-02
 -4.5627877e-01
  7.6374227e-01
 -5.7051337e-01
 -2.8386089e-01
 -1.1914862e+00
  1.0921203e-01
 -2.4485157e-01
  2.8396299e-01
  1.0749061e+00
 -2.2271430e+00
 -2.5973934e-01
 -1.1443130e+00
 -2.2351542e-01
 -6.4255319e+00
 -6.3526764e+00
  1.2816489e+00
  1.7857907e+00
 -1.1059537e+00
 -3.2829297e+00
  3.2433498e+00
 -2.3502798e+00
 -3.1759303e+00
  1.3336258e+00
 -4.1791332e-01
  3.6450043e-01
  1.4077123e+00
  5.2290821e-01
 -7.2367495e-01
 -4.3512419e-02
  1.6537042e+00
  6.9017029e-01
 -3.6027441e+00
 -1.0443193e+00
  2.3066964e+00
  1.4924579e+00
  7.1073610e-01
 -8.2148987e-01
  1.1023083e+00
 -1.1768821e+00
  4.0710291e-01
  2.8218165e-01
  3.8092580e-01
 -2.1635541e-01
 -3.4687281e-01
  4.1648540e-01
 -2.4221304e-01
  1.3886642e-01
  1.5746723e-01
 -8.0281579e-01
 -6.2497699e-01
 -6.8561453e-01
 -1.8606657e-01
  6.0389525e-01
 -1.2037679e+00
 -2.7671000e-01
 -1.8114348e-01
 -5.2504915e-01
 -7.8144324e-01
 -7.6045954e-01
  6.7484194e-01
 -1.0782326e+00
 -9.6306580e-01
 -9.3797207e-01
 -3.0246255e+00
  1.6655897e-01
  8.4528565e-02
  7.2016418e-01
  4.4317955e-01
 -9.4805908e-01
 -4.2871356e-01
 -1.0121186e-01
 -7.1331561e-01
  1.4140761e+00
  1.7161405e-01
  4.4466549e-01
  3.8379985e-01
 -3.9337534e-01
 -1.7233911e+00
 -6.2563437e-01
 -6.2288165e-01
 -7.6611042e-01
  7.7756822e-01
  1.8463424e+00
  6.2853736e-01
  1.2268698e+00
 -2.2924387e+00
  9.1559678e-01
  1.3272963e+00
 -1.9642786e+00
  4.3086869e-01
  1.6599308e+00
  1.7703199e+00
 -5.0752193e-01
 -3.6267781e-01
 -2.9403079e+00
  1.6485866e+00
 -1.2473063e+00
 -5.8355951e-01
 -2.3057945e+00
  1.0792290e+00
 -2.0769670e+00
 -1.8893641e-01
  9.6816325e-01
 -2.8817967e-02
 -8.0101961e-01
  1.7080371e-01
 -2.7752146e-01
 -5.4626113e-01
 -8.6402759e-02
 -5.9094951e-02
  5.5880964e-01
  9.4903809e-01
  5.5576068e-01
  7.4888498e-01
 -1.1615436e+00
 -6.1867613e-01
 -3.4593463e-01
 -1.7291251e-01
 -3.4113079e-02
  1.5232517e+00
 -2.7678862e+00
 -9.9842399e-01
  3.4226099e-01
 -1.9172194e+00
  1.2944670e+00
 -3.9072865e-01
 -1.1361551e+00
 -1.0958117e+00
 -9.7651637e-01
  5.5877752e+00
  7.4544293e-01
  3.2475400e+00
 -2.8977835e-01
  2.0258846e+00
 -2.8123863e+00
 -1.2759595e+00
 -7.5997370e-01
  2.2209983e+00
 -1.6096480e-01
  6.1808300e-01
 -8.4630728e-01
 -7.8947112e-02
  5.1439434e-01
  1.1679316e+00
 -3.0959252e-01
 -1.1826026e+00
 -5.9925711e-01
 -1.2788360e+00
  1.8457549e-02
  1.8743645e-02
  1.4238268e+00
 -2.8251976e-01
 -3.7750641e-01
  4.3496642e+00
 -2.7491646e+00
 -1.3305531e-01
  4.8681636e+00
  4.6153805e-01
  3.1261048e-01
 -1.5151689e+00
 -1.7969894e-01
  2.1606992e-01
 -1.1934289e+00
 -8.8932824e-01
 -1.7547796e+00
 -1.6241786e+00
  5.4295406e-02
 -2.1629894e+00
  3.3175426e+00
 -9.6037084e-01
 -4.8310211e-01
 -1.7704889e-01
 -1.8080921e+00
  6.3545191e-01
 -4.2029800e+00
 -4.7851533e-01
  5.5237401e-01
 -2.8284712e+00
 -3.5381908e+00
 -9.2289037e-01
  2.6041755e-01
  1.2934501e+00
  1.2039982e+00
  1.0742887e+00
 -2.4453939e-01
 -2.5089562e-01
  1.0344620e+00
 -1.6673731e+00
  8.2618356e-02
 -4.9152404e-01
  1.4111414e+00
  4.3669540e-02
  1.0618984e+00
 -5.0272685e-01
  1.0713228e+00
 -4.5707524e-01
  7.8261691e-01
 -1.0395023e-01
  2.0818844e+00
 -2.8558476e+00
 -6.9940650e-01
 -5.6932372e-01
  4.1334540e-01
  5.4591602e-01
 -7.7598786e-01
 -2.0968640e-01
 -5.1899964e-01
  3.6036491e+00
 -6.3007861e-01
  8.4249580e-01
  2.3311257e-01
 -4.8801064e-01
  1.8896279e+00
  8.7173063e-01
  7.9357374e-01
  9.8460758e-01
  1.0174923e+00
 -9.6066868e-01
  3.6404839e+00
 -1.3047835e-01
  9.1969305e-01
  3.3089882e-01
  3.0519626e+00
 -4.0793686e+00
 -6.2411416e-01
 -1.6632050e+00
 -1.2091260e+00
  1.3710788e+00
  1.0467499e+00
 -1.0610923e+00
 -5.7670200e-01
 -4.7641233e-01
  1.8798618e+00
 -1.0517037e+00
 -2.0164115e+00
 -2.0154972e+00
 -1.3297906e+00
 -3.3322997e+00
 -3.8021390e+00
 -5.8650684e+00
 -1.3111898e-01
  9.7345722e-01
  1.6542025e+00
 -3.0403886e+00
 -6.1274209e+00
 -2.4299216e+00
  1.5160112e+00
 -1.3356563e+00
 -6.6708440e-01
 -6.5898782e-01
 -9.6620184e-01
 -2.5576249e-01
  3.0764174e+00
 -7.6481694e-01
  7.8801006e-01
  3.8925728e-01
  2.5006300e-01
  2.8663182e+00
  1.4231396e+00
  1.7191008e+00
 -2.2153247e-02
 -7.9416573e-01
  1.4081615e+00
  5.9223741e-01
  1.0573889e+00
  1.4719242e+00
 -3.3265233e-01
 -8.0886668e-01
  1.5136628e+00
  4.8388749e-01
  3.3178265e+00
  2.6574333e+00
 -2.2514147e-01
 -1.1920199e+00
 -1.2163347e+00
 -1.6694578e+00
  2.3705785e+00
 -7.8124398e-01
 -1.8311109e-01
 -2.9397032e+00
 -3.7808156e-01
  9.4399148e-01
  1.3623683e+00
  1.0696453e+00
  2.9715350e-01
 -8.6965299e-01
 -6.3913268e-01
 -2.7478865e-01
 -1.3737714e-01
 -2.5035986e-01
 -5.4871440e-01
  6.5084291e-01
 -5.4890748e-02
 -3.9403144e-01
 -2.0498865e+00
 -1.8738996e+00
  2.0495071e+00
 -1.4619856e+00
 -9.0795076e-01
  1.4019107e+00
  3.9469892e-01
  1.6873541e-01
  2.5291004e+00
  1.5343440e+00
  6.1776191e-01
 -1.0341705e-01
  1.2743869e-01
  2.1430471e+00
 -7.6242644e-01
  1.2449217e+00
 -9.0248966e-01
  1.5446229e+00
 -8.1637204e-01
 -2.4211893e+00
 -1.2079573e+00
  9.2493266e-01
 -2.0238400e+00
  1.6744995e+00
 -5.8103719e+00
 -5.3328121e-01
 -3.2897371e-01
 -7.7474318e+00
 -3.7104208e-03
 -4.2664438e-01
  1.0967903e+00
 -1.0898240e-01
  6.4097270e-02
 -5.1971126e-01
 -1.1871979e+00
  7.7589077e-01
  3.2098347e-01
  1.6826153e+00
 -1.0658588e+00
 -2.8891075e+00
  8.8631934e-01
  2.1250465e+00
 -6.2178469e-01
  2.6016161e-01
 -1.7384559e+00
 -5.8827543e-01
  5.5408424e-01
 -3.8005859e-01
 -3.0439560e+00
 -4.3794516e-01
  8.5802376e-01
  1.7436609e+00
  4.7514524e+00
 -2.6966999e+00
 -2.7294838e+00
  9.2369926e-01
  1.2299440e+00
  7.6491058e-02
 -7.9677385e-01
  3.4567609e-01
 -1.6255467e-01
 -1.2330641e+00
  1.0786381e+00
  1.4249814e+00
 -4.5639694e-01
  4.2661351e-01
  4.3520126e-01
  2.3351621e-02
 -1.6803528e+00
 -1.3583598e+00
  1.6176593e+00
  1.5264682e+00
  2.5975173e+00
  1.5600766e+00
 -3.7951727e+00
  6.5358305e-01
  3.2629323e+00
 -1.4580902e+00
  7.4897462e-01
 -2.6816115e+00
  6.9689667e-01
  9.4228023e-01
 -2.4353683e+00
  1.5569122e+00
 -1.4893106e+00
  1.1588306e+00
  3.4602220e+00
  1.1635622e+00
  1.0139945e+00
 -2.4977469e-01
  7.2960532e-01
 -2.0527487e+00
 -1.2869443e+00
 -2.6119397e+00
 -6.3819313e-01
 -2.2222392e-01
  3.6018589e-01
  2.4345671e-01
  6.0862136e-01
 -4.4275885e-03
 -6.1407955e-03
  3.5576421e-01
  2.9593569e-01
 -1.0766588e+00
  1.6435578e-01
 -1.1340098e-01
 -7.6428574e-01
 -1.2207450e-01
 -4.0720204e-01
 -2.3161018e-01
 -1.0511759e-01
  6.2339044e-01
 -2.2221287e-01
 -4.8769161e-01
  1.0509796e-01
 -4.6879843e-01
  7.1509516e-01
 -1.1541730e+00
 -3.4614820e-02
 -6.5258366e-01
 -6.9914693e-01
  1.3125205e+00
 -8.6454499e-01
  6.4077419e-01
  8.7658085e-02
 -1.4678757e+00
  2.8754306e-01
 -9.9798572e-01
  1.1817647e-01
  6.1824077e-01
  2.8544465e-01
  3.0431056e-01
 -1.7769457e-01
  1.5918702e-01
 -2.0763919e+00
 -8.7568355e-01
  8.2861954e-01
 -4.5488632e-01
 -1.4218959e+00
  8.1544125e-01
 -2.6327758e+00
  3.1429413e-01
  6.4081454e-01
  1.5522975e+00
 -1.3517783e+00
  6.9941111e-02
  2.8396854e-01
 -8.3715039e-01
 -3.5760269e-01
 -2.6256052e-01
 -2.6982766e-01
 -1.2259448e+00
 -1.9568330e+00
 -1.4534532e+00
 -3.4539694e-01
 -3.2867888e-01
 -1.9584736e+00
  7.7746236e-01
  1.4884315e-01
 -2.2413590e+00
 -7.1227181e-01
 -4.0559712e-01
 -4.3161452e-01
 -7.9165436e-02
 -1.2876261e+00
 -1.0068867e+00
 -1.9610411e+00
 -1.4805070e+00
 -6.9406754e-01
  1.0684446e+00
  1.9650133e-01
  1.1352003e+00
  1.0320178e+00
 -1.4412600e+00
  2.2907019e+00
  2.3577672e-01
 -4.0284190e+00
 -6.4404100e-01
 -7.1202421e-01
  5.0694031e-01
  2.7508068e+00
 -1.0802952e+00
  2.2465069e+00
  2.2582831e+00
 -1.3462374e-01
  1.7141503e+00
 -1.4633783e+00
 -3.0271024e-01
  3.1644220e+00
 -2.8712881e+00
  2.2141592e-01
 -1.4243268e+00
  6.3027155e-01
  1.8711405e+00
 -4.0741205e+00
  1.2858833e+00
 -1.6604519e-01
  2.5684352e+00
 -5.2289480e-01
  3.3246410e-01
  1.5095134e+00
 -4.1012864e+00
 -1.4699082e+00
  5.3036141e-01
  4.2973259e-01
 -8.3704799e-01
  2.3146896e+00
  2.8229371e-01
 -1.7710896e+00
  9.4153631e-01
  5.2984295e+00
 -2.2136168e-01
 -2.2307336e+00
 -1.3993464e+00
  2.5721972e+00
 -2.4408338e+00
  1.6827112e+00
  7.5201905e-01
  3.1612444e-01
  3.4838089e-01
  1.9298378e+00
  2.2146652e+00
  2.5549600e-01
 -1.0908971e+00
  3.1413364e+00
  1.4687231e+00
  1.7216266e+00
 -8.6080618e-02
 -1.4076939e-01
  4.6636086e+00
  2.9365880e+00
  6.6174383e+00
  9.6390617e-01
 -4.4742346e-01
  9.4172782e-01
  1.1028825e-01
 -3.7862340e-01
  1.7412324e+00
 -1.0004113e+00
  3.1082752e-01
  2.3348814e-01
 -8.3272862e-01
  5.2771336e-01
  8.2251656e-01
  3.6106148e-01
 -2.9117244e-01
 -4.1448894e+00
  1.5484298e+00
  6.0449439e-01
 -7.4853730e-01
  8.4570026e-01
  1.1887272e-01
 -6.3015449e-01
  6.6398919e-01
 -1.0683587e-01
 -9.1597360e-01
 -5.8095026e+00
 -2.6624352e-01
  1.4797568e+00
 -1.2552104e+00
 -2.2474489e+00
 -6.3241786e-01
 -1.0542098e-01
 -2.9558830e+00
 -1.8446032e+00
  1.6634324e+00
 -5.7367730e+00
 -1.5422554e-01
  3.9861807e-01
  6.1576582e-02
 -2.8049806e-02
 -1.8109493e+00
  3.2047787e-01
  2.9108834e-01
  2.0405827e+00
  2.4511674e-01
  7.9494154e-01
 -6.2595926e-02
 -3.0164701e-01
  2.7494109e+00
  5.9655147e+00
  2.0599301e+00
 -4.0063776e-02
 -1.3973820e+00
 -3.8107369e+00
  1.6305130e+00
 -2.6467049e-01
  1.0576930e+00
  7.8617609e-01
  2.2620704e+00
 -8.9458460e-01
  6.3965756e-01
  2.2194905e+00
  1.3035032e+00
  2.5960150e+00
  4.3479552e+00
 -1.8682702e+00
  1.2200538e+00
  8.5791820e-01
  2.9264097e+00
  3.0446849e+00
 -6.0162222e-01
  2.3163867e+00
  8.9293152e-01
 -5.6368929e-01
  7.2860390e-01
  4.4131109e-01
  1.3960471e+00
 -4.7779471e-01
 -2.3070851e-01
  8.7810212e-01
  6.1708586e-03
 -2.1525899e-01
 -1.5920565e+00
  5.6056132e+00
 -1.1958020e+00
 -1.0656962e+00
  5.1827711e-01
  1.2313461e+00
  1.2392565e+00
  1.1434880e-01
  2.8826600e-01
  3.0844045e-01
  1.3595552e+00
  1.5571131e+00
 -1.7666868e+00
 -3.8349515e-01
 -1.4928702e+00
 -4.9960685e-01
  1.9807950e+00
  6.6531867e-01
 -3.7251380e-01
 -1.3161559e+00
 -7.8510982e-01
  2.8242888e+00
  3.7722430e-01
  6.1093521e-01
 -2.8070035e+00
 -2.4844329e+00
  4.3626366e+00
  1.1913668e+00
 -5.6202298e-01
  1.3734185e+00
 -2.0803826e+00
  2.2325152e-01
  1.5072690e+00
 -7.3838258e-01
 -4.0828657e+00
  1.5764776e+00
 -2.9697556e+00
 -2.3491669e+00
 -1.0696657e+00
  2.6114478e+00
  1.0231138e+00
  1.3478416e+00
  8.2605475e-01
 -7.0955020e-01
  7.7042216e-01
  1.4525248e+00
 -1.4310418e+00
  7.0186418e-01
  8.3026069e-01
  1.0231398e+00
  2.8380084e-01
 -9.7832036e-01
 -1.4457662e+00
  3.2286766e+00
  2.0105257e+00
 -1.2758742e-01
 -6.3644278e-01
  1.1495306e+00
 -1.4941006e+00
 -5.3545856e-01
  2.6697516e-01
  1.0998110e+00
  6.3560277e-01
 -8.8110067e-02
  2.2939219e-01
 -4.3025199e-01
  1.3694279e-01
 -1.6065011e+00
 -8.6288162e-02
 -1.3834565e+00
  7.6948321e-01
 -3.4720476e+00
 -1.0552416e+00
 -3.3170485e+00
 -3.7147083e+00
 -1.7718356e+00
 -1.8080938e+00
  2.4966879e+00
  3.1279283e+00
 -2.9793167e-01
 -1.5875262e+00
  5.7658607e-01
 -4.3918392e-01
  7.1692842e-01
 -5.0644308e-01
  1.8508618e-01
  8.2214028e-02
 -2.9635704e+00
  5.4291397e-01
  9.3248010e-01
 -1.8050116e+00
  4.4089118e-01
 -4.1642341e-01
  7.7003521e-01
  9.3444443e-01
 -7.8059344e+00
 -5.8764881e-01
  2.2220463e-01
  1.9224076e+00
 -1.4590949e+00
  2.9789245e-01
 -3.2200768e+00
  1.0142518e+00
  2.1427570e-01
  3.9204431e-01
 -1.3787388e+00
 -8.3159500e-01
 -2.1696010e+00
  8.1377250e-01
  3.8074699e-01
 -8.5079139e-01
 -3.3822730e+00
 -2.3992953e+00
  5.6009412e-01
 -2.1149931e+00
  6.3760936e-01
 -1.5509791e+00
 -2.8988659e-01
 -6.6866136e-01
 -4.6185441e+00
 -5.2967632e-01
 -1.6494261e+00
 -1.4933873e+00
 -2.2920512e-01
 -5.2121229e+00
  4.6757880e-01
 -2.2764354e+00
 -4.3296951e-01
 -1.5214369e-01
 -3.4915786e+00
  6.0119438e-01
  4.3917184e+00
 -2.3555160e-01
 -4.3602052e-01
 -4.7683051e-01
  2.7927141e+00
 -2.3873696e-01
  1.6459810e+00
 -1.4643379e+00
 -4.4885221e-01
 -1.2785188e+00
  1.3885695e+00
 -9.4874330e-02
  8.8773364e-01
  9.4100815e-01
 -3.9553741e-01
  8.4300697e-01
 -9.6333998e-01
  6.4631706e-01
 -7.3827410e-01
 -4.8520628e-01
 -6.7880255e-01
 -8.6654723e-01
  6.3911432e-01
 -1.9093585e-01
 -2.6084030e-01
  1.3270673e+00
 -6.5733209e-02
 -2.2737801e-02
 -7.1701622e-01
  1.8463005e-01
 -1.1017728e+00
 -3.4528774e-01
 -3.4301810e-02
  4.2030817e-01
  7.2798824e-01
  8.7139207e-01
 -2.2293079e+00
 -8.0063039e-01
  5.6104833e-01
 -2.8254905e-01
 -7.4515909e-01
 -1.6407832e+00
 -9.7114229e-01
  1.2861066e+00
 -2.5468476e+00
 -3.2377822e+00
 -7.4503106e-01
  5.9247690e-01
 -1.7458469e+00
  7.9613626e-01
 -2.0636766e+00
 -3.8414025e-01
  3.1585708e-01
  4.8795652e-01
  3.3974550e+00
  8.7353516e-01
  1.4200861e+00
 -1.9531599e+00
  1.2077008e+00
  3.7511408e-01
  2.7796149e+00
 -2.1970215e+00
  2.8750765e+00
  1.6427752e+00
  2.3279617e+00
  2.0252154e+00
 -1.5242664e+00
 -1.7621280e+00
  2.7125096e+00
  3.0635040e+00
  5.5849689e-01
  5.0131708e-01
  1.3535562e+00
  7.1359795e-01
 -4.9213102e-01
 -2.6141611e-01
 -5.0592357e-01
  2.9556641e-02
 -5.7660079e+00
  4.3846600e-02
  3.6921806e+00
 -1.3494463e+00
 -3.2010727e+00
  4.2348361e+00
 -7.2959095e-01
 -1.4069004e+00
 -1.3506023e+00
 -1.6237447e+00
  1.2928791e+00
  1.5484676e+00
 -6.6558808e-01
  1.1650296e+00
 -2.2015917e+00
  7.3281533e-01
 -4.0027708e-01
  4.8214358e-01
 -1.2042092e+00
 -2.3176682e+00
 -1.1238312e+00
  2.9431467e+00
  1.0947413e+00
  3.6775559e-01
 -1.8193846e+00
  2.2282296e-01
  7.0152313e-01
  2.6343122e-01
 -9.6918374e-01
 -1.3414325e+00
  6.3696408e-01
 -1.1908486e+00
 -3.2685280e+00
 -8.8435531e-01
  9.9676061e-01
  4.4392091e-01
  3.1916490e+00
  2.9775667e+00
  1.1541398e+00
 -8.6236852e-01
  1.5284736e+00
 -6.2722105e-01
 -1.1359637e+00
 -1.1897105e+00
 -5.5459213e-01
  1.3284895e+00
 -1.9786710e-01
 -2.0048191e-01
  9.6530122e-01
 -1.8764168e-02
  8.6422402e-01
  1.4139502e+00
  1.0860227e+00
  5.0880473e-02
 -5.9119272e-01
 -1.8844023e+00
  2.1630052e-01
  1.2691082e-01
 -2.6322907e-01
  1.6243045e+00
  1.1282159e+00
 -1.8576591e-01
  1.9281610e+00
  1.0308993e+00
  3.8882712e-01
 -7.8531575e-01
  2.4768524e-03
 -8.5210985e-01
  1.4736385e+00
 -5.3995895e+00
 -1.3076116e+00
  1.7879869e-01
 -6.7522460e-01
 -4.9858408e+00
 -1.2552817e+00
 -7.2396612e-01
 -7.2276813e-01
  1.7623544e+00
  3.6703104e-01
  8.9506936e-01
  8.1906587e-01
  1.2029632e+00
 -1.3022958e+00
  2.8650239e-01
  1.5055139e+00
 -2.2733669e+00
 -1.2283714e+00
 -9.2079788e-01
 -2.4211097e+00
  1.0206535e+00
 -1.9600981e+00
 -3.4501585e-01
 -5.7024413e-01
 -1.3179274e+00
  4.6996072e-01
  5.6226891e-01
  1.9092479e+00
  9.5074999e-01
 -3.7794033e-01
  7.6982069e-01
 -3.2171438e+00
 -8.3227682e-01
 -1.0198916e+00
  9.8198617e-01
  5.0172168e-01
  1.5179207e+00
 -1.4069903e+00
 -1.3792175e-01
 -2.3125536e+00
 -1.0203779e+00
  1.1457006e+00
  8.2734054e-01
 -2.5655240e-01
 -9.7750448e-02
  9.9720240e-01
 -5.3994101e-01
  8.8882393e-01
  9.0237159e-01
 -2.1409836e+00
  1.0087272e+00
  5.3398746e-01
 -1.4968020e+00
 -1.2406504e+00
 -1.5223364e+00
  3.1904462e-01
 -4.4078732e-01
 -5.2744353e-01
 -1.1960254e+00
 -4.0856921e-03
 -6.6732234e-01
  8.1436515e-01
 -1.3734961e+00
  6.6954494e-01
  7.8066927e-01
 -4.2454135e-02
 -4.7569063e-01
 -5.7609159e-01
  6.5848094e-01
  1.5248879e+00
 -8.8893145e-01
 -1.2162628e+00
  1.9800384e+00
  2.1222827e+00
  2.7790620e+00
 -1.3610320e+00
  2.2947504e-01
 -5.5199021e-01
 -6.0121918e-01
 -2.4370191e+00
  4.1287780e+00
  2.4684511e-01
 -3.0459648e-01
  1.3488187e+00
 -1.4427414e+00
  5.4333335e-01
 -4.6068215e-01
 -6.7864621e-01
  4.6307930e-01
  1.1955341e+00
 -2.0208442e+00
  2.8794439e+00
  1.8386791e+00
  1.0418189e+00
  1.3889956e+00
  3.2770577e-01
  1.9832717e+00
  4.6562307e-02
 -8.6649609e-01
 -1.4661870e+00
 -3.1582871e-01
 -7.2322077e-01
 -7.3981345e-01
  9.2996633e-01
  1.0886060e+00
  6.4823532e-01
 -2.4575128e-01
 -1.5411570e+00
 -4.8215210e-01
  9.6821672e-01
 -1.4054748e-01
 -1.8242139e+00
 -5.7422531e-01
 -2.8845595e-02
  3.9404232e-02
  1.2987640e+00
  6.1248571e-01
  1.1410491e+00
  1.2063056e+00
 -3.9793789e-01
  4.0201938e-01
  1.5161922e-03
  1.7666881e+00
 -3.5365902e-02
  9.9402094e-01
 -1.2611333e+00
 -7.6677668e-01
 -3.8635150e-01
 -1.1042247e+00
  3.9678829e+00
  1.0470816e+00
  3.0516267e-01
 -1.2979836e+00
 -3.3336636e-01
  3.1244743e-01
 -5.9261864e-01
  1.1081545e+00
  6.5210986e-01
 -6.8024135e-01
 -1.4910972e+00
  5.3576493e-01
 -1.0255436e+00
  2.3012700e+00
 -1.1031702e+01
 -1.3750633e+00
  6.0168123e+00
 -3.9542062e+00
 -3.0100787e+00
 -3.6984076e+00
 -1.0533898e+00
 -2.2309396e+00
 -2.1120067e+00
 -1.6213503e+00
 -3.4730659e+00
  1.6014488e+00
 -1.9589770e-01
 -8.0187416e-01
 -2.6435118e+00
 -2.8063328e+00
 -3.5624554e+00
 -2.1514850e+00
 -8.7594438e-01
  1.3416032e-01
 -3.5693016e+00
 -1.1929350e+00
 -1.2962557e+00
 -2.5191011e+00
  2.8016815e+00
 -1.0297370e+00
  7.0313819e-02
  3.4175396e-01
  4.6249500e-01
 -7.6065689e-01
 -1.9099219e+00
  1.8309381e+00
  1.4927934e+00
 -4.6601015e-01
 -3.0005913e+00
 -2.2863410e+00
 -1.9361477e+00
  2.2640138e+00
  8.0919236e-01
  1.1634617e+00
 -8.5863423e-01
  1.5188755e-01
 -6.2187958e-01
 -5.7357758e-01
 -1.2111893e+00
 -2.2147663e-01
 -1.8911642e-01
 -2.1376170e-01
  1.0381949e+00
 -1.3473509e-01
  8.7651503e-01
 -1.8698174e-01
 -1.2410583e+00
 -2.8730261e-01
 -2.9159197e-01
  1.5037427e-02
  3.5209402e-01
  3.2041614e+00
  4.7994149e-01
 -4.7083148e-01
 -1.0358898e-01
 -6.1222500e-01
  1.8275291e-01
  2.7590489e-01
 -4.6040934e-01
  2.2161573e-01
 -6.0035628e-01
  1.5319804e+00
  4.4084877e-01
  1.0124482e+00
 -3.7707360e+00
 -4.3305669e+00
 -3.6325041e-02
  3.4348416e+00
 -6.6959333e-01
 -1.5838267e-01
 -8.4706146e-01
 -2.4010707e-01
  1.4865501e-01
  6.7202842e-01
 -2.2768868e-02
  1.8639532e-01
 -8.6656046e-01
 -5.2824306e-01
 -2.4811669e-01
  9.6157771e-01
 -2.3114397e-01
 -7.7437860e-01
 -3.6330429e-01
 -6.0837632e-01
  9.7501785e-02
 -1.4558282e+00
 -8.2934827e-01
 -8.7454379e-01
  8.3888865e-01
 -5.6001711e-01
 -9.9739766e-01
  4.1091669e-01
 -4.2979658e-02
  1.9011997e-01
 -4.1912791e-01
  1.9618541e+00
 -3.8566411e-01
  8.0725235e-01
 -3.6979228e-01
  9.2433942e-03
  1.0643954e+00
  1.0437448e+00
 -4.0650669e-01
 -5.8804291e-01
 -3.4565422e-01
  6.7894146e-02
  1.8418404e-01
 -2.1274025e+00
 -1.0855851e+00
  1.8038290e+00
  2.6608448e+00
  2.5192335e-01
 -9.8121315e-01
  5.7103449e-01
 -1.1735728e-01
  4.7362730e-01
  3.8224465e-01
  6.9586480e-01
  2.1303773e+00
  7.0153707e-01
 -1.9680205e-01
  4.6750400e-02
  2.2841932e-01
  1.1913060e+00
  1.3839838e-01
  1.5196491e+00
 -8.4851426e-01
  3.4554973e+00
 -1.3389425e+00
  2.1864201e-01
  2.2171369e+00
  1.0695283e+00
 -1.4191443e-01
  9.2985177e-01
  1.2720793e+00
 -2.3358974e+00
  1.1445396e-01
 -1.1898923e-01
 -1.2210295e+00
 -1.9416293e+00
 -7.9441911e-01
 -2.3122089e+00
  1.5832788e+00
 -5.7645535e-01
 -1.6787409e+00
 -7.5806427e-01
  1.2866540e+00
  8.3406276e-01
  3.4902084e-01
 -3.2204945e+00
  7.2039902e-01
 -9.8353064e-01
  1.3166553e+00
 -2.0869801e+00
 -1.3901008e+00
  2.0174100e+00
 -2.1617670e+00
  1.4381406e+00
  5.7882792e-01
  1.0821449e+00
  1.1596327e-01
  1.9815677e-01
  1.6085904e+00
 -4.6027884e-02
  6.2172264e-02
  1.9002220e-02
 -7.3903167e-01
  1.8536589e+00
 -6.5361410e-01
  3.7687439e-01
 -2.2646468e+00
  1.2896135e-01
 -1.8871442e+00
  9.1533089e-01
  1.8480991e+00
 -1.5723528e+00
 -5.2464767e+00
  4.5774776e-01
  2.0239997e+00
 -2.8238055e-01
 -6.4731382e-02
  7.1747524e-01
  5.2271122e-01
  2.5667002e+00
 -7.5131959e-01
 -2.8444791e-01
 -2.0682904e-01
  5.7075953e-01
 -1.8587509e-01
  4.2969632e-01
 -3.7013545e+00
 -2.8766699e+00
 -5.9817237e-01
  6.0665518e-01
 -3.1960461e-01
 -8.2553422e-01
  5.0420040e-01
  1.0596416e+00
 -6.0231960e-01
  1.7684842e+00
 -2.2851576e-01
  1.2990105e+00
  4.3702383e+00
  3.6317470e+00
  4.4665165e+00
  3.2666335e+00
  1.7994662e-01
 -1.9412986e+00
 -6.8148726e-01
 -4.3929422e-01
  1.5266933e-02
  5.4873639e-01
  3.8989212e-02
  9.6786618e-02
  1.6938989e-01
  1.4981179e+00
  1.1475521e+00
  8.2986474e-01
  1.1069292e+00
  5.2791834e-01
  1.2729228e+00
  6.4448279e-01
  2.1720675e-01
  5.4396611e-01
 -8.4862566e-01
 -6.1912268e-01
  9.9357581e-01
 -1.4126748e+00
  7.9090840e-01
  5.0809866e-01
  5.4137331e-01
 -4.1209092e+00
 -1.8988093e+00
  1.0728697e+00
  1.2048714e+00
 -8.1642956e-02
 -1.3089341e+00
 -1.5260686e-01
  7.5152081e-01
 -8.4299204e-04
  1.7520912e+00
  1.3614568e+00
  2.2647931e-01
 -7.4307752e-01
  2.5524342e+00
 -1.1245194e-01
 -3.4078345e+00
 -8.0900085e-01
  1.1327777e+00
 -5.4547012e-01
 -2.8645554e-01
 -3.6409646e-01
 -1.3390622e+00
 -2.9674551e-01
 -9.3314457e-01
  1.3118840e+00
  7.0059329e-01
 -4.7239098e-01
  1.4436756e+00
 -1.0822205e-01
  1.4000608e+00
  4.9229231e-01
  2.6099625e-01
 -3.3483511e-01
  1.7118165e+00
  1.1275981e-01
  4.0784180e-01
 -4.1497818e-01
 -6.8067986e-01
 -9.9964327e-01
  1.9031720e+00
  2.0887823e+00
 -1.3990700e-01
 -1.3695126e+00
 -8.9893949e-01
 -9.0017265e-01
 -1.8394542e+00
 -8.1187850e-01
 -5.5388910e-01
 -5.1348692e-01
 -6.8572986e-01
 -4.7325990e-01
 -1.0312146e+00
 -4.8790443e-01
 -2.0298872e+00
  3.4959981e+00
 -1.3439848e+00
 -3.4366457e+00
 -3.1309166e+00
  1.4665362e+00
  1.8186608e-01
 -2.6645522e+00
 -3.3812165e+00
 -6.9716263e-01
 -5.4875857e-01
  1.7850202e+00
  1.7801744e+00
  9.9177247e-01
  1.4476811e+00
  2.7892582e+00
  8.3576582e-02
 -2.7626714e-01
 -3.5675520e-01
 -2.1765592e+00
  8.9900041e-01
 -7.7657807e-01
  2.4826219e+00
 -3.1897318e-01
  2.2351403e+00
  4.8405573e-01
 -1.1105732e+00
 -2.5587139e-01
 -6.9607645e-01
  8.8070132e-02
  7.8481621e-01
 -5.0197792e+00
 -7.7966350e-01
 -2.5485110e-01
  1.0571440e+00
 -5.8837324e-01
  7.1520591e-01
 -8.6705917e-01
 -2.3704808e+00
  1.2626784e+00
  8.1834936e-01
  1.6037403e+00
  7.6706809e-01
 -1.1969806e-01
 -1.6103072e-01
 -6.9176251e-01
 -3.6572132e-01
  1.3375239e+00
  2.6618032e+00
  9.0878975e-01
 -2.5390511e+00
 -1.4057330e+00
 -1.2839817e+00
  1.4199339e+00
 -1.1703956e+00
  2.0182741e+00
 -6.8223906e-01
 -2.0830367e+00
 -2.7837586e+00
  1.4655073e+00
  3.5047138e+00
 -7.3986620e-01
 -2.3394835e+00
 -1.9973253e+00
  1.3928021e+00
  9.2342567e-01
  1.4808954e+00
  4.6637816e+00
  2.1661956e+00
  1.3228158e+00
  6.0790664e-01
  4.9263877e-01
 -6.6478324e-01
  1.4218620e+00
 -1.8902580e-01
 -5.3584301e-01
  4.2290321e-01
 -2.3278229e+00
 -6.6439205e-01
  2.7501827e-01
  2.7384257e-01
 -2.8122559e+00
 -2.9109564e-01
  1.9472661e+00
  9.2571545e-01
  1.9315378e-01
 -3.9297810e-01
  2.0529821e+00
 -5.2072293e-01
 -2.4945511e-01
  1.2613134e+00
 -1.4563525e-01
 -2.4540520e+00
 -2.5152180e-01
 -1.9685706e-01
 -3.0121093e+00
  1.2682146e-01
  2.5973588e-01
  1.0157609e+00
 -8.8404918e-01
 -9.8935068e-01
 -3.1182554e-01
 -3.8692179e-01
  3.7578103e-01
 -8.0493259e-01
 -5.0902531e-02
  1.3150502e+00
  5.8228767e-01
  3.4882101e-01
  6.8913931e-01
 -1.9877790e-01
  1.1229134e+00
  1.1648660e+00
  2.2032550e-02
 -5.7264525e-01
  6.0881495e-01
 -8.4779519e-01
 -6.7904018e-02
 -6.1323828e-01
  1.3044527e+00
  8.1652677e-01
 -1.4596590e+00
 -6.1684090e-01
  5.2724178e-03
 -3.7524827e-02
  1.2954998e+00
 -2.1542354e+00
  1.0845675e+00
  6.7789060e-01
 -1.2195253e+00
 -1.1515824e+00
  2.6528695e-01
 -2.5485127e+00
 -1.9853112e-01
  1.2482183e+00
 -1.6679354e+00
  3.0229232e-01
 -5.6022418e-01
 -3.0291808e-01
  1.5941172e+00
 -2.3052289e-01
  1.1555613e+00
 -7.4614656e-01
  9.8167233e-02
 -7.5368702e-02
  9.6412629e-01
 -1.4782403e+00
  2.2112701e+00
  5.5656469e-01
 -2.2965895e-02
  3.0093169e+00
 -4.6139770e+00
  4.1517515e+00
 -2.7837949e+00
  4.9104708e-01
  2.0533385e+00
  8.5443258e-01
  1.2159394e+00
 -1.1900328e+00
 -4.0996054e-01
  3.6892433e+00
  1.0567522e+00
 -1.2991621e+00
 -1.7502069e+00
  2.7490880e+00
 -1.4693253e+00
  3.9112338e-01
  4.1099921e-01
  6.9483811e-01
  1.4944183e+00
  1.8561443e+00
  1.2736598e+00
  6.2277693e-01
  7.9199612e-01
  2.7720902e+00
  1.1297787e+00
  8.4034932e-01
 -2.0656729e+00
 -1.0647008e-01
 -2.9230924e+00
 -3.9153007e-01
  1.1369829e+00
 -1.1478852e+00
 -1.1135037e+00
  7.4069202e-01
 -5.4142082e-01
  2.6124489e-01
  2.1967201e-02
 -5.8910530e-02
 -7.5492370e-01
 -1.6224847e+00
 -3.4444535e-01
 -2.5191782e+00
 -6.2714644e-02
  5.5429161e-01
 -4.1244063e+00
 -6.4780933e-01
 -1.1807446e+00
  7.4058568e-01
 -2.9622772e-01
  4.5346808e-01
  8.8418692e-02
  1.2530940e+00
 -2.2614586e+00
  1.1607556e+00
 -1.1125294e+00
  1.0530124e+00
  2.6020868e+00
 -2.7860650e-01
  1.8524915e-01
  8.8071346e-01
  2.8462681e-01
 -1.6221234e+00
 -3.1212604e-01
 -2.3719102e-01
 -9.9829555e-01
  8.7492198e-01
 -5.5550408e-01
 -6.2124640e-01
  1.5673479e-01
  2.1567757e+00
 -3.9009321e-01
  6.6068834e-01
 -4.1457501e-01
 -2.6014349e-01
 -2.7643201e-01
  1.5651169e+00
 -1.2985891e+00
  4.1086822e+00
 -1.7631963e-01
  6.4871854e-01
 -2.3623884e+00
 -1.6756564e+00
 -2.8987071e-01
 -1.9001199e+00
  1.6828004e+00
  3.9132243e-01
 -8.9423436e-01
  7.0246768e-01
  7.1469292e-02
 -4.0234268e-01
  7.8784561e-01
 -1.7453824e+00
  7.1588755e-01
  4.1374654e-01
  1.2668725e+00
  1.0160130e+00
  8.9890510e-02
  1.2492589e+00
 -2.5785866e+00
 -1.3294053e-01
 -1.8957469e+00
  1.9754486e+00
 -2.7015081e-01
  1.2240130e-01
 -2.7176538e+00
 -1.7153478e+00
  5.4774380e-01
 -4.2606434e-01
 -4.0469751e-01
  3.2567662e-01
  1.8727799e-01
  1.9510660e-02
  3.1716835e-01
  1.6209035e-01
  1.3988037e+00
  1.0959120e-01
 -2.0613030e-01
 -2.1718343e-01
  1.7590104e-01
  3.2946263e-02
 -1.5465244e+00
 -2.7195311e-01
 -8.7024009e-01
 -5.4109150e-01
 -2.0225140e-01
  2.1542183e-01
  5.9217322e-01
  1.2417706e-01
  4.1669384e-01
 -9.9566853e-01
 -4.2049535e-02
  1.1580670e+00
  1.0585850e+00
  3.5833612e-01
 -5.3781652e-01
  1.7038587e+00
 -6.3952601e-01
  4.7065649e+00
  4.9454859e-01
  1.2912402e+00
 -4.0496764e+00
  1.3204361e+00
  1.4923344e+00
 -1.4678711e+00
  2.6568589e-01
 -7.0472263e-02
  2.5383946e-01
  1.5635568e-01
  7.9979591e-02
  3.2379135e-01
 -2.6749545e-01
  7.6674986e-01
  4.3440446e-01
  2.4722733e+00
  2.4509892e+00
 -2.2592957e+00
 -2.3412738e+00
  4.8919159e-01
  7.4168353e+00
 -1.6753551e-01
  1.9735363e+00
  3.9952779e-01
  3.8081425e-01
 -5.8955240e-01
  2.0102192e-01
  7.7707994e-01
  6.7464799e-01
  2.9618418e+00
 -1.3387264e-01
 -9.3523514e-01
 -2.7532646e-01
  3.3167791e+00
 -4.9376976e-01
 -1.4958625e+00
  9.4628984e-01
  1.9619629e+00
  1.2820470e+00
  1.0484837e+00
 -5.4792774e-01
  1.3635886e-01
 -4.3213663e-01
  3.7353900e-01
 -3.5775352e+00
  9.0308660e-01
  2.5968635e+00
  6.4225310e-01
 -1.2053779e+00
 -3.9080718e+00
  9.0799443e-02
 -1.9024436e-01
 -1.2472445e+00
  1.1555296e+00
 -2.0253258e+00
 -8.8110220e-01
 -1.3305935e+00
  8.9106101e-01
  1.7519712e+00
 -1.8279670e+00
  2.6045713e-01
 -9.5241614e-02
 -8.7671155e-01
  1.7514250e-01
  5.1006675e-01
  7.1576720e-01
  1.6548439e+00
  1.8765189e-02
  5.5500877e-01
 -7.1314621e-01
 -2.3296163e+00
 -1.0313419e+00
  5.5054599e-01
  2.1042807e+00
 -2.8808779e-01
 -1.4615588e-02
 -6.1872667e-01
  3.2614543e+00
  1.0389824e+00
 -1.7342930e+00
  2.2728763e+00
  1.0379828e+00
  5.6960148e-01
 -1.9720978e-01
 -7.8243554e-01
 -1.4734162e+00
  4.8576891e-01
  1.0738165e+00
  6.9749802e-01
 -7.8381354e-01
  1.8007197e+00
  1.1273973e+00
  1.2339287e+00
  7.9607183e-01
 -4.9845102e-01
  8.1646401e-01
 -1.8042092e+00
 -2.1479793e+00
  8.5482544e-01
  7.0209634e-01
  3.0428624e-01
 -5.1250046e-01
 -5.8026850e-01
 -9.5802993e-01
 -4.4080055e-01
 -8.0893111e-01
  8.4870142e-01
 -3.0032608e-01
 -4.8606351e-01
  2.7643485e+00
 -5.5543673e-01
 -9.0111965e-01
  3.5569218e-01
 -2.9391670e-01
  4.9464360e-01
 -7.6190084e-01
  1.5554705e+00
  8.4770465e-01
  8.4272343e-01
  1.3682967e+00
  2.0565794e+00
  9.7761381e-01
 -1.5724873e-02
  3.4136754e-01
 -3.6861312e-01
  1.6586674e+00
 -6.4331228e-01
 -1.0658811e+00
  1.7150979e+00
  1.3714355e+00
  6.4667571e-01
  1.6475184e+00
  1.6166514e-01
  2.6949808e-01
  7.9245108e-01
 -1.4671221e+00
  3.8030449e-01
  1.0180292e+00
 -3.1180727e-01
  8.2038039e-01
 -2.5335202e+00
 -1.5871172e+00
  3.9395237e+00
 -1.2352917e+00
  9.0704578e-01
  1.8523591e+00
  6.3044119e-01
  5.3041410e-02
  3.1372491e-01
  1.2975022e+00
 -6.4424479e-01
 -1.5267974e+00
  3.4508580e-01
  1.0586941e+00
 -1.4599495e+00
  1.2520161e+00
  3.1585068e-01
 -3.0274767e-01
  1.5755018e+00
  3.1645656e+00
 -9.7604692e-01
  5.2609468e-01
 -9.6968734e-01
  1.5667975e-01
  2.1634631e+00
 -1.7473694e+00
  3.5581678e-01
 -8.8991749e-01
  2.4821006e-01
 -5.6725091e-01
 -3.0159388e+00
  4.6825892e-01
 -9.3896329e-01
  5.6998366e-01
 -2.2595695e-01
  6.3311481e-01
 -1.2116952e+00
 -7.0733398e-01
  3.6311553e+00
  1.1477591e+00
 -3.6774206e+00
  3.7110498e+00
  2.3188010e-02
  6.2669867e-01
 -6.6722505e-02
  7.3816562e-01
 -7.3859453e-01
  7.3982984e-01
  1.5752159e+00
 -2.5338185e+00
  1.7849207e+00
 -1.2230234e+00
  6.2693083e-01
  2.2533729e+00
 -7.9374599e-01
 -1.1340461e+00
  1.1360375e+00
 -1.9093560e-01
  1.7861469e+00
 -9.7733200e-01
 -4.3628240e-01
  1.6434681e+00
  9.2180985e-01
  6.7755824e-01
  2.0436017e-01
 -1.2784578e+00
  1.4089893e+00
  1.4573039e+00
  2.2640049e+00
  1.9061152e+00
  9.5162678e-01
 -7.0999658e-01
 -2.4364605e+00
  2.3656857e+00
  3.7457490e-01
 -1.2121205e-01
  7.2421873e-01
  3.4737873e-01
  1.8564010e+00
 -1.1546888e+00
 -3.1346960e+00
  6.9918418e-01
  4.4516414e-01
  8.6826485e-01
 -2.1747287e-01
  9.7272396e-01
  3.6443493e-01
  1.6760434e+00
  9.5797271e-01
 -3.6692438e-01
 -1.2370933e+00
  8.3032900e-01
 -2.0968146e+00
  4.2058057e-01
  9.7715765e-02
 -1.6955093e+00
  2.5584781e+00
  1.3493180e+00
 -1.8085460e-01
  2.8302920e-01
  7.4209756e-01
  1.3857770e+00
  1.7581065e+00
  3.7830654e-01
 -1.5812078e-02
  1.0900429e-01
 -2.9270618e+00
  3.2070306e-01
  2.6230223e-02
  1.4869926e+00
 -1.7293347e-01
 -8.3672547e-01
  3.1980622e-01
 -5.8682631e-03
 -1.8139532e+00
 -2.5735652e-01
  7.7085271e-02
  1.5251458e+00
  3.1456394e+00
  1.4577094e+00
 -1.0389816e+00
 -4.5472403e+00
  2.9422147e+00
 -6.3198470e-02
  3.7465802e-01
  5.1424426e-01
 -1.0816458e+00
  1.7061144e-01
  1.6619174e+00
  2.8142121e+00
 -1.2531794e+00
  9.6228832e-01
  1.7472383e-01
 -5.7076615e-01
 -2.3901908e+00
  7.0373499e-01
  6.6332763e-01
 -1.7442343e+00
  3.1166059e-01
  6.2006873e-01
  6.5433681e-01
  1.7749307e+00
 -9.7082573e-01
 -7.2405100e-01
 -1.7930826e+00
  2.0712371e+00
 -1.1725938e+00
  2.0121965e+00
  2.3236346e+00
  1.7116834e+00
  4.2143711e-01
 -1.9995971e+00
 -9.3379319e-01
 -9.2757022e-01
  4.6967025e+00
  2.2272513e+00
 -6.5169060e-01
  2.9674134e-01
  4.5031101e-02
 -8.5665721e-01
 -7.1981567e-01
  1.2797769e+00
 -9.8312521e-01
  3.3625719e-01
  1.4554503e+00
 -1.6335551e+00
  2.9116321e-01
 -3.3242242e+00
 -1.3918856e+00
  4.2317054e-01
 -9.9892214e-02
  1.2359015e-01
 -1.9043744e+00
  1.3938165e+00
  1.2189014e+00
  3.2241353e-01
 -3.1117661e-02
 -1.3353099e+00
  1.8307844e-01
  6.5941793e-01
 -1.2741473e-01
 -2.6262515e+00
  2.9534224e-01
  2.6734796e-01
 -1.7328887e-01
 -3.3472843e+00
 -2.3296223e+00
 -4.3674350e-01
 -5.8685207e-01
  2.6773310e-01
  4.6199986e-01
  1.2073101e+00
 -1.1238583e+00
  2.0368571e+00
  2.6025218e-01
  5.4270691e-01
 -7.1609640e-01
 -2.0082471e-01
  1.9114313e+00
  7.7863258e-01
 -4.7764820e-01
  3.8284950e-02
  6.7769516e-01
 -5.6455240e-02
 -5.8063668e-01
 -1.0621407e+00
  1.5175654e-01
  1.5839866e+00
  6.8740338e-01
 -1.7332968e+00
 -3.8047084e-01
 -7.1745878e-01
  2.3376372e+00
  1.7517421e+00
 -1.5370164e+00
  1.5443941e+00
  4.0165842e-01
  3.5362726e-01
  5.4955322e-01
 -9.4677806e-01
  4.3249545e-01
  1.5937543e+00
  6.8013275e-01
  1.3683043e+00
  2.6331899e-01
  1.0578126e-01
 -9.6815377e-03
  5.9399819e-01
  3.0285415e-01
 -3.0163565e-01
 -4.1625712e-02
 -1.7815253e-01
  3.9734522e-01
  2.1009715e+00
  1.2917011e+00
  4.5821294e-01
  7.1294600e-01
 -7.4688691e-01
  2.5892347e-01
 -1.7555767e+00
 -1.1003132e+00
  2.0437417e+00
 -4.2096868e-01
 -3.7546200e-01
 -5.3477174e-01
  4.4964929e+00
 -4.9568716e-01
  6.4410889e-01
 -8.2866691e-02
  7.8820577e-03
 -6.5590829e-01
 -2.2593486e+00
  2.4431458e-02
 -1.1860954e+00
  2.7708140e-01
  9.4884092e-01
 -5.0308332e-02
  4.6541855e-01
 -2.2713606e+00
  3.4650749e-01
 -3.6500010e+00
 -3.6684042e-01
  6.2313620e-02
 -7.6420242e-01
  1.9095601e+00
 -3.7566445e+00
  1.9559650e+00
 -1.9690797e-01
  1.2207886e+00
 -2.8704922e+00
  5.4110852e-03
 -1.0390329e+00
 -5.3120536e-01
  9.4921607e-01
  2.5522118e+00
 -1.8298432e-01
  3.7607419e+00
  5.5201113e-01
 -1.9235888e-01
  2.1562523e-01
  3.2019854e-01
  5.2423579e-01
  2.9602477e-01
 -5.3874332e-01
  1.1485549e+00
 -1.3264470e+00
  2.4591351e-02
 -2.6810540e-02
  1.1956844e+00
 -2.0610021e-01
 -3.6685994e-01
 -1.4075946e+00
  4.2193088e-01
  1.1363704e+00
 -1.9288506e-01
  7.7656919e-01
  3.2964110e+00
 -1.2821120e+00
 -2.1652716e-01
  7.2262353e-01
 -1.3721569e+00
 -1.2103453e+00
  1.6503304e+00
  9.2284578e-01
 -1.7136968e+00
  1.8842983e+00
  2.4110045e+00
 -6.9977576e-01
  1.4591533e-01
  5.1739538e-01
 -9.2246693e-01
  4.4488510e-01
  1.0762966e-01
  1.1217490e+00
  1.1349554e+00
 -1.2940556e+00
  7.2423089e-01
 -4.9404666e-01
 -1.0809091e+00
  5.4831272e-03
 -1.1147501e+00
  7.5036204e-01
  2.9012125e+00
 -3.2931569e-01
  7.9663271e-01
 -8.5423374e-01
 -2.9603183e-01
  1.9551295e-01
 -5.1722586e-01
 -2.5622627e-02
 -9.3867797e-01
 -1.5041283e-01
  5.3772467e-01
 -2.3373160e+00
  2.3256272e-01
  2.0196819e+00
  5.2443147e-01
  3.2006553e-01
  1.4870808e+00
  7.4588545e-02
  2.9688546e-01
 -1.3095435e+00
  1.3858496e-01
 -8.1448919e-01
  4.4660497e-01
 -1.5199778e+00
 -3.2045574e+00
  5.7743835e-01
 -5.5646485e-01
  1.2612026e-02
  1.8919938e+00
 -2.3635873e-01
  9.7256619e-01
 -4.3203902e+00
  1.9002397e+00
 -1.0993943e+00
  5.6847882e-01
  1.2167308e-01
 -2.6427686e-01
 -1.3746556e+00
 -2.1821158e-01
  1.1479437e+00
  2.7042053e+00
 -1.5473399e+00
 -5.3500319e-01
 -1.4198114e+00
 -2.2428474e+00
  2.0398381e+00
 -6.9565481e-01
  1.2977550e+00
 -1.0051061e+00
 -1.4671164e+00
  2.8476112e+00
 -3.8915884e+00
 -1.3993847e+00
  3.4011909e-01
  1.2377067e+00
  7.8510040e-01
 -1.2331973e+00
  1.5564539e-01
  1.9333528e-01
 -5.3433310e-02
 -7.6478440e-01
 -3.0959389e+00
 -7.3567992e-01
 -1.5132809e+00
  6.7395204e-01
  6.4271480e-01
 -6.0530049e-01
 -1.0648290e-01
  1.7389479e-01
  1.3354151e-01
  8.6707801e-01
  4.9519908e-01
 -3.3908728e-01
 -1.4396816e-01
 -1.0113477e+00
  1.6436412e+00
  3.3652550e-01
 -3.7996028e-02
 -9.5992875e-01
  9.4588399e-01
 -1.2621937e+00
  5.4332191e-01
 -6.1337829e-01
  6.8579906e-01
  2.1705957e-02
  7.5405622e-01
 -2.3862776e-01
  3.2332907e+00
 -6.8533486e-01
  6.9833463e-01
 -2.2113650e+00
 -9.9583399e-01
  9.0021646e-01
  5.7790238e-01
  7.2917074e-02
  6.5298265e-01
 -9.2749155e-01
  1.4669780e+00
  1.5860681e-01
 -4.1130848e-02
 -1.0636020e-01
 -3.6046639e-01
  1.0804485e+00
  1.2356243e+00
 -1.3885721e+00
 -1.6082040e+00
 -9.1205633e-01
  2.1683493e+00
  3.1934348e-01
  2.1647651e+00
  2.3787813e-01
 -1.4585296e+00
  9.0399005e-02
 -3.4170499e+00
  3.0894692e+00
 -7.6943511e-01
 -1.4289284e+00
  2.9712234e+00
 -1.7973808e+00
  2.1684074e+00
 -2.7320049e+00
  1.5772179e+00
  1.8272589e+00
 -1.0848564e+00
  7.0967847e-01
 -7.9281837e-01
 -1.4028084e+00
 -4.3527311e-01
 -9.6993685e-02
  2.4745779e+00
  1.7898743e-01
  1.3317020e+00
 -8.6329699e-01
  2.2043700e+00
  9.4192821e-01
 -2.7922320e+00
  2.6332903e-01
  1.8522875e+00
 -9.3509120e-01
  1.2173145e-01
 -1.1669804e+00
 -6.4475564e-03
  3.2648158e-01
 -1.0856919e+00
  1.5181071e-01
  1.2587571e-01
  1.0594312e-01
 -1.6369050e+00
 -2.5902414e+00
  1.0485297e+00
 -3.2128048e-01
  1.1685479e+00
 -2.4361531e-01
 -4.1053867e+00
 -1.7564691e+00
 -4.4403395e-01
 -3.5182384e-01
  1.0470276e+00
 -6.5381938e-01
 -1.9011165e+00
  1.4886954e-01
  7.6850966e-02
 -5.9166223e-01
 -3.1241605e-02
 -5.0594229e-01
  4.7524735e-02
 -1.2917958e+00
  8.1042016e-01
  1.7481256e-01
 -1.6736878e+00
  1.9783212e+00
 -9.7302532e-01
 -4.4356909e-01
  6.4912462e-01
 -7.1213192e-01
  7.5507408e-01
 -6.1902088e-01
 -2.0959904e+00
  3.7556514e-01
 -7.5954241e-01
 -1.8070851e-01
  1.2738584e+00
 -2.1638508e+00
  8.2064825e-01
  1.3790193e-02
 -3.5954246e-01
  2.4983132e+00
 -9.5409602e-01
 -1.7381440e-01
 -8.4138381e-01
  4.1886863e-01
  2.5398514e-01
  1.5457684e+00
  4.6015967e-04
 -1.4767367e-01
 -3.6522355e-02
 -4.2395342e-02
  2.5425678e-01
 -9.8121208e-01
  2.7952359e+00
 -1.1770557e-01
  2.3680720e+00
  8.9267862e-01
 -3.8213713e+00
  2.2954993e+00
  4.7171491e-01
  7.6487407e-02
  4.9452937e-01
 -3.5362005e-01
 -1.3389193e-01
 -6.4234364e-01
  7.4588096e-01
 -5.2786487e-01
 -1.9679266e+00
 -1.3788133e+00
 -1.4241049e+00
  7.5061846e-01
  5.3181875e-01
  1.9327195e+00
 -2.6899381e+00
 -2.8276151e-01
 -4.7495300e-01
  3.1389275e-01
 -1.7144260e+00
  4.7301054e-01
  1.1974703e+00
  7.3750377e-01
  7.6712589e-03
 -9.8205900e-01
  7.3056871e-01
 -3.8721392e-01
 -1.0147111e+00
 -5.8910394e-01
 -3.8841987e-01
 -4.6540186e-01
  1.8533429e+00
 -1.1838396e+00
 -3.9243549e-01
  8.0960792e-01
  1.2103655e+00
 -2.6649091e+00
 -7.7285141e-01
  2.4988027e+00
 -1.1150839e+00
 -1.1886858e+00
 -5.6258589e-01
  1.8479034e-01
  1.2702675e-01
  3.2199004e+00
 -3.1213135e-01
 -6.5972108e-01
 -9.3926495e-01
  4.6314893e+00
  3.1356150e-01
  4.6607074e-01
 -6.5097648e-01
 -5.1858839e-02
 -5.0888979e-01
  2.3615515e-01
 -7.8208244e-01
 -1.6174862e+00
  2.2278955e+00
  7.9448569e-01
  7.7135164e-01
  8.9970452e-01
 -2.4165341e-01
  2.6927862e-01
 -1.4429660e-01
  5.8358312e-01
 -4.4279042e-01
  1.2939539e+00
  3.6212838e-01
  6.9039917e-01
  1.2617726e+00
 -2.7637959e+00
  5.6414118e+00
  1.6513939e+00
  3.3122284e+00
  8.9207464e-01
  1.7824957e+00
  2.8663051e-01
  7.9591608e-01
 -1.3014506e+00
 -1.3906459e+00
  1.2477357e+00
  2.0626445e+00
 -1.1220446e+00
 -1.3373512e+00
  4.6654642e-01
  1.1654474e+00
  5.2934706e-01
 -5.5073422e-01
  6.8721682e-01
  1.5365005e+00
  9.7840399e-01
 -1.2469288e+00
  3.3869004e-01
  1.2534583e+00
  1.1495128e-01
 -1.5768223e+00
 -3.7872437e-02
 -4.6393237e-01
 -1.1669487e+00
  1.2530926e+00
 -4.1349408e-01
 -4.0038094e-01
 -2.0968623e+00
 -7.0413655e-01
 -2.5112462e+00
  9.7442281e-01
 -1.2439990e+00
  3.4993420e+00
 -9.1840380e-01
  1.8800293e-01
  3.1844642e+00
 -9.4177902e-01
  1.4705846e+00
  1.5262274e+00
  1.0847628e+00
  1.0499947e+00
  6.2314302e-02
 -6.4305276e-01
 -3.4836790e-01
 -1.7426592e+00
  1.8345352e-01
 -9.0862972e-01
 -8.8351738e-01
  2.3846941e+00
 -9.2056727e-01
 -1.8932164e+00
 -4.5309842e-01
  8.1351364e-01
  5.9142888e-01
  1.6589955e+00
 -1.6990185e+00
  9.8883814e-01
  1.2944645e+00
 -2.9489866e-01
  1.4346267e+00
  1.0059977e+00
 -1.1446080e+00
  1.2484203e-01
  3.0615944e-01
 -3.8291341e-01
  2.3192757e-01
 -5.5642903e-01
 -7.4554890e-01
  7.9263628e-01
 -6.8039554e-01
 -4.7684833e-01
 -1.3429884e+00
  1.8409488e+00
 -1.1734966e+00
 -2.4251445e-01
 -2.0879045e-01
  1.4011658e+00
  1.5020207e+00
  8.4997267e-01
 -1.0911052e+00
  1.5089550e+00
 -1.8995768e+00
 -4.7528455e-01
 -2.4048933e-01
 -3.2115927e-01
 -3.5411924e-01
 -5.1272941e-01
 -1.0294757e+00
 -3.5140816e-02
 -1.1726897e+00
 -5.1384922e-02
 -3.4925058e+00
 -5.9008294e-01
 -1.1299421e-01
  3.0936378e-01
  1.7453638e-01
 -4.6672888e+00
  7.2612947e-01
 -5.6944191e-01
 -1.1516480e+00
  1.5342346e+00
 -1.2777362e+00
  4.0767524e-02
 -3.3072093e-01
 -3.5869126e+00
  2.3540160e-01
  1.0166692e+00
 -2.1691640e-01
  1.3983463e+00
  8.7700540e-01
  6.7883086e-01
  2.6846191e-01
  1.0656688e+00
 -1.0118867e+00
  8.9221972e-01
  2.2082291e+00
  4.1364288e+00
 -5.1119387e-01
 -3.3644187e-01
  1.3369691e+00
  8.8629103e-01
 -2.4343760e-01
  1.4304841e+00
 -4.6366918e-01
  4.8715296e-01
  1.9711107e-01
  7.2572343e-02
 -1.9669834e+00
  7.2755760e-01
 -2.7645072e-01
 -1.6024956e-01
  5.3148522e+00
  8.9010859e-01
 -1.4403362e+00
  9.4962215e-01
  1.2683190e+00
 -9.5425293e-02
 -6.1524558e-01
  6.1213088e-01
 -9.8733313e-02
 -2.9671504e+00
 -8.9679468e-01
  6.4464658e-01
  4.4757468e-01
 -2.5741408e+00
  8.7003571e-01
 -1.1594584e+00
  4.4237188e-01
  2.9852021e-02
 -1.6682784e-01
 -2.0394291e-01
 -3.0725753e-01
  1.1632398e+00
  3.9739868e-01
  6.3761032e-01
 -4.9484912e-01
 -9.6356285e-01
 -6.5747416e-01
  1.6977619e-01
  3.4701237e-01
  2.2607599e-01
  1.5257020e+00
 -7.2943103e-01
  5.8780921e-01
  8.7877566e-01
  2.2680347e+00
 -2.7424982e+00
 -8.5708570e-01
 -6.7844713e-01
  3.4104369e+00
 -2.5472784e+00
  1.4219885e+00
  5.9929090e+00
 -4.2052674e+00
  5.4109020e+00
 -2.1266060e+00
 -3.8437247e-01
  2.7804673e+00
  2.1865387e+00
  1.0778605e+00
  1.0755864e+00
  9.6367645e-01
  2.0221503e+00
 -2.2176030e+00
  7.7689500e+00
  2.8485227e+00
  1.7609148e+00
  4.8566875e+00
  6.8740973e+00
  5.2395821e+00
  4.8436971e+00
  3.6297181e+00
  6.0708928e+00
  6.4588423e+00
  6.1242813e-01
  5.7264709e-01
 -8.0065005e-02
  8.1667256e-01
  1.2407799e+00
 -1.6654016e-01
 -8.2297146e-02
 -2.1701004e-02
 -1.7448217e-01
 -7.9813665e-01
 -1.9898133e+00
  8.9785963e-01
  7.3235029e-01
 -4.8422468e-01
  6.0878009e-01
 -5.0433856e-01
  4.9045812e-02
  4.7862120e+00
  6.2838668e-01
  1.2369273e+00
  1.1076543e+00
 -7.8348771e-02
 -1.9192052e+00
  1.5821241e+00
  3.0802625e-01
 -8.0618286e-01
  1.5901866e+00
 -2.1066768e+00
  1.6851951e+00
 -9.8199260e-01
  3.3952674e-01
 -1.5973920e+00
 -4.3149505e+00
  1.6549417e+00
 -1.2330588e+00
 -4.0995100e-01
 -4.1364133e-01
 -1.0017660e+00
 -8.8532728e-01
 -1.6197166e-01
 -2.3938715e-01
 -3.7165156e-01
  4.9279204e-01
  4.7323492e-01
  5.0328904e-01
 -5.1092809e-01
  4.1818503e-01
 -7.4583852e-01
 -1.0398208e+00
 -1.9129971e+00
 -1.4160020e+00
  1.1106628e+00
  1.3880416e+00
  5.4838622e-01
  1.1215370e+00
  1.2018664e+00
  3.9160121e-02
  3.0922139e-01
  4.3101695e-01
 -2.9572260e-01
  1.4908426e+00
 -8.8234711e-01
  9.3666360e-02
  4.9287158e-01
 -4.4483371e-02
 -2.1841723e-01
  3.9156809e-01
  3.5436922e-01
 -1.3924975e+00
  8.1551087e-01
 -4.3074510e-01
 -1.1949901e-01
 -3.0805230e-01
  4.4960995e+00
 -1.0239664e+00
 -3.3769171e+00
 -1.1573629e+00
  1.1377860e+00
 -2.9395672e-02
  4.9507350e-01
 -4.2692429e-01
 -5.9847033e-01
  2.7760249e-01
 -2.4101915e+00
  1.1115732e+00
 -3.3735415e-01
  3.3561666e+00
  5.7482797e-01
 -7.7209508e-01
  1.8186077e+00
  9.4010788e-01
 -1.0923270e+00
  1.0478263e+00
  1.4072721e+00
  1.2471625e+00
 -7.9547875e-02
  9.3904740e-01
  3.6314365e-01
 -7.7568185e-01
  7.5768626e-01
  5.3540384e-03
  1.2183652e+00
  8.2807225e-01
  7.6267725e-01
  7.9177660e-01
  7.8606409e-01
  3.2633202e+00
  1.1794825e+00
 -3.4439453e-01
  6.5880150e-02
  1.0248734e+00
  1.5099213e+00
  3.6428556e-01
  5.3391314e-01
  2.8167143e-03
  1.3654983e+00
 -5.3317970e-01
 -3.3360484e+00
  4.6956047e-01
 -2.9451318e+00
 -5.8420885e-01
 -2.7164750e+00
  2.7038005e-01
  1.5354247e-01
  6.7212659e-01
 -3.1079367e-01
 -5.4900026e-01
  6.7173523e-01
 -2.5806537e-01
  1.2516268e-01
  7.7966404e-01
 -1.4156014e+00
 -1.9034432e+00
 -6.2282753e-01
  3.4641412e-01
 -1.0270580e+00
 -6.8805230e-01
  1.5747268e-01
  2.0456789e+00
 -1.4446253e+00
 -1.1865017e+00
  5.2317667e-01
 -1.6872852e+00
 -1.2447797e+00
  1.0876102e+00
  5.6564648e-02
 -1.4791871e+00
 -4.4661856e+00
  2.4306348e-01
 -8.9741164e-01
 -8.8741410e-01
 -5.1487961e+00
  1.8510355e+00
  7.2972698e+00
 -4.6067986e+00
  1.0164310e+00
  2.1975408e+00
 -7.5564015e-01
 -6.4451313e-01
 -7.0651853e-01
  1.4707849e+00
 -3.4925895e+00
  1.4217992e-01
 -4.4310498e-01
 -1.5813662e+00
  8.6566645e-01
 -2.0868602e+00
  1.2930945e+00
  1.0764556e+00
 -3.5627499e+00
  2.9834714e+00
 -1.2869232e+00
  9.5193011e-01
  3.0046360e+00
  2.0409746e+00
 -2.1235195e-01
 -1.1667388e-01
 -4.7075966e-01
  3.0078332e+00
  1.3179840e-01
  9.4074333e-01
  1.3078326e-01
  1.2226158e+00
  1.0419663e+00
  3.1550270e-01
 -2.3442857e+00
 -1.5485612e+00
  1.8500025e+00
 -9.9211979e-01
 -1.6883374e+00
  1.1848682e-01
  3.8986731e+00
 -1.0489330e-01
  8.8707733e-01
  1.3679419e+00
 -4.7330756e-02
 -1.8663113e+00
  8.0978924e-01
 -8.2491344e-01
 -1.1589243e+00
 -4.6679950e-01
  4.7082572e+00
 -1.1550690e+00
 -1.7021617e-01
 -1.4978811e+00
  2.1388297e+00
  6.6036113e-02
 -9.7003901e-01
  9.3070716e-01
 -2.5546765e+00
 -1.2570598e+00
  2.4895179e-01
  2.6340213e+00
  1.7010991e-01
  1.0121267e+00
  1.2605426e-01
 -3.2615963e-01
  2.1263240e-01
 -7.4931584e-02
 -1.0292729e+00
  1.5724124e-01
 -5.7698703e-01
  1.2522824e+00
 -1.3168837e-01
  7.6694274e-01
  2.6365411e-01
  3.3422041e+00
  2.4488814e+00
 -1.6948389e-01
  7.8760189e-01
 -1.5524943e+00
 -1.3893923e-01
 -2.1573076e+00
 -9.9324620e-01
  2.4055678e-01
  7.5799870e-01
 -4.4203892e+00
 -2.0406923e+00
 -1.2332097e+00
 -3.4711432e-02
 -3.4518439e-01
  4.8562977e-02
  2.2353158e+00
  1.0833201e+00
  1.0024934e-01
  7.9120779e-01
  1.0031148e+00
  1.1784521e+00
 -3.2101700e-01
  9.6392196e-01
 -3.1583726e-01
 -1.6621534e+00
 -7.0734337e-02
  5.1606822e-01
  1.5048267e+00
  2.7828392e-01
  3.4500900e-01
 -7.8776211e-01
  1.1845778e+00
  1.4993637e+00
 -1.8121846e-01
 -1.8528407e+00
  3.1616631e-01
  1.2425281e+00
  1.1675711e+00
  5.1975757e-01
 -4.4131011e-01
  1.3394809e+00
  9.5316827e-01
  4.2638874e+00
 -7.4585032e-01
 -4.1509306e-01
  1.1093495e+00
  8.0204469e-01
 -1.5900071e+00
  1.1521838e+00
  1.7973132e+00
 -5.7389742e-01
  1.3806819e+00
 -1.0249768e+00
  6.9506198e-01
 -4.2629805e-01
 -2.9071394e-01
  2.2196592e-01
  4.3202284e-01
  1.3709852e-01
 -6.4495337e-01
  1.7819313e+00
  2.9607239e+00
  4.3503141e+00
  3.8630867e-01
  9.2199278e-01
  6.1873353e-01
  3.9222806e+00
 -5.2894962e-01
  1.4030789e+00
  8.9318383e-01
  5.0662643e-01
 -8.3040315e-01
 -6.1367130e-01
 -5.7096303e-01
  3.2902047e-01
  9.1823220e-01
  2.9961059e-02
  1.1029685e+00
  1.1429971e+00
 -1.5156654e+00
  1.8875332e+00
 -1.3506523e+00
  4.8934719e-01
  8.2189667e-01
 -1.5764029e+00
 -1.7131405e-01
 -3.1505352e-01
 -1.2578739e-01
  1.9806746e+00
 -1.0672463e-01
  7.5963575e-01
 -1.5479098e-01
 -5.1398313e-01
  1.7358927e-01
 -3.7254426e-01
  6.4553225e-01
  3.7592471e-01
 -8.6553979e-01
  3.0986919e+00
 -3.3983445e-01
 -7.0755291e-01
  4.0500374e+00
 -2.6496143e+00
 -1.0829691e+00
 -5.4771811e-01
  2.0101259e+00
 -1.1373521e+00
  1.0845846e+00
  1.0742036e+00
  2.5867672e+00
  1.0880946e+00
 -8.2232481e-01
  7.9557377e-01
  4.4496450e+00
  1.2481414e+00
  2.5113330e+00
 -4.2393857e-01
 -2.2523599e+00
  2.2014303e+00
  8.5161373e-02
  4.2651892e+00
  2.6492906e+00
 -5.5474544e-01
 -6.4915365e-01
  7.8748393e-01
  2.3254497e+00
  3.7840521e-01
  2.0638170e+00
 -4.0898294e+00
  6.4256465e-01
 -1.4383425e-01
 -1.6003081e+00
  4.9439147e-01
  9.1697890e-01
 -7.9960071e-02
 -1.8650053e+00
 -8.0314994e-01
  2.6363246e+00
  1.2940162e-01
  1.5752055e-01
 -6.4116210e-01
 -7.6491112e-01
 -6.2228459e-01
  1.5587400e+00
  7.9639578e-01
  8.7683624e-01
 -4.1395244e-01
  2.2781436e-01
  1.6489650e+00
  1.1404901e+00
 -2.4598553e+00
 -1.2435398e+00
  6.8087763e-01
 -6.1271238e-01
  9.1487134e-01
  2.7454779e+00
 -7.7199590e-01
 -2.3541905e-02
 -1.4582626e+00
  2.3830183e+00
  9.6262294e-01
  8.0108267e-01
  4.5870507e-01
  7.4551028e-01
 -6.0105283e-02
 -7.8344285e-01
 -9.7060603e-01
 -5.3288072e-01
  2.0264442e+00
  7.3869210e-01
  5.9062201e-01
  7.1473581e-01
  4.1454512e-01
 -3.5047212e-01
  1.1565665e+00
 -1.6884893e-01
  8.6186014e-02
  3.4863787e+00
  3.6632423e+00
 -4.9112794e-01
  2.9289100e-01
 -2.4582956e+00
  1.9529492e+00
 -7.3130733e-01
  1.8362782e+00
 -6.5062279e-01
 -9.2668742e-01
  8.2000637e-01
  2.6120797e-01
 -8.7300920e-01
 -1.2275724e+00
 -1.4609977e+00
  6.6914678e-01
 -4.1302476e+00
 -2.4910736e+00
 -2.8970251e+00
  2.6146787e-01
  1.2487079e-01
  4.6868265e-01
  1.1243740e+00
  4.2688382e-01
 -4.8119017e-01
  6.5844528e-02
  1.4822241e+00
  6.3147974e-01
 -8.1369244e-02
  2.7703800e+00
 -2.7960382e+00
  2.1849346e-01
  1.2157855e+00
 -9.1014087e-02
 -8.7637627e-01
 -2.2902389e+00
  2.3419109e-01
  3.8312647e-01
  1.1540402e+00
  9.4616759e-01
 -1.1393241e+00
  4.5863667e+00
  6.8019050e-01
  4.0942149e+00
  1.0798633e+00
  1.7785398e+00
  1.3846329e+00
  6.8364996e-01
 -6.8357557e-01
 -1.0882198e+00
 -4.7682910e+00
  1.7199358e+00
  2.7011404e+00
  2.4777748e-01
  6.2779760e-01
  6.6418380e-01
 -1.5398091e+00
  1.4667459e+00
 -1.1424787e+00
  1.6342136e-01
  3.0337839e+00
 -1.4012382e+00
  1.3913969e+00
  5.4118048e-02
 -7.7215117e-01
  3.7439317e-01
  2.5956940e-02
  1.6271713e-01
  4.5600995e-01
 -4.2173028e-01
 -2.0885240e-02
 -9.1831557e-02
 -7.3555183e-01
 -3.5690635e-01
  2.6139489e-03
  1.0790201e-01
 -1.0444527e+00
 -1.1128743e+00
 -5.1805443e-01
 -5.6306779e-01
 -3.8099656e-01
 -5.7857627e-01
  2.0068567e+00
  2.8571966e-01
  8.7068641e-01
  7.9764026e-01
 -4.5880795e-01
 -2.5406938e+00
 -7.9205729e-02
  8.9747757e-01
  2.0457058e+00
 -1.1834207e+00
 -2.3738756e+00
  3.4765847e+00
 -1.7434382e-01
 -2.0236349e-01
 -2.2646279e+00
  4.7430735e-02
 -8.9576626e-01
 -1.0803357e+00
 -1.3560106e+00
 -7.3198009e-01
  1.1206379e+00
  2.1023180e-01
  3.2602376e-01
  1.2797532e+00
 -1.6457767e+00
  3.7465021e-01
 -1.7460369e+00
  3.1091044e+00
  6.1997962e-01
 -3.4948877e-01
  2.6723522e-01
  5.6215477e-01
  1.9802108e-01
  6.1599797e-01
 -8.2175687e-02
  4.9416438e-01
  1.0521970e+00
 -1.6136434e+00
  2.3409744e-01
 -1.8790399e+00
  1.6574013e+00
  4.0605000e-01
 -1.2306669e-01
 -1.1252370e-01
  6.9570577e-01
 -8.0406763e-02
  1.8926578e+00
 -8.5953736e-01
  1.2568299e-01
 -1.7426244e+00
 -8.4836012e-01
  1.2338619e+00
 -4.4828206e-01
 -1.1059173e+00
  2.4219760e-01
 -1.8476259e+00
  2.8826371e-01
 -2.0301778e-02
  2.1464460e-01
 -6.6873384e-01
 -1.5807509e-01
 -2.9833815e+00
  4.7670919e-01
 -9.8504698e-01
 -7.2113180e-01
 -3.1103358e-01
  1.6223648e+00
 -5.2685785e-01
 -9.9981777e-02
 -5.6246495e-01
  7.9845941e-01
 -4.5888600e+00
 -2.6347286e-01
 -7.5192344e-01
  2.9949519e-01
 -2.1428509e+00
  4.2226514e-01
 -2.1460044e+00
  4.8764534e-02
 -3.0707879e+00
  2.1116524e+00
  7.2444588e-01
  1.0863757e+00
 -3.0560318e-01
  9.0505314e-01
 -2.2747555e+00
  5.5879182e-01
  8.9385611e-01
  1.5435781e-01
 -5.1148957e-01
  3.0306056e-01
 -5.5099344e-01
  1.1953233e+00
  4.5179310e-01
  5.8796767e-02
  5.6346661e-01
  6.8134427e-01
  1.4510734e-01
 -2.7584630e-01
 -2.5518158e-01
 -1.7717618e+00
 -5.1003438e-01
  2.1706429e-01
 -3.9629361e-01
 -1.1643696e+00
  6.9594300e-01
 -2.5398519e+00
  2.8761405e-01
 -1.5335639e+00
 -2.8968707e-01
 -1.4327034e-01
 -6.1017501e-01
 -1.0349730e-01
 -3.6789247e-01
 -2.7196226e-01
  3.7930080e-01
 -7.0209837e-01
  4.3333259e-01
  5.6421709e-01
  9.0723330e-01
  1.3938600e+00
  1.2919070e+00
  3.7873235e-01
  9.2473674e-01
  1.4300326e+00
  1.0762774e+00
 -1.2370849e+00
 -1.9095250e+00
  1.3044093e+00
 -5.4250288e-01
 -2.6694161e-01
  2.3398700e+00
  6.9355398e-01
  3.0992415e+00
 -2.1344177e-01
  7.8902036e-01
 -2.2080462e+00
 -2.6937672e-01
  1.7448767e+00
 -7.6655221e-01
  1.0896112e-01
  1.0649749e+00
  2.0614560e+00
  1.5509781e+00
 -2.4786092e-01
 -3.6743677e-01
 -1.0291839e-01
  1.2660556e+00
 -8.1956103e-02
  5.2808619e-01
  4.1307616e+00
 -5.2318997e-03
 -1.7308552e+00
  5.9624630e-01
 -2.9704692e+00
  2.5551827e+00
 -3.0697217e+00
  1.1477503e+00
 -6.0819316e-01
 -1.2628511e+00
  1.4196174e+00
 -4.8860118e-01
  4.7134894e-01
 -1.3648676e+00
  8.2533276e-01
 -5.4712170e-01
 -1.7281480e+00
  1.5730069e+00
 -2.2243798e+00
 -1.2059005e+00
  1.0638573e+00
  5.6005049e-01
 -9.9447715e-01
  7.7169275e-01
 -2.0635495e+00
 -2.9433784e+00
  1.5327948e+00
 -2.6980178e+00
 -8.3281976e-01
 -2.3579619e+00
  2.6108953e-01
  8.3236396e-01
  1.1034681e+00
  1.2486625e+00
 -2.9713411e-02
 -2.2816302e-01
 -1.1039358e+00
  8.1578624e-01
 -1.3225861e-01
 -1.7462161e+00
 -3.8169401e+00
  3.1348724e+00
  2.7784547e-01
  2.7077356e-01
  1.0210276e+00
 -3.6777661e+00
  7.5753951e-01
 -1.3488130e-01
  1.0080196e+00
  8.9077711e-01
 -1.5754548e+00
  1.7510602e+00
 -3.4467912e-01
  4.7992725e+00
 -1.0840801e+00
  1.6694860e+00
 -1.7295563e+00
 -2.8252583e+00
  2.8598654e+00
  4.6193320e-03
 -1.1996733e+00
  7.5405324e-01
 -9.4373748e-03
 -2.1348107e+00
  5.3838170e-01
 -8.2919586e-01
 -4.1401419e-01
 -1.1542963e-01
 -1.5785291e+00
  3.3385561e+00
 -1.6482097e+00
 -5.9788620e-01
  2.2439261e-01
  2.6419863e-01
 -4.0783060e-01
  5.9444296e-01
 -3.1880794e+00
 -3.4695286e-01
  2.3456984e+00
  5.1121140e-01
  6.9578576e-01
  1.1180961e-01
 -1.8289498e+00
 -1.0770597e+00
 -7.4182558e-01
 -1.1874849e+00
  1.0103778e+00
 -4.3585483e-02
  1.9560549e+00
  6.7446053e-01
  7.2408760e-01
 -9.6711326e-01
 -6.7802042e-01
  2.2145024e-01
 -2.2120576e-02
 -1.7888553e-01
 -4.1707677e-01
 -2.9263192e-01
 -1.2307323e+00
 -8.9354974e-01
  8.0916524e-01
 -4.1407447e+00
 -2.1081068e-01
 -1.8999199e+00
 -9.7596204e-01
 -1.7565960e+00
  7.7074438e-01
  8.9843637e-01
  3.7370521e-01
 -2.5978440e-01
 -2.6006517e-01
  1.1533131e-01
  2.4201629e+00
  2.1692729e-01
  1.5692064e-01
 -6.7429984e-01
  2.5165505e+00
  8.9828871e-02
  3.9595768e-02
 -1.5136847e+00
  1.2011608e-01
  2.4986137e-02
  1.2214785e+00
  6.7253989e-01
  3.0176881e-01
 -2.6900396e-01
 -1.5076567e-01
  1.1816895e+00
  6.2561131e-01
 -1.1272928e+00
 -7.1432883e-01
  2.1162616e-01
 -5.3207731e-01
 -2.5154841e-01
 -2.3253033e-01
  1.1465206e+00
 -1.5219833e-01
 -9.5650756e-01
 -5.2216411e-02
  1.4586624e+00
  7.4988276e-02
  2.7747828e-01
 -3.6656982e-01
  1.3731954e+00
  2.1303065e+00
 -8.4516895e-01
 -2.0912683e+00
  1.5520825e+00
 -4.7735974e-01
 -1.6172494e+00
 -2.6825550e-01
 -6.0210162e-01
  1.7470791e+00
  8.6469734e-01
  5.4586545e-02
  1.3180531e+00
 -1.4017100e+00
  5.7469320e-01
  6.7797786e-01
  1.2364224e+00
  3.1135597e+00
 -3.5574010e-01
  1.1449143e+00
 -1.2815862e+00
  1.8266712e+00
 -4.6958441e-01
  2.5734663e-01
  4.9800947e-01
  7.9980683e-01
  1.0246284e+00
  7.5373930e-01
  1.9710957e+00
 -1.1666164e+00
  5.7563168e-01
 -1.1073255e-01
  3.4408435e-01
  1.1056119e-01
 -8.2730514e-01
 -1.1631136e+00
  3.8358545e+00
 -8.0427891e-01
 -2.1973429e+00
  5.6972446e+00
 -1.0131367e+00
  2.6137777e-02
 -1.9675713e+00
 -1.7756262e+00
  1.9201614e+00
  8.0371684e-01
  1.6794291e+00
  1.2213681e+00
  2.6721418e-01
  1.4566534e+00
  9.2467064e-01
  1.3554786e+00
  1.1961403e+00
 -1.5880966e+00
  3.7190065e-01
 -2.0644422e+00
  6.0546434e-01
 -1.3852955e+00
 -3.6923070e+00
  2.3894978e+00
  2.2146862e+00
  6.4221102e-01
 -4.8811600e-01
  2.1836130e-01
 -4.6418807e-01
  1.3474921e+00
 -1.6366557e+00
  2.4253235e+00
  1.3182214e+00
 -1.4895628e-01
  3.5877621e-01
  8.9033276e-01
  2.3741250e+00
  9.6748519e-01
 -2.9562066e+00
 -1.7984732e+00
  7.3781782e-01
  3.5344236e+00
 -2.6631353e+00
 -1.4828335e-01
 -5.4075557e-01
  1.0935538e-01
 -1.2249627e+00
  1.2155674e+00
 -2.3053687e-02
 -2.5563818e-01
 -9.6782619e-01
 -2.5311975e+00
  6.1418736e-01
 -1.7775931e+00
 -1.9250299e+00
  5.9432220e-01
 -1.4253057e+00
  8.4860367e-01
 -3.8058367e-02
  3.9096531e-02
 -2.4634683e-01
 -1.2959213e+00
  5.3235579e-01
  2.1292431e+00
  5.9689987e-01
  8.5819358e-01
  8.7249017e-01
  6.4525849e-01
 -5.8760357e-01
  2.9451635e-02
 -1.8294252e-01
 -3.2638779e-01
 -9.2738426e-01
 -2.1687849e-01
 -1.3481916e-01
  8.5709006e-01
 -9.9717557e-01
 -6.8970597e-01
 -4.0150747e-01
 -9.4979656e-01
 -2.3206735e-01
 -7.5074881e-01
  2.6852186e+00
 -4.4790336e-01
 -1.1394643e+00
  1.2446072e+00
  1.2081848e+00
  2.1127319e+00
 -2.3726213e+00
 -5.8507264e-01
  2.5215397e+00
 -1.0997025e+00
 -3.8317192e-01
 -1.3651245e+00
 -4.3072188e-01
 -9.7099125e-01
  7.1874225e-01
  6.1052497e-02
  7.4316317e-01
  7.9977220e-01
 -2.5243266e+00
 -1.5489808e+00
  6.2927514e-01
 -6.8724412e-01
  2.0681433e-01
 -1.2760180e+00
 -9.6006048e-01
 -9.8657662e-01
  3.5144615e+00
 -4.3303251e-01
 -3.5383067e-01
  1.1391711e+00
 -1.2200446e+00
 -1.4286194e+00
 -4.2216673e-01
  3.9952666e-01
 -1.7813430e+00
 -2.5658891e-01
  1.5095798e+00
  1.0417815e-02
  1.3600603e+00
 -6.6975063e-01
 -3.4622622e-01
  2.0854683e+00
 -2.7609903e-01
  6.1473352e-01
 -4.3737236e-01
 -3.7925011e-01
  5.4777604e-01
  1.5781291e+00
 -1.2314919e+00
  2.9924815e+00
 -5.9822440e+00
 -8.0422387e-02
 -3.9826581e-01
 -1.0190736e-01
  1.5042886e-02
  6.7023450e-01
  1.6611260e+00
  8.5959859e-02
 -1.7268132e-01
 -2.3231936e+00
  4.6222529e+00
 -1.9988961e+00
 -3.1950113e-01
 -1.0208750e+00
 -1.0021167e+00
  3.4875669e+00
 -8.3520585e-01
  3.0442712e-01
  2.9198977e-01
  4.7087169e+00
  1.3042877e+00
 -1.3090773e+00
 -3.3986125e+00
 -3.4701481e-01
 -1.7603480e+00
 -1.9293955e-01
  2.1405010e-01
  2.7894115e+00
  9.7969818e-01
 -8.4698588e-01
 -3.5478413e-01
 -2.9731610e+00
  1.0729716e+00
 -1.0666682e+00
 -6.0058713e-01
  7.0729035e-01
  1.1245089e+00
  2.9910002e+00
  3.6386412e-02
  3.1514721e+00
  5.5877555e-02
 -6.7404705e-01
  6.4581352e-01
 -1.1108868e+00
  4.5255873e-01
  1.1719095e+00
 -2.0171795e+00
 -2.2836168e+00
 -1.9719155e+00
 -6.3490170e-01
 -7.6324606e-01
  2.9183927e-01
 -8.0638635e-01
  1.1997066e+00
  3.1172484e-01
 -1.0253850e-01
  5.4311931e-01
 -3.2809291e+00
 -1.3300002e+00
 -3.4993970e-01
 -1.5639338e-01
  9.5410758e-01
 -2.2246420e+00
 -3.4577423e-01
  8.2803345e-01
  1.3002218e+00
 -3.6213592e-02
 -8.2585484e-01
 -1.1639407e+00
 -1.8250183e+00
  2.6087205e+00
  1.9706365e+00
 -1.0888163e+00
 -7.7651745e-01
 -1.6901007e+00
 -1.0606987e+00
  5.6221670e-01
  2.1741430e-01
 -2.8550091e-01
  2.2362714e+00
 -1.0414352e+00
 -2.9039545e+00
 -8.7332255e-01
 -3.5105622e-01
 -1.2927112e-01
  1.9142801e+00
  3.2439008e-01
 -1.6895040e+00
 -2.1393366e+00
 -2.7248700e+00
 -1.4482509e+00
 -5.0880170e-01
  1.1623206e+00
 -1.1650943e+00
 -1.7642024e+00
 -4.8466587e-01
  3.9439580e-01
 -1.0752529e+00
 -7.6718770e-02
 -1.7145703e+00
  6.9067419e-01
 -1.4940453e+00
  3.2235721e-01
 -5.5586517e-01
  2.1501963e+00
  1.8455218e+00
  2.9865408e-01
 -3.0819896e-01
 -2.1003868e-01
  9.3738359e-01
  4.2101404e-01
  1.5511611e+00
 -2.3874350e-01
  9.7795248e-01
  1.0018088e+00
 -8.8216269e-01
 -4.2640386e+00
  2.4793162e+00
 -1.9237765e+00
  4.0405130e-01
 -4.0778670e-02
 -6.2596393e-01
  2.5097992e+00
 -5.1815945e-01
 -3.3206499e-01
  1.0665237e+00
 -1.2127594e-01
 -9.1052926e-01
 -1.0125432e+00
 -7.4813432e-01
  1.0773410e+00
  2.5823843e+00
  8.1865495e-01
 -4.7432733e+00
 -1.4863513e-01
 -6.2683034e-01
 -4.4797975e-01
 -6.4835340e-01
  1.6079420e-01
  1.0107542e+00
  7.3388815e-01
  2.0564821e-01
  6.5541744e-01
  2.3897553e-02
  1.2025411e+00
  6.0892206e-01
 -4.3590674e+00
  2.5595808e+00
 -9.8578129e+00
  1.4030530e+00
  8.6085010e-01
 -8.3132684e-03
  1.5055637e+00
  7.5035042e-01
  6.4916592e+00
  2.3243634e-01
  2.6046211e-01
 -6.7390561e-02
  1.4143405e+00
  2.8130229e+00
  3.3388004e+00
  7.2212906e+00
  2.9862666e+00
  3.7708836e+00
  2.9787605e+00
 -3.2719846e+00
  1.7291050e-01
 -8.1708479e-01
 -4.8811140e+00
  4.3922987e+00
  6.1916742e+00
 -8.7866507e-02
 -1.6639700e+00
 -1.9035743e-01
  3.3306092e-01
  2.0784307e+00
 -1.1575264e+00
  4.3226965e-02
 -4.7041377e-01
 -9.4769531e-01
 -1.7966650e-01
 -4.7305271e-02
  1.2141343e+00
 -6.6836782e-02
  1.8189493e+00
 -1.7628576e+00
 -1.8707941e+00
  1.0516064e+00
 -3.4467154e+00
 -1.7406218e+00
 -2.1259336e+00
 -2.1131222e+00
 -8.9987588e-01
  4.7322571e-01
  7.4789900e-01
 -7.7249855e-01
 -2.2829120e+00
 -2.4925139e+00
 -2.0829096e+00
 -5.3619736e-01
 -1.8111750e+00
 -2.7465765e+00
  4.6418107e-01
 -2.5918446e+00
  2.7612734e+00
 -1.0650047e+00
 -3.3095460e+00
  7.4916714e-01
  1.3557371e+00
  6.9997430e-01
 -1.7926483e-01
 -9.7382367e-01
 -7.9886031e-01
 -1.5457911e+00
 -2.3005112e-01
  7.3435932e-01
 -1.9397514e+00
 -4.5429850e+00
 -5.5762208e-01
  1.8617557e+00
  2.0928383e+00
 -3.7656314e+00
  6.4039093e-01
  3.9843395e-02
  9.3238449e-01
 -3.2594354e+00
  1.3701419e+00
 -1.1875448e+00
  4.6805704e-01
  6.4889854e-01
  6.1746794e-01
 -1.7350888e+00
 -6.1739307e-02
  1.0238153e+00
  1.3017404e+00
 -2.6990020e+00
  6.7768842e-01
  1.6928941e+00
 -1.5883360e+00
  2.1186862e+00
  3.7404951e-02
  5.3444594e-01
  5.6079876e-01
  1.5837805e-02
 -1.1190500e+00
 -5.4207456e-01
  1.2490301e-01
  7.4914914e-01
  6.6923523e-01
  4.3578285e-01
 -7.2176594e-01
  1.0005370e+00
  5.4902259e-02
  3.8902840e-01
 -7.6584351e-01
 -1.7418298e+00
  1.9572207e+00
  4.8293403e-01
 -3.0735183e+00
  2.6430814e+00
  1.3491984e-01
  1.4002424e-01
 -1.3574299e+00
 -4.0591058e-01
  1.8496556e+00
 -2.0716650e+00
  4.7982138e-01
  1.0434430e+00
 -7.8030807e-01
  2.2600491e+00
  1.9169044e+00
 -1.8183128e+00
 -6.7008996e-01
 -2.9460484e-01
  1.8357315e+00
  3.6278951e+00
 -3.6394265e+00
 -9.2041177e-01
 -1.2488581e+00
  1.3501226e+00
 -1.5455325e+00
  3.3440204e+00
 -4.8378101e-01
 -1.1628453e+00
 -2.9979920e-01
  3.0546808e-01
  4.8023757e-01
 -1.3158854e+00
  1.4565566e+00
  2.2782764e+00
 -6.6729176e-01
  6.2097967e-01
  1.4576378e+00
 -1.3349164e+00
  2.4953096e+00
 -2.9391358e+00
 -8.8992882e-01
 -1.7699716e+00
  1.5490139e+00
  9.2604935e-02
 -2.1061904e+00
  1.5348445e+00
  1.6392372e+00
  6.0351890e-01
  1.0720744e+00
 -1.5604701e+00
 -1.3683997e+00
 -1.4630564e+00
  9.8026425e-01
 -1.9789667e-01
 -7.1209687e-01
  1.3254118e+00
  3.1283996e+00
  6.3271207e-01
  7.1557951e-01
  1.7103111e+00
 -3.7525847e+00
  4.8501045e-02
 -9.2285961e-01
  8.1485398e-02
 -2.7667418e+00
  2.0545903e-01
 -1.8614589e-01
  1.1612196e+00
  1.6083536e+00
  2.9236948e-01
  3.7278399e-01
 -1.4589068e+00
 -2.5546303e+00
 -1.1895859e-01
 -5.9050518e-01
  1.2298881e+00
  8.6749893e-01
  3.3669934e-02
  2.3187778e+00
  1.2594435e+00
  1.4463378e-01
  2.5346913e+00
  2.5078726e+00
  8.2552427e-01
  1.3599389e+00
  2.9637921e-01
 -1.5009420e+00
 -1.4076363e-01
 -1.6708208e-02
 -1.2147952e-01
  4.6216366e-01
  9.4883549e-01
  5.4534495e-01
  4.8557444e+00
  3.5965028e-01
  2.0047309e+00
  2.1044132e-01
 -1.3852239e+00
  2.5608543e-01
  4.5262828e-01
  2.7108726e-01
 -4.5584944e-01
 -9.9398035e-01
 -2.7528864e-01
 -1.0442095e+00
 -1.7378876e+00
 -1.6548450e+00
 -7.4769929e-02
 -1.9641001e+00
  1.1558776e+00
 -7.8975224e-01
  3.9977038e-01
  2.2623405e+00
 -1.0331135e+00
  5.3694117e-01
 -3.3559528e-01
  3.7814781e-01
  1.0863651e+00
  2.7807534e+00
 -1.3113782e+00
  5.8442596e-02
 -4.2633992e-01
  1.7912961e+00
 -2.6065430e-01
  6.1018312e-01
 -9.3381284e-03
  2.7167177e-01
  2.3383994e+00
 -3.1841815e+00
  1.0001593e+00
  8.4309447e-01
  2.1262317e+00
  1.1825217e+00
 -1.7347935e-01
  1.3375967e+00
  2.0926024e-01
 -1.7261642e+00
 -2.8653106e-01
 -1.7185860e+00
  1.1267841e-01
  1.1991423e-01
  3.6203995e-01
 -6.1281227e-02
 -8.0838168e-01
  2.9685870e-01
  2.7364200e-01
 -4.7877288e-01
  3.7805211e-02
 -2.8470600e+00
  2.4550745e-01
 -5.2680945e-01
 -9.0492815e-01
 -1.7565302e+00
  5.3600091e-01
  2.3360814e-01
 -4.3978864e-01
  1.0697100e+00
  1.0103595e+00
 -5.2432501e-01
  2.2378765e-01
  4.7853921e-02
 -8.5145259e-01
  1.4989649e+00
  1.0350753e+00
 -6.3252807e-01
  1.1715319e+00
  1.5734320e+00
 -1.7419678e-01
 -2.8898901e-01
  1.3385212e+00
  3.1098954e-02
  1.3400892e+00
 -2.3059824e+00
  3.3998845e+00
 -2.0864299e-01
  9.6415746e-01
  1.2769845e-01
 -3.0913565e+00
 -7.6140743e-01
  5.6949514e-01
 -1.0097016e-01
 -3.9598975e-01
 -8.3472824e-01
 -2.5921426e+00
 -8.1094879e-01
  7.4435997e-01
 -1.6482513e+00
 -2.7515733e+00
  7.5184214e-01
  4.5359710e-01
  2.5733793e-01
  7.4411118e-01
  3.0125332e+00
  1.4607044e+00
 -6.3395768e-01
  2.9459929e-01
 -2.7560368e-01
 -2.3355509e-01
  2.3323435e-01
 -3.4507456e-01
  9.4862407e-01
 -1.9709530e+00
  1.4204582e+00
 -2.5546122e-01
 -1.2612336e+00
  1.8509834e+00
  1.0732121e+00
 -4.6235389e-01
 -1.0286510e+00
  3.1870130e-01
 -2.1488016e+00
  2.5349343e+00
 -5.5713214e-02
 -4.4166126e+00
 -7.3878306e-01
 -1.8238132e+00
 -2.0759318e+00
 -1.8322774e+00
 -4.1758928e+00
 -1.8250958e+00
 -3.5429877e-01
 -3.3324690e+00
 -5.7709327e+00
  4.8262987e-01
  7.4800916e-02
 -4.3796855e-01
  1.7231410e+00
 -4.1030822e+00
 -2.4348130e+00
 -9.0509558e-01
 -6.5513283e-01
 -1.4556327e+00
  1.0655075e+00
 -9.5966560e-01
 -1.0833306e+00
 -4.8499361e-01
  8.8151276e-01
 -3.6265225e+00
 -1.1418576e+00
 -9.2337050e-02
 -3.9154148e+00
 -5.3245805e-02
 -1.9266583e+00
 -1.4678333e+00
  1.3403318e+00
  3.3281465e+00
 -4.4456948e-02
  1.8914472e+00
 -2.9455349e+00
 -1.1167899e+00
 -6.7716163e-01
 -8.5572898e-01
  1.1227498e+00
 -6.3703609e-01
  1.8803406e-01
 -3.7632832e-01
  1.2692142e+00
 -9.4560492e-01
 -1.1937085e+00
 -3.1728997e+00
  3.9011738e-01
  2.0901353e+00
  6.0744035e-01
 -3.1728997e+00
 -2.8702927e+00
 -2.8166369e-01
 -8.2935959e-02
  6.5104967e-01
  4.9745812e+00
 -6.0402763e-01
 -1.0312274e+00
 -1.1043041e+00
  7.4311632e-01
 -2.3329484e-01
 -4.2669904e-01
 -2.0939417e+00
  3.6888838e-01
  2.2251136e+00
 -7.6616079e-01
 -1.8582658e-01
  5.1256746e-01
  1.7626570e+00
 -3.0027857e-01
  6.9788080e-01
  1.8622684e-01
 -1.7671220e-01
  2.1015701e+00
 -7.6459020e-01
  1.1645033e+00
  5.8883381e-01
  1.1700726e-01
 -3.9541221e-01
  1.2051518e+00
 -7.4751866e-01
  7.4744469e-01
  1.9724182e+00
 -1.5964223e+00
 -6.4544004e-01
 -5.4409969e-01
  8.3425903e-01
 -1.0161043e+00
 -8.1435448e-01
 -6.7111045e-01
  1.8853620e+00
 -8.0168217e-01
 -1.7305090e+00
  1.2824650e+00
  9.5097899e-01
  8.4206605e-01
  1.7789088e+00
  8.7681103e-01
 -6.9787723e-01
  3.2185715e-01
 -7.0515138e-01
  7.0909429e-01
 -5.4851724e-03
  4.8205715e-01
 -3.3454511e-01
 -1.9667217e-01
  6.0745139e+00
  8.8284701e-02
  8.2124799e-01
 -1.1430396e+00
 -6.5865302e-01
  3.4458217e-01
  3.5266869e-02
 -5.8030218e-01
 -5.6747979e-01
 -2.9852815e+00
  2.4554439e+00
 -1.2736571e-01
 -2.5741878e-01
  1.1553246e+00
 -7.6958245e-01
 -2.3667891e+00
  2.0348597e+00
 -2.7014117e+00
  1.1092178e-01
  1.2069564e+00
  7.7852511e-01
 -9.2077816e-01
  1.7558907e+00
 -3.7933680e-01
  4.6346650e-01
 -4.8573431e-01
  4.7596568e-01
  6.6644019e-01
  1.3756818e+00
  1.2236371e+00
  8.0679184e-01
 -2.9694142e+00
  2.6704209e+00
  1.0328861e+00
  4.7066460e+00
  7.3706841e-01
  1.6052985e-01
 -5.0714239e-02
  8.1371331e-01
  1.2175120e+00
 -8.8047683e-01
  5.6665570e-01
 -3.2272201e+00
 -6.1928701e+00
 -2.3851311e+00
  8.9600366e-01
 -9.6232742e-01
 -1.9969360e+00
 -3.8226712e+00
 -1.6127822e+00
  3.1599465e-01
  9.4268245e-01
  2.3233678e+00
  5.9414907e+00
  8.4212667e-01
  8.0416334e-01
  5.7006526e-01
 -2.6620598e+00
  1.2458885e+00
  3.8742584e-01
 -9.6797802e-02
  4.5110568e-01
  5.0273800e-01
  2.0816012e-01
  5.7424259e-01
 -1.0909184e-01
 -1.3177729e+00
 -3.4240359e-01
  1.1575814e+00
  4.0246484e-01
  1.3079252e+00
  1.7859883e-03
 -4.2138246e-01
 -1.4617278e-01
  5.6079733e-01
 -6.2469578e-01
  9.6246469e-01
 -4.2753881e-01
 -5.8324641e-01
 -7.1157329e-02
 -2.2873702e+00
 -1.1719558e+00
 -1.0286846e+00
 -1.3977135e+00
 -6.4919537e-01
 -5.8388299e-01
  2.9347509e-01
 -2.9818723e-01
  6.6004144e-03
 -2.7461305e+00
 -5.0883132e-01
 -2.6050341e-01
  3.6036456e-01
 -1.7457643e+00
 -1.0343118e+00
 -1.0020617e+00
  1.7657405e-01
 -5.9920138e-01
 -9.2954654e-01
 -4.7400317e-01
  6.4322581e-03
 -7.3451358e-01
 -8.2968456e-01
 -5.2390867e-01
  1.0163953e-01
  4.9730986e-02
  1.0925452e+00
  4.0755334e-01
  6.4068288e-01
  4.5461030e+00
 -4.1588652e-01
 -7.0170857e-02
  9.4121748e-01
 -4.1918200e-01
 -2.3669243e-01
  6.9661880e-01
  1.7326272e+00
  2.3363821e-01
 -2.7854564e+00
  1.3000386e+00
  1.9317475e-01
  7.9934210e-01
 -2.7393062e+00
 -1.2335687e+00
 -2.0735822e+00
  8.5703766e-01
 -5.3679639e-01
  1.3642448e+00
 -1.0875421e+00
  8.9177236e-02
  3.9805632e+00
 -5.0609666e-01
 -9.7907978e-01
 -2.5575936e+00
  1.3647400e+00
 -3.7648106e-01
 -4.0480557e-01
 -3.9840593e+00
  9.5581400e-01
  7.3101747e-01
 -1.8829089e+00
 -1.5980807e-01
  6.3284689e-01
  1.0128192e+00
  5.9956175e-01
  1.6198900e-02
 -1.2478943e+00
  5.5582559e-01
 -1.1796998e+00
  1.6560657e+00
  2.6116878e-01
  1.0474238e+00
  1.8799506e-01
  1.0853511e+00
 -1.7399714e+00
 -1.7524247e-01
 -2.1141735e-01
  3.2964209e-01
  6.2819391e-01
  2.1320081e+00
 -3.8395765e+00
 -6.4725989e-01
 -3.2190835e-01
 -2.4185390e+00
 -6.1860353e-01
  8.8699780e-02
 -1.5539542e-01
 -4.8975214e-01
  6.2881058e-01
 -4.1733396e-01
  1.2527010e+00
  1.6214876e+00
  3.1685621e-01
 -2.2037401e+00
  6.1856675e-01
 -3.5065186e-01
 -5.5623823e-01
 -1.2109369e+00
  7.3896289e-01
  1.2869560e+00
 -8.7326628e-01
  8.2366198e-01
  6.9799669e-02
  9.0178567e-01
 -2.9696590e-01
  1.3032237e+00
 -3.5903570e-01
  1.2352930e+00
 -2.5613987e-01
  7.9007757e-01
  3.6833510e-02
  3.5765350e-01
 -1.1701571e+00
 -2.5179452e-01
 -2.0182100e-01
 -7.9094481e-01
  1.6355608e-01
  6.9334246e-02
  1.3590938e+00
 -2.7663416e-01
  2.1189964e+00
  2.4723320e+00
 -2.0041306e+00
 -3.6207581e-01
  1.5128474e+00
  1.5907596e+00
  4.3820901e+00
  6.5065020e-01
  9.1071373e-01
  8.0226713e-01
  1.5137800e+00
 -9.6676165e-01
 -1.9443601e+00
 -8.0976295e-01
 -2.0383499e+00
  1.1073228e+00
 -3.4608586e+00
 -1.8443505e+00
 -6.7193907e-01
 -9.1376334e-01
  3.7936609e+00
  8.1388158e-01
  3.0768105e-01
  1.5472256e+00
 -1.9089011e+00
  6.9230932e-01
 -1.2617176e+00
  2.0560586e+00
  5.5621409e-01
  5.7172948e-01
  8.6690739e-02
 -8.5655385e-01
  1.6696080e+00
  5.7137258e-02
 -1.4129796e+00
 -3.1542242e+00
  2.7257643e+00
 -2.6729109e+00
  1.8812791e-02
  3.0699301e+00
 -1.3685070e+00
 -6.7374861e-01
 -1.7991747e+00
  3.2180613e-01
 -1.9451447e+00
  1.5565208e+00
 -8.3107777e-02
 -2.7068403e+00
  9.7526506e-02
  1.1931301e+00
  2.2601559e+00
 -1.2419865e+00
  1.3709439e-01
  3.2341018e-01
 -5.4289901e-01
  2.8293338e-01
  5.0034869e-01
  5.8390069e-01
 -3.6093454e+00
  1.3135475e+00
  3.3655419e+00
 -2.5546715e+00
 -2.5765443e+00
 -2.1249146e+00
  4.7810310e-01
  4.6504062e-01
 -1.1051017e+00
  1.1026495e+00
 -3.7940142e-01
  4.4194636e-01
 -9.2597777e-01
 -9.6360129e-01
 -3.3230262e+00
 -7.5701666e-01
  3.4636462e-01
  1.2027813e+00
  1.0220770e+00
 -3.8780642e+00
 -2.2084370e+00
 -2.1143568e+00
 -4.1466078e-01
  4.5793560e-01
 -2.3049819e+00
  1.4421321e+00
 -5.3280479e-01
 -1.5861169e+00
  1.3417139e+00
  8.5204251e-02
 -8.0193418e-01
  1.3612720e+00
 -9.6673048e-01
 -1.3519692e+00
  2.6016610e+00
  3.9262480e-01
 -1.4004866e+00
 -4.4044420e-01
  1.9338609e+00
  2.1044924e+00
  1.0545164e+00
  9.9904977e-02
 -2.3360195e+00
  3.7486690e-01
 -3.3551570e-02
 -6.2544316e-01
  5.4562092e-01
 -1.2652253e-01
  2.6572222e-01
 -2.1204431e-01
 -3.3998421e-01
 -4.7912863e-01
  1.8167447e-02
  1.7971852e-01
 -2.6893383e-01
 -3.1109974e+00
  2.3816796e-01
  3.4290087e-01
  4.1909595e+00
 -6.0348183e-01
 -4.2984083e-01
 -1.4510922e+00
 -3.5849077e-01
  2.5475770e-01
 -3.0642766e-01
  7.9027623e-01
  1.0598176e+00
  1.7556046e-01
  4.2067659e-01
  1.8043088e+00
  2.0601666e-01
 -2.5785074e-01
 -4.5269952e+00
  1.4221383e+00
  8.4000957e-01
 -8.6565632e-01
  2.0207264e-01
  1.9758297e-02
  2.0063759e-01
  1.0008813e+00
  6.2341058e-01
 -1.2229443e-01
 -6.8485397e-01
 -1.2061626e+00
  2.0705922e+00
 -1.3799859e+00
  3.0295470e-01
  1.2606422e+00
 -1.2711095e+00
 -1.3561112e+00
  7.1228373e-01
  3.8211039e-01
  2.0256035e-01
 -2.6056056e+00
 -2.2981143e+00
 -5.4504669e-01
  1.9920809e+00
 -6.3640875e-01
  1.2463209e-01
  1.0166396e+00
  7.9776353e-01
  1.8588676e-01
  2.1998568e-02
 -7.1096891e-01
  1.6445695e+00
  1.8508312e+01
 -1.6338016e+00
 -4.1041641e+00
  1.5853724e+00
  1.9367825e+00
 -3.6977780e+00
  1.0454164e+00
  2.2480974e-01
 -1.1390702e+00
  1.0699978e-01
  1.4273409e+00
 -8.1462437e-01
 -2.6196405e-01
  3.4097636e+00
  1.4132475e+00
 -1.1129532e+00
  5.9925991e-01
  1.8767407e+00
  2.6204231e-01
  1.5035321e+00
 -2.1587686e-01
  2.2805200e+00
  3.1421461e+00
 -1.4397656e+00
 -3.0409970e+00
  1.1784089e+00
  1.1148685e+00
  6.5989220e-01
 -3.1162622e+00
 -8.2861775e-01
 -1.6867938e+00
  1.0117535e-01
  2.4895875e+00
 -5.7875001e-01
 -1.8880875e+00
 -1.1420225e+00
 -5.5246854e-01
  2.6893725e+00
 -1.7664753e+00
  3.3888689e-01
 -1.6909327e-01
  5.9448075e-01
 -8.9645082e-01
  4.8203072e-01
 -2.6368849e+00
 -1.6148823e+00
 -5.3634578e-01
 -1.7180420e+00
  1.7936305e+00
  3.5034692e+00
  5.1479435e+00
 -3.6435121e-01
  3.0039277e+00
  1.4978966e+00
  2.0355322e+00
  5.1282769e-01
 -9.5713288e-01
 -2.7705479e+00
 -1.8641338e+00
 -6.8951696e-02
  1.4051893e+00
  1.7931628e+00
 -2.3518429e+00
  4.0241724e-01
  1.9246579e+00
  1.2442962e+00
  2.0183325e+00
 -9.8994130e-01
  1.3206896e+00
  7.8423792e-01
  5.9470558e-01
 -5.3917158e-01
 -3.1983345e+00
  3.1118631e+00
 -6.6369796e-01
 -3.5399354e-01
  5.2713299e+00
  6.6603124e-01
  2.3393848e+00
 -7.2230130e-01
 -8.2097650e-01
 -5.1881719e+00
  2.4871245e-02
  1.4966683e+00
 -4.2149180e-01
  2.8411121e+00
  2.7288902e+00
  1.2861562e+00
 -1.7175033e+00
  2.6570077e+00
  4.0645537e+00
 -5.8889240e-01
 -4.1561380e-01
 -2.2749891e+00
 -8.7122786e-01
 -7.3594540e-02
 -4.5706323e-01
 -3.4985559e+00
  2.0865309e+00
  9.5311195e-01
 -6.5356803e+00
 -6.0487658e-01
  1.4794747e+00
  8.8646346e-01
 -2.2674571e-01
  2.6169777e+00
  6.2482047e-01
 -1.1117326e+00
  2.1983105e-01
  3.0222390e+00
  3.3742528e+00
  3.2399509e+00
  1.3214068e+00
 -3.9842122e+00
  4.2683876e-01
 -9.8404980e-01
  9.7045773e-01
  1.1780254e+00
  1.1941892e+00
 -1.6171535e+00
 -9.6779627e-01
 -1.2245054e+00
  1.4308599e+00
  2.3542941e-01
  2.2571862e+00
 -2.9487538e+00
  7.3047072e-01
 -8.4706789e-01
  2.3289572e-01
  7.1914822e-01
  9.6224314e-01
  2.3639467e+00
 -5.2614598e+00
 -8.6431646e-01
 -1.7413475e-01
  2.6831675e+00
 -1.6343403e-01
 -5.7720103e+00
 -3.1836754e-01
 -8.9347087e-02
  4.0883207e+00
 -4.6874180e-01
  9.0447408e-01
 -3.2569796e-03
  3.9132774e+00
  2.3013549e+00
  9.3744779e-01
 -1.2747446e+00
 -2.0500500e+00
 -5.9988189e+00
 -1.6446595e+00
  1.3228886e-01
  1.1839198e+00
 -5.9659654e-01
  8.2094318e-01
  3.0583256e-01
 -1.3991798e+00
  2.3490898e-01
  8.7261242e-01
  4.7852170e-01
 -1.6870250e+00
 -5.9411111e+00
  1.5890915e+00
  1.6002711e-02
 -2.2513168e+00
 -4.0726817e-01
 -1.7238511e+00
  9.4963253e-01
  1.4475422e+00
  1.4294949e+00
  1.5780870e+00
 -1.4886379e+00
  5.4144955e-01
 -1.4656497e+00
 -9.3873963e-02
 -7.6263338e-01
  1.1455631e+00
 -3.6726925e+00
  2.8753623e-01
 -8.2681453e-01
  2.8390131e+00
  2.1311302e-01
 -1.7207836e+00
  1.9958105e+00
  2.0790850e-01
  5.9690148e-01
 -5.4064828e-01
  1.0554308e+00
  3.0293455e+00
 -9.0355623e-01
  3.1143913e-01
  8.8591143e-02
  5.8099043e-01
 -4.0807033e+00
 -2.0207224e+00
  3.3263454e+00
  2.3477043e-01
 -4.7595663e+00
 -1.7861128e-01
  2.8281140e+00
  3.9978340e+00
 -2.2229407e+00
  1.6383623e+00
 -3.4721174e+00
  2.0920300e+00
  1.2227997e+00
  1.5171772e+00
  1.8006134e+00
 -3.5509465e+00
  2.7414832e-01
 -5.4924320e-02
  1.5245005e-01
 -4.3283792e+00
  1.2649980e+00
  1.7639383e+00
  2.2203171e+00
 -1.1784281e+00
 -2.4801654e-01
  1.8501173e+00
 -6.9951838e-01
 -1.6922086e+00
 -1.0246940e-01
  1.4709758e+00
  8.5636079e-01
 -4.7794275e+00
 -2.5256672e+00
  1.0162466e+00
  2.5424057e-01
  1.9567527e+00
 -1.2339796e+00
 -3.9559877e+00
  2.1249846e-01
  1.0486460e+00
  1.0409697e+00
 -1.6781318e-01
  3.0948639e+00
 -4.0947967e+00
 -5.9500175e+00
 -1.1500732e-01
 -7.3217535e-01
  2.0895991e+00
  1.3467997e+00
 -2.1037366e+00
 -1.8522913e+00
 -1.4618880e+00
  6.0322862e+00
 -5.0817180e-02
  2.9700601e+00
 -1.9291484e+00
  6.3753390e+00
  2.3028584e+00
 -8.3854026e-01
 -1.5348369e+00
 -3.7940049e-01
  2.2733817e+00
  5.3154802e-01
 -2.4088218e+00
  6.4918442e+00
  5.7618272e-01
 -2.5903897e+00
 -2.8926485e+00
 -3.4329686e-01
 -1.9644983e+00
 -1.5022293e+00
  2.9640284e-01
  3.8278697e+00
  2.3961663e+00
  1.3400879e+00
 -2.4227130e+00
  5.3621478e-02
  1.2731720e+00
 -3.0892980e+00
 -4.9016967e-01
 -3.5776513e+00
 -8.2167995e-01
  2.7027822e-01
  2.0167124e+00
  1.0119088e+00
  5.9948597e-02
  6.8101460e-01
 -5.1541793e-01
  4.2947230e+00
 -2.5223592e-01
  1.5726024e+00
  3.0347075e-05
  2.3966930e+00
  3.7782305e-01
  1.5012232e+00
  7.4922532e-02
 -3.6222064e+00
 -1.2160891e+00
 -9.6264303e-01
  2.1936843e+00
 -1.0080407e+01
 -1.8305737e+00
  8.9296550e-01
  2.0577466e+00
  6.8748999e+00
  9.6792942e-01
  2.5276909e+00
 -3.3747702e+00
  3.2262143e-01
  1.0639288e-01
  1.4547851e+00
 -2.3960869e+00
 -5.9781561e+00
 -6.7061192e-01
 -6.3502800e-01
  2.8799019e+00
 -1.1256369e+00
  2.1728954e+00
  1.1866540e-01
 -9.1752879e-02
  4.7840366e-01
  1.0058398e+00
  2.3643135e-01
  7.9770857e-01
  1.3846657e+00
 -1.5592127e+00
  9.3978894e-01
  1.1223406e+00
  8.1981510e-01
 -3.5714996e-01
 -4.7837634e+00
