nep4 3 Li P S 
cutoff 6 5 66 37
n_max 10 10
basis_size 10 10
l_max 4 2 0
ANN 30 0
 -2.0043229e-01
 -4.8623332e-03
  4.0244496e-01
  1.2843047e-01
 -2.3592401e-01
 -1.2234578e-01
  2.4223095e-01
 -8.0101505e-02
 -5.0268743e-02
 -6.4707902e-04
  3.1970292e-02
 -1.6308521e-01
 -5.8458906e-02
 -2.9052895e-02
 -6.4457588e-02
 -1.4237106e-02
 -2.4346781e-01
  5.8577959e-03
  4.3188496e-03
  8.3440252e-02
  4.2059150e-02
  7.7401348e-03
  1.7712647e-02
 -1.9595502e-02
  5.3788936e-03
  7.2945687e-03
 -3.0740121e-01
  1.7812891e-02
 -2.1981763e-02
 -5.2812144e-02
  1.2026237e-02
 -1.0801143e-01
 -9.6377293e-03
  5.7516042e-02
 -6.9250606e-02
  3.3421014e-02
 -5.2127756e-02
 -6.3219510e-02
 -7.0080206e-02
 -7.7344999e-02
  1.7229246e-02
  1.1413535e-01
 -5.5040680e-02
 -4.0731709e-02
 -3.4905158e-02
  4.5316789e-04
 -9.0176098e-02
 -1.1545268e-01
  6.9830053e-02
  1.4951180e-02
 -4.9103194e-01
 -6.6485739e-01
  2.4869021e-02
 -1.4785992e-01
 -9.9654850e-03
 -4.3555032e-02
 -9.3632400e-02
  2.0105146e-02
 -3.8446030e-01
 -4.2048097e-02
 -8.4358782e-02
 -5.1176418e-03
 -5.5925286e-01
 -6.8338200e-02
  8.0631912e-02
 -6.6694424e-02
  3.9054763e-01
  2.1862078e-01
 -1.5153918e-01
 -1.2989686e+00
  1.5636270e+00
 -3.7851322e-01
 -2.9258013e-01
 -8.0536097e-01
 -4.5705393e-01
 -4.3423209e-02
 -5.9245396e-01
  5.4292932e-02
 -2.6900571e-02
  2.2319665e-02
  7.8548469e-02
  7.2951412e-01
  3.4676284e-02
  5.5483850e-03
  1.6111903e-02
  6.1311521e-02
  1.4762664e-01
 -5.6406558e-02
 -2.8390166e-01
  4.3064806e-01
 -4.3079573e-01
 -1.1284037e-01
  4.4336334e-01
  2.5489662e-02
 -2.4708705e-02
 -4.8627704e-04
  2.0340434e-01
  2.8683098e-02
  1.4393887e-01
  4.3689758e-02
 -8.5103512e-03
  1.2191570e-01
 -2.1498019e-02
  2.4828470e-01
 -2.9874088e-02
  4.3893389e-02
  3.7772390e-01
 -1.3098038e-02
  4.4418234e-01
  3.9169583e-02
 -6.4561683e-01
 -1.2360491e-01
 -2.4344001e-02
  3.2757270e-01
 -1.9703384e-01
 -6.7379631e-02
  1.9624385e-01
  6.3814539e-01
 -1.2036540e-01
  2.1033503e-01
 -8.1683453e-03
 -6.4302762e-03
  2.7867351e-02
  8.5009160e-03
  1.2423766e-01
  2.6019815e-01
 -4.2266867e-01
  3.5486959e-02
 -6.7372859e-01
 -2.3760248e-03
 -3.0484924e-02
 -2.9766152e-02
 -1.3197741e-02
  1.9141997e-01
  7.5878724e-02
  5.1931582e-02
  7.1549311e-02
  3.3128798e-01
  3.5149843e-01
 -1.8815991e-01
 -5.8760524e-01
 -3.6765892e-02
  2.8637538e-02
  8.9249693e-02
  1.5283389e-01
 -4.8118690e-03
  2.9269335e-01
  9.5072187e-02
  2.5650533e-02
  3.8174335e-02
 -1.0281486e-03
  4.0537141e-02
  4.0384215e-01
  1.2080354e-02
  7.9334592e-03
  3.9053512e-01
  1.3636445e-02
  2.9285735e-01
  6.9128908e-02
 -1.3119779e-02
 -1.9884704e-02
 -1.0568183e-01
 -3.6047146e-02
  3.3213079e-01
 -2.2835601e-02
  7.7425480e-02
 -1.1319502e-01
  2.1188931e-01
  8.3084760e-04
 -2.6112258e-01
  1.6353387e-01
  3.3423606e-01
  3.9393309e-01
 -3.5313018e-02
  1.0699335e-01
 -1.0101320e-01
  8.6090527e-02
  1.6046552e-01
  3.0268729e-01
  1.7696833e-02
  2.3711898e-04
 -3.5987742e-02
  4.8197396e-02
 -1.1199344e-01
  4.5837156e-02
  3.1916773e-01
  3.2352511e-02
  1.4089131e-01
 -9.8385923e-03
  3.7618522e-02
  1.5259200e-01
  7.6624816e-03
 -1.0934683e-02
 -9.2646256e-02
 -8.5405037e-02
 -1.9348502e-02
  6.0395900e-02
 -3.1469718e-02
  7.8689128e-01
  1.4234926e-01
  7.4931733e-02
  2.5986674e-01
  2.8510365e-01
 -3.5703957e-02
  2.8732106e-01
 -8.7336786e-02
 -2.4343932e-01
  1.7593384e-02
 -2.0705562e-02
  5.6383722e-03
  9.7421119e-03
 -3.1810191e-02
 -7.1368843e-02
  4.5636386e-01
  4.0062375e-02
 -4.0458530e-01
 -8.8383574e-03
  3.5661501e-03
  1.9592562e-01
 -4.1632093e-02
 -3.8298503e-02
  4.8862953e-02
 -2.1288346e-02
  3.1608923e-03
  2.5305945e-01
 -8.4621437e-02
  4.8948009e-02
  7.6508194e-02
  9.3840342e-03
  8.3584413e-02
  5.2446712e-02
 -3.7345268e-02
 -5.7242341e-02
  3.8254142e-01
  5.8839113e-01
 -3.6403301e-01
  2.6035778e-02
 -1.8524859e-02
  1.7628375e-02
 -3.7746842e-03
  2.5406685e-01
  1.0563534e-01
  1.7029323e-03
 -8.0511481e-02
  2.4088034e-01
 -2.0974822e-01
 -2.7692324e-01
 -2.1988189e-02
 -6.8832755e-02
  6.1424892e-02
 -1.2242799e-02
 -2.4744913e-02
  4.7680460e-02
  2.9911373e-02
  4.6277575e-02
 -7.6230407e-01
  1.2784775e-01
 -8.0888476e-03
 -2.2260197e-02
  2.1369079e-02
 -8.5673314e-03
  1.8924957e-02
 -6.9545438e-03
 -3.5280320e-03
  5.1611833e-02
  5.0475419e-02
 -8.6328365e-02
  4.4759449e-02
  2.0606188e-02
  6.8867855e-02
  3.8537852e-02
 -2.7616054e-01
 -8.2999878e-02
  3.8177148e-01
 -7.4882768e-02
  1.8786515e-01
 -5.4400805e-03
 -7.9394663e-03
 -7.9713248e-02
  5.2835402e-04
  1.9965617e-02
 -5.1651116e-02
 -7.9156920e-02
  4.3196627e-03
  1.4329068e-01
 -4.0099245e-02
 -9.6236132e-02
 -7.4715205e-02
  3.2369025e-02
  1.0850124e+00
  6.4296715e-02
  1.0863278e-01
 -1.8925568e-01
 -4.7555961e-02
 -2.7245412e-02
  2.6338808e-03
  1.0131974e-01
  3.7317449e-04
  7.7386387e-02
  4.3377411e-02
  1.4587933e-01
 -5.0779000e-02
 -9.0607874e-02
  4.1467573e-02
 -2.4046788e-03
 -2.9220441e-02
  4.1280247e-02
 -1.2068587e-01
 -8.0196336e-02
  6.8397152e-01
 -2.5804684e-02
  2.2715667e-02
 -1.4089902e-01
  1.4111979e-01
 -8.1446208e-03
  7.1017236e-02
 -3.8384184e-02
 -4.8333060e-02
  1.2569372e-01
 -2.0383801e-02
 -1.7715907e-02
  2.0763427e-02
  7.6034047e-02
 -1.1559789e-02
  1.2876476e-01
  1.0479139e-01
  9.8575073e-01
  6.1130211e-02
  9.1766685e-02
 -2.8849753e-02
  1.6154084e-01
  7.5331040e-02
 -8.2384065e-02
 -7.0840451e-03
 -9.0510333e-01
  1.4455755e-01
 -5.8499493e-02
  2.5097700e-02
 -2.4813920e-02
 -5.8854405e-02
  1.1735898e-01
 -1.7270176e-01
  2.7918026e-01
 -7.3397905e-02
 -1.5386669e-02
 -1.2161334e-02
 -1.2715982e+00
 -2.0947261e-02
  1.9027290e-01
  4.9711205e-02
 -4.4525852e-03
  4.2307951e-02
  6.3739836e-02
 -4.2959038e-02
  9.9143507e-03
 -1.7719401e-01
  4.6941903e-03
 -6.9509549e-03
  2.1421938e-01
  2.8007271e-02
 -6.7421034e-02
 -7.8613721e-02
 -1.1139586e-01
  1.6789440e-03
 -1.1145277e-01
 -1.1158723e-01
  1.9687892e-01
  1.0033195e-01
  6.1469369e-02
 -3.2424044e-02
  1.5188383e-01
 -1.7204027e-01
 -3.0550361e-02
 -1.0959604e-01
  5.6468870e-02
 -1.6412722e-01
  9.5547736e-04
 -1.0436226e-02
  1.8872801e-02
  7.9609893e-02
 -1.5538670e-01
 -1.3185666e+00
 -4.2608101e-02
 -1.0789984e-01
 -1.1239039e-01
 -9.1494240e-02
 -8.2670309e-02
 -1.2690158e-02
 -3.7394997e-02
  3.4150187e-02
 -1.2778728e-01
  2.4904048e-02
 -3.8947533e-03
  1.9258048e-02
  3.3460807e-02
 -1.1067869e-01
 -2.7059674e-01
 -5.5272009e-02
 -1.0894380e-01
 -1.2183451e-02
  4.0663924e-02
 -6.2858269e-02
 -1.2911548e-02
  6.7687221e-02
  9.6888319e-02
 -1.0783570e-01
 -1.2236692e-01
 -3.9816372e-02
 -5.4282334e-02
 -7.6403782e-02
  5.4238155e-03
  9.8267101e-02
  3.4417228e-03
 -6.2597580e-02
  9.4093496e-01
  1.1895549e-02
  5.7834648e-02
 -2.9617628e-02
 -1.2546692e-02
  9.5552683e-02
 -2.0962154e-02
 -6.1886348e-02
 -1.5064150e-02
  5.6951974e-02
  1.9779561e-02
  1.7890079e-02
  8.0336913e-02
  1.1981241e-01
 -7.2208315e-02
 -7.6294638e-02
  5.2264024e-02
  7.9457238e-02
  9.6643604e-03
 -4.8602214e-03
 -3.4607787e-02
  1.8751493e-02
  5.2474998e-02
 -2.7988294e-02
 -3.1701963e-02
  1.1901487e-01
  2.3159806e-01
 -1.7856237e-02
  8.5843518e-02
  7.4757829e-02
 -6.6382498e-02
 -2.3239622e-02
  3.8594604e-02
 -3.8955819e-02
  3.8418576e-02
  5.3386752e-02
 -5.0377522e-02
  1.1798018e-02
 -6.1542641e-02
  8.3318412e-02
  1.1273996e-02
 -2.0736827e-02
  1.0909090e-01
 -2.6233995e-03
 -8.2841361e-01
 -6.2077492e-03
 -3.6777582e-02
  2.3106357e-01
  1.6659215e-01
 -7.0629299e-02
  5.0471413e-01
  1.1239838e-02
  3.6130045e-02
 -4.7693200e-02
  1.6722396e-01
  1.0905765e-01
 -2.2861120e-01
 -4.5657929e-02
  3.5153236e-02
  3.8725972e-02
 -1.4431868e-01
  6.6242022e-03
  3.6095217e-02
 -3.9354231e-02
 -1.4837237e-01
  4.4428695e-02
 -9.1750555e-02
 -5.6817282e-02
  6.1671104e-02
 -1.1894831e-01
  5.2649672e-03
 -7.6612881e-03
 -2.7686108e-03
  4.4203040e-04
  8.1318747e-03
 -3.7145592e-02
  1.6452973e-01
 -1.3601141e-02
  4.1171350e-03
  6.7929372e-02
  4.3828681e-02
  3.9056927e-02
  3.1086020e-02
  1.2492798e-02
 -6.9328658e-02
 -1.7161642e-01
 -2.8226307e-01
 -2.9688522e-02
  3.1302646e-02
 -8.2245924e-02
 -2.0656601e-02
  1.3109536e-02
 -2.2932515e-02
  2.3094721e-02
  3.0265227e-01
  1.4558472e-03
 -8.5867047e-02
  9.4426377e-03
  1.4358297e-01
 -3.4471790e-03
  1.1966392e-02
  1.3380104e-03
 -6.1817512e-02
 -3.0229494e-02
 -1.4182067e-02
  4.0877547e-02
  7.6060742e-02
  1.5399592e-01
 -4.3916076e-02
 -3.6445212e-02
 -7.9482093e-02
 -4.6248749e-02
  4.1417561e-02
  1.1780579e-01
 -4.1120406e-02
  1.1317777e-02
 -4.4251204e-02
 -1.6568126e-01
 -6.9312811e-02
  4.3358777e-02
 -8.5005037e-02
  3.5191648e-02
 -1.1517551e-01
 -3.3244323e-02
 -1.7394190e-01
  1.0364657e-01
 -2.7723348e-02
  1.6715595e-01
 -2.2982279e-02
 -4.7212910e-02
 -3.7682522e-02
 -1.1513024e-02
 -1.8120363e-02
 -3.2874323e-02
 -1.9409810e-01
 -1.1147746e-02
  3.0416207e-02
 -9.6052233e-03
  7.6939695e-02
 -4.4206288e-02
  3.4787852e-02
  2.2890959e-03
 -4.6195677e-03
 -1.7536048e-02
 -1.3225034e-01
  1.5689166e-02
  1.4226354e-02
 -3.5994060e-02
  7.2404638e-02
  1.4860188e-02
 -1.3132860e-01
 -3.2726564e-02
 -5.1724680e-02
  4.7074441e-02
  9.7531475e-02
 -2.1018043e-02
  9.1402268e-05
 -3.7132967e-02
  7.2473377e-01
 -6.9912694e-02
 -4.4586733e-02
  9.2563570e-02
 -4.2155635e-02
 -5.6116238e-02
 -9.1521069e-02
  7.5383946e-02
 -1.1225357e-01
 -7.8746848e-02
  5.3973831e-02
 -6.3426457e-03
 -1.0036907e-01
 -2.0707898e-02
  4.5827605e-02
 -4.3596057e-03
  4.1295912e-02
 -1.2379359e-02
  1.3778278e-01
 -8.0743223e-02
  3.1018594e-02
  3.4886125e-02
 -2.5326255e-01
  1.6018866e-01
  1.2355919e-01
 -1.7922385e-02
 -1.5016239e-02
  8.4094167e-02
  3.4247610e-01
  5.9617296e-02
  5.6465086e-02
  2.9680845e-01
 -3.8214553e-02
 -3.1124997e-01
 -6.4174578e-02
 -1.1784452e-02
 -2.2054502e-01
  2.9533291e-01
  3.9251585e-02
 -8.1615910e-02
 -6.3096927e-03
  6.6038072e-02
 -1.6474542e-01
  4.1630730e-02
  6.5984678e-01
 -1.3692180e-02
  6.0470454e-02
 -1.8415174e-01
 -3.9556436e-02
  1.3134766e-01
 -1.4900507e-01
 -2.6114276e-02
  7.8666313e-03
 -1.4277135e-02
 -6.3870968e-03
 -4.9670059e-02
  2.6204327e-02
  8.8812120e-02
  4.0738292e-02
  1.2365007e-02
 -1.1733700e+00
  2.3093943e-02
 -1.0908577e-01
 -3.3466801e-01
 -1.2131065e-01
 -7.7830581e-03
  1.2346117e-02
  3.0701328e-02
 -4.3404135e-01
 -1.1668876e-02
  8.5444346e-02
 -3.3697717e-02
  2.5829161e-02
  8.4894396e-02
  3.2842610e-02
 -1.6890572e-02
  7.6431841e-02
  5.9835911e-02
 -1.1856556e-02
  4.5738500e-02
  7.4310889e-03
 -2.3706784e-02
 -1.2236398e-02
  9.0922788e-02
 -2.1847956e-01
  6.9170423e-02
  1.2560968e-02
 -1.6986558e-01
 -2.9630867e-01
  5.5058696e-03
  1.1481277e+00
 -1.1795298e-02
  2.4109647e+00
 -2.1335626e-01
 -2.4389386e+00
 -9.1283292e-01
 -1.3684649e+00
 -4.1593518e-03
 -1.0275403e-01
 -7.8869484e-02
  5.6183386e-01
 -4.2050228e-02
 -1.8454599e-01
 -1.8066047e+00
  1.0526573e-01
  3.9183619e-03
 -1.2272227e-01
  8.5997775e-02
 -3.1732066e-04
  6.8374798e-02
 -1.2991212e-01
 -4.3139379e-02
 -2.6662111e-01
  2.5549713e-01
 -3.3806258e-01
  2.6391007e-03
 -4.0606847e-01
 -1.9798348e-02
  1.5405309e-01
 -5.6016201e-01
  4.6567045e-02
 -1.6862912e-03
  2.4212155e-01
 -3.0653024e-02
  5.8987923e-03
  1.1312301e-01
 -1.7225321e-01
 -6.2098078e-02
  9.8745845e-02
 -6.5423614e-01
 -3.9944935e-01
 -5.9162140e-01
 -3.0032743e-02
  1.2440847e-01
 -9.6210587e-01
  5.2792907e-01
 -6.8228531e-01
 -1.5012142e-01
  3.5075996e-02
  1.0057906e+00
 -1.9605739e-01
 -1.9268246e-04
  5.9055943e-02
 -6.4717196e-02
  2.4044950e-02
 -1.4370354e-02
 -1.5102156e-01
 -8.2044870e-02
  7.1854085e-02
  2.1198217e-02
  2.0607138e-02
  2.7734738e-02
 -2.6089627e-01
 -1.3266443e-01
  3.0770531e-01
  1.5781796e-01
 -4.0567215e-03
  5.7432543e-02
  8.7951973e-02
  2.6221864e-02
  6.8597835e-01
 -1.6774958e-02
  7.6763146e-02
  8.2550019e-02
  2.1202182e-02
  1.2993476e-02
 -1.1955579e-01
  9.0326205e-02
 -4.1393604e-02
  8.6641222e-02
  2.6751712e-02
 -1.4922340e-01
 -1.8623713e-03
  6.5391483e-03
  2.4684519e-03
  1.0969797e-03
  1.2997899e-04
  8.1525534e-02
  2.8094007e-02
 -4.1818316e-03
 -7.4434884e-02
 -5.4944158e-02
 -2.0273457e-01
 -1.2151046e-01
 -3.1586580e-02
  1.0658807e-01
 -6.4649187e-02
  6.6503473e-02
 -3.6741849e-03
  2.1790585e-03
  2.5850939e-02
  5.4567162e-02
 -1.7030424e-01
  5.4896027e-02
  1.1926384e-02
 -1.0627924e-01
  1.0737184e-01
 -2.7008072e-02
  5.4506931e-02
 -2.8667592e-02
 -4.5312662e-03
 -3.2849737e-02
 -3.5188608e-02
  1.9633688e-02
  4.0627528e-02
 -1.4871996e-02
  3.7324648e-02
  2.6324958e-02
  6.5336978e-01
  1.0515713e-01
  1.3733758e-01
 -1.8836601e-02
 -3.8156852e-02
  6.9129109e-02
 -4.3997772e-02
  2.7877897e-02
  1.3458559e-01
  2.2080153e-02
  3.7148046e+00
  8.9502491e-02
 -6.0512698e-03
  9.6501991e-02
 -3.1280473e-02
  1.0683076e-01
  1.7110674e-01
 -4.9237534e-01
  2.0813391e-01
 -6.9349013e-02
  8.4092207e-02
 -2.8214291e-01
 -9.2200413e-03
  8.0251612e-02
 -3.0221331e-01
  5.9053332e-02
  1.1245494e-02
  1.1387741e-02
  6.6311181e-02
  4.4140616e-01
 -4.3362719e-01
  3.3133522e-02
 -1.1395508e-01
  6.9884755e-02
 -1.4768910e-03
  2.9759623e-02
 -1.8065395e-02
 -3.5451785e-02
  4.1362781e-02
  1.2464781e-02
 -1.8199477e-02
 -4.1325327e-02
  1.1738222e-01
 -7.3295464e-03
  1.1144048e-02
  7.0540242e-02
 -7.3786455e-01
  1.5571383e-01
  9.3670711e-03
  3.0131165e-02
 -6.8929002e-02
 -9.7868629e-02
 -7.2627306e-02
 -1.5283525e-01
 -3.8013396e-01
 -3.1169105e-02
  2.2537259e-02
  3.7492141e-02
 -1.2038806e-02
  7.1420604e-03
  3.3599369e-02
 -5.1076833e-02
 -1.2435121e-01
  6.3995503e-02
 -3.7181877e-02
  5.4563072e-02
 -6.5359756e-02
  1.0009603e-02
 -4.8690412e-02
  1.7075764e-02
 -6.1740518e-01
 -6.3221738e-02
  2.4212906e-02
  2.3578975e-02
 -2.4922840e-02
 -4.8132858e-04
  1.7094279e-02
 -2.7179355e-02
  8.1567705e-04
 -7.6642357e-02
 -1.8978101e-01
  6.2947631e-02
  1.5879820e-01
 -1.2724067e-01
 -2.1437168e-02
 -2.0393203e-01
  1.0966089e-01
 -5.7051424e-02
 -2.4083422e-02
 -3.9178077e-02
  2.0032342e-01
 -1.7279474e-01
 -6.9990836e-02
  8.3622457e-03
  1.1870071e-01
 -3.0991949e-02
  1.1273982e-02
  5.8647878e-02
  2.6995176e-02
  2.7274165e-02
  5.9218667e-02
  1.3137087e-01
 -3.7878498e-02
 -9.0544075e-02
  4.5430440e-01
  7.4608751e-02
  9.9412911e-03
 -1.2903398e-01
 -5.1504590e-02
  8.3175778e-02
  1.9864391e-01
  3.3569153e-02
 -5.1908363e-02
  8.6570054e-02
 -2.9897742e-02
  3.2248806e-02
 -3.8433861e-02
  5.6895573e-02
  5.8917832e-02
  4.0281983e-03
  2.8658000e-01
 -1.4557716e-01
  8.1769869e-02
  1.8628506e-02
 -2.1322969e-01
  2.6478538e-02
 -1.6679157e-01
  6.4020574e-02
  1.8522033e-01
  1.8830989e-01
  1.1233293e-02
  4.9434777e-02
  1.9605456e-02
 -8.1882194e-02
  7.7170916e-02
  1.1915104e-01
  7.6892503e-02
  4.6652410e-02
 -3.8927589e-02
  2.7980538e-02
  1.1791786e-01
  6.0382884e-02
  5.8066215e-02
 -7.2357124e-01
  5.6199569e-02
  4.0684217e-03
 -2.3626273e-02
  5.8793794e-02
  5.3163286e-02
  8.2702357e-01
 -6.5139346e-02
 -1.6966643e-02
 -8.6965576e-02
  5.8059683e-03
 -1.1814120e-01
 -3.1995196e-02
 -2.4243116e-02
 -8.3990563e-03
  7.0402689e-02
 -2.2273732e-02
  1.0214124e-01
  1.7278986e-01
  4.7183722e-02
 -3.1169647e-02
  1.4298482e-01
 -3.2084920e-02
 -1.6096926e-01
  3.9063666e-02
  5.4367829e-02
  1.0740779e-01
 -1.6490388e+00
  7.4760139e-02
 -5.3533170e-02
 -2.0759262e-02
  3.7208563e-03
  6.0358707e-02
  3.2006126e-02
 -7.9449438e-02
  8.5338049e-02
 -1.1152984e-01
 -6.3836224e-02
 -2.0091617e-02
 -2.7372433e-02
  7.2461523e-02
  1.3236922e-03
 -8.5645556e-02
  7.2735071e-02
  8.9103214e-02
  6.2698506e-02
  2.8824929e-02
  1.7826010e-02
 -8.9951627e-02
 -9.5388778e-02
  8.6906768e-02
  2.1088548e-01
 -6.6371091e-02
 -4.2256802e-01
  1.4771646e-01
  4.8347143e-03
 -1.2093825e-01
  1.2549683e-02
 -5.5869985e-02
  1.5261601e-01
 -2.1389490e-01
 -2.3435583e-02
  3.5557750e-01
 -1.2748151e-02
 -3.9214764e-02
  4.5392305e-02
 -1.0462885e-01
 -1.6475910e-02
  5.7165176e-02
 -1.3604681e-02
  9.0560794e-02
 -3.0482084e-02
  1.5797356e-02
 -1.7202382e-01
  8.6131645e-03
 -6.5713772e-03
  3.2383099e-02
  1.0330430e-01
  3.2363407e-02
  9.3152210e-02
 -5.5011276e-02
 -2.4942569e-02
  6.3878675e-03
  2.5596660e-02
 -3.2003373e-03
 -8.5862607e-02
  1.2682758e-01
 -9.5461734e-02
 -6.3402015e-03
 -9.1407478e-02
  1.1540944e-02
  1.5979329e-02
  1.1309539e-01
 -9.9616252e-02
 -9.0936758e-03
  2.8953247e-02
  1.2622835e-02
 -1.9177217e-02
 -1.2256758e-03
 -2.4449229e-02
 -5.6236360e-02
 -3.6416007e-03
  3.8500853e-02
  4.1491479e-02
  4.4525955e-02
  1.7314401e-02
  2.6026007e-02
  1.3579755e-01
 -4.7596022e-02
  6.1029606e-02
  1.1174913e-01
 -3.3170712e-01
 -1.7482090e-03
  6.6578992e-02
  8.3044678e-02
  2.1454373e-03
  3.2108422e-02
 -6.0106169e-02
  4.5773085e-02
  1.9289836e-02
  5.1354449e-02
  4.7123726e-03
  8.7726630e-02
 -4.5799635e-02
  6.5656978e-01
 -6.3828871e-02
 -1.1958994e-01
 -9.5334882e-01
 -7.0826478e-02
  2.6223606e-01
 -1.2755761e-01
  2.3031924e-02
  6.1032232e-02
  4.1386969e-02
 -6.7227170e-02
  2.7276745e-02
  1.0040008e-01
 -1.0178432e-01
 -2.4497403e-02
  3.8149157e-01
 -2.9547358e-02
  3.2030040e-01
 -4.7389531e-01
 -1.0945758e-01
  4.0092565e-02
 -1.6205167e-02
  1.1739478e-01
  5.4411016e-02
  7.7740051e-02
  7.5092567e-03
  1.1899629e-01
 -1.0195686e-02
 -7.1602240e-02
  2.4987140e-03
 -4.7424242e-02
  9.1602011e-03
  2.5780059e-02
 -1.9985845e-02
 -6.5630622e-02
 -1.7600319e-01
  1.3160342e-01
  3.7861481e-02
 -1.2651017e-01
  1.2818778e-01
  1.2165102e-01
 -1.6322632e-01
 -1.1931821e-02
 -1.7793009e-01
 -1.2931703e-01
  1.8152012e-01
  7.2003800e-01
  2.3993051e-01
  3.4137949e-02
  1.2607801e-01
 -1.2075743e-03
  6.6720344e-02
  4.8830163e-02
 -1.4636076e-02
  9.1473728e-02
 -3.4977015e-02
  2.6058896e-02
 -5.6482986e-02
  1.1098005e-01
  9.4393231e-02
  1.0285586e+00
  2.9834684e-02
  5.5195251e-03
  3.0090898e-02
 -1.0695522e+00
 -4.2652231e-02
  1.7214344e-01
  1.6577463e-01
 -7.5086482e-02
  7.9635978e-02
  2.2459731e-02
 -1.4670688e-02
 -3.6430351e-02
 -2.7522366e-02
  5.2646410e-02
  1.4437033e-02
 -4.2111687e-03
  9.7763464e-02
  4.7807351e-02
  5.7047557e-02
 -4.7050506e-02
  6.2739309e-03
 -6.8093620e-02
  1.5640421e-02
  3.0459478e-01
  1.2722042e-01
 -7.1030945e-02
 -8.0781095e-02
 -1.0871828e-01
 -7.3574387e-02
 -4.4399120e-02
 -2.1346182e-02
 -1.4797214e-02
  9.6359603e-02
 -9.9063918e-02
 -1.7762220e-01
  5.0996549e-02
  7.8332797e-02
 -1.6292107e-01
 -6.1110221e-02
 -7.5299844e-02
  1.3486709e-02
 -4.3168347e-02
  8.2971916e-02
 -9.6862745e-03
  1.8217420e-02
 -2.6290643e-01
  4.0886033e-02
 -2.0525686e-02
  1.6407499e-01
 -1.8199934e-02
 -5.6410268e-02
  3.0228978e-02
  1.0654299e-02
  9.9293150e-02
  5.9678560e-01
  3.3311896e-02
 -8.6905181e-02
 -4.6915597e-01
 -2.6886985e-02
 -2.6823880e-02
  5.9491273e-02
 -1.2262557e-01
  1.0354085e-01
  2.2557524e-03
 -9.1135390e-02
  3.3651873e-02
 -4.3766774e-02
 -2.3857072e-01
 -2.2237848e-03
 -3.6627884e-04
 -1.0427420e-02
 -2.1815695e-02
  3.5473488e-02
  4.7109567e-02
 -4.1256204e-02
  5.5138726e-02
  1.5856148e-01
 -1.2668176e-01
 -1.3483034e-01
  3.5626929e-02
  1.4161019e-02
 -1.1903488e-01
  9.4200857e-03
  2.7738791e-02
 -3.1135429e-02
  8.4019028e-02
  1.8016428e-01
 -4.9793649e-02
 -5.4875031e-02
 -1.6707238e-02
  2.1077408e-02
  1.1487652e-01
  7.7807270e-02
  5.2928168e-02
 -4.2528957e-01
  7.9664223e-02
  7.7682562e-02
  1.5903339e-02
  1.1545649e-01
 -1.2279469e-02
 -7.5332761e-02
  5.0103344e-02
 -1.2689322e-01
 -1.7620616e-02
 -2.8315359e-03
  1.0002957e-01
 -1.0025962e-02
 -9.7394824e-02
 -4.3985333e-02
 -1.5976852e-02
 -6.3410215e-02
 -1.5956683e-01
  5.2574821e-02
 -3.0702855e-02
 -1.9713981e-02
 -5.6368969e-02
  6.3687347e-02
 -1.1989655e-01
 -3.1767651e-02
 -2.1120025e-01
 -7.1197428e-02
  2.1943482e-02
 -5.8838829e-02
  1.1185170e-01
  1.4076790e-01
  3.0633010e-02
  1.1553948e-02
 -1.1296452e-02
 -6.1511132e-03
  1.3924263e-01
  4.2339001e-02
  6.3907825e-03
 -4.1842602e-02
 -4.7688726e-02
  2.1447008e-02
 -9.0824878e-03
 -1.4559941e-02
 -1.0871103e-03
  9.8500311e-02
  4.6782281e-02
 -1.4676001e-02
  3.2630038e-02
 -2.3554232e-02
  1.0183620e-01
  1.0200939e-01
 -1.9686881e-02
 -5.2514333e-02
  2.2510352e-02
 -2.1172740e-01
  2.3885584e-01
  3.0205324e-03
 -1.1063623e-01
  2.4965210e-02
  1.0792814e-01
 -6.0123160e-02
 -7.3794916e-02
  6.2540598e-02
 -1.4905727e-01
  6.2783863e-03
 -9.4287015e-02
  6.0759705e-02
  4.6462413e-02
 -3.1441089e-02
 -4.7940182e-04
  5.4761410e-02
  2.2624414e-03
  8.3345622e-02
 -8.0136903e-02
 -1.3627985e-01
 -3.2444829e-01
 -2.3927677e-02
  6.9039680e-02
 -8.7329082e-02
 -7.2734550e-02
  4.1557517e-02
  5.7914805e-02
 -2.4405114e-02
  2.8685406e-01
  5.3757723e-02
  1.0473442e-02
 -1.9698476e-03
 -4.3318752e-04
  4.4287849e-02
  5.7942782e-02
  4.9934417e-02
 -6.1576944e-02
  6.2381376e-02
 -1.9013770e-01
  1.0174926e-02
 -6.8948612e-02
  3.5027664e-02
  6.2727496e-02
 -2.9221898e-02
  1.0121441e-02
 -2.5353971e-01
  1.4066505e-03
  1.1475620e-01
 -8.7772004e-02
 -9.7346231e-03
  5.0422572e-02
  1.3504241e-01
  2.8145943e-02
  1.1291625e-01
  1.5460078e-03
 -1.4086728e-03
  1.5202921e-02
  6.9968328e-03
  1.1167792e-01
  4.7041532e-02
  1.6211537e-01
  2.5999805e-02
  2.8023271e-02
  4.9030175e-03
 -4.3977417e-02
  3.6972490e-01
 -5.0639904e-01
 -1.7188384e-01
  9.4219595e-02
  4.7740705e-02
  2.4925222e-01
  1.0647777e-01
  6.4080004e-03
 -7.1796715e-02
 -1.4708462e-01
  5.7806657e-03
 -2.9867873e-02
  1.5248114e-03
  7.6464139e-02
 -6.0056411e-02
 -4.4162974e-02
 -2.4556937e-02
  3.7150956e-03
 -8.6386137e-02
  1.3700069e-01
 -9.5845625e-02
 -7.9012588e-02
 -3.1117909e-02
  8.1856348e-02
  5.6232531e-03
  1.9120148e-01
  7.6548338e-02
 -5.2052937e-02
 -3.2090762e-01
 -1.7716970e-01
 -7.9175517e-02
 -4.6833698e-02
  1.3678347e-01
 -1.3408470e-03
 -6.4019032e-02
  2.7182547e-02
 -1.0267360e-01
 -4.0539511e-02
  3.1399999e-02
 -6.3249364e-02
 -3.5107252e-01
  3.1154782e-02
 -1.0819323e-01
  3.0397898e-02
  6.7901880e-02
  5.5519463e-03
  5.5791829e-02
  1.9259224e-02
  9.9790329e-03
  1.7287884e-02
 -2.6731774e-02
 -6.2284164e-02
 -3.6427744e-02
 -5.9993289e-02
 -3.3032168e-03
 -7.7681147e-02
 -2.9957297e-01
  3.6691092e-03
  1.3965486e-01
  2.0436751e-02
  1.9000692e-02
  2.9817756e-02
 -4.0964220e-02
  6.5756932e-02
 -1.6963072e-02
 -9.9693045e-02
 -1.3309148e-01
 -2.4567733e-02
 -2.2135850e-02
 -3.0149177e-01
  2.3715511e-01
 -4.5108750e-02
 -3.7347081e-03
 -4.6202734e-02
 -1.3889512e-02
 -6.1915941e-03
 -4.8686527e-02
  4.6323206e-02
 -2.2062808e-02
  1.7934671e-01
 -1.9738565e-01
 -4.3684370e-03
 -3.4783207e-02
  8.7325446e-02
  4.6463672e-02
  3.8052511e-03
 -3.0741455e-02
  5.1245358e-02
 -3.8626775e-02
  1.3847371e-02
  5.9650019e-02
 -5.4078060e-03
  1.3769490e-01
 -2.3802005e-02
  1.8226815e-04
  6.5818079e-02
  1.1821069e-01
 -3.6121294e-02
 -9.2854604e-02
 -5.8113318e-02
 -1.4912465e-02
  4.9525164e-02
 -7.6531298e-02
  3.7176482e-02
 -4.6227608e-02
 -6.7605712e-02
 -7.7961907e-02
  8.1045307e-02
 -5.3424048e-03
  2.4941459e-02
  4.0256646e-03
  1.6790585e-01
  8.3620325e-02
  1.6313329e-01
  4.8914356e-03
 -1.8476674e-01
  3.4333829e-02
  6.8776302e-02
  4.9196268e-03
 -6.0847271e-02
 -8.4242180e-02
  1.3096234e-01
  1.6840462e-02
 -1.1053698e-01
 -5.4163761e-02
 -2.1687262e-02
 -5.7530689e-01
  1.3762419e-02
  3.3098269e-02
  7.2454683e-02
 -7.4763067e-02
 -5.3853488e-01
 -2.6083285e-01
  2.2104864e+00
  9.9777527e-02
 -3.8184993e-02
 -1.2543143e+00
  1.9161781e+00
 -6.4856845e-01
  7.6781595e-01
  2.2921872e-01
  2.0963114e-03
  1.8950039e-01
 -3.2017101e-02
  2.3655230e-03
 -6.3314745e-03
 -1.6278957e-01
  1.5815450e-01
  8.5111558e-03
 -2.3052189e-02
  4.8204482e-02
  1.2941535e-01
  9.6283710e-01
  2.4720280e-01
 -2.2573400e-01
  5.3087109e-01
  3.0775128e-02
 -6.8447486e-02
 -1.7028370e-01
  9.0016335e-02
  8.0797262e-02
  3.9432898e-02
  5.7735909e-02
 -2.4489155e-02
  7.2133228e-02
  3.5391483e-01
  3.1299379e-01
  3.7141006e-02
 -1.3066134e-02
 -5.3833634e-02
 -5.7529710e-02
  9.0307474e-02
 -1.8205764e-02
  1.8794872e-02
  5.0000418e-02
 -1.4279008e-01
 -1.4198492e-01
  5.8383420e-02
  2.3715168e-02
 -5.8089357e-02
 -6.0997123e-01
 -9.6770868e-02
  1.1686038e-02
 -4.8986385e-03
 -4.3369729e-02
  1.2710370e-01
  1.7827281e-01
 -6.0861994e-02
 -1.5453826e-02
 -2.3111455e-02
 -1.3762113e-02
 -6.0795359e-02
  1.7527882e-02
  6.2106162e-02
 -1.3789171e-01
 -5.0999444e-02
  5.5534642e-02
  1.5088023e-02
  9.1920175e-02
 -4.2875685e-02
 -8.4553659e-02
  7.2429508e-02
 -7.8252189e-02
  2.0383383e-01
  1.3106170e-02
  4.7313273e-02
 -1.6356632e-01
 -3.0822825e-02
 -8.8533983e-02
 -1.0262247e-01
 -8.8330410e-02
  1.7693336e-01
  2.2093646e-02
 -4.2307410e-02
 -3.4706704e-02
 -7.7148318e-02
 -2.0512247e-02
 -7.9062231e-02
  7.0636505e-01
  1.1618593e-01
  1.4025263e-02
  1.1059295e-01
  2.6058103e-03
  1.2987382e-02
  4.4604396e-03
 -7.7412352e-02
  1.0882626e-01
  1.0965189e-02
 -4.9190808e-02
  1.0298851e-01
 -3.7432760e-01
  5.9030704e-02
  3.5110045e-02
 -1.1694060e-01
 -1.2243533e-01
 -4.1602287e-03
  1.6614908e-02
  3.9613295e-02
  3.1036604e-02
  1.4427326e-02
  9.0593491e-03
  8.0951639e-02
  4.6245367e-03
 -1.6343618e-02
 -6.2064897e-02
 -1.3767414e-01
 -8.6639665e-02
  2.2334527e-02
 -1.1549544e-01
 -1.3184543e-01
  2.2338260e-02
 -1.2908787e-01
  8.2812384e-02
 -5.5195238e-02
  8.6453199e-02
 -6.8505205e-02
  4.7864947e-02
  6.4994721e-03
  3.0327681e-02
 -7.9904005e-02
  5.3433765e-02
 -1.3107166e-01
  1.7939217e-01
 -4.0469579e-02
 -3.2665655e-01
 -1.3469484e-01
  2.6121601e-01
  1.9838423e-02
 -1.2992193e-01
 -2.0758636e+00
  7.2914444e-02
  1.7143685e-03
 -8.2980514e-02
 -7.9496324e-02
  2.1367718e-01
 -1.1855108e-01
  3.1674825e-02
  4.3575209e-01
  8.9742905e-03
 -5.0678231e-02
 -4.2943742e-02
  2.1244930e-02
  6.0520675e-02
  2.9328577e-02
  3.2385614e-02
  1.9164580e-01
 -3.2961391e-02
 -1.9554924e-02
  1.5992983e-01
 -1.1217992e-01
 -7.9916313e-02
 -9.6032456e-02
 -5.1568385e-02
  2.1119638e-01
 -3.5081491e-02
 -6.2263761e-02
 -8.3141074e-02
  2.5067505e-01
 -4.0212080e-02
  7.1798187e-01
 -1.1032543e-01
 -3.5580046e-02
 -2.9048586e-02
  7.6056393e-03
  1.4650419e-01
  2.8489944e-02
  8.0090046e-02
  7.1298122e-02
 -7.6320864e-02
  4.2769465e-01
 -3.2027212e-01
 -2.0870414e-01
  6.2321655e-02
 -1.4991765e-01
 -6.3823476e-02
  2.6029694e-01
  2.2932777e-01
  1.3728435e-01
 -2.7815763e-02
  1.7896131e-01
  1.3834895e-02
 -6.7851213e-03
 -4.5136161e-02
 -1.3788810e-01
  2.1425903e-02
  7.0409739e-01
  5.7208531e-02
  3.5886358e-02
 -1.1639700e-01
 -3.5195705e-02
  4.7263782e-02
 -6.0808834e-02
  9.9521810e-03
 -5.0350249e-02
 -8.2007483e-02
 -2.6604829e-02
 -4.7542460e-02
 -4.9904205e-02
 -7.6503931e-03
  4.5067031e-02
  4.7188420e-02
 -6.0121145e-02
 -1.5200296e-01
 -2.9459524e-01
  5.1798288e-02
  4.8907716e-03
  2.6550278e-02
 -1.5422612e-01
  1.0988050e-01
  2.8422186e-01
  3.0027634e-02
  1.0131617e-01
 -5.4215025e-02
 -3.4414176e-02
 -8.3913870e-02
 -1.7298225e-01
  5.1394227e-04
 -9.4350487e-02
 -1.6739514e-01
  1.6036673e-01
 -5.0104626e-02
  3.7178453e-02
  4.7876738e-02
 -4.3983452e-02
 -4.5910247e-02
  1.3777351e-02
  7.1823105e-02
  2.8227335e-02
  5.0142437e-01
  1.3661076e-02
 -2.4837466e-02
 -2.2638755e-02
  3.2215271e-02
 -6.7186909e-04
 -3.8824316e-02
  2.3151119e-01
  1.0953862e-02
  5.6761727e-02
 -6.8321829e-03
 -9.8986417e-02
  6.0613852e-02
 -7.0741504e-02
  2.1649845e-02
  4.0584128e-02
  7.9422787e-02
 -4.4074692e-02
 -9.0385333e-02
  1.7138302e-01
  2.4760170e-02
  4.1964777e-02
 -1.0764287e-01
  3.6636952e-02
 -1.9129433e-01
 -2.7793201e-03
  1.2764144e-02
 -4.3148242e-02
 -8.3758876e-02
  1.6126050e-01
  6.4759478e-02
  1.8575856e-01
  4.9925223e-02
  1.4762063e-02
 -1.2934853e-03
 -2.3615824e-02
  5.1396131e-03
 -1.4899442e-02
  9.1007594e-03
 -4.0645110e-03
 -2.0448480e-02
  1.9963369e-02
  2.4061689e-02
 -8.0249958e-02
  7.3173307e-02
  6.8845682e-02
 -1.8470430e-01
  1.9908587e-02
 -1.1468506e-01
 -9.5158368e-02
 -1.5742211e-01
  7.1819060e-02
 -1.9818773e-02
  1.3792656e-01
  6.0408394e-04
 -5.2160215e-02
  4.3476578e-02
 -4.2272981e-02
 -3.9925653e-02
  1.1854343e-01
 -1.0189567e-02
 -9.7292088e-02
  4.9852789e-03
  2.1219503e-02
 -9.3493992e-03
 -2.0272939e-01
 -1.4529710e-01
 -1.2413802e-02
  8.7751262e-02
 -3.8722393e-03
  1.1595206e-01
 -5.2903745e-02
  4.4738259e-02
 -2.4952156e-02
 -6.6560082e-02
  5.7948880e-02
  2.3906849e-01
 -2.6016120e-02
 -4.5926515e-03
  3.3042047e-02
 -2.1858536e-02
  4.4888915e-03
 -4.0776227e-02
  1.3221168e-02
 -4.0139496e-02
 -2.6020950e-02
 -3.6260787e-02
  1.7078142e-01
 -8.8075750e-02
  2.4119567e-02
  1.1211933e-01
 -4.3939926e-02
 -8.6592510e-02
  1.9379432e-01
  9.0726905e-02
  2.8788063e-01
 -3.8708560e-02
  1.6084427e-02
 -2.2959115e-03
  4.6799187e-02
  1.6283567e-01
  3.5189902e-03
 -1.0024548e-01
 -1.0076085e-01
  1.9875379e-02
 -2.4658784e-01
 -1.3787116e-02
 -1.4726537e-01
  5.6668703e-02
 -1.1042260e-01
  1.2809165e-02
 -1.0406645e-01
 -2.9107550e-02
  5.5181995e-02
  6.6412605e-02
 -2.0737851e-01
 -9.2792129e-03
 -1.8688387e-03
  2.1948589e-02
  1.9852838e-01
  1.5818802e-01
 -1.2583314e-01
  2.6182042e-02
 -3.6928590e-02
 -1.1368476e-02
  2.1282164e-02
  2.2234151e-02
  2.4737202e-02
 -6.9619261e-02
  1.1922560e-01
 -1.3228175e-01
  2.4577513e-02
  2.4131979e-03
 -2.7898068e-02
  2.0454133e-04
  4.4832420e-02
 -1.6935436e-02
  4.1103200e-03
  1.5939616e-02
  5.0372977e-02
  8.4005073e-03
 -5.5740392e-03
 -1.0490137e-01
 -7.9393968e-02
  9.7422525e-02
 -2.6018417e-02
 -3.2610673e-01
  6.4761661e-02
 -6.7853510e-02
 -5.8606669e-02
 -4.5920122e-02
  1.3361341e-01
  7.9783916e-02
 -1.2923472e-02
  9.7364910e-02
 -2.8278118e-02
  6.6320881e-02
  2.7104390e-03
  1.2362985e-01
  1.0198098e+00
  4.6089791e-02
 -6.4074814e-02
  1.2316302e-01
  2.5737364e-02
 -1.1926819e-01
 -3.5392504e-02
 -3.2796611e-03
  1.8223213e-02
 -2.2177299e-02
 -6.9435894e-02
 -2.7703784e-02
  1.0120341e-01
 -6.0260338e-03
 -1.8273357e-02
  3.7456028e-02
 -1.5299562e-01
  1.8112305e-01
 -4.7135600e-03
  1.2002772e+00
 -3.2395065e-02
  8.8405922e-02
  9.0141728e-04
 -2.0444833e-01
  5.3601485e-02
 -4.4071604e-02
  1.0409094e-01
  1.2870990e-01
 -4.8942521e-02
 -9.4255030e-02
 -6.6633351e-02
 -4.7778465e-02
  6.3799871e-03
  2.1055428e-02
 -7.8098918e-04
  5.0024327e-04
  8.6895108e-02
 -1.5503682e-01
  3.1636253e-02
  7.0594542e-02
 -5.2355915e-02
  1.0092450e+00
 -1.6306216e-02
 -3.8033228e-02
  4.9667779e-02
 -6.9502898e-02
 -1.1424993e-02
 -3.7826739e-02
 -3.1947187e-01
  1.4610065e-02
  3.7114780e-02
 -1.6395185e-02
  1.4347246e-01
 -1.0582678e-01
 -9.0818502e-02
  4.6744175e-02
  1.7071268e-02
  3.1503618e-02
 -1.2887678e-04
 -8.3360024e-02
  1.4378120e-03
  8.8235280e-03
 -5.1848618e-03
 -1.0116636e-01
  3.3189394e-02
 -1.8754018e-02
  8.9380294e-03
  7.6529406e-02
  3.5559675e-01
  6.4863293e-03
  5.6698922e-02
  5.2820116e-01
  3.5791835e-01
 -1.5959218e-02
  3.0635986e-02
  2.7766952e-02
  7.0270069e-02
 -5.8890670e-03
  6.8738521e-03
  2.4413075e-02
 -1.6001156e-01
  5.7955867e-01
  5.8432624e-02
  9.4586581e-02
  2.9892122e-02
 -1.1364327e-01
 -5.8503419e-02
  8.8017575e-02
 -4.9273212e-02
 -1.2804250e-01
 -8.2582649e-04
  2.6493801e-02
 -9.4124593e-02
 -3.8789395e-02
  3.4943309e-02
 -5.1450733e-02
 -2.2530025e-02
  3.6535442e-01
  3.8125128e-02
  2.2112234e-01
  2.3841646e-01
  7.8313034e-03
 -3.1849630e-02
  4.4012327e-02
 -3.8400698e-02
  1.4772008e-01
  1.0676353e-01
 -1.9794766e-02
 -1.5678665e-02
 -6.2407814e-02
 -5.6958292e-03
 -1.5556458e-01
  1.5106069e-02
  7.4640051e-02
 -5.0618201e-02
 -2.0829732e-02
  2.3862964e-02
  2.3312641e-03
 -3.0916691e-02
 -1.0639828e-01
  2.0474995e-02
 -1.0277676e-01
 -6.8170615e-02
 -5.8406007e-02
  3.5001025e-02
  4.0314302e-02
  5.8743048e-02
  3.3917636e-02
  1.2921763e-02
  2.6162386e-02
  2.7920792e-01
 -2.9665194e-02
  4.9274969e-01
 -1.0443516e-01
  6.0477763e-02
 -1.6575044e-01
 -5.6483047e-03
  4.0459361e-02
  7.7119698e-03
 -6.5424308e-02
 -1.6481438e+00
  4.6974507e-01
 -6.4676389e-02
 -5.6384516e-01
 -2.0802493e-01
  9.6587213e-03
 -7.5966172e-02
 -8.3715963e-01
  5.1775187e-02
  1.1513476e-02
 -4.4014657e-01
  2.1145564e-02
  1.0069171e-01
  2.1574833e+00
 -2.0853605e-02
  4.8050202e-02
  1.3394998e+00
  4.3896087e-02
  1.2343563e-02
  2.1160951e-02
  7.4945457e-02
 -3.7502387e-01
  6.7327219e-01
  6.2008995e-01
  8.1056195e-01
  2.2569983e-01
 -1.8442011e-01
  1.2283007e-01
 -7.5342208e-02
  1.1416536e-01
 -1.4013485e+00
 -1.1514921e+00
  1.5304640e-01
 -1.9743548e-01
  3.0310896e-01
 -2.0370195e-02
 -3.8963791e-02
  1.6717498e-01
 -3.3107045e-01
 -9.0684019e-02
  5.1288480e-01
 -6.6551632e-01
  1.1823311e-01
  4.8711360e-01
  7.1306758e-02
  4.4519436e-01
  5.0705910e-02
 -5.4900996e-02
 -1.3969040e-01
  6.4735234e-02
 -2.3534341e-01
  6.0183620e-01
  5.3074962e-01
 -5.0397940e-02
 -2.1458200e-01
  3.4212179e-02
  1.3104094e-02
  5.3859633e-01
  9.0505816e-02
  3.3906183e-01
 -1.1878613e-01
  7.2994754e-02
 -2.5726140e-01
  1.0501726e-02
  3.3275002e-01
 -9.3327880e-02
  3.3300556e-04
 -2.5802905e-02
  4.0789045e-02
  3.8343900e-01
  1.6463295e-01
 -2.2993605e-01
  9.8858587e-02
  2.0369267e-01
 -1.3648294e+00
 -8.4299140e-02
 -3.7725512e-02
 -8.4695205e-02
  5.2483965e-02
  6.3911766e-02
 -1.0701363e-01
  2.4685560e-02
 -6.6517830e-01
 -9.2047550e-02
  6.0787129e-01
 -1.2878528e+00
  2.7175030e-02
  1.7628700e-01
 -1.3524993e-01
 -7.5846431e-03
  1.2351958e-01
 -3.1477085e-01
 -7.1451776e-02
  3.7718853e-01
  6.9725859e-01
 -9.3484670e-01
 -2.5225350e-01
  3.1808749e-01
 -2.4834814e-02
 -4.9787551e-02
  4.2668912e-01
  5.4319233e-02
 -3.0450153e-01
 -1.4752658e-02
 -6.4600460e-02
 -7.4493760e-01
 -1.1113245e-01
 -1.8233626e-01
  2.8346870e-02
 -7.3814440e-01
  4.5366585e-02
  3.1914562e-02
 -2.1690455e-01
 -3.2612164e-02
 -1.9650277e-02
 -1.8314990e-01
  4.8813310e-02
  1.7566763e+00
 -6.0289079e-01
  3.4507611e-01
 -1.6737916e-01
 -8.2413226e-02
 -1.1313610e-01
  1.6373659e+00
 -2.7335262e-02
 -6.8789981e-02
 -2.1009067e-01
 -3.0383904e+00
  6.1604691e-01
  4.8592931e-01
  2.0188798e-01
 -3.2670669e-02
 -1.1015265e-01
 -4.4641474e-01
  4.9503185e-03
 -8.8626407e-02
  2.5072485e-01
 -3.7879163e-01
 -4.2587581e-01
 -1.1128920e+00
  9.4846451e-01
 -3.1019780e-01
  1.9167845e-01
 -3.0440101e-02
 -8.1440816e-03
  4.3220738e-01
 -4.3742153e-01
  6.9172555e-03
 -9.7380251e-01
  3.3033065e-02
 -4.2390723e-02
 -1.4593144e-02
 -5.4308307e-01
 -8.6923772e-01
 -1.3254714e+00
  1.0507928e-01
  4.3341774e-01
 -4.5453101e-01
 -8.0894686e-02
  2.2962576e-02
  3.2715937e-01
 -2.7420962e-01
 -1.0808932e-01
  5.1277244e-01
  7.5565778e-02
 -5.2316148e-02
  2.2777867e-02
  4.9665663e-01
 -3.3123833e-01
 -1.7089209e-01
 -1.0862745e-01
  7.3035508e-01
 -8.5956128e-03
 -1.1371624e-01
 -1.7297716e-01
 -1.8468352e-01
  3.8780708e-02
  4.4657070e-02
 -1.1849419e-01
 -1.1718801e-02
 -5.8210127e-02
  1.1037691e-01
  7.0007004e-02
 -9.8348826e-01
 -5.0717688e-01
  5.0314593e-01
 -8.7178215e-02
 -1.2534792e-02
  1.3100454e+00
  3.0130216e-01
 -3.5070464e-01
 -1.0553671e-01
  5.4326307e-02
 -3.4686133e-02
  2.3219706e-02
  4.1810197e-01
  4.0569551e-02
 -2.6733326e-03
 -6.5112717e-02
 -3.8357798e-02
  1.8126812e+00
  6.2164986e-01
  1.4803571e-01
  3.0768299e-01
  2.3253413e-01
  8.3323993e-02
 -6.9075376e-02
  5.7671454e-02
  2.7502177e-02
 -1.5814181e-02
 -1.8484284e-01
 -3.4126303e-01
 -9.3247399e-02
 -1.2781902e-01
  7.6592517e-01
  2.0455067e+00
 -1.5422316e+00
 -3.7067801e-01
 -1.4675308e-02
  1.4001734e-03
  4.1268591e-02
  2.8624794e-02
 -1.3499219e+00
 -3.5398293e-04
 -2.5820063e-02
  1.5067444e-03
  3.7042400e-01
  1.9025741e-02
 -5.9900200e-01
  2.2494192e-03
  1.8997198e-03
  3.2735392e-02
  9.0817380e-04
 -3.3372107e-01
  9.4685942e-02
 -3.7180402e-03
 -6.1840916e-01
  5.5097591e-02
  5.3009346e-02
 -5.4806381e-02
  1.0493379e-01
  2.1577705e-02
  4.6399124e-03
 -6.7708492e-02
  1.6000044e-01
  6.7547843e-02
 -4.6492852e-02
  9.9796909e-01
  1.3613836e-02
 -2.2146645e-01
  5.3030118e-02
  5.6279064e-03
  6.2599285e-03
 -9.8135732e-02
 -1.6900887e-01
 -1.5446196e-01
  3.1590864e-02
  2.8563723e-01
  6.7929402e-03
 -4.0918421e-02
  4.5779648e-01
 -5.2204244e-02
 -1.9406115e-01
 -3.5287339e-02
  8.0785984e-01
  3.5909321e-02
  1.5546884e-01
  3.2611644e-01
  1.7196927e-02
  1.5752813e-01
  6.9979904e-04
  2.0112049e-02
  6.0201734e-01
 -2.0721626e-02
 -6.7782775e-02
  1.0854145e-02
  5.9976943e-02
  1.5092035e-01
  2.4283795e-01
  2.1503694e-02
  2.2238529e-01
 -7.1566522e-02
 -6.3202965e-01
  7.9827614e-02
  5.3938575e-02
 -3.1813901e-02
  9.5501631e-01
 -1.4969616e-02
 -5.9368318e-01
  1.8742970e-01
  5.0502247e-01
 -1.0991566e-01
  4.9085915e-02
 -7.7018593e-03
 -5.8754418e-02
 -6.7854770e-02
 -5.0234605e-02
 -2.5396529e-01
  2.1184091e-02
 -8.8279702e-02
  5.4101217e-01
 -6.7413256e-02
 -3.4826320e-02
 -1.4495070e-01
  2.6951721e-02
  3.9464392e-02
  1.0179785e-01
 -1.8707933e-02
  2.3544103e-02
  2.6205467e-02
  1.9526610e-01
  2.2326727e-01
 -1.8309895e-02
 -1.6043991e-02
  9.7063482e-02
  1.1468545e-01
  2.7247025e-02
  1.4606175e-01
 -2.8270525e-01
  1.7666960e-01
 -5.7868395e-02
  1.6808650e-02
 -2.2603130e-02
  1.0950077e-01
  4.0737696e-02
  9.6739314e-02
 -3.4416165e-02
  5.9058983e-02
  1.0037594e-04
  1.8570802e-01
  6.1692603e-02
  8.3815772e-03
 -1.0869034e-01
 -5.2948963e-02
 -5.3052500e-02
  1.2586412e-02
  6.5311834e-02
  5.8465753e-02
  2.1766801e-01
  1.9083732e-01
  8.1211947e-02
  3.5028052e-02
  1.0147768e-01
  9.3028940e-02
 -3.3129728e-01
 -6.4312838e-02
 -6.5317504e-02
  5.4311238e-02
 -1.4182088e-01
 -5.2740630e-02
  2.0796236e-01
  3.1377185e-02
  9.6006982e-02
  1.2535898e-01
  2.4979760e-01
  4.9978752e-02
 -1.7548436e-01
  1.8185633e-01
  4.8179440e-03
  1.6336376e-03
  9.1818206e-02
 -1.8268485e-02
 -1.9813936e-02
 -7.0931993e-02
  2.6825589e-01
 -1.8474190e-01
 -9.1122901e-03
 -3.0683691e-02
 -4.6800058e-02
 -8.5934438e-02
  7.4756786e-02
 -1.5693019e-01
 -4.1173403e-03
 -1.0190922e-02
 -3.4737027e-01
  8.3607048e-02
 -1.7710032e-03
 -8.5519269e-02
  4.6703361e-02
 -3.6491070e-02
 -4.3831442e-02
 -3.3565082e-02
  1.0708404e-01
  1.2181639e-01
 -3.4848217e-02
 -7.1925879e-02
  2.3651188e-02
 -5.3390503e-02
  2.3456812e-01
 -1.3804100e-01
  3.4556481e-01
 -1.6944800e-02
  1.4635427e-01
 -5.9159681e-02
 -2.9156089e-03
  1.3246390e-01
  2.9921338e-02
  2.5246281e-02
 -9.4294667e-01
  1.8863982e-01
  7.9889134e-02
  5.4696128e-02
  5.5283763e-02
 -8.0026835e-03
  8.2518376e-02
 -1.4195110e-01
  2.9246161e-02
  5.3362671e-02
  1.7317241e-01
  3.9209723e-02
 -1.0110310e-01
 -3.1131762e-01
  2.1948412e-02
  2.0059252e-02
 -2.8626667e-02
 -2.3560689e-01
  4.2854711e-02
 -2.3410156e-02
 -1.0895052e-02
  8.3574295e-02
 -1.1450454e-01
 -2.9908538e-02
  4.2602934e-02
  8.1985570e-02
  1.2697636e-01
 -2.2552060e-01
 -1.3298433e-01
  4.4360831e-02
 -9.6873157e-02
 -1.5382689e-01
 -2.1245383e-02
  1.2624876e+00
 -5.9433322e-02
  1.8085738e-01
  2.8169431e-02
 -1.8556616e+00
  4.7300407e-03
 -8.0812939e-02
 -3.8307779e-03
  1.0732443e-01
 -3.1702307e-01
 -8.0649883e-02
  1.8242840e-02
 -1.1442029e-02
 -2.6308331e-01
  6.1815623e-02
 -1.3559881e-01
  1.7540636e-02
 -6.3626729e-02
 -7.2554685e-02
  3.1452817e-01
  1.8906342e-02
  2.6796337e-02
  1.2938470e-01
  2.7817089e-02
  3.3448778e-02
 -1.1746939e-01
 -1.3611895e-01
 -8.4789060e-02
  1.8840750e-01
  1.7524805e-02
  2.4113221e-02
  1.5251504e-02
  1.2049139e-01
  4.8694530e-01
  9.4589181e-02
  1.0019233e-01
 -1.6049478e-02
  8.0879308e-02
  1.3838090e-01
 -9.8592848e-02
 -2.7204460e-02
  5.5749256e-02
 -8.4107384e-02
 -1.3816105e-01
 -1.5572042e+00
 -4.2529896e-02
 -3.9434243e-02
 -3.9239466e-02
  1.7502480e-03
  1.4930485e-01
  1.1075588e+00
 -1.4788604e-01
  3.7457186e-01
 -1.4170065e-02
 -4.8211861e-02
  1.5490459e+00
 -1.0116492e-01
 -1.3704102e-01
  9.8106347e-02
 -6.0077816e-02
 -1.3441396e-02
 -3.1447637e-01
 -6.6358142e-02
 -3.4535564e-02
 -1.0054366e-01
  3.8411036e-02
  1.0409669e+00
 -7.2899185e-02
  3.7307043e-02
 -1.3929266e-01
  2.2742210e-02
  6.4422175e-02
  2.0886224e-02
 -2.0549221e-02
 -5.6803424e-02
  8.3566582e-01
 -1.3806057e-01
 -2.6796037e-01
  7.6406196e-02
 -2.7111178e-02
 -5.6162160e-02
 -5.6976054e-02
 -4.5468032e-01
 -3.8141656e-01
 -4.4605014e-01
  8.5399330e-01
  2.6729712e-01
 -1.4754996e-01
  1.3853514e+00
 -3.3500403e-01
 -2.8391296e-01
  1.1472064e-02
 -1.1034919e+00
  9.7375500e-01
 -2.6997799e-01
 -6.9354278e-01
  2.3727337e-01
 -8.7438412e-02
  3.0092817e-02
 -2.3782703e-01
  2.9905480e-01
  2.0453455e-02
  1.6273147e+00
 -9.0691215e-01
  4.0368390e-01
  7.0868212e-01
  3.3339760e-01
 -3.5337158e-02
 -3.5201952e-02
  1.3346088e-01
  8.7784581e-02
  4.5288154e-01
  3.0772620e-01
  2.4746713e-01
  1.5810797e-01
  7.0094061e-01
  2.1928078e-02
 -5.0778866e-01
 -7.0480788e-01
 -7.1354479e-02
 -7.6021098e-02
  3.3232203e-01
  8.8190198e-01
  2.3843451e-01
 -3.8640466e-01
  4.2744204e-01
  1.6472391e-03
  1.9705015e-01
 -2.9357356e-01
  7.2160535e-02
  2.1239571e-01
 -7.9678908e-02
  1.8776228e-01
  5.3925234e-01
  2.6205501e-01
 -6.8245873e-02
  3.4257546e-01
 -3.7595596e-02
  9.2073977e-02
 -2.4821442e-02
  4.3305613e-02
  1.0109096e-01
  4.3591995e-02
  3.5342672e-03
 -6.4765844e-03
 -8.7524727e-02
  3.5402115e-02
 -2.3730586e-01
  3.2905199e-02
  4.5467786e-02
 -3.2277700e-02
  2.7021855e-02
  4.7215100e-02
  3.9685618e-02
  9.8017827e-02
 -1.5913931e-01
 -9.7438738e-02
 -8.6241394e-02
 -2.8060416e-02
  1.3604335e-02
 -2.0843486e-01
 -5.0159056e-02
  1.4047404e-01
  3.9753228e-02
  8.0789328e-02
  2.8443667e-01
  8.4875204e-02
 -3.0428970e-03
  4.1547050e-03
  5.8322353e-04
  1.0219756e-01
  6.0859162e-02
 -4.1503218e-01
 -4.3686289e-02
 -2.0408562e-01
 -7.1263030e-02
 -7.7883229e-03
  1.3007703e-01
 -1.8438233e+00
 -2.3869570e-02
 -3.9073084e-03
 -9.3650386e-02
  2.7279237e-01
  6.1144330e-02
  1.3992642e-03
 -2.6826065e-02
 -6.7280042e-03
 -9.9120755e-03
 -7.0249200e-02
 -1.3923436e-01
 -3.6306627e-02
 -1.0101184e-01
 -7.1383757e-03
  6.6220172e-02
 -2.8614681e-02
 -7.2193637e-02
  2.2421487e-02
 -6.1590310e-02
  5.6490924e-02
  2.1069031e-02
  1.9253370e-01
 -3.5031881e-02
 -5.4682493e-02
 -2.0034956e-03
 -2.5872894e-02
 -2.4142009e-01
 -1.5491645e-01
  1.2772451e-01
  6.7907333e-02
 -2.7569944e-01
 -2.4124803e-01
 -1.0164842e-02
  2.6907675e-02
 -9.1197072e-03
  5.3286828e-02
 -7.8689374e-02
 -5.0280815e-01
 -9.5677459e-01
 -2.2163527e-02
 -3.2042426e-01
 -3.7347037e-02
  1.4990993e-01
  8.7996119e-01
 -8.4095798e-02
 -5.0639963e-01
 -8.3898967e-03
 -4.1550659e-02
  1.9044895e-02
  6.9160730e-02
  1.2204820e-02
 -8.6750895e-02
  1.7157578e-01
 -9.2043780e-02
 -3.1531432e-03
 -3.0531707e-01
  1.9996984e-01
 -1.9867534e-02
  7.2200680e-03
 -2.9776631e-02
  2.7448457e-01
  1.0285652e-01
 -3.6101986e-04
  1.0592118e-01
 -9.8915637e-02
 -9.5864460e-02
 -8.5991450e-02
  1.4198376e-01
 -8.9921933e-01
 -6.3579805e-02
  2.3650197e-02
  2.1544635e-01
 -1.0918376e-01
 -2.3811501e-02
 -1.8836673e-02
  4.3824062e-01
 -2.4296011e-01
 -2.1915507e-01
 -1.2020782e-02
 -2.5560984e-02
  3.9156699e-03
  1.6545340e-01
  1.1520008e-02
 -3.6043648e-02
 -3.0549860e-02
 -1.1501190e-01
 -7.9567797e-02
 -3.2404590e-01
  5.8126733e-02
  2.5857538e-03
  6.4395994e-02
 -8.4771011e-03
 -6.7443284e-03
 -7.7411972e-02
 -1.8303448e-02
  1.9441402e-01
 -3.9580926e-02
  6.2753223e-02
 -2.3110170e-02
  1.9816935e-01
 -4.4268440e-02
  2.9739602e-02
  6.4849332e-02
  9.2724990e-03
  7.3503725e-02
  3.5051487e-02
  4.8386645e-02
 -1.7435491e-01
 -5.0287228e-02
  4.9072504e-02
 -1.5717287e-02
 -1.5013455e-02
  4.0190890e-02
  1.9584456e-01
  4.5948476e-02
 -1.6378338e-02
 -5.7696480e-02
 -3.0059147e-01
  3.6410248e-01
 -9.4796065e-04
 -3.0387551e-02
  6.2211953e-02
 -4.2834971e-02
 -1.7420943e+00
 -3.3501662e-02
 -5.3649537e-02
  1.7794769e-01
 -2.4209453e-02
 -6.9368626e-03
  7.3307657e-01
  2.8610684e-03
  2.6015904e-02
  3.7013744e-03
 -6.3748613e-02
  3.2485042e-02
 -1.5445477e-02
 -7.7115623e-03
 -3.1673792e-03
  4.6334449e-02
  5.3318977e-02
 -3.3890370e-02
 -1.1299263e-01
 -9.5165901e-02
  3.8844999e-02
 -5.0822888e-02
  7.3164374e-02
 -6.1825305e-02
 -2.4304474e-02
 -3.9336085e-02
 -6.7521697e-01
  3.4030851e-02
  2.5386137e-01
  6.3087553e-02
 -1.9437365e-02
  8.2263155e-03
 -4.2052560e-02
  3.7516851e-02
  1.2332262e-02
  1.1680278e-01
  3.3336435e-02
  7.0081271e-02
 -1.2863712e-01
 -4.7460049e-02
 -1.4324515e-02
 -5.5929266e-02
  7.0451811e-02
 -6.5870091e-02
 -8.4072679e-02
  5.9687905e-02
 -8.8013172e-02
 -4.6770409e-02
  3.8842093e-02
  1.7848862e-02
 -1.5438111e-01
  2.2159044e-03
  5.1931266e-02
 -2.9269123e-02
 -6.3200712e-02
  2.2109807e-02
  2.7371533e-03
  3.4485724e-02
 -2.0889620e-01
  8.5027426e-02
 -1.1055882e-02
  1.2732430e-02
 -1.5085086e-02
  3.6019940e-02
  1.4890395e-01
 -5.4140583e-02
  3.2470275e-02
  1.3892231e-02
  4.6371147e-02
 -9.0046287e-02
 -1.4455378e-01
 -4.2318374e-02
 -1.0807384e-02
 -1.9182532e-01
  1.0153960e-01
 -1.0183939e-01
  9.7385924e-03
 -7.0175990e-02
 -1.2809257e-03
  1.3288990e-01
 -2.8473979e-02
  2.4272148e-02
 -7.0411541e-02
 -4.5938998e-02
  1.4917636e-01
  8.5736878e-02
  1.2499576e-02
  2.4269966e-02
  3.2513484e-02
 -1.6728297e-02
  4.4470108e-03
  1.5206386e-01
 -4.4061244e-02
  1.0354969e-01
 -3.7268836e-02
 -1.0535383e-01
 -4.2791691e-02
 -1.1006245e-01
 -1.3381293e-01
 -6.6802390e-02
 -1.2964796e-02
 -8.5774250e-02
 -2.5655389e-02
  2.5269847e-02
  3.8446905e-03
 -3.9657354e-03
 -2.6412394e-02
  4.8798844e-02
 -5.2769929e-02
  5.9581935e-02
  1.8725536e+00
 -3.0513233e-01
  4.7157085e-01
 -8.6484857e-02
  4.1456869e-01
  3.9763139e-03
  1.5628346e+00
 -3.1363168e-01
 -1.9880812e+00
  6.8748504e-02
 -5.7452583e-01
 -1.5212739e-01
  1.6866483e-01
  1.0123117e-01
 -7.2212266e-03
  2.1401735e-03
  7.1321838e-03
 -5.9330398e-01
 -8.1399821e-02
  1.9423690e-01
 -3.2758367e-01
  2.5655350e-01
  3.9129028e-01
 -5.4764491e-01
  7.5741380e-01
  3.5509220e-01
  5.2150500e-01
  7.6068245e-02
  9.2555624e-01
 -3.4366372e-01
  1.2090921e-01
 -1.6934294e-01
  4.2416587e-01
 -5.9942526e-01
 -2.4538447e-01
 -1.7177235e-01
  6.4281948e-02
  8.1975900e-02
 -2.6533626e-02
  1.3111517e+00
 -5.8869105e-02
  1.2202537e+00
 -1.0398392e-01
  7.5121123e-01
  4.9004185e-01
  1.9655615e-01
  6.1452579e-01
 -9.4896741e-02
  1.4754587e-01
 -2.6718095e-02
 -2.7337351e-01
 -1.2964574e-01
  2.8952789e-01
 -3.1544226e-01
  2.9711381e-01
 -1.1462077e-01
  5.0424868e-03
 -5.5253047e-02
  9.8654769e-02
  1.7021129e-02
  8.2759187e-02
 -1.4394520e-01
  1.2544899e-02
 -1.0700787e+00
  2.8118059e-01
  3.4549899e-02
 -1.2790009e-01
  4.2592797e-01
 -2.3434238e-04
 -3.1584123e-01
 -5.1125072e-02
 -2.9047647e-01
  4.6089625e-01
  2.0682116e-01
  3.4137517e-01
  3.7009045e-02
  1.2768348e-01
 -5.0849032e-01
  3.3310083e-01
 -4.9814440e-02
  5.3045880e-03
 -9.4273821e-02
  1.0462438e-01
  5.5363152e-02
 -1.5860252e+00
  3.3981457e-01
 -6.3575886e-02
  1.5251945e-01
 -2.0879519e-01
 -1.3187613e-01
 -7.4171267e-02
 -1.2688054e-01
  1.0229586e-01
 -7.0083909e-02
  1.2369286e-01
 -3.2868868e-01
 -2.8346956e-01
 -1.3820292e-01
 -7.0136478e-03
 -4.0885207e-01
 -1.6647868e-01
  2.0190427e-02
  4.1064179e-01
  2.7098270e-02
  4.6563931e-02
 -6.9356374e-02
 -5.8631921e-01
 -4.1675347e-01
  6.9969887e-01
  3.8652346e-02
 -9.8241240e-01
  1.2446738e-01
  1.3500866e-01
  2.2753961e-02
 -6.0380574e-02
 -3.2933849e-01
 -4.4281073e-02
 -2.7664506e-01
 -1.5721710e-01
  3.8403443e-01
 -3.8655639e-02
  1.8815953e-01
  2.3452425e-03
 -3.1594943e-02
  5.0637114e-01
 -5.6106608e-02
 -5.6366153e-02
 -1.1515540e-01
 -2.8825206e-01
 -1.1032717e+00
  1.0003993e-01
  2.8332131e-02
 -1.9062161e-01
  3.7269033e-02
 -2.9577091e-02
 -6.1736596e-01
 -2.5277374e-02
 -2.4598563e-01
 -2.4572355e-01
 -1.1306691e+00
 -2.0621948e-01
  9.9129833e-02
 -9.7340435e-02
  6.7555010e-02
 -1.2342032e-01
 -2.6939195e-02
  4.7206629e-02
  5.2833814e-02
 -3.7037808e-02
  9.1548607e-02
 -4.1344188e-02
 -9.7874299e-02
  3.7192207e-02
 -6.2340433e-03
  8.7267747e-03
  1.9287700e-02
  3.9450154e-02
  6.2182471e-02
  3.5312469e-03
 -1.1628754e+00
  1.6842397e-01
  2.2795236e-01
 -5.1961802e-03
  7.3573135e-02
 -7.2660260e-02
  3.8838763e-02
  4.8088394e-02
  1.6305614e-01
  1.1681594e+00
 -1.1581258e-01
 -5.3576056e-02
 -7.5779319e-01
  1.5854554e+00
  6.5630712e-02
 -1.5908648e-01
 -1.5690482e-03
  7.8977002e-03
  1.6961388e-01
 -3.6106028e-02
 -3.4287903e-02
  5.8831889e-02
  4.3214157e-02
 -5.4294491e-01
  3.3095278e-02
 -1.0631601e-01
  4.8894915e-01
 -3.5639893e-02
  2.5327945e-02
 -1.7806076e-01
  1.3779078e-01
 -1.6081877e-01
 -8.5884571e-01
 -6.3272573e-02
  7.8423403e-02
 -7.0093818e-02
 -5.4916549e-02
 -3.2964207e-02
 -2.8161663e-03
  1.6444470e-01
 -1.5883642e-03
  1.7940442e-01
 -7.6473303e-02
 -2.0444372e-03
  5.3800311e-02
  3.8815256e-02
 -2.5036129e-01
  2.5309783e-03
  8.4853396e-02
 -6.2480545e-01
  1.2304962e-01
 -7.2677704e-03
  4.6404485e-02
  1.1517258e-01
 -1.0975405e-01
  6.6827363e-03
 -1.7612085e-02
 -1.8856445e-01
  4.5376513e-02
  8.1271410e-02
  8.7514609e-02
 -9.3743898e-02
 -3.0083619e-03
  2.5679324e-02
  9.3825862e-02
 -7.2257027e-02
  1.2140113e-02
 -3.7423763e-02
 -7.9853915e-02
 -1.2459672e-02
  6.7584313e-02
  2.0232815e-01
 -3.5381168e-02
 -4.1690368e-02
 -1.7946595e-01
 -1.1187632e-01
 -1.1594024e-02
 -4.1562505e-02
 -9.5960164e-01
  2.9491311e-02
 -4.8491944e-02
  1.5550805e+00
 -3.1010544e-02
 -3.5747364e-01
  7.9920888e-02
  4.3454874e-02
 -3.8033899e-02
  7.3963948e-02
  9.0185082e-01
 -1.3217276e-01
 -2.5289061e-02
  3.1782389e-02
 -3.8655471e-02
  4.8799291e-01
  2.2549506e-03
  1.5084031e-02
 -2.8130513e-02
 -4.7818113e-02
 -9.4689153e-02
  4.7708827e-01
 -1.7985282e-02
 -3.1540770e-02
  6.3877150e-02
  3.3680379e-01
 -4.7844701e-02
  5.1590119e-02
 -2.6034145e-02
 -3.6671687e-02
  1.9775108e-01
 -1.0602165e-02
 -8.4898576e-02
  4.1283192e-03
  3.3670920e-03
 -5.6864072e-02
 -1.1275970e-02
  8.6450800e-03
 -2.9002476e-02
 -3.3590205e-02
 -1.5721653e-01
 -4.0674374e-02
 -8.1159353e-02
  7.5468756e-02
 -7.1000755e-02
  3.4579448e-02
 -8.9283220e-02
  2.0312561e-01
  8.6332507e-02
  1.1915803e-01
  1.0491680e-01
 -3.4163151e-02
 -7.6223195e-02
 -4.5984052e-03
  4.9613994e-02
 -1.0883241e-01
  6.3639209e-03
  7.3055620e-03
  1.7980395e-02
  7.9235779e-03
 -2.5320816e-01
 -3.9429743e-02
  2.0376643e-02
  1.2566916e+00
 -7.6138359e-03
  8.8504972e-03
  2.0674433e-01
  6.9419863e-03
  2.1898594e-01
  3.7611786e-02
 -2.1100683e-02
 -1.5737604e-02
 -5.7319248e-01
 -8.1972986e-02
 -3.7566677e-02
  2.2053285e-02
 -4.2420685e-02
  2.2866818e-01
 -1.2676394e-02
 -3.8842957e-02
  1.1166188e+00
 -6.6578799e-01
 -5.7950780e-02
 -1.6299967e-01
  8.3598457e-02
 -2.3647694e-02
  2.7668218e-03
  1.7145945e-02
 -1.0659789e+00
  1.7935820e-02
 -1.8645604e-01
  3.8815204e-02
 -5.7408608e-02
 -2.1216813e-02
 -2.7708139e-02
  2.9702002e-01
  6.9047049e-02
  7.0291661e-02
 -1.5347801e-01
 -3.5044447e-02
  5.3569119e-02
  1.8349417e-02
 -3.9971977e-02
 -8.6160205e-02
  3.9287806e-02
  4.0519428e-02
  1.6687904e-02
  4.4225328e-02
 -2.1358814e-02
  1.3100247e-02
 -9.3214987e-03
  1.0396983e-01
  1.3789080e-01
  2.7280519e-02
  8.5349171e-04
 -3.3040747e-02
 -6.4411424e-02
 -5.0436109e-02
 -1.0311931e-02
 -5.0346320e-03
  2.4161562e-02
  5.5002308e-01
 -8.0207013e-02
  3.4334823e-02
 -3.4632078e-01
 -1.8384482e-01
 -1.0715584e-01
 -3.4016061e-03
 -8.4558642e-03
 -1.5575674e-01
 -9.7623706e-02
 -7.1114779e-02
 -4.1382960e-03
 -7.5482199e-04
 -1.0938616e-02
 -7.5836363e-03
  4.5322487e-01
 -4.5135012e-03
 -4.4965331e-02
 -3.6956221e-02
  9.7428501e-02
 -1.6655173e-02
 -9.7361222e-02
 -1.8319806e-02
  5.6914158e-02
 -2.6778825e-02
  3.9589018e-02
 -1.7301209e-02
 -3.5945466e-03
 -1.0695561e-02
 -7.2613120e-02
  8.9593390e-03
 -8.2006641e-02
  1.6585289e-01
  1.1327165e-02
 -1.0716376e-01
  7.4573806e-03
  1.3219561e-01
 -2.7382398e-02
  6.8980772e-03
  6.7567728e-02
 -6.8068109e-02
  9.9658825e-02
 -1.1314645e-01
 -2.1128589e-01
 -3.2535888e-02
 -1.4795408e-01
  2.7229570e-02
 -2.4207095e-02
 -4.4790059e-02
  1.4080452e-02
  8.4573850e-03
  2.0910816e-01
  5.5879337e-04
  6.0440931e-03
  1.9879574e-03
 -1.0485380e-02
 -4.2393535e-02
  9.2212744e-02
  8.7970505e-03
 -8.3523598e-03
  2.8996348e-02
 -2.5418092e-02
 -1.8750384e-02
 -5.5549834e-02
 -9.0335272e-02
  2.3395549e-01
  9.1223091e-02
  4.5417375e-03
 -1.0312250e-03
 -2.9551850e-03
 -1.6375679e-01
 -7.9185311e-03
  4.0584311e-02
  3.6769679e-03
 -3.2314464e-02
 -2.5868601e-01
  3.4073230e-02
 -1.8780917e-01
 -2.5723577e-02
 -6.1543822e-02
 -4.7192934e-01
  7.5578205e-02
 -6.5441154e-02
 -1.2632133e-04
 -2.6807861e-02
 -8.1945807e-02
  6.1947159e-02
 -2.1015899e-02
 -2.0773850e-02
 -2.4559642e-03
  4.9840383e-02
 -6.1008655e-02
 -7.7737033e-02
 -5.1084504e-02
 -1.6828628e-01
  1.7092901e-01
 -2.0186730e-02
 -1.3318817e-01
  9.0405650e-02
  1.1319616e-01
 -1.8631390e-01
  8.9304168e-03
  5.8340019e-01
 -4.7931680e-03
 -6.4449704e-01
  1.5255824e-01
 -1.3685240e-01
  5.6819707e-02
  2.0486813e-03
  1.2434322e-01
 -6.3053221e-01
 -9.2206240e-02
 -4.2375259e-02
  8.3046362e-02
 -1.3960154e-01
  8.2392655e-02
 -2.1565152e-02
 -9.8702284e-03
  6.7590936e-03
  1.5554179e-01
  1.9860311e+00
 -2.4814059e-03
  2.3271231e-02
 -6.8182126e-02
  5.3640115e-03
 -1.3818498e-01
  8.9021899e-02
  1.2088943e-01
 -5.8269906e-01
  9.3891315e-02
 -1.5176670e-01
  2.4632763e-03
 -3.6740339e-01
  4.2132229e-02
  4.0428557e-02
 -5.4712195e-02
  5.1576931e-02
  1.6737929e-01
  5.3180748e-04
  1.8217778e-03
 -4.6861745e-02
 -1.0719967e-01
  2.5185825e-02
 -2.2558205e-01
  9.1822021e-02
  7.8651950e-02
 -2.5126150e-02
 -9.2844293e-03
  1.2649618e-01
  4.5806803e-03
 -1.4640589e-01
 -5.8392831e-03
 -2.1764040e-01
 -1.3140819e-02
 -2.0921832e-01
  3.5588901e-02
 -1.1952272e-01
  1.3991932e-02
  4.1232395e-01
 -3.1546608e-02
  6.7995977e-01
  1.9316252e-02
  2.1103747e-02
  1.6992190e-01
 -4.7191586e-03
 -3.6921520e-03
  3.7923902e-02
 -3.3294246e-01
 -1.5222872e-02
  1.4108204e-02
  1.0997648e-02
  2.3950355e-02
  5.8275424e-02
  3.3879358e-02
 -8.2598835e-02
  2.9565124e-02
 -2.2633977e-02
  3.9466806e-02
 -4.1634899e-02
  7.8783676e-02
 -8.4418602e-02
  6.5221339e-02
  3.9063994e-02
 -6.0200314e-03
  3.0135198e-02
  4.2332223e-01
 -2.0617435e-02
  6.3372888e-02
  2.5994449e-03
 -5.9597638e-02
  2.7849002e-02
  6.6429329e-01
  3.3302731e-03
  2.1845780e-02
 -2.3839963e-03
 -1.0448290e-01
  1.5480219e-01
  1.7552560e-02
  2.6091313e-01
 -4.1896690e-02
  1.1526792e-02
  7.4847795e-02
 -1.6345726e-01
 -3.6543903e-01
  1.1376242e-02
 -4.1338587e-03
 -5.9282854e-03
  9.5880911e-02
 -1.8582774e-02
 -5.5492919e-02
 -6.8477556e-02
  8.9413799e-02
  1.7355563e-02
  2.0020234e-03
  3.4659836e-02
  1.9469870e-02
  5.0835408e-02
 -1.3663043e-01
  8.1211478e-03
  1.9122535e-01
  2.5795244e-02
  1.2618192e-01
 -4.3659173e-02
  1.5502572e-02
  5.4261345e-02
 -9.5096834e-02
 -1.0282553e-01
  2.9041786e-03
 -9.2449449e-02
 -5.5400021e-02
 -8.7065259e-03
 -3.9158288e-02
  1.1000098e-01
  1.3635804e-02
 -2.4042843e-02
  1.3355329e-02
  7.6108432e-01
  3.6505129e-02
 -3.3208492e-01
 -1.8406866e-02
 -6.1652180e-02
 -2.5451714e-01
 -2.8017291e-03
  5.0378689e-03
  1.4434715e-02
  4.1141173e-01
 -6.2699318e-02
  8.2502499e-02
 -3.6662258e-02
 -5.4016795e-02
  1.6617723e-01
  1.7219661e-01
 -7.2118849e-02
  1.2823473e-01
 -5.0131004e-02
 -1.9141346e-02
  1.8634804e-02
  4.5052942e-02
 -7.9160035e-02
  3.8751601e-03
 -1.3944341e-02
 -9.7122923e-02
 -2.1224715e-01
  2.0482331e-03
 -9.7034443e-03
 -7.4190997e-02
  6.0898829e-02
  5.4353427e-02
  5.9517443e-02
  6.5287158e-02
  3.0057521e-03
  4.0107861e-02
  7.7037148e-02
 -9.4963936e-03
  6.4910695e-02
  2.8551847e-01
  3.3723527e-01
  5.9250295e-02
 -6.2293544e-02
 -8.3764102e-03
 -1.5263495e-01
 -4.7495551e-02
  3.0596880e-02
  2.4136461e-02
 -1.3219000e-01
  2.4783114e-02
 -2.9234534e-02
  1.4966955e-04
 -2.5383940e-01
 -1.3734599e-03
 -3.3190109e-02
  9.5660657e-02
 -1.5454499e-01
 -1.1975305e-03
 -1.0604814e-01
 -9.7894825e-02
 -4.9227234e-02
 -1.5772448e-01
 -7.5572319e-02
  1.3898909e-01
 -5.0292734e-02
 -8.4274657e-02
 -2.1202223e-02
  5.2969563e-01
  1.1827146e-01
 -3.5107255e-02
 -3.3655908e-02
  5.6775218e-01
 -1.7433995e-01
  8.1363274e-03
 -2.1739447e-02
  7.3823431e-03
  7.5355254e-02
 -1.5218693e-01
  1.7572770e-02
  3.9061781e-02
 -6.6606966e-03
 -6.7668478e-03
 -4.6284977e-02
 -2.7048850e-01
  8.1898116e-02
 -2.0372974e-02
 -2.1646768e-01
  2.8670582e-01
  1.9069022e-01
  2.6895112e-01
 -2.0608502e-02
  8.7876953e-02
 -6.4341420e-01
  5.3800572e-02
  1.5275491e-02
 -1.0486759e-01
 -1.8970627e-01
 -5.7626192e-02
 -5.8518875e-01
 -4.1155908e-01
 -1.8282842e-02
 -2.1940630e-02
 -3.2410175e-01
  4.7143172e-02
 -4.1386478e-02
 -7.4506931e-02
 -1.7220461e-01
  2.2814052e-02
  3.7305516e-01
  9.5939718e-02
 -1.0107711e-01
 -2.4230687e-02
  2.6767856e-02
 -2.4837021e-02
 -9.9775690e-01
  9.1371574e-02
 -9.1764025e-02
 -2.0692407e-01
  5.7160677e-03
 -6.6839147e-01
 -7.4158967e-02
 -1.1274918e-01
 -1.0756249e-01
  1.3036247e-02
  1.6662179e-02
 -4.8975363e-02
 -2.3606628e-01
 -1.0707922e-01
  1.1709280e-02
 -3.6533661e-02
  7.2254345e-02
 -2.5076955e-03
 -3.7528280e-02
 -4.5278694e-02
  7.1430751e-03
 -8.9364640e-02
  2.5386812e-02
 -7.2999522e-02
  6.2392578e-02
  9.2701428e-03
 -5.9206247e-02
  7.1249313e-05
 -1.0167593e-01
 -7.8595333e-02
  8.0183432e-02
  1.8147804e-02
 -3.1724691e-02
  1.8634206e-02
  2.5862819e-02
 -1.8258529e-02
 -9.9629182e-03
  2.3497406e-02
  1.5953328e-02
  2.1535096e-01
 -6.9173053e-02
  2.5316227e-02
 -2.0325653e-02
  9.6963057e-03
  2.4966151e-02
 -1.5274339e-02
 -2.4109850e-02
 -1.0853919e-01
  2.8448042e-01
  1.0961447e-01
 -2.5135797e-01
  3.6164671e-02
 -3.5335150e-02
  8.8119246e-02
  9.6094996e-02
  2.6023457e-02
  1.8666767e-01
 -9.0909358e-03
  6.1996173e-02
  6.5214937e-03
  1.5412964e-02
  2.0003920e-02
 -7.5846061e-02
  8.8995881e-02
  3.1147685e-02
  3.8168509e-02
 -1.5716044e-02
  9.7731408e-03
  1.3916890e-01
 -3.3417456e-02
 -1.3903721e-02
  5.8069151e-02
  2.8289784e-02
 -5.9914137e-03
 -1.0804214e-01
 -1.6732727e-01
 -1.4302590e-01
 -3.4884784e-01
 -2.1914963e-01
 -1.7478550e-02
  1.2640747e-02
  1.0811552e-01
  1.6826102e-01
 -1.8448862e-03
 -2.2167441e-02
  2.2396420e-03
  7.0093036e-02
  2.6760837e-02
  4.5465220e-02
 -8.4941193e-02
 -3.2192942e-02
 -1.7945574e-01
  1.5717952e-03
  2.2438595e-01
  4.6964649e-02
 -3.0625433e-02
 -6.7947537e-02
  9.5798627e-02
 -9.5571250e-02
  5.2254003e-02
 -6.0034562e-02
  5.9661277e-02
  7.0331111e-03
  3.6899522e-02
 -4.6903901e-03
 -8.0520399e-02
  4.4456203e-02
 -1.4938404e-01
 -2.4370193e-03
  3.2345090e-02
 -6.2946342e-02
  3.6508024e-02
  9.7200014e-02
 -9.4124123e-02
 -3.8325144e-03
 -2.6393386e-02
 -1.6191322e-01
  9.8797111e-03
 -4.9497647e-04
 -3.4238752e-02
 -1.4613502e-02
 -4.6287283e-02
  1.2725433e-02
  7.5410551e-01
 -4.1579634e-02
 -1.9984124e-02
  3.4507524e-02
 -1.5664384e-02
  7.1037918e-02
  5.9197929e-02
  5.8925124e-03
  7.8668088e-02
 -1.6512493e-02
 -6.2658973e-02
 -2.1058086e-01
 -4.2674452e-01
  5.4492574e-02
  5.2741740e-02
 -1.3094686e+00
 -7.9908468e-02
 -7.4273103e-01
 -3.0380707e-02
 -1.4810354e-02
 -8.3861081e-03
  1.1799672e-02
  1.9180070e-01
 -2.3654053e-01
 -8.7657394e-03
  5.7620013e-01
  3.4282498e-02
  1.9866040e-02
 -3.2162797e-02
 -8.5083529e-02
 -6.2661892e-01
  1.1035140e-02
 -2.2644049e-01
  1.7312104e-02
  3.1731719e-01
  6.9458440e-02
 -1.5464902e-01
  6.3151434e-02
 -1.0845888e-01
  7.1575388e-02
  9.9277861e-02
 -3.4646790e-02
 -2.8516827e-02
  3.1471156e-02
 -1.1407017e-01
 -4.2024091e-02
  1.0308272e-01
 -4.4701830e-02
 -3.4495313e-03
 -3.2442108e-01
 -4.5785446e-02
 -9.0323195e-02
 -1.1100557e+00
  2.0406637e-01
 -2.8597435e-01
 -2.9538190e-02
 -2.9280904e-01
  6.6270409e-03
 -1.2831360e-01
 -7.5795509e-02
 -3.9518312e-02
  2.4783711e-01
 -2.9307436e-02
 -3.0708456e-02
  1.2226432e-02
 -6.0364318e-01
 -4.7591057e-01
 -1.1808267e-01
 -4.6866387e-01
 -1.8427208e-01
 -8.3287936e-03
 -3.5798363e-02
 -1.2970823e-01
  2.1099810e-01
 -4.2315848e-02
 -6.8988681e-01
  1.2044995e-01
 -3.6480823e-01
  2.1890889e-01
 -4.9524248e-01
  8.3215579e-02
  8.8437647e-01
 -4.7248125e-02
  1.9627555e-01
 -2.3736717e-02
 -4.3903133e-03
 -1.3490115e-02
  8.2962528e-02
  5.9323035e-02
 -2.2682385e-01
 -1.2416224e-02
 -2.3552585e-02
 -4.9416453e-02
  3.6231437e-01
 -2.0207595e-02
  1.3272724e-01
  4.3123130e-02
  5.9483796e-02
  2.5822011e-01
  3.6199752e-02
  7.5686097e-02
 -3.5917908e-01
  7.4852988e-02
 -3.1460959e-02
 -7.7639192e-02
 -1.9704334e-02
 -6.8224221e-02
 -1.1582254e-02
 -1.1738467e-01
  8.6898142e-03
  4.0382803e-03
 -6.7845166e-02
  1.6786076e-02
  3.7661886e-03
  8.3725248e-03
 -1.5459744e-02
  3.2761618e-02
 -5.0324600e-02
 -4.4493910e-02
  1.0992851e-01
  6.8923220e-02
  2.1165679e-01
  6.4779840e-02
 -6.7620195e-02
  3.2176858e-01
  2.2993289e-02
 -1.7048720e-01
  1.9798871e-02
 -1.1527989e-01
 -1.8609864e-01
  1.3361542e-02
 -9.2365056e-02
  1.3120956e-02
  4.6773553e-02
  8.1497520e-02
 -1.6815133e-02
 -4.4578735e-02
  1.7418740e-02
 -1.6803045e-02
  6.8912014e-02
  2.2292177e-01
  3.1361647e-02
 -1.2418237e-01
 -4.4134808e-01
  1.5475833e-02
 -2.1223679e-02
 -9.3287349e-02
 -1.1023711e-01
  9.4413561e-01
  2.9160639e-02
  2.3185210e-02
  6.5284081e-02
 -4.8091504e-04
  1.0193826e-01
  2.4503220e-02
  5.4351810e-02
  1.2710810e-01
  5.3353608e-02
  3.3045258e-02
  2.2021372e-02
 -1.5600677e-01
  5.1079374e-02
 -7.6446325e-01
 -2.6780555e-01
  2.1250324e-02
  7.1969301e-02
 -8.9306720e-02
  9.0323031e-01
 -4.3767560e-02
 -6.6848777e-02
  6.7287333e-02
  6.6556470e-03
 -1.3549794e-01
 -8.1132334e-01
 -1.7378239e-02
  2.3274731e-02
  1.3375620e-02
  1.1702685e-01
 -8.4336244e-02
  4.5309454e-02
  8.9264087e-02
 -5.9731867e-02
 -1.0285658e-01
 -4.2229045e-02
 -5.9232712e-02
 -1.3723490e-02
  1.1846575e-02
  4.6830337e-02
  1.2782161e+00
 -1.2743052e-02
  9.0156935e-02
 -7.0765078e-02
 -7.5207520e-03
  8.7813325e-03
 -4.2524446e-02
 -3.2816764e-02
 -1.0605805e-01
  8.0702798e-03
  6.5712795e-02
 -5.1319987e-02
 -1.1383065e-01
  2.8735714e-02
  1.9147272e-01
  7.3392568e-03
  3.4044884e-02
 -7.2094895e-02
 -7.1710176e-03
  2.6139939e-02
 -2.6310229e-01
 -1.6149819e-01
 -1.3995710e-02
  7.8946181e-02
  1.2676911e-02
 -9.3203813e-02
 -7.7410899e-02
 -5.5539429e-02
  1.7737700e-02
 -2.2476430e-04
 -1.8875590e-02
 -2.3438465e-02
  2.3790388e-01
  2.1387497e-02
 -4.1769877e-02
  8.0485255e-02
 -1.1897303e+00
  8.6946316e-02
 -8.7755257e-01
  1.2263992e-01
  2.5587943e+00
  4.1979384e-03
  1.8937362e-02
  1.6996104e+00
 -8.3460256e-02
 -4.1047558e-02
 -1.7048810e-01
 -1.3696109e+00
  1.5444079e-01
  1.7395398e-01
 -2.6537681e-01
  1.5250716e-02
 -2.4773102e-02
 -2.8158268e-01
  1.6533643e+00
  4.7521167e-02
 -2.8057992e-01
  3.6476332e-01
  2.2450000e-01
 -2.8403655e-01
 -4.5785297e-02
 -1.1622619e-02
 -1.6717599e-01
 -6.6383379e-03
  8.3500490e-02
  4.2865878e-01
  1.5443216e-01
  1.1678756e-01
  8.4181094e-01
 -1.2017727e-04
  4.4076538e-01
 -4.1431731e-01
  1.1649097e-01
 -7.3182181e-02
  5.0598038e-03
 -1.2025692e-02
 -1.4491263e-01
  7.9712176e-01
 -6.7608036e-02
  1.4818853e-01
  1.2723175e+00
 -5.7602334e-01
 -4.4730672e-01
 -3.0902540e-02
  3.5843175e-02
  2.9240094e-02
 -1.7839125e-01
 -1.5543775e-01
 -4.0141180e-02
 -4.5983590e-02
 -3.9449681e-02
  3.4937587e-01
 -3.9132040e-02
 -1.5464209e-01
 -9.6086189e-02
  8.9591658e-03
 -8.8428874e-03
  5.3571886e-01
  3.6965992e-02
  9.0519756e-02
  1.0166694e-02
  7.4846543e-02
 -4.0155786e-01
 -1.4349484e-01
 -1.9981183e-02
 -3.7321159e-01
 -5.6236885e-02
  1.2599964e-02
  4.7563829e-02
  2.6115624e-02
  5.9233543e-02
  3.1066608e-02
  1.1660420e-01
 -1.3042352e-02
 -9.8791318e-03
 -1.2938402e-02
  1.1900472e-02
  7.0029497e-02
  4.8809361e-02
 -1.3359835e-02
  1.5053418e-01
 -3.5816871e-03
 -5.5584580e-02
 -6.8097713e-04
 -1.6788015e-03
 -7.6470412e-02
 -4.2702653e-02
 -2.5903746e-02
  3.0988434e-02
  3.2724094e-02
  5.6526285e-02
 -2.6130158e-02
  3.9171707e-02
 -1.8656723e-01
 -2.0768575e-03
 -1.1269428e-02
  2.2727148e-01
  9.7788930e-02
  6.9402546e-02
 -3.0823151e-02
  3.2064952e-02
  1.1064115e-01
  2.7905104e-01
  1.3934779e-01
 -6.2686890e-02
 -1.3134921e-02
 -6.7881723e-03
 -4.2264476e-01
 -1.4122099e-01
  2.1768810e-02
  2.3364778e-01
  4.5002203e-02
 -1.2331429e-01
  5.8111286e-01
  5.7332430e-02
 -8.4711224e-02
  4.4966079e-02
  6.5369792e-02
 -2.0272430e-02
  1.7797016e-02
 -5.9493124e-02
  2.9242670e-02
 -3.0519994e-02
 -7.9398349e-02
  3.2563535e-03
 -5.9546819e-03
 -5.2179173e-02
 -2.1171397e-02
  4.8742513e-03
 -2.9849172e-01
 -2.3662218e-01
  2.5713567e-03
 -4.4047385e-01
 -3.8391713e-02
  6.6526152e-02
  4.2537132e-01
  9.9956608e-01
  6.6331200e-02
 -7.3063481e-01
 -1.1717594e-02
 -2.9649727e-02
  2.7823439e-01
 -6.5363657e-01
  8.3141798e-01
 -2.4320008e-01
 -6.1446130e-01
  1.1597410e-01
 -1.5354129e+00
 -6.2406166e-03
  3.8006376e-03
 -1.8235246e+00
 -9.5573299e-02
  5.1206157e-02
  1.2055602e+00
 -1.2911967e+00
 -4.3426920e-02
 -9.2849053e-02
 -4.1241145e-01
  1.4504333e+00
 -6.9920969e-01
 -1.4460118e+00
 -2.3474922e+00
  5.3915685e-01
 -2.2380723e-01
 -1.1544763e-01
 -1.1685154e+00
  1.4799817e+00
  2.6436719e-01
 -4.4374287e-01
  1.9131953e-02
  4.1878358e-02
 -1.2612445e+00
 -1.0956570e+00
  1.2763258e+00
 -1.7358324e-01
  3.4243217e-01
 -1.5789309e-01
  5.5662107e-02
  6.2734842e-01
 -2.5666193e-03
  5.8162417e-02
 -6.3616008e-01
  4.5143935e-04
 -2.3760757e-01
 -1.0615706e+00
  2.5985041e-01
  1.4874117e-01
  1.3011081e+00
  2.4885419e-01
  2.6444888e-02
 -5.6683540e-01
  4.4239354e-01
 -4.0986408e-02
 -6.9334403e-02
 -3.3640397e-01
  4.4145676e-01
  1.1789715e-01
  6.5124482e-03
 -8.0394171e-02
 -2.5873742e-01
 -3.7999462e-02
  1.1989798e-01
  1.1077536e+00
 -1.0455713e-02
  3.9816625e-02
 -2.3370658e-01
 -4.1607118e-01
  3.6720518e-02
 -5.7306636e-02
 -6.4194269e-02
 -1.1577639e-02
 -6.1327174e-02
 -9.7907253e-02
  7.9488434e-02
  8.0572050e-03
  5.4503795e-02
 -1.3028047e+00
  2.7222587e-02
 -2.1728474e-01
 -2.2737211e-02
  1.2046216e-01
  3.5602536e-02
 -1.4971521e-01
  3.4219205e-02
  1.4946556e-01
 -3.4794614e-01
  1.8672782e-01
 -4.4378009e-02
 -7.1109641e-01
 -9.7525455e-02
 -4.1655712e-03
 -7.8936130e-02
 -2.4581267e-01
  4.7935992e-02
  2.1472234e-02
  2.6834890e-01
  1.9491620e-01
 -2.8688485e-02
  5.3363281e-01
 -7.2247558e-03
 -2.8953317e-01
  2.9100223e-02
  4.7859147e-01
 -1.0948924e+00
 -8.8254996e-02
  4.1883044e-02
  4.3269493e-02
  1.1710294e-03
 -1.1392229e-01
 -1.1496916e-01
  2.2986604e-01
  2.6903127e-03
  7.4521244e-02
 -1.5442991e-02
  1.3254131e-01
 -6.2744804e-02
 -1.3772051e-01
  1.4135731e-02
 -9.4921872e-02
 -2.8612368e-02
 -3.8450368e-02
 -1.4819057e-01
  1.2879984e-02
  3.2519743e-02
  1.5594339e-01
 -1.3594201e-02
  8.0399700e-02
  5.9538450e-02
 -9.1383122e-02
 -1.0579728e-01
  2.0907800e-01
  2.7709041e-02
 -2.9459807e-01
  8.7938592e-02
  6.6240295e-03
  7.0455717e-03
 -2.5046419e-03
 -1.1063011e-01
 -8.9098588e-02
  4.2753026e-02
 -9.1753170e-02
 -2.9140936e-02
 -1.8685296e-01
  6.4492244e-03
  7.9266745e-01
  3.9382074e-03
  7.9614460e-01
 -7.7198381e-03
  1.4243377e-02
  8.4776273e-03
  9.6577518e-03
 -2.8430691e-02
  1.6633447e-02
  3.8173452e-02
  2.5880961e-03
 -8.0245063e-02
 -6.0666975e-02
 -5.3790223e-02
 -2.6776838e-01
 -5.8388051e-02
  3.1687948e-01
 -8.8757724e-03
 -1.3852661e-02
  7.3959649e-02
 -3.4946252e-02
  2.1600593e-02
  4.9730567e-03
  1.1667516e-02
 -1.8599655e-02
  6.3805871e-02
 -1.3639235e-01
 -7.4606597e-02
  3.0615360e-03
  6.4316764e-02
  7.3419549e-02
  2.5309060e-02
 -8.6699188e-02
 -1.3409143e-02
  2.4332508e-02
  4.8871361e-02
  8.1725430e-01
 -3.0789470e-02
 -4.4773579e-01
 -2.0098598e-01
 -3.3242680e-02
  7.8830518e-02
 -4.0207181e-02
 -1.8688321e-02
  6.4517751e-02
  9.9883331e-03
  1.6220875e-02
  7.2371364e-02
  3.5590235e-02
 -7.3261641e-02
 -1.1364295e-01
 -4.9204059e-02
 -7.7649481e-03
  5.8411643e-02
  1.4197176e-02
  1.1248481e-01
  2.0380327e-01
 -1.9360960e-02
  5.5401884e-02
  4.7655877e-02
 -2.1796667e-03
 -4.4087511e-03
  3.7345428e-02
 -2.9374056e-03
  4.5334396e-01
 -7.8611173e-02
 -2.1821022e-02
  1.5957223e-02
 -3.6503440e-01
 -2.9284954e-02
 -7.0898831e-02
 -1.0111257e-01
 -3.0337778e-01
  4.3639250e-02
 -1.6323600e-02
 -8.7526679e-02
  4.4376180e-02
 -2.5147393e-01
 -1.1752374e-02
 -1.1273362e-02
  9.2075832e-02
  9.3303956e-03
 -1.9738607e-02
 -1.6016619e-01
  1.7805118e-02
 -3.9078541e-02
  1.2851422e-01
 -9.5280156e-02
 -4.3782100e-02
 -1.3971591e-01
  4.5328967e-02
  1.8094707e-02
  1.9610934e-01
 -4.1706730e-02
  5.4262066e-03
 -9.4049645e-04
 -4.6340942e-02
  2.8801598e-02
 -1.9095004e-01
  1.6058123e-02
 -4.1235287e-02
 -8.5459342e-03
  8.8240141e-01
  4.8473689e-01
  3.1581444e-01
 -2.7683973e-01
  1.1689095e-01
 -4.0902263e-03
 -2.6327430e-03
  2.8742079e-02
 -2.0774499e-01
  4.8787516e-02
  3.9176550e-02
  1.2726126e+00
 -2.1726433e-02
  8.6108902e-03
 -8.0179685e-01
 -1.1126045e-01
  3.9102368e-02
  5.5014455e-01
  7.3124385e-01
  8.5820355e-02
 -5.9341960e-02
 -8.7857729e-01
 -1.5891735e-01
  3.1326585e-02
 -3.7020154e-02
  6.4116192e-01
 -2.6716784e-01
  7.6376372e-03
 -2.4868108e-01
  1.7791918e-02
 -2.9317399e-02
 -6.5305931e-03
  1.2122103e-02
  2.2736794e-01
  1.5486220e-02
  1.4936482e-02
 -1.4486687e-01
 -7.7378921e-02
  8.1156278e-01
 -8.1944376e-02
  1.2971127e+00
 -1.1082219e-01
  3.4017257e-02
 -2.6062734e-02
 -2.9849386e-01
  4.5140967e-02
  2.3472486e-01
  6.4260803e-02
  8.0830902e-02
 -2.0857116e-02
  5.1590506e-02
  2.2138582e-01
  4.0524539e-01
  2.9937222e-03
  1.4904718e-02
  2.6341444e-01
 -7.3473364e-02
  3.5397783e-02
  2.2836240e-02
  1.4343481e-01
  1.7073856e-01
 -1.7782763e-02
  6.1062980e-01
  8.1771933e-02
 -6.3098958e-03
 -1.5273008e-02
  5.3384626e-01
  9.8696752e-03
  2.6506960e-01
 -1.5897404e-02
  2.1024606e-01
  9.0199196e-01
 -3.1420279e-01
  7.8965668e-03
  1.7988124e-01
  4.0564708e-02
  6.8202242e-02
  1.0106943e-02
 -3.3728264e-02
 -3.3303195e-01
 -2.6745170e-02
  9.6708745e-02
  4.2561546e-01
 -8.4798276e-01
 -1.0239700e+00
 -8.7800600e-02
 -1.2284784e-01
  6.1778303e-02
 -1.8708579e-01
 -6.2960237e-02
 -8.7603295e-01
  2.5415368e-02
  4.7580685e-02
 -2.4094259e-02
 -6.7313117e-01
 -3.0807352e-01
 -2.4875395e-01
 -5.0377000e-02
  9.9296711e-02
 -8.5306212e-02
 -2.4371086e-02
 -1.1917482e-01
  8.1185184e-02
 -2.0610948e-01
  4.7035255e-02
 -1.4209475e-01
 -6.2932260e-02
 -3.5403967e-01
  4.3491613e-02
 -8.5438944e-02
 -1.5485848e-01
  2.0950593e-02
 -2.2477625e-02
 -4.4489557e-01
 -4.7710713e-02
  2.8252792e-02
  2.3917446e-02
  4.8059160e-01
 -2.7866447e-02
 -1.2098013e-02
 -8.3164789e-02
  4.4462066e-02
 -2.0974043e-01
  4.2192224e-02
 -7.8792507e-03
  7.3010951e-02
 -4.4878922e-02
 -6.9554210e-01
  7.6695666e-02
 -9.5968373e-02
 -6.0041294e-02
 -2.5383651e-02
 -1.7745640e-02
 -8.0646807e-01
  7.2752541e-01
  4.8194572e-01
  3.3112842e-01
  6.9989033e-02
 -4.7937497e-02
 -5.0603324e-01
  7.7121295e-02
  2.2842216e-01
 -6.2081891e-01
  6.4097896e-02
 -3.7321854e-02
  4.1877301e-03
 -8.6511850e-01
 -2.7853638e-01
  2.9645467e-01
 -5.0046784e-01
  3.5670862e-01
 -5.8653399e-02
  3.0749732e-01
 -6.0700797e-02
 -1.5291183e-02
 -3.2318588e-02
 -5.3700930e-01
 -3.1623212e-01
 -3.1729899e-02
 -1.4662884e-01
 -6.3622665e-01
 -3.6047606e-03
 -2.1205543e-01
  2.2677217e-01
 -1.7538520e-02
 -4.8485748e-02
 -1.4336061e-01
 -2.6034422e-02
 -4.2357442e-01
  4.7310729e-02
  1.7333634e-02
 -2.0118244e-01
 -3.5676170e-02
 -1.2812553e-01
  2.4464561e-02
 -1.8963706e-01
 -3.9341545e-01
 -8.1927292e-02
 -8.8109660e-01
 -7.4996501e-01
  1.6759148e-01
 -1.9513251e-02
 -4.6411276e-01
  3.6008617e-01
 -3.3467096e-01
 -3.8870338e-03
 -9.8800033e-02
  1.0625086e-01
 -8.4287427e-02
  2.1234686e-02
  1.1091866e-01
  3.2302245e-02
  7.2635906e-03
 -8.4527427e-01
 -1.7220680e-01
  1.2328534e-01
  1.2005917e-02
 -2.1569304e-02
 -2.3150404e-03
 -9.7060405e-02
 -8.0456950e-02
 -5.0190706e-02
 -4.6607831e-01
 -4.7321055e-02
 -1.5402307e-01
  4.7430918e-01
 -9.8902844e-02
  1.7562660e-03
  1.7191062e-03
 -2.2545697e-01
  2.1620614e-02
 -2.1281987e-01
 -6.7031658e-03
  8.6790847e-04
  4.0525217e-02
  1.1916529e-01
  8.1675708e-01
 -1.4500820e-02
 -2.9349308e-02
  2.6119730e-01
 -7.0871986e-02
  6.7635334e-01
 -4.0105227e-02
  2.6840225e-03
 -4.6665110e-02
 -3.1316046e-02
  2.2143956e-02
  3.5749257e-02
  5.1480595e-02
  1.7978575e-02
 -1.2249454e-01
  9.8626524e-02
  1.7273655e-02
 -5.3982720e-02
  2.1165733e-01
 -5.1755104e-02
  2.0534463e-02
 -4.6893675e-03
 -9.7140357e-02
  5.6637108e-02
  3.6399574e-03
 -8.0635808e-02
 -6.4541228e-02
 -2.1273753e-02
  1.1021644e+00
 -6.9345057e-02
  1.3563964e-01
  5.4757945e-02
 -8.0345169e-02
  1.3445852e+00
  1.0036358e-01
 -4.3121923e-02
 -4.9454483e-01
 -9.7962003e-03
  1.5500771e-01
  9.3407789e-03
  1.1952356e-02
  3.8812453e-01
  8.4224656e-02
 -8.0609135e-02
 -4.1107193e-02
 -4.1950949e-02
 -4.4457708e-02
 -5.5460590e-01
  4.6960583e-01
  1.4630183e+00
 -3.4959003e-01
 -9.0407121e-01
 -2.8875150e-02
 -2.7904812e-02
  5.4551351e-01
 -1.5537001e-01
  1.7765418e+00
  1.4612384e+00
  2.7434080e+00
  3.9093252e-03
 -1.1048286e-01
  5.4860126e-02
 -1.4311139e-02
  1.4348079e-01
  8.4930217e-01
  5.6857651e-01
  4.6853733e-01
 -1.6815202e-02
  2.4301538e+00
  2.5169265e-01
 -3.1538873e-03
  4.1103348e-01
  5.5390143e-01
 -1.0020074e+00
  2.0797348e-02
 -3.5151169e-02
  1.2121656e+00
 -2.2304289e+00
  4.2898700e-01
 -6.3429016e-01
  2.5657979e-01
  9.9306963e-02
 -1.5253649e-02
  1.2010561e+00
  7.2956890e-01
  1.2331305e-02
  8.4547512e-02
  1.2109474e+00
 -6.6461003e-01
 -5.3631985e-01
 -1.5862949e-01
  9.5786232e-01
  1.1638996e-02
  1.2874759e-02
 -2.9840108e-03
  9.8282200e-01
 -3.8810155e-01
  9.3338355e-02
  8.5121638e-01
 -1.7679665e+00
  5.3059712e-02
  5.6031036e-01
  2.3577277e-01
  3.6945325e-01
 -3.8100507e-02
  1.0178980e-02
 -1.1131053e-01
 -8.4402800e-02
 -2.9276559e-02
 -2.0257086e-01
  7.9085243e-01
  1.0105272e-01
 -1.5671771e-02
  1.7744908e+00
  7.3783010e-02
 -8.2611889e-01
 -7.5556859e-02
  3.6185789e-01
 -5.1070940e-01
 -2.0063438e+00
 -1.0594459e-01
  2.3291320e-01
  9.5376474e-01
 -2.3789253e-02
  2.7655914e-02
  5.9485275e-01
  9.9246018e-02
  4.8282739e-02
 -9.6025890e-01
 -2.9742447e-01
 -9.5011234e-01
 -4.8570320e-01
 -8.9990383e-01
 -3.1237146e-01
  1.8460579e-01
 -2.1292336e+00
  3.1822570e-02
  4.2585272e-02
  8.2629663e-01
 -7.7231210e-01
  5.8977383e-01
  8.9318072e-03
 -8.0062020e-01
  3.1268546e-01
 -4.9206965e-02
 -1.4043731e-02
 -4.8909843e-01
 -1.4418593e-01
 -6.8510561e-03
 -2.2014831e-01
  6.0161185e-01
  5.2584212e-02
  1.4411570e+00
 -2.8373852e-01
 -4.8477414e-01
 -4.5662776e-02
 -4.7693849e-01
 -4.8732810e-02
  2.8555179e-01
  1.0668901e-02
 -2.2652738e-01
  1.2617687e+00
  3.2154966e-02
 -6.4828247e-02
  3.0714649e-01
 -1.8498080e-02
  1.5788074e-01
 -3.6638990e-01
  5.1767230e-01
 -3.6082667e-01
  2.9779997e-02
 -3.4934174e-02
  6.1455435e-01
  4.5235537e-02
 -1.1628917e-01
 -1.9640355e-01
 -4.3006390e-03
 -3.1156710e-01
 -1.0057516e-01
  1.3956080e-01
 -3.3347216e-02
  9.4108957e-01
 -1.6874388e-01
 -1.3679364e-01
 -4.1629738e-01
 -5.5076838e-02
  8.1506729e-02
  2.2003851e+00
 -9.3892807e-01
  8.2235819e-01
 -1.1747260e-01
  9.7255629e-01
 -3.7637311e-03
  9.8238313e-01
 -3.3733216e-01
 -5.0798291e-01
 -1.0470923e-01
 -1.9079730e-01
  3.8435858e-01
  9.6693002e-02
  3.5465445e-02
  1.1973202e-01
 -4.3378122e-02
 -6.1406332e-01
 -3.3359766e-02
  9.8435087e-03
  2.9856169e-01
 -2.3828499e-01
  5.9046704e-01
 -6.7117143e-01
 -9.0932501e-03
 -3.3919540e-01
  4.6380772e-03
  3.7201977e-01
  1.3304062e-01
 -2.2017904e-01
 -1.2049535e-01
  2.9628623e-02
 -2.4480560e-01
  2.4674377e-01
  1.1821095e+00
  3.4647459e-01
  3.0935580e-01
 -1.8414283e-02
  6.8545544e-01
 -2.6969457e-01
 -2.2009754e-01
 -1.9417341e-01
 -1.0001262e+00
 -2.3509005e-02
  4.9951520e-02
 -6.1868191e-01
  3.5265306e-01
 -1.7849329e-01
  1.4770964e-02
 -1.6638570e-01
  3.6470447e-02
 -8.4392262e-01
 -7.9244651e-02
  2.2495037e-02
  2.8699639e-03
  2.8318506e-01
 -4.5656487e-02
 -7.6863401e-02
  3.1726286e-02
 -5.2097565e-01
  3.1834848e-02
  6.5734857e-03
 -8.8561133e-02
 -1.5331835e-01
  8.5029083e-01
  1.4481966e+00
 -5.2469772e-01
  3.0904019e-02
  7.3552027e-02
 -1.8218294e-01
  9.6087295e-01
 -3.9269665e-01
  6.4690605e-02
  8.0474037e-01
  9.0146445e-02
  6.2547159e-01
  4.2335626e-01
 -1.0618333e+00
 -6.7846328e-01
 -1.1565621e-01
  2.7675001e-02
 -4.9634483e-02
  2.6889777e-01
 -7.2402969e-02
 -7.4804640e-01
  3.5144064e-01
  1.6298454e+00
 -6.8232536e-02
  1.8191589e-01
 -1.0621714e-01
 -3.3487102e-01
  1.6975810e-01
  7.0736086e-01
  1.8635023e-02
 -8.1417954e-01
 -1.1100792e-01
  4.3627390e-01
 -1.0703313e-01
  5.9396327e-01
 -3.3923339e-02
  7.8020716e-01
  2.5206652e-02
 -1.7752162e-01
  2.1529071e-01
 -1.3172685e+00
 -1.6174670e-01
  1.2583876e-01
  3.4701464e-01
 -1.5144166e+00
  7.1601897e-02
  3.7713781e-01
  2.4331996e-01
 -1.6538861e-01
 -9.1429949e-01
 -1.9764604e-02
 -1.5407890e-01
  6.6580223e-03
 -3.1885844e-02
 -1.0680430e-01
  2.8044879e-01
 -1.3213654e-01
  8.3708733e-02
  5.2913189e-02
  2.5194529e-01
 -1.0293294e-01
 -1.1520703e-02
  6.8178862e-01
  5.0293356e-01
  1.0645993e+00
 -8.2769030e-01
 -7.6018918e-01
  6.9467902e-01
  6.9393158e-01
 -1.2241735e+00
  6.7358054e-02
  2.6740825e-02
 -8.8770211e-02
  1.7597678e-01
 -7.5490914e-02
  7.1264982e-02
  4.6743858e-01
 -1.2151061e+00
  7.2675145e-01
  2.5371495e-01
  5.6505722e-01
  7.6041259e-02
 -1.3837254e-01
  2.3882009e-01
  3.0108461e-01
 -2.2146989e-02
 -6.1628658e-01
  2.4598807e-01
  1.2183068e-01
  4.0346436e-02
  1.2923905e+00
  1.5251977e-02
  8.4179139e-01
  6.9283113e-02
 -5.8881033e-02
 -3.6043754e-01
 -9.5536791e-02
  6.2572318e-01
 -7.0772928e-01
 -3.1274047e-02
 -3.9456722e-01
  8.4885335e-01
 -1.7305524e+00
  3.0324612e-02
 -6.9842905e-02
 -5.7565379e-01
  5.9732407e-01
 -4.5709956e-02
 -4.7534574e-02
 -3.4966552e-01
 -1.5622029e-01
  7.9618111e-02
  4.2225960e-01
 -6.3773835e-01
 -1.3061489e-01
  3.2776654e-01
  2.4628013e-02
 -9.5965993e-01
  1.8357210e-01
 -4.5571446e-02
  5.1338941e-01
 -1.1381485e-01
  7.0697345e-02
 -1.2811243e-02
 -2.6026512e-02
  3.7155151e-02
 -2.8113393e-02
 -9.8211929e-02
 -2.6026916e-02
 -6.9787109e-01
 -1.0335724e+00
  1.8249263e+00
  7.5914961e-01
  4.7861856e-01
 -1.0694724e+00
 -8.4692228e-01
  5.0354201e-02
 -1.2084736e+00
  2.1416685e-02
 -6.0627371e-01
  4.2570958e-01
 -1.3639661e+00
  7.7734637e-01
 -2.6694646e-01
  1.8856099e-01
 -6.5772414e-01
  2.6406828e-01
 -1.6414362e-01
  1.5120018e+00
 -1.2604280e+00
 -8.4285402e-01
 -9.4258562e-02
 -2.9320279e-01
  2.9051503e-02
  2.7050099e-03
 -1.8845699e+00
 -1.6235532e+00
 -1.5313687e+00
 -1.3820662e+00
  3.6371693e-01
  9.0783769e-01
  1.5973909e-02
 -2.3343237e-01
 -1.0391166e+00
  1.2513000e+00
  2.7777622e-02
  1.4365795e-01
 -5.0751346e-01
  9.4756074e-02
 -3.0964468e+00
 -1.2601897e-01
 -1.6186316e-02
 -4.1303077e-01
  2.3494709e-01
  2.2441402e-01
  1.7552909e-01
 -9.5619991e-02
 -2.0623435e-01
 -6.1549187e-01
 -7.2948378e-01
 -6.5506816e-01
  5.0314116e-01
  7.5319332e-01
  4.6288513e-02
 -8.0504477e-02
 -1.1509848e-01
  3.5490465e-01
 -8.2292423e-02
  3.0786134e-04
 -5.1193362e-01
 -8.5645348e-01
 -5.7219699e-02
 -1.1808556e-02
  4.1385734e-01
  5.8194671e-02
 -2.4353859e+00
 -1.3475459e-02
 -5.1198208e-01
 -5.7110566e-01
 -1.6171907e-01
  3.2573652e-02
 -1.1215240e-01
  7.8500694e-01
 -8.5307069e-02
 -3.0652788e-01
  3.0643171e-02
  1.1694927e-01
  1.3970308e-02
 -1.0162052e+00
 -4.4614386e-02
 -1.1473258e-03
 -7.7388823e-01
  5.2344941e-02
  4.8729861e-01
 -2.5891351e-02
 -2.8862845e-02
  5.6548994e-03
  1.9967823e-01
 -5.1394463e-02
 -3.1052092e-01
 -7.5424917e-02
  7.3347047e-02
  5.6975540e-02
  1.7885302e-01
  1.0661776e-01
 -1.6234219e-01
 -1.4946781e-01
  9.2586301e-02
  1.7299545e-01
 -1.6495973e-01
  1.2687469e-01
 -6.5627538e-02
  1.3263336e-01
 -1.5313251e-01
  2.3166539e-01
  4.6236107e-01
  7.3927782e-02
  7.7153128e-01
 -7.0776907e-03
 -9.4996858e-03
 -2.2776514e-01
 -1.3416360e-02
 -1.1314886e-01
  1.8201148e-02
 -7.2776303e-02
  1.0290658e+00
 -1.1133385e-02
  6.3283101e-02
  2.6314104e-01
  6.8166725e-02
 -4.3436639e-02
 -1.0984671e-01
  2.5577014e-02
 -2.9527029e-02
  1.5004505e-02
 -8.9279734e-02
  3.6409754e-02
  1.0572527e-01
  2.6711969e-02
 -1.1744679e-01
  1.3841038e-03
  1.1271362e+00
  1.3601936e-01
  3.7001708e-01
  3.9350390e-01
  5.4075843e-01
 -3.8677871e-02
  6.7678094e-01
 -8.1906128e-01
 -1.3031776e-02
 -3.3141556e-01
 -2.5769211e-02
 -1.5376762e-01
  4.0386701e-01
 -1.8121095e+00
  4.4433323e-01
 -4.2818174e-01
 -6.0240620e-01
 -4.4525242e-01
  3.8372986e-02
 -1.1658205e-01
 -6.0247671e-02
  1.2598452e-01
  3.4656438e-01
 -7.0606750e-01
 -1.3310601e-01
  6.5888301e-02
  1.8916257e-01
  4.8921421e-02
  3.7239362e-03
 -3.1515006e-02
 -2.4755108e-01
  9.3232341e-02
 -2.3657561e-03
 -3.7408611e-01
 -5.8141017e-01
 -1.3596097e-01
  1.6681729e-01
  2.0613493e-01
 -2.0058733e-01
 -9.1958123e-01
  5.1348686e-02
  4.2266741e-02
  1.0450332e-01
 -3.0966899e-03
 -5.7023898e-02
 -5.5515742e-01
 -1.4976200e+00
 -2.7462961e-02
 -3.0847212e-02
 -3.5609755e-01
 -4.2246681e-01
  2.7942875e-02
  4.8490338e-02
 -3.5961154e-01
 -2.4678592e-02
  5.9016950e-02
  8.1825776e-05
 -2.3927034e-01
 -1.0846835e-01
  2.5997486e-02
 -9.2433177e-02
  1.2227931e-01
  7.7345818e-02
  1.1718403e-01
  1.4750460e-02
 -5.4513250e-02
 -1.0399914e+00
  1.0386242e-02
  1.6667414e-01
 -2.7667093e-01
 -1.7762285e-02
  2.6575518e-01
  6.6383141e-01
  4.0584338e-01
  1.0887487e+00
 -8.3656453e-02
  3.5547143e-01
  1.2657403e-02
 -8.7538466e-02
  1.3486241e+00
 -1.2618831e-01
 -6.0140517e-02
 -1.0594344e-01
  1.3396320e-01
  1.1315654e-01
  8.6723581e-02
 -1.8130425e-02
 -1.8580167e-01
 -8.3590206e-04
  2.5066832e-02
 -1.2170638e+00
 -8.0517627e-02
 -7.4651264e-02
  1.3662478e-01
  6.2159739e-02
  1.2812013e-02
 -1.3483186e-03
 -2.1046922e-01
  2.8089197e-02
  4.6355322e-01
  1.7594619e-01
  5.5985600e-01
 -4.0896264e-01
 -3.0940205e-02
 -9.7511709e-01
 -4.4325641e-01
  2.1377544e-01
 -3.4125298e-02
  8.2538389e-02
 -3.0535616e-03
 -4.3154261e-03
  2.1684878e-01
 -5.8616497e-02
 -9.2267476e-02
  4.2611799e-01
  2.2755463e-01
  1.3102224e-01
  3.2407174e-01
  2.4226408e-01
  2.3981364e-01
  1.0295091e-01
  4.7270555e-02
  1.2076268e-01
 -1.5758188e-02
 -1.0249884e-01
  5.8499925e-02
 -1.1937792e-02
 -2.6955178e-02
  1.2964621e-01
 -1.1792795e-02
  1.8152699e-02
 -5.9965975e-03
 -5.7096273e-01
  7.8789139e-01
  3.0747193e-01
  1.9847654e+00
  2.3155428e-02
  3.6362465e-02
 -1.2119712e+00
 -5.7594430e-01
 -3.1860512e-02
 -3.6650211e-01
 -3.2579201e-01
 -1.7069470e-02
  1.7348329e-02
 -4.3328085e+00
  1.8892288e-01
 -1.3514435e-01
 -5.5757326e-01
 -4.4867057e-01
  6.1846906e-05
 -1.2152304e-01
 -1.2518376e-01
  2.5457945e-02
  2.7528169e-02
 -1.1969754e+00
 -4.7409233e-01
  3.6636055e-02
 -1.2825839e-02
 -1.0450955e-01
 -9.3186450e-01
 -4.8464760e-01
 -2.2896934e-01
 -9.2166122e-03
 -2.5088528e-01
  1.5913980e-01
  2.8075141e-01
 -3.4693319e-01
  1.3726774e-01
 -2.9097018e-01
 -1.1182127e-01
 -1.4912020e+00
 -8.3426677e-02
 -6.6858329e-02
 -1.3971224e-01
 -5.6327057e-01
 -6.7187853e-02
 -8.6796142e-02
  1.0023083e-02
 -7.6464444e-01
 -2.6711351e-01
  3.5852294e-02
  5.3277624e-01
 -1.0815016e-02
  5.9336782e-03
 -1.6259365e-01
  1.7994973e-01
 -3.6750596e-02
 -5.2427936e-02
  5.2067327e-01
  1.1774611e-02
  2.4046400e-01
  7.2955817e-01
  1.2909568e-02
 -3.3183059e-01
  1.2360203e-01
 -9.4008416e-02
 -5.1857594e-02
  1.3085681e+00
 -3.7714878e-01
  1.6109489e+00
  8.8407898e-01
 -5.1564735e-01
 -3.2092303e-02
 -3.9686865e-01
 -7.2318518e-01
  4.8482522e-02
 -2.9542041e-01
 -7.7260828e-01
 -3.1070462e-01
 -6.2421602e-01
  4.8716363e-01
  1.3744556e+00
  2.1224663e-02
 -1.1107084e-02
  2.8243563e-01
 -1.9844880e-02
 -2.9971333e-02
 -2.7581549e+00
 -2.0721032e-01
 -4.1576150e-01
  1.4105202e-01
 -3.6770397e-01
 -7.5953054e-01
  2.4211925e-02
 -7.5690430e-03
 -5.4930919e-01
 -6.4966440e-02
  1.9833708e-02
 -3.9235860e-02
 -1.5313061e-02
  6.9342308e-02
 -3.7342921e-02
  7.7388495e-02
  3.0877492e-01
  4.9026523e-02
 -4.4326571e-01
 -2.3711920e-02
 -9.0388995e-01
  1.0413905e-02
 -2.0253325e-01
 -3.7726499e-02
 -5.9951419e-01
 -2.9370299e-01
 -8.6774051e-01
 -1.9498023e+00
  7.8381526e-01
  7.6548224e-03
 -3.4379926e-01
 -6.6883862e-03
 -3.7887210e-01
 -4.0259540e-02
  1.0559677e-01
 -1.6453732e-02
 -4.2101886e-02
  4.7814104e-01
  1.7218654e-01
 -3.6462191e-02
  1.1522088e-01
  4.3161236e-02
 -2.8854871e-02
  2.4308264e-02
  1.6915753e-01
  5.3505402e-02
  1.0910026e+00
 -1.7360538e+00
 -6.1195534e-01
 -2.2670324e+00
  8.9031899e-01
  3.6556542e-01
  9.8528397e-01
  1.6952350e+00
  1.7428473e-02
  1.4852146e+00
  2.8929818e-01
 -1.0117195e+00
  1.4444869e+00
  1.0558344e+00
 -9.3212950e-01
  1.0430714e+00
  1.5987602e+00
  7.9241776e-01
 -1.9932806e-01
  2.0576913e-02
 -1.9355783e-01
  1.0564203e+00
 -1.6046480e+00
  5.4369605e-01
  1.2653617e+00
  5.5608082e-01
 -6.0023174e-02
  1.9264076e+00
 -4.3850940e-01
 -1.4816630e-01
 -2.5135309e-01
  9.3592256e-01
  4.6978061e-04
 -5.4409689e-01
  8.4898561e-01
  6.5290135e-01
  5.9988910e-01
  1.5392226e-01
  9.4138706e-01
 -7.2937667e-01
  9.3859267e-01
 -6.5460771e-01
 -1.6688545e-01
  9.4907624e-01
 -4.3941018e-01
  3.9493948e-01
  1.9947918e-01
  1.2124656e-01
 -8.4881067e-02
  3.8146812e-01
 -9.5475519e-01
 -2.3686747e-01
  2.0067614e-01
  1.0962038e-01
  1.1338887e+00
  8.5674534e-03
 -6.9682533e-01
 -1.5842277e+00
 -1.9854805e-01
  1.3887587e-01
 -2.1982290e-02
  1.1278117e-01
 -1.2747000e-02
 -3.8871735e-02
  5.2440438e-02
  9.9699682e-01
  3.0685779e-02
 -7.2813295e-02
 -5.8576431e-02
 -1.2836369e-02
 -4.7382832e-01
  4.0733786e-03
 -4.8911113e-02
  7.6850601e-03
  6.3531096e-03
  2.4745578e-01
  5.3902231e-02
 -2.9214591e-01
 -8.8789456e-02
  1.3765613e-02
  2.6726669e-01
  5.8861583e-02
  4.8846602e-02
  1.8608597e-01
  2.8011525e-02
 -7.0849091e-02
  8.2612252e-03
 -2.5647947e-01
  8.6531304e-02
  1.9253539e-01
 -1.0260082e+00
  1.3572336e-02
 -7.4349594e-01
  9.8316967e-02
 -1.2765798e-01
  1.5476085e-01
 -7.5664118e-02
 -3.9737292e-02
 -1.4095824e-02
 -4.7492210e-02
 -4.8011914e-01
  1.1223914e-01
  5.7783201e-03
 -7.0665726e-03
 -7.3122486e-02
 -7.2665058e-02
 -7.5830266e-02
 -2.3107547e-02
  7.8093112e-02
  1.5897757e-01
  3.7595958e-02
 -3.7566934e-02
  1.0995910e+00
 -2.7308926e-01
 -3.2214344e-01
 -2.3573375e-01
  1.3529491e-01
 -1.6517099e-02
  3.3500306e-02
 -7.1089700e-02
  4.4179943e-01
  1.7315084e-02
 -5.5278908e-03
 -1.8518600e-01
 -6.9152159e-03
  5.0890617e-02
  9.7189091e-02
  8.0076896e-02
  7.4472036e-03
 -7.2990455e-02
 -6.8267174e-02
 -7.0395216e-02
 -1.1872138e+00
  4.8378292e-01
 -8.5032964e-01
 -5.8458783e-02
  1.0128369e+00
 -3.5660142e-01
 -4.7087938e-01
  7.5777024e-02
 -1.4351476e+00
 -1.6346719e+00
  5.3934872e-01
 -1.5060751e-01
  1.4429082e-01
  8.5481006e-01
  9.7248808e-02
 -1.0606835e+00
  3.2317764e-01
 -2.3271978e-01
  6.9217902e-01
 -1.9685342e-03
  9.5139064e-02
  8.4461457e-01
 -2.8186017e-01
 -1.1664812e-01
  5.1607770e-01
 -4.4714445e-01
 -7.2628848e-02
 -1.2475730e+00
 -6.1633652e-01
  8.2233846e-01
 -4.8758835e-02
 -2.9999506e-01
  7.3171878e-01
  1.4979135e-01
 -1.3953298e+00
  5.9157026e-01
 -1.3105309e-01
 -6.6047090e-01
  1.3430096e+00
  1.0973027e+00
  7.8469574e-01
  2.4466423e-02
  2.6375469e-02
 -7.8938377e-01
 -3.6061984e-02
 -1.8436098e-01
 -1.8333303e-02
 -2.3690896e-01
 -2.9219097e-01
  2.0658471e-01
 -1.3600215e-01
  2.0510821e-01
  1.3113943e-01
  1.0506958e-01
  8.3769888e-01
  1.0785812e-02
  1.0596821e-01
  1.2513420e-01
 -5.2569695e-02
 -1.4230838e-01
 -1.3616132e+00
 -7.8776725e-02
  1.2141021e-01
 -3.7091848e-02
 -1.8555772e-01
 -8.2809821e-02
  4.4287747e-01
 -6.4759590e-02
  4.5220402e-01
 -1.0081834e+00
 -9.7525042e-01
  1.6606178e-02
  2.7009425e-01
  7.2822386e-01
 -1.4329743e-01
 -1.0982635e-01
 -1.7424636e-02
 -1.0750148e+00
  6.8119025e-01
  5.6334682e-02
  5.3448122e-02
  2.7719942e-01
  1.2440304e-01
  1.0717232e-02
  2.1352815e-02
  5.9197314e-02
 -6.6599213e-02
  6.1552353e-02
 -2.3020691e-01
 -3.3622243e-02
  9.6247005e-01
 -1.4621359e+00
 -6.0498506e-01
  1.0965732e+00
  1.4491457e+00
 -4.3562379e-01
 -3.8771605e-01
  1.6947377e-01
 -8.4840852e-01
 -7.0799723e-02
  5.3398764e-01
  1.3066721e+00
 -1.1050685e-01
  1.3425271e-02
  1.6139606e-01
 -3.1840563e-02
 -5.5408520e-01
 -2.6619043e-02
  5.4494783e-02
 -1.9159153e-01
 -1.4292492e-01
 -8.1758988e-01
  4.0054780e-01
  2.9512309e-03
  8.2185291e-02
 -2.7624825e-02
  3.6772814e-01
 -2.1174004e-02
 -5.7732737e-01
  8.8274963e-02
 -3.8959098e-01
  2.4376795e-02
  1.0284607e-01
  1.0398689e-01
 -6.2886111e-02
  3.2718286e-01
 -2.0138356e-01
  1.6658507e-01
 -2.5143188e-01
 -9.1565968e-03
  2.2672810e-01
 -1.1952911e-01
  6.0557920e-02
  9.8037133e-03
 -1.5253230e+00
  6.3701564e-01
  2.2481079e-01
  1.1027167e+00
 -1.1706746e+00
 -2.1105378e+00
 -5.0242847e-01
 -1.3315818e-01
 -1.7879368e-01
  1.7395051e-02
  4.5337284e-01
  1.4080408e-01
  2.6502609e-01
 -1.3776755e-01
  1.4962159e-01
 -1.3685929e+00
  5.8683570e-02
 -8.4425688e-02
  2.5366592e-01
  1.7628410e-01
  7.9087652e-02
  2.3993114e-01
 -2.0705581e-01
  8.1234843e-02
  7.0011348e-02
 -7.4475485e-01
  4.6985927e-01
 -4.6553486e-03
  1.4902905e-02
  4.3522865e-02
  1.0497131e+00
 -6.9792859e-02
 -4.7260061e-02
  6.7250812e-01
 -6.8225330e-03
 -3.9412972e-01
 -2.3447569e-01
 -9.7109862e-02
 -1.7210346e-02
 -1.7899128e-02
  1.0806768e-01
  7.0319575e-01
 -6.0973294e-02
 -2.8122522e-02
 -5.8450681e-01
 -2.4802963e-01
 -1.1530105e-02
 -2.7520221e-01
  7.4560988e-01
  1.5558249e-01
 -5.5135868e-02
 -6.8848461e-02
  2.2706224e-01
 -8.6907007e-02
  1.9086644e-02
  5.5288100e-01
 -2.2911748e-02
 -2.4145961e-02
 -1.5690379e+00
  2.1875765e-02
  6.3017658e-03
  2.4407150e-02
  6.6842981e-02
 -4.5218401e-02
 -2.9914469e-02
 -9.4117725e-01
  1.5405406e+00
  9.7870760e-02
  1.0675696e+00
 -1.0648362e-02
 -1.4341812e-01
 -7.4495363e-01
 -4.0855777e-02
 -1.0106930e+00
  4.8300901e-01
  1.2152132e-01
 -6.2954098e-01
 -1.6544070e+00
 -1.1800629e+00
  3.7776094e-02
 -8.2594343e-02
  1.9197415e+00
 -1.4259114e-02
  2.8429206e-02
  1.0313063e-03
  1.9610344e+00
 -9.6533880e-02
  9.0064757e-02
 -1.3863537e-02
 -4.7067781e-03
  1.7526863e+00
  1.0068320e+00
  1.1679584e+00
 -7.3434967e-01
 -5.8434013e-02
  1.2875751e-02
 -3.8526859e-02
  5.0573808e-01
 -2.5937207e-02
  1.8746182e-02
 -1.7734233e-01
 -6.8831718e-01
  8.4876604e-02
 -6.7090251e-02
  7.3296380e-01
  1.3569921e-01
  3.9247520e-02
  1.0950033e-01
  1.0290223e-01
 -8.0703221e-02
 -7.5889334e-02
 -5.3978086e-01
 -2.8923875e-02
  8.7300992e-01
 -2.9291710e-01
  3.3684805e-01
  3.5202291e-02
  2.2249393e-02
 -1.9425476e-01
 -5.8071095e-02
  1.4154020e-01
 -6.3285537e-02
  4.0016837e-02
 -1.1910464e-02
 -2.4112120e-02
  4.7926325e-02
 -1.6184032e-03
  1.3474873e-01
 -2.9352340e-01
  3.8718071e-02
 -8.4402859e-02
  2.2642378e-02
  1.0559454e+00
  7.2448045e-01
 -1.2278700e+00
  1.0687518e-01
 -7.6433754e-01
 -1.2270308e+00
 -3.2419473e-02
 -1.5500057e+00
  1.7015055e-01
  4.7702977e-01
 -1.0515186e+00
  1.0866652e+00
  4.3595931e-01
  1.2231329e-02
 -1.6048783e-01
 -6.8135256e-01
 -1.7376512e-02
 -4.0739346e-02
  4.7765248e-02
 -1.6646490e-02
  5.7899142e-03
 -1.0980763e+00
  4.3028298e-01
  3.1146297e-02
  2.5949714e-01
  6.0098761e-01
  3.6719206e-01
 -2.1056227e-02
  2.7020935e-02
  1.1499149e-01
  5.6827396e-02
 -8.1756793e-02
 -1.9076239e-01
  2.5085768e-01
 -6.7739779e-01
  1.4778952e-02
  2.4394169e-02
 -2.8588161e-01
 -7.3339695e-01
  3.7712518e-02
  1.5965963e-02
  1.2201135e+00
 -1.5402663e-02
  5.4602307e-01
  1.1184852e+00
 -1.8814498e-01
 -5.3505022e-02
  8.1718355e-02
 -4.5085073e-01
 -7.3291361e-02
  4.2647952e-03
 -5.9821960e-02
 -2.0692919e-03
 -4.2601577e-03
 -2.3938933e-02
  2.1481881e-01
  9.3765208e-04
  9.5547047e-03
 -3.4348194e-02
  4.3159403e-02
  1.9457320e-02
  2.4349359e-04
  2.5621189e-02
  6.2455554e-02
  3.5154116e-01
 -6.6010457e-01
 -8.8345009e-01
 -1.6273181e+00
 -7.9408336e-01
  8.6057700e-02
  1.3304232e-01
 -2.1035166e-01
 -9.9266869e-01
  5.0818396e-01
 -1.8967960e+00
 -8.9225608e-01
 -3.5942286e-01
  7.4078298e-01
 -6.2350368e-01
  5.1220816e-01
  2.2224182e-01
  1.8119933e-01
  1.8372945e-02
  1.7452282e-01
  2.5490937e-01
 -2.7853000e-01
 -2.4329804e-01
 -4.6896267e-01
  1.3813000e+00
 -1.0600969e-02
 -1.3793759e-01
  5.4217839e-01
  4.2446613e-02
 -1.3812543e-01
  2.3294460e-02
  6.2173933e-02
  9.9469900e-02
  8.1565283e-02
  1.1104096e-01
 -1.6728386e-03
 -9.6969353e-03
  3.2397208e-01
  1.7976607e+00
  5.7395601e-01
 -1.7591527e-01
 -1.8658622e-01
  5.3391989e-02
  3.5370246e-02
  1.1378075e-02
  4.6784234e-01
 -6.8688333e-01
  3.0205750e-01
  1.1765276e+00
  4.2703611e-01
  2.3825061e-01
  1.1988847e-01
 -1.0678563e-01
  1.8375270e-01
 -1.8808037e-02
 -3.1589542e-02
  1.9797090e-01
 -1.8797642e-01
  3.5728861e-02
 -1.4200605e-02
 -3.9426866e-01
  4.6618380e-02
  9.4041124e-02
  5.8586333e-02
  2.0551187e-01
 -3.4589961e-02
 -2.2565421e-02
 -4.5549697e-03
  3.6657415e-03
 -2.4729560e-01
  2.3346424e-01
  4.8638201e-01
  1.1340242e-02
 -1.4685249e-02
  9.4407320e-02
  4.4794474e-02
 -1.3217565e-02
  6.3086927e-02
 -1.0168900e-05
  7.6648876e-02
  1.1260879e-01
 -3.7076277e-01
  3.6113106e-02
 -3.0499548e-02
  2.3303492e-01
  1.9098599e-01
 -8.8341106e-03
 -4.2191751e-02
  1.9645151e-01
  3.0387724e-02
  7.5767757e-03
 -6.6739060e-02
  1.4224861e+00
  2.3632444e-01
  2.9414849e-02
 -1.3158765e-01
 -2.9045541e-02
  1.3751327e+00
 -1.0581605e-02
 -2.7436640e-02
 -2.1518432e-02
  6.5419756e-02
  3.6257523e-01
  2.4327030e-02
  4.2112645e-02
  4.9035471e-02
 -1.8034451e-02
  1.9713067e-01
 -4.1010067e-02
  1.1065035e-01
  1.0305557e-01
 -4.8265420e-03
  6.3992620e-02
  3.6142517e-02
  3.7377179e-03
 -1.9694567e-01
 -7.4156173e-02
  2.1305999e-01
  5.0962888e-02
  2.1867152e-01
 -6.7158164e-03
 -2.1005066e-02
  3.8827591e-02
 -1.4555188e-02
 -3.3604022e-02
  3.6082327e-02
  1.5728554e-03
 -6.7614037e-01
 -2.4688041e-02
  1.2721312e-01
 -2.8836774e-02
  1.6908223e-02
 -6.9829589e-01
 -4.6504745e-01
  6.4610325e-02
 -6.1395311e-01
 -5.1589417e-01
 -2.3196084e-02
  4.1236609e-02
 -1.7094336e-02
  4.0286508e-01
  6.2025231e-01
  5.3565964e-02
  1.9142850e-01
 -1.2363486e-01
 -3.8207135e-01
 -9.5361941e-02
  4.9728066e-02
  1.9669009e-02
 -6.6847317e-02
  2.2762315e-02
  1.5355696e-01
 -2.5763579e-02
  1.9787459e-01
 -3.4190276e-01
  1.9103885e-01
 -7.7661395e-02
  3.6934871e-02
 -6.9449350e-02
 -3.2647762e-01
 -9.6489564e-02
 -8.2121529e-02
  3.2605469e-02
  1.2135975e+00
  2.9673465e-02
  6.9685347e-02
  2.1095632e-01
 -2.3885558e+00
  1.1930869e-01
  1.2773788e-01
 -1.0044444e-01
  5.7956851e-01
 -4.3521862e-02
 -1.2774744e-02
  7.4614070e-02
  3.6021563e-01
 -3.6327050e-03
  3.0541202e-01
 -4.9973864e-02
  5.4442696e-02
  2.9016218e-01
 -3.9958346e-01
  1.4930309e-01
 -1.1505964e-01
  2.0709795e-01
 -1.5204252e-02
  7.6879598e-02
 -1.5781170e-02
  1.3311680e-01
 -5.9200980e-02
 -1.4371166e-01
 -5.3557917e-03
  7.2288227e-01
 -5.7662901e-02
  7.2802231e-02
 -1.0024687e-01
 -4.6220729e-01
  1.0153964e+00
  4.4007450e-02
  2.3953751e-02
  5.9227265e-02
  4.0439345e-02
  5.6183559e-01
  1.3896401e-02
  4.5980608e-01
  1.1825541e+00
 -7.8664494e-01
  1.1352712e+00
  5.1919323e-01
  5.7248142e-02
  3.3958418e+00
  4.0971953e-01
  5.1713765e-01
  3.0824155e-01
 -1.7392383e+00
 -2.4757005e-01
  1.1556181e-01
  1.1024068e-01
 -5.9449142e-01
 -2.5551120e-02
  3.3802885e-01
  2.9642352e-01
 -1.9880472e+00
  5.8553034e-01
  6.8950915e-01
  8.3911717e-01
 -1.1262062e+00
 -2.1688467e-01
  9.2047229e-02
 -7.7575840e-02
  6.6982880e-02
  3.9063722e-02
 -5.3937626e-01
 -4.3166053e-02
 -1.0642403e-01
  4.5598119e-01
 -2.3596986e-01
 -3.1948340e-01
 -3.2767034e-01
  8.6187802e-02
 -4.6112150e-02
  2.3535603e-01
  1.1203924e-02
 -3.4932268e-01
 -1.6414335e-01
  3.6092442e-03
 -2.6154112e-02
 -1.3643000e-01
 -5.7972543e-02
 -5.8841825e-02
 -2.7305809e-01
  1.3466983e-01
  1.5455418e-02
 -4.2908754e-02
  7.5184025e-02
  7.9907373e-02
  6.2469658e-02
  6.0675126e-01
 -8.4308571e-01
 -9.6593547e-01
 -2.2811973e-02
  1.0098156e-01
 -2.0680282e-02
  1.7201331e-02
 -3.3476450e-02
  3.9026098e-04
 -6.9121299e-03
  4.6085689e-02
  1.6803602e-02
  2.5741771e-02
 -2.8450359e-02
 -1.0931440e-01
  4.0572975e-02
  3.7834406e-02
 -4.3925960e-02
 -1.3296528e-02
 -2.3428172e-02
  1.0100266e-02
 -1.1734077e-01
 -7.7106600e-04
  1.5747983e-02
  1.1737297e-01
 -8.1490129e-02
  1.0992110e+00
 -9.1477092e-03
  5.6439016e-02
  3.0671941e-02
 -2.8519988e-02
 -8.8312952e-03
 -6.8434015e-02
  1.7627648e-01
  3.0776782e-02
  4.2394429e-02
 -1.1768488e-02
 -4.1178029e-02
  2.4014607e-02
  1.7928262e-01
 -6.9103971e-02
  2.9682502e-02
  6.6236280e-02
 -5.4395851e-02
  1.5445770e-01
  1.1392204e-01
 -6.2623620e-02
 -1.6435338e-02
 -1.1787660e-01
  1.2862408e-01
 -7.4414402e-02
  1.1772178e-01
 -3.2008979e-02
 -5.1603772e-02
 -2.5882112e-02
  4.2347629e-02
  2.4849109e-01
  1.1315816e-01
 -8.4633961e-02
 -1.4111900e-01
 -3.2819081e-02
  3.0474231e-02
  2.0728031e-02
  2.4160430e-02
 -2.7101472e-01
 -4.4850014e-02
  4.2728513e-02
  1.6864878e-01
 -1.6863205e-02
  7.4867003e-02
  3.3339097e-03
 -3.4657165e-02
 -7.9796784e-02
 -1.2119194e-02
 -1.1116491e-02
  1.8127209e+00
  1.3272026e+00
 -1.0744220e+00
 -2.0334311e+00
 -3.5862359e-01
 -8.8640219e-01
  1.1465175e+00
  2.6615594e-02
 -5.5574363e-01
 -3.9294118e-01
 -8.1567520e-01
 -6.9021392e-01
  4.3942136e-01
  9.5808899e-01
 -2.4177511e-01
 -3.6880455e-03
  8.0777061e-01
 -4.4576445e-01
  4.5585692e-01
 -2.2016303e-01
  6.4364141e-01
  2.2374497e-01
 -9.4124705e-01
 -4.0764314e-01
 -4.3700218e-02
 -3.3992323e-01
  2.3760316e-01
 -5.8353208e-02
 -2.5001279e-01
 -1.4560052e-02
  1.9346988e-01
 -7.9036224e-01
 -3.7208781e-01
 -8.6135614e-01
  1.4723814e-01
  1.5183209e+00
 -5.7882893e-01
  6.9012916e-01
 -4.9247566e-01
  3.7612206e-01
 -1.2142410e+00
  3.5676089e-01
  1.6543531e+00
  3.6858597e-01
  8.5446423e-01
 -6.2863857e-01
 -1.6378330e+00
  2.9954812e-01
  1.2574090e+00
 -1.0071751e+00
  6.5146106e-01
  5.4151154e-01
  2.0198884e+00
 -2.4552603e+00
  2.5747880e-01
 -2.4955937e-01
 -6.1386049e-01
  7.1041249e-02
 -2.9798784e+00
  4.8072997e-01
  9.0887092e-02
 -5.7240087e-01
 -9.3849111e-01
  4.7095880e-02
 -3.4105349e-02
 -2.7820802e-01
  9.9197787e-01
 -3.0088505e-02
 -2.0444140e-02
 -9.3784317e-02
 -6.0315296e-02
 -9.5400727e-01
  2.9090490e-02
 -2.7164358e-01
 -9.9025108e-02
  7.0680827e-02
 -1.0274689e-01
 -9.3925416e-02
 -2.1585819e-01
  3.1810852e-03
  3.8423935e-01
  5.1655777e-02
 -2.3601386e-03
  3.5031340e-01
  1.3316016e-01
  6.8503374e-01
  7.0199782e-01
  7.8605093e-02
 -4.6260363e-01
 -8.8512111e-01
 -5.2313980e-02
 -2.4154494e-02
 -1.7928731e-01
  1.6765697e+00
 -5.1537603e-01
 -1.4260779e-02
  3.6515169e-02
  3.5008120e-03
 -1.6548306e+00
 -8.6411638e-03
 -9.6134476e-02
  1.3217376e-01
  2.1352317e-02
 -4.4978800e-01
 -9.8774105e-01
  7.3932316e-03
  6.8921134e-02
 -1.4458536e-01
 -3.0253997e-01
 -3.0588430e-01
 -5.6172395e-01
  6.0133630e-01
 -9.2807484e-01
 -5.1417127e-02
  3.7044961e-02
  8.5625716e-02
 -8.9606488e-01
  2.6268268e-01
  6.1689977e-02
  3.4035798e-02
 -4.2367693e-02
 -1.8413088e+00
  6.0405150e-02
 -1.3590711e-01
  1.8872734e-02
 -7.2298092e-01
 -1.2250233e-01
  1.2100606e-01
 -1.0950261e-01
  6.7230290e-01
 -2.3335440e-01
  1.0053246e-01
 -1.0241043e-02
  2.5557590e-01
 -1.1734314e+00
  1.7198432e-02
 -3.9754231e-03
 -3.7236389e-02
  7.3285210e-01
  8.8551629e-01
  5.4931439e-02
 -5.8028083e-02
 -2.0175631e-01
 -3.4544063e-01
  4.5454819e-02
  3.7567246e-01
  3.9565587e-01
  1.9502814e-01
 -9.4558513e-01
 -2.2354501e-01
 -6.9173969e-02
 -5.1891720e-01
 -1.4890426e+00
 -7.2718337e-03
  2.0121945e-01
  8.3611488e-01
  2.4827333e-01
 -3.5021141e-01
  9.0908043e-02
 -1.0278003e-02
  2.2616947e-02
  1.9615734e-01
  5.3100088e-03
 -2.1242103e-01
 -4.4882536e-01
  6.2634480e-01
  4.9601117e-01
  4.6639513e-02
 -5.6967582e-03
  3.1857139e-03
  3.6601383e-02
 -7.3197705e-01
 -5.2221818e-03
 -1.3384363e-02
  3.9406035e-02
  8.0410534e-01
  1.5451996e-01
 -7.0258915e-01
 -5.5761747e-02
  5.5844235e-01
 -1.8056884e-02
 -1.1817348e+00
